3000 128
<pad> 0.011953 -0.782665 -0.489100 -0.462857 0.384315 -0.468807 0.151341 -0.490990 1.131879 1.478820 0.263533 -0.059012 0.949866 0.075973 -0.001046 0.026390 0.961033 0.888601 1.210540 1.137862 0.730457 -2.117949 0.089498 1.469540 -1.237596 0.588692 1.067617 0.746100 0.823424 -0.807867 0.125677 -0.532412 0.045333 0.470478 0.355217 -0.112020 -0.430724 -0.960180 0.176790 -0.727692 0.561238 1.054384 -1.817920 0.089107 -1.069876 -0.414776 0.686959 0.896274 0.357926 -1.368010 1.022726 0.389413 0.812432 -0.784563 0.750326 -0.761947 -1.577226 -1.141299 0.837925 0.691599 -0.649978 1.364335 0.097417 -0.364752 -1.010730 0.538829 -0.012835 -0.713134 -1.452710 0.180873 -0.494794 -0.271426 -1.704904 0.069814 -0.161359 -0.443485 -0.223822 -0.307551 0.960573 1.523130 -0.656374 -0.233785 -0.284584 0.228407 0.843701 -0.567824 0.572009 -0.165170 0.121989 -1.549423 -1.632751 -0.472511 -1.038520 0.219731 0.682210 1.024667 1.461508 -0.081798 -0.332092 -0.532583 0.563189 0.851082 1.247111 0.126874 -0.838806 -0.676117 0.162423 0.428879 1.380026 -0.171762 1.374185 -1.330708 -1.928759 0.980659 -0.808703 2.327739 -0.389732 0.414173 -0.095336 -1.035871 1.003037 0.979792 -0.337966 -0.937605 -0.403611 -0.345640 -0.903816 0.111847
<start> 0.122837 -0.099764 -0.014658 0.225857 0.094353 0.030659 -0.125317 0.031484 0.054294 0.002232 0.370314 0.126327 -0.165231 -0.010377 -0.310926 0.112972 0.511349 -0.129533 -0.025099 0.037585 0.373731 0.094614 -0.070328 -0.013583 -0.141767 0.275620 0.147235 0.003220 0.410272 0.208869 0.363806 0.707297 -0.607741 -0.258170 0.071829 -0.260961 -0.245365 -0.340019 -0.341253 -0.157531 -0.483776 0.429412 -0.111665 -0.050809 0.812435 -0.091530 -0.132929 -1.337875 0.292036 -0.220418 -0.094905 2.203051 -0.069621 0.026053 0.430990 0.139855 0.398967 -0.129947 -0.041164 0.021203 0.006480 -1.276293 0.068296 -0.319738 0.078908 -0.362578 -0.433288 0.227732 0.165605 1.370629 -0.041810 0.017819 0.104699 -0.050653 0.383316 0.033562 -0.154561 0.323906 -0.130137 1.156105 0.334616 0.512821 0.620455 -0.357750 -0.083543 -0.844790 -0.033806 -0.133350 0.128316 0.000616 -0.184495 1.051218 0.436956 -0.175797 -0.032482 -0.028849 -0.237998 -0.086767 0.153046 0.493322 -0.194846 -0.576869 -0.073877 -0.113956 0.006554 0.010546 0.029858 -0.573923 -0.308522 -0.274789 -0.699733 0.141776 0.200067 -0.501383 0.247218 -0.028476 -0.092770 -0.022893 -0.370405 0.207723 0.261182 0.046334 -0.200665 0.925356 -0.308948 -0.065485 -0.122501 0.167927
<end> 0.030765 -0.504384 0.514127 0.350219 -0.384139 -0.241201 0.027257 -0.384380 -0.536992 -0.012982 0.279567 -0.178381 -0.102720 0.026953 -0.027493 -0.060870 -0.002282 0.077867 0.090231 0.086927 -0.334521 -0.368659 -0.122338 -0.309620 0.152448 0.210889 1.827608 -0.701323 -0.436052 0.003504 0.049643 0.174164 -0.169585 -0.003892 -0.299875 -0.366868 -0.214359 -0.159722 -0.038794 0.079265 -0.031572 0.508426 -0.183868 0.090746 0.720903 -0.351223 -0.229312 0.049718 -0.170588 -0.522099 -0.174308 -0.813289 0.378026 -0.201356 0.301873 0.054967 0.097836 -0.387012 -0.021198 -0.350306 -0.163191 -0.694593 -0.069312 0.688272 0.015324 0.244982 1.067768 0.088263 0.396312 0.150028 -0.543537 0.601299 -0.440224 0.112866 0.044614 0.099726 -0.784206 -0.014359 0.357350 -0.274506 0.115220 -0.498087 0.026794 0.263479 0.949275 0.064177 -0.114655 0.065779 -0.125853 0.410534 -0.126715 -0.415200 -0.050149 0.279231 -0.061716 -0.469725 -0.511798 0.013238 -0.521872 0.214213 -0.245651 0.569118 0.059471 -0.063915 -0.042123 -0.045011 -0.029835 -0.004380 0.006879 -0.154350 -0.049555 -0.021245 0.080332 0.417988 0.741519 -0.006919 -0.074668 0.162750 -0.293520 0.298048 0.311595 0.045270 0.050743 0.497243 0.232270 -0.036051 -0.066403 -0.083144
<unk> 0.203806 0.084546 -0.186514 0.071903 -0.165196 0.190846 -0.212248 0.207668 0.099490 0.147417 -0.079928 -0.151661 -0.128455 0.110544 -0.142583 -0.219993 -0.206182 -0.161434 0.201561 0.153339 -0.005506 -0.251233 -0.069875 0.233609 -0.110582 -0.085852 0.474972 -0.420400 0.125644 -0.028727 -0.130935 -0.272683 -0.060782 0.138250 -0.069491 -0.056987 -0.261050 0.022339 -0.154960 0.001257 -0.197057 -0.186698 -0.159457 -0.174246 -0.116735 0.049854 1.300240 0.126154 -0.038654 -0.062058 0.162278 0.757088 0.058732 -0.063980 0.142381 -0.093899 0.188062 -0.059121 0.077068 -0.276563 0.288541 -0.723864 0.070797 -0.223741 0.258606 0.207971 -0.160743 -0.119674 0.595235 -0.014539 0.551122 0.007923 1.329878 0.115350 0.178410 0.163943 -0.076791 -0.275550 -0.037244 -0.650131 -0.200020 0.007833 -0.105196 0.190290 -0.088542 0.033359 0.104533 -0.032412 -0.226661 0.055906 0.167032 -0.110868 0.152774 -0.128186 0.199842 -0.031761 0.165924 -0.012299 0.307533 -0.182205 0.158968 -0.036105 0.317970 0.258680 0.168621 0.007024 -0.006430 0.009847 -0.074899 -0.064770 0.194292 -0.115627 -0.187555 -0.162279 -0.014518 -0.064718 -0.055244 0.086735 0.010240 0.201822 0.199656 0.012458 0.073217 0.100876 -0.196063 0.211414 0.111102 0.283489
the -0.020731 -0.313581 0.101678 0.269015 0.077807 -0.058566 0.061015 -0.185407 0.230169 0.022382 -0.135092 0.179594 -0.270353 -0.081695 0.455339 -0.305031 0.334863 -0.162502 -0.212117 -0.193048 -0.062522 -0.179962 -0.093439 -0.273779 0.123674 0.065095 -0.204197 -0.025949 -0.182953 0.316480 0.002139 0.656659 -0.099260 0.035510 -0.133965 -0.025723 0.046363 -0.187263 -0.248606 -0.045706 0.328662 0.043865 -0.274601 0.019822 -0.156658 -0.243828 1.919117 -0.348935 0.128448 0.027937 -0.496436 -1.049109 -0.114104 -0.183047 0.027840 0.095613 0.302502 0.135836 0.030217 0.133918 0.257848 0.450109 0.205497 0.440760 -0.205119 0.199233 0.091380 0.085759 -0.356275 -0.145075 -0.330501 0.076313 -0.229125 -0.388108 -0.019647 -0.061629 0.010779 -0.033724 -0.068205 -0.407291 0.293434 0.378400 0.286098 0.223367 0.485611 0.142694 0.214861 0.155699 0.082862 0.406065 0.054809 -0.437217 0.092848 -0.238478 0.499544 0.189258 -0.745993 0.259976 -0.417252 -0.003296 -0.103157 -0.186622 -0.123996 -0.033728 0.099194 -0.206128 -0.011633 0.080633 0.398634 0.066428 1.184253 -0.205673 0.176449 -0.823526 0.334024 0.057447 0.133189 -0.083078 0.190822 0.115372 0.398016 0.108802 0.019796 0.333766 0.009531 -0.209930 -0.213172 -0.253103
and 0.084312 -0.052888 0.171188 0.176662 0.099470 -0.000787 -0.094105 0.281818 0.118472 -0.204811 0.748202 -0.114586 0.070506 -0.045908 0.053965 -0.049919 0.293172 0.343485 0.051470 0.380284 -0.028984 0.365156 -0.008721 0.312332 -0.036901 0.312885 0.594889 -0.408672 0.184173 0.348886 0.134881 0.302539 -0.177068 -0.085013 -0.248283 -0.135981 -0.387706 0.011226 -0.046514 -0.401134 -0.220085 0.062893 0.435301 0.144314 0.171761 0.452200 0.071429 -0.054145 -0.435907 -0.033645 0.356134 -0.167033 -0.342803 -0.008748 0.235470 -0.386344 -0.139139 -0.146523 -0.034369 -0.210308 0.096036 -1.120579 -0.059346 0.147781 0.090983 0.079621 0.737837 0.045205 -0.387999 0.258716 -0.171083 0.373257 -0.166649 0.065874 -0.042536 0.133218 -0.292420 0.264069 -0.121936 -0.209446 -0.591715 -0.547031 0.303249 0.067282 -0.148279 -0.435365 0.111030 0.058656 -0.139766 0.455240 -0.232630 0.005680 -0.103694 -0.065972 0.304679 0.085873 0.090658 0.164573 -0.068489 0.399117 0.453842 0.108372 -0.169324 0.000930 -0.045182 0.360733 0.360530 -0.264723 0.152286 0.042121 -0.270586 0.312616 -0.264995 -0.247906 0.071082 -0.172831 -0.485849 0.182209 -0.138184 0.421999 0.168812 0.422930 0.333612 0.361440 0.127041 0.223313 -0.236755 0.036680
of -0.033146 0.232366 -0.008841 0.198647 0.102179 -0.568938 -0.238444 0.526178 0.314063 -0.195783 0.200244 -0.120347 0.351036 0.229816 0.368574 0.090354 -0.055101 -0.114272 0.516048 -0.120186 0.102090 0.307683 -0.045289 0.033738 0.009266 0.019229 -0.310748 -0.457214 -0.192888 -0.206065 0.133247 0.242442 -0.053838 -0.296090 -0.348474 -0.305927 -0.172127 0.289989 -0.057757 0.112073 0.057993 0.466744 0.234551 -0.350286 0.584454 -0.108364 -0.808046 0.282125 0.014392 0.079983 0.328564 0.545295 -0.220101 -0.424793 -0.092970 -0.006679 -0.149710 0.400018 -0.163340 0.243474 0.012710 -1.743670 -0.490947 0.045314 0.215207 0.163846 -0.294628 0.115194 -0.866330 -0.388938 -0.355063 -0.106684 0.324997 0.163473 0.437216 -0.001680 -0.095258 0.458188 -0.189043 0.239368 -0.041505 -0.174372 -0.198597 0.179135 0.927725 0.110014 -0.127725 0.093259 0.228336 -0.147227 -0.438093 -0.560545 -0.315763 0.101978 0.038275 -0.092607 -0.172830 -0.055294 0.114520 -0.906735 -0.290929 -0.323132 0.674278 -0.025077 0.253941 -0.395491 0.169745 -0.084697 -0.475031 -0.005648 0.299721 -0.208258 0.299334 -0.192777 0.516863 -0.092553 -0.066028 -0.001006 0.061847 -1.002606 0.054896 -0.227471 -0.213499 -0.073639 0.108888 -0.154540 -0.085506 -0.004194
to -0.328578 -0.077614 0.116653 0.368495 -0.272576 0.088996 -0.249681 0.610830 0.382155 0.703133 0.335838 -0.023033 0.095164 -0.369637 0.326602 0.991273 -0.142515 -0.546114 0.754325 -0.150297 -0.234070 0.687691 0.165000 0.147159 -0.379910 0.600494 0.087286 -0.397272 -0.803530 -0.003039 -0.043506 -0.074137 0.064286 0.345506 0.144235 0.042124 -0.290608 -0.323580 -0.391807 0.158647 0.285469 0.233077 0.543872 -0.087340 -0.063195 0.371157 -0.795341 -0.346501 0.020377 -0.278690 0.694596 0.520913 -0.150355 -0.075699 0.042907 0.187905 -0.207780 0.438023 0.155702 0.314172 -0.043867 -0.618360 0.245687 -0.182548 -0.370228 0.848275 0.198924 -0.165861 -0.619248 0.792216 -0.440560 -0.076283 0.406044 0.045678 -0.283631 -0.209414 0.081055 0.247263 0.278667 -0.248061 0.131880 0.014428 0.446170 -0.158695 0.705878 0.036940 -0.126672 0.044928 0.179870 -0.010166 0.177635 -0.714957 0.323653 0.084156 0.121938 0.021774 0.339194 0.193414 -0.272155 -0.147282 0.002848 0.208134 0.236822 0.166782 0.319325 -0.236288 -0.187918 0.272293 0.016445 -0.278487 -0.035112 0.309609 0.018408 0.493335 -0.592330 -0.123190 0.200835 -0.144541 0.338305 -0.479637 -0.068901 0.400619 0.227727 -0.248912 -0.300586 -0.010143 0.071152 0.163699
a -0.134136 -0.403646 0.024676 -0.370286 -0.093765 -0.156969 0.098814 -0.124839 -0.689124 -0.194583 0.061072 0.077660 0.164014 0.099285 -0.221397 -0.248363 0.180114 0.143231 0.006203 -0.206665 0.258833 -0.443231 0.056059 -0.367160 -0.269165 0.216271 -0.338422 0.125251 -0.492463 -0.222243 -0.198539 0.290893 -0.179243 -0.227784 0.223019 -0.081352 0.008644 -0.549244 -0.333938 -0.063210 -0.124338 -0.227547 -0.559137 -0.020449 -1.453583 0.066615 1.525822 -0.075913 -0.032668 -0.007138 -0.465012 -0.952033 0.215316 0.151359 -0.279394 -0.087162 0.125109 0.225449 0.062019 0.460735 0.118369 -0.729746 0.121501 0.247560 -0.345626 0.936020 -0.376641 0.181524 -0.560324 -0.582086 -0.467987 -0.153927 -0.050388 -0.455133 -0.033433 0.328354 0.058431 -0.083586 0.079327 -0.239795 0.332835 0.209654 0.186087 -0.323642 1.078925 0.006009 -0.229873 0.159412 -0.069524 0.161853 0.821878 0.481907 -0.203524 -0.055767 -0.122991 0.030895 -0.114852 -0.191513 -0.570065 -0.033959 0.067612 0.009533 -0.092228 -0.243933 0.091976 -0.070164 0.261855 0.047453 0.292937 -0.133442 -0.257384 0.233370 0.120106 -0.861872 0.085674 0.226151 -0.110308 0.166682 -0.099401 0.035946 0.531134 0.111101 -0.135417 0.463380 -0.133165 0.114552 0.115887 0.037297
in -0.859223 0.136736 0.516186 0.564717 -0.410228 -0.162967 -0.483867 -0.306983 0.124276 0.725267 0.218985 0.073755 0.040406 0.177637 0.071547 0.421812 0.699643 -0.130734 0.123440 -0.206804 -0.013741 -0.274938 0.226905 0.098063 0.438338 -0.246405 -0.219141 -0.975414 -0.604449 -0.028992 0.016665 -0.035291 -0.060746 0.327408 0.210886 0.378097 -0.082446 -0.133239 0.102997 -0.447881 1.408589 0.358951 0.584983 0.584062 0.178945 -0.175992 0.131349 0.077894 0.316716 0.244929 0.607596 0.244124 -0.266632 -0.214719 0.420304 0.498781 -0.005454 0.472797 -0.186577 0.190113 -0.144164 -0.980329 0.096782 0.251069 0.028412 -0.041756 0.057682 0.636294 -0.212990 -0.003032 -0.589942 -0.707874 0.803976 0.383661 -0.282133 0.008436 -0.121744 -0.158738 -0.130911 0.572128 -0.325290 -0.572234 0.125270 -0.301142 0.289443 0.154749 -0.179984 0.298181 -0.119759 -0.105275 0.180627 0.031679 0.455507 -0.235916 -0.088675 -0.111665 0.375613 -0.041338 -0.161351 -0.217354 0.050571 0.011729 0.458688 0.047013 0.187099 0.077472 0.180812 0.017098 0.032873 0.491780 -0.138945 0.202027 0.116380 -0.042132 -0.018772 0.033554 0.356550 -0.102304 0.285924 -0.659503 0.021383 0.181330 0.204290 0.807918 0.116178 -0.263789 0.243078 0.558096
i 0.111018 -0.519319 -0.363774 -0.038052 0.320496 -0.105235 -0.633184 -0.177325 0.242746 -0.211821 0.104883 -0.085959 0.224806 0.181531 -0.091783 -0.146859 -0.068678 -0.426618 -0.578886 0.397952 -0.400542 0.902624 0.129655 0.365982 0.159602 -0.000938 0.440038 -0.831994 0.207850 0.116291 0.195758 -0.103138 0.010460 0.011892 0.150693 -0.365295 -0.144261 0.063975 -0.257656 0.308344 -0.442039 0.267608 0.290381 0.162980 -0.031767 -0.119817 0.372506 -0.063911 0.538452 0.842615 0.361164 -0.761814 -0.135377 -0.302253 -0.087276 0.006202 0.471504 -0.076653 -0.127817 0.169653 -0.294707 -0.193791 -0.536994 0.105120 -0.001125 -0.171381 0.253479 -0.205222 0.258247 1.203063 0.651938 0.030501 -1.143637 -0.567504 -0.151599 0.217921 0.507615 -0.035481 -0.439844 -0.312575 0.108326 0.114492 -0.427653 0.131131 0.483497 0.194252 -0.247198 -0.043778 0.160077 0.232974 -0.329143 -0.021871 -0.368385 0.236706 0.084912 -0.544077 1.394326 -0.060167 0.155798 -0.971712 0.332805 -0.214492 -0.567909 0.431298 0.263854 0.894552 0.015184 -0.342408 0.897255 -0.181037 -0.232169 0.551832 -0.147402 -0.381395 -0.033392 0.522363 -0.288279 -0.289915 0.272475 0.079514 -0.268890 0.194357 -0.050640 0.293463 -0.266627 -0.089484 0.069192 0.561430
he -0.088772 -0.055399 -0.029004 -0.370382 0.031871 -0.127741 -0.328709 -0.602893 -0.062285 -0.267832 -0.118032 -0.420540 0.341834 0.084324 -0.112311 0.020066 -0.414141 -0.170894 -0.093469 0.362696 -0.085338 0.501686 0.362629 0.317871 -0.139827 -0.296100 -0.168487 -0.246323 -0.140704 0.038859 0.212688 -0.003243 0.276281 -0.279486 0.066986 -0.204834 -0.029704 0.021988 0.238613 0.272948 -0.195444 0.266641 -0.379842 -0.109812 -0.032467 -0.362595 0.617216 0.161966 0.208421 1.033751 -0.090687 -0.607436 -0.099762 0.131340 -0.050298 -0.029584 0.694273 -0.538918 -0.039323 0.083301 -0.483813 -1.179854 0.115738 0.313552 -0.051540 -0.694214 0.232102 -0.018972 0.739058 1.502003 -0.468635 0.200603 -0.553614 0.328553 -0.475386 -0.137375 0.321462 0.606126 0.015269 -0.535625 -0.026379 0.094509 -0.033965 0.298637 -0.239643 0.208237 -0.333309 -0.186214 0.465675 0.116687 -0.725944 -0.639822 0.064363 0.161769 -0.322050 -0.345763 0.514948 0.059452 0.040472 -0.329204 0.703572 0.281960 -0.457426 0.037299 0.937517 0.258394 -0.305796 -0.038157 0.096432 0.240877 -0.104229 0.897574 -0.688449 -0.532977 -0.336193 0.170278 -0.192850 -0.018853 -0.003527 -0.226260 -0.486885 0.477112 -0.095444 0.263352 -0.340621 -0.259357 0.278574 -0.443824
that 0.114402 0.050325 0.536092 -0.156702 -0.073257 0.027199 0.269632 0.468253 0.249336 -0.261478 -0.564138 -0.099407 0.086025 -0.088996 0.696716 0.156991 0.119686 -0.277139 0.100573 0.365250 -0.256908 -0.035315 0.070054 -0.398965 0.676795 0.033299 0.038288 -0.148266 0.171797 0.128976 0.097920 -0.021664 0.102095 -0.087756 -0.282701 0.017756 0.179722 0.407714 0.426639 -0.300651 0.184801 -0.203791 0.038683 0.082335 -0.535813 0.142196 0.697366 0.264457 0.364246 0.530933 -0.186750 0.541378 0.298050 -0.011146 0.054534 -0.307549 0.393889 -0.238009 0.397930 0.039831 -0.118813 -0.871934 0.142872 0.037550 0.157458 -0.277118 0.040098 -0.347806 -0.550940 0.744347 -0.117979 0.062879 -0.175109 0.630141 0.686572 0.068315 -0.389694 -0.097969 -0.125668 0.281034 0.327713 -0.240929 -0.046562 -0.111672 -0.240210 0.386684 -0.634431 0.148459 -0.020180 0.450060 0.153422 -0.112941 0.513940 -0.124635 -0.152738 0.334399 0.329745 0.334766 -0.548829 -0.137102 -0.509044 0.255552 0.151567 0.029115 0.538399 -0.252441 0.301359 -0.379769 -0.037768 -0.120114 -0.253310 -0.225081 -0.102109 -0.111428 0.012397 0.748276 0.113376 0.239756 -0.016427 0.328684 0.287139 0.003720 -0.084294 0.516939 -0.597628 -0.020893 -0.131582 0.417075
his 0.465093 -0.624891 0.196593 -0.656664 0.153097 -0.284320 -0.229050 -0.423226 -0.316961 -0.041119 -0.332388 0.181106 0.206411 0.382046 0.587031 -0.039612 0.043696 0.266373 0.433076 -0.215555 -0.071509 -0.728493 -0.045126 -0.259413 0.823792 0.556194 -0.560826 -0.145575 0.638631 0.132739 0.402344 -0.027624 -0.128892 0.232035 -0.649339 -0.097074 0.157063 0.040464 0.636125 -0.499116 0.185011 -0.186466 0.847743 -0.126218 -0.580483 -0.802553 0.535006 -0.193324 0.749684 0.257058 -0.467001 -1.451280 0.083225 0.139719 0.083806 -0.028940 -0.197751 0.365900 -0.245981 -0.288141 0.737547 0.533832 -0.095207 0.523103 -0.291219 0.584782 0.097210 -0.534066 -0.313152 0.392887 -0.536651 0.264328 -0.189113 -0.097828 0.536817 0.166446 -0.411417 -0.182838 -0.216139 -0.184493 -0.129080 0.291189 0.511819 0.031842 0.598014 0.078563 0.514414 0.091151 0.059046 0.073827 -0.236036 0.118437 0.159687 -0.134218 0.597367 0.590885 -0.490654 -0.038966 -0.376650 0.627685 -0.212351 0.044164 0.123785 0.556096 0.517021 0.192843 0.157121 0.846811 -0.335339 0.106949 0.777863 0.030215 0.089392 -1.162803 0.653718 0.184012 0.449284 -0.077698 -0.389039 -0.465481 0.658700 0.264428 0.054523 -0.099817 0.756398 0.129055 0.061526 -0.192906
was -0.304378 1.243444 0.230845 -0.364567 -0.654823 -0.102912 0.395417 -0.335452 0.153773 -0.642158 0.515057 0.056150 -0.032237 -0.206260 -0.128441 0.121839 1.696484 0.261506 -0.311938 0.432766 -0.309393 -0.268621 -0.060277 0.272917 -0.128245 -0.127522 1.249985 0.656007 -0.169263 0.131030 -0.387128 0.194196 -0.115770 0.074888 -0.131047 0.457014 0.230067 -0.089685 -0.244828 -0.115042 0.621275 0.261222 0.205446 -0.109480 -0.492463 0.200290 -0.315993 1.171110 0.166891 -0.006900 0.426762 0.338950 0.093308 -0.025657 0.268684 -0.299723 0.042811 -0.226735 0.424517 0.142205 -0.907611 -0.197295 0.667109 0.103448 -0.312850 0.303468 -0.479986 -0.379464 0.099055 0.222053 -0.151953 -0.080292 0.143241 0.432371 0.468708 0.074831 -0.169910 0.001672 -0.166575 0.307060 -0.559276 0.332669 -0.555309 0.068712 -0.282712 0.469111 0.043178 0.606802 -0.017244 -0.806632 -0.255290 -0.564971 0.005091 0.604449 0.237903 -0.321895 0.217097 -0.647888 -0.113508 -0.098524 -0.140170 -0.146304 0.219328 0.186481 0.088519 1.193591 0.208100 0.080666 0.567906 -0.075206 -0.489701 0.069092 -0.226001 -0.938530 0.192332 -0.315039 0.021067 0.081791 -0.829133 0.151443 0.201170 -0.493614 -0.338154 -0.150755 0.295862 0.139151 0.220200 -0.044654
it 0.602963 -0.166273 0.148188 -0.223897 -0.518399 0.348150 0.723791 -0.139310 0.011591 0.023881 -0.274515 -0.117386 -0.016755 -0.187001 -0.036436 -0.211950 -0.505823 -0.284332 0.600986 0.372216 0.052732 -0.730719 0.277359 -0.046976 0.364675 -0.285087 -0.523571 0.167287 0.042291 0.183534 0.035039 0.344837 -0.075381 -0.688090 -0.008176 -0.393598 -0.051421 0.051987 0.082191 -0.284907 0.168818 -0.365205 0.303624 -0.185892 0.105059 0.195370 1.155646 0.218371 -0.406123 0.530432 -0.502256 -0.705567 -0.355592 -0.038325 0.372200 -0.060708 -0.010790 0.263084 -0.086761 -0.056791 -0.498216 -0.304581 -0.291023 -0.226436 -0.963223 -0.146475 0.481388 -0.200743 -0.361521 1.702351 -0.603743 -0.130114 0.610335 0.143973 -0.280178 -0.448667 -0.237207 0.021419 0.067147 -0.120680 -0.224486 0.240632 0.587357 0.370667 -0.122432 0.100003 -0.457419 0.277481 -0.012827 -0.292079 -0.394537 0.272242 0.078039 0.733671 -0.205418 0.582857 -0.115914 -0.350316 0.191842 -0.430069 0.342434 -0.515987 0.829625 -0.166515 0.149141 0.551574 0.338645 -0.094503 -0.014689 -0.122684 0.135690 0.032727 -0.815766 -0.130611 -0.445543 -0.145853 0.375878 0.354964 -0.107880 0.428797 -0.115383 0.373668 0.309246 0.610169 -0.361785 0.494702 0.314920 -0.442129
you -0.614744 -0.140131 -0.184765 0.223624 -0.336229 -0.801524 -0.463245 0.393982 0.016958 -0.138015 -0.168613 -0.087465 0.389825 -0.490776 -0.113686 -0.374170 0.026205 -0.194000 0.194943 0.179748 -0.262112 -0.738714 0.033055 0.261293 0.046435 0.683733 0.364868 0.108584 -0.187765 0.677637 0.802624 0.411936 -0.019263 0.472083 -0.179929 -0.346914 -0.060155 -0.369958 0.317665 0.202816 -0.060756 -0.714067 -0.096675 -0.443508 -0.173271 0.425394 0.803900 -0.425876 -0.213364 -0.352821 0.911173 -0.684570 -0.445669 -0.620188 0.167906 0.356671 0.605730 0.087451 -0.494265 -0.198745 0.039101 0.820561 -0.562996 -0.452698 -0.701289 0.121021 0.238985 -0.109209 -0.490597 1.270758 0.682114 -0.411854 -0.263010 0.421645 -0.208614 0.253247 0.082675 0.058301 -0.008338 -0.015290 0.482671 -0.319949 -0.015210 -0.419137 0.552820 -0.178410 0.064113 -0.158137 0.239035 -0.088288 0.107264 0.677914 0.106794 1.272650 0.138391 -0.379418 1.341377 0.142253 0.679101 -0.134731 -0.142452 -0.348991 -0.335984 0.203367 0.256247 -0.096550 0.584029 -0.806605 -0.166674 -0.516813 -0.145463 -0.259607 -0.172329 -0.417603 0.272536 0.424839 0.534059 -0.196374 0.269811 0.208289 -0.125999 0.270453 0.239957 0.616709 -0.132007 0.752698 0.386045 -0.113954
with -0.312973 -0.298094 0.129386 0.327497 -0.393775 -0.259134 -0.246817 0.099963 0.074761 0.143655 0.401807 -0.248297 0.549512 0.202264 0.460115 0.562111 0.629146 0.079215 0.528065 -0.432633 -0.173480 -0.458002 0.163756 0.039248 0.365898 -0.355461 0.170845 -1.015276 -0.649651 0.152624 -0.134676 0.687717 0.307576 0.526256 0.100324 0.353488 -0.414531 -0.331377 0.355230 -0.114024 1.037976 0.080381 -0.189882 -0.524653 0.073435 0.290509 -0.317288 0.059108 0.427718 0.081863 0.805070 -0.079293 -0.262521 -0.053915 0.035150 -0.270626 -0.112236 -0.138608 -0.110872 0.418024 -0.560878 -1.300902 0.499199 0.276180 -0.075073 -0.022009 0.331653 -0.118669 -0.055611 -0.005084 -0.257527 -0.008060 0.647173 0.023899 -0.336968 0.800591 -0.254802 -0.078698 0.428305 0.468951 -0.300086 -0.525397 -0.009726 -0.594081 0.208012 -0.045096 0.079873 -0.274609 -0.180771 -0.484562 0.451986 -0.303090 0.180631 -0.094416 0.576515 0.320856 0.248711 0.535982 -0.543368 0.492906 -0.012529 0.084128 0.945625 0.275899 -1.002037 -0.059253 0.518034 0.355568 0.171627 0.479063 -0.672959 -0.152288 0.517111 0.406230 0.762373 0.151450 0.328025 -0.003706 0.683350 -0.796049 -0.257152 -0.658101 1.087805 0.216877 -0.378199 -0.256707 0.465281 0.224764
is -0.325909 1.296771 -0.054084 -0.182918 -0.667605 -0.188697 0.203244 -0.120627 0.310227 -0.452792 0.350185 -0.052328 0.192061 -0.238875 -0.165772 -0.251391 1.632348 -0.176537 -0.840159 0.334365 -0.279379 0.005579 -0.020116 0.643645 -0.486644 0.186447 0.793719 0.759391 -0.152361 0.104497 -0.328018 0.224675 -0.061330 -0.254103 0.259752 0.244670 0.147906 -0.375984 -0.430048 -0.224631 1.063843 0.791216 0.412442 0.106553 -0.311089 0.192893 -0.299455 1.529643 -0.037848 -0.083064 0.030533 -0.225289 0.007308 0.091452 0.443635 -0.275904 -0.165822 -0.134278 0.198078 -0.133610 -0.989945 -0.218716 0.512908 -0.436628 0.229867 0.268709 -0.850642 -0.267803 0.146930 0.111037 -0.328297 -0.143008 0.580871 0.434566 0.443201 -0.049268 0.055437 0.077157 -0.012238 0.455779 -0.324543 0.233022 -0.691084 -0.404511 -0.107229 0.440832 -0.124403 0.742904 0.119685 -0.406697 -0.459321 -0.495356 -0.148203 0.618500 0.071290 -0.623139 0.597826 -0.759508 0.013630 0.224711 -0.209504 -0.320683 0.334399 0.155321 0.155997 1.453341 0.061886 -0.181740 0.527642 0.031021 -0.487430 0.008841 -0.241316 -1.060128 -0.054702 -0.325247 -0.092952 0.286105 -0.617665 0.346077 -0.000109 -0.395750 0.228094 -0.047666 -0.021492 0.169254 0.378057 -0.167636
as -0.053814 0.664987 0.257706 0.517661 -0.197628 -0.123555 0.372558 -0.370636 0.085441 -0.171671 0.505125 -0.355928 0.435014 0.446296 0.251335 0.563497 0.623504 -0.125041 0.405139 -0.069269 -0.062057 -0.182380 -0.315504 -0.617807 0.281079 -0.181643 -0.008061 -0.203152 -0.138739 0.707078 -0.017671 0.186121 0.120267 -0.512677 -0.106481 -0.342721 0.488180 0.366040 0.333729 0.136323 0.476893 0.380365 0.356502 -0.981923 -0.057216 0.443071 -0.357442 -0.714627 0.108155 0.063456 -0.368631 0.037064 -0.658136 0.303406 -0.148241 -0.056761 0.534597 -0.532982 -0.023600 0.268253 -0.551961 -0.752841 -0.155026 0.161359 -0.541325 -0.026898 0.156632 0.430850 0.018762 0.881354 0.445756 0.378883 0.235260 0.304404 -0.345297 0.347931 -0.310655 0.186768 0.264043 -0.537080 0.015774 -0.778376 -0.133657 -0.479855 -0.728385 -0.356850 -0.067919 0.294625 -0.400068 0.625817 0.196446 -0.195518 0.275308 0.298540 0.360375 -0.076275 -0.251812 0.380312 -0.176334 -0.305779 -0.051083 0.299639 0.259938 -0.069931 0.153980 -0.511309 -0.181785 -0.241269 0.330208 -0.010359 -0.342123 0.078718 0.523853 -0.437502 0.331446 -0.178258 -0.138283 0.106181 0.009452 0.631958 0.478559 -1.006204 0.136009 0.288714 -0.335325 0.202725 0.233554 0.540247
not 0.035747 0.836338 0.373438 0.056014 0.915634 -0.283527 -0.992424 0.176393 0.460831 -0.768475 0.079994 -0.231177 0.091983 0.072991 0.319925 -0.112516 -0.458238 0.017569 0.084584 0.436726 -0.758451 -0.350867 0.083615 -0.027917 0.206376 -0.743751 -0.011202 0.378741 -0.269973 0.269496 0.421772 0.550791 0.616741 -0.544550 -0.212266 -0.403582 -0.188661 -0.541503 -0.152248 0.320147 0.484929 0.514939 -1.325722 -0.018559 0.129976 0.100275 -0.197883 0.422185 0.269142 -1.675617 0.296458 0.525282 -0.135739 -0.411055 0.063087 0.006544 -0.111271 0.421479 0.264740 -0.394219 -0.726122 -0.149717 -0.272908 -0.057576 -0.501839 -0.295637 0.034467 -0.441275 -0.087135 0.544593 -0.022291 -0.373981 0.156886 0.039859 -0.066203 -0.523116 0.615590 -0.415074 -0.145543 -0.052079 -0.221472 0.373192 0.350720 0.213319 0.033521 0.054578 -0.480375 -0.182790 -0.210483 0.295984 0.529234 0.891443 0.616850 0.580042 -0.427974 -0.447797 0.257226 -0.279719 -0.285494 -0.222406 0.730391 -0.045026 0.034860 -0.164871 -0.368143 -0.975747 0.203279 -0.085954 1.313604 -0.000421 -1.567466 -0.034558 -0.172043 -0.179883 -0.488795 0.399428 0.396971 -0.054447 0.295559 0.692140 0.419529 0.488738 0.592715 0.381196 -0.184848 -0.333351 0.022380 -0.007770
for -0.365375 0.575416 0.477891 0.060472 -0.383553 -0.116565 0.260877 0.157656 0.368349 0.037605 0.136589 -0.718283 0.072996 0.532594 0.318755 0.327432 0.029517 -0.162928 0.162366 -0.163854 -0.275659 -0.500024 -0.111848 0.208825 -0.063614 0.326367 0.333706 -0.188257 -0.445861 0.038235 -0.020055 0.452084 -0.251961 0.491003 0.367371 -0.119947 -0.460778 0.188333 0.419568 0.152696 0.499057 -0.208414 0.952386 0.179684 -0.001781 -0.017103 -0.724313 -0.639618 -0.223303 -0.981412 0.280300 1.098100 -0.124337 -0.258494 -0.031785 -0.353187 0.194504 0.045653 -0.068036 0.337394 0.249299 -0.811341 0.090225 0.303412 0.150776 -0.223065 -0.200299 0.015101 -0.137646 0.248290 -0.060026 -0.265386 0.099398 -0.031847 0.447747 -0.173058 -0.090988 0.345399 0.165442 0.201577 -0.386488 -0.399161 0.387846 -0.510075 0.502275 -0.181967 -0.033749 -0.327454 -0.300968 -0.182688 0.160604 -0.613141 -0.148772 -0.102635 0.099545 0.167367 0.406025 0.757131 -0.100131 -0.156857 0.021712 0.415336 0.483106 0.702304 -0.130554 -0.399830 -0.301748 -0.219368 0.071744 0.493767 -0.073240 0.769925 0.416062 -0.590422 0.073292 -0.165480 0.223929 0.043865 0.130481 0.004397 0.434809 -0.046247 0.320549 0.246751 -0.194970 0.057292 0.037381 0.807222
had -0.234674 0.087508 0.192056 -0.119595 -0.103847 0.251017 -0.043979 -0.361798 0.389048 -0.540560 0.672306 -0.175158 -0.008401 0.308605 0.114269 -0.316082 0.797030 -0.299353 -0.093525 0.366951 0.330715 -0.661849 -0.639182 0.719790 0.069869 -0.268162 0.974805 -0.167363 -0.489403 -0.893046 -0.672964 0.282210 0.152157 -0.258160 0.102964 0.173368 0.238135 -0.235357 -0.018640 -0.162119 -0.526256 0.631109 -0.138078 -0.516144 0.038411 0.324872 -0.274072 1.344257 0.122256 0.023925 1.559837 0.680016 0.399904 -0.211687 -0.459178 -0.199460 0.261093 -0.265008 0.084006 -0.180031 0.045322 -0.487471 0.534192 -0.437370 -0.943335 0.193892 0.090087 0.058619 0.553271 0.455523 0.373376 -0.439748 -1.019475 -0.160652 -1.265039 -0.507051 0.180324 -0.175546 -0.510334 0.208106 0.175118 0.014255 -0.126682 -0.421608 -0.165340 -0.103932 0.979829 0.188943 -0.147833 -0.836595 -0.101867 -0.251304 0.350398 0.309417 0.048017 0.091512 0.129264 -0.461487 -0.161139 -0.223611 -0.739310 -0.224810 -0.495029 0.117250 -0.517311 1.322548 0.049775 0.827342 0.431076 0.215399 -0.431205 0.746686 -0.337932 -0.608812 1.343112 -0.147106 0.748595 0.024295 -0.080395 0.262687 0.189817 0.325449 0.039151 0.379361 0.845535 -0.557028 0.543976 0.035779
but 0.234111 0.411811 0.106945 0.152658 0.335849 0.038669 0.131442 0.157260 -0.068967 -0.503211 0.147204 0.138374 0.282773 -0.176609 0.027122 0.235610 0.624577 0.146644 -0.059724 0.350321 -0.015403 0.202856 -0.082579 0.051382 -0.159244 0.182495 0.642318 -0.326739 -0.211462 0.246986 0.136524 0.505157 -0.154148 -0.230365 -0.174193 0.041402 -0.318057 0.462565 -0.139737 -0.500625 -0.146123 0.640453 0.392833 0.194221 0.433779 0.192685 0.357253 -0.248779 -0.574032 0.014775 0.006030 0.367330 0.087498 0.188508 0.330576 -0.152144 -0.152799 -0.050134 0.128171 -0.116580 -0.295211 -1.048934 -0.168262 0.379676 0.054438 -0.045267 0.663356 0.375605 -0.060132 1.012767 0.000736 0.122442 0.016153 -0.165756 0.101371 0.160598 -0.535550 -0.010385 0.234732 -0.039486 -0.194709 -0.491588 0.412702 -0.517809 -0.095839 -0.475237 -0.260235 0.007259 -0.223660 0.286447 0.080713 -0.022787 0.146875 0.098615 0.199020 -0.222060 0.225738 0.273856 0.057502 0.384064 0.579534 0.116263 -0.006812 -0.198885 -0.073743 0.265349 0.167129 -0.194694 0.028648 0.229598 -0.258521 0.139472 -0.330228 -0.202528 -0.078463 -0.211322 -0.386503 -0.067802 0.005414 0.499932 0.298895 0.175826 0.271655 0.556533 0.295356 -0.031626 -0.338243 0.189359
at -0.136539 -0.496683 0.094838 0.871562 -0.174201 0.115537 0.254260 -0.421460 -0.009744 0.422905 -0.071813 -0.137628 -0.194565 -0.158673 -0.027196 -0.163297 0.560956 0.109697 -0.221369 0.136849 -0.039259 -0.536975 -0.191198 -0.437735 0.088296 0.149198 -0.350843 -0.133906 -0.758465 0.234584 0.045154 0.104348 -0.149403 0.169551 -0.621090 0.115300 -0.012690 -0.215698 -0.546970 0.045390 0.461506 0.538510 0.155552 0.180512 -0.230918 -0.225267 -0.644638 -0.404643 -0.029903 -0.172094 0.091531 1.135346 0.210412 -0.529044 -0.365190 0.013310 0.008661 -0.179568 -0.619301 0.270152 0.382934 -0.962837 -0.225243 0.505264 -0.285440 0.102635 -0.532133 -0.367443 -0.058554 -0.371548 -0.644107 0.077820 -0.511791 0.968122 0.258856 0.063912 0.138440 0.072262 0.742764 -0.144543 0.673320 0.009891 0.203740 -0.931763 0.701048 0.742013 -0.290903 0.083878 -0.127701 0.064399 -0.006100 -0.168504 -0.228824 -0.289399 -0.116460 0.074330 -0.153272 0.511201 -0.158872 -0.039806 0.992963 0.062755 1.065953 0.052288 0.148045 0.211033 0.041550 0.671304 0.502194 -0.399460 -0.041800 -0.003652 0.009263 0.508258 -0.246876 0.126297 0.160066 0.022517 -0.247112 -0.067872 0.036700 0.132056 1.222071 -0.135555 0.346615 -0.102291 -0.181611 0.395182
be -0.255416 1.860121 0.035397 0.225741 -0.796278 -0.068887 0.231777 0.147547 0.247762 0.124468 0.707390 -0.101364 -0.090714 0.069224 0.651074 -0.678895 -0.340770 -0.332636 -0.809838 0.377073 -0.570276 -1.362195 -0.222406 0.102850 -0.110046 -0.839497 1.130989 0.590411 0.620679 0.954598 0.015204 -0.210252 0.285222 0.088294 0.436975 -0.886969 -0.097452 -0.375523 0.100805 0.293240 0.493510 0.258903 0.156109 -0.089728 0.361416 -0.142301 0.287863 0.627838 0.836538 -1.270920 -1.179527 0.074505 0.198129 -0.302543 -0.081469 -0.741394 -0.294882 1.102572 -0.023215 -0.787438 -1.356926 -0.336800 0.034581 -0.528165 0.407114 0.024643 -0.693317 -0.092408 -0.672928 0.283172 0.415237 -0.358125 -1.445125 0.186372 0.245746 -0.444670 0.323536 0.665593 0.599483 -0.295541 -1.157055 0.751037 -0.745035 -0.008940 0.183623 -0.291779 -0.303739 0.187876 0.411779 -0.040951 0.422321 -0.424976 1.249602 0.485864 1.074759 -0.058326 0.408753 -0.745009 -0.290962 0.827924 -0.222988 -0.486287 -0.107755 -0.608752 0.258964 0.852254 -0.418177 0.627327 -0.041917 -0.495495 -0.171341 -0.340946 0.349309 0.046267 -0.565153 -0.111532 -0.695416 -0.253291 -1.108209 -0.625373 -0.623881 -0.039729 -0.272769 -0.050320 -0.531124 0.722382 0.073579 -0.418034
on -0.258168 0.316202 -0.066925 0.272431 -0.949265 0.109251 -0.066972 -0.523240 -0.035862 0.822641 0.033693 -0.034583 0.489727 0.223760 -0.469540 0.806111 1.083443 0.140414 0.865313 0.403239 -0.305314 -0.739929 -0.427200 -0.484053 0.098800 0.198482 0.039061 -0.721103 -0.774947 -0.097424 -0.135327 0.450541 0.137239 0.778588 -0.300755 0.647198 0.254370 -0.207892 0.480997 -0.312544 0.026164 0.182660 0.319280 0.063664 0.339805 0.328597 0.067921 -0.295702 -0.512614 0.086091 0.047008 0.432398 -0.248914 0.221367 -0.166846 0.406122 -0.525482 0.478310 -0.025155 0.308397 -0.212620 -1.181560 -0.113693 0.308365 -0.330387 0.373088 0.480397 -0.395491 -0.846055 -0.095527 -0.191298 -0.424139 0.366245 -0.122349 1.215434 0.020512 -0.033443 0.298014 -0.048475 0.739527 -0.813152 0.396242 0.533745 -0.227360 -0.235082 -0.231589 -0.243716 -0.217662 -0.194889 -0.220927 0.121228 -0.378750 -0.276365 -0.229365 0.152422 -0.379214 1.039364 0.612781 0.510230 -0.115887 0.547598 0.635755 0.493298 -0.290839 0.253833 -0.084534 -0.279778 0.118865 0.032506 0.037501 -0.085230 0.429505 -0.171192 -0.144926 -0.458480 0.061661 0.265536 -0.178554 0.464200 -0.233844 -0.243366 -0.155426 0.785364 -0.298463 0.011643 -0.218717 -0.471727 0.315307
her 0.665749 -0.499415 -0.214904 -0.592436 0.193465 -0.306778 -0.164178 -0.269157 -0.234468 -0.166699 0.214211 0.212995 0.104760 -0.125434 0.342311 0.219335 0.114544 0.448350 0.398743 -0.395279 0.209332 -0.789301 0.019220 -0.149400 1.019976 0.409971 -0.214083 -0.538174 1.074741 -0.048530 0.396414 -0.107741 -0.222427 0.640922 -0.109915 -0.038710 0.002041 -0.238396 0.999532 -0.077115 0.796153 -0.143423 0.626052 -0.369555 -0.863584 -0.335792 0.655049 -0.318536 0.986512 -0.226427 0.073489 -0.828212 -0.309617 0.277095 0.169334 -0.199588 -0.273578 0.566276 -0.466145 0.132239 0.412281 0.488044 0.084089 0.179838 -0.227867 0.430931 0.174749 -0.802862 -0.392444 0.559246 -0.065850 -0.188675 0.034957 -0.024914 0.675579 0.462192 -0.217393 -0.045531 -0.400737 -0.079280 -0.293193 0.803514 0.306346 -0.204030 0.799198 0.107425 0.158633 0.173310 -0.000097 -0.231553 -0.243938 0.468774 0.508811 0.156597 0.676869 0.789969 -0.311418 0.616784 0.013692 0.597742 -0.249698 0.170530 0.048696 0.359005 0.299548 0.085815 0.305487 0.129702 -0.630785 -0.035186 0.513734 -0.123989 -0.497381 -0.974367 0.046211 0.136945 -0.023138 0.022856 -0.773903 -0.016571 0.207768 0.401335 0.116888 -0.185429 0.568334 -0.322431 0.084113 -0.525791
my 0.314584 -0.710691 0.265051 -0.600070 0.263587 -0.104554 -0.382763 -0.363365 -0.446870 0.014534 0.023220 -0.033244 0.119285 -0.045658 0.879691 -0.129018 -0.086000 0.148113 0.049895 -0.285702 -0.303124 -0.361871 -0.174662 -0.492533 0.664848 0.692904 -0.535480 -0.127811 0.225784 0.338505 0.626826 0.015732 -0.252172 0.078611 -0.234712 -0.128988 0.187302 0.195104 0.404090 -0.730299 0.137238 0.809715 1.168238 -0.290438 -0.522202 -0.866415 0.515600 -0.118818 0.705837 0.151471 -0.509814 -1.414854 0.008238 0.169070 -0.022285 0.099263 -0.371210 0.573503 -0.302875 -0.565824 1.006086 0.615776 -0.183435 0.387236 -0.109737 0.337404 -0.228532 -0.195177 0.028759 0.669835 -0.435370 0.400875 -0.021516 -0.568313 0.392788 0.109248 -0.280968 -0.350170 0.009119 -0.354185 0.280317 0.294229 0.543648 -0.435242 1.075392 0.154715 0.368806 -0.106070 0.275632 -0.059342 -0.063742 0.135376 0.295411 0.102336 0.578839 0.471997 -0.524001 -0.091714 -0.415378 0.889121 -0.253376 -0.128724 0.382350 0.584220 0.488934 -0.053592 -0.218574 0.512859 -0.654509 -0.049014 0.499709 0.040245 0.284938 -0.913752 0.508805 0.170138 0.603709 -0.167094 -0.295170 -0.089009 0.513695 0.282764 0.095214 0.049357 0.681492 -0.244460 -0.087972 -0.140835
him 0.608162 0.280777 -1.131525 -0.481787 -0.524562 -0.584683 0.265318 -1.026802 0.083406 0.066747 -0.290384 0.538952 1.053610 0.076853 -0.382787 0.237592 0.130661 -0.411677 0.317756 -0.089384 -0.093677 -0.034715 0.240508 -0.006170 0.086093 -0.499230 -0.365994 -0.255283 0.659012 -0.222334 0.496959 0.740159 -0.060456 0.823198 -0.202353 -0.582119 0.345370 -0.694703 0.377491 0.200293 1.149600 -0.640613 -0.925624 -0.476148 -0.219524 -0.334930 1.629210 -1.153920 0.725728 -0.677301 0.142735 0.866920 0.331990 -0.156892 1.051385 0.272728 -1.249871 -0.121773 0.098993 0.090030 -0.645712 -0.247551 -0.115728 -0.456311 -0.480512 0.006382 0.626357 -0.784307 -0.812911 0.688268 0.122455 -0.205230 -0.364025 -0.249968 0.210606 -0.294492 -0.426567 0.221223 -0.145111 0.111451 -0.355940 0.410720 -0.529256 -0.364762 0.200351 0.085814 -0.015778 0.389068 0.127669 -0.638190 -0.143185 0.127333 -0.209840 0.261128 0.499672 0.929312 -0.400255 0.678553 -0.238087 0.472251 -0.055277 0.424634 0.839278 0.281880 0.641943 0.696604 0.858005 -0.350434 -0.089403 0.292054 -0.447133 -0.018588 -1.382336 0.274849 -0.110869 0.034573 -0.440524 0.286896 -0.986940 0.775443 1.078644 0.155026 -0.085404 -0.035578 0.151025 -0.410513 -0.123468 -0.565434
have -0.542912 1.892281 -0.077644 -0.101466 0.302692 0.250691 0.026817 -0.069864 -0.492628 0.148470 0.616776 -0.111913 0.192414 0.276880 -0.019885 -1.123633 -0.223136 0.114554 0.085497 0.751256 0.154590 -1.399320 0.002824 0.611793 -0.131960 -0.484474 0.669418 -0.055557 -0.357842 -0.204652 -0.185720 0.408658 0.420719 0.042638 0.232644 0.248480 -0.690753 -0.297932 0.503283 0.437059 -0.289700 0.495174 -0.180994 -0.246224 0.147513 -0.161145 -0.039381 0.518504 0.323493 -1.160043 -0.669042 0.898319 0.267146 -0.256802 -0.643385 -0.236429 0.506189 0.651209 0.227891 -1.051420 -0.612051 -0.738673 0.367018 0.034081 -0.745829 -0.223316 -0.448492 -0.073787 0.849664 0.773850 -0.031033 -0.461612 -2.023949 0.545514 -0.912267 0.003172 0.474589 0.412749 0.054174 -1.156379 -0.651111 0.285769 -0.398845 -0.017841 0.086351 0.122729 -0.014582 -0.002845 -0.109576 -0.693192 -0.110675 -0.314829 0.440864 -0.292887 0.008224 0.007155 0.673160 0.198931 0.121520 0.139242 -0.459805 0.435047 -0.955520 -0.978221 0.331731 0.570157 -0.810848 1.437170 -0.218592 0.100466 -0.278538 0.596366 0.067657 0.159336 -0.233048 0.062490 0.360019 -0.239340 -0.946102 -0.077728 -0.547412 -0.046727 -0.701008 0.143026 0.423162 -0.042407 0.218488 0.391062
by -0.188477 -0.086684 -0.081249 -0.089943 -0.844415 0.220826 0.073484 0.165762 0.075343 0.304512 -0.089329 -0.733711 0.187977 -0.069491 0.247011 0.694581 0.133573 0.165753 0.125267 -0.175582 -0.093499 -0.275776 -0.475470 0.617193 0.366448 0.170964 -0.296613 -0.290132 -0.773738 0.148935 -0.073179 -0.149039 0.266215 -0.104827 0.501022 0.209979 -0.251583 -0.572227 0.948833 0.207018 0.975116 0.766031 0.155678 -0.321186 0.091657 0.339835 -0.043866 -0.816003 -0.009715 0.282607 -0.047680 0.335861 0.066292 -0.168582 0.329632 0.086986 0.431439 0.402433 0.030647 -0.407789 -1.499486 -1.359910 0.613468 0.150005 0.593917 -0.020787 0.252913 -0.168275 -0.557781 -0.287781 -0.781622 -0.302103 -0.014838 0.216032 -0.068245 0.720738 -0.221296 0.343966 0.017011 -0.132068 -0.044301 -0.405379 0.273027 -0.595374 0.266208 0.062919 -0.236724 -0.069730 0.441834 -0.440693 0.549330 -1.038784 -0.043668 -0.212358 -0.130981 0.187793 -0.028842 1.232278 0.248221 0.308501 -0.326721 0.179718 0.567948 -0.070526 0.263000 -0.240651 0.140228 0.355115 -0.632386 0.801160 -0.328921 -0.167968 0.150112 -0.505559 0.020964 -0.571936 -0.057799 0.173342 -0.129068 -0.714665 -0.628595 -0.365242 0.955413 0.173302 -0.127288 -0.438782 0.427006 0.297189
this 0.565189 -0.740476 0.311493 -0.233677 -0.077747 -0.004732 0.372059 0.707635 -0.259805 0.129784 -0.294197 -0.087522 -0.118157 -0.087770 1.320761 -0.045035 0.285420 0.136869 -0.092294 -0.121104 0.052883 -0.250899 0.235370 0.366855 0.222513 -0.002264 -0.749802 -0.054939 0.099651 0.110126 -0.252872 0.059023 -0.017138 -0.380220 -0.211039 0.299822 1.022579 0.087723 0.746374 -0.621607 -0.203928 0.101222 0.565372 0.049358 0.096937 -0.538353 1.268986 -0.008274 0.445620 -0.179517 -0.819870 -0.363957 0.000129 0.601504 -0.202257 -0.134071 -0.203403 0.105083 -0.063407 -0.079502 -0.357354 -0.726694 0.355446 0.159314 0.213900 0.078306 -0.179583 -0.300889 -0.519450 0.751478 -0.776351 0.379899 0.053319 -0.820676 0.410153 -0.032109 -0.058047 -0.503697 -0.154127 -0.223047 0.393341 0.291995 0.419794 0.312600 0.384467 0.367312 -0.190915 0.280529 -0.120987 0.078793 -0.008956 0.510297 -0.212845 0.040983 -0.241559 0.092199 -0.201460 0.041982 -0.121730 0.455919 -0.214081 -0.403120 0.274814 0.420706 0.652713 -0.390060 0.091173 0.433245 0.500895 -0.090361 0.478879 -0.628264 -0.228270 -0.606956 0.430047 0.406946 0.017700 0.186598 -0.192360 0.564398 0.349869 0.423929 -0.418261 0.460582 -0.056533 0.181631 -0.347034 0.422117
which -0.321563 0.806096 0.211134 -0.431558 0.231803 0.177186 -0.346484 -0.152266 0.075036 -0.483629 0.445073 -0.281659 0.555844 0.700576 0.486929 -0.048530 -0.631719 -0.454937 0.576414 -0.257261 -0.384086 -0.641863 0.750306 0.049473 -0.191289 0.086862 0.306858 1.133607 -0.109257 1.121263 -0.424147 -0.513001 0.315965 -0.506973 -0.332246 -0.430203 1.489411 0.749098 0.806257 -0.264912 0.323851 0.272571 0.378162 0.141869 0.326426 0.086284 0.798022 -0.262803 0.125068 0.408036 0.195723 1.269627 0.578288 -0.388580 -0.023655 -0.250390 0.328500 -0.119866 0.100885 -0.180013 0.351179 -0.728606 -0.025607 0.198369 0.567993 -0.122944 0.434464 -0.379799 -0.712478 0.651613 -0.234631 -0.017668 -0.012181 0.072864 -0.619419 0.803517 -0.543814 0.105293 -0.661721 -0.144702 0.154806 -0.915779 -0.166833 0.429313 -0.356444 -0.597445 -0.429713 0.414238 -0.366198 0.454355 0.252487 0.124540 0.161873 0.290741 0.167094 1.008603 0.142524 0.438116 0.240828 -0.763296 0.068536 0.342263 0.010276 0.065083 0.237616 0.427365 0.134381 -0.481603 0.296436 0.357052 0.160236 -0.525051 -0.169642 -0.680934 0.090461 0.303256 -0.241383 0.353136 -0.404237 0.227332 0.271698 0.605832 -0.105867 -0.356048 0.402192 0.173605 -0.210747 0.190108
me 0.420164 0.010825 -1.285850 -0.343330 -0.455321 -0.060476 0.394454 -0.633839 -0.126017 0.110069 0.009163 0.831491 0.672712 0.207260 -0.275313 0.235808 0.076396 -0.179078 0.330013 -0.014566 -0.231033 0.155108 -0.047188 0.143102 0.430241 -0.116090 -0.503263 -0.281442 0.629461 -0.112260 0.481707 0.571697 0.086842 0.495216 0.116887 -0.676859 0.426640 -0.542093 0.473957 0.356398 0.961202 -0.034528 -0.694511 -0.282080 -0.175935 0.026023 1.462966 -1.667733 0.895007 -1.045423 0.088040 0.739288 0.274120 -0.286197 0.956769 -0.175315 -1.795208 -0.150587 0.176097 0.158899 -0.847271 -0.204218 -0.496702 -0.388066 -0.183310 0.270644 0.408851 -0.447638 -0.707065 0.266956 0.516394 -0.153069 -0.078858 -0.067028 0.078980 -0.055097 -0.463009 -0.317213 -0.285483 0.162099 -0.311110 0.777764 -0.530669 -0.590037 0.232685 0.028700 -0.538523 0.169166 0.342638 -0.156231 -0.284390 -0.301979 -0.258496 0.764699 0.322839 0.335833 -0.160873 0.405539 -0.019923 0.711477 -0.418175 0.576824 0.462397 0.247110 0.621952 0.552523 0.975008 -0.280216 -0.292540 0.353357 -0.582208 -0.034181 -1.061055 0.099693 -0.242845 0.073026 -0.207536 0.220045 -1.062494 0.831989 1.022465 0.268346 0.165061 0.199707 -0.123922 -0.330931 -0.117757 -0.103227
all 0.345003 0.196546 -0.198866 -0.165968 -0.177982 -0.201966 -0.117940 0.142547 0.231380 0.673293 -1.317924 -0.109312 0.256491 -0.152900 0.040879 -0.468821 0.042640 -0.034403 0.925772 -0.177679 0.009200 -0.162142 -0.234134 -0.190089 0.859420 0.280265 -0.235888 0.305336 0.090401 0.008893 -0.153108 0.088958 0.593275 0.102356 -0.518557 0.010877 0.219070 -0.110559 -1.140946 -0.082878 0.161212 0.941558 0.582390 0.401055 0.100231 0.674072 0.888056 0.136737 0.244159 -0.407575 0.371744 0.104971 -0.194993 0.008917 0.547110 -0.697423 0.073712 -0.126455 0.314844 0.155880 -0.028027 -1.019309 0.262461 -0.673849 0.061953 -0.168160 0.079104 -0.066871 -0.027554 0.066493 -0.008818 0.230750 -0.314570 0.100098 0.070784 -0.354796 -0.267495 0.148033 -0.145185 0.456838 -0.101357 -0.149679 0.077664 -0.518056 0.320096 -0.202894 -1.057365 -0.274462 0.077760 0.445843 0.041924 0.672380 0.403250 0.601400 -0.205469 0.291196 0.013873 0.181586 0.080143 0.348801 -0.383448 -0.011346 -0.359282 -0.171543 0.019914 -0.136059 0.441271 -0.236489 1.103415 -0.333045 0.975012 -0.428530 0.139009 -0.518192 -0.260758 0.125841 0.341476 0.595809 0.108835 0.379020 0.529556 -0.090444 0.072283 -0.021112 -0.125875 -0.378611 0.447617 0.086239
said 0.105743 0.473168 0.170865 0.183649 -0.364794 0.119081 0.050033 0.514592 -0.942934 0.160725 0.365837 0.672325 0.816678 -0.544450 -0.106470 0.780340 0.214268 -0.184314 -0.587803 -0.561765 0.223227 0.333291 -0.104363 -0.723479 -0.399455 1.234276 0.709026 -0.416621 0.539238 -0.150151 -0.848490 -0.013151 0.080115 -0.414548 0.294719 0.464890 0.414632 -0.099514 -0.102394 -0.386372 -0.142259 1.266524 0.308398 -0.344307 0.471858 0.597833 0.374694 -0.254191 -0.362864 -0.709209 0.199765 1.405375 0.379048 0.333304 -0.055259 -0.067556 -0.015586 -0.007208 -0.234645 0.124422 0.575412 -0.687984 0.880339 0.200447 -0.636888 -0.102963 0.290402 0.459783 -0.116654 1.834927 0.195553 0.549115 0.294698 0.203415 -0.164193 -0.070709 -0.244609 0.463859 -0.151451 0.403754 0.971036 -0.004086 -0.376696 -0.288766 0.200831 -0.460590 0.047539 0.273635 -0.922586 -0.528842 -0.075636 -0.498563 -0.785700 -0.014496 -0.114558 0.504969 -0.028131 0.593738 -0.171457 -0.918992 -0.613676 0.680073 0.435011 -0.334604 -0.264918 0.549681 0.362901 -0.413958 -0.333610 -0.428624 -0.629315 0.593795 -0.125295 -0.166052 0.066144 -0.517835 -0.457042 0.460256 0.090317 0.174596 0.027618 -0.459845 0.365446 0.463253 0.468101 0.275499 -0.217365 -0.261778
she -0.023180 -0.127242 -0.006911 -0.237817 -0.084894 -0.035063 -0.192565 -0.619456 -0.062299 -0.179542 0.057834 -0.475987 0.255766 -0.012416 -0.106295 -0.066952 -0.453020 -0.246405 0.152979 0.501383 -0.193412 0.365677 0.421426 0.187638 -0.006242 -0.271409 -0.104294 -0.351283 -0.161873 0.047680 0.218519 0.234510 0.291473 -0.415987 -0.035143 -0.399580 -0.006758 0.177053 0.276116 0.035390 -0.284590 0.281895 -0.323689 -0.270159 -0.071023 -0.374917 0.558951 0.103365 0.262253 0.981160 -0.143812 -0.651982 -0.144606 0.077241 -0.129582 -0.013782 0.741790 -0.606072 0.002936 0.210296 -0.361258 -1.047837 0.014760 0.113398 -0.007446 -0.675837 0.119416 0.033736 0.792610 1.389107 -0.407850 -0.004955 -0.573742 0.431859 -0.343071 -0.033814 0.304113 0.699490 -0.008133 -0.603004 -0.346879 0.187346 -0.173231 0.237908 -0.231105 0.204638 -0.404131 -0.405870 0.549895 0.072253 -0.666314 -0.684007 0.086674 0.176997 -0.401455 -0.291365 0.703113 0.160585 0.017151 -0.292731 0.833679 0.315941 -0.273164 0.148182 0.944952 0.361262 -0.309406 0.059835 0.258419 0.198194 -0.184228 0.960958 -0.734109 -0.568077 -0.371777 0.279672 -0.150922 0.115795 0.185820 -0.399528 -0.540233 0.562560 -0.153482 0.334539 -0.399747 -0.315409 0.498764 -0.317761
from -0.402429 0.090421 0.126752 0.205370 -0.527259 -0.024854 -0.458161 0.547198 0.152625 0.474740 0.713667 -0.173189 0.513887 -0.005530 -0.572297 0.569671 -0.005456 0.394943 0.050661 0.116687 -0.128138 -0.390727 -0.347920 0.156189 0.119364 0.381750 -0.006931 -0.724739 -0.365209 -0.244250 0.394863 -0.446553 0.413414 -0.136878 0.132714 0.496432 -0.242271 -0.421746 0.075178 -0.208451 1.207294 0.481504 0.684441 -0.228551 0.638859 0.176738 0.405140 -0.736911 -0.403285 0.896173 0.500997 -0.305602 0.417575 0.207612 0.939259 0.196745 0.002728 0.068810 0.055901 -0.151362 -0.566213 -1.226837 0.230432 0.070943 0.330965 0.655943 -0.222754 0.121164 -0.547135 -0.174558 -0.275777 0.261936 0.548806 0.006835 0.248819 -0.561902 0.177803 0.910833 0.074874 0.728419 0.294175 0.294446 -0.251222 -0.265208 0.113578 0.162622 0.066758 0.371903 0.050120 -0.529121 -0.333912 -0.932738 -0.369638 0.285816 -0.058462 0.464223 0.223574 -0.143147 -0.159340 -0.216425 0.089305 0.359148 0.748200 -0.051942 -0.364396 0.162505 0.328291 0.468268 -0.261423 0.375017 -0.480198 0.073291 0.248476 0.148560 0.322204 -0.177977 0.079432 0.198609 0.301059 -0.773439 -0.109292 -0.473399 1.774135 0.622125 0.312092 0.256399 0.425430 0.378688
or 0.480633 0.603881 0.195672 -0.060578 0.580205 -0.493976 -0.114691 0.305260 0.141503 -0.127367 0.597587 -0.235990 -0.029087 -0.663464 -0.539637 -0.528824 0.462765 0.128468 -0.135338 0.492285 0.292815 0.828708 0.033169 0.604875 0.011022 0.253836 0.467609 -0.688273 0.358607 0.062188 0.236238 0.294562 -0.613061 -0.076649 -0.176357 -0.056437 -0.761825 -0.313643 -0.226301 0.091955 0.294816 0.014474 0.650370 0.298684 0.499829 0.552914 0.434819 0.425685 -0.377279 -0.762728 -0.721269 0.042102 -1.072846 -0.206423 0.502028 0.495458 0.130693 -0.013100 -0.630011 -0.099378 -0.909165 -0.566403 -0.509239 -0.202630 -0.397310 0.275179 0.414566 -0.236195 -0.641451 -0.604590 -1.195148 -0.256096 -0.271762 -0.271366 0.012585 0.843095 -0.529599 -0.417741 0.050590 -0.154143 0.083815 -0.333727 0.170077 0.006801 0.170749 -0.229041 0.200604 0.173550 0.074538 0.267091 -0.057113 0.711225 0.474577 -0.345173 -0.109736 -0.067563 0.479882 1.004425 0.177885 0.663383 0.163515 -0.166940 0.240408 -0.160610 0.170401 0.441656 0.164069 -0.217768 -0.097357 0.175548 -0.088171 0.305610 0.322895 -0.050942 0.401477 -0.567078 -0.501014 0.145307 -0.103943 0.808668 0.534516 0.443494 0.411002 -0.323030 -0.058898 -0.446471 -0.169333 0.502214
they -0.227545 -0.440466 -0.051141 -0.602249 -0.025893 -0.205497 -0.456535 0.052124 0.376085 -0.262215 -0.532632 0.408545 0.263523 -0.276105 0.211597 0.028562 0.098746 -0.253724 -0.174667 0.460942 -0.872805 0.196204 0.276169 0.362509 -0.536756 0.315486 0.027708 -0.146252 -0.219434 0.188939 0.241644 0.445960 0.139034 -0.075115 -0.249180 -0.092122 0.194197 0.352573 -0.162160 0.325729 -0.484363 0.025512 0.505642 0.395133 0.292362 0.231306 0.428786 -0.034380 0.275527 0.192047 0.471688 -0.449186 0.056732 -0.457548 -0.243140 0.460169 1.075781 0.119307 -0.339334 0.152935 -0.489689 -0.384066 -0.977511 -0.268309 -0.251841 -0.497367 0.716906 -0.449932 -0.243300 0.952255 0.804009 0.049668 -0.492858 0.091809 -0.423172 0.575895 0.360659 0.716406 -0.293705 -0.353430 0.249004 -0.098309 0.129379 0.107407 -0.336408 0.080299 -0.002477 -0.011501 0.267432 -0.008903 -0.298338 0.188332 -0.376981 1.242541 0.033263 -0.869432 1.493098 -0.305068 0.155343 -0.432159 0.236872 -0.230191 -0.464976 0.253381 -0.098153 0.341328 0.285532 -0.040049 0.850373 0.059166 0.156516 0.491510 0.007103 -0.591421 -0.080091 0.325234 0.340723 -0.103442 -0.145874 0.320062 -0.290503 0.179336 0.215914 0.338555 0.150784 0.693920 0.161089 0.007147
so 0.550837 -0.393522 0.149637 0.298047 0.594946 0.177647 0.470154 -0.146767 -0.218324 -0.281334 0.198219 0.477945 -0.358203 -0.276203 0.297101 0.707533 -0.019587 0.133998 0.983355 -0.394886 -0.084996 -0.043162 0.609020 -0.758869 -0.392507 -0.021039 0.452368 0.001315 -0.127684 0.198320 0.294161 0.289272 0.268243 -0.297766 -0.547115 -0.241443 -0.140980 -0.789689 0.285472 -0.143843 1.672156 -0.275538 0.267213 -1.054399 -0.505069 0.611187 -0.364396 -0.794092 -0.034084 -0.208666 0.217406 0.489168 -0.148105 -0.050832 0.160118 -0.920629 1.180497 0.072062 0.548515 0.027941 -1.107348 -1.076307 0.181152 0.263196 -0.021476 0.516268 0.124612 0.243828 1.140829 0.640338 0.346809 -0.267514 0.373762 -0.570087 -0.038572 0.040766 -0.076537 -0.681333 -0.424231 -0.239142 0.795578 -0.313484 0.172766 0.353783 0.125121 -0.391786 0.119240 -0.207535 -0.030344 -0.623774 0.055182 -0.333963 -0.467622 0.573739 -0.432342 -0.332846 -0.186135 -0.179066 0.165666 0.037931 0.773301 -0.380167 -0.114168 -0.425665 0.187470 0.098154 0.078355 0.083535 0.698565 0.137043 -0.155543 -0.476516 -0.030248 -0.662080 0.153150 0.139724 -0.013884 -0.285367 0.129128 0.756771 0.248798 -0.723639 0.380260 -0.134970 0.017073 0.505071 0.041676 -0.483591
are -0.874630 2.280820 -0.456086 -0.343069 0.239765 -0.138149 -0.141492 -0.051680 -0.295019 -0.791470 0.176332 0.243755 -0.097878 -0.215589 -0.283820 0.333347 0.220626 0.060974 0.046954 0.615436 0.220773 -0.210239 0.383861 0.513696 -0.622320 0.626369 0.511062 0.256341 -0.585470 0.274503 0.878308 0.132296 0.230388 -0.643352 0.468598 -0.542811 -0.355755 -0.626939 0.371713 0.297030 0.571740 0.379059 -0.436427 -0.654602 -0.795514 0.137672 0.078803 0.616822 -0.225070 0.546288 0.151564 -0.071405 0.433204 -0.641416 0.075304 -0.698352 0.093391 0.419679 0.088241 -0.943700 -0.995073 -0.487872 0.467237 -0.575945 -0.751236 -0.241954 -1.156483 0.143017 0.104214 -0.445732 -1.278232 -0.061923 -0.535145 0.884452 0.852947 0.707931 -0.060891 0.028132 0.526862 0.252611 -1.266295 0.437375 -0.793644 -0.208160 -0.468359 -0.158943 -0.302955 0.284703 0.621695 0.201709 -0.065785 -0.777849 0.436078 0.157724 -0.467504 -0.653401 0.286947 -0.058306 -0.093255 0.726325 -0.298495 -0.031696 -0.466377 0.243266 0.129891 0.192106 -0.413969 0.622457 0.356930 -0.000774 -0.468471 -0.785790 1.076601 -0.106811 0.176970 -0.490594 -0.434780 0.625157 -0.517967 0.310350 0.192884 0.214669 -0.230367 -0.594777 0.155703 0.083870 -0.405235 -0.673803
one 0.035871 -0.799140 0.201728 0.025953 -0.118559 0.146552 0.264809 -0.278431 0.243594 -0.430737 -0.440688 -0.057807 0.211648 -0.833620 0.798016 0.023582 0.581344 0.230655 0.425857 -0.473299 -0.106950 -0.264667 -0.129279 0.034878 0.054144 -0.864148 -0.131518 0.237424 0.144316 -0.218196 -0.067209 0.313216 0.014770 0.013891 0.160089 -0.200759 -0.726113 -0.019623 0.483710 0.619722 -0.148674 0.306879 -0.096375 -0.269534 -0.286834 0.252837 0.755140 -0.014539 0.143170 0.464536 -0.133606 0.132220 -0.374342 0.926631 1.236187 0.160001 0.116020 0.007360 -0.009953 -0.280765 -0.069368 0.089839 0.159881 0.132041 0.087474 0.267408 -0.549949 -0.289739 -0.445261 -0.180817 0.083928 0.119840 -0.201832 0.547195 0.568469 -0.178273 -0.204962 -0.140196 -0.291315 -0.505858 0.705891 0.058107 0.012507 0.028731 0.168494 -0.575672 0.059686 -0.825167 -0.240046 0.317636 -0.185446 0.087396 -0.257151 0.011474 -0.258039 -0.160192 0.112775 -1.004892 -0.528659 0.074463 -0.215801 -0.780965 0.341208 0.114503 0.232207 0.277693 0.032297 -0.143870 0.087169 -0.142297 0.376792 -0.036581 0.347530 0.130223 -0.281110 0.188950 -0.216361 0.063554 0.599183 0.135463 0.335203 1.194533 -0.632472 0.811560 0.200515 0.273803 0.073263 0.194146
were -0.502145 1.383034 -0.196029 -0.553564 0.074977 -0.345359 0.277443 -0.446133 -0.292196 -0.759346 0.134340 0.489991 -0.148189 -0.033494 0.131606 0.434703 0.594998 0.127699 0.289844 0.527834 0.079002 -0.433139 0.306090 0.018486 -0.518759 0.311139 1.056044 0.553033 -0.265875 0.186057 0.121029 -0.023607 0.001058 -0.417748 -0.394051 -0.177260 0.108269 -0.179961 0.285691 0.055891 0.395388 -0.168967 -0.082922 -0.371904 -0.866486 -0.184415 0.078332 0.757891 -0.130738 0.243367 0.341378 0.332035 0.180703 -0.464729 -0.237826 -0.488733 0.217278 0.225868 0.027003 -0.340374 -0.847371 -0.643658 0.644024 -0.276417 -0.733541 -0.116141 -0.889458 0.047646 0.100254 -0.132657 -0.634555 -0.498050 -0.825939 1.134106 0.350368 0.515798 0.121835 0.322565 0.793783 0.777629 -1.441651 0.366004 -0.817546 0.147099 -0.868790 -0.240106 -0.071846 0.372214 0.100442 0.219021 0.058582 -1.170324 0.161060 0.487459 -0.015298 -0.300956 0.061853 -0.085403 0.046627 0.320027 0.196172 -0.069855 -0.256922 0.222497 0.128393 0.355754 -0.245933 0.651675 0.704995 0.077619 -0.038638 -0.497659 0.451866 -0.488687 0.203533 -0.753217 0.126548 0.337976 -0.681125 0.100265 0.483783 0.157720 -0.442236 -0.711112 0.934768 0.189862 -0.588330 -0.642600
what 0.081408 0.416120 -0.227341 0.134156 0.116121 0.411689 -0.487422 0.491318 0.059456 0.011568 -0.393284 -0.185326 0.988386 0.759465 0.987103 0.118990 0.108937 -0.231947 0.469447 0.306336 0.562626 -0.258623 0.011142 -0.508128 -0.078916 -0.428513 -0.562061 0.529942 0.370339 0.409740 -0.757687 0.140181 0.224486 -0.428769 -0.168782 -0.301916 0.788700 0.285477 0.456592 -0.270410 0.829837 0.680560 0.140769 -0.061880 -0.009773 -0.108933 -0.281054 -0.481209 0.464939 0.243803 -0.509602 0.470859 -0.421258 0.740650 0.218616 0.136288 0.184559 0.072391 -0.337606 0.136377 -0.772683 -0.324031 0.314287 0.028210 0.159656 -0.249958 0.660783 -0.129443 -0.262314 0.839186 -0.044305 0.051187 -0.134502 0.099507 -0.771286 0.777100 0.399182 0.039525 0.029998 -0.759249 0.414141 -0.275587 -0.117662 -0.095186 -0.104949 -0.105176 -0.687861 0.342669 -0.728163 0.276992 0.954905 0.589793 0.011945 0.249933 -0.174952 0.911003 0.021890 0.340638 -0.348154 -0.497553 -0.214659 -0.266881 0.849384 0.675420 0.347048 -0.497577 -0.288476 -0.211620 0.117478 -0.557639 -0.016744 -0.743245 0.377951 -0.399284 0.585487 0.307038 0.205777 0.320471 -0.544687 0.823630 0.272062 -0.008954 0.029242 1.219273 -0.283193 0.079499 -0.180889 0.500624
when -0.161705 0.285283 0.593083 0.048712 -0.014138 0.536722 0.320948 0.024781 -0.062200 -0.464675 -0.182544 -0.060111 0.262834 -0.201902 0.159959 0.374432 0.458233 -0.270021 0.042637 -0.397893 -0.225198 -0.321654 -0.137399 -0.426048 0.271210 0.180161 0.202916 -0.125467 -0.191204 0.100159 0.082323 0.768616 0.018384 -0.184814 0.144833 0.102398 0.004443 0.379798 0.533199 0.227830 -0.305736 0.632948 0.948616 -0.556287 0.335180 0.082905 0.312804 -0.158327 -0.194477 0.528015 -0.211711 0.876467 0.278898 -0.362994 -0.489177 0.065398 1.029820 -0.022648 0.380184 -0.169074 -0.082843 -1.762031 0.181766 -0.125554 -0.323812 -0.228054 0.360529 0.090200 -0.037099 0.618844 0.204022 0.242559 -0.039425 0.498551 -0.374076 0.475433 -0.572805 0.433058 -0.302686 -0.046259 0.662940 -0.325744 0.062436 -0.795879 -0.772022 -0.579263 -0.302186 -0.273847 -0.003877 -0.004506 0.183541 -0.079423 -0.386309 -0.109522 -0.116907 0.550579 -0.223295 0.924720 -0.113638 -0.222650 -0.511965 0.695460 0.107789 -0.121732 0.208480 -0.118457 0.097319 -0.058768 0.126375 0.532402 -0.413026 0.561267 0.370556 -0.581666 0.091389 0.284192 0.442926 -0.110591 -0.017144 0.725263 0.378537 -0.208896 -0.124865 -0.019286 -0.309775 -0.511335 -0.107537 0.462160
no 0.199438 0.021724 0.339965 -0.855035 -0.071394 0.132249 -0.102976 0.760098 -0.554893 -0.741512 -0.080394 0.372447 0.676113 -0.088775 0.555354 -0.081454 -0.278409 0.384303 0.448937 0.012361 -0.007594 -0.060006 -0.239256 -0.118768 0.051453 -0.490977 0.253248 -0.040226 0.612868 0.318028 0.148511 0.570675 -0.201597 0.190068 0.214968 0.983848 0.547823 0.775870 0.445096 0.160908 0.336074 -0.699702 -0.224830 1.024511 -0.123683 0.046375 0.044388 -0.459166 -0.941932 -0.201793 0.245280 -0.585517 -0.451018 -0.054883 0.166615 0.521430 -0.044359 -0.139984 -0.178173 -0.230309 -0.287031 0.198097 -0.356813 0.508209 -0.818821 -0.121397 -0.213742 0.456151 0.091644 0.642483 -1.199080 -0.241727 0.571719 -0.754885 0.034498 -0.225058 -0.113121 -0.414274 0.436044 -0.366539 0.196680 1.005445 0.438408 -0.320479 1.013265 -0.596528 -0.273965 -0.247759 0.264691 -0.364161 0.983700 -0.781668 -0.433996 -0.687410 -0.252672 -0.122774 0.279641 0.222892 -0.248715 -1.085006 -0.012514 -0.578214 -0.048514 0.619765 0.525420 -0.025709 0.472235 0.530115 -0.048294 -0.147640 -0.167715 -0.491568 0.498277 -0.413719 0.944011 -0.342536 0.459615 0.418060 0.069077 0.334074 0.103111 0.039748 -0.085712 1.607790 0.164577 -0.292007 -0.321325 -0.358417
if 0.302894 0.526851 0.020815 -0.147622 -0.329489 0.470643 -0.073037 -0.166776 0.422568 -0.923034 -0.172416 -0.673659 1.510199 -0.435355 0.013357 0.187697 1.003424 -0.413535 -0.123479 0.389258 -0.340115 0.355054 -0.293982 -0.312643 0.686039 0.672358 0.566392 0.103283 -0.411742 -0.684394 0.388978 0.896065 0.053237 0.146885 0.247018 -0.580286 0.041895 0.558232 0.268872 0.082266 0.443802 0.297539 0.853559 -0.225550 -0.146715 -0.140649 -0.125240 0.704831 -1.233163 0.498459 -0.910140 0.413243 -0.024961 -1.051485 0.091658 1.085347 0.658677 0.087135 0.519336 0.088343 0.718536 -1.326137 -0.052469 -0.547581 0.039314 0.011361 0.404761 0.138327 -0.046815 1.691432 0.908300 -0.119537 0.334733 0.423239 -0.397527 0.252499 -0.377733 0.577465 -0.193061 0.082008 0.507937 -0.889697 0.649723 -1.034885 -0.732868 -0.694281 -0.231564 -0.422121 -0.210320 -0.714285 0.692343 -0.137489 -0.967402 -0.022462 0.009122 0.880779 -0.147934 0.038593 -0.005105 0.456085 -0.758116 0.687141 0.459811 0.234981 0.102398 -0.868892 -0.464607 -0.426231 0.702739 1.088444 0.011313 0.499865 0.217680 -0.414561 -0.026661 0.739723 0.259455 -0.103711 0.610226 1.097982 0.904830 -0.134363 0.168544 -0.371269 -0.691332 -1.193546 -0.372388 0.100008
there 0.000729 -0.041416 0.326229 -0.005985 -0.064139 0.149141 0.820745 -0.843705 -0.397013 -0.197311 -0.327267 -0.233183 -0.217039 0.182170 0.158802 0.028998 -0.555710 -0.297345 0.978985 0.028631 -0.171985 -0.897105 0.724542 -0.187158 0.039628 -0.123945 -0.168160 0.314663 -0.526836 0.021048 0.002374 0.783991 -0.031484 -0.714297 -0.323460 -0.076477 -0.637433 -0.026063 0.641839 -0.375771 0.232103 -0.029318 0.351715 -0.000220 0.243917 0.519337 1.115363 0.238270 -0.775083 0.324474 0.178756 -0.384484 -0.434819 0.007597 -0.120230 -0.128807 0.434001 -0.234128 0.104631 0.304709 -1.025118 -0.575153 -0.213092 0.129722 -0.622398 0.687794 0.277691 -0.059172 0.168967 2.247889 0.084214 -0.655345 0.359886 -0.019678 -0.086092 -0.063376 -0.284603 0.271759 0.224011 0.279012 -0.237315 -0.427325 0.275334 0.432655 -0.470620 0.028237 -0.598318 -0.512474 -0.512912 -0.600491 -0.423062 0.247927 -0.040361 0.915237 -0.086510 -0.179498 0.304713 0.144502 0.333009 -0.331308 0.684403 0.166338 0.467523 -0.169954 -0.122922 -0.422279 -0.019880 -0.521778 0.064687 0.310468 0.159301 0.102019 -0.247194 0.065877 -0.533065 -0.034398 0.705700 -0.308540 0.395706 -0.020543 0.157183 0.515365 0.299768 0.372867 0.195753 0.501021 0.247150 -0.008849
who -0.746537 0.267823 0.129888 -0.693991 0.017404 0.104693 0.168360 -0.466574 0.046650 0.231473 0.123106 -0.385286 -0.149902 0.059168 -0.282395 0.048506 -1.093825 -0.486856 1.185379 0.528708 0.021456 -0.172202 0.373117 0.014784 -0.000065 -0.224664 0.646660 0.229484 -0.271823 1.133950 -0.618919 1.328097 -0.310124 -0.757991 0.407248 0.052151 -0.429185 1.076726 0.533235 -0.055748 -0.789610 0.770260 -0.074608 0.414731 0.409757 0.377091 0.607540 0.371226 0.270715 1.266919 0.726894 -0.026169 0.082059 -0.572661 0.077548 -0.649330 -0.143410 0.293765 0.447660 0.779606 -0.174259 -0.464372 -0.231482 0.827198 -0.378671 0.209971 0.122279 0.225580 -0.429320 0.243333 -0.370802 -0.037522 -0.767225 -0.085770 -0.769081 0.494030 -0.105297 -0.145715 -0.358912 -0.097127 0.086895 -0.021043 -0.632954 0.417305 -0.377902 -0.308867 -0.057653 0.069865 0.733588 0.522868 -0.624321 -0.023988 -0.276873 0.140993 0.487005 0.132502 0.540271 -0.433595 0.219962 -1.258615 0.314191 0.274684 -0.101768 -0.092501 -0.140789 0.390967 0.204462 -0.197000 -0.536423 -0.449307 -0.965013 -0.372726 -0.185499 -0.534600 -0.058659 -0.237602 0.941082 -0.410611 0.189338 0.950496 -0.342056 0.632670 0.150145 -0.573769 0.563194 0.769903 0.234229 0.740076
we -0.182182 -0.426725 -0.265661 -0.190600 0.112462 -0.405901 -0.581123 0.465557 0.221838 -0.280734 -0.472731 0.314705 -0.070478 -0.661141 -0.050432 0.063914 0.258762 -0.359370 -0.292470 0.715946 -0.676580 0.293830 -0.344678 0.544519 -0.396463 0.287980 0.249583 -0.537417 0.035951 0.156089 0.419183 0.103622 0.188590 -0.351169 -0.340697 -0.153215 0.131344 -0.128059 -0.313618 0.447876 -0.398375 0.195172 0.769165 0.496470 0.384203 0.344476 0.612382 0.065008 0.142064 0.561838 0.276181 -0.602623 0.137237 -0.638256 -0.174107 0.410708 1.119501 0.185062 -0.294396 -0.189299 -0.557278 0.117356 -1.022157 -0.069887 -0.338258 0.157032 0.550152 -0.238868 -0.426891 1.026930 1.046218 0.066525 -0.849497 -0.413710 -0.551075 0.500814 0.274059 0.584909 -0.286638 0.005218 0.301627 -0.286923 0.050058 -0.126027 -0.260292 -0.002249 0.123631 -0.076060 0.271312 0.300886 -0.123050 0.186366 -0.786967 0.986647 0.076004 -0.981312 1.313600 0.070069 0.534680 -0.644147 0.067000 -0.220872 -0.446511 0.150317 -0.071148 0.384339 -0.012318 -0.188449 0.639080 -0.294972 -0.161116 0.628869 0.577244 -0.579325 -0.030848 0.499489 0.033338 -0.030161 -0.020229 0.256541 -0.409244 0.631460 0.162967 0.219697 0.221203 0.708799 -0.080129 0.321760
will -0.022236 0.845372 -0.156559 0.108034 0.458980 0.296275 -0.108421 -0.250959 -0.179965 -1.437818 0.101124 0.369566 -0.040415 -0.071049 -0.632298 0.726444 -0.058864 -0.581437 0.317911 -0.289784 0.420190 0.140132 -0.061791 0.578366 -0.352872 0.812188 1.382583 0.036715 -1.158092 0.514583 -0.321587 -0.469522 0.005629 -0.298393 -0.353206 0.047080 -0.597937 -0.784413 -0.050704 0.386461 0.061832 -0.174759 -0.342087 0.232054 0.125880 0.616141 -0.853831 0.012168 -0.189938 1.419965 0.064296 0.123100 0.420914 -0.044913 -0.320527 -0.054774 -0.224173 -0.621655 0.464303 0.188665 0.338924 0.632422 0.867313 -0.054534 -0.151936 1.703969 -0.675442 -0.046195 0.114603 1.727862 -0.409756 0.577376 0.323187 0.812741 -0.492626 -0.114842 -0.609087 -0.824761 -0.687833 0.097992 -0.991571 0.692881 -0.653784 0.690631 0.754817 0.616006 -0.430056 -0.359004 -0.224903 -0.207492 -0.124448 -0.212861 -0.057247 -0.057131 -0.769841 -0.518542 0.193800 0.127158 -0.590077 -0.241507 -0.480331 0.502965 -0.101282 -0.374746 -0.180881 1.104965 -0.210639 0.106755 -0.021076 -0.182843 -0.847463 -0.490763 0.027820 0.428124 -0.508878 -0.551306 0.007683 -0.172513 0.010622 0.692530 0.185244 1.098413 -0.916040 -1.132159 0.092062 -0.046438 0.093631 0.264150
an -0.016566 -0.944573 -0.703609 0.074198 -0.126489 -0.000063 0.370181 0.147390 -1.237852 0.180000 -0.036722 0.259354 -0.032157 -0.129512 0.699547 -0.451451 -0.383889 0.046350 -0.119079 -0.375074 -0.061995 -0.729751 -0.049511 -0.413209 0.312796 0.191928 -0.511888 0.131724 0.283105 0.273319 0.260326 0.516528 -1.090325 -0.051133 -0.088989 0.509370 -0.079842 -0.195946 -0.122394 -0.335589 0.952101 -0.145067 -0.065719 -0.056906 -0.245430 -0.238967 -0.051741 0.374333 -0.055695 -0.158696 0.050822 -0.605985 1.114816 0.417517 0.662355 0.529343 -0.316759 -1.698269 -0.042523 0.012414 -0.128937 0.207147 0.262624 -0.009886 -1.136569 -0.077699 -0.153745 -0.174087 -0.378916 -0.297194 -0.420191 0.205591 -0.408700 -0.672450 -0.003265 -0.074259 -0.277297 -0.818232 0.740125 -0.230432 -0.591640 0.424473 -0.129619 -0.133479 0.612158 1.098269 0.289828 -0.140509 0.428927 0.124615 0.482743 -0.061417 -0.306135 -0.161345 0.052076 0.051497 -0.493117 0.050013 0.212894 -0.115083 -0.369415 -0.648622 -0.090994 -0.697632 0.742829 -0.230483 0.286015 -0.317056 0.204057 0.165885 0.203273 0.422704 0.682034 -1.415264 0.185875 0.101827 0.394004 0.130711 0.393054 -0.504151 0.321520 0.687939 -0.199849 0.284745 -1.194853 0.072335 -0.088630 0.188566
then -0.060855 0.859832 0.051164 0.170571 0.329648 0.338552 0.112053 0.039508 0.251565 -0.311747 -0.009149 -0.307990 -0.402899 -0.309577 -0.486637 0.091496 0.190680 0.232471 0.200827 -0.197503 -0.067895 -0.016958 0.156148 -0.474440 0.119685 -0.072886 0.496766 -0.663623 -0.712194 -0.252966 0.415089 0.472583 -0.050479 -0.432276 -0.369321 -0.171724 0.772132 0.097246 0.288508 0.026171 -0.205847 0.071589 0.863178 -0.922172 -0.037304 0.157882 0.753849 -0.725117 -0.466615 0.413283 0.297598 0.509394 0.462814 -0.309899 0.305617 -0.099786 0.416560 -0.054949 0.034974 0.104923 -0.872979 -1.596803 -0.052978 -0.604862 0.026076 0.300394 0.705619 0.391347 -0.059034 0.933360 0.918890 0.133863 0.040774 0.068651 -0.030294 -0.093337 0.059002 -0.220865 -0.452974 0.597990 0.031048 0.039634 -0.249657 0.081125 -0.714454 -0.548164 -0.017276 -0.758052 -0.194412 -0.629851 0.046187 -0.393536 -0.740574 0.267076 -0.150828 0.017285 -0.442201 0.234695 0.470027 -0.354448 0.628114 -0.071768 0.319373 0.351558 -0.369063 0.331821 0.575647 -0.120643 0.548080 -0.012488 -1.123133 -0.156337 -0.048113 -0.612279 -0.065605 0.147787 0.057831 -0.484057 -0.201681 1.184914 -0.059471 0.221666 0.241899 0.239628 -0.050769 0.306416 -0.238525 0.410258
their -0.274701 -0.317345 0.377551 -0.487486 0.075681 -0.825941 0.073553 -0.415563 -0.331968 0.362999 0.131499 -0.091557 0.546416 0.454336 0.376306 -0.288706 0.013304 0.645516 -0.209864 0.473743 -0.452441 -0.449869 0.392578 0.450932 0.271250 -0.260157 -0.576544 0.194407 0.593666 -0.098956 1.138591 0.773207 0.224896 0.301740 -0.800153 0.713834 0.249325 0.643208 0.288273 -0.483047 0.178023 -0.579121 0.690304 0.027528 -0.345997 -0.978776 0.740442 -0.654577 0.426822 0.279784 -0.139471 -1.450465 -0.458676 -0.108017 0.175714 0.056827 0.238227 -0.326640 -0.195928 -0.081367 0.344395 0.702028 -0.345398 0.659997 -0.211753 0.456571 0.413228 -0.365015 -0.277144 0.287496 -1.039403 0.168505 0.086416 -0.543069 0.327309 0.370076 -0.837122 -0.286122 -0.068597 -0.685154 0.245264 0.056961 0.768457 -0.299287 0.559537 -0.020529 0.553629 0.083427 -0.194809 -0.131770 -0.194078 0.217827 0.324376 0.101611 0.604410 0.697152 -0.517792 -0.210801 -0.130840 0.574137 -0.289502 -0.022690 0.025374 0.528693 0.899064 0.239555 0.373893 0.925775 -0.280067 0.691401 1.161809 0.053947 0.441076 -0.514258 0.400590 -0.097972 1.137653 -0.086782 -0.248355 -0.123228 1.013667 0.485913 0.425295 -0.791382 0.663574 -0.000326 -0.099157 0.320603
would -0.157333 1.066656 0.170039 -0.094842 0.482843 -0.438362 -0.104260 0.220195 -0.088583 -0.554502 -0.475174 0.048268 0.123605 -0.350369 -0.522776 1.253405 0.230115 -0.554856 0.027005 -0.636316 0.243039 0.521417 0.102654 0.779716 -0.865204 0.830570 1.228570 0.477367 -0.526593 0.840944 -0.548308 -0.189927 -0.428794 -0.476046 -0.407468 -0.370915 -0.346845 -0.437265 -0.754894 0.079480 0.280618 0.047135 0.114406 0.164654 -0.345885 0.624322 -1.041329 0.648767 -0.034310 1.014121 0.677558 0.074983 0.217962 0.425225 -0.550510 0.295814 -0.217371 -0.425506 0.161651 -0.127900 0.113920 0.704821 0.661083 -0.111310 -0.611261 1.630261 -0.522881 -0.065839 -0.092499 1.260537 -0.721102 0.835335 0.014328 0.256918 -0.365184 -0.312750 -0.567546 -0.646327 -0.405131 0.433998 -0.490881 0.672160 -0.327835 0.787255 0.278562 1.046799 -0.044428 -0.152752 -0.018903 -0.116470 -0.492948 -0.377766 -0.103557 0.044114 -0.466153 -0.456087 0.968861 -0.335933 -0.909597 -0.624867 -0.427914 0.647383 0.014768 -0.085261 -0.029957 0.927040 -0.235817 -0.520897 0.476962 -0.609622 -0.961184 0.016718 0.015393 -0.267050 -0.405723 -0.317886 -0.393043 -0.144260 0.191825 1.104589 0.701611 0.654761 -0.766787 -1.505163 -0.086658 -0.280028 0.175952 0.228882
them 0.483126 -0.395746 -0.762090 -0.397100 -0.609607 -0.031788 -0.298537 -1.021796 0.102419 0.289858 -0.790672 0.317503 0.504092 0.018961 -0.361143 -0.123065 0.350357 -0.207898 0.621359 -0.328956 0.267127 -0.285994 -0.007691 0.156522 -0.083090 -0.351953 -0.564229 -0.003913 0.779081 0.128562 0.533724 0.257151 -0.182023 0.438867 -0.454540 -0.388222 0.432019 -0.471972 0.497625 0.656978 1.231489 -0.524251 -0.825898 -0.158715 -0.006536 0.127488 1.458156 -0.768736 0.658398 -0.512263 0.073624 0.577274 -0.440255 -0.320514 0.711595 -0.154399 -1.052698 0.034793 -0.295832 0.077609 -0.930356 -0.113569 0.020526 -0.756626 -0.585837 0.221993 0.612932 -0.561459 -0.935260 0.896361 0.247120 -0.674210 -0.273568 0.098009 0.610934 -0.057928 -0.217800 -0.004613 -0.214839 0.150715 -0.089490 0.399863 -0.172786 -0.373352 0.325516 -0.721192 0.288724 0.450086 -0.465837 -0.306073 -0.012947 0.328472 0.010303 0.421044 -0.132035 0.965291 -0.523604 0.752672 -0.027763 -0.050614 -0.159442 -0.034825 0.958068 0.202944 0.226252 0.991236 0.670295 -0.357310 -0.206818 0.557039 0.376209 -0.416455 -0.874598 0.214094 -0.150209 0.434418 -0.353132 0.083774 -0.944224 0.931243 1.176271 0.479597 0.063152 -0.117115 0.291472 -0.075538 -0.089038 -0.544103
been -0.032119 1.758139 0.335354 -0.289655 0.237022 -0.087999 0.548002 0.453785 1.113678 1.142100 0.659916 -0.062949 -0.385659 -0.885306 -0.181609 1.610550 -0.568500 0.640587 0.614828 -0.416458 -0.984933 0.217611 0.697053 0.546437 -0.581885 -0.009774 0.356909 0.172140 0.561195 1.248120 -0.780877 -0.186686 -0.417592 -0.048060 -0.140351 -0.553532 -0.151716 0.349407 -0.022967 0.093139 0.441641 0.115145 -0.601175 0.063594 -0.451118 -0.218906 1.344143 0.122255 0.652038 -1.451892 0.538632 1.246217 0.332637 -0.308606 -0.767104 0.099027 -0.503502 -0.134651 -0.042404 0.120445 -0.135897 -0.235608 0.520494 -1.361629 -0.830281 -2.146920 -0.654711 0.329315 -0.549215 -0.365207 -1.128278 0.055700 -2.143500 -0.231353 0.302445 -0.369353 -0.415508 0.937791 0.373556 -0.699377 -0.477266 0.806261 -0.048440 0.019132 -0.162184 -0.201653 0.226381 0.908314 0.446053 -0.309207 -0.237242 -0.379976 -0.132293 0.681176 -0.366927 -0.217629 0.214134 -0.939578 -0.178160 0.142537 0.451210 -0.750966 0.329466 0.455462 0.375920 0.125642 0.044450 -0.168801 -0.186525 -0.452178 -1.355130 -0.033094 0.373735 -0.643071 -1.012714 0.273806 -0.696973 -0.568968 -0.673594 -0.813941 0.008057 -0.643663 0.268909 0.577704 0.890849 0.054267 0.774948 -0.364961
do -0.263552 1.145285 -0.743482 0.496501 -0.771227 -0.600542 0.682549 -0.368146 -0.722367 -0.421696 0.300498 0.340488 0.752779 0.703188 0.059565 0.085621 0.228023 1.095544 -0.011468 1.413908 0.604738 -1.426729 -0.494163 -1.265866 -0.362318 -0.934338 1.182214 -0.178539 -0.968895 0.465743 1.196289 -0.174354 -0.590427 0.270441 0.295263 -0.297462 0.644361 0.209675 -0.073392 -0.141964 0.290244 0.859215 -0.217185 -0.857147 0.329568 -0.194941 0.486487 -1.011951 -1.387466 -0.116945 -0.112312 0.341320 1.038510 -0.155942 -0.174799 -0.326555 -0.718752 0.305336 1.135481 -0.191831 0.093565 0.247485 0.592411 -0.150396 0.523489 0.385527 -1.072377 -0.089096 0.347904 1.959523 0.324784 0.021040 -0.129587 0.118819 0.847203 -0.501475 0.085612 0.212220 0.021964 0.938140 -0.825978 0.430954 -0.491638 -0.120762 0.347885 -0.621442 -0.666969 0.502571 -0.894202 -0.252982 0.852157 0.244840 0.190301 0.224306 0.371911 -1.466378 2.094977 -0.648589 0.888056 0.303114 0.458281 0.466922 0.119356 -0.833148 0.576317 -0.136821 -0.864159 0.280051 0.793812 0.131220 -0.018344 -0.752602 -0.315179 0.703320 0.528039 0.133874 0.044813 0.060366 0.779400 0.795309 0.147053 0.421357 -0.589504 0.167249 0.719683 -0.504182 0.001234 0.191000
your 0.295555 -0.358425 -0.332032 -0.568016 0.169657 -0.462239 -0.410871 0.019491 -0.211246 0.321483 -0.002259 0.203560 0.660704 -0.093118 0.481111 -0.465623 -0.069062 0.367782 0.091873 0.391887 -0.257259 -0.310505 0.017086 -0.279433 0.501789 -0.128108 -0.850534 0.276814 0.192589 -0.567446 0.574570 0.583698 -0.314186 0.204334 -0.136203 -0.312752 -0.205167 0.445392 0.648211 -0.423222 0.010189 0.269459 0.842790 -0.514927 -0.837140 -1.010305 0.437425 -0.694245 0.631164 -0.430170 -0.207870 -1.519482 -0.348095 0.337726 0.129434 -0.124207 -0.118582 0.565045 -0.088005 -0.493692 0.668960 0.823685 -0.129407 0.271750 -0.270353 0.397790 0.145607 -0.472733 -0.122158 0.229391 -1.013700 0.296517 0.343936 -0.198929 0.083833 0.202462 -0.261266 -0.371571 -0.241145 -0.024342 0.371839 0.296736 0.542487 -0.153941 0.840935 0.009762 0.116176 0.387466 0.086604 0.175319 -0.883951 0.208495 0.181268 0.006988 0.500761 0.783596 -0.361942 0.128133 -0.154811 0.530448 -0.130235 0.012530 0.053318 0.636044 0.585243 0.343630 -0.174885 0.706442 -0.093878 0.581111 0.646142 -0.233167 0.069337 -0.927688 0.534980 0.385128 0.835815 0.266799 -0.642046 0.278405 0.991183 0.490862 -0.074044 0.166771 0.843388 0.092062 0.567185 0.156370
now -0.026738 0.378748 0.129191 0.288328 0.120151 0.200991 0.566057 -0.184120 0.068155 -0.256034 0.010584 0.147554 -0.881413 -0.483245 -0.322233 0.516034 -0.304109 0.347506 -0.018928 0.021566 -0.094281 -0.280384 0.517665 -0.455167 0.329679 0.061190 1.036625 -0.121046 -0.346566 0.004637 0.225627 0.236734 0.193134 -0.347500 -0.068458 -0.043365 0.566864 0.137149 0.497822 -0.078404 0.370627 0.556034 0.475878 -0.702759 0.007096 0.298531 0.456576 -0.383090 -0.364635 0.358104 0.592524 0.857498 -0.056245 -0.183427 0.099603 -0.007953 0.698763 -0.150639 0.506216 0.326270 -0.985439 -0.903234 -0.003244 -0.535557 -0.083997 0.156814 0.735544 0.383394 -0.145865 0.532500 0.456060 -0.275587 0.135884 0.103578 -0.105093 -0.488217 0.189401 -0.305810 -0.413081 0.177213 0.502195 0.430815 -0.117723 -0.115406 0.039817 -0.457184 -0.465491 -0.703484 -0.244817 -0.551973 0.270107 -0.135785 -0.082885 0.719411 -0.399634 -0.371254 -0.211439 0.090107 0.242242 -0.306010 0.959602 0.009549 0.055883 0.056084 0.040155 0.043477 0.115878 -0.140589 0.635936 0.075190 -0.439538 -0.147610 0.038345 -0.547377 -0.314852 0.218219 0.265822 -0.635741 0.417488 1.210304 -0.033932 -0.036225 0.388486 0.181226 0.043092 -0.126405 -0.414749 0.149867
out 0.531596 -0.287321 -0.182547 0.664424 -0.894779 1.155271 -0.544705 -0.046923 0.972203 0.394117 -0.350522 0.258981 -1.133121 0.114997 -0.680721 0.385145 0.731671 1.238317 0.107455 -0.624511 -1.126646 -0.514688 -0.478210 -0.095668 0.389818 -0.217181 -0.836450 -0.986368 0.567190 -0.031478 -0.994237 0.333237 0.813840 0.064104 0.038815 0.327709 0.837166 -1.313375 -0.424632 0.005948 -0.102936 -0.442210 0.195106 -0.343549 0.037096 0.029950 0.043586 0.047897 0.070699 -0.173016 -0.013163 0.370012 -0.852731 -0.074242 0.292860 0.161870 -0.354620 -0.227599 0.095979 0.365742 -0.231376 -0.572803 -0.077893 0.037638 -0.284305 0.890431 0.863584 -0.331302 -1.011590 0.877956 -1.125499 -0.026159 0.483963 0.166286 0.445729 0.268734 -0.372243 -0.776479 0.814141 -0.510673 -1.178517 0.876348 -0.063414 -1.233871 -0.236805 -0.859637 -0.442304 -0.518020 0.524816 -0.583964 0.076264 0.172659 -0.522269 -0.117197 0.105335 -0.200939 -0.185370 0.347360 -0.113434 0.210547 -0.304722 0.452258 0.272715 0.153675 -0.267727 -0.158997 -0.027973 1.950808 0.020263 -0.202662 0.220290 0.310199 -0.296451 -0.080499 -0.204149 -0.001685 -0.242067 0.027283 -0.463903 -0.119053 0.444863 -0.274051 0.363929 0.037249 0.169243 0.325324 -0.810308 -0.322622
more 0.561344 0.033406 0.849607 0.587788 0.308256 -0.065482 1.045516 -0.165940 0.117582 -0.119378 -0.497279 -0.085029 -0.386736 0.180124 0.467117 0.788938 0.010990 0.061267 0.680232 0.960916 -0.186857 0.130748 -1.372536 0.141399 0.228764 -0.369746 -0.105403 -0.438302 0.128281 0.044273 -0.151984 -0.337612 0.407383 0.361153 -1.076617 0.241292 0.117470 0.135382 -0.074528 -0.716923 0.092590 -0.930852 -0.743939 0.419175 -0.868200 0.548725 0.312438 1.299948 0.187506 -0.075565 -0.745024 0.108139 -0.491999 0.155866 0.528808 0.044888 0.410712 -0.253922 0.362049 -0.345926 -0.136628 -0.649158 -1.064188 0.251418 -1.033860 0.175039 -0.372119 1.031754 -0.211632 0.300558 1.384832 -0.600282 0.271336 -0.341192 0.809235 -0.936202 -0.321194 -0.057202 0.806853 -0.136952 0.812993 0.274942 0.009935 0.323547 0.659700 0.197037 -0.194751 -0.199778 -0.220207 -0.843069 1.233820 -0.347071 0.523988 -0.246824 0.125659 -0.488293 0.765470 0.063281 -1.260662 0.836907 0.115591 -0.505040 -0.840666 -0.367934 -0.140174 -0.151437 -0.659280 -0.524705 -0.255459 0.334053 -0.644162 0.196172 1.044466 0.124188 -0.038926 0.080059 -0.186266 0.105844 0.693145 -0.424389 0.227492 -0.004475 0.460294 0.592065 0.103369 0.046537 -0.905334 -0.035176
up -0.521469 -0.682669 0.077862 -0.769011 -0.613272 0.556090 -0.252100 -0.333540 -0.183763 0.291122 0.160498 0.232858 -0.491765 -0.481639 -0.492180 0.840950 1.657841 0.297298 -0.381990 -0.808486 0.671026 -0.911342 -0.506309 -0.288367 0.353536 -0.711181 -0.601479 -1.867791 1.197912 -0.170544 0.298486 0.077618 0.259983 0.165410 -0.088872 0.042232 0.381816 -0.457927 -0.239294 -0.435188 0.616764 0.764574 -0.084769 0.067838 -0.127401 0.045712 0.047740 -0.536559 0.006524 -0.296182 0.140472 0.179504 0.209041 0.088967 -0.299962 0.525863 -1.062833 0.326898 0.372769 -0.070236 -0.108180 -0.588392 -0.342084 -0.131789 -0.006512 0.555480 0.372373 0.131232 -1.334766 0.131453 -0.231315 -1.771606 0.292186 0.935770 -0.536528 -0.639641 -0.870284 -0.549897 0.184079 0.182066 -1.679541 0.906609 0.364503 0.071321 0.057242 -1.060408 0.270549 -0.328117 -0.352281 0.339649 0.039084 -0.360384 0.504975 -0.327750 -0.780174 -0.013817 0.291174 0.888492 -0.684493 -0.218964 0.573793 0.562413 0.240828 0.559273 0.321978 0.027080 0.158548 0.618716 0.040577 -0.223103 -0.293354 0.060798 -0.293114 0.246640 -1.187664 0.169842 0.173806 0.496047 -0.656291 0.131680 1.036368 -0.659457 0.206187 0.313439 0.162165 0.852849 -0.643726 0.120232
man -0.778552 -0.472518 -0.074950 -0.977595 0.088455 -0.003085 -0.375929 -0.230074 1.290799 -0.424103 0.598504 -0.627248 -0.549404 -0.068138 -0.096199 -0.289854 0.269266 1.247608 -0.872520 -0.250275 -0.060082 0.847896 0.238831 0.823736 -0.599688 -1.944711 0.024597 0.818016 0.003442 0.011013 -0.475060 -0.179263 0.199516 0.852368 0.065373 0.709710 -0.062099 0.613305 0.587310 0.740463 -0.295906 -0.141265 -0.973267 0.029781 -0.447603 -0.482783 0.481898 -0.877308 -1.001168 0.194324 0.276177 1.512094 -0.991370 -0.397308 1.406141 0.107289 0.118400 -1.247191 -0.206054 0.289761 -0.462638 -0.887681 -0.848781 0.785094 0.623951 0.093951 -0.064680 0.641736 -0.128289 1.416612 0.935150 -0.363007 0.293465 0.153310 0.076560 0.228077 0.387885 0.463214 0.584486 -0.881172 0.170864 -0.236754 -1.124549 0.125151 -0.914710 -0.455972 0.723442 -0.723464 -0.314276 -0.721707 -0.287489 0.902103 1.346691 1.116544 0.307583 0.153857 -0.285065 -0.497938 -0.566773 -0.186318 1.333827 -0.062853 -0.430076 -0.414467 -1.154312 -0.578738 -0.025302 -0.319774 -1.474917 -0.398327 0.561867 0.165246 0.451928 -0.900468 -1.014620 -0.388963 -1.160758 0.128177 -0.228221 -0.060286 -0.005879 0.979695 -0.390513 -0.366584 0.736757 0.395880 0.207784 -0.508358
into -0.761740 0.461116 0.728923 -0.222775 -1.065096 0.059613 -0.214392 0.153542 0.201830 0.907234 0.819884 -0.002942 -0.127644 -0.067513 -0.445729 1.037251 0.456724 -0.250816 0.850706 -0.327547 -0.467580 -0.513898 -0.145464 -0.263581 -0.558567 -0.029522 -0.257772 -0.959754 -0.260695 -0.642487 0.075375 -0.416097 0.071538 0.445253 -0.060910 0.652270 0.208939 -0.011980 -0.268152 0.039396 0.651919 -0.618415 0.540824 0.825660 0.355580 0.237739 -0.536625 -0.360550 -0.005536 0.242868 0.193501 0.351350 -0.614470 0.022360 -0.055061 0.518902 -0.783512 0.006137 -0.766679 -0.128521 -0.275049 -1.684350 0.130465 0.457126 -0.447240 0.707879 0.396455 0.547973 -0.816817 -0.468507 -0.059117 -0.152610 0.597999 0.692134 -0.082427 -0.412406 -0.140744 0.060073 0.096563 0.470896 -0.935387 0.423497 0.434171 -0.891044 0.313728 -0.408066 0.557092 -0.894933 -0.114346 -0.376250 -0.583213 -0.513130 -0.314422 -0.860179 -0.674217 -0.058267 0.326805 0.359272 -0.835986 -0.978685 0.326439 0.768343 0.802274 0.743658 0.388813 -0.166619 0.187641 0.691975 0.017254 0.567538 -0.093915 0.543089 0.525683 -0.201141 -0.590962 -0.522340 0.533209 -0.242600 -0.334558 -1.063105 0.221540 -0.138166 1.308458 0.419767 0.621646 -0.070234 -0.184201 0.718237
some -0.109141 0.261841 -0.617869 0.410765 0.092769 0.166117 0.147370 0.424312 -0.411111 0.287456 -0.434666 0.632044 -0.433180 0.095427 0.976897 0.105700 0.226894 0.013159 0.513611 -0.346968 0.206484 0.038414 0.521631 -0.039776 0.393879 0.429880 -0.199037 -0.575921 -0.119536 0.478121 0.244893 0.137607 -0.026847 -0.235640 0.056010 0.181065 0.887902 0.358181 0.232042 0.192254 -0.907367 -0.289189 0.302661 0.099584 -0.370650 -0.844558 0.536254 0.144354 0.036964 -0.320576 -0.011950 -0.429432 -0.252607 0.397004 0.493586 -0.106952 -0.307676 -0.076662 -0.222849 -0.135634 -0.637108 0.411180 -0.006471 0.891211 -0.536377 -0.072528 -0.303874 0.111981 -0.633110 0.152411 -1.038614 -0.080289 0.648625 -0.771813 0.250276 0.388785 -0.115438 -0.187323 0.672534 0.302531 0.002227 1.118754 -0.179274 -0.912442 0.006453 -0.227950 -0.305365 0.441592 0.000825 0.557909 0.451376 -0.245817 -0.211587 -0.099195 -0.760853 -0.194387 -0.092650 -0.292338 0.255790 0.191669 0.325045 -1.007262 0.046232 0.772869 0.911211 -0.102315 0.269722 1.053078 0.300953 -0.572199 0.427265 -0.076835 0.478717 -0.558954 0.942666 0.226925 0.131211 0.152137 0.875967 0.450953 0.855542 0.504935 -0.404432 0.852499 0.845481 0.133774 -0.083056 0.221095
could -0.002260 1.031082 -0.428320 -0.428826 0.587861 -0.813038 0.645670 0.295579 0.357113 -0.129766 0.478207 -0.033783 -0.037509 -0.849860 -0.317196 1.059113 0.655196 -0.034836 -0.286941 -0.672740 0.563514 1.011841 -0.274979 0.980910 -0.740385 1.035169 0.984571 0.966878 -0.562357 0.492268 -0.367975 -0.219521 -0.770411 0.291399 -0.374066 -0.104078 -0.113199 0.072370 -0.155282 0.426792 0.759834 0.210121 0.189860 -0.559759 -0.683710 -0.134217 -0.941569 0.058248 0.032985 0.041356 0.589596 -0.429577 -0.019989 -0.101464 -0.789391 -0.166962 -0.032371 -0.791505 0.384350 0.386471 0.527116 0.587877 0.098567 -0.309146 -1.306546 1.574950 -0.852920 0.071036 0.127753 1.619394 -0.470479 0.500796 0.086849 -0.058360 -0.019110 -0.203333 -0.636013 -0.939291 -0.387307 0.468301 -0.081045 1.113059 -0.066032 1.159551 0.265207 0.985487 -0.515867 0.269636 -0.550156 0.288225 0.374831 -0.879262 -0.714700 -0.536889 -0.604648 0.298985 1.120967 -0.033260 -0.365219 -0.563967 -0.914037 0.900564 -0.598443 0.283051 -0.309638 0.964676 -0.724758 -0.358451 0.498020 -0.647340 -1.084991 -0.547336 -0.229233 0.226881 -0.372708 0.032719 0.062994 -0.464097 -0.656542 1.041648 0.192064 0.631592 -1.846554 -1.525144 0.692868 -0.562695 -0.172447 0.816231
has -0.288010 0.064462 0.070431 0.069399 -0.165336 -0.118860 -0.126301 -0.263766 0.203662 -0.433454 0.704332 -0.545059 0.198389 -0.146512 -0.879410 -0.515406 0.809920 -0.539478 -0.204609 0.440794 0.098348 0.275810 -0.375905 0.578944 0.083370 -0.300185 0.416732 0.012453 -0.943272 -0.981554 -1.365059 0.162323 0.149857 -0.567091 -0.194954 0.229952 0.389257 -0.182887 0.114177 -0.447006 0.475896 0.642854 0.028587 -1.081324 0.489952 0.362665 -0.305245 1.706707 0.051234 -0.223741 0.955525 0.359774 0.614553 0.377158 0.156012 -0.314731 -0.260142 -0.446810 0.205594 -0.099772 -0.047534 -0.756069 0.608024 -0.591479 -0.347232 0.453329 -0.122317 -0.197806 0.183082 0.259146 0.554407 -0.293507 -0.934025 0.068909 -1.350573 -0.968344 0.148725 0.205846 -0.734475 0.179895 0.786507 -0.132645 -0.186255 -0.398308 0.120977 0.922438 0.747001 0.524557 -0.342371 -0.444939 -0.414413 -0.308566 0.074177 0.705319 -0.145843 0.039526 0.122491 -0.830529 -0.369686 0.112890 -0.063745 -0.465209 -0.399410 -0.014540 -0.614709 1.775584 -0.381369 1.216457 0.175497 0.757773 -0.552291 0.611883 -0.555469 -0.742212 0.992649 0.340212 0.666858 -0.155229 -0.031015 0.570258 -0.265385 0.504423 0.249421 0.125505 0.929382 -1.052173 1.088119 0.240880
only -0.211094 0.929898 -0.040575 0.232686 0.283288 0.929676 0.139501 0.674638 0.076724 0.190139 0.443745 0.226576 -0.663134 -0.407707 0.136456 0.188172 -0.291289 0.502435 0.046246 0.877152 0.238341 -0.835426 -0.016994 -0.432402 0.189054 -0.011778 0.423010 -0.258597 0.060054 0.030185 -0.211601 0.834171 0.469915 -0.114046 0.346718 0.382743 -0.136020 0.487225 -0.540596 -0.006789 0.239343 0.426164 0.201205 0.253625 0.559164 -0.275783 0.329188 -0.299670 -0.582098 0.086527 -0.185594 0.438954 0.239914 -0.326879 0.444993 -0.349463 -0.176282 0.304007 0.118309 0.741062 -0.097525 -0.533911 -0.647063 0.165064 0.051052 0.524347 -0.317932 -0.360135 0.254604 0.506069 0.755118 -0.567695 0.759129 -0.385009 -0.236546 -0.362376 0.346659 -0.165576 0.168013 -0.182498 0.471270 0.355330 0.551020 0.174728 0.512247 -0.149649 -0.769229 -0.321270 0.113042 -0.000027 0.823931 -0.563468 0.126420 0.200936 -0.174657 -0.126478 1.016482 0.002353 0.178207 -0.573609 0.431620 0.534410 -0.502255 0.159984 -0.013911 0.471252 0.046464 -0.020662 0.009671 -0.402270 -0.432958 0.222309 0.223981 -0.283585 0.350457 -0.493907 0.440891 -0.275117 0.358774 0.503468 -0.319744 0.704194 -0.289152 0.091528 1.058654 0.237994 -0.627109 0.261510
any 0.698520 -0.373787 -0.037866 0.794995 -0.527489 -0.543523 0.337495 0.335261 -0.571371 -0.038780 -0.178356 0.411771 0.071479 -0.098187 0.569581 0.151936 0.346296 0.733968 0.053126 0.189829 -0.387536 -0.163221 -0.165339 0.808742 0.379266 -0.617197 0.046827 0.049260 0.262185 0.253311 -0.088920 0.076837 0.730747 0.416394 0.331345 0.862330 1.246748 1.005610 0.151893 0.056766 0.071765 -0.672599 -0.341471 0.761306 -0.921034 0.102916 0.323955 -0.861234 0.008674 -0.459230 -0.723895 -0.729929 -0.074114 -0.103592 -0.104275 0.541032 -0.279077 -0.225524 0.030069 -0.676055 -0.932485 0.330267 -0.113600 -0.221628 -0.282120 -0.369464 -0.675318 0.294027 -0.726507 -0.121225 -1.439569 0.222285 0.204453 -0.963505 0.374156 0.277101 0.122416 -0.875318 0.638443 0.251422 0.499289 1.135767 0.656176 -0.471295 1.168319 -0.026463 -0.416746 0.079099 -0.052776 0.502689 0.284196 0.545748 -0.084993 0.312084 -0.556127 -1.828605 0.560087 0.575465 0.164080 -0.859168 -0.219812 -1.278916 0.059015 0.848058 0.345021 -0.616049 0.546389 1.340990 -0.519134 -0.313270 1.140367 -1.323315 1.076393 -0.674254 0.441673 -0.682607 -0.007769 0.476725 -0.083025 0.869940 0.465945 0.590785 -0.450362 1.296712 0.816408 0.602760 -0.139618 0.584457
very 0.132103 0.517058 0.103566 -0.449564 0.808535 0.621365 1.098391 0.024283 -0.096939 1.015312 -0.037232 0.718401 0.483330 -0.504212 0.829926 0.286586 0.200873 0.066885 0.144635 0.388881 -0.028175 0.463024 -0.714165 -0.242383 -0.165675 0.147387 -0.008756 -0.660771 -0.291462 0.179526 -0.680459 0.107669 -0.144047 0.381309 -0.524229 0.372345 -0.036710 -0.216850 -0.070481 -0.446091 -0.331192 -0.550358 -0.230590 -0.023136 -1.051610 0.055202 -0.892921 -0.088385 -0.090907 -0.308211 0.028981 -0.466908 0.088025 -0.133915 0.603813 -0.912781 0.078801 0.022943 0.185286 0.026793 -1.159363 -0.742139 -0.700784 0.440304 0.075682 0.415884 -1.442852 0.177090 0.286791 0.410703 0.022889 -0.394476 0.808636 -0.373687 -0.198829 -0.487946 -0.487311 0.032350 0.565851 -1.442973 0.481612 -0.116777 0.311395 -0.116734 0.376650 0.169333 0.076158 -0.369069 0.014435 -0.096697 0.915084 0.320728 -0.407908 0.802202 -0.204485 -0.118820 -0.118917 0.020792 -0.323367 0.996430 0.556451 -0.939263 0.065451 -0.119410 0.825008 -0.265976 0.014658 -0.211714 1.011551 0.543158 -0.798925 0.090677 0.398959 -0.348344 0.329937 -0.569245 0.048130 0.398799 1.215050 -0.095216 -0.031456 -0.568824 0.467075 0.615240 0.136707 0.626728 0.181680 -0.332267
like -0.590503 1.050346 0.198264 -0.152539 -0.906716 0.145665 0.085346 -0.005922 0.235442 0.170028 -0.372304 0.299262 0.134789 0.833024 -0.659201 0.461213 -0.003174 0.918794 0.294647 0.476275 0.065699 -0.923048 0.314359 -0.756231 0.123918 -1.172497 1.157791 -0.355798 0.425215 -0.010921 0.323826 0.315310 -0.138683 -0.066649 0.515077 0.439704 -0.118441 0.228674 -0.503229 -0.407626 1.237481 0.185007 -0.008291 0.436815 0.120662 -0.050684 -0.080492 -0.257281 -0.136262 -0.497889 -0.079788 0.912431 -0.685982 -0.624260 -0.178548 0.220520 -0.204620 0.307113 0.077356 1.066965 -0.659935 -0.338904 -0.065479 0.642465 0.326907 0.392371 0.216061 -0.068259 -0.858285 0.540478 1.272178 -0.074405 0.536454 0.396853 0.130840 0.683217 0.003331 0.074288 0.482515 0.048503 0.275274 0.077608 -0.979061 -0.109760 0.942382 -0.452438 -0.466214 0.338779 -0.541362 0.008097 0.168127 -0.738690 0.283085 0.468681 -0.248802 -1.131190 0.240399 -0.574180 0.034137 -0.222396 0.630018 0.354328 -0.124643 -0.328268 0.467111 -0.536627 -0.032728 0.915456 0.987862 0.139898 0.289101 -0.211271 -0.061815 -0.277177 1.208655 -0.487653 -0.339452 -0.512273 0.884978 -0.106491 0.738165 -0.238937 1.218556 -0.292389 -0.334978 0.245096 -0.634444 0.803963
did 0.060246 0.288938 0.145314 -0.436375 0.328599 -0.510110 0.961059 0.153485 -0.033215 -0.762446 -0.513532 -0.185547 0.108223 -0.162792 -0.050592 1.015599 1.215431 0.899213 -0.199580 0.226482 0.830303 1.074714 -0.773033 -0.388614 -0.133992 0.459989 1.265039 0.251515 -0.037033 0.214756 0.310614 -0.875274 -0.985732 -0.239747 0.043535 -0.335972 0.080280 -0.550285 -0.778693 0.334444 0.500346 1.106593 0.568174 -0.060465 0.113641 0.185536 -0.739554 -0.578721 -0.624686 -0.112646 0.838785 -0.201344 0.162730 -1.160865 -1.436631 0.301492 0.258980 0.263573 0.880149 -0.031579 -0.024268 -0.019185 1.924977 -1.436850 -0.318565 1.627569 -0.885569 -1.082358 0.643358 2.140891 0.081823 -0.096029 0.345907 0.869210 0.418566 0.655655 -0.927860 -0.343044 -0.562951 0.177661 0.041955 0.628577 -1.132236 0.373209 0.139328 0.293743 -0.068495 1.408528 -0.434786 0.056741 0.604398 0.001902 -0.356142 -0.220276 -0.157331 -1.322683 1.006525 0.539002 -0.113912 -0.130934 -0.460978 0.964038 0.076486 0.136232 -0.396490 0.249577 0.106970 -0.425881 0.591877 0.167206 0.603883 -0.186940 -0.968244 -0.398474 -0.341436 -0.845565 -0.151845 0.081083 0.090409 1.017369 0.357430 0.410816 -0.461206 -0.307936 0.315484 -0.687264 -0.007020 0.867305
time -0.791680 0.610230 0.430805 0.007152 0.324341 -0.240492 0.210805 -0.637351 0.656131 -0.789531 0.193755 -0.823370 0.186843 -0.262897 -1.012439 -1.107969 0.229552 1.130740 0.741203 0.929629 0.160644 -1.187541 0.581558 0.061575 -1.216591 0.253827 0.088006 -1.568795 -1.055290 -0.151820 0.221695 -1.385388 -0.569426 0.017337 0.649144 0.199917 -0.030626 0.119263 0.428429 1.212446 -0.432055 0.650911 0.373059 0.092300 0.072237 -0.456001 0.975501 -0.330922 0.267159 -0.170344 -0.698324 1.809442 0.110723 0.536462 0.869622 -0.333461 0.251239 -0.183009 0.365178 0.502574 -0.070314 -0.324368 0.422312 -1.256276 0.214820 -1.028994 -0.773671 -0.071230 -0.118716 0.922333 1.108938 0.552106 0.314011 -0.319171 0.375598 0.075229 0.716484 1.025057 0.917133 0.064178 1.028497 -0.073783 0.027152 -0.625422 -0.044110 0.184800 0.071847 0.144367 0.533729 -0.563495 -1.386057 2.213165 0.701170 0.359538 0.760478 0.650044 -0.735308 0.359735 0.430985 -0.198075 0.944114 -0.372295 -0.235188 -0.169415 -1.224360 0.065104 0.005736 -0.842951 0.110571 -0.088239 0.107991 -0.179257 -0.150628 -0.371607 -1.327639 0.281987 -0.479463 -0.321468 0.583176 -0.385319 1.379667 -0.605075 -0.679487 -0.172959 -0.028671 0.621650 0.281209 0.264714
its 0.465822 0.199480 0.319591 0.316638 0.540363 -0.517669 -0.129072 -0.396516 -0.115670 -0.121369 -0.249626 0.387742 0.692776 -0.015468 0.546375 0.012388 0.093718 -0.058048 -0.417117 0.101142 -0.279576 -0.398742 0.523581 -0.311053 0.559584 0.635237 -0.360124 -0.584937 1.658865 0.188277 0.827834 0.944984 0.129866 0.544403 -1.218106 0.177577 0.435456 0.746057 -0.332308 -0.493586 0.378923 -0.080488 0.381214 -0.937741 -0.330944 -0.796964 0.037647 -0.470949 0.474519 0.495779 -0.595226 -0.299381 -0.455226 -0.203367 0.603086 0.068273 -0.094565 0.279217 -0.407516 0.054255 -0.102308 0.682135 -0.332618 0.368478 -0.006203 0.000088 -0.229526 -1.026006 -1.105345 0.413233 -0.382441 -0.068152 -0.242717 -0.602127 0.655084 0.105939 -0.610100 -0.533289 -0.262224 -0.864055 0.804654 -0.519023 1.079421 -0.599243 0.114748 -0.128645 -0.179175 -0.204619 -0.391820 0.641634 0.576203 0.105376 0.340367 0.183994 0.206788 0.153107 -0.690790 0.269787 -0.516801 0.812411 0.178752 -0.262322 0.630761 0.477212 0.196111 0.503299 0.051549 0.942848 -0.238120 0.590520 1.695216 0.184872 -0.042557 -1.040015 0.534647 -0.757728 0.044096 -0.041822 0.571833 -0.172472 0.319546 0.190288 0.967013 -0.108965 0.774547 0.033159 -0.012363 0.165091
than -0.036284 0.971178 0.449529 -0.466260 0.319487 -0.282930 0.701020 0.146143 0.184512 -0.401505 0.571692 1.161911 0.549893 0.434296 0.193608 0.072754 0.371175 -0.101443 -0.852993 -1.298556 0.260009 0.267775 0.354252 0.344225 -0.092997 -0.186564 0.656817 0.528140 1.153293 0.461062 -0.407008 0.829912 0.124151 1.171447 0.866015 -0.032168 -0.070919 -0.086486 0.738301 0.691051 1.014083 0.123438 0.813816 0.537457 -0.026228 1.692874 -0.075150 -0.329609 -0.856465 -0.747224 -0.029801 -0.001300 -0.933047 -1.323492 -1.390312 0.242879 0.351532 -0.007006 -0.611351 0.642937 -0.740720 -0.048602 -0.537125 -0.848828 0.740724 -0.658723 -0.213210 0.674313 0.262367 -0.316890 -0.774972 1.013837 -0.192010 -0.314395 -0.054957 -0.363204 -0.332683 0.468975 0.051411 0.677711 -0.583650 -1.379594 -0.487304 0.010611 0.709552 -0.211515 -0.041177 -0.703023 0.072400 0.136968 0.231722 -0.629642 -0.115663 -0.035340 -0.070336 -0.064306 0.763905 0.241526 -0.466496 -1.620750 0.336990 0.847824 0.995625 -0.341689 0.340556 -0.864205 -0.457632 0.123751 0.048197 0.654692 0.203427 0.245855 0.466036 -0.431495 0.482003 -0.449049 -0.483630 0.592742 0.630592 0.543472 1.301727 0.002741 0.032322 -0.072302 -0.350213 -0.332096 0.614264 -0.393332
other 0.421249 -0.326236 -0.761682 0.747388 -0.453788 -0.608494 0.554100 0.307485 -0.270856 0.114137 -0.973385 0.870134 -0.058188 0.025367 1.249988 -0.241543 0.061267 -0.623564 0.906640 0.603073 0.078228 -0.067207 0.215402 -0.239684 0.517975 -0.424056 0.085201 -1.416053 -0.118352 -0.488329 0.059529 -0.181706 0.368098 0.297509 -0.051552 0.702349 -0.775738 -0.312912 1.240075 -0.284776 -0.504738 -0.506220 0.234730 0.007851 -0.242790 0.260791 1.176967 0.413123 0.038007 0.142128 -0.737519 0.516474 -1.066528 0.260464 0.415632 -0.218954 -0.411390 0.008665 -0.463983 0.265462 -0.122976 -0.531444 -0.005407 0.240254 0.768950 0.303965 -0.644950 0.318919 -0.770214 0.393493 -0.023889 -0.738237 0.579281 -0.103774 0.735358 0.267392 0.256164 0.727747 0.461727 0.981636 2.072329 0.487197 -0.980968 0.267439 -1.380765 0.223607 -1.205267 -0.342883 -0.318149 0.094486 -0.145421 0.041260 0.006787 -0.240120 -0.031764 -0.484544 0.284349 0.268328 -0.737720 1.816904 -0.204389 -0.081518 -0.723267 0.089486 -0.613261 -0.600233 0.475684 0.154716 -0.037186 0.309919 0.875048 -0.239332 1.117758 -0.136629 0.702585 0.448380 0.480658 0.958103 0.186535 -0.524419 1.001444 0.286654 -0.341735 -0.088504 0.594984 -0.020333 -0.223253 0.554661
before -0.420841 0.299349 1.188974 0.180654 -0.751229 0.272219 1.129232 -0.449037 0.135619 0.758753 -0.351166 -0.694276 -0.035565 -0.269789 -0.875441 0.990483 0.413608 0.430956 1.090883 0.672126 -0.017589 -0.457570 -0.624196 -0.244939 0.535836 0.366076 -0.395772 -0.649475 -0.615327 -0.490705 0.320617 -0.277640 -0.060952 -0.074107 -0.703354 0.567847 -0.228615 0.358724 0.348635 -0.037970 0.312876 -0.292900 0.429528 0.339543 0.254002 0.245540 0.237368 -0.221808 0.024455 0.235371 0.394978 0.779215 0.696497 0.020128 -0.169527 0.449398 1.309623 -0.382053 0.587719 0.237933 -0.501667 -1.712212 -0.159295 -0.132174 -0.666951 0.292459 0.024456 -0.149919 -0.348519 0.188373 0.304138 -0.074338 -0.648828 0.617236 0.476699 0.150714 -0.021146 0.534240 0.082246 0.330761 -0.473039 -0.127556 -0.480502 0.097980 -0.320803 0.384530 -0.214730 0.067708 -0.433857 0.066262 -0.093156 -0.610484 0.197647 -0.621066 -0.338516 0.214623 0.009932 0.620555 -0.557563 0.190919 -0.989286 0.752428 0.145651 -0.686093 0.400836 -0.755781 -0.179626 -0.556554 -0.247585 0.156385 -0.646680 0.304148 0.250081 -0.081725 -0.091750 0.633988 0.937770 -0.159255 -0.236795 -0.141623 -0.058020 0.503881 -0.188434 0.790214 -0.900950 -0.386717 -0.053050 0.276115
about -0.243850 -0.056804 0.607729 0.259189 -0.728372 0.028377 0.131896 0.225155 -0.437186 1.201869 0.429543 -0.198456 0.025580 -0.021347 0.213441 0.226160 0.126118 -0.071844 -0.319523 -0.018982 0.172630 -0.586958 0.076774 -0.226217 -0.619263 0.299944 0.256465 -0.707135 -0.086953 -1.165614 -0.468278 0.269388 -0.077297 0.120036 0.474464 0.130672 -0.123954 -0.043147 0.083770 -0.463796 0.752859 0.614278 -0.045224 -0.080588 -0.108790 0.070722 -0.126195 0.379334 -0.127734 -0.863190 0.029465 1.822046 -0.140094 -0.244031 0.603389 -0.096173 -0.463226 -0.037659 -0.436329 0.256786 -0.012207 0.106297 -0.279180 0.118847 -0.633875 0.079035 0.328395 0.022876 -0.367053 0.474292 0.127391 -0.627106 -0.357635 0.415101 0.002507 0.053209 0.067422 -0.524501 0.486171 0.213833 -0.535541 -0.266922 -0.315640 -0.100775 -0.058783 -0.170519 -0.647954 -1.050763 -0.406864 0.101337 0.289968 0.030322 1.320485 -0.460365 -0.505750 -0.490573 0.363184 0.665681 -0.195391 -1.047965 0.830144 0.428446 1.577282 -0.003385 0.299388 -0.275629 -0.352188 0.222347 0.731224 0.256200 0.075146 -0.261036 -0.423676 -0.674828 0.015034 0.515272 -0.320698 0.312584 0.973647 0.079971 0.104555 -0.151156 0.112055 -0.037102 -0.005073 0.703623 -0.274477 0.253142
see -0.821221 1.338633 -0.718227 0.456704 -1.060899 -0.388626 -0.344692 -0.363982 0.150399 0.698277 0.240310 0.006596 0.473085 -0.608490 -0.653393 -0.399569 0.860213 1.826106 0.027886 0.875567 -0.195881 -2.205621 -0.563138 -0.530054 -0.529873 -1.435329 -0.082989 -0.228132 -0.758205 -0.510658 1.161139 0.801029 -0.272995 0.439708 0.888044 0.339306 -0.476101 0.863672 0.595652 -0.171831 0.857579 1.411720 0.467639 0.205523 0.870682 -1.022186 1.848392 -0.106659 -0.295605 -0.054608 -0.074566 1.195082 0.211550 0.443191 -0.409654 -0.441650 -0.345954 -0.388261 -0.014487 -0.212381 -0.081233 -0.340624 -0.716959 -0.393549 1.104434 0.258592 -0.316604 -0.237853 0.154832 1.288980 0.060972 0.770454 -0.178364 -0.169993 0.677056 0.691615 1.076815 0.513617 0.487766 0.417292 -0.831257 -0.069956 -0.398154 -1.034350 0.134501 -0.995486 -0.870698 -0.157901 -0.174415 -0.656678 -0.463266 -0.480529 1.227274 -0.905174 1.519453 -1.103717 1.177369 -0.216587 0.746675 0.894403 0.525591 1.040501 0.596339 -0.368533 -1.086515 0.491972 -1.039218 1.194515 0.371317 -0.326381 -0.992725 -0.988321 0.237010 0.541951 1.044385 0.087538 0.201593 0.478213 0.310790 0.764197 -0.766500 -0.454914 -1.233253 -0.933512 -1.053073 0.368536 -1.109528 0.193239
