3000 128
<pad> -0.195780 -0.158648 -0.685506 -0.256332 -1.214670 -0.319775 -1.076292 0.151194 0.524808 -0.451915 0.306190 -0.638165 0.276236 -0.022740 -0.588018 -0.315334 0.794130 -0.185707 -0.490269 1.272613 0.382453 -0.180734 0.765617 -0.392804 -0.043099 0.473348 -1.827862 0.302992 -1.228686 -0.702802 -0.190184 -0.169217 0.227594 -0.335533 0.541917 0.621408 -0.244177 0.793780 -0.391477 -0.493485 1.418450 0.272146 0.222870 0.193462 -0.465560 -0.291099 -0.954351 -0.743794 0.157015 -0.308571 -0.301426 -0.116777 -0.287081 1.254649 -0.281008 -0.522270 -0.095656 0.099040 0.090892 0.094976 0.056294 -0.107394 -1.073601 -0.974036 0.267826 -0.323619 -0.118931 0.543132 0.373005 0.067965 -0.104369 1.660715 0.890487 -0.566830 0.074734 -0.083444 0.378353 0.165935 -0.160237 0.097398 -1.069483 -1.197906 0.000647 0.544657 -0.799907 0.448882 -0.380235 -0.329064 -1.071347 -0.562111 -0.097839 -0.580647 -1.175876 0.324493 -0.173645 0.901432 -0.301825 0.991285 -1.108931 0.166777 0.070607 1.122260 -0.344690 0.078347 -1.347914 0.467377 0.059098 -0.186977 -2.156993 -0.133993 -0.105367 -1.619254 -1.516238 -0.348187 -0.435848 0.182294 0.446761 0.392968 -1.030229 0.436149 -0.015265 0.625871 -0.149129 -0.199710 0.396682 -0.570104 -1.262553 -0.008120
<start> 0.340043 -0.022569 -0.115417 -0.290245 4.259889 1.505995 2.111103 -1.396399 -0.688764 0.159408 -0.586689 1.644760 0.761346 0.542235 2.026257 0.135721 -1.360142 0.702300 1.108674 -2.182823 -0.463667 1.036507 -1.929364 0.446971 0.943784 -0.929648 -3.287363 0.045076 1.882279 1.497309 -0.795208 1.433332 -0.011168 0.164430 -2.052899 -0.460983 1.414826 -0.229878 1.291760 -0.215933 -2.001383 0.446120 -0.413327 0.616743 -0.546486 0.469622 1.610558 -0.206555 -0.989536 0.807284 1.420734 0.153713 -1.912243 -0.525475 0.910689 0.939615 1.340567 -0.205738 -1.215684 -4.432117 1.898313 1.265137 -0.185900 -0.117233 0.863064 2.411345 -0.786378 0.090878 0.429906 0.483296 0.211886 -1.126198 -1.255046 0.629272 -0.586680 -0.620346 -1.081968 0.007905 -0.028230 2.066634 -0.594857 0.727911 -0.529046 -0.270442 2.246275 -0.891163 0.151096 0.906617 2.491566 0.276253 0.006028 0.917894 1.085524 0.268757 1.171346 -0.805745 1.232702 -0.285303 0.686557 0.537719 0.652638 -0.840682 0.706008 -1.125100 1.668811 -1.513061 0.270098 0.008899 2.446536 0.321302 0.467188 1.325438 0.965168 1.482473 0.428276 -1.255372 -0.431767 -0.672971 1.014701 1.380545 -0.757369 -0.172227 -1.207587 -0.966516 -0.658343 0.276909 0.870610 0.540524
<end> 1.165706 0.030134 1.058479 0.190548 0.836195 0.449834 1.045145 0.708025 0.044864 2.030885 0.920093 -0.217271 -0.657126 -0.142197 -1.135865 1.700018 -1.471011 0.961305 0.851876 -1.945032 -0.781580 -0.496969 -1.580463 0.383517 -0.858442 -0.986553 2.035968 -0.211328 0.455776 1.159220 0.658512 -0.041647 1.202304 -0.703009 -1.219810 0.612846 0.959303 -2.196878 0.815159 0.053942 -0.369616 1.469784 0.440846 -0.575903 0.242013 -0.153739 0.908601 1.665496 0.114506 -0.593348 1.823949 -2.187563 0.801695 -1.747044 0.843417 0.653648 0.866537 -0.209939 0.547647 -1.365463 0.249565 1.443248 1.194135 1.209885 -1.068855 -0.656832 1.569619 -0.312753 -0.605943 -1.832292 0.400171 -1.503773 -0.706186 0.982818 0.374324 1.082418 -0.843985 1.400092 -1.134050 0.573316 2.907906 2.132417 -0.461919 -0.390608 1.046347 -0.739802 2.178033 0.703552 1.818254 1.415046 -0.014817 0.322538 0.873236 -0.096830 1.359195 -1.235511 -0.666225 -1.826838 0.964568 -0.341942 -0.220931 -2.158525 0.855070 -0.162914 1.255542 -1.850020 -2.025354 -0.828542 5.584790 1.144111 -0.497471 1.326259 2.289417 0.910840 -0.927501 -0.525788 -1.085274 -1.588373 0.266939 -2.246771 -1.730900 -2.850044 -1.555748 0.993041 -1.021417 1.724519 1.974007 -1.996247
<unk> 0.302585 0.421922 0.209605 0.006152 0.704164 -0.234310 -0.150234 -0.735296 0.365981 -1.556608 -0.404994 -0.034028 0.142792 0.295845 0.486394 0.210442 0.119280 -0.001800 -0.501483 0.400529 0.010781 -0.109297 -0.562387 0.078106 0.101215 -0.692757 0.440245 -0.460852 -0.338262 0.013430 0.088432 0.247085 -0.104910 0.159479 0.067161 -0.187619 0.202911 -0.156186 0.348226 0.201212 -1.028476 0.188375 0.329122 -0.170471 0.031293 0.089322 -0.508008 0.386858 -0.288027 -0.362983 -0.169468 0.130457 -0.024563 -0.082211 -0.604475 0.171644 -0.263944 0.148524 0.045984 -0.438683 -0.325232 0.072175 -0.029370 0.246999 0.458322 0.245289 -0.134670 0.202058 0.091312 0.934296 -0.106873 -0.459699 -0.246290 0.337271 0.531169 0.047774 -0.034892 -0.203683 -0.121161 0.241745 0.208842 -0.865158 -0.034256 -0.169925 0.021498 0.110253 0.471958 0.225027 0.215645 -0.028175 -0.443512 0.618672 0.232867 -0.762659 0.036500 -0.002004 -0.414702 -0.689972 0.188637 0.133739 0.471433 -0.221565 0.249734 0.128448 0.016203 0.240409 0.855039 -0.265130 -0.931371 0.086619 0.175112 -0.484638 -0.214043 0.122358 -0.013698 -0.013072 0.252516 0.124448 0.496645 0.646536 -0.208386 0.505761 -0.094478 -0.432612 0.243706 0.408448 0.066731 -0.028936
the 0.941600 -1.122605 -0.471423 0.101992 -0.353249 -0.372215 -0.232507 0.621518 -0.173841 0.676212 1.547660 0.007642 0.811793 -0.426376 -0.581782 -0.645017 0.095920 0.353995 -0.143391 -3.978359 0.070984 0.441026 -0.165525 -0.827411 -1.009493 0.660816 3.341973 1.032202 -1.280701 0.095485 -0.195929 -0.061307 0.844988 -0.557138 -0.914008 0.422041 -0.749301 -0.229513 -0.646741 -0.490086 1.361087 1.015015 0.051406 1.367182 -0.014021 -0.177366 -0.347880 -1.500625 -1.310397 0.571407 1.878020 -0.113614 0.237058 0.976348 -0.088752 -0.351993 -0.111356 0.785819 1.258829 2.152099 0.452275 0.632004 -0.609457 0.109973 0.089608 -0.640425 1.196214 -0.324922 0.509038 -1.019293 -0.356756 0.582814 0.189825 -0.993067 -1.337670 0.672862 -0.015697 0.620004 -0.111449 1.385230 0.005995 2.404332 0.060742 0.764296 -0.075203 -1.270792 0.012566 -0.332272 0.710776 1.559148 0.226775 -0.757468 0.843879 0.463092 0.736814 0.348531 0.317831 -0.840783 -0.646316 0.793898 -0.355604 -0.335534 0.171159 0.333452 0.809693 -0.252605 -0.660904 -0.207053 -0.236033 -0.231841 -0.781929 0.762437 2.428416 0.257075 -1.037952 0.134906 0.586697 0.473637 -0.099428 -0.754822 -0.502413 -0.548423 -0.950498 1.296848 -0.796266 0.615162 0.125512 -1.499088
and 0.065466 -0.379922 -0.166499 0.196197 -0.380046 0.464419 -0.624550 -0.223101 0.243273 0.499825 0.095831 -0.410438 -0.123313 -0.167152 -0.096727 0.365011 -0.054845 0.319409 1.198836 -0.656436 0.039785 0.104500 1.322375 -1.273801 -0.470349 -0.242832 1.006575 -0.416726 0.528719 -0.407713 -0.074067 0.101191 1.336462 -0.144774 -0.336811 -0.134630 -0.270174 0.649060 -0.211624 -0.521059 -0.822552 1.252914 -0.722404 -0.019839 0.381631 0.149377 -0.208160 0.875600 0.161501 -0.202113 -0.045210 -1.138436 0.134598 0.364695 0.518279 0.038531 1.058721 0.803459 -0.342097 -0.312236 0.102719 0.313405 -0.681426 -1.446366 -0.175739 0.587135 0.851204 0.303192 0.201586 -1.181200 -0.172189 -0.358387 0.363383 -0.332980 -0.623713 0.111066 -1.066568 -0.206089 -0.118479 0.423264 0.856856 -0.018317 -0.277753 0.387932 1.204929 -0.101093 -0.534334 -0.542073 1.085721 0.324280 0.307163 -0.045350 -0.672300 0.101116 0.552541 0.491695 0.238096 -0.340518 0.213406 -0.143065 -0.580831 -0.939636 0.289111 -0.553375 -0.385273 -0.653751 -0.652928 -0.544110 1.607369 0.438502 1.004253 0.326148 0.802148 0.391915 -0.641600 -0.155496 -0.807278 -1.036607 -0.821173 -0.385401 -0.188560 -1.652302 -1.044501 -0.169160 0.985379 -0.922752 -1.020678 -0.286866
of -0.764314 -0.841149 1.263779 -0.582613 -0.183420 0.471858 -0.562657 0.589553 0.497153 0.350537 0.418537 0.027661 -1.445332 0.688221 -0.345866 -0.602796 -0.847867 1.555765 0.264057 2.405818 -0.059868 -0.018193 2.065547 1.161086 0.701963 -1.179951 0.930659 -0.618971 0.539865 0.643183 0.302337 0.316534 -0.769620 0.379970 0.911801 1.742949 -1.449793 -0.642784 -0.691627 -0.431647 5.371408 1.843434 0.281690 -0.384330 -1.079833 -0.494941 0.626522 1.263279 -0.439534 -1.670034 1.133866 1.786832 0.005684 0.085756 2.555749 -1.151129 2.306212 0.818593 -1.924683 1.946599 0.621621 -1.275445 -0.371763 -0.984598 -0.023022 1.563415 1.259945 1.243316 -0.098838 -0.652564 1.107421 0.300044 -0.487748 0.789390 0.678478 -0.129631 0.135183 -0.973067 0.154817 1.675173 0.258450 0.472187 -0.606859 0.813152 0.879808 0.616611 -0.437189 1.021954 -2.507708 -0.291607 -0.736685 1.069196 0.877301 0.605629 -0.221265 -0.419540 0.354589 -1.428796 0.228835 0.914085 -1.170348 0.316885 0.993324 0.973514 0.378765 -1.184491 0.028383 -0.908322 2.300585 1.224836 0.436494 0.171002 0.862908 0.592678 -0.193170 -0.136258 -0.467209 -0.721500 -1.229033 -0.409574 -0.265986 -2.504426 -0.689989 -0.847947 -0.897972 0.822091 -1.221115 -1.800631
to -1.026227 -1.994742 1.041605 -1.408079 -0.112863 -0.658345 -0.776481 0.868652 0.403367 3.055823 1.257718 0.966755 0.672958 0.195713 0.430540 -1.202836 -0.268794 -0.430024 1.141968 -0.323084 0.763936 1.480419 1.179974 -0.737681 -0.271108 -0.225861 0.254904 0.110894 0.603548 -2.765753 0.937805 -0.531098 1.263788 0.064013 -1.185812 0.759849 0.170075 0.848250 -0.611440 -0.529535 2.913456 0.756865 -1.305624 -0.132215 -0.729790 -1.064694 0.791782 0.030238 -0.075242 0.457286 0.697508 -0.769514 -0.398155 -1.211633 -1.443429 1.040278 0.334414 -0.281436 -0.829045 -0.774248 1.899572 -0.006709 1.957947 -0.200620 0.659872 -0.533160 -0.851243 -0.637343 -1.145811 -0.647306 1.159676 0.870050 -1.084775 0.053017 -0.691844 -0.329075 -0.522887 -0.371484 -0.372460 -1.809084 -0.461518 -1.124482 0.821544 0.153365 0.891228 -0.289859 -1.300794 -0.898751 -0.404406 0.611075 -1.046931 -1.049000 -1.671359 -0.201231 -0.746599 -0.302765 1.070541 -1.240162 0.518369 -0.274079 0.677784 -0.117542 0.145915 -0.277786 2.019893 -0.092627 -1.702440 0.034105 4.520190 0.822983 0.476591 0.280309 -1.359525 -0.456787 -0.210281 0.377970 -0.532694 -0.150909 0.199387 0.208190 -0.875942 1.242951 0.121536 0.031132 -0.057255 -0.602664 0.067835 -3.054203
a 0.635821 -0.563986 0.916219 0.135902 -0.259489 -0.116732 1.348594 1.399724 -1.067539 1.566710 -0.059770 0.393253 0.305812 -0.129662 -1.265421 0.408649 0.332488 -0.820241 -0.504949 -1.640238 0.141513 -0.267982 1.065948 1.199810 -0.378324 -0.245502 2.746598 1.551764 -1.168399 -0.114027 -0.544790 -0.623605 -0.501395 -1.224148 -0.160168 0.589239 3.650468 -0.630354 0.052925 -1.122098 2.247560 1.113681 1.095259 1.045884 0.762742 0.792954 -0.225846 1.237377 -1.468972 0.295216 1.958331 -2.611672 -0.500582 -0.093131 -1.971911 0.151366 0.102168 0.230775 -0.513370 2.061318 -0.425301 -0.010536 -1.601927 -0.315543 1.726339 -0.398096 -0.760763 -0.252217 1.671944 -0.281241 0.918309 1.293694 0.404973 -0.721369 -2.296179 0.352316 -0.083905 -0.132926 -1.348781 0.510207 -1.356508 2.144084 0.901957 0.544937 0.138372 -0.737038 0.172554 -0.825576 -0.334218 0.651704 1.384680 -0.034618 1.291877 1.257784 0.578182 -0.056154 0.257533 -1.671799 -0.849180 0.287722 -0.946937 -1.391507 -0.723354 -0.067168 1.166909 -0.342001 -1.661644 1.301613 -1.024040 -0.438226 0.976282 1.021520 3.862400 -0.417217 -1.022641 0.016791 -1.982385 -0.509051 -0.148448 -0.098851 0.220231 -1.415148 -0.384851 2.240256 -0.395514 0.876711 -0.100712 -0.829613
in -0.335282 -1.191567 0.263477 0.517511 -1.030327 2.405743 -1.338020 0.676675 0.378660 1.907844 0.309694 0.882139 1.281738 0.340950 -1.636356 0.325878 -0.640451 0.179468 0.729098 2.724281 0.756819 0.693464 2.829384 0.461968 0.657036 0.714017 1.973595 1.357543 0.675586 0.565359 0.597178 -0.369994 0.989203 -0.064265 -0.646006 -0.789289 -0.801539 -0.955035 0.042037 1.293852 1.536284 0.412288 -0.336710 -0.834633 -0.848810 0.506830 1.138901 1.874368 -0.745246 -1.034144 0.622190 0.817620 1.230498 0.717068 2.097207 0.021467 0.678236 0.422813 -0.134676 -0.413308 0.027205 1.660620 0.755467 -1.507261 0.132273 1.675296 1.421279 0.890030 -0.330219 0.338803 -0.516749 0.028276 -0.825096 1.293574 0.521505 0.562250 0.305301 -0.803880 -0.853684 0.429095 -1.530419 -1.958778 0.046075 0.632045 0.955742 0.374394 -0.182252 -0.952620 0.304602 0.708676 -0.463989 -1.306709 0.335956 0.626091 -0.314075 0.741073 0.472724 -0.675033 0.040492 0.324011 0.346206 -0.249205 0.876355 1.155688 -0.202212 -0.858747 -1.521224 0.101676 -0.047674 0.894581 -1.246121 0.832702 0.721935 0.593555 -0.988918 1.493317 0.290423 0.263672 -1.350608 -1.307127 -0.254404 -1.194138 -0.413429 -0.174181 0.635896 0.066976 0.813361 -2.445299
i -0.709828 -0.208981 -0.490853 2.096330 -1.483215 -1.890178 2.138632 -0.662529 -0.329492 1.642801 -0.090171 -1.231208 0.104741 -1.160970 0.285808 0.160891 -1.913367 0.252345 1.591134 0.506040 -0.276811 0.698918 0.217337 -0.677846 -0.294298 0.542162 -1.911623 0.243564 0.837153 -2.108478 -0.967323 -0.596304 0.363573 -0.206146 -0.326795 -0.658107 -0.544305 0.399130 -1.231884 -0.807138 0.238118 -1.915015 -0.664818 0.184155 -0.186485 -0.515007 -0.696587 -0.751737 -0.576648 -1.134052 -0.312655 -1.008683 0.103972 -1.744924 -0.335810 -0.005868 -1.343690 0.830199 0.954824 -3.327494 0.094594 0.573572 1.420733 1.497307 1.539861 -1.450750 0.087464 -0.064122 -0.212036 -0.464125 1.486934 -0.266564 1.095565 0.314576 -0.668760 0.659917 -0.332944 -2.375327 -0.111862 0.338044 -0.543443 2.106523 -0.661049 0.987377 1.140151 -0.031333 -0.458579 -0.886232 0.325711 -0.202895 0.374856 -0.846700 1.665663 -0.455105 -0.415205 0.625109 0.518958 -1.525122 -0.219433 -0.724847 0.261592 -0.158138 -1.545031 0.274796 -0.590657 0.661024 0.518431 -0.256747 2.249615 -1.029748 -0.413109 -1.100586 0.657186 0.023869 -0.873590 1.485099 1.936319 -0.195514 0.597427 -0.409155 1.016117 -0.865252 0.968397 2.250048 -0.582855 -1.189867 0.682575 1.765002
he -1.187674 -0.172350 1.088597 1.123070 -0.037712 -0.808916 2.105343 -0.500243 0.136084 1.125321 0.349411 -0.063592 1.582908 -1.452109 1.077005 -0.443630 -0.944969 0.491825 1.627585 -0.323715 -1.436014 1.026241 0.786834 -0.894140 -0.800018 0.942668 -0.747898 0.691046 -0.025614 -1.201162 -0.931793 -1.726059 0.502137 -0.241252 0.439171 0.817400 -0.767088 0.127889 -2.071077 0.030123 -2.179813 -2.130479 -0.944373 0.142019 0.936363 -1.269452 -1.031770 1.158150 -0.810270 -1.406382 1.292139 -1.043436 1.498646 0.038733 -0.479982 0.049938 -1.027092 0.287481 0.285363 -2.173666 0.529558 -0.477412 0.416233 0.393831 1.021349 -1.075787 1.185313 -1.325989 -0.398814 -0.065403 1.327665 -2.227720 2.360026 -0.074610 -0.531892 0.384545 0.573393 0.163974 0.762602 0.275837 -0.398423 -0.272698 -0.542835 0.718489 0.690012 -0.799143 -0.010989 0.784692 1.083831 -1.187870 0.687519 -1.258937 1.291883 -0.485709 -0.769157 0.222519 0.999654 -0.263805 0.597661 0.432882 0.343440 -1.330343 0.059661 0.493732 -0.334663 0.034040 0.581854 -0.815401 0.993687 -1.484420 -0.230110 0.127156 1.417930 -0.655112 -0.103480 -0.213036 1.919393 -0.532507 1.699092 -0.937574 1.048846 0.758508 0.195985 1.745016 -0.101960 -1.480735 -0.278489 1.708455
that -0.477652 -0.694069 -0.464940 0.404173 -0.024703 0.141446 0.362443 0.662113 -0.312281 0.754169 0.377329 -0.881022 0.823851 0.865119 -1.084529 -0.111062 -0.587050 -0.182072 0.249114 -0.649414 -1.508399 -0.441841 -0.631006 -0.599610 0.216135 0.310711 -0.657059 0.129178 0.249417 1.359190 0.281061 -0.133015 -0.475221 -0.597520 -1.365197 0.200949 1.775811 -1.475347 -0.895016 0.582125 2.598737 0.549374 0.736319 -0.696719 -0.393468 -0.467268 0.148015 -0.970881 -0.531124 0.733333 0.590732 0.127573 1.060124 0.840206 0.444581 -0.328096 0.702472 -0.171117 -1.655585 0.377034 -0.843693 1.714149 -0.106898 -0.798478 0.676247 0.560040 -0.405069 -0.145366 1.139418 0.090910 1.133433 -0.044597 0.828744 0.074672 -0.328662 0.512176 -1.635920 -0.095353 0.924324 -1.555658 -0.548613 -0.046823 0.200394 0.891083 0.422718 -0.260739 -0.731670 -0.397135 0.035145 0.442423 0.982266 -1.064789 0.299068 0.177127 0.528158 -0.788261 -1.786581 0.050878 -0.177585 0.242713 0.531207 -0.417800 -0.147099 -0.820720 0.176390 0.366431 1.541619 -0.564507 2.104136 0.297687 -0.572130 0.042479 0.548836 -0.373822 -0.380720 -0.388419 0.495950 -0.508380 -0.153550 -0.458127 0.607784 -0.582902 -0.453356 0.079172 -0.611263 0.286682 -0.548277 0.621714
his 0.128081 0.359098 0.559611 -1.961858 -1.006638 -1.286532 -1.248332 1.611054 -0.633965 1.919606 1.367419 -1.166530 1.139047 -0.714682 0.910963 0.322799 0.663374 -0.253170 -0.850736 -4.003850 1.791726 -0.804290 1.709226 1.095539 -0.236578 0.715273 2.753151 -0.982344 -0.184370 0.971562 -1.338066 0.428387 0.186279 -1.587108 0.017444 0.880107 -0.614120 -0.299250 -0.817478 -1.508315 -0.054480 -0.626087 -0.375840 1.207246 0.459999 -0.014949 -0.394824 1.010561 -1.173410 -0.299556 -0.216934 0.174387 1.479561 0.760037 -0.159508 0.211448 -0.360982 -0.353290 0.236599 1.390940 1.363810 -0.473179 -1.437886 0.345910 0.467534 -0.307220 0.773767 0.115705 -0.067844 -0.241539 0.342471 1.566435 0.762743 -0.348588 -1.165052 1.280763 -1.085999 0.169873 -0.007809 1.204170 0.865847 -1.440488 -0.353479 0.499956 0.288732 -0.163882 -0.246599 1.015714 -0.514313 -0.542712 0.862306 -0.497888 1.114331 1.013144 0.836498 -0.403946 0.400735 2.095596 -0.796309 -0.594827 -0.493627 0.645699 1.009741 0.786391 1.137359 -0.094137 -0.078978 -0.598342 2.479549 -0.956020 -0.163847 -0.523327 4.407178 -0.200096 0.107856 -0.396931 -0.422714 0.616416 -0.546840 0.908694 -0.380255 -1.984268 0.743733 2.224663 -1.244538 -0.301247 1.010672 1.392227
was 1.407649 1.806369 -0.974238 -1.898447 -0.878107 0.542015 -1.245425 -2.053234 0.282352 1.379021 0.009962 0.150181 0.845539 1.625928 -2.345263 -0.958239 -0.148818 0.627111 1.091622 0.772530 0.178672 0.049212 -0.313054 1.389635 -0.246954 1.129166 0.708176 -0.664414 -0.373051 0.793130 -0.175074 0.812895 -0.700742 0.400355 1.803003 -1.508837 0.729568 -1.660413 0.589187 1.279943 -0.307240 -0.734835 1.856045 0.235124 1.023891 -0.456873 0.152061 2.489229 0.636135 1.365399 -1.462200 -1.355808 -0.598341 -0.174432 1.013503 0.181840 -0.236867 -0.016814 1.415380 0.812921 0.598701 -1.105457 -0.460548 2.031656 -0.626508 1.015922 0.341380 0.633262 -0.580553 0.606163 -0.690859 1.697475 -1.049165 -1.090743 -1.777213 0.453528 0.078341 0.598798 0.311939 0.464322 1.090137 0.450876 1.452406 0.103841 -0.337361 -1.057985 0.332733 -0.206886 -0.106067 1.606477 1.260147 0.515601 -0.564621 0.356813 -0.711233 1.409854 1.314796 -1.801175 0.217301 1.045387 -2.405639 -0.245738 0.177916 1.959675 -0.918245 -1.717672 -1.312850 0.641728 1.784724 1.094459 -0.273915 1.767711 -2.143831 -0.125863 1.546173 -0.801214 -0.448167 0.622841 -2.300839 0.117419 1.206445 -1.812749 0.114309 1.353752 -0.455206 1.802429 -1.227377 1.626804
it 0.095848 -0.691859 0.283163 0.581416 0.230971 -0.215347 0.958585 0.460504 -0.090827 0.506638 -1.055053 0.436204 1.886063 -1.216574 2.430156 0.036638 0.646304 -0.765141 1.283451 -1.033390 -1.207835 0.187969 -0.160427 -0.539932 0.396623 0.471916 -1.608360 -0.388938 -0.432900 -0.345341 0.336596 -0.908067 0.968622 -1.554171 0.063253 0.200631 1.655659 1.203467 -0.694057 -0.961358 -0.703853 -2.262822 -0.704857 0.079807 1.408378 -0.242161 -0.493707 -1.823123 -1.651813 -0.747810 0.944999 -0.162497 0.286687 0.703635 -0.383259 0.930650 -0.968402 0.799253 0.415402 -0.798709 -1.251444 1.002076 -0.165084 0.132196 0.449754 -0.176423 -0.778039 -0.542385 -0.359063 0.451309 1.036777 -1.669850 0.096173 -0.393358 -0.933885 0.167453 0.197241 -0.725767 -0.097060 -0.876803 0.275422 -0.012669 -0.206375 -0.581635 -0.532923 -1.055912 0.472770 1.060832 -0.207332 -1.761122 1.203804 -0.875907 1.486266 0.368843 0.001103 -0.192115 -0.002278 -0.833721 0.774422 -0.001505 -1.258054 0.361606 -0.013353 -0.045310 0.325017 1.146093 1.185568 -1.183181 0.183325 -0.158875 -1.218625 0.967756 -0.663529 -0.039994 -1.184038 1.015841 0.117375 -1.065108 2.670172 0.221538 -0.063709 0.183942 1.151787 0.592932 -0.500045 0.038624 0.820485 1.052081
you 0.246180 -0.165583 -0.900932 1.576423 1.067242 -2.330026 0.012995 -1.222538 -0.643340 1.698944 -0.984774 -1.040724 -0.125439 0.042076 -0.629397 0.011888 -1.321937 0.942183 -0.186622 -0.197119 1.348915 0.067024 -0.024762 -0.617752 0.781090 0.726542 -2.800766 0.022854 -1.101339 0.031928 0.831784 -0.825712 0.231590 -0.464541 0.611843 0.993400 2.055468 0.860920 -1.427054 1.217081 -0.196154 -0.322632 -1.254103 0.940284 0.847994 -0.658573 -0.711971 -1.105487 -0.310614 -1.351583 0.141431 -0.278483 -1.377350 -2.008734 0.777414 -0.291666 -1.480615 1.001938 1.356760 -2.918585 0.083860 -0.498089 1.190316 0.824489 0.706635 -1.441536 0.035972 -0.957418 -0.343158 0.424400 0.527956 -0.212503 0.064735 -0.200631 -1.313744 -0.528509 0.126329 -1.089528 0.698169 -0.462672 -0.152307 1.288470 -0.798543 -0.240181 -0.408926 1.728220 -0.982865 -1.074296 -0.298385 0.873092 0.679946 0.033483 1.080760 1.577529 0.083032 0.973737 0.739724 0.365695 -1.011347 -0.184942 0.178442 -0.626923 -0.821353 1.233399 0.779918 0.936202 -0.371883 0.631916 3.157763 -0.063879 -0.051505 -0.286057 0.975440 -1.701147 -0.726078 0.469123 -0.159193 -0.125777 1.169757 -1.075193 1.195989 0.321669 1.524935 1.876718 1.260057 -1.248079 0.479816 0.821439
with 0.932649 -0.459584 -0.019809 -1.024978 0.166364 -0.657111 0.127171 1.289548 1.940332 -0.063257 0.640127 -0.670942 -1.748891 0.596142 -1.242900 -0.837777 0.542185 -0.958439 -0.606176 0.572341 -0.112498 -0.403831 0.023013 1.689410 -0.131223 -0.237975 2.293066 0.187421 1.899085 0.286502 -1.152071 0.355397 -0.164975 1.490229 -0.072079 0.632251 1.728817 0.299855 0.006754 0.481655 0.111258 -1.176746 0.816544 -0.952806 -0.419133 -1.500703 1.063035 1.102132 0.545542 -1.892319 -1.644012 -0.322485 1.580528 0.013589 0.586403 -0.222676 0.398035 1.495219 1.038113 0.332896 0.232608 -0.112947 0.801842 -1.800994 -0.968724 2.290461 1.287331 -0.436684 -0.154318 -1.556303 -0.485838 2.208622 -0.428018 0.902003 0.271551 -1.213273 0.240189 0.188686 -0.604905 1.780699 -0.000060 -1.638703 -1.239814 0.687216 1.947558 -1.756050 -1.077197 0.589353 1.319145 0.482815 0.019509 -1.780848 -1.033910 0.564052 0.265897 1.222110 0.216090 -0.424134 1.073950 0.598225 0.725295 0.540878 -0.580589 -0.690742 -0.663286 0.739598 -1.492129 -0.942152 1.403335 0.406826 0.419259 1.333361 0.663637 1.485872 0.467843 -1.061967 0.142230 -1.201948 -2.393907 -0.558271 -0.375105 -1.624750 -1.540263 -1.286234 -0.222872 -1.245753 0.814677 -2.501291
is 0.587449 2.628398 -0.014410 -1.946857 -1.469221 -0.079519 -1.849743 -1.634961 1.116906 1.834050 0.185450 0.711522 -0.111936 0.872160 -1.178434 -1.031151 0.194051 0.063439 -0.462947 1.854769 -0.542501 -0.436393 -2.083800 1.728461 1.133047 1.657834 -0.360477 0.845978 -0.107846 0.720666 1.790657 1.226009 -0.128503 0.439767 1.167419 -1.624707 0.287601 -0.750389 1.553825 2.412213 1.639759 1.543415 1.255315 0.060899 -0.680248 0.060058 -0.925398 1.152723 1.157176 0.628129 -1.041033 -0.650759 0.442136 -0.542610 0.249611 0.174248 0.136740 0.272653 0.082352 -0.101070 -1.005408 -1.202282 -2.078137 1.519219 -1.159176 0.188674 1.625217 1.239717 -1.307548 2.009560 -0.628014 1.289330 -1.184251 -1.509755 -0.940673 -0.768139 0.023024 0.157218 -0.462307 1.119060 1.860764 1.601556 1.356093 1.147850 -0.165086 -1.171758 0.904898 0.077259 -1.278798 1.005263 1.054272 0.975785 0.333931 0.262195 -1.180150 0.857190 1.095020 -1.689459 -0.371592 0.928007 -1.973518 -0.989259 0.715200 1.760377 -0.109758 -1.295273 -1.598042 0.151962 2.152013 1.162054 1.304149 1.101548 -1.323563 0.355316 -0.094635 -0.320871 0.928644 0.590398 -1.899144 1.034453 2.397380 -0.641940 0.100318 1.239672 0.960945 0.490855 -1.406833 -0.870085
as -0.422811 -0.556050 -0.299341 -0.015375 0.414965 -0.573900 -0.428179 0.120383 -0.653623 0.199453 0.241257 -0.024424 0.493467 0.673240 -0.566650 -1.012626 0.071166 -1.011199 -0.794012 0.805187 -0.431444 0.372793 0.669591 -1.358568 0.657880 -1.333778 0.214194 -0.259997 0.028538 0.186532 0.078203 0.417114 0.666209 0.293258 -0.723369 -0.075775 1.213589 1.728919 0.475511 0.891934 -1.148891 0.831309 0.626458 -0.531137 -0.914863 0.668521 -0.800637 -0.008410 1.003514 -0.771795 0.891994 -0.748244 1.397005 0.769270 0.101662 -0.603703 1.380029 0.903256 -1.982990 0.453822 -0.673537 -0.585645 -0.311504 -0.395011 -0.414452 2.134077 0.072789 -0.465589 1.311551 0.295956 -0.570020 0.249345 -0.564325 -1.902506 -0.530399 0.606187 -0.385494 0.747516 -0.448688 -0.679532 1.286334 0.052851 -1.204281 -0.036608 0.172141 0.490685 0.918031 0.161918 0.642996 1.257308 -0.035824 -1.358641 0.158369 0.782111 -0.396233 -0.844059 -1.100215 0.178134 0.175865 -0.847310 0.424339 0.411420 0.331389 -1.052559 -1.830232 -0.860509 -0.553029 0.572647 0.959536 0.362604 -1.423749 1.388653 -0.004062 1.297229 0.508258 -0.449905 0.756808 0.226894 -0.388197 0.595482 0.027262 -0.268482 0.218558 -0.018118 -1.207001 0.155193 0.538249 0.410849
not -0.129325 -1.074178 -0.256649 2.379668 0.424177 -1.179965 -1.396486 1.583606 0.009733 -0.629373 -0.971964 0.745788 -0.540883 -0.392010 -1.636441 0.305300 -0.824905 1.051933 0.186157 -0.765127 0.329546 0.515499 1.442860 -0.544560 1.440621 0.791184 -1.295164 -0.831602 0.963868 -1.569749 1.381824 0.582134 0.212522 -0.447944 0.810524 0.294924 -0.189462 2.321920 -0.689337 2.043557 1.898265 0.247449 0.594650 -0.598016 0.042717 0.960977 -0.474821 -0.086054 0.566567 1.530987 0.862876 0.032019 0.547719 -0.675206 0.234551 1.537539 0.380765 0.388992 1.261327 -1.878932 -1.063456 -0.096582 0.160994 -0.302671 -0.353431 -1.235955 -0.477723 -2.481037 0.331070 -1.021202 1.631503 0.126203 -0.444952 -0.235790 -0.046332 1.391328 0.913576 -1.170298 -0.692676 -0.237858 -0.238584 -1.158378 0.176445 0.348727 -1.156389 0.440208 -0.947052 1.712865 -0.066660 -0.881986 0.765345 -0.703589 1.123781 0.157472 0.335940 0.138304 -0.161127 0.297346 0.699838 0.761967 1.136923 -0.186994 -1.051001 -0.102994 0.865586 0.067614 -0.111708 0.213542 1.594959 -0.576310 -0.554590 0.646580 -0.274810 0.695658 1.145313 -1.993262 -0.350352 0.261858 -1.299218 0.183853 -0.611960 1.625675 1.712460 -0.148169 -0.414459 0.561191 0.090197 -0.517764
for -0.974480 -0.209261 0.865356 -0.843906 -0.490553 2.126649 -1.501546 -0.405294 1.299054 0.441710 -0.205746 0.838101 -1.348044 0.306200 -2.435224 1.303344 1.318932 -0.389241 1.022517 -1.125485 0.975103 -0.550206 1.241157 -0.038713 1.395865 -0.900805 -1.137179 0.881718 1.155790 -1.302042 -0.486773 1.158988 -0.405340 0.641874 0.785370 -0.452257 -0.190314 -1.193550 -0.291091 0.279342 3.272702 0.501639 0.096095 -1.221200 0.432948 0.147622 0.855818 -0.762168 0.102877 -1.429818 0.033507 -0.699089 -0.057732 -1.096189 1.260573 0.111560 1.797932 -0.451261 -1.559714 0.032303 0.945445 -1.341554 -1.464294 -0.032700 0.579786 -0.059691 0.391678 -0.477886 0.323952 0.739633 -0.417610 0.855130 0.778669 1.288983 1.262180 -1.430872 0.832204 -0.249094 -0.211603 -0.187501 0.116104 -0.705561 -0.787533 0.333373 1.166292 0.418342 -0.123234 -1.892344 1.845547 0.694561 -1.556149 -0.506642 -1.214426 -0.416215 1.060808 -0.763406 -0.078034 -0.432912 1.284420 1.504977 -0.134802 0.208077 1.270259 -0.684111 -0.984215 0.098993 -2.085873 0.104721 1.908768 0.640772 -0.139414 0.783958 -0.245390 0.734793 0.469344 0.544338 0.919738 -0.845246 1.134866 -0.451759 0.490192 -0.888139 0.667459 0.644148 0.088110 -0.120173 -0.548765 -1.257316
had 2.187333 1.759172 -2.036691 -0.679532 -0.880595 0.910775 -1.159417 0.321312 -1.994127 0.112533 1.937616 -1.039146 -1.145332 0.585422 -0.689034 -1.264558 0.265836 -0.879776 0.043459 0.887140 -1.955977 -0.526821 0.947110 1.555694 0.490519 1.817595 0.797176 1.048870 -0.215588 1.041256 -1.126059 -0.143659 0.143202 1.190182 2.075308 -0.926769 0.571546 -0.518344 0.588331 0.483875 -0.856822 1.008785 1.861703 -0.498421 1.357702 0.044050 1.006441 1.482633 -0.587026 0.061006 -0.808567 -0.206836 -0.959429 1.066683 2.124569 -0.041440 -1.134552 -0.898216 0.681041 1.715330 0.700429 -0.277696 0.900370 -0.421098 -1.842744 -0.847896 0.673928 2.060965 -1.748095 0.083248 -0.646987 1.308750 0.627476 -0.998105 -1.186743 1.469702 -0.799126 0.543347 -1.775020 -0.914389 -0.357118 -0.486027 0.476063 -0.188084 0.330799 0.176751 -0.859593 0.071955 1.625852 1.432575 -2.731576 1.868907 -0.384793 0.993775 1.476374 0.348689 2.033015 -2.179842 -0.364991 -0.860961 -0.889347 0.634543 0.958914 0.196524 -0.055152 -0.169966 -1.646322 0.116706 2.607261 2.204757 -2.041702 1.372974 -1.930825 1.539312 0.899486 -0.836153 0.312988 -0.652084 0.955464 1.393924 1.688544 0.603234 -1.384089 -0.447279 -1.304925 -0.217330 -0.622138 3.597039
but -0.103024 -0.451903 0.326406 0.977404 -0.482187 0.980847 0.408208 -0.526269 -0.298284 0.614782 0.681993 -0.616839 0.390377 0.858476 -0.505876 0.432257 0.057799 -0.177617 1.208998 -0.146168 0.424052 -0.802635 -0.198640 -0.490379 -0.547700 -0.440767 -0.979719 0.210421 0.385978 0.084861 -0.350649 0.518443 0.905700 -0.921123 0.773414 -0.004449 0.390397 0.072127 0.558178 -0.035642 0.168869 1.097772 1.453337 -0.344542 0.050200 -0.106518 -0.204880 -1.018928 -0.044253 0.669839 0.864982 -1.095429 0.229840 0.810273 -0.343903 -0.970694 0.759742 0.878017 -1.226205 -1.575119 0.254720 0.422145 -0.280725 -0.948428 -1.614904 -0.018170 0.754849 0.705427 -0.671207 -0.946778 0.129865 -1.061653 -0.139900 0.430838 -0.559273 0.503574 -1.225273 0.036130 -0.606970 -0.335335 0.233256 0.369105 -0.752577 -0.420157 0.996672 0.837164 -0.367139 -0.052231 -0.482991 0.778453 -0.070410 -0.602647 -1.336104 -0.845736 0.247890 -0.217637 -1.171741 0.362488 0.686568 0.628640 -0.441362 -1.433253 1.102441 -0.152136 -0.765132 -0.439588 -0.233255 -0.457776 0.976718 0.529722 0.324854 -0.103675 0.505653 -0.332055 0.387940 0.198506 -0.373627 -1.082612 -0.964958 -1.007948 0.344020 -0.165043 -0.363424 -0.644594 -0.602811 -0.464215 -0.978213 0.273603
at -0.373386 -0.945292 -0.970037 -0.687219 -0.199740 1.142522 -0.337319 -1.091573 0.462219 1.650738 0.149052 -0.884734 -0.187185 1.289847 -1.378624 0.979427 -2.080096 -0.600487 -0.061662 0.404617 -0.574428 -0.499468 1.736307 1.472862 0.592008 -0.939263 1.073318 1.583108 2.559893 1.635744 -0.272261 -1.539658 0.117137 -0.626118 0.954141 0.311986 0.401686 0.463975 0.062218 -0.620389 -0.239973 -0.573092 0.341885 0.409291 -0.471314 1.707270 -2.385083 0.180110 0.424143 -1.107048 1.000091 1.043743 -1.309936 0.178252 -0.253769 1.010210 0.833541 -0.876463 0.504853 1.028027 2.676058 1.362901 -0.085813 0.884467 -2.507583 0.017866 -3.418024 0.585667 0.122479 -0.431770 1.918060 -1.077387 0.318847 0.219357 1.247047 -2.150138 0.118772 -0.279673 2.046546 0.357241 -1.423106 -1.477438 -1.028038 -0.670976 -0.074318 -0.718291 -1.731573 -1.104845 2.474615 1.205375 -0.150256 -1.780231 -0.123188 -1.339381 -0.213549 -1.782250 1.356660 -0.556159 -0.893659 0.991708 -1.637062 2.661333 -0.124788 0.779377 -1.812854 -0.569752 -1.732042 -0.987473 0.228356 0.468623 -0.306264 1.095494 -1.349845 1.185043 -0.822935 0.988615 -0.522138 -1.548338 -0.934256 -1.415964 -0.614722 0.056870 -0.993079 1.691023 0.190554 0.529177 1.045214 -2.624969
be 0.799203 1.983795 1.085526 0.369411 -2.009087 0.291670 0.706610 -2.130749 0.702695 -0.986794 -1.420252 0.600654 0.814773 0.179635 1.714573 -0.281341 -0.722963 1.284055 0.453556 -0.601075 -1.858817 -1.392081 1.765908 1.917905 0.839376 0.828467 -2.341903 -0.576740 -1.695846 1.759818 2.281735 0.255901 -1.747353 1.191526 -0.959283 -2.722954 -0.525329 -0.644481 2.313448 2.907888 -1.967300 -0.926503 0.658946 -1.065391 1.827517 2.786553 -0.616272 -0.676506 -0.081100 -0.501771 -0.938805 -1.857858 2.109509 2.291739 0.684665 -0.565397 -1.180712 0.186805 2.007611 0.159397 -0.149490 -0.675676 -0.541500 1.367518 -0.532205 1.921025 2.244073 0.310183 1.164287 1.366183 0.832120 -0.983870 1.211038 1.126599 -1.482785 0.208301 0.787116 0.902651 0.697447 -0.424430 0.853680 2.368798 -0.480131 0.912927 0.023881 -2.336061 0.705960 2.803245 0.756440 0.021747 0.211091 0.998655 0.297609 -0.142977 0.517008 -0.198486 0.990214 -0.360578 -2.217633 1.482995 -0.567342 -0.121759 -1.970785 0.187805 -3.235932 -0.964195 1.547126 -0.337474 1.936220 -1.234349 0.485387 0.370816 1.336720 0.315515 1.206425 -1.714869 1.575438 0.190396 0.960655 -0.194576 3.634412 -0.155336 1.267523 0.533833 1.760010 0.562672 -1.032831 2.682283
on -0.323051 -0.060717 -1.191024 -0.579641 -1.832361 0.672436 -1.031369 -0.155815 0.597566 2.140994 2.296520 1.949818 0.156234 0.535636 -0.969795 -0.508870 -1.769188 0.079082 1.261735 -0.307163 -0.809926 -1.596913 0.659686 0.426873 2.239920 -0.796828 2.122596 2.014678 -0.372955 -0.609810 -0.340509 0.198374 1.145024 0.880269 2.698378 -1.397758 -1.312664 0.667812 -0.987873 -0.088309 -1.656508 -0.457059 -1.200015 0.339779 -2.313274 -0.881778 0.655276 2.520842 -0.000289 -1.480568 -0.585488 -0.990430 -0.286618 -0.727908 1.620914 -1.096450 1.367099 0.801551 -0.512268 1.572235 1.922687 0.621309 0.078259 -1.330134 0.557532 0.658854 -0.728304 -0.150947 0.556287 0.694722 2.537124 0.684781 -1.260469 3.329166 0.512448 -0.426057 -1.677389 0.478734 0.885267 -0.917881 -0.418660 -0.234451 0.053711 0.870745 0.361899 1.170051 0.056389 0.744882 0.131091 2.403191 -0.023414 -0.163530 -0.144875 0.248371 -0.179435 0.644394 -1.866721 -0.136700 0.372019 1.066764 -2.426891 1.548589 0.841070 -1.691747 0.937561 0.921881 -0.285047 -0.673416 -0.879916 -1.230713 -0.295173 -0.336324 -0.938948 0.804931 -0.915585 -0.682697 -0.844902 0.285207 -0.123476 -0.164891 -0.913272 -0.684627 0.384799 0.008170 0.637712 -0.904078 1.115664 -3.330894
her 0.364322 -0.287736 0.399496 -0.812242 0.188618 -1.162902 -0.505498 0.971270 -0.215986 1.314597 -0.140407 -0.377649 1.180147 -0.415677 2.000005 0.675558 -1.690837 0.343933 0.370877 -3.183129 1.452641 0.168765 1.127913 -0.535813 -0.107077 1.368783 1.401449 -0.090515 -0.345152 0.503631 -1.348133 -0.334355 -0.161146 -0.831264 0.186092 0.217344 1.673215 0.128729 -0.765632 -1.580123 -0.939433 -0.404363 -1.339366 1.028436 0.981962 1.301627 -0.002905 0.309751 -2.221191 0.104796 -1.317707 -0.112477 1.818962 -0.528247 -0.189372 0.145532 -0.391005 -0.500178 1.210987 1.556127 1.451407 0.534525 -1.392047 1.548687 -0.338784 1.045177 0.309248 0.135618 -0.573786 -0.416870 0.306558 1.604460 -0.034335 -0.515775 -0.979626 1.375483 0.228174 -0.012079 -1.150744 0.605105 1.053193 -0.498227 -0.764008 -1.521549 -0.819806 0.300300 -0.114757 -0.398683 -0.184933 -2.337916 -1.330448 -0.548108 0.789494 1.019324 0.018365 0.868312 -0.691667 0.925204 0.596667 -0.383659 -0.867733 1.024735 -0.664176 0.826148 0.897850 0.963571 0.957340 -0.726502 2.649758 -0.883725 0.227031 0.460241 2.948825 -0.540617 -0.550469 0.251052 -0.908666 0.237919 -1.932121 -0.330907 0.904954 -1.718049 1.457296 1.364136 -0.673526 -0.724699 0.476364 3.739346
my 0.756049 -0.000967 0.422528 -0.491860 0.053153 -0.704711 -1.814912 2.002378 -0.251242 1.998624 1.320284 -1.479497 -0.515362 -0.015909 0.372758 1.215176 -1.177128 0.058909 -0.599280 -3.777858 1.604549 -1.260001 0.916338 2.048678 -1.098017 -0.071935 0.237071 1.000259 -2.113324 0.199515 -1.519659 -0.244266 -0.193892 -1.789368 -0.323830 0.330585 -0.209869 0.527028 -1.340686 -1.670513 0.750698 -0.359116 -0.894246 0.678288 0.403238 0.343938 0.608107 -0.596774 -2.890339 -0.778996 -0.217195 0.810734 1.157690 0.300575 -0.841663 -0.489264 -1.247444 0.070744 -0.481437 2.650095 0.609054 -0.157213 -1.816659 -0.101427 -0.220498 0.222603 1.710613 0.671595 0.096006 -1.345491 0.867953 1.418663 0.229032 -1.379233 -0.098671 0.375223 0.121164 -0.783145 -1.978503 1.546494 0.832563 -0.608397 -0.727704 0.156492 -0.569127 0.337375 -0.215364 -0.473742 -1.272840 0.027300 1.229883 -1.544060 0.898343 -0.736643 0.667196 -0.414232 0.114817 2.376312 0.126789 -1.589074 -1.309378 -0.423616 0.748507 0.560250 1.051130 0.977175 -0.956843 -1.620814 3.633918 -1.236317 -0.198548 -0.976908 3.051043 0.136736 -0.648121 0.520883 -1.461491 1.811599 -0.664494 0.902333 0.398585 -2.441038 1.345696 0.877283 -1.739975 -0.805203 0.225492 1.398322
him 0.423266 -0.280950 0.750374 0.406880 0.561070 -2.133759 0.276728 -0.200014 -0.921600 0.731081 -0.058922 0.424112 2.002878 -0.663010 0.081187 -1.305081 0.110243 0.364569 1.618526 -1.333355 0.936523 0.067288 1.556836 0.035557 0.360659 0.446533 -0.592724 -0.568456 -0.432376 0.687275 -0.943756 0.066019 -0.210057 -0.851952 0.869669 -0.618557 1.157425 -0.475632 1.384119 -0.402206 -1.261777 -1.507700 -2.350229 0.813472 1.217962 -0.338624 -0.731929 -1.407832 -1.283910 0.659975 -1.199304 -0.295192 0.746779 0.148376 0.053141 0.440886 -1.053964 -0.909045 0.974108 -0.711567 0.816903 -0.054205 0.671151 0.891696 1.298994 0.203767 -0.683717 -1.191728 0.016579 -0.848108 1.435107 -0.790914 0.341976 -1.231145 -0.936924 0.680235 0.027188 0.873744 0.976138 0.590304 0.903702 0.636369 0.231498 -1.517488 -0.362028 1.097730 1.344822 0.335897 1.378948 -1.428402 -1.139672 0.834693 0.536148 0.957418 -0.106910 0.445147 0.320545 0.299949 -0.110793 0.637795 -0.118886 0.267082 -1.675825 0.842887 0.819754 0.714105 1.488423 0.974746 0.888831 0.336980 0.439242 0.576087 0.806682 -0.894960 -0.781031 0.392691 0.078933 0.423811 0.400615 -0.062859 0.706420 1.438617 0.235093 -0.262051 0.463254 -0.003369 0.800216 3.166281
have 1.101403 1.142628 0.040792 0.669408 -0.945414 1.030685 -0.465139 0.295266 0.160692 -0.532800 1.252992 -0.349708 -0.847626 1.125593 0.662932 0.220164 -1.102325 -0.645854 0.339091 -0.266845 -2.859409 -2.404914 1.753583 1.763378 0.347924 0.907608 -0.490159 1.730347 -1.507005 1.870757 1.633484 -0.685225 -1.895539 1.737274 1.286693 -1.872998 0.508898 -0.725710 0.599604 -0.313218 -1.312421 0.792518 1.253573 -0.897626 2.105219 0.231430 -0.076468 0.392685 0.325059 0.703163 -0.386296 0.729488 1.438420 2.970781 2.271324 -0.690411 -1.188290 0.549462 1.213801 0.759422 -1.317922 -0.234472 0.170846 -1.058807 -2.005669 1.146616 2.574767 1.324226 -1.403486 0.116634 0.080567 -1.260330 2.157870 -0.351829 0.036472 0.047022 0.466255 0.260918 -1.442623 -0.168188 -1.622391 0.634203 0.034590 0.291942 -0.200923 -0.250063 -0.181502 1.699423 2.170155 -1.171103 -2.662621 2.723049 -0.607486 0.247603 1.053451 0.142123 1.425095 -2.013029 -1.338404 0.009076 0.876833 0.947722 0.506364 -1.485281 -2.060599 0.006885 -0.090254 -0.332097 3.349491 -0.192226 -2.154869 -0.167381 -0.904205 2.873048 0.558224 -2.529582 1.093684 0.603332 1.595855 1.054372 3.421633 -0.114886 -0.345098 -0.054979 0.326468 -0.777794 -0.121025 3.334706
by 0.441504 -0.285529 0.451242 0.452963 -0.945397 1.999519 -1.627389 -0.387013 -0.262101 -0.842828 0.150269 -0.441548 -0.630731 1.571759 0.095707 -0.942839 0.395513 -0.284740 0.347271 -0.130546 -1.081250 -1.417536 1.005435 0.375707 1.837450 -0.191244 0.966609 -0.216043 2.771021 0.399756 -0.195613 1.674029 0.590787 1.176671 0.132362 0.375894 -1.252649 -0.622240 0.322170 0.569568 1.400124 -0.093329 0.984315 -1.426404 -0.951935 -1.054353 -0.195249 2.714246 -0.690444 -1.382141 1.289135 -1.301168 0.152605 0.724220 0.375723 -1.522956 -0.497803 -1.276039 -0.319181 0.668347 0.645591 0.360704 1.443977 -0.698647 -0.431910 2.172047 0.220678 0.153614 0.434660 -1.880460 0.030924 -0.377701 -0.461618 -0.617754 -0.314319 -0.868479 0.472546 0.832835 -0.560186 -2.070205 -1.801532 -0.300431 0.921223 -1.462158 -1.021257 -0.782078 -0.557293 1.843000 1.639130 2.114835 -0.935309 -0.893636 -0.378346 1.135001 0.254392 0.307965 1.754666 -0.989183 1.292999 -0.599956 -0.734101 0.197057 -0.802646 -0.151090 1.000463 1.594843 0.043888 -0.641248 1.668381 -0.577260 -1.496426 1.152404 0.732544 0.031250 -2.334638 0.078519 1.651728 0.290571 -0.259263 0.372462 0.532418 -1.799821 -0.969207 -0.275511 0.312989 -1.556366 0.286343 -0.538630
this 0.847515 0.198713 -0.127830 0.545061 -0.341032 1.605796 1.065942 2.204059 0.254474 1.013558 -0.593458 -0.903351 1.450962 -1.068972 0.424422 -1.929940 1.612498 -1.295659 -0.742011 -2.294963 -1.405176 0.579525 -0.125317 0.119737 -1.914395 0.511850 -0.040346 0.910132 -1.425663 1.613864 0.088763 -1.528651 0.837054 -1.233390 1.320607 0.592875 1.738417 -0.528726 -0.743065 1.454528 3.696245 0.066189 0.689687 1.717159 0.235476 -1.064253 0.064615 -0.237631 -1.654127 0.691603 1.367561 -0.046220 0.642727 0.326739 -0.019827 1.135802 0.012785 0.223918 -0.068332 1.714459 -0.188035 0.568043 0.208517 0.564386 0.887978 -0.417343 0.077232 -0.748764 -0.171454 -0.883592 0.774081 1.228209 -0.837720 0.835515 -0.831949 1.192400 -0.918574 -0.242447 0.178751 0.204252 -0.369718 2.683263 0.202830 0.361750 -1.321404 -0.057382 -0.134240 -1.256923 0.538547 0.005132 1.299246 -1.082191 1.764852 0.238105 -0.013136 -0.758900 -0.504579 -0.285107 -0.230711 0.619417 -0.638537 -0.206725 0.485003 -0.448384 0.241768 0.951606 -0.031657 -0.364996 1.116855 -1.209128 -0.423618 0.635144 2.330661 0.673661 -1.369757 0.902871 0.015498 -0.287256 1.499154 -0.007024 -0.141982 -0.602801 0.096059 1.207117 0.383383 1.572641 -1.723436 -1.120032
which 1.014056 -1.391345 0.075658 -0.658058 -0.394324 1.418416 0.294014 0.525985 -0.149118 -0.884449 1.128428 -2.063761 0.791723 -0.007630 1.408116 -1.029682 0.531287 -0.090252 0.449367 -1.457177 -1.088362 -1.149352 -0.088814 -2.002899 -0.235205 -1.148898 1.721178 -0.463543 -0.429080 0.384821 0.083481 0.412381 -0.736538 -1.967662 -1.035983 0.732111 0.825341 0.616974 1.069757 1.359140 2.407458 0.927240 -0.186349 -0.981504 0.200870 0.597322 0.317240 1.208887 -1.423224 -0.060497 0.475427 -0.171652 0.695119 -0.252955 -0.115694 0.717345 1.043023 0.365537 -0.746131 1.205193 -0.948794 0.533042 0.303631 -1.420676 -0.157688 1.183505 0.011404 0.972486 0.411354 -1.255771 0.170056 -0.853400 1.027607 -0.045405 -0.406367 -0.320132 -0.255893 -0.447878 -0.253082 -0.412028 -0.062341 1.103468 -0.327419 -0.188099 0.088258 1.763730 0.699458 -0.133606 -0.172441 -0.837612 1.589444 0.298206 -0.675564 0.609660 0.395804 -0.805423 -1.619946 0.825113 -0.185211 1.595488 1.556565 -0.050384 0.543085 -0.338425 0.156630 -1.250784 0.757471 -0.896656 0.957505 0.848007 0.037555 0.994866 -0.365580 0.405536 -0.300854 -0.730524 0.718068 -0.914352 1.112682 0.043714 0.588946 -0.902517 1.118211 -1.384017 -0.137612 -0.432596 1.701676 1.200894
me -0.878767 -0.363102 0.579496 2.002162 -0.309993 -1.879034 0.462876 0.109969 -1.300837 1.691434 0.148145 1.234337 0.354090 -0.545626 0.579957 -1.171006 -0.121101 0.270446 0.422357 -0.513259 0.865275 -0.582254 -0.545083 0.331793 0.404316 -0.147861 -1.619559 -0.291105 -0.023025 0.150932 -0.312912 -0.555149 1.060069 -1.462113 0.644864 -1.116526 2.517429 -0.245245 1.206011 -0.225480 -0.056400 -0.709794 -3.127211 1.338920 0.985993 0.434779 -0.140142 -2.524024 -1.498656 0.581701 -1.041347 -0.399899 -0.071542 0.120329 0.537804 0.559252 -0.838824 -0.075727 1.500439 -1.327756 -0.496256 -0.374984 0.490719 0.852377 1.752437 0.534504 0.524659 0.514883 -0.956851 -1.358046 1.614945 -0.984210 0.352026 -0.687408 -0.458528 -0.305221 0.369476 0.511123 -0.390548 -0.620317 1.810747 1.051388 -0.839231 -1.071139 0.291437 0.581598 -0.136373 -0.871703 1.314009 -1.360936 -0.477810 1.240067 1.273980 0.042180 -1.404772 0.709868 0.222676 1.138688 -0.551807 0.824936 -0.126381 -0.143524 -1.752687 1.492120 0.480200 1.503957 1.135309 1.135311 1.249658 0.109665 0.762798 0.404031 0.969267 -0.969903 -1.057535 0.953330 0.375659 0.884782 -0.186389 1.003364 0.185681 0.699253 0.519740 -0.351644 -0.036364 0.605832 0.609641 3.887496
all 1.022348 1.444854 -1.252258 -1.260554 -1.011572 -0.629040 -1.359619 1.293738 -0.674178 0.605011 -0.471138 -0.394126 -0.363496 0.853709 0.400066 -2.207613 0.219907 1.121313 0.392601 0.828547 0.509112 -0.439119 1.777966 -0.761466 -0.494498 -1.781506 0.955396 1.338283 -0.322108 -0.788956 0.799331 -0.662956 -0.312420 0.049251 -1.176266 0.358834 -1.838400 -0.614240 -0.273634 -1.062333 -0.247363 -0.856108 -1.131027 0.619952 0.186802 0.851872 0.964575 -1.019910 -0.571746 0.202508 -0.050462 -0.338049 -0.364673 0.531526 1.030849 0.571163 1.435813 0.551518 -0.717192 -1.864871 -1.035365 0.788454 0.289395 -0.417759 1.365494 -1.975259 1.274481 -0.438956 1.189516 0.053827 -1.181812 -1.590556 0.301995 0.103346 1.280798 -0.242440 2.552220 0.650165 -0.099209 0.129390 0.929187 0.869383 -0.052191 -1.352031 -0.622334 -1.348620 -0.424582 0.512901 -0.961672 -0.616295 -0.293134 0.921669 -0.321055 -1.260648 1.161053 1.592383 -1.388978 -0.023408 1.381922 -0.473201 0.634495 0.147184 -0.827001 -0.583913 -0.120690 -0.598290 0.840120 -0.957254 0.807821 -0.549043 -0.271358 0.578824 -0.114023 -0.152501 -0.165650 -0.995538 0.114433 -0.507553 0.024029 -0.502959 0.805144 1.008534 -0.422490 -1.579463 -1.120896 -1.110609 0.989476 -0.301632
said -0.780259 0.775948 -1.622352 -0.412415 -0.644600 1.019053 -1.754354 0.018230 -1.543696 0.232762 0.505812 0.458568 0.328485 0.797103 -2.030865 2.566759 1.085104 -0.836122 -3.300305 0.819947 1.883381 -1.485314 -1.333841 1.201553 0.680134 -0.621683 -3.545501 -2.560346 -1.072806 1.231794 2.765342 2.270478 0.161969 -0.387009 0.026881 2.516603 0.166182 1.542331 0.656661 -1.417528 -0.692285 -0.049754 0.653513 1.063309 -1.047627 -0.943800 1.312108 -1.498251 2.877460 1.799314 0.313075 -0.587006 -2.183671 -0.402649 -0.392335 -0.661801 1.397781 -0.200080 0.208775 -0.862244 -0.216443 -0.426510 -0.721996 -1.065303 -1.474030 0.716153 -2.039847 0.559434 0.370626 -0.629646 -2.089113 1.354521 -0.918978 1.828208 -1.223100 -0.322459 -0.004434 0.723039 -0.201219 1.564123 -0.898366 -1.108062 1.716469 -2.096342 -1.577243 0.252507 -2.037910 -0.547168 0.748738 1.631558 0.194685 2.449609 0.430058 0.180757 0.417513 -1.134965 -0.491314 3.254734 -1.786251 1.302248 0.129301 2.031900 1.309554 1.025075 0.342861 -0.136349 -0.123755 1.156553 -0.719522 1.301400 1.543941 1.311133 -2.281908 0.977698 1.012665 0.969386 -0.706697 -1.889302 -1.804523 -0.450770 0.700000 -2.527609 -0.458681 -1.114563 -0.870667 1.436642 0.035129 0.384037
she -1.496021 -0.626788 0.779648 1.691794 0.379576 -0.069352 2.489351 -0.894260 0.857073 0.805642 -0.560593 0.153396 0.809731 -0.698707 1.726511 0.444722 -2.950546 0.755395 1.989711 -0.151343 -1.953853 1.136324 0.032076 -1.997465 -0.559679 1.025003 -1.119821 0.919408 0.219167 -1.590915 -1.140045 -2.089507 0.280750 -0.194985 0.629732 0.371449 0.236476 0.631335 -3.320553 -0.696412 -2.665095 -1.378001 -0.695402 -0.218149 1.148841 -0.357202 -0.592318 0.794831 -1.904289 -0.952400 0.532665 -1.693055 1.925265 -0.855737 -0.751246 -0.573509 -0.559912 0.032369 1.612430 -1.506308 1.185511 0.680286 0.084042 1.580457 -0.332862 -0.443201 0.173517 -0.736328 -0.914694 0.478278 0.272676 -1.039644 2.258161 0.114292 -0.858112 0.455174 1.636884 0.221051 -0.357319 0.140979 -0.304728 -0.100024 -1.693739 0.352416 -0.344695 -1.007947 0.103897 -0.297150 0.807596 -2.087656 -0.573052 -1.284850 1.716064 -0.266073 -0.830581 1.219233 0.660998 -0.563429 1.453341 -0.503015 0.002153 -0.389961 -0.579435 -0.423184 -0.220019 1.001862 0.731934 -0.996254 1.563842 -1.878439 0.036699 0.038612 0.996411 -1.207947 -0.108917 0.912620 0.778989 -1.601466 0.531739 -1.348404 1.270184 -0.412665 1.792532 1.869640 0.577265 -2.018416 -0.379197 3.150012
from 0.606800 -1.203671 -0.417858 -1.742738 0.844298 2.174029 -0.080301 1.540405 -0.441697 4.036409 0.522834 -1.244419 -1.443428 0.365373 0.141229 -0.960803 -1.086439 1.148953 0.676205 0.518698 -0.293557 -0.917826 1.200571 0.295674 1.603254 1.232201 2.869394 -0.684908 1.485058 0.472681 -0.453105 -0.853577 1.484726 1.498015 -0.844542 1.100798 -0.270485 -0.147053 -0.372326 -1.254552 0.024542 -0.121884 -1.830872 -0.481711 0.853953 1.289365 -1.663178 0.899513 1.585655 -1.824888 0.203294 -0.649336 0.749320 0.607247 0.707804 0.579145 0.292033 -0.309245 -0.657907 0.557796 1.465271 -1.149343 -0.291597 -0.784209 -1.725426 2.595290 0.506663 0.022297 1.249867 -0.668356 1.007227 0.148784 -0.951455 2.481843 0.661428 0.344798 1.476761 -0.958582 -1.070687 0.439087 -0.523180 -0.146276 1.363829 1.458182 0.573259 1.004552 -0.646104 0.813761 1.403509 1.550378 -0.364719 1.242821 -0.798239 -0.396156 0.098254 -0.050782 -0.908423 -0.712282 0.190472 -0.782469 0.389298 0.298626 2.150526 -0.013665 0.186489 0.763292 -1.830078 -1.163919 -0.693769 -0.982509 -1.075242 -0.038742 -1.118001 -1.184201 -0.373332 0.597799 1.765991 0.972588 -2.467773 -0.387509 0.634306 -1.479284 -1.278012 -0.494029 0.364914 1.477468 -2.412398 -2.347836
or 0.453725 -0.823155 -1.132255 0.631599 -1.632043 0.623213 -0.693408 -0.975215 -0.544152 2.507091 1.831301 0.157484 -1.640879 0.957149 0.230003 1.756805 1.184054 0.514534 0.885107 -0.961110 0.287560 -0.191341 -0.366909 -1.518639 -0.871280 1.155794 1.135658 0.512875 -0.716752 -1.301296 0.263693 0.346583 0.789443 0.501054 0.410261 0.171025 -0.606052 1.527768 1.642839 1.341191 2.707510 1.567474 0.254815 -0.559315 0.397426 0.820383 0.229175 1.791996 0.818640 -1.773588 1.014508 0.235243 0.626526 -1.027707 0.535600 1.268540 0.124470 1.330299 0.235062 -0.368907 -0.627796 -0.436767 -0.752888 -1.790081 0.250967 0.396621 -0.708672 0.508101 -0.235339 0.211931 0.793780 -0.887418 -0.349687 -0.499292 0.055077 -0.834859 -0.503341 -0.381067 -0.007409 0.691552 0.225608 0.618099 -0.606126 -1.151274 0.171515 -1.114253 -0.738014 0.763193 -0.202823 0.117559 -1.147793 0.478837 -0.701746 1.135953 1.577665 -0.586696 0.119538 -1.129514 0.813047 0.244729 -1.261408 0.016942 -0.269967 -0.631927 1.232093 -0.285202 -0.765989 -1.099792 1.533980 1.290115 0.666744 -0.635263 1.854728 -0.126457 1.266546 0.673703 -0.658420 1.057427 -0.762245 -0.073370 -0.154653 -1.574208 -0.938408 0.915081 2.619594 0.151849 -2.166674 0.154675
they -0.676016 -0.245064 -1.405209 1.145689 0.063042 -1.272152 1.602188 -1.219180 1.170793 0.685312 -1.411715 -1.220888 0.771470 -0.366448 0.673612 -0.770806 -0.545905 0.603375 1.890951 -0.081868 -1.521389 1.508709 2.045637 -0.825424 0.860318 1.396265 1.101320 -0.739208 0.913096 -1.026904 -0.503795 -1.153343 0.450439 0.815277 0.511225 0.924828 -1.234036 1.420196 -1.706401 0.649936 -1.363684 0.114659 -1.235427 -0.565714 1.671777 -0.626718 -0.959279 -0.015220 -0.320832 -2.249452 0.079391 -0.286808 0.202897 -0.148303 -0.933764 0.152234 -1.881381 1.522476 0.904442 -2.437487 2.214376 0.433641 0.485552 0.412652 0.202019 -1.390015 -0.330634 -1.392084 -0.535030 0.166309 -0.343108 -1.232797 0.635853 -0.006051 -0.697666 0.382718 -0.053805 -0.697896 1.467030 -0.564024 0.197009 1.744146 -0.656790 0.005751 1.670537 0.221831 0.255939 -0.280668 -1.718767 0.157862 0.174073 -1.374100 0.673193 0.242593 0.549776 0.008597 1.203224 -1.531521 0.729433 0.012223 0.748068 -1.195264 -1.847528 0.558454 0.762330 1.502506 -0.864162 0.301386 1.760105 -0.678907 0.015152 -1.265037 0.352351 -0.161070 -1.497122 0.128338 -0.456866 0.608711 2.308124 -1.754997 2.425521 0.816567 1.052936 1.689425 -0.381976 -1.295099 1.486026 0.288053
so -0.644339 0.502883 1.335949 0.565463 -0.612691 1.133980 1.000076 1.203064 -0.816259 -1.025924 -0.541913 -0.355468 -0.303617 0.722963 -0.336189 -0.422491 0.623390 0.081032 -0.065403 1.157069 0.532912 0.137764 -0.440611 0.427355 -0.869023 0.105323 0.651282 -0.443575 0.162063 -0.974378 -0.326822 -0.694168 0.806108 -1.734645 0.371851 -0.983679 1.115522 1.800356 0.753282 0.716210 -2.150372 1.989179 0.386788 -0.014621 -0.047814 -0.043389 0.538777 -0.740986 -0.173180 -1.035961 0.729282 -0.480740 0.357428 0.490476 0.021826 -0.562182 1.065460 0.818723 -0.927793 0.483561 0.123320 -1.014314 0.371776 0.056599 0.770834 1.467604 0.039558 0.000505 1.019288 0.325598 -1.831018 -0.692231 -0.973806 0.136686 -0.305931 -0.179554 0.817509 -0.482324 0.091921 -0.932059 0.450829 0.483322 0.635027 -1.598182 -0.156464 0.280350 0.129180 0.614958 0.832165 -0.242668 0.684704 -0.847213 0.933732 0.968067 -0.161165 0.030116 0.385113 -0.458761 0.406537 0.163669 -1.077854 -0.149043 -1.031335 0.416296 -1.143425 -0.161110 -1.127362 -0.051140 1.236261 -1.249798 0.644536 0.067024 -0.694105 1.687243 -0.001681 -1.183563 0.300633 -1.190805 0.003419 -0.021596 0.326755 1.102075 -0.279665 1.012474 -1.216268 0.120618 0.601939 0.098865
are 1.697504 1.615057 0.276997 -1.049382 -1.268352 0.299391 -1.852600 -1.521281 0.786024 -0.425272 1.353688 2.734319 0.005297 -1.022112 0.148357 0.082518 1.829229 0.237502 0.818989 2.650592 -0.435139 1.657720 -1.925823 2.300801 0.641467 0.906671 2.587713 -0.481276 0.336032 -1.230263 0.221379 -1.626276 -2.623758 2.290385 1.451890 -0.164329 -0.805952 -1.326389 1.630189 1.570458 -1.584413 0.716898 1.496113 0.994776 -1.000682 0.455542 -0.175530 0.829189 0.794865 2.266037 -0.300897 0.935177 1.155013 1.254995 0.876323 0.554683 0.160910 -0.572193 -0.422857 -0.325391 -1.748409 -2.249674 -2.589726 0.497518 0.081340 1.540413 3.434437 2.415750 0.777709 -1.959950 -0.638176 -0.816688 1.178392 0.169274 1.319900 -1.574328 0.706007 2.531840 -0.504467 0.971317 1.123955 2.813763 1.912895 1.780317 -1.758305 -2.771907 -0.879249 1.557846 -0.106669 -0.139128 -1.524808 0.276630 0.018067 -0.310723 0.552398 0.265487 -0.266625 -1.779876 -1.211910 0.394801 -1.543554 -1.125395 1.549445 1.093034 -1.698076 0.718833 -0.120718 0.538573 4.770661 -1.102119 -0.010814 1.538704 -2.165826 0.365750 0.162682 1.283558 -1.530717 1.415306 -1.754544 1.153106 3.587165 -0.060032 0.388572 -1.080657 2.178415 -0.380703 -0.384033 -1.059461
one 0.007832 1.031128 -0.346863 -0.645624 -0.091335 0.027492 0.601888 -0.830624 1.259648 1.051861 -1.167035 -0.456602 2.354437 -0.356153 -0.590843 -0.069135 0.272831 -0.401552 0.038481 0.417948 -1.181299 0.308390 -1.401827 -0.248334 -0.186601 -0.881735 0.663198 0.430013 -0.036778 -0.906060 0.290574 0.539109 -0.731307 -0.844440 -0.242286 -0.173089 0.418525 0.342829 1.246512 0.352257 0.001868 -2.031094 -0.371240 0.084565 0.102480 -0.001131 0.237437 -0.549157 0.422342 0.507719 0.670172 0.058203 -0.918711 -0.625765 -0.919323 -0.132305 -1.978663 1.689546 0.361006 0.202800 -0.441448 0.624137 -0.425162 0.874619 -0.917289 -0.517447 -0.820949 -1.111013 0.257867 -0.664458 -0.337186 -1.011994 1.750852 -0.343642 1.463085 0.754425 0.813517 -0.400411 -1.315993 -1.186734 -0.506900 -0.103402 -0.882632 1.034516 -0.188177 0.153275 -0.036008 0.496328 1.236994 -0.063942 -1.191299 0.843345 0.432251 0.202737 0.663023 0.492751 -0.597799 0.796350 0.850919 0.167142 -0.742882 -0.858143 -0.202012 -1.440485 0.126134 0.062963 2.136569 1.605967 -0.280225 -2.790394 -0.651093 0.359428 1.858680 -0.468406 -0.751790 0.198574 -1.169479 -1.384337 1.410447 0.447324 -0.024683 1.220061 -0.461395 2.693693 1.077593 0.341986 0.152775 1.014271
were 1.540351 1.238129 -0.234098 -1.210397 -0.901859 0.593612 -2.034128 -0.698641 0.297745 -0.986982 1.406711 2.083416 1.217279 0.555662 -0.275596 -1.402627 0.221851 0.080757 1.082597 1.152315 0.473761 0.801804 -0.086947 1.577189 -0.233536 1.817449 2.323147 -0.339778 0.386678 -2.058245 -1.139702 -0.213942 -1.554090 2.274351 1.100707 -1.267977 -1.400933 -1.000071 1.393463 1.194021 -3.350796 -1.444194 1.029243 0.079635 0.460767 1.116207 0.754743 1.759435 0.822160 1.762733 0.585978 -0.338262 0.471873 0.511655 1.734820 0.539155 0.097156 -0.370084 0.474015 0.279912 -0.442582 -0.711631 -0.401947 1.152384 0.541838 1.344848 1.794647 2.118235 1.133158 -1.474354 -1.092386 0.022474 1.802417 -0.625905 0.848217 -0.039295 0.027788 1.880694 0.275280 -0.091604 0.711814 1.535915 -0.013681 1.316556 -1.579377 -1.727400 -0.483063 1.643402 -0.462730 0.990344 -1.750503 0.369557 -0.120917 -0.399367 1.484197 0.283376 -0.243588 -1.162943 -1.324072 0.043788 -2.121753 -0.383780 1.291315 1.989274 -2.240748 0.233416 -0.341909 0.153741 3.182544 -0.646378 -0.798524 1.344748 -2.369570 -0.105539 1.587780 0.803825 -1.758975 0.303927 -1.053297 0.210903 3.182679 -1.701973 -0.992868 -0.273554 -0.025478 1.370515 -1.665714 0.410030
what 0.598212 -1.644581 0.752546 -0.082166 -1.353788 0.156319 -0.214799 2.551902 0.444434 -0.453097 0.083818 -1.103917 0.342023 0.028120 -0.045762 -0.070246 -0.825410 -0.758418 -0.873386 0.504754 -1.666660 0.216394 0.102765 -1.068039 -0.406946 1.339576 -1.009123 -0.276306 -1.085590 -0.422140 -0.774189 1.221383 -1.692467 -1.873733 -0.219631 -0.330337 1.360389 -1.126193 -1.261234 0.479702 2.706657 0.656340 -0.607256 -0.066751 -1.164558 0.699145 -0.120549 -1.862824 -1.124607 0.305466 1.988324 1.039675 -0.369395 0.261707 -1.890781 -0.760048 2.101710 -1.266347 -1.277797 0.360670 -2.201037 2.588186 0.688048 -0.875337 0.656828 -1.647701 0.042651 -2.896672 1.223673 0.637004 -0.905285 -1.951112 -0.792735 0.445557 -0.718191 -1.406245 1.036179 -0.866671 2.278060 0.384196 1.775218 2.155716 0.180822 0.130922 -0.822844 0.577022 0.614070 1.385414 1.933363 -2.135223 1.201393 0.006423 -1.251626 -0.019584 -0.338436 0.296023 -2.076154 1.547187 0.284081 -0.389119 1.232593 0.038886 -1.479357 -0.169802 0.003212 0.335090 0.571999 -0.403306 1.823886 -0.445988 -1.579622 0.654961 1.587974 -0.063056 -0.994775 -1.419495 -0.671774 0.410081 0.766353 0.965222 -0.487184 0.607098 0.885089 -0.736830 -0.478966 0.901466 1.541610 2.109586
when 0.639769 -1.697129 -0.575664 -0.038178 -0.597578 2.927874 -0.815022 1.669090 0.073500 1.222083 0.954999 -0.830451 -1.349916 0.021921 -1.794262 0.133731 0.279637 0.279154 0.250535 -0.449686 -1.706012 1.089347 -0.138421 -0.892554 -1.462644 -0.832203 -0.977637 -0.435880 1.196008 -0.168202 0.304689 0.207944 0.583429 -0.762857 0.009172 0.219299 -0.499814 0.080322 -1.088429 -1.384791 0.659512 0.437557 0.401370 -2.052216 -1.656582 1.677513 -0.699003 0.605776 0.368056 0.932702 0.070796 -0.047584 -0.959550 1.608921 -1.604795 1.372702 1.628747 -0.814624 0.140414 0.488360 0.737707 -0.490728 0.613675 0.495470 0.083657 -0.261390 1.152151 0.588897 0.855714 -0.901220 0.737811 -0.103168 -0.218002 0.501628 1.230360 0.292280 0.281873 1.158667 -0.218962 -1.204211 1.449076 -0.751267 -0.541433 -0.009378 0.767243 0.058086 0.837745 -0.806337 0.562078 0.795947 0.349614 0.368142 0.095961 0.507245 0.316616 -0.850006 -1.115969 0.783672 0.406216 1.675285 -0.128912 0.699273 -2.049265 -0.822363 0.106344 -1.588104 0.316334 0.787287 0.566557 0.241527 -2.579163 1.141502 -0.053979 0.868989 -0.557586 -0.710942 -0.506784 -1.326984 -0.901490 0.279154 0.795909 -0.515673 -0.650328 -0.900101 -0.189782 -0.793945 0.784162 -0.207521
no 0.959392 -1.009165 -0.122506 2.514323 1.037946 -0.956651 1.723732 0.236768 -0.130622 1.244011 0.769925 0.448374 -1.298599 -0.819410 -1.303863 0.645872 1.445599 0.870036 -2.019000 -0.724534 2.702283 0.279398 0.999824 0.599898 0.094423 0.576237 -0.262389 1.267905 -0.412431 1.365102 1.117010 0.418664 0.125268 -0.731777 2.059631 0.153791 -0.958838 0.857709 -0.508567 -0.077042 6.081223 -0.993775 -1.044720 3.231005 0.532261 1.017688 -0.287910 -1.096006 -1.918045 0.418377 1.637879 0.701659 0.202031 -0.022198 -0.563562 -0.330806 0.610104 -0.818165 0.079644 1.084723 0.493052 2.123329 -1.024081 -0.976960 1.542061 -2.624065 2.000408 -2.762293 1.697675 -0.792197 0.862723 0.726847 -1.914143 -1.825419 -1.466237 -0.623877 1.349323 0.827527 0.189555 -0.629930 -0.487126 1.105179 1.040359 1.981944 1.340526 -1.217916 0.374911 0.490033 -1.667185 -0.775182 0.777290 0.191656 -2.298746 -0.510744 0.528071 -1.219943 -2.268084 -0.200532 1.257475 0.193060 0.694384 -0.248717 1.413237 0.159238 0.188585 1.325916 -0.562615 0.394345 0.856942 -1.232409 0.761576 0.815517 1.000834 -0.192887 -0.806090 -0.858073 -0.272645 0.244275 -0.984544 0.008858 -0.796196 -2.464313 1.294359 0.390935 -0.584535 -0.218528 0.600436 0.300334
if -0.245298 -2.591148 -0.551022 0.354989 0.553369 3.793662 -0.319644 0.499325 0.477779 1.481127 0.831038 0.961059 -2.139568 -0.603789 -1.063880 0.729757 0.924104 -0.017186 1.215968 0.090286 0.142617 -0.414719 0.469672 -1.849532 1.824320 -0.424470 -2.123802 0.401304 -0.625237 0.351208 0.379517 -0.359110 -0.442014 -0.096404 -0.228663 0.832563 -0.492897 -0.222233 0.270914 -1.191342 2.199008 0.839795 0.423536 0.770980 -1.604578 -0.479489 -0.731128 -0.804901 1.093904 0.327006 -0.034497 -1.579033 0.581187 -1.220067 -1.205607 0.854043 0.528573 0.162044 1.493462 -0.439043 0.435832 -0.108310 0.993641 2.261739 -0.602307 0.226028 2.541559 0.507419 -0.089475 0.187058 -0.088332 -0.624787 0.689536 -1.148526 0.340964 0.387737 -0.194548 -0.571564 1.798761 -0.982400 1.223355 -1.461717 0.980059 -0.080886 -0.365776 0.194101 0.018716 0.206219 0.246077 -0.944559 1.308284 -0.389809 -2.996977 0.810140 -0.700886 -1.448953 -1.937606 0.600309 1.050482 1.213499 0.289701 0.121225 -0.379574 -1.664143 0.683232 -0.173213 -0.585185 0.546835 0.997224 0.005555 -0.769913 -0.499690 0.427427 1.996896 -0.034909 -0.041381 -1.181462 1.003680 -0.767028 -0.513147 1.733020 -0.375033 -0.658395 -0.534562 -1.521379 1.455012 2.400608 -0.064088
there -2.947941 -1.312283 -1.355880 1.818568 0.315160 2.533577 1.665285 0.772118 0.141115 0.509843 0.442193 0.234530 0.082951 0.086640 0.351279 0.115938 0.247101 -0.329552 -2.278101 -0.835302 -0.287391 -0.728204 -0.902271 -0.421595 -0.599236 -0.537469 0.199818 -0.564191 -0.506030 -1.456705 0.123638 -0.566729 1.081558 0.441951 0.569172 0.268858 1.656214 -0.117591 -0.054395 -1.037977 0.827262 -1.821448 -1.143963 -0.429609 -0.193409 -0.971741 -1.014535 -1.706225 -0.996142 -1.757291 1.791475 1.974915 -0.330963 0.956649 0.661686 -0.954098 -0.882151 0.884707 -0.326611 -0.491184 0.207731 1.015944 0.069185 0.371938 0.323978 -0.393780 -1.433674 -1.322977 -1.449666 -1.221134 -1.833614 -0.491917 1.718517 1.620701 0.212040 -0.044054 0.285909 -0.111556 0.064458 -0.167689 0.041208 -0.476431 0.106245 0.206429 0.530420 1.841111 -1.554232 2.870760 -1.289855 -0.175260 -0.929423 -2.007123 1.488985 0.879156 0.891155 -0.247635 -0.328762 -1.451878 1.058316 -0.473039 0.110683 -0.916943 -0.039007 -0.093042 -0.490326 -0.821808 -0.206415 -0.620031 -1.359279 0.115888 -1.711362 -0.084931 0.379434 1.976128 -0.644378 1.134261 -0.593640 -1.320892 1.398254 -0.517385 -0.962322 0.216130 0.660347 -1.025913 0.495403 -2.473007 0.625035 -0.368118
who 1.021662 -1.720464 0.121424 -0.785183 0.066680 0.470040 0.501095 0.404496 -0.868119 -0.191081 0.211876 -1.355331 -0.181983 0.195596 -0.949479 0.406313 0.031881 1.249732 -1.054178 -0.305858 -0.863791 0.877094 0.211014 -1.362993 0.262160 0.289896 -0.952702 -2.600745 -0.200942 -0.552121 -0.186880 0.411879 -0.310899 -0.758070 -0.432626 2.540941 -0.637329 0.071757 0.276769 -0.218443 -1.332999 -0.038812 -1.251154 -0.164939 -0.398904 0.896555 0.663442 -0.176046 1.182538 1.002982 2.359710 -2.573639 0.862311 -1.065333 -0.127371 -2.454253 -1.283084 -0.415720 -0.392675 -1.044194 -0.625168 0.430012 0.484335 -0.031247 -0.564659 -0.531717 -0.375155 -0.367784 -0.348090 -1.445067 0.931272 -1.281097 0.819441 0.560930 -1.356159 -0.390928 -0.482019 1.249433 1.797154 0.937505 -0.510771 -0.183150 -1.511910 0.949876 1.875350 -1.110521 0.906651 -0.956982 1.640785 0.400406 0.513041 0.779859 1.147805 -0.200036 0.132917 -1.555725 -0.966248 1.610408 1.923087 1.530841 2.098663 -0.190888 -1.633669 -0.296456 1.620068 -2.213540 -0.540992 0.093640 1.969312 -1.385408 0.052735 -0.693868 0.780019 1.671729 -0.264507 1.528621 1.278554 0.445874 1.710792 -0.528664 0.358890 0.534299 1.636441 -1.156614 1.376696 -1.815331 -1.067745 1.897822
we 0.620876 -0.562265 -1.147468 1.030822 -0.406020 -2.975564 1.098830 -0.847359 0.552912 2.334495 -2.901744 -1.557275 1.017028 -0.436996 -0.104068 -0.696841 -1.741750 -1.163317 0.806963 -0.152442 -1.052849 1.757304 0.269785 -0.784195 -1.194080 0.689854 -0.866622 -0.924114 -0.234189 -1.629964 0.811987 -0.884868 0.101523 0.989356 0.013479 0.608502 -3.174944 1.387098 -1.456632 -0.008983 0.175818 -0.237787 -0.647755 -0.230688 -0.301627 -0.702544 -1.208913 -1.431334 0.230651 -1.808381 -1.052210 -0.868206 0.652635 -1.724098 0.117880 0.329400 -2.118824 1.350233 0.559511 -3.709662 2.238502 -0.093466 0.811740 1.045410 -1.021935 -1.368053 -1.450779 0.664406 -1.002817 0.573706 -0.838483 0.357368 0.697106 0.571277 -0.470321 0.335693 -0.008621 -0.834337 2.188475 -1.121319 -0.312170 1.653796 -1.383444 0.389285 1.273020 1.887577 -0.306544 0.300506 0.221555 0.276543 0.323325 -1.008573 1.591219 0.264574 0.700711 -0.393535 1.017926 -2.015244 -0.160158 -1.169293 0.826167 -1.763009 -2.206038 1.296355 0.527948 1.265239 -1.225170 0.727608 1.165555 -1.593763 -0.064395 0.568742 1.747596 -0.615413 -1.411840 0.349872 1.399915 0.567136 0.931634 -0.286689 2.190160 -0.713318 0.963481 1.280494 0.291204 -1.823935 1.506428 -0.048997
will 0.436825 -1.637643 -0.191932 -0.077613 0.144138 -0.481258 -2.190475 0.493387 1.566615 1.614304 0.085140 0.852460 -2.072348 -0.376295 -0.429697 -1.092245 1.440081 -1.555114 -1.379400 1.517765 0.642701 3.157732 -1.978493 0.468988 0.091103 0.921403 0.672018 0.952123 -0.535388 -0.767561 0.228432 0.662013 -0.025083 -0.079410 -0.248487 -0.867556 0.511095 -2.211413 0.817246 -1.483022 3.170947 0.864505 -1.049304 1.834317 -0.676258 -1.255472 0.600701 -1.433352 1.559391 0.251518 0.149011 0.496472 -0.815471 -0.942255 -0.068296 -0.025646 -0.849449 -0.584177 -1.387874 -1.869212 -0.995108 -1.405895 -0.319105 -1.936528 -1.382389 -0.403814 -0.443340 2.079525 -1.213646 -1.021302 -0.278448 1.279499 -0.273746 -1.541813 0.460249 0.227645 0.051240 -0.261676 -1.599482 -1.762586 1.141606 -0.118799 1.908786 -1.603911 -0.448373 0.008761 -0.135206 -2.621539 -1.902812 2.227635 -0.308780 -1.436547 -1.130826 -0.407173 -0.126294 -2.027140 -0.099955 -0.181505 1.317671 -0.215946 -1.661934 0.246650 2.782354 0.399192 2.709242 -0.455759 -2.802241 2.208936 2.578191 1.935359 0.617169 -0.537289 -2.296278 -0.571623 -0.808569 -0.831301 -1.347898 -0.683303 -2.196547 1.769725 -0.241814 1.781169 -0.443566 -0.702265 0.495534 0.556491 0.769307 -1.838481
an -1.384859 1.302822 0.726068 0.369330 0.160496 1.324478 0.298330 0.766482 -0.730364 0.183818 -1.088940 -2.587555 2.613612 -1.356799 -1.706077 -1.173336 1.942965 0.030060 0.603765 -0.365288 -0.507006 0.439838 0.155519 -1.003396 -1.412510 -1.914977 1.863137 2.151744 0.837477 1.717055 -0.332796 -2.700737 2.071532 -0.843667 -1.230315 -1.539405 0.118964 -0.469439 -1.897957 -2.248723 4.298888 -0.671909 0.799781 2.774575 -1.663570 0.209431 0.081168 -0.743050 0.627157 1.122678 1.864469 -0.762169 1.729764 -0.040822 0.491195 0.633568 -1.780646 -1.466641 2.139544 2.884994 -0.594435 -0.946913 -0.083950 1.329929 -0.126545 0.606375 -0.977934 -0.535979 1.641592 0.943313 1.676865 1.127728 -0.079887 -3.060425 -2.855788 0.677515 -0.458618 1.682451 0.281510 -0.729374 -1.859366 3.103892 -1.214087 -0.593215 0.623887 -0.406513 1.632174 2.218702 0.652256 0.421728 0.714521 -0.162507 1.737171 0.678426 1.176713 0.078867 0.231093 1.003724 -1.362576 1.435402 1.030875 0.306272 2.084552 -0.426598 2.061428 1.446330 -2.312093 -0.174102 1.089066 1.608127 1.250766 1.094481 2.460153 -0.772526 0.997095 -0.462672 -2.875420 0.603741 -1.275405 1.255381 -1.064205 -0.245679 1.450231 1.958347 1.612585 1.726351 0.213843 0.258165
then -2.395909 0.158803 0.845820 0.835613 -0.334543 0.378815 -0.694816 2.364679 0.846786 -0.187263 0.397518 -1.424591 0.276701 -0.703908 1.170770 0.435361 0.558804 0.083571 0.321831 -0.533180 -1.173422 0.673922 -0.978968 0.415381 -0.351613 0.396532 -1.338091 -0.220450 -0.813172 -0.040792 0.549594 0.171850 0.140440 0.000733 -0.305783 0.569076 0.710083 -0.293919 0.032285 -1.942098 -2.325357 -0.092881 -0.473305 -0.775033 -0.670496 0.768319 -0.331087 0.285847 0.703179 -0.351175 0.426281 0.409196 -0.637934 0.435694 0.632810 -0.394365 0.126108 -1.207259 -0.012708 -0.686556 1.054108 0.199704 0.431369 0.156886 0.553932 -1.340499 -0.650631 0.893001 0.046149 0.943052 0.890032 0.291825 -0.367603 0.417148 -0.108890 0.686104 -1.045623 0.848943 -0.925137 -1.255832 0.720495 0.825505 0.215102 -0.669319 0.408798 -0.014894 -0.219555 0.338542 -0.197098 0.467899 0.361067 0.831668 -0.803733 -0.479496 -0.617416 0.023259 -0.265970 0.089453 0.888899 0.941870 0.016846 -0.054989 -1.404011 1.021545 -0.786956 0.982034 0.514192 0.399571 -0.784541 -0.203890 -1.925336 0.633272 0.354857 -0.536604 0.524420 -0.339400 1.644547 -0.136657 -1.456603 0.714447 0.897495 -0.366845 -0.683639 0.965872 -0.785823 -0.072995 0.730420 -1.561483
their 0.950968 0.425986 -0.256145 -0.814885 -0.048939 -0.899878 -0.596854 1.820124 0.212564 0.886314 -0.611513 -1.219949 1.015108 0.425385 2.346657 0.764024 0.973213 0.551350 0.419326 -3.589443 -0.543197 0.611564 2.580250 0.937050 -0.585300 1.479240 3.899192 -0.683143 1.612342 -0.026032 -1.626562 -0.181972 -1.869095 -0.785373 0.343495 0.343794 -2.853276 0.764907 0.302171 -1.452157 0.517653 1.424390 -1.509528 1.180311 0.907121 0.677296 -0.045348 0.332144 -2.009746 -0.070366 0.821357 1.568603 1.263555 0.564047 0.568455 -0.083008 0.247699 1.244348 -0.181811 1.293393 1.589256 -0.034888 -0.818733 0.247741 0.802518 -0.301481 0.539488 -0.388601 0.425182 -0.943189 -0.732727 0.214049 0.899675 0.036831 -0.368024 0.629579 -0.057697 0.593020 -1.494367 0.807383 1.418240 1.566196 -1.556270 0.031672 -0.661713 -0.853439 0.448311 0.276017 -2.451794 -0.546102 -0.832455 -1.514804 0.257841 0.903601 1.343612 0.186973 -0.495893 1.176701 -0.335067 -0.327121 -0.032552 0.845792 0.000171 1.787136 0.973751 0.581506 0.281791 0.101452 3.852224 -0.527190 0.570113 -0.337381 2.250205 0.777019 0.178602 0.125350 -2.192329 1.909810 -0.318633 -1.416157 0.493283 -0.747649 0.972301 0.270038 -1.214093 -1.468395 0.386098 -1.394422
would 0.251099 -0.154360 -3.306482 0.372006 -0.483428 -1.179000 -1.178056 0.845884 -0.559453 1.520906 0.037841 1.023552 -1.592361 -0.172007 -0.046392 -0.859074 1.106812 -1.852856 0.066392 2.053676 0.417772 2.026206 -0.474732 0.092332 0.045373 1.517956 0.629861 0.501977 1.515623 -0.849814 -0.526549 0.009756 0.863538 0.423418 1.676403 -0.202592 1.139176 -0.532342 0.037024 -1.344528 3.463691 0.638693 -0.872990 0.402412 0.018100 -0.909458 1.007434 -0.144354 0.651668 -0.213479 -0.195609 -0.149360 -1.188796 -2.565640 -0.656261 0.372245 -0.435613 -1.636106 -1.308160 -1.264034 0.066613 0.371682 1.444635 -0.593897 -1.143221 -0.597020 -1.102959 1.963930 -0.756764 -0.929076 -1.263605 2.037447 -0.337368 -0.938942 -0.962818 0.370027 -0.732897 -1.189993 -1.194662 -0.600056 1.105304 -0.678556 1.826783 -1.772876 -0.583853 0.597546 -0.321494 -2.455698 -1.904419 2.283908 1.039399 -0.108738 -1.593906 0.579294 0.626539 -1.276303 -0.183974 -1.144943 2.068933 -0.397945 -1.717436 -0.311289 1.755679 0.342545 1.903316 -1.810573 -3.508825 1.619764 2.901881 2.290386 1.289118 -0.072611 -1.688626 -1.049561 -0.389308 0.347466 -0.804680 0.550093 -1.986279 0.347597 -0.815505 2.180519 -1.257162 0.139847 -0.820541 2.252241 0.405657 -0.758973
them -0.257196 -1.157088 0.229177 0.702464 1.579151 -1.744319 -0.520261 -0.728194 -0.272181 0.326584 -0.972670 1.265880 2.227479 -0.321076 1.191745 -0.173815 0.667188 -0.194030 0.113239 -1.589719 -0.094095 0.222329 1.515099 -0.821052 0.224570 0.692900 0.370538 -1.095704 1.071503 -0.321624 -0.176355 0.230524 -0.258937 -1.172271 0.398009 -2.122686 1.253970 -0.414866 1.762427 -0.117319 -0.873806 -1.180013 -2.287638 1.611538 1.524630 0.144256 -1.232288 -1.600409 -1.428260 0.578364 -0.738018 1.130918 0.469648 -0.572543 0.317587 0.608495 -1.394783 0.249975 2.123569 -1.039240 0.640557 -0.123066 0.120185 0.000597 1.059309 -1.015658 -1.031687 0.263764 0.373595 -0.432920 -0.450076 -1.004253 0.447492 -1.001436 -0.447746 0.637845 -0.155604 0.468618 0.724989 -1.172044 0.659628 2.421777 0.194333 -0.600943 -0.170855 0.553108 1.879756 -0.153745 1.174545 -1.307876 -1.052607 0.057684 1.230824 0.339771 0.688616 0.013584 -0.399750 0.759246 0.333055 0.823277 0.033110 0.419255 -0.919628 -0.055948 1.337581 0.531128 1.954281 0.344847 0.324862 0.251265 -0.651707 0.587708 0.135748 -0.757774 -0.975026 1.239510 -0.712137 0.629595 1.312322 0.165216 1.960531 1.183802 0.570743 -0.179375 0.622202 -0.084879 -0.333629 1.732938
been -0.289879 0.582518 1.298356 0.447672 0.570369 -1.904796 0.271791 -3.165626 -0.577593 1.596490 -1.123423 2.104947 3.482541 0.364233 0.313271 -1.963156 0.767801 2.969027 0.424225 -0.733761 0.594739 0.387501 0.660479 1.438168 -2.257816 0.197094 0.571295 -2.534481 -0.294910 -1.482039 0.900084 0.099988 -2.097740 -1.748328 -1.092955 -0.486145 -0.716015 -0.091534 -0.231124 2.106584 -0.285082 -0.486053 1.061375 1.131317 -0.940454 0.898644 1.784187 1.458795 0.381107 0.007893 -2.148561 -1.769180 -1.244075 -2.106665 0.034530 2.037555 -0.817137 -1.394912 1.722734 0.531906 -1.378352 -0.465583 -0.092943 0.206447 0.381297 2.453872 0.706484 0.276542 3.042633 1.477513 1.967670 0.587694 0.138083 -0.203285 0.835264 -0.671533 0.552751 1.473840 1.551142 0.860384 1.257054 0.717236 -2.195163 0.577128 -1.060989 -0.518317 1.750151 1.115504 -0.270312 0.406001 2.348214 -0.122605 -0.554301 -0.497876 0.026485 -0.374428 -0.333029 0.833662 0.162069 2.842437 -0.083863 -1.615613 0.306688 1.077428 -1.721616 0.241058 0.415746 1.608729 1.479067 -0.862062 2.040148 1.991580 -1.218170 -0.928886 0.209995 2.130553 1.171373 1.052050 -1.415267 -1.255887 2.329161 0.947960 1.191984 0.557075 0.971207 1.372154 -1.593991 1.860724
do 0.416343 1.336981 0.015005 -0.401164 0.836358 -1.059152 -0.029718 -0.316830 1.282348 0.764891 1.402264 0.246976 -0.998850 -0.971853 -1.673623 1.144640 2.013005 -2.112915 -1.369559 0.084748 0.568602 -0.887059 -0.325940 0.481637 -0.230270 -1.990087 -2.850937 0.832821 -1.140821 0.283358 1.864427 -1.399153 -1.191545 1.286762 1.703951 -0.555175 -0.879254 -0.373224 -0.283077 -1.743739 0.577283 1.236220 -1.758198 -0.486468 -0.485085 0.376995 1.208479 -2.338336 -0.791714 2.835144 -0.941108 1.089647 -0.023480 -1.235921 -0.085058 -2.295660 0.325419 -0.014923 1.715370 -2.352786 -2.159559 -1.152193 -1.449970 -0.694605 -0.277959 1.766969 -0.217658 1.315986 0.182899 1.765429 -0.828000 -0.606196 1.204572 -1.601590 1.088440 1.210675 -0.243028 -1.391581 0.706723 0.097027 -2.254238 0.749325 -0.205778 -0.151175 0.854185 -1.441420 0.061246 1.222630 -0.409692 0.632297 0.722962 1.426930 -0.777669 0.158692 -1.793567 0.022655 -1.800747 0.688495 -0.573394 0.357859 -1.356382 1.081561 1.610984 0.643767 0.100356 -1.188041 0.405351 2.514106 0.854952 0.082957 0.807385 -2.233597 -1.777260 -1.758029 1.484851 1.835167 -0.198966 0.787043 0.076023 -1.750737 0.710849 0.401276 -0.679782 0.124493 1.012870 -1.556384 2.253842 -0.796773
your 1.769579 -0.365940 0.790257 -0.271021 -0.076813 -0.529442 -2.286648 1.424628 -0.080018 2.718732 1.291588 -1.265504 0.183884 -1.432760 0.094986 0.973944 0.284368 -0.181503 -1.583778 -3.504738 3.203859 -0.734519 0.832251 2.398299 -1.045052 0.688455 0.802742 0.488569 -1.213675 -0.231380 -0.368822 0.179713 -0.893589 -1.100004 -1.272573 0.788440 -0.157339 1.086745 -1.299499 -2.000165 2.362977 0.949556 -0.738078 1.949766 -0.046106 0.523929 -0.760483 -0.951643 -2.283147 -0.586390 0.127693 1.711428 1.405580 -0.357391 -0.089232 -0.223368 -0.075521 0.341626 -0.481270 1.305765 -0.421805 -0.908994 -1.109814 -0.920161 -1.022624 -0.783327 3.002375 1.619266 0.825665 -0.214505 1.040666 1.813509 1.545621 0.000360 0.016337 -0.321975 -0.660356 -0.696429 -0.964115 1.522242 1.232402 0.116855 -0.671604 0.113108 -1.069567 -0.202329 -0.111072 -1.069595 -1.165781 -0.915529 0.012090 -1.233917 1.110845 0.963457 1.550298 0.282929 0.495998 2.656164 0.350220 -1.515093 -1.710841 0.172356 0.308842 1.239691 2.004985 0.983373 -1.165042 -1.174847 4.410403 -1.332739 1.017279 -1.244123 2.760675 -0.112958 -0.297724 0.064012 -1.886681 1.142359 0.097729 0.321073 -0.460297 -1.479908 1.728972 1.289129 -1.693788 -0.387036 0.142544 -0.197897
now -0.719383 -0.516566 0.461246 1.329760 0.925909 0.529336 -0.412803 2.198481 -0.217818 0.543382 -0.102191 -0.743506 0.069604 -0.498518 -0.047518 0.198027 -0.155709 0.472874 0.202635 0.290819 0.229698 0.583298 -1.335645 0.260254 0.023392 0.128183 -0.461977 -0.746315 -1.356744 0.110811 0.787186 0.444088 0.443198 -0.255696 0.181168 -0.811807 -0.087361 0.696198 0.324649 -0.619514 -0.185990 0.400154 0.637188 0.575051 0.332814 -0.019995 -0.408987 -0.587366 0.653281 0.195055 0.559025 -0.033678 -0.564197 0.632734 0.107838 -1.042011 0.854541 0.016478 0.270255 -0.442191 0.547994 -0.161574 1.151642 0.060872 1.388525 -1.290463 -0.137945 -0.150111 0.377284 -0.558343 0.840777 0.905638 -0.169944 -0.009495 0.501641 -0.113939 0.206464 -0.255223 0.238469 -0.082226 0.084215 -0.729679 -0.260272 0.492598 0.373072 0.083948 -0.337990 0.613842 0.339388 0.529284 0.357625 -0.139654 -0.031042 -0.866111 0.085769 0.903138 -0.498392 0.133073 1.369572 -0.761306 -0.110864 0.226892 -0.410498 0.185228 0.131789 0.609296 -0.362318 -1.127627 -0.166310 -1.119345 -0.015898 0.923380 -0.128609 0.136122 0.044891 0.567625 -0.905000 0.346522 -0.338109 0.394380 1.057362 0.350596 -0.663138 0.005717 -1.092367 -0.965906 0.217421 -0.389657
out 0.723865 0.658279 -2.373625 1.367690 1.112508 -0.221321 -0.309509 -1.410493 1.197844 2.786979 -0.779738 -0.216894 1.431061 0.228924 -0.536537 1.107524 -2.206394 -0.844770 -0.256322 -2.216292 0.695114 -0.575574 0.246582 1.170969 1.626969 -0.169007 2.179813 0.054028 -0.054427 -1.270908 -1.421953 -1.322702 1.964231 -1.693601 -1.539861 2.833597 -0.839899 0.780264 3.557406 -1.954825 -5.801033 -2.344850 -0.313827 0.378680 -0.529928 1.638139 1.000461 0.198812 -1.365253 2.834800 1.143694 0.613553 0.699925 -0.910837 0.687311 1.516029 -0.901525 -0.458503 -0.329799 -0.329122 0.933962 -0.867665 1.741470 -1.984694 -0.429874 0.659395 0.284753 -1.112846 1.186920 0.210183 0.023428 0.795405 -0.150492 0.772181 -1.700889 -1.249211 1.092243 -0.333578 0.110120 -2.569628 -1.102488 0.124039 0.744364 0.940009 -0.081522 0.697423 1.218786 -1.716561 1.865404 -1.282641 -0.654211 -0.276273 -1.095235 0.670055 -1.901720 0.095858 0.610734 0.343280 2.184556 0.067051 0.052807 0.281964 -0.027177 -1.086437 0.445528 2.535216 -1.620343 1.054183 -3.003499 3.098618 -1.665561 -0.797588 -0.433760 -0.632430 -1.395030 -0.364463 0.377819 -0.843422 1.220997 -0.023303 0.237167 -1.429525 -0.243861 0.404839 2.154043 0.500872 1.370723 -1.174245
more -0.644539 0.438227 -0.318060 0.758029 0.415436 2.030209 -0.229202 1.690060 -1.459589 -0.773032 -1.957632 -1.011746 -0.586513 0.464285 1.876920 -0.801313 0.382692 -0.893512 0.094936 1.670988 1.054152 0.468276 -1.637799 0.716836 -0.466358 -1.618003 0.776379 0.300804 1.478496 0.039543 1.652819 0.225223 -1.038388 -1.168167 1.004817 -1.858166 1.421360 1.050171 0.048719 0.580466 0.409434 0.120156 -0.789295 -0.924278 0.300881 -0.809716 1.381701 -0.662827 1.456467 -0.321292 1.754628 0.368172 0.691830 -0.571790 -0.594505 -1.209615 -0.031415 0.024549 -1.495579 -0.024077 1.467519 -1.055516 -1.173362 1.705076 -0.768410 0.190562 -1.127680 -0.314447 1.771355 1.454044 0.970543 -2.013392 0.155478 1.819551 0.947101 0.570671 -0.535820 0.615717 0.435385 -2.262331 0.438625 -0.414990 2.034883 0.326001 1.101820 0.076885 1.734574 -0.495507 0.575934 -2.074528 0.908166 -1.830782 0.243539 0.571939 1.033022 2.623216 1.610050 -0.498802 -0.359100 0.445524 1.253539 0.258350 -0.535615 0.981086 -1.026742 -0.978029 1.303551 -1.538242 2.491450 -0.115001 -1.172837 0.867855 -0.299344 0.111783 -0.153646 0.952179 -0.605857 -0.547617 -1.156369 -0.945382 1.181607 1.589208 -0.727259 0.508303 -0.168112 -0.968682 0.653177 0.380413
up 1.078530 0.247154 -1.649676 0.229277 0.952757 -1.046127 0.770813 -0.224773 -0.510943 1.479005 -0.019098 -1.108776 1.531276 0.937236 0.703725 0.332749 -1.138178 -1.220602 1.183049 -0.563191 0.242909 -0.389168 0.011612 1.648783 1.087575 0.189175 1.828155 0.816928 -0.254205 -0.470377 0.932251 0.860825 -0.006436 -1.902385 -1.004274 2.225132 -0.520763 -0.351341 -0.057966 -1.039397 -6.860765 -1.829046 -1.898743 -1.971772 -2.564953 0.753948 -0.895161 1.251334 -0.772675 1.030922 0.850064 0.288006 -0.392087 -0.850535 1.676551 -2.057442 0.631164 -1.585150 2.219282 2.168643 2.261418 -1.979608 0.827670 -1.669564 1.997791 0.404735 -0.030737 -0.745065 1.694177 -1.302145 0.365247 0.021273 -0.013369 0.672227 0.158650 0.265637 -1.212017 -2.011360 -0.234506 -3.032743 -1.190695 -0.912113 -0.211123 -1.047701 0.675169 0.216634 2.478518 0.186198 0.195772 -2.053017 -0.710581 0.513784 1.596062 1.286032 -0.924797 1.471887 1.842367 -0.287020 -0.838341 1.739773 -1.781944 0.361370 0.066270 -1.747275 -0.899237 1.568105 -1.734200 -0.611148 -2.612682 1.286470 1.050713 0.804255 0.370034 0.335263 0.145160 -0.181348 -0.462139 0.087531 0.198118 -0.191146 0.959409 -1.280675 -0.863733 -1.643827 -0.169833 1.835085 0.040994 -1.371861
man -2.395175 1.470176 -1.745124 0.417487 1.297993 0.573458 0.833334 -1.845408 1.233785 0.300272 -1.640820 0.066047 0.929951 1.156206 1.254478 1.585340 -0.228225 0.172418 -0.904682 2.527648 0.397494 1.446971 0.522859 -1.912761 -2.013774 -1.365013 -1.178514 -1.653895 1.827866 1.697733 -2.468724 1.072049 -1.062749 0.902565 -0.653548 -1.527349 -0.135599 -0.091991 0.717553 1.473178 -3.409077 -0.227178 -0.920028 -1.520764 -0.502512 -0.474718 0.119245 0.587178 1.559821 -0.380639 -1.296429 0.061523 0.754504 0.482682 -0.217420 1.206731 -1.127397 1.018261 -0.477281 -1.663070 -1.295274 -0.390599 0.974099 -0.226104 -0.279713 -1.474187 1.595787 -0.967547 -2.969042 0.080606 0.719703 -0.223324 1.313126 0.174812 -0.029532 -0.740673 1.470544 -0.693486 -0.088773 0.036470 1.464459 -1.499510 0.951251 -1.473673 -0.388108 1.690630 1.840911 3.208541 2.233800 -1.293825 1.303954 0.880577 0.415996 -0.870186 -1.819193 0.021139 0.204051 0.109226 -0.307249 0.965770 -0.094686 0.307797 0.148003 -0.023494 -0.527800 1.363080 2.216803 -1.554939 0.716552 -0.770044 0.742160 0.408446 -0.140931 -1.860156 2.182051 0.014479 0.601841 0.006943 1.762325 1.740845 0.465648 2.877204 0.503597 2.355563 1.309365 -1.962723 1.083018 0.943444
into 0.258679 -1.047311 0.745631 0.286234 -0.057452 2.387814 -1.373194 -0.118242 2.179385 3.154640 -1.429838 1.924762 0.525118 1.412565 -0.025121 0.958112 -0.765881 0.787024 1.205385 1.707003 -0.538241 -0.536664 3.011697 0.065451 1.156472 0.588352 3.495039 1.655150 2.467312 -0.975118 0.364822 -2.548244 0.840424 0.359819 0.280516 1.108988 -0.034883 2.239961 0.398435 0.073261 -2.713017 -0.053684 -1.613174 0.743918 -3.625806 -2.326116 0.211465 1.527454 -1.020169 1.076374 -0.381564 0.524784 0.249799 0.725742 3.324571 -0.160664 -1.473964 -2.014537 -1.764147 2.557547 1.495135 1.512808 0.147865 -2.005910 -0.360285 2.504038 0.847183 0.571353 -0.818855 1.310683 0.510583 1.625860 -1.235879 2.382273 1.100630 -0.019242 -1.306439 -1.546245 -2.180098 -2.246160 0.296238 -0.229066 1.846427 0.928701 0.195808 0.908330 -1.273587 0.648234 1.054029 0.463329 -0.272645 -0.040827 -1.236676 1.538677 0.121513 2.002465 1.922786 0.505118 0.023140 -1.154096 1.596557 1.146095 0.892319 -0.342301 -0.946075 -1.718158 -2.440684 -1.556922 -2.576531 1.019916 0.405834 -0.262508 -0.399995 -1.479852 0.880967 1.441988 2.070056 -0.036942 0.233266 -1.744845 1.369070 -1.990924 -0.731952 -2.874923 -0.649654 2.544468 2.875844 -1.633328
some 0.708743 -0.308004 -1.159202 0.923467 0.751075 0.920416 1.612801 -0.176018 -2.385460 0.770098 -1.230757 0.539397 0.361071 0.172362 -0.765003 -0.675455 -0.178436 -0.891622 0.062608 -0.951020 0.206561 1.004849 1.378860 1.012677 -0.312288 1.128587 2.320659 1.511412 -0.444271 -1.395623 0.505044 -0.389417 -0.053576 -0.630568 1.317977 0.689639 -0.531770 0.154979 -0.229393 -1.598608 2.419616 0.157142 -1.164233 2.543325 0.337096 1.238404 0.719571 -0.783772 -0.654829 -0.109131 1.129848 -0.354756 0.775381 0.285719 -0.747472 1.337223 -1.970825 -1.105788 0.330680 1.551223 -1.362823 -0.468783 -0.160754 -1.889529 2.155253 -1.436099 0.018664 -1.519539 0.722658 -0.281363 -1.688573 -1.076235 -0.434501 -0.361803 -0.255636 -0.192660 1.263220 1.703552 -0.919628 -0.389201 -0.338225 2.668840 -1.798038 0.458076 -0.504696 0.728010 0.159920 -0.277785 -0.970053 0.724746 1.407398 -0.233959 -0.805615 -0.736758 -0.237560 0.122187 -1.746515 -1.108877 -2.115794 -0.207776 1.114190 -2.362799 -1.546208 0.265423 0.304238 -0.187443 0.349400 -0.863270 1.736637 0.851079 -0.453477 1.733554 1.126381 -0.995540 -0.280572 -1.413720 0.342980 -0.308830 0.005865 -0.437562 -0.193362 -1.969042 -1.244884 0.921292 0.354546 -0.085064 -0.239543 -0.924391
could 0.630675 -1.320596 -3.130666 -1.236388 1.752273 -0.065364 -1.149919 1.753064 -1.869754 2.203011 1.546147 -0.571599 1.382208 0.264033 0.538640 -1.245747 0.950108 -0.637972 -1.553399 1.019916 0.751858 2.215007 -0.152667 1.105737 -0.770488 0.489539 0.363596 1.102659 -0.178382 -0.570248 -0.782051 0.344457 2.460168 1.162699 1.736782 -2.092097 -0.122116 -1.114306 -0.251889 -0.951326 1.367755 -0.177492 0.406533 1.442307 -0.082879 -2.120223 2.244358 -0.228092 0.874208 -1.258437 0.844517 0.554537 -1.301281 -2.463574 -1.108734 1.102926 0.791759 -1.815625 -0.542286 -0.127359 0.471213 -0.626891 -0.631420 0.742239 -0.629352 -0.407003 -0.858456 1.227118 -0.743367 -2.215605 -1.300623 1.178084 -1.210215 -0.531836 -2.419919 1.224881 -0.771411 -2.597888 0.320306 -2.576038 0.262394 -0.424229 1.096361 -1.807897 -0.954673 0.545254 -0.012835 -2.596115 -2.099651 1.235586 -0.629204 0.664804 -3.739776 2.292041 1.894354 -0.430108 -0.095389 -1.726392 1.046692 -2.278645 -2.684844 0.634205 1.355965 1.762674 2.584684 0.954421 0.087224 3.156791 2.909461 3.259165 -0.476949 -0.919521 -1.793944 0.262181 -0.672840 0.468371 0.708997 0.285083 -1.608691 0.424374 -1.028388 1.615214 -2.595188 -0.287979 -0.258331 -0.635623 0.827340 -0.107015
has 2.526092 3.171446 0.413199 -0.785612 -2.503179 1.274706 -2.030066 1.180217 0.233259 1.830482 2.056236 -0.763357 -2.686387 0.593691 -0.387023 -0.529258 0.092869 -1.522392 -1.249091 2.275893 -3.165387 -1.707956 -1.872134 0.562028 2.031678 2.213560 1.063047 1.789093 1.227361 1.166717 0.839124 -0.065929 0.550499 0.552652 1.472303 -0.601064 2.035883 0.045123 1.470915 1.572129 1.380237 3.290861 1.544408 0.394184 0.031157 -0.381490 -0.500666 0.529438 -0.384635 0.000980 -0.404084 0.233664 0.384330 0.123249 2.241760 -0.209528 -2.359861 -1.127686 0.323060 1.234134 -0.264901 0.295778 -0.122393 0.633912 -2.395773 -1.183888 1.847829 0.558507 -2.208166 1.300691 -0.955863 0.459684 1.021388 -1.538094 -1.603680 0.884157 -0.964616 0.806585 -1.686698 -1.002608 0.300038 -1.024191 0.962489 -0.478622 1.505764 0.547467 -1.512822 0.083174 0.554814 0.705565 -2.179913 2.784949 0.375894 0.854200 -0.312960 0.401177 3.332170 -2.521739 -1.518477 0.609091 -0.711498 0.227041 0.379956 0.682175 1.248255 -0.652721 -1.470120 -1.583495 2.341083 1.614752 -1.436462 0.811139 -0.643859 2.588245 -0.843748 -1.633711 1.989105 0.251693 1.638067 2.836020 2.555406 -0.472928 -1.081761 -0.276314 -0.783840 -1.496011 -1.927164 1.575282
only -0.036158 -1.074891 0.208025 0.305077 -0.611889 -0.121731 1.061649 -0.636616 -0.908293 -0.251417 0.370939 -0.862145 -2.207624 0.968376 -1.030012 -0.941560 0.227000 -0.489037 -0.350810 0.410252 0.413724 0.306323 0.577555 0.076879 -1.057499 0.366628 -0.896762 0.516475 0.068741 -0.094341 0.709438 -0.515449 -0.161782 1.575754 0.048322 -0.331390 -0.868905 -0.537336 0.512070 1.484568 0.707017 -0.323093 -0.284959 1.320336 -0.931957 1.133173 -1.001719 -0.736639 0.706567 -0.297777 0.981642 0.478920 0.223970 0.154937 -0.419586 0.094089 1.045559 -0.863636 -1.292370 -0.790019 -0.909570 0.559349 -0.894903 -0.099923 1.078158 -1.183104 0.772885 -0.077845 0.419520 1.067329 -0.201565 -0.935886 0.525876 -0.032393 0.405544 -0.982209 -0.035123 -1.263604 -1.097564 -0.922214 -0.989535 0.123562 -0.393245 0.628072 0.187899 -0.372070 0.232624 0.870705 -1.329249 -0.591898 0.323488 0.652096 -1.743177 0.329683 -0.386836 -1.210493 -0.465760 -0.288671 1.956192 0.435266 -0.364853 1.496494 -1.032092 -0.674177 1.176809 -1.041367 -0.599643 -1.177815 0.580362 0.132930 -1.107439 1.390455 0.825065 -1.256848 0.185652 0.491953 -0.392667 -2.197290 0.270599 -0.828306 1.359115 0.473634 1.307767 0.299678 -1.192301 0.068940 -0.019273 0.505621
any 2.673553 0.878760 -0.824148 -1.368983 0.766392 -1.022385 2.803908 -0.999822 -0.826413 2.094340 0.309293 1.476401 1.110340 0.273448 -0.335345 -0.579036 0.682826 -0.812618 -1.020190 0.447376 2.452860 -0.415614 2.547369 -0.974330 -1.863799 0.040524 1.064541 1.631316 0.635832 1.136491 1.161216 0.086823 0.730413 -1.522543 0.887177 0.404043 0.356686 1.725314 -0.087288 0.554310 5.763226 -0.540073 0.087536 3.051455 0.470081 0.529419 1.763453 -0.943721 -0.380740 0.769721 2.490456 -0.507032 2.055264 0.005673 -1.950266 0.045368 -0.779996 -2.890302 0.595807 -0.581723 -1.820335 -1.155812 -2.135186 -1.228021 0.920948 -2.372339 1.939378 -2.073735 3.112769 1.104446 -0.980985 0.549004 -0.922340 -0.189591 -1.263865 -1.447843 0.226422 0.786016 -0.108848 -1.175131 -0.474436 3.131501 0.201077 -0.049384 0.525711 -0.046601 0.490700 -0.852367 -2.119655 0.170535 -1.004525 -1.574825 -0.143967 -1.272183 1.284415 -0.800171 -1.732952 -3.224423 -1.579001 0.782572 -1.293621 0.415558 0.720193 -0.217691 0.778999 2.128438 0.107169 0.434430 1.638714 -0.319407 0.983625 0.668600 1.956789 -1.930020 0.145626 -2.390268 0.412378 1.089402 0.393072 -1.695131 -0.772547 -1.530031 0.390368 -1.262525 0.423144 0.685768 0.195635 0.632573
very -0.360778 2.443027 -0.154483 -0.097347 -0.633412 2.013592 0.585285 -1.084446 -1.128770 -1.656501 -0.911786 0.531082 0.099951 1.343382 -1.089997 -0.147299 -0.924109 -1.505716 0.113789 1.533416 0.634582 1.315973 -0.936627 1.468418 -0.888711 -0.542651 -0.882911 0.972066 -0.078010 -0.491595 -0.742741 -1.854483 1.520334 -1.180979 -0.813695 -1.132353 3.357663 1.653305 0.416904 0.553633 -0.928192 -0.037880 -0.356960 -1.274356 -0.596579 0.871562 0.260089 -1.273688 1.985828 -1.180885 -0.512103 0.652479 -0.464140 1.252321 0.308138 -0.137198 0.611511 1.379585 -1.832381 1.963483 -1.705178 -1.111326 -0.114534 -0.335948 -0.142185 0.106424 0.131036 -1.343766 2.208866 0.346051 -2.455907 0.277346 -0.325112 2.086459 -0.929704 0.256536 1.286887 -0.266492 0.186162 -1.410648 -0.880583 0.945239 0.392213 -0.336049 -1.444080 -1.702316 0.793227 0.544934 0.586542 -0.922613 1.126623 -1.755383 0.866731 2.400572 -1.474823 -1.942468 -0.457844 0.676253 0.434487 1.044171 0.655670 -1.103237 -0.605334 0.845457 0.199159 -1.867727 2.011226 -0.567852 2.097909 -0.357205 0.697346 -0.633584 0.097694 1.513074 0.501115 -0.437932 -0.783654 -1.830340 -1.181723 -0.469688 0.314257 0.185848 0.895101 1.380216 -1.841570 -0.336873 0.037299 -0.191934
like -0.771038 -0.745250 -0.577081 0.025076 0.521412 1.578547 -0.257560 -0.808483 1.996051 -0.091990 0.433087 1.362128 -1.325641 1.199475 0.669864 -0.200955 0.058212 0.640970 -1.356321 0.468491 -0.533490 -1.281050 -0.613745 -0.468169 -0.730218 0.373718 1.353055 -0.398442 -0.325027 0.099805 -0.714681 1.395355 0.460836 0.351074 -0.039403 0.202008 0.763476 0.255467 0.776407 -1.432318 -1.699414 0.087643 0.030961 -2.728116 -1.085061 -1.222262 0.353082 0.329214 1.734467 -0.265269 1.053379 1.664056 0.287015 2.029999 0.739866 0.288674 -0.577634 0.042077 1.731219 1.134212 -2.042126 0.354596 -0.518126 -1.730090 -1.626044 1.331220 1.459305 0.287655 1.637070 -0.222655 0.894888 -0.858020 -1.754814 0.265370 -0.458897 -0.782187 -0.850980 -1.030333 0.158067 1.128325 -0.006148 -0.834034 -2.413231 0.080187 0.958500 1.477037 -0.360731 -0.019832 0.232176 -0.454203 -1.251070 1.277974 -0.255471 0.532534 0.204967 -1.112567 -0.986634 0.597133 1.528824 -0.235336 -0.248870 2.072149 -0.655546 0.404958 -1.333581 -0.436206 -1.966565 -0.140428 -0.877708 0.337505 1.062974 0.284734 0.430760 0.370210 1.960111 0.017573 0.634556 0.618782 0.225538 0.078690 1.009285 -0.774156 -2.093072 0.429982 -1.532950 -1.946604 -0.171506 -1.603366
did 0.546304 0.921398 -1.598379 -1.241866 0.613814 -0.620531 0.164484 1.847144 1.544131 2.976125 0.729949 0.009564 0.064238 -0.813613 -1.613835 0.043156 0.530360 -2.183413 -1.117903 1.431062 1.861170 2.339933 -1.402191 0.135599 0.262659 -0.433022 0.787540 -0.131051 -0.297787 -0.193528 -1.726461 -1.963086 -0.157585 1.416544 2.263085 -0.904305 -0.621133 -0.833142 0.124114 -0.086860 2.430861 0.786752 0.255263 2.015929 0.047030 0.379263 1.834709 -3.400138 -0.487647 1.552644 -0.184889 0.410572 -0.985936 -0.768882 -1.382700 -0.545075 1.854966 -1.289544 0.911515 -1.747599 -0.772922 -1.737685 -0.186031 -0.758928 -0.544413 0.011370 -1.315777 1.999928 -0.482587 1.120120 -0.501521 1.334392 0.391686 -1.428966 1.529216 1.490417 -2.041752 -1.190096 1.566229 -1.192288 -0.521221 -1.696137 1.808767 -1.943692 0.609912 -0.265757 -0.542780 -1.914635 -0.988264 2.907746 -0.455483 2.055218 -3.058774 2.248862 -1.145099 -0.235428 -0.153359 0.035159 0.727208 0.279718 -1.779866 1.767135 1.812861 0.689708 2.916458 -1.067428 -2.003453 1.718517 1.530540 1.669325 -0.749326 -1.681285 -3.395631 -1.850072 1.424577 1.424205 -1.168479 -0.073431 0.268426 -0.962681 -0.621841 0.094478 -3.043674 0.215860 -2.319409 -1.592890 0.392824 -0.574957
time 1.123032 1.474678 -0.741581 0.238256 0.836411 -0.410666 0.906523 -1.163723 0.536464 -1.155683 0.572373 1.738391 0.563949 -0.039276 2.483353 0.617034 0.268558 1.322860 -2.006809 0.969822 0.392811 1.340543 -1.159329 -0.269239 -1.891660 -0.958527 -2.504155 -2.002544 0.771517 -0.175273 1.339208 0.143927 -0.993384 -1.049385 -1.390908 -1.486932 -0.300577 1.199516 0.313528 1.959809 -1.029040 -1.161597 -0.380775 -1.066725 1.210880 3.063518 0.875693 -0.568382 0.520935 -0.850730 -3.132225 -0.866680 0.147180 1.390724 1.121887 0.648425 0.562463 1.881676 -1.421788 -2.693536 1.137551 0.611816 0.369446 0.673828 1.034219 -1.791838 -2.663645 -2.131728 -2.694840 0.700284 -0.787821 -0.896924 2.463174 0.750814 1.230167 0.783187 -1.634230 -0.055982 0.185034 -0.849712 0.665215 -0.402176 -2.015286 -0.357298 -0.076038 1.761601 0.337495 0.450264 1.998181 0.213566 -0.195971 0.834682 0.673059 -0.001003 -2.280068 -0.553144 1.430356 -0.433462 1.496083 0.237341 -1.329800 -0.438347 -1.126183 -1.024379 1.484838 0.885889 0.051321 -0.298468 -2.082932 0.398877 -0.840716 0.282483 -3.163216 -0.900206 0.177886 0.514617 -0.628231 1.346244 -0.813089 0.563462 1.801082 1.750213 0.378087 0.122775 -1.051692 0.523675 0.549895 2.052286
its 1.181151 0.743134 0.784074 -0.923595 -0.701599 -0.186121 -0.898628 0.298156 -1.167499 2.242564 -1.268110 -1.042728 0.682046 1.728561 1.840672 0.550240 1.380584 1.030827 0.190680 -3.325926 -2.374523 -0.422787 0.663150 0.381721 -0.470771 0.539442 3.022043 0.308979 -0.867150 -0.337077 -0.701679 -0.955111 0.732202 -0.220814 -0.525090 -0.942316 -0.286030 0.765663 0.123173 -0.204156 2.038117 0.145204 -0.293204 0.545671 -0.315423 -0.883731 -0.655675 -0.635060 -1.640316 -0.612408 1.165350 0.790159 0.548628 1.324458 1.011419 0.726841 1.305639 0.184621 0.325642 1.580339 0.254842 0.302007 -1.027439 1.612259 0.714291 0.943327 1.064366 -0.363508 0.134824 0.062287 0.555672 0.611561 0.248791 -0.307063 -1.080230 -0.225145 0.033092 -0.510430 -0.547570 0.034631 1.516185 0.912908 -1.154341 0.682389 -0.400334 -0.610560 -0.253773 0.178970 -2.612201 -2.069292 1.220576 -0.929051 0.246600 0.571934 -1.577670 1.498030 -0.495796 -1.195418 -0.987235 0.302978 -1.361773 -0.086083 1.240251 1.372921 -0.256884 1.014730 0.188142 -1.066404 1.118581 0.247428 0.677009 0.094090 1.895364 1.192684 0.268099 1.594336 -1.216852 0.837284 -0.302259 -0.711138 -0.496284 -1.936872 0.884199 2.554328 -1.942495 1.077401 0.988324 -0.352285
than -1.551429 1.503072 0.339460 1.592309 1.497072 -0.085669 -0.478391 -0.780769 -0.507216 1.148520 1.512824 0.311046 -3.607447 -0.639663 2.065867 2.777154 1.775067 0.435290 0.349345 0.440198 1.367966 -0.569643 0.836440 -1.165887 -0.812631 0.421677 0.282795 2.034836 -1.086450 -2.851296 -0.094234 2.276810 0.331399 -0.538449 0.329627 -0.322234 0.487024 0.613854 0.107748 3.211371 2.161748 0.853623 0.103226 -0.714863 -2.296592 0.600493 -0.391797 0.233795 1.160813 0.466744 -0.142615 1.981876 1.141635 -0.373248 2.169716 0.156610 -0.168173 2.475019 -0.913685 2.321155 -1.019344 0.200958 -0.892386 -2.222739 -1.486767 0.408660 -2.286427 -0.004569 -0.305296 -0.650749 -0.765743 0.295220 -0.557855 0.930210 -1.772065 -1.807239 1.659685 1.874407 -1.443412 1.263703 0.676438 -0.938199 1.038553 0.263158 1.391700 -0.595962 -0.440215 1.794523 1.035453 1.214273 0.931486 0.544673 -0.372249 1.127528 0.802098 -1.794863 -2.406617 -2.047175 2.868661 -1.216100 0.142682 2.418976 -0.530907 1.329950 -1.891794 -2.422496 -1.552823 0.744222 1.353884 -0.422760 1.393009 0.049154 0.892550 -0.379338 0.446204 -0.036091 -0.981706 -0.095425 0.075031 2.203168 -1.529960 -0.626625 -1.484048 -0.525484 1.745152 2.285377 -0.188166 2.182898
other 0.105931 1.786197 -1.396272 -1.871877 1.170122 1.058643 -2.680200 -0.828098 -2.050022 -0.593457 -1.361198 -0.477953 0.434020 0.593976 0.328158 -1.366995 -0.311501 -0.096950 -1.893781 0.403384 0.971306 0.790443 -1.464706 1.118238 -0.450318 -0.682115 0.502671 -1.047474 1.983289 -1.184927 -0.499573 0.422849 -1.472531 0.201683 0.585017 1.120708 -2.294546 -0.276525 1.026327 1.139534 0.699486 -0.423091 -0.064548 -0.412569 1.660498 -0.900394 1.345355 0.376476 -1.561981 -0.847672 -0.418639 -0.129587 0.557816 0.387142 -0.163323 -1.556411 0.271562 -0.370345 -0.376782 0.085867 1.276644 -0.191821 0.329183 -0.293061 0.604628 1.396028 1.115264 1.634546 0.046692 -0.329097 0.863120 -0.198624 1.355334 -1.869401 2.015267 3.302617 1.505925 -0.040840 -0.319863 0.856224 -0.538073 0.623287 0.272148 0.721125 0.178786 0.940744 -0.106542 1.149634 -0.734576 -3.237949 -1.232364 0.832182 1.169549 0.629158 0.480632 -0.132965 -0.398128 2.727210 -0.283932 -1.440363 1.261502 -0.990450 -0.869045 -1.469932 0.295060 -0.544614 3.039728 -1.054736 0.892120 -0.261218 0.442213 -0.408998 -0.901862 0.264862 -0.957000 -0.190055 0.593979 0.617625 1.266689 -1.269283 2.417351 1.492710 1.356673 0.639146 2.810718 0.657152 1.613111 -0.816828
before -1.004810 -0.827171 -1.102261 0.976067 1.135211 2.123846 -0.161473 0.909181 0.707323 1.878621 0.894169 1.078834 -0.967482 -0.056581 -0.328158 -0.369756 -0.975497 -1.561209 1.881218 -0.142864 -0.622788 -0.878549 1.244658 -0.191820 -1.111669 0.487902 0.927318 -1.783020 0.983358 0.272528 0.143294 -0.609042 -0.694604 -0.349073 -0.895220 0.240784 -1.501196 0.197502 -0.064174 -0.406536 -0.125058 -0.538504 1.177616 -0.188562 1.349882 -0.566490 0.538833 1.055941 0.215076 -0.721100 1.946323 -1.059212 -0.945413 -0.779888 1.817003 -0.568788 1.312067 -0.048548 -0.062042 0.643429 1.915316 -1.205991 0.369176 0.297228 1.972588 -0.305318 -0.208707 1.336053 2.231422 1.775422 0.962205 -0.071122 -0.192699 0.712310 1.784958 -0.224858 -1.449886 0.832469 -0.200227 -0.063053 -1.159396 -2.286877 -1.420956 -0.049573 -1.274885 -0.016412 0.195228 -1.245715 1.186401 1.108270 -0.552322 -0.560936 -1.179674 -1.096813 0.594820 -0.866387 0.013227 -0.793141 -0.008489 0.989276 0.352754 1.957186 -0.623994 -1.255262 0.455339 -1.328654 -1.921274 0.081670 -0.727413 -1.074859 -2.140153 0.256818 -1.698301 1.284894 -0.856001 -0.413394 -0.060604 -0.689328 -1.019809 1.971939 -0.268500 -0.891254 -0.530537 0.210580 1.154586 -0.924975 0.473322 -1.249024
about -2.494344 0.151563 0.715407 0.086386 -1.121089 0.514733 0.312778 -0.887411 0.723963 0.866847 0.075249 -0.125727 -1.608960 -1.760255 -0.817071 -1.211422 -1.023415 0.034343 -0.859867 0.480311 -0.529785 -1.495851 1.214046 1.085743 -0.312686 0.792535 0.402761 1.624791 0.272829 -1.607214 -0.002496 0.991024 1.658399 1.035625 0.841834 2.077830 0.197635 -2.253875 1.195759 -0.761944 0.176369 -0.815525 0.736265 -0.226873 -1.282887 0.503304 0.201091 0.237508 1.528552 0.761181 1.894081 1.961711 -1.516339 -1.279783 2.270446 -0.592346 2.049077 0.288467 -0.173243 1.709503 -0.022167 0.782176 -1.117931 -1.155182 0.648739 1.849829 -2.361453 0.263231 1.030105 1.116719 0.165681 -0.274435 -0.480737 1.958587 1.352713 0.573476 0.111119 0.590798 0.571209 0.265529 0.003254 -0.462503 -2.115188 0.341805 1.396102 1.127106 -1.645214 -0.532291 1.032937 -1.104420 0.031770 -0.406806 -0.043374 -0.287613 -2.225603 0.359262 1.221645 -1.397358 -0.100773 -1.254879 0.743226 0.091331 -1.265388 -1.563412 0.206889 -1.338965 -0.416378 -1.334763 0.851663 -1.232671 0.333031 0.095655 -0.715370 -0.334938 1.992651 1.287520 -1.426163 0.032769 -1.315734 -0.773965 1.891429 -0.338008 -2.524694 0.767260 0.214367 0.052551 1.882620 -1.168401
see 0.594596 1.287204 0.792100 -0.804729 -0.982837 1.949843 2.077752 -0.457032 0.948581 -1.453666 -0.643740 -0.475187 -1.695564 0.425115 -0.668123 0.200216 1.279368 -0.687058 0.978803 -0.012075 -0.488111 -1.923729 -1.105508 0.981095 -0.833559 -2.210535 -2.259984 1.668973 0.238532 -0.910663 1.203566 1.100430 0.475695 0.968395 0.402717 0.089616 0.983809 1.452644 2.050942 -0.735453 -2.575582 0.249525 2.173078 0.473986 1.066449 1.318043 1.149815 -0.975402 0.547925 0.140741 0.920924 1.161668 0.080416 1.847498 0.771955 -2.421636 0.417767 -0.614809 3.126708 0.651504 0.772182 -0.364000 -2.159512 -1.019190 -0.246262 0.780256 1.113501 1.997587 -0.049496 0.817950 -0.051088 0.681261 -0.582502 2.616014 1.272100 -0.207038 -0.257312 -1.059018 1.472409 1.764493 -0.154810 -1.775386 1.260774 1.251722 -2.349241 -0.980750 1.494744 3.309036 0.045613 0.603841 -0.964167 0.987342 1.522052 -0.423109 -1.628015 0.472485 -2.455585 0.695481 -0.347171 0.299819 1.402053 1.022546 0.206681 -0.630919 -2.299896 -0.198003 -0.909979 1.887312 -1.323335 -0.035822 0.765251 -1.131457 -1.337574 0.084867 1.337443 0.115639 0.372357 0.023365 -1.577376 -0.103826 0.052246 0.588334 0.592377 -1.382809 0.341968 0.588097 -0.555473 -0.577439
