3000 128
<pad> 3.052214 -1.040326 1.101591 2.497137 -0.695349 0.971592 0.853182 -0.272318 -1.371954 0.337085 -0.125223 2.349623 2.495607 -0.095910 0.246319 0.900499 0.478501 0.907965 0.354142 -0.060649 -0.249443 0.785424 3.337672 1.525299 -0.736636 -0.927812 -0.746391 0.817628 -0.927284 -1.469655 -0.133895 1.857610 0.147822 0.375181 1.467756 0.887923 -2.829166 -1.536498 -0.008267 -1.774793 0.568696 -3.021189 -0.082611 2.313759 -0.840322 -1.403165 -1.309317 0.995733 2.092206 -1.306427 2.420053 -0.358711 -0.361717 0.583634 0.091268 -1.268441 -0.691422 1.514200 -1.106116 1.577833 -1.707580 -2.027575 1.604405 -0.084531 0.580996 1.858196 -1.558915 -1.748531 -2.169298 -1.481762 -0.292479 -2.977165 2.055212 -0.094402 1.284461 -1.026870 2.214177 -0.561412 1.271946 -2.218382 -0.035526 -0.840182 -1.247794 1.396233 -0.450077 -1.704005 -0.510499 0.777995 -0.124050 1.450238 -0.033704 -1.754706 1.263862 -0.144820 2.516130 2.101577 0.347812 -0.771655 1.163758 -0.611610 -3.089871 1.398143 0.807377 -0.237141 0.914967 -1.391163 1.616224 0.352414 -0.074693 -0.488850 1.057078 1.348664 -2.080694 -0.660705 0.116699 -0.882081 2.085012 1.133105 -1.672072 -3.049653 1.259468 0.119453 1.109869 0.695379 1.004731 -0.766628 -0.596659 -1.478406
<start> -0.665789 2.721581 -0.716366 0.060137 1.905439 -1.337399 0.398874 -0.152709 -2.507095 2.829381 2.521737 -1.436316 -1.234888 0.972039 1.648574 -0.617561 1.186874 -1.870831 0.074703 -2.647332 1.856465 -0.525829 -1.758651 -3.332792 3.181330 2.312151 1.174277 -1.178909 0.489274 1.566881 -1.265552 -1.469919 -0.082018 -1.961306 -1.148582 -0.231343 -0.764116 -0.473225 -3.712487 1.331305 -5.223660 2.049929 0.539224 -5.054074 0.925637 -0.659087 0.383745 5.345352 -1.265163 1.424039 2.533460 -2.066118 -0.654028 3.169334 -2.830575 1.823326 -2.898012 -1.194902 1.135815 -2.752821 0.852087 -0.039528 -3.055770 -3.100586 -0.309226 -1.710139 0.653649 -2.300682 1.679459 2.308439 0.177666 2.113846 -0.565546 2.662395 -1.201951 -0.943615 -0.670818 0.512109 -0.036708 0.424965 1.069530 -0.422410 -1.617824 0.384843 -3.903390 2.277081 -0.770139 -5.672569 -1.889814 -3.975443 3.255652 0.020635 -0.786391 -2.951801 -0.347712 -0.144172 1.593064 2.630682 -0.343678 0.237146 0.672000 -0.696105 -1.960737 5.822954 -3.572087 -0.140219 -0.961781 -4.967793 3.300043 0.699577 -1.761960 -0.997036 1.631200 -1.157673 -2.721272 -1.689937 0.510831 -2.646187 -3.463264 3.366442 -0.669206 -3.517884 0.905252 1.127504 -5.036438 0.595680 2.440804 4.057470
<end> -1.065017 2.273644 -2.255681 -3.158955 0.795899 -2.603722 -0.928810 0.073186 -0.236245 -2.669321 -0.063333 -1.621168 -3.901774 -2.247508 -0.239404 -2.101558 -1.139568 -1.632623 -3.904793 -1.523405 -2.534220 0.511811 -2.411752 -0.324436 4.098669 0.235774 3.600527 -3.076714 -0.058849 0.324430 0.579672 -0.854718 -0.579909 3.292455 1.406351 0.500299 4.494609 3.640837 0.116689 1.122608 -1.060491 0.434851 -0.603363 -3.077641 3.453004 1.263032 0.057070 -1.317758 -0.694075 -3.075718 -0.224863 0.000316 0.465741 1.454737 2.268435 3.220054 -0.198919 -1.955382 -0.345800 -2.490728 1.404191 2.295519 -1.822880 -0.165714 -0.649711 -3.468177 1.501739 0.312206 -0.089210 -1.562439 -0.293313 2.067622 -2.374080 1.750883 1.786527 -1.246236 -4.307652 2.573995 -1.547540 -0.507878 1.092198 -2.159756 2.447201 -1.203920 2.791796 1.203218 -1.583312 -2.014654 -1.630091 -3.952425 -0.005185 2.453970 0.069397 -0.962977 -1.538633 -0.740218 -0.679033 1.153674 -2.865252 1.850928 2.431524 0.899909 -1.543681 -2.596464 -1.370234 0.459876 -0.992531 -2.024614 3.807921 1.596323 1.695839 -0.529334 0.749607 2.889814 -0.824082 1.685173 -1.349992 -3.264964 1.049706 0.590777 -1.131678 0.553155 3.880845 -1.995874 -0.182220 2.304462 3.212116 3.616065
<unk> -0.656150 0.870658 -2.138886 0.168798 0.851549 -0.276372 -2.617301 0.000762 0.211243 -1.420105 0.472886 1.276728 -0.247278 0.528790 0.847031 -0.434413 1.120753 -0.764858 -0.329716 1.023738 -1.179953 -1.284462 0.505841 -0.007604 -0.031864 -0.664689 -0.796984 0.537564 0.375174 -1.217293 -0.880136 -0.003188 0.716555 -2.066226 0.945781 -1.012616 -0.080047 0.095469 0.757646 1.863045 1.518428 1.042950 -0.740302 -1.380513 2.028091 -0.603918 0.230045 0.913345 1.608375 -0.221644 -0.526366 -0.826658 1.151625 -0.419599 1.222753 -1.258637 0.662292 -0.709845 -0.000040 1.400407 0.660444 0.219132 0.309257 0.163469 1.166579 -1.372943 0.672488 -0.825098 0.387700 -1.391223 1.117625 0.410314 -0.341313 0.046475 -2.207829 0.179768 -2.016674 1.111407 0.356588 -0.939925 -0.737904 -0.833119 0.808932 -0.934837 -0.902462 0.295013 1.273613 -0.269455 0.930556 0.773567 -1.276045 0.060424 -2.249612 -0.869174 0.024521 0.141504 -1.797560 0.466529 1.747141 -0.867900 1.009764 -0.781846 -0.152274 1.699497 0.660549 -0.363896 -0.198452 -0.985920 -0.890091 1.188694 -0.517350 -1.092453 -0.172206 -1.006199 0.059792 -1.017725 -0.232075 0.830195 -0.103711 0.180852 0.402950 0.562753 -1.314924 0.269819 -0.186652 2.290090 -0.862918 -0.238542
the -0.350245 -1.049705 2.645325 1.195911 -0.920890 -2.546189 3.381451 -0.730045 1.716570 0.523220 -2.267594 0.271022 0.023817 -0.874093 0.899621 -3.418904 -0.986671 0.199306 0.079845 -2.663040 2.057496 -2.634978 -0.719002 0.094428 0.032247 -0.480709 1.447950 -1.274431 -0.819002 0.256483 0.556361 0.145302 -3.482890 3.852827 -0.264478 -0.362717 0.392334 2.378667 -1.639573 1.878616 2.537324 1.708041 -1.167859 -0.473743 0.038683 -0.217905 -0.536775 -2.304968 -0.426857 -0.924405 -1.024211 3.792566 1.060224 -0.633419 2.615898 1.282167 0.285544 -0.734107 -1.406502 1.487069 -0.026172 0.829992 -1.392539 -1.118913 -1.027576 -0.483023 1.817835 0.937175 -0.440383 -1.320804 0.095070 -0.196331 -1.983127 -0.275445 0.256943 0.592515 2.718020 -4.531341 -0.013010 -0.155030 1.182253 0.912249 0.382509 -4.038497 -0.514592 -0.214355 1.347502 0.420866 -2.187294 -2.186028 0.872308 -3.381701 -0.578685 2.026773 -1.318695 -2.378128 2.417498 2.940869 -3.571911 0.016105 -0.005145 0.995102 1.121646 0.387257 -1.470110 -2.441797 0.016147 2.884682 -0.731303 0.409131 2.179396 1.731505 0.928189 -1.299074 0.528377 1.076516 0.166251 -2.704043 3.196394 0.745016 0.915444 0.589502 -1.538781 -1.868446 -1.412860 -1.242657 1.909984 -0.838830
and -2.569823 -0.313371 0.723391 -0.421627 2.728656 2.953913 0.372119 2.547516 -1.488141 -1.126777 -1.553857 -1.312517 0.406192 -0.134719 -2.289968 0.859115 -0.109141 -1.623948 -0.276426 0.231035 -1.055879 2.651477 -2.131021 -0.615231 0.542707 0.326550 -0.489017 0.269813 -1.703969 -0.034916 0.054852 -1.867197 0.015748 -0.351093 -0.368402 0.093113 1.058565 0.506945 -0.834326 1.032861 2.326568 1.102826 -0.542376 2.153426 0.733934 0.360944 -0.079124 3.096102 -0.151946 0.877429 0.159102 2.257746 1.632525 1.556979 -0.152764 0.609810 -0.549384 -1.023305 1.237908 1.775508 -1.063300 0.160722 0.831725 0.567895 -0.072488 -1.155075 0.099386 0.313116 1.825948 -1.367633 -1.820007 1.515074 -1.233490 -0.722118 1.185762 0.127193 0.471107 0.812940 0.589930 1.513367 -0.502532 -0.479404 -0.480425 1.228766 2.624718 1.577752 -1.700941 -0.318079 0.979101 1.489428 0.429793 -0.271170 0.048541 -0.305870 -1.324572 -1.730836 1.028693 1.755254 -2.503126 1.749871 0.262143 0.653956 0.966708 -0.154056 -0.922669 -0.078977 -1.438944 1.628197 -0.019203 -0.604555 2.206823 0.021274 -1.072982 -0.391795 0.593533 0.940726 -2.199384 1.683418 -0.684507 0.599969 1.161362 -1.198111 0.674685 -0.562237 0.134603 -0.214724 -0.917307 -0.098311
of -1.535229 0.773463 -1.606902 0.426250 -0.482026 -0.892737 -1.445204 -0.889361 5.035065 1.522946 0.514826 -1.701929 2.033768 -1.827944 -1.033734 0.076964 -0.900164 0.131544 -2.714809 5.545238 -0.399576 -1.726871 0.224610 -2.678997 -2.518527 -2.851931 0.588137 -0.606145 -2.669642 2.306840 2.812594 -2.909157 3.168964 4.675047 0.421464 2.321604 1.495571 1.889043 0.193036 -4.117600 -1.358606 1.716898 0.298523 2.240224 0.221214 0.145950 -0.907374 -3.133179 2.059269 0.253220 -1.503056 3.555453 0.124133 4.647820 0.867995 -0.480814 0.130457 -1.700376 -3.540249 -0.388219 0.436654 -2.680825 0.642422 1.155882 -3.290178 0.565156 -2.908908 1.715235 -0.018729 -0.445064 -0.797303 -1.264194 2.992506 2.890655 -0.479753 1.146254 1.590322 0.655106 0.907421 -2.123243 0.456087 -0.351423 0.381696 -2.423195 0.480666 -2.376554 -1.744747 -0.653108 1.981691 0.562402 -1.758022 -2.528005 -0.985070 -3.757813 -0.157460 -1.943993 -3.025476 0.489640 -1.530405 0.913535 1.491765 -0.824825 -1.146195 -2.413724 -3.342771 1.224934 -0.216691 -1.805601 1.198751 1.194059 1.782742 -0.303956 4.031528 2.973566 0.132316 -0.004603 -2.120726 0.079821 -0.458513 -0.377746 1.857685 1.041530 -0.355338 0.150955 -2.541770 -0.461153 -0.805019 -0.496060
to 2.126287 -2.787480 0.798470 1.293597 -0.949474 1.209041 -1.295087 -3.854507 -1.991402 -0.667156 3.476882 -2.408523 -2.488677 3.878724 1.766497 3.091834 -3.351992 0.144603 0.440054 0.158645 -1.163624 -0.669441 -2.961571 2.032883 -1.621038 3.481794 0.931290 -2.865919 0.568814 -0.793368 1.019472 -1.557518 -0.546336 0.240888 1.966474 1.182108 0.029900 1.244309 -0.538161 -2.519355 -1.108049 -1.909565 -1.324691 1.114999 -1.702343 2.534365 0.249186 -0.880966 -1.024769 -2.693218 -0.883084 -0.796617 -2.330132 -1.329774 -3.336344 -0.219204 -0.588937 -0.642278 -1.860164 -3.894279 -1.600321 2.603754 2.236380 3.362270 -2.758028 -0.703477 -0.613053 1.040682 3.076270 5.163691 1.833359 1.527777 1.232865 -0.717035 -0.230042 1.509532 -1.102894 -1.499646 -3.421754 5.280189 -0.525513 -1.222668 1.198435 -2.063569 0.693462 0.662476 -0.157300 -1.433195 -0.413879 -2.795421 -2.759857 0.179717 -0.395486 1.646718 -2.526725 0.741547 3.338921 -4.846395 -0.232721 -0.770704 3.208406 1.866567 1.003370 -2.008154 -1.050645 -1.083497 0.375131 -0.313361 1.978042 -3.317682 -1.480917 -0.166351 -1.329332 -1.412936 -0.602905 -0.079371 0.275421 2.768635 1.633591 1.075680 -1.760833 -2.474168 2.649862 -0.374079 0.420145 1.068387 -1.475443 -0.514653
a 1.588599 1.679283 0.761928 2.078118 -0.825944 -0.173027 -2.382297 -2.979314 4.237012 0.134649 -1.222919 -0.574964 0.323294 -0.965597 -0.248700 -1.062422 -2.250565 1.708797 -0.404904 -2.816772 -0.791471 -0.869205 -2.948249 -0.680737 1.985307 -3.617364 0.492823 -2.603767 -1.727166 3.559648 -0.311847 -1.879805 1.192084 -0.652520 -1.959919 2.839003 -2.132075 1.393197 0.842842 0.061546 2.835116 1.223222 -1.268648 0.990848 3.098963 0.939012 -0.934358 0.346869 -3.276541 0.552761 -2.917124 0.489735 -0.649230 -0.569274 1.873520 -0.263825 1.024142 2.366675 0.945276 -1.710279 2.228057 0.802681 -2.003541 -1.918763 0.783352 1.499321 1.630100 1.903651 -2.760950 -1.434262 0.821405 0.435134 -0.985700 0.450883 -1.413182 4.766943 0.311635 2.930521 -0.185776 -3.745153 -0.737974 0.731670 -2.516596 -1.562262 1.379443 3.609212 0.954325 -1.485780 -4.582867 0.522174 1.117374 1.834342 3.738147 3.461184 2.053213 -2.822547 -2.144412 1.816909 -1.419617 0.152878 3.068291 -1.130316 0.641965 -1.850685 -1.227361 0.365188 -0.105101 -0.565677 -3.824450 -0.491036 -2.462731 2.236916 2.964826 0.958365 2.931376 3.090241 -1.523335 -0.494862 0.571554 0.949878 1.215903 -0.573341 2.387785 -3.477057 3.087168 -3.199796 1.707474 -1.692519
in -0.200289 2.199605 -2.085610 0.395017 -0.782319 3.254654 2.289593 1.446532 1.573497 1.449396 2.253915 -0.286769 0.071496 -1.634771 -0.422981 -1.993852 0.883000 3.367053 -2.922266 2.853268 1.913528 1.938239 -1.823996 -1.146210 3.905844 -1.886294 0.304445 0.574730 -2.747274 -1.323638 -0.265483 -2.440154 -0.252602 3.499935 0.346646 -1.508236 2.421733 0.993226 -0.144543 -1.797206 0.202687 1.016086 3.659587 1.062275 -1.927562 -0.944306 1.179288 -1.580812 -1.705747 -1.259057 -1.220572 4.082215 -1.124014 -0.072333 1.797539 3.023013 -1.478140 -0.106211 0.109776 -0.539496 1.060822 0.230544 -0.778330 1.800631 1.202180 1.985918 -1.353251 -3.765406 0.438984 2.624542 -3.289192 -0.495664 1.665654 -2.458902 2.249604 -0.496640 -3.244643 -0.423181 1.883236 -0.849723 0.848202 0.507736 0.473925 0.392761 -3.019983 1.865803 -3.127009 -0.790932 -2.295060 5.223313 -3.635971 2.842394 -0.402141 1.603112 -0.412654 -0.956007 -1.031273 0.652477 -0.760823 -1.429290 0.358734 -0.442061 1.788897 -1.436049 0.404844 -0.694587 3.372050 0.849421 -1.998061 2.203288 0.967929 1.251852 -2.294866 -1.817395 -1.431913 2.420209 -0.710403 -1.772563 -0.391803 -1.671291 -2.897905 0.784606 -0.094096 -0.675598 0.349483 -0.040711 -1.685966 0.449625
i -0.600850 1.881358 -3.682313 0.206834 -1.088240 -2.405971 1.892546 1.634968 -2.296809 -0.250295 -1.531538 -0.877402 1.462213 1.499948 -0.780869 2.365224 0.420099 1.045700 2.997625 1.534667 1.296211 0.397905 1.200086 0.123585 1.450660 2.504115 1.413702 1.675074 1.119661 1.190997 0.666997 0.914272 -0.661121 -5.880464 -0.006936 -1.153129 0.661113 -1.059019 -2.585417 -2.632577 -2.554875 -1.420662 1.855437 -1.404619 -3.729813 -0.974449 3.613688 1.258635 -2.004062 -0.805591 0.918548 -2.425653 -1.004220 -0.696065 -3.047080 0.418899 1.729215 0.115325 3.544004 -3.678585 1.179082 -0.417258 1.407217 0.476265 -1.614099 1.183795 2.268869 3.552411 0.341350 1.277744 -1.035423 2.070173 -0.531203 -1.134568 1.046569 -0.335397 1.537016 0.794020 -3.657259 2.917064 0.386114 -1.720165 -0.863638 1.301975 2.314005 -2.061229 -0.490625 -0.408704 1.968427 -1.542040 -0.526704 1.697668 2.738837 1.284810 -1.394694 0.004321 1.996581 -1.456079 0.965239 -1.591381 -3.208416 -0.551876 2.495660 -0.776291 3.832283 0.313851 -0.099524 0.576154 -0.654562 -0.077906 -0.620418 1.145764 0.709831 4.273221 0.947580 0.676908 -0.764058 -3.134668 -0.288124 2.673442 -2.136853 1.050452 -1.527718 0.572854 -0.298360 0.791120 0.476678 -0.245403
he -1.561657 0.590329 1.006450 1.073495 1.127236 -3.082005 1.977956 0.290247 -1.026977 1.591320 -0.391997 -0.564188 -1.964260 -1.290548 1.049580 1.998930 1.321355 -1.324733 2.030457 0.311804 0.632137 0.429834 1.539137 2.742834 -0.245386 0.817262 -0.269988 -0.374176 2.078553 2.051998 1.824135 1.551132 -1.516268 -2.647051 -2.890338 -0.472472 0.231570 -0.292951 2.073386 -1.642277 -2.268943 2.629348 0.253069 2.558060 -2.843760 1.482685 -0.251678 1.507431 -2.880409 -0.464084 -0.021714 -0.818147 0.179206 -2.628943 -1.434467 0.151228 0.414523 0.382271 3.384749 -1.188098 0.470789 1.939841 1.899550 -0.648905 -0.677889 -0.464566 2.073762 2.195479 1.254433 0.003923 0.675566 2.082887 -0.771111 -0.519744 0.798344 -2.727612 0.538134 3.768975 0.499131 0.881681 0.894071 3.008368 1.643019 2.214910 -0.126182 0.696293 1.115368 -1.128272 0.217792 0.343276 2.230274 -0.637856 0.228967 -0.027711 -1.491773 0.301235 0.096702 0.520413 0.545823 -0.412381 0.086351 1.639629 0.802245 -1.651237 2.680786 1.067632 0.957822 0.221580 -0.863256 -1.792533 -0.422808 2.169197 -0.262837 -1.575858 -0.900732 -1.138147 -1.103055 -2.649313 -2.165900 1.238256 -2.664808 1.341583 -2.072592 0.612214 0.497772 1.779459 -0.389899 2.157261
that 1.400864 -0.244791 1.693986 0.367160 -0.068749 -1.860122 1.530906 0.511204 -2.427352 1.297047 -0.344996 0.805832 -0.054803 0.996029 -1.019985 -0.133443 -1.602804 -0.560410 -2.078296 -0.251629 1.049596 0.258516 -2.175791 -0.198473 0.300277 -2.144323 -0.776941 2.398242 0.804595 1.007150 0.849266 -1.975451 -0.291093 1.551974 -3.892247 -1.012347 0.720812 0.401595 0.172709 -0.197093 -0.335804 -0.066392 -0.833132 2.485545 1.411168 -1.531196 0.724314 -0.795300 -1.226754 -0.011385 -1.541635 -0.659860 -1.966098 -1.268810 -1.073688 -1.953495 0.570450 -0.610638 0.954490 -2.798133 3.084898 1.343799 -0.458302 -2.540154 1.488737 -1.498859 -0.033766 1.101169 -1.793765 2.608601 0.643802 -2.316436 -0.987634 0.944321 -0.529276 -1.279342 2.680189 -0.990454 -0.844917 1.883469 -0.418345 -0.433322 -1.148899 1.314208 -0.048916 0.620799 0.273680 0.248244 -0.188652 -0.184680 -0.890289 0.894236 1.929698 0.677877 1.652205 1.451538 0.034038 0.941984 -1.275821 0.411618 -0.353606 -4.334473 -0.363883 0.018341 -1.978690 1.017449 -0.163980 1.532339 1.409956 0.010425 0.202453 -0.725410 0.690642 1.794614 1.834240 -0.842572 -0.160053 0.129167 -2.021627 0.513289 0.259639 1.361522 0.649710 1.465314 -1.217952 1.429260 1.010355 -0.018964
his -2.532756 1.763811 0.059343 -0.182734 -1.693330 0.063657 -0.175352 1.256479 0.339192 -1.907015 1.405337 -0.636240 -4.826370 0.439387 2.967635 1.979054 0.669247 -1.821683 -0.334124 -0.047496 -3.351626 -0.828000 -2.759331 0.627224 -4.330409 -2.185147 1.784110 2.195286 -0.422484 1.264569 1.126321 1.894878 -1.315564 2.640062 -0.451276 0.410147 -1.502841 -1.727411 -0.311072 2.629426 1.876701 1.486823 -0.978230 -1.257635 -0.131318 1.259775 -1.027640 -0.917415 -2.561407 -0.173035 -1.545719 4.139746 0.145876 -1.187473 2.484445 1.675934 -0.857688 -0.326470 0.548260 0.947141 -2.131718 2.571938 1.055246 0.857764 -1.609221 1.561639 0.393553 1.604177 -2.484709 0.106121 2.002947 -1.181415 -2.750097 -0.893743 -0.453745 3.099741 -0.353209 0.458918 -1.181826 0.278158 -0.326828 0.569023 1.483027 2.001036 2.541198 3.495106 1.329957 2.459292 1.152223 -1.850780 0.743321 -1.389459 0.906719 1.083561 -1.415587 1.586290 -1.046208 -0.320339 0.149336 -1.642192 -1.465766 2.163776 1.067304 0.611503 -1.532552 0.593499 -0.265973 -2.032889 -0.547481 -0.634880 1.534627 -0.265364 -0.038537 3.288429 -1.039730 1.178460 -2.502538 1.867478 -2.547612 -0.164745 0.545923 -1.759295 -3.301375 -1.066723 -2.018525 -2.433286 1.566297 1.889537
was -1.969931 -0.850606 0.530934 -2.183795 -1.172385 0.448831 -1.234955 -2.205059 0.564013 -0.465824 -0.108896 -1.374561 0.132427 1.827850 -0.489007 0.339207 -2.177637 -1.558604 1.412722 0.663650 0.234459 -1.194593 0.978658 -0.794230 1.533475 1.031523 1.891783 -0.430400 0.301207 1.100576 -3.398620 0.409676 0.127827 2.588645 1.648176 2.388483 1.313519 -0.516782 3.599497 -2.216061 1.155344 -1.281905 0.620192 -0.807949 1.037614 -0.753147 1.868067 -1.239983 -0.235042 2.880168 -0.449383 3.796824 -1.151225 -3.328173 -0.908095 2.770934 4.226241 0.154036 0.857961 1.081553 1.717741 -0.822468 -2.585299 1.931479 0.831746 0.900034 2.305305 -0.004498 -2.417823 1.713635 1.324180 2.934253 2.412337 -0.331420 1.235242 0.034741 0.682199 0.922197 1.543125 0.593355 -1.819211 -1.153702 -1.732109 3.465766 0.050886 2.553198 -1.005065 0.139086 -2.555630 0.828434 0.466182 0.016332 0.921852 -0.550094 3.300343 -0.821681 1.042958 0.698469 0.822166 3.415960 -0.243313 -1.323236 -3.637470 -0.870266 1.418279 0.352063 0.970488 1.429653 3.528769 0.058628 0.619013 -1.328324 1.782453 2.329550 1.071882 -0.226063 0.954116 0.052484 1.785039 -3.526641 -0.640996 -2.389969 -0.413126 -1.456060 -0.395722 -0.031470 1.091121 0.035224
it 1.914555 0.586563 2.395673 -0.258426 0.492489 -0.254925 1.067292 -0.854406 -1.403372 0.476310 0.164140 -0.353463 -1.505994 -1.018721 1.750649 3.002621 2.023404 1.175805 -0.236528 -1.694765 0.234169 0.223876 -1.114921 -0.982813 0.455127 -1.367903 -0.767438 0.141102 1.106722 0.482892 1.120685 3.039740 0.226743 -1.429358 -1.886575 -1.892284 0.026773 -3.693643 2.108934 -0.461465 -2.071765 -0.969814 -0.865738 1.048249 -1.189860 1.066177 1.943852 1.258315 0.085876 0.189411 0.526114 -1.429618 2.296186 -0.744688 -3.125239 1.629424 1.694021 -2.486220 1.937858 -1.348476 1.823374 0.388372 -0.219596 -1.899516 -1.425488 -0.357936 0.614288 2.104661 0.429595 2.272168 -1.319053 2.042304 -1.258766 1.688457 -2.162135 -0.566475 -1.183318 -0.059302 -0.929363 -0.599947 -0.342110 0.593235 0.539535 1.504909 0.454662 -0.361297 0.710957 0.383381 -0.466185 0.922725 0.627201 2.220700 -1.338088 3.731134 -2.305849 1.804685 -1.795758 -1.045613 3.111899 1.349024 -0.871139 0.102160 0.821304 1.082589 -1.952916 2.451429 1.486536 2.306574 1.141507 -0.760471 -2.286162 1.752012 0.875223 0.034124 1.072479 -2.314532 0.446218 -0.371810 -0.206978 1.145400 -1.579411 2.107216 -2.277919 0.397815 1.508850 0.257352 0.712234 1.841128
you -0.280227 1.593621 -1.891478 1.151750 -0.472697 -1.186602 1.554816 2.885664 -2.570830 1.246136 -0.591821 -0.872374 -0.018696 -0.183119 -1.005590 2.738198 -0.294734 -0.977354 0.160966 -0.589908 0.340861 -0.181605 0.485442 1.374842 -1.581791 2.012293 1.127087 1.471150 1.783831 4.372709 1.107267 0.138838 0.617631 -3.434170 -2.530148 0.279942 1.493542 0.491994 -0.894755 -1.218861 -2.763953 -1.993154 0.814987 -1.372910 -3.216627 -0.955723 -0.025293 0.267123 -2.330267 -0.664407 1.082429 -2.877483 0.079808 -1.041910 -3.185379 0.103236 0.229587 1.899764 -2.030162 -3.124797 -0.596723 0.637961 1.666818 4.520555 0.915548 1.494442 1.094109 1.103207 0.416642 2.710102 0.476314 -1.030390 -0.050622 -2.251274 -0.011785 1.113583 0.233245 -0.855093 -1.962961 -0.533431 1.859789 -1.981202 0.088607 1.861055 2.193564 -0.879570 -2.568618 1.053156 -0.057657 0.431182 3.236249 4.622291 -0.488517 0.265673 -1.101354 1.287381 1.044743 -1.645501 -0.694056 -2.023683 -1.575600 -2.787253 -0.786301 -0.080044 2.073334 1.206572 -2.194009 1.170711 2.367974 -2.147687 -3.794367 1.100061 0.968413 0.125491 2.200562 -0.394700 1.450691 -0.124594 0.009808 1.391704 0.134116 -1.836095 1.214736 0.254391 2.479914 -1.987940 -2.135984 2.157355
with -0.891249 -0.373318 -0.606702 0.123971 2.620634 -1.991554 -0.413412 -1.118739 2.446660 -0.573610 1.312976 -2.011544 -1.920984 -1.588353 0.551095 -1.431940 -2.628649 0.732594 -4.631597 1.632568 -1.074941 0.430471 -2.393958 0.399447 0.515694 1.657942 1.286234 2.043032 -0.993786 -0.284493 -1.872540 -0.451537 0.030668 1.065756 1.242320 2.050675 2.533240 -0.440536 -1.062163 1.653484 0.678368 -2.216093 -0.541830 1.534313 -0.187869 3.176789 -0.095707 2.499838 -2.758956 0.912318 -3.412362 1.685515 0.496862 1.533807 2.606228 -1.066424 0.432468 1.132605 -1.365837 2.840507 1.650550 0.431930 -1.526961 -0.872254 0.943433 -0.394547 -4.970111 -3.962769 1.000338 -2.703735 0.439366 2.893179 1.797590 1.437078 -0.562726 1.450826 -1.537758 0.175038 0.432949 -0.871733 0.785046 0.819003 -1.618962 2.267381 -0.065481 -0.865072 0.866745 -0.694472 1.112011 0.624041 -3.051659 -0.398207 3.238510 0.116341 -2.056141 -0.937360 2.639907 0.125745 -2.354081 -0.290144 -0.006608 0.914758 -0.942877 -1.392781 3.704676 -3.770108 4.085931 1.088607 -0.250776 0.073868 1.188221 -0.970380 -0.478947 1.053247 -3.351402 0.473176 -4.413439 2.576959 0.811665 -2.534371 1.742880 -0.845587 -0.881451 4.407328 3.200065 -1.776880 1.284848 1.242214
is -2.800338 1.451233 -2.244789 -2.395932 -0.978864 -0.985485 -0.076594 -1.181724 -1.290699 0.624253 -1.257376 1.789229 0.170440 1.991207 -1.692308 0.218101 -2.497046 -3.201269 2.464846 0.983955 2.166130 0.673961 0.970831 -0.193674 1.568275 0.671219 3.575986 -2.810584 -0.770576 0.398703 0.905606 1.672523 0.047943 2.919288 0.744872 0.098337 0.314439 5.824894 4.342493 -2.424656 -1.248999 -1.369428 -0.373563 -0.625998 -1.050663 0.903562 0.605253 0.359048 2.902192 -1.172560 0.698228 2.465952 0.277363 -2.086926 3.100889 1.966113 1.401466 -0.297145 -1.413759 -0.048694 2.142093 -1.148180 -1.922266 2.654392 1.056538 2.087950 -0.541724 -1.847774 -1.563674 1.360307 2.111962 1.987938 3.313394 2.493509 0.374041 -1.273271 -0.834728 -1.462047 -0.711608 -0.667351 -0.547977 -0.817892 -1.761685 1.828458 -2.266163 2.478023 -2.662071 0.565965 -0.225160 0.444945 -0.323921 -1.504492 -0.097840 0.211655 2.315705 -0.741685 -3.162494 -0.253529 1.691097 5.496557 1.361015 -2.944360 -1.471619 -0.555140 0.739723 0.429583 -1.319965 0.732168 1.945416 0.601806 -1.477772 -0.429086 2.296035 1.191243 2.881331 -0.925582 0.563895 2.740302 1.935607 -3.033008 -0.100391 -1.040690 -0.747398 -1.943698 0.658670 0.533509 1.821771 -3.102658
as 0.554961 0.781610 1.637133 -1.474434 0.030074 1.841574 2.842330 -1.676129 0.040169 1.228432 -1.286489 1.535150 0.410814 2.923758 -1.549102 -1.931363 -1.242237 -1.477300 1.357046 0.276675 -2.938437 1.329804 1.116595 1.317146 -0.687004 2.476562 -1.710406 -1.319583 1.592105 0.154276 0.961699 0.658240 -1.769524 1.985216 -0.796754 -0.073380 0.347912 -1.544091 -1.780278 0.568283 -1.005629 -1.603670 2.693802 0.075631 -1.074729 1.605608 2.065014 1.341817 1.030308 1.457675 -2.730891 0.301040 0.724497 0.480949 0.361691 -1.256505 0.023919 -0.360942 0.972330 0.743416 2.759942 -3.052220 -0.307488 0.108014 0.515041 -3.608542 -0.646326 -1.563077 0.902746 -1.313643 -0.531857 -0.646214 -0.289586 -1.478664 -2.370985 -0.644121 1.272791 0.398741 1.426232 0.880680 -0.319722 1.651970 -0.815453 1.707231 1.154536 1.142452 0.556851 0.923837 -0.313460 -0.417945 0.893995 1.084519 -1.460311 0.101194 -1.713188 0.195347 0.428574 2.052434 -1.187977 1.412300 1.152606 -0.135081 0.079724 -1.742048 -0.693262 -0.373100 0.135769 -1.861221 -0.977002 2.968881 -1.382367 1.166114 0.856027 2.333922 -1.148429 2.360263 2.061239 0.615037 -1.454489 0.194899 0.505051 -0.044699 0.439368 -0.647535 0.959876 1.818967 0.697216 0.287883
not 0.893178 0.198955 -1.543109 0.457292 -0.299100 1.188966 1.105551 -2.398046 -1.590644 -2.203299 -0.012857 -0.870112 0.787336 -0.488829 0.441569 0.477308 -0.282715 -0.630065 1.052943 1.636538 2.109982 0.362799 0.108539 -0.628359 -1.011280 1.784344 -1.414107 -0.291390 1.714563 -1.320733 -0.838629 -0.068324 0.585199 1.233412 0.022392 1.220120 3.672376 1.702685 1.358812 0.217593 -2.626980 -1.916563 1.726078 0.444207 -0.804883 -0.842753 -0.757007 1.395079 -0.941864 0.500394 2.698374 -1.565258 -0.716138 -1.212017 -2.966116 -1.987850 0.066458 0.177117 -1.181815 -2.622187 -2.623808 2.048445 0.117926 0.978287 1.414900 -2.813112 -1.161656 -3.267417 -1.309174 1.357188 -2.236375 1.634876 -2.626024 -1.929220 -0.047107 2.888529 1.288617 0.318886 -2.930117 -1.060858 0.556794 3.246661 0.948887 -0.347558 -2.040874 -1.655334 0.722487 2.220822 -1.006930 -0.750783 1.579267 0.107539 1.196481 1.924554 0.106561 2.863615 -0.309531 -1.764314 -0.048552 -3.300648 -0.306718 0.163581 1.738800 -0.615922 -0.319600 1.561254 -2.853868 -0.785996 0.980938 -2.208020 -1.014448 -0.853045 2.329005 1.779798 3.563601 -0.722710 0.216581 0.353325 -0.685814 -1.222411 -2.377614 2.021499 2.649691 0.225570 0.265095 0.358094 -0.209905 0.572273
for -1.264859 0.170246 1.306227 -1.361643 2.795577 0.901972 -2.045787 2.753101 -0.174490 -0.445786 -0.368055 1.582516 -2.762977 1.278400 -0.937996 -1.477179 -0.873555 -2.859220 0.968674 -0.316032 0.316408 1.838078 0.805998 0.242889 -1.875934 -1.420184 -2.962416 -0.720703 -2.250149 -0.082888 -0.585873 -1.882278 1.665020 -0.792025 1.893836 -0.653112 -1.765743 2.301580 -2.692171 -0.220068 -2.098000 -2.387843 -0.593119 0.186112 -2.531552 -1.982656 -1.259833 -0.349025 -3.050512 -2.604010 -1.178433 -0.692604 0.165044 0.848446 -2.833676 1.787250 1.154184 -1.144872 1.278837 2.204232 -1.031324 -0.273436 -2.017369 -0.357877 -0.125340 1.877393 -5.539168 -1.582629 -0.182296 1.707562 -0.547996 -1.005614 0.979291 0.234774 -0.046404 1.760293 1.288934 -0.621134 -0.838645 -0.824841 -1.608452 -0.393191 0.389583 0.436928 0.205925 0.777853 -0.163511 -0.109621 1.099999 -1.941790 -0.583665 -3.226534 0.664148 -0.792326 -0.748910 -0.035819 -1.334978 -1.893769 -2.375097 0.475698 3.725062 -2.241056 0.795200 -2.745403 -0.026934 1.539742 0.925792 -0.732935 4.753969 -1.326643 1.200927 1.497348 2.971822 -0.345624 0.648326 -0.942696 -0.932755 -0.370831 1.448689 1.410667 -2.708202 0.488418 2.194310 -2.272086 -1.378705 -0.687841 -1.373657 1.396135
had -2.899707 -3.608605 -0.943273 0.208258 -3.353249 1.461843 2.007710 2.481849 1.621881 -0.914424 -0.169199 -1.740125 -0.058851 3.162423 -0.404121 -1.479476 0.835181 3.390085 2.956097 -1.008327 1.371040 1.933049 1.471520 0.484059 1.981291 1.694764 1.729242 2.008815 2.588232 -0.679446 -0.147743 -2.379856 0.130732 -0.975355 0.864698 -0.798603 2.894787 -2.799767 -1.627880 -0.004660 2.024798 -3.039806 0.666308 0.504627 1.367330 -0.658474 -1.011934 -2.451772 0.305162 2.689373 -0.730031 0.525722 -0.777534 -0.424585 2.940762 1.466442 3.156115 1.155747 1.355526 -0.110865 1.934494 0.878075 -2.397024 0.636188 1.005500 -0.644285 -0.010436 0.823222 -2.355987 3.513490 2.933444 0.059824 1.632506 2.607478 -0.929769 -0.407189 -1.061637 4.032058 0.522838 -0.637068 0.103805 2.487221 1.824290 1.456233 -0.576400 -2.346929 -0.411479 1.140404 -1.689178 2.257804 3.232602 -0.043355 0.137850 -1.755821 2.337044 1.947308 1.961146 3.683671 2.496749 1.009030 2.285468 0.268218 -1.888039 -2.232116 0.846002 0.244493 1.053171 -2.249232 2.876296 -1.304090 3.832920 1.683300 -1.860858 1.278450 -1.604042 -2.476750 2.050634 0.024569 1.013781 1.059591 -1.016669 -1.432877 -0.914153 -1.017538 0.176648 -0.318994 1.761683 0.689159
but -0.196155 2.167379 0.255315 -1.079540 0.394964 -0.832836 1.918940 0.693976 0.185190 -0.296319 -0.473478 1.233540 0.641024 -0.095752 -1.535942 0.964461 -1.789075 -1.304290 -0.349919 -0.194110 0.765316 0.047467 -0.184385 0.778233 0.284190 -1.208104 -1.758142 -0.055458 -1.280809 1.854993 -1.135200 -1.943151 -0.325735 0.261449 1.767684 -3.211170 -0.095912 -0.539704 -1.713081 -0.916558 -1.840519 0.670220 0.537339 2.082629 1.020662 1.261051 1.821174 0.684437 0.265750 -0.027381 1.635994 -0.934988 -1.610249 -1.517678 -0.949127 0.648172 -0.588804 -0.910062 -0.792115 -1.313699 0.063220 0.929642 0.134239 -1.062355 -0.250891 -0.395558 -1.718638 -1.028874 1.479744 -1.275638 -0.069769 -0.280046 0.985623 0.508144 1.056854 -0.039871 0.190652 0.928682 0.778760 1.686623 -0.956197 -0.490711 0.274598 0.933662 1.004308 -0.155383 -1.427933 -0.438490 -0.197763 0.589380 0.015086 0.785107 0.873992 0.434890 -0.223056 1.689466 1.441743 0.931449 0.480528 -0.264181 1.268407 1.821460 -1.720203 -1.921580 -0.365214 1.723168 -0.844259 -0.690914 -0.213154 -0.599799 1.236506 -0.259334 -1.130427 -0.767392 2.060050 -0.467026 0.898440 -1.462228 -1.157688 0.171065 0.815917 0.376520 2.137742 0.975344 -0.589566 0.591694 0.275235 -0.956025
at -0.967457 -1.588078 2.967338 0.493881 1.619625 1.145477 0.301970 3.953787 0.722668 -0.011985 0.782425 -1.881081 1.560975 -4.998452 1.835286 0.439203 -2.765019 1.012601 2.482411 1.901203 -0.237389 -0.872236 -0.199473 3.064859 3.229054 -0.252947 -0.941643 0.892468 -0.472585 -1.376835 -0.203027 1.774112 1.540048 3.718405 -1.680847 1.364717 1.012793 -1.635050 -1.517266 0.923390 -1.420675 1.008662 3.886274 0.033269 0.222688 0.107956 -3.321959 0.656834 -0.109532 2.163466 -0.375249 -0.082552 0.438007 2.690088 0.557379 3.169386 0.503631 0.306947 4.551620 -1.979433 2.434853 -0.701969 1.380061 -2.352677 -4.466432 -0.486352 -2.317522 -1.043803 0.496271 0.576818 0.864907 1.076066 -0.717293 -0.998809 1.107498 -0.612741 0.564506 0.104485 0.646659 3.558722 0.209811 -3.340240 3.293931 -0.258635 -0.048546 -0.534303 1.360021 1.475554 -2.181038 -1.549220 -2.419498 -0.517092 1.524347 -2.494538 1.700584 1.473785 1.786102 0.090806 2.380344 -2.671697 2.429052 -2.138147 -1.561671 2.090639 2.588326 -1.128241 1.669522 2.995176 2.343679 -0.306038 -3.691232 0.091529 0.983090 -0.733591 1.560380 1.528989 -1.772958 2.042641 2.660088 -4.029532 -1.992425 1.771529 -0.187567 -1.396355 1.202561 -1.930479 2.642889 -1.900440
be -0.866580 0.145220 -1.103707 -1.647001 -1.480484 -1.193876 3.790820 -0.453145 -2.046685 0.490755 -2.478436 -0.558425 1.340322 -0.431359 1.688052 -2.369515 -0.426181 -2.208767 4.111559 -0.267763 1.229842 3.975142 3.274653 0.752255 -0.125681 1.916638 -2.716370 5.047419 2.145611 -0.650987 -2.211636 0.474241 -0.315458 0.616163 0.060212 -0.449073 2.576396 2.421653 0.740692 -1.103637 -0.901410 0.668971 -0.372837 -0.178510 1.060644 -1.937031 -0.079790 0.376641 -0.743359 0.844028 0.598820 2.004730 -1.830058 -1.503586 0.464781 -2.470407 1.561566 -2.304337 0.749160 -1.365737 4.836929 -0.700929 -1.901448 -0.420083 -0.514379 2.696494 2.945613 0.568907 0.705280 -0.070954 -0.175237 1.483035 -0.836346 0.814296 -1.355863 0.084179 -1.160201 1.312740 2.278180 1.100282 0.261250 1.618879 -2.387410 2.428618 2.917187 2.300746 -2.094056 -0.613693 0.358091 2.385084 4.004595 4.468829 0.162635 0.455322 2.386998 2.573862 -0.636832 -0.108606 1.382091 -0.926487 -0.570054 -1.844384 -4.002971 -1.573975 0.361101 1.906346 -1.140643 -0.622359 -1.227398 -1.480334 -0.201464 -4.152982 3.862116 0.058641 -1.335077 -1.609180 -1.503042 -0.204696 1.186365 -1.595723 -0.847134 -2.116013 -0.379559 -1.407525 -0.576482 0.201235 2.130592 -2.059774
on -0.427502 0.340114 1.270036 2.473115 1.189617 -3.732294 -1.125699 -0.438212 3.068098 -1.177147 0.185452 -2.825758 0.589976 -1.109565 1.518311 1.127858 0.424885 -0.811856 -0.013325 -1.890922 -1.644903 2.262505 1.009029 -2.697710 0.493194 -0.762129 -2.932125 -3.999915 -1.259344 -0.528761 0.396933 4.348226 -0.677659 1.528903 1.319317 2.299451 -0.699206 -0.457883 -0.034115 2.148037 1.948594 -1.305721 -0.664391 -1.619625 -0.252872 1.819062 -0.379981 -1.145254 -2.585351 2.312829 -2.225029 1.955330 -3.622818 0.026019 0.001612 1.005248 0.886762 -2.478306 0.892625 2.691058 0.690367 0.387562 0.027434 -2.114651 1.612455 0.915799 -2.933689 -0.317222 2.109246 1.508123 -1.225286 -2.243006 -1.191352 0.655140 3.051182 0.942922 1.450600 -2.226519 -0.049254 1.258111 -0.928598 -1.064004 0.292764 -2.969199 -0.318745 0.950448 -4.163846 1.798403 1.435125 3.005067 -4.522026 -2.793611 -2.073626 -0.884975 -0.704894 1.665260 0.761421 1.259645 1.493789 -0.747329 -1.143710 1.393336 -0.215466 1.854135 -0.066275 -0.128179 0.014728 0.793620 2.003831 0.617906 0.402319 -4.870716 -1.357332 -0.885964 -2.248064 3.739041 -1.719904 -1.254961 1.172738 0.155088 1.031757 -1.389285 -1.013005 -0.111330 5.361408 -0.423109 -0.778243 1.836221
her -3.312584 0.317581 0.955377 -1.853395 -0.859777 1.016062 2.090563 2.406377 0.585297 -2.024214 1.061763 0.617708 -2.967131 -1.139249 1.509594 1.265962 0.362847 1.665543 -2.843585 -2.078800 -1.592260 0.285039 -1.542081 1.560420 -3.954896 2.210821 0.591745 -0.395930 1.344687 2.375192 -0.773740 0.910166 0.551274 0.013007 -1.490559 1.716209 -1.664655 -2.162515 0.064621 1.127388 -0.032578 2.038806 -0.983996 0.380621 -0.740642 1.138126 -0.472345 0.693290 -2.016976 1.480971 0.094952 2.054507 0.188392 -1.847090 1.996317 -0.306140 1.180554 -0.375682 -0.332291 0.294819 -1.459277 1.473357 0.736468 0.475161 1.492678 1.985597 -1.743858 1.977919 -2.632794 1.570022 -0.170771 -0.460633 -0.933818 -1.351968 1.382622 2.668299 -2.543832 0.532382 1.015067 1.369091 -0.250014 2.964106 1.185589 1.681047 3.335700 1.564543 -1.786121 0.173688 0.138415 -1.652559 1.253907 -0.235470 1.002497 3.509580 -2.275634 0.406674 1.739567 -0.549560 1.492985 0.383147 -0.912689 1.618350 -1.344308 -0.161237 -2.049216 -0.907558 -0.267034 -1.572800 -1.002801 -1.983170 -1.354378 -1.046844 1.012017 2.897172 -0.624450 -0.052932 0.979935 -0.773725 0.246797 0.009192 -0.822125 -0.208591 -2.586204 0.773165 -0.506520 -1.702450 0.478131 1.394871
my -1.205830 0.531970 0.707811 -1.986099 -1.874867 -1.226606 -0.415362 4.088519 -1.395201 0.900477 2.323076 1.465553 -2.247375 0.192580 1.668988 3.088764 -0.069259 -1.022234 -1.466772 0.580857 -2.215420 0.666702 -1.953749 0.320949 -2.912474 -1.175830 0.887196 1.790507 0.299755 2.000832 2.366419 -1.039037 1.735916 1.197708 0.198680 1.861432 0.981883 -1.735432 -0.469364 0.136789 0.744507 -1.162355 -0.854509 2.444326 -0.348474 2.450436 -0.273532 1.004426 -1.195158 -0.112617 -2.523663 3.426704 0.256768 1.447444 0.513147 -0.767373 -0.430455 2.062502 0.141373 0.764020 -1.830638 2.887134 -0.261129 0.318978 -1.676792 2.232781 0.774667 2.183684 -1.975039 2.601678 1.252285 -2.140798 -2.834086 -0.719758 1.867867 3.675766 -0.115263 0.215899 0.950243 0.251352 -0.612043 -0.570613 1.781255 0.200606 2.347744 2.514051 -0.217267 2.246096 2.425853 -3.345498 1.144061 -0.319666 1.822510 3.849066 -1.228624 0.798452 -1.161260 -0.805786 2.560753 -1.127005 -1.358999 2.512275 -0.574030 0.768086 1.623398 1.540082 1.009887 -2.045344 -1.253482 -0.047531 1.018805 -0.026458 0.167733 3.265047 2.108222 2.495719 0.903874 -1.503912 0.189275 -1.121459 0.168602 -2.236497 -2.019888 -0.260915 -2.141792 -2.608810 1.809641 1.583845
him 0.632506 0.641259 2.371143 -1.288376 -0.709346 0.999554 0.613869 0.679225 -0.396079 -1.356364 0.814880 -1.858256 -1.932661 -0.847693 0.738630 1.488472 -0.600710 1.609853 -0.622435 -0.990383 1.819199 -1.931731 -0.996689 1.520741 -2.794906 2.515047 2.458436 0.944384 1.066531 2.118635 -0.248057 1.355048 -0.140287 -3.511741 -1.249980 -0.242131 -0.006680 -1.013145 -0.687230 -0.202707 -0.084454 -0.005244 1.616267 -1.129625 -1.057066 1.186068 2.065741 -0.133956 -2.769626 0.948517 0.509215 -0.465128 -1.261508 -2.372260 -1.827025 -0.391489 0.751661 -1.314250 -0.004593 -0.100740 -2.040419 2.092047 1.498644 -1.740578 0.279711 1.851611 -0.483060 3.728376 1.270097 1.426001 0.565382 0.303890 0.526504 2.347497 -1.214000 0.310520 -1.792658 -1.149175 -0.236278 0.965662 -0.310946 3.742131 -0.629892 3.147039 0.341788 -2.425386 0.619884 -0.084866 -1.195996 0.357944 4.154646 2.051337 -1.400681 0.760968 -2.280220 -0.069021 -0.009842 -0.876359 -0.532078 0.092485 0.873766 -2.713286 -0.229122 0.801993 0.741642 0.160779 -0.167053 1.460012 -1.256244 -1.828052 -1.068890 -1.083569 0.443074 0.039107 -1.285093 -0.197125 0.569215 -0.400410 0.473303 0.158800 -0.041389 0.003377 -1.282238 -0.260119 0.583911 2.545856 0.113133 0.970012
have 0.091108 -0.681731 -0.365720 -0.225147 -1.615624 -0.175020 3.022782 0.179843 2.230803 0.148173 -0.886465 -0.197637 0.541623 2.447722 -0.696268 -1.258700 0.396134 1.375063 1.941599 -2.446415 2.408022 3.578353 0.495997 -0.511668 -0.646276 -0.557738 1.866015 5.368772 3.020649 -2.439041 0.945125 -0.499018 2.025259 -4.750737 -0.512293 -0.280356 2.028794 0.436919 -0.757595 -0.023160 0.147304 -1.592812 -0.478690 2.287542 0.305819 -3.522120 -2.560747 -2.759215 1.323645 1.356864 1.984721 1.086331 -0.571626 2.929614 2.667781 0.029337 0.190545 -0.754868 2.933163 1.740299 3.609303 1.254291 -1.306192 1.483031 2.513397 -0.241201 0.734590 0.277240 3.499996 2.263390 1.941209 0.882863 1.548567 3.736977 1.028688 -0.791452 0.906203 1.613852 -1.446879 -1.489367 0.325612 2.795812 2.611703 2.088772 -0.099202 0.410523 -1.441144 1.235291 1.362037 0.385324 3.813604 1.304896 -1.870738 -1.355370 1.704052 1.844038 0.341630 1.841815 2.301440 1.676177 1.289959 -0.339015 -1.827742 -2.776720 -0.023936 1.602385 -2.476760 0.034505 1.354372 -0.198909 0.755819 -2.978506 -0.749383 2.636363 -1.549375 -3.214939 0.716544 2.038034 2.234066 0.532525 -1.453390 0.098715 -2.125394 1.081649 0.190032 1.977134 2.981077 -0.148743
by -2.901871 -2.610662 1.743261 -1.849379 -0.956844 -0.172115 -0.048180 -1.004777 1.041703 -2.437561 -0.790417 -0.675304 -0.349277 -2.271524 1.282811 -1.397350 -1.521715 -1.998701 -0.184710 1.488528 0.608513 0.959402 1.024643 -2.967988 0.087906 1.244399 0.138610 -0.568413 2.050886 -1.567147 0.202853 -0.445024 -2.646704 0.011694 -2.063980 -0.202175 0.570815 -1.752082 -2.407604 -0.156141 1.763101 1.201766 -0.434049 -0.398739 1.716159 -0.015972 1.162785 -2.494783 -0.546873 -0.070188 -0.752932 -1.675785 -0.865783 -0.075960 -0.541444 -3.864897 -0.638277 2.346961 1.989877 1.183546 2.639588 -0.473015 0.101388 3.265819 1.659264 0.340850 -3.155600 -1.412988 2.007783 2.763594 2.602758 -0.366194 0.873930 1.321909 1.373605 -0.039415 -2.071781 1.002565 0.320530 -0.789709 2.135163 3.758060 0.231186 -0.577931 0.125309 2.320541 -1.339107 1.729866 -0.681787 1.701511 0.164889 -1.773048 0.322576 -3.373788 1.179576 -1.205655 2.288333 1.377150 -1.906511 0.060916 1.373864 -2.466278 -2.072824 -2.129906 -1.611737 0.054827 1.701703 -0.022990 -0.384944 -1.072079 0.747457 1.565023 0.750639 -0.530714 2.539183 1.891889 -1.607813 3.011245 3.464833 -1.689493 0.511544 1.473850 -2.009936 1.212910 0.025559 2.610317 1.931706 1.279960
this 1.647582 2.159122 0.753215 -1.562451 -0.632793 -1.792786 0.964261 0.671046 1.171340 0.640496 -2.749170 -1.839633 -0.148519 0.376031 1.546887 -2.507500 2.927603 2.896434 -0.906810 -0.629128 -1.286158 -0.339252 1.699498 -1.086602 2.461703 -1.826846 1.180028 -0.786051 -0.667186 2.099094 1.553840 -0.180691 -0.581139 4.431414 -2.436614 0.333149 1.079652 -3.174869 -0.560602 -0.275652 3.617909 -0.347645 -1.303260 1.411080 1.045805 -0.258300 1.074891 0.806543 1.379621 -0.212365 0.260167 0.230049 -1.408836 -1.770246 0.480488 -0.219112 1.085046 0.696115 0.181493 -2.124078 0.404426 -0.100103 -1.849337 -1.459550 0.411793 -0.479237 2.192971 1.202146 -1.026498 2.122132 0.663317 0.181051 -0.935315 0.649815 -1.694694 2.383663 1.314603 -2.911408 -0.776059 0.299347 1.755581 -0.778668 -2.172060 -0.117712 -0.024285 -1.467094 0.052413 -1.395058 -1.689300 1.332916 3.099138 -2.033043 -0.305410 4.091186 -0.408064 -4.073990 -1.516295 -1.939564 -0.414094 -1.403762 -0.927908 -1.958550 0.100716 -1.670327 -0.852807 2.568662 0.442511 0.552267 0.131139 -2.898042 1.041276 -0.877235 1.903522 -1.329763 1.550380 2.315963 1.063483 -0.895640 1.430250 -0.175592 -3.406536 1.646070 1.737001 -0.852091 1.722667 -1.595182 1.894266 -0.735865
which 1.377993 1.988983 1.678003 -0.657366 -1.923574 0.627538 -0.709970 -0.070767 2.021308 -1.866897 -2.904409 2.127528 -0.048864 0.787957 0.353187 -1.294649 -2.221948 -1.433203 -2.913858 -1.052275 -1.743960 0.325422 -0.745790 1.910216 -0.167736 -0.659440 1.684604 0.098033 -0.617057 1.045669 1.751519 0.655589 -0.041506 0.107150 -0.734937 0.974584 2.436668 0.129845 -1.047530 -0.870411 -1.061489 0.206814 -0.753627 1.021803 2.575513 0.696479 4.140993 -0.015879 -1.450884 -0.721052 -1.532762 0.376195 -0.036294 2.827147 -0.079032 -1.776919 -1.433453 -0.817433 -0.175420 0.785491 2.446530 -0.190035 -1.641994 -0.572110 2.497267 -1.267242 1.274233 1.638603 0.998617 3.000962 -0.189805 -1.232100 -0.453930 -1.088758 -0.178599 0.284784 -2.531250 -1.026711 -1.367264 -0.341734 1.441034 1.798155 1.610464 3.235590 -1.585885 -1.066004 2.450322 -0.780521 1.014859 -0.108874 0.181711 -2.216499 -1.797426 -1.082123 0.327593 -1.473551 0.770414 1.246531 1.802165 0.618963 1.980328 -1.027991 -0.056906 0.909144 -2.503221 0.540466 0.925587 0.947417 -1.580298 -0.626427 2.226136 0.244635 -2.096055 0.581160 0.730622 -1.556006 -0.563752 0.811023 -0.553767 1.198978 -1.070395 1.742485 0.610708 0.471029 0.557998 1.118416 -0.014178 -2.395541
me -0.529818 1.623173 2.018905 -2.786752 -1.416455 1.255288 -0.363388 1.985756 -2.468552 -0.711632 -0.345831 -1.217039 -1.192199 -1.411772 2.037373 1.870500 0.665774 1.615638 1.188319 -1.006370 1.258206 -1.794168 -1.773974 -0.213128 -1.834818 3.020746 2.801329 2.173482 -0.149551 0.961237 1.036559 -0.082616 0.398779 -3.078307 0.929304 -0.416095 -1.458334 -1.993099 2.454175 -0.520732 -1.484149 -1.675897 0.941097 -2.248458 -2.227859 1.415960 0.913826 1.259984 -2.786702 2.711072 1.847335 -0.798599 -3.830489 0.044139 -2.108246 -2.312421 2.345282 -0.413691 -0.147459 -1.010452 -1.205027 -1.883828 0.780723 -0.743340 -2.690674 1.579843 -0.146842 2.377245 0.458964 1.411583 0.689361 0.680061 0.228306 1.750259 -0.351021 -1.070886 -1.014063 -1.419069 -0.186013 2.632784 -0.472458 0.791441 -1.558241 0.883627 1.230773 -1.422673 -1.235455 0.022969 0.460444 1.116238 3.350874 3.513247 0.392386 0.554379 -1.148108 -0.393457 0.684722 -0.639205 0.582842 -1.317379 0.963856 -2.974268 0.824414 -1.120034 0.557315 0.081730 -2.474906 1.291621 -1.826996 -1.594340 -1.167417 0.571087 0.381883 1.534382 -0.151847 -0.423314 1.775799 -2.411766 1.413320 1.072482 -1.590089 0.908301 2.407836 1.026207 -0.445991 -0.210180 0.424438 0.246037
all -0.705835 -1.866593 -0.317684 -0.572281 -2.318989 -1.025258 2.000105 -0.887704 0.469129 0.153614 0.352223 0.304823 -1.982259 -0.051130 -3.139535 0.179836 0.784980 0.142227 -1.279389 0.675708 -1.137969 -0.506476 -1.532091 -0.652663 -4.225944 1.618956 -2.898064 -1.384430 -2.591689 -0.619657 -0.921217 -0.307624 1.236357 0.300954 1.240890 -1.449790 2.983801 0.595700 -0.266257 -1.278944 -1.443474 -0.033096 -0.313628 0.787196 1.854906 -1.364350 -1.014427 2.620909 0.172939 -0.188751 -1.097982 -0.141560 -0.809152 0.328006 -0.910978 0.744129 0.936782 1.319307 0.454624 2.520810 1.645293 1.595327 0.187582 1.664852 -3.586174 1.942417 -1.495857 -0.599117 2.684808 -2.149549 -1.272020 -1.911311 0.740348 0.631439 -0.121168 -1.110640 -1.108286 -1.487046 0.121000 -0.917247 0.108580 0.686995 0.249776 -1.388690 -0.555773 -1.867117 0.908887 0.703623 1.866369 1.069090 -0.535441 -0.330350 -0.053988 -2.031302 -3.061650 3.216714 1.100111 -0.799537 -2.354654 3.797305 -1.941338 -2.067293 2.694567 1.090469 -0.780771 -0.076942 0.156253 0.843595 -1.395101 0.026983 2.082076 -0.592717 -0.067130 0.747635 -1.539385 -1.381532 1.492028 -2.330861 0.044775 0.969010 1.304709 -0.356743 0.246013 -0.724567 0.914683 0.862605 1.639951 -0.770355
said 1.138719 -2.398208 2.171988 -3.132932 -2.252970 0.868273 -1.369027 -1.040726 -2.812395 -1.537574 3.424121 -0.032358 3.038537 0.343530 -1.820428 1.681287 -0.795773 -1.359264 -2.267769 -1.892923 -0.175089 0.881550 0.169501 -1.132176 0.681928 -3.248555 0.499381 0.558346 -1.020962 0.228201 -0.417338 2.158762 -0.827298 -1.754820 -2.262331 -1.310005 -3.764604 -2.307812 -1.746199 -1.060286 -2.880098 -1.040935 0.066501 -1.963875 -0.540464 -1.843010 -1.846591 0.706545 1.547424 2.379293 2.449621 -0.268250 -1.310545 -0.085718 0.455613 -0.715909 -1.455049 -0.361942 -3.177238 -0.525446 -2.074282 -0.509666 -0.262993 -1.262352 0.896255 -0.304965 -0.203041 -4.488718 -0.616174 -2.551115 2.582578 -1.673573 1.419831 1.888207 3.272446 -2.183826 4.238759 1.427304 1.368665 -2.727811 1.298083 -1.339900 -4.548231 0.414129 -0.056522 -2.224567 1.799036 0.344214 -1.037468 -1.759732 0.403042 1.393604 -0.488952 -0.414562 -0.927552 1.830235 -0.626146 -0.802413 2.281906 -0.558186 -1.703242 1.861904 -0.920305 2.707418 -0.976688 2.606320 -0.293065 0.610140 2.037174 -0.063051 -0.354623 -0.904450 -0.133565 0.556225 2.973328 0.539131 0.282675 3.817191 -0.317102 1.187122 -2.578491 -1.362324 2.773472 -1.164659 -1.700830 -4.292857 -2.180633 2.298104
she -2.537575 -0.915400 -0.330311 0.911186 1.060607 -3.861642 2.589943 2.267388 0.829197 0.045452 -1.381933 0.250715 -1.700567 -0.842056 1.250480 1.537884 2.727402 -1.058057 0.344497 -0.873480 0.632551 1.170937 0.859282 2.538702 0.114931 2.024688 -0.750064 -1.019786 2.588758 0.763846 -0.762154 1.223981 -2.008777 -3.036034 -1.022861 -1.122919 -1.471064 -1.487240 0.540073 -1.661448 -2.201218 0.600179 -0.625333 3.659433 -2.207487 -1.383263 0.841782 1.759361 -2.668392 1.261040 -0.071163 -2.525238 -1.294117 -0.825718 -1.684825 0.456207 0.255210 -0.597502 2.667307 -0.691568 -0.936310 -0.089766 2.100920 -0.029012 2.673197 0.534845 1.868697 1.314352 -0.917958 -0.089923 -0.856432 3.004791 -0.401807 -2.283058 -0.333304 -1.414546 0.114606 2.152472 0.831510 2.203867 -1.208655 3.222289 1.063999 2.456029 1.341753 0.728462 1.021754 -1.293384 0.274301 0.500076 0.709876 1.463389 2.311933 1.015043 -2.087509 -1.164191 2.489072 -0.824257 2.461370 -1.046216 -0.993612 1.812538 -1.329721 -1.337340 0.240172 -0.241671 -0.307121 0.420931 -0.460166 -1.617376 -1.405494 0.383311 1.905864 1.939746 -1.038076 -2.367662 -0.070529 -2.091207 0.707152 0.848835 -1.436370 1.821796 -0.356006 1.609153 0.172391 1.823095 -0.042177 2.403307
from -1.711666 -0.149064 -1.861580 1.336006 2.243798 -1.067890 -0.336613 0.039294 1.427639 -3.197379 -2.061082 0.140644 0.073269 2.114288 2.119085 2.046656 -1.637091 0.273358 -3.592046 -0.981169 1.847354 2.553000 -2.495503 -0.982510 -2.209477 1.194557 -0.609955 -0.594056 -1.191593 0.343619 -2.135038 1.123097 -0.520069 3.124847 -1.520370 -0.209967 0.250611 2.684250 0.071214 -1.088924 3.710202 0.921885 0.819921 0.674967 -0.896270 1.581251 -3.347455 -2.466152 1.095512 1.635263 -0.488840 -0.038072 -1.551599 -0.377783 1.292391 -1.302975 -1.578893 0.819000 0.309498 0.016467 0.440030 -2.755282 2.001916 -0.922700 -4.111156 1.118644 1.381532 -3.736427 -0.026546 1.876230 -3.760596 0.385504 -0.574670 1.167651 -0.219988 -1.337502 -1.436944 3.164222 -0.837438 3.174847 -0.204923 -1.123480 0.883361 -2.425221 -1.729483 1.418903 0.144819 1.957381 0.667712 3.784375 -2.676726 -3.028032 -3.475159 -2.408544 2.350333 1.332554 -0.314529 2.468012 -2.082516 0.248025 0.434779 1.861964 -0.547758 -1.677737 1.188052 -0.600442 -1.304185 -0.189963 -1.326978 1.031035 0.629099 2.668712 1.507984 1.246221 -1.689723 1.665526 -0.731513 1.856671 -0.579598 -0.190313 -2.236719 1.988390 -0.748787 0.395972 -0.427066 -2.486401 2.925125 -0.204135
or 0.859519 1.802674 -0.067521 0.733195 1.478270 0.354118 -0.145992 2.261431 0.612678 -2.112679 0.290482 -1.075444 -0.736467 -1.987499 -3.542058 1.539515 -0.101578 0.862357 1.117994 1.867743 1.948702 -0.069441 0.549756 -1.564411 1.009715 0.840213 0.424064 -1.061221 -2.528619 -1.982633 0.904451 0.413190 0.366747 1.169910 2.359946 2.855849 3.578757 0.672675 -0.189973 -0.371217 -0.298905 0.480077 -1.311936 -0.601198 1.082408 1.577235 -3.718777 -0.554624 0.829757 -3.082226 -0.052363 2.185577 -0.878778 0.517556 -0.200078 -1.232160 -1.299547 0.330513 0.014647 -0.888515 1.573790 -0.068108 1.337093 2.150061 2.340985 -1.253230 1.418758 -0.132093 2.612457 0.205344 1.461879 1.897086 -0.492714 -0.282470 1.118715 2.342261 -2.768055 0.772215 1.398401 -1.716287 -0.752429 1.770661 -2.101181 -0.408380 0.694789 -1.163281 -0.830875 -0.818162 1.513697 1.898539 0.272858 0.304419 -0.260151 0.273433 -0.498646 -3.625303 -0.081352 0.335260 -0.495516 0.350813 1.733628 -0.239741 0.880824 0.721936 0.469407 1.634794 -2.215271 -1.056755 1.691789 -0.367534 -0.398390 2.074605 0.249157 0.027863 0.520531 -0.804550 -0.604748 2.488328 1.741086 -1.757097 1.981032 1.925233 1.057858 -1.589673 -1.898608 -3.305906 -1.086150 -1.117622
they -0.464799 0.274743 0.162027 0.656616 0.969897 -0.533884 1.545040 0.404494 -2.069079 1.485811 -2.864895 1.029599 1.354796 -0.689036 0.348825 4.121995 1.642172 1.064584 1.279233 1.118301 0.746887 1.464852 1.779116 0.208471 -0.981408 1.258597 -0.740867 -1.267894 0.171424 0.863847 0.569888 1.311232 0.014945 -1.545520 -0.017528 -0.375470 1.188633 3.540005 -0.552439 0.660389 -2.757159 0.271578 -0.088364 2.411986 -3.601561 -0.254427 1.864797 0.467362 -2.303128 1.152045 -1.893878 -0.057300 2.417925 -1.338054 -0.111797 1.525318 -0.833156 -0.460803 0.829845 -0.650920 0.256165 1.508983 1.832183 1.735839 0.795999 -1.417756 1.455884 3.002061 0.071096 -0.879435 -1.258705 1.764770 0.323990 -0.213773 -0.785591 -0.362765 -0.807473 -0.061548 -1.300512 4.279236 0.017066 1.920101 2.126098 -1.063383 2.215644 -0.454354 1.185713 0.427355 -0.413738 0.058627 0.343383 3.307666 -0.515290 0.722370 0.053015 -0.389877 3.414592 0.540762 -0.855219 -1.290724 -0.296882 -1.311840 1.367611 -1.865513 3.090497 1.661841 -0.057027 -0.744290 -0.070649 -1.681327 -2.061764 2.071787 -0.311851 -0.915549 1.039334 -2.171373 -0.768273 -2.442705 -0.033647 2.849763 -2.251138 -3.479830 -1.354896 0.197369 1.227577 1.544229 1.417883 -0.637806
so -3.285514 2.716263 -0.037179 0.610102 -0.747269 1.010175 -0.940355 0.764408 -2.364107 0.762784 -1.149790 0.166881 1.350632 -1.145764 -0.953838 -1.590370 0.734231 0.485701 1.536367 -0.090836 -1.521390 1.331876 0.120875 0.700604 -0.171722 0.632284 0.535099 -1.493448 -2.393519 -1.543674 1.330050 -0.630958 -0.052198 -0.910920 0.847325 1.613886 0.105101 -3.258855 0.636075 0.675845 0.441768 -0.952468 0.041287 1.520243 -1.100014 -1.333581 3.327599 -0.671469 -0.762276 0.368819 -0.416061 -2.266318 -0.453923 1.389762 -1.788051 1.363068 1.206501 1.652992 -0.835009 1.397820 1.611033 0.933353 -2.778818 0.252648 -1.062238 -1.651792 0.392279 -0.244409 1.233234 -2.222701 -1.869486 0.964726 0.649365 0.592802 -1.942826 -1.981963 -1.103740 1.818266 -1.791967 1.003613 1.027664 1.327470 -2.539048 2.198214 -0.058527 1.489979 -0.501679 1.865678 -1.384476 -0.505967 -0.451685 0.276225 -2.749255 1.613318 -0.708293 0.970197 -0.696389 0.807782 0.672525 0.057732 0.863085 -0.052854 -1.512398 -1.016941 -0.658538 2.306816 0.312185 -0.012418 -0.007064 0.168485 -0.759840 0.942860 -0.046435 -1.329872 0.421390 0.843649 0.624108 -0.201648 0.037777 -3.368758 0.800216 -2.319925 -0.623380 1.160855 1.605368 -0.214166 -0.358526 0.683348
are -3.776929 1.264274 -3.178760 -0.756497 -1.736967 1.886472 1.448361 -0.401595 -3.419357 -2.113433 -1.696442 -1.368439 2.198570 0.803621 -2.606128 -0.397576 -0.391641 -0.861477 0.072641 1.200314 1.607698 -0.258610 1.377476 -0.321006 -0.422428 -0.103893 2.732635 2.601355 1.152796 0.409416 1.757480 -1.421006 -2.380108 2.531360 3.116247 -2.900377 1.038051 3.208089 4.695004 -0.109258 -1.720255 -0.922251 -0.076018 0.262282 1.196508 -0.899264 -0.196473 0.756832 4.226057 1.348609 -1.346644 -0.653527 1.690971 2.195050 -2.480449 0.534788 -0.339149 -3.004035 2.404195 1.602451 -0.475729 2.102507 -2.504505 -1.364072 -0.313255 3.320636 0.934045 -2.049634 2.592644 -0.678045 0.861495 4.647017 7.578110 1.953541 1.853665 -0.709676 0.168911 1.072214 -0.149712 -4.184249 -0.331368 1.022602 -1.344320 -0.272164 -2.091775 2.772602 0.505089 2.612518 3.071148 1.822029 -1.835610 2.666999 1.790676 -3.821239 0.530287 1.217292 -0.269127 0.343048 -0.084935 4.037298 1.841821 0.134185 -2.186736 0.878473 -0.518477 0.014385 -1.422347 -1.802776 0.833443 1.289860 2.880432 -1.439568 1.682148 -0.427090 -2.048070 1.400517 1.654668 -1.330091 3.609172 -1.334880 -0.251325 0.790279 -1.418994 -0.211529 1.645465 -0.715689 -0.355700 -3.303842
one 1.915356 1.404989 0.582577 0.903851 -1.156983 1.095040 0.714966 -0.280421 -0.278041 0.445103 -0.682793 -1.805018 -1.523467 -0.211873 -0.273240 0.333050 0.606517 -2.565024 1.169811 0.553107 0.198388 -0.882980 1.247571 -0.820370 2.360148 -0.670353 -0.572663 1.582638 0.312317 -1.066595 -1.007117 0.810493 -2.455205 0.323353 0.952515 -1.344551 -2.291715 -0.985653 2.124943 0.896670 -0.600398 0.153581 -0.070057 0.057345 -1.027962 -1.597330 -0.032111 0.896159 -3.316621 -0.797770 -0.162797 -1.864348 -2.134838 -1.223625 -0.362587 0.369124 -1.371920 1.084261 2.176347 0.442690 1.570205 1.340148 0.159407 0.514676 -0.263622 0.338576 2.090404 1.172937 -0.430392 1.312126 -1.193915 -2.546524 -0.639062 -2.214938 -2.183098 0.871027 -1.019358 2.044655 -1.953989 1.482355 1.366937 0.661992 -0.225885 -1.675152 0.820248 -1.482500 0.491218 1.673050 0.202937 0.119591 1.710893 -0.227455 1.791769 -0.526697 0.257583 -1.813016 -1.342948 -0.414060 1.195454 1.586551 -0.578784 -0.354369 -1.207508 0.223371 -0.296952 0.508108 0.877524 -1.109342 -0.455652 3.950563 1.356277 -1.208749 0.601204 0.498470 0.135024 -0.543821 1.584783 -0.053393 2.826099 0.574118 1.224733 2.240396 0.803496 0.280675 0.025232 -3.047225 0.922191 -0.960323
were -2.741672 -0.674741 -0.850564 -1.468746 -0.934292 1.009648 1.863811 -1.384353 0.294528 -1.910170 -2.057391 -0.492921 1.486070 0.659753 -1.962279 -0.083850 -0.634616 0.502757 -0.197794 1.980322 0.423501 -0.136248 1.826347 -0.152722 -2.370250 0.591357 1.390326 2.666798 3.863190 -0.790409 -1.852712 -2.197927 -3.287399 2.474409 2.088109 -0.799700 2.358727 1.828075 2.186837 0.754840 -0.993502 0.723804 -0.352267 -0.816316 0.781553 0.505495 -0.040997 0.284009 2.174911 3.732566 -0.653963 1.544293 0.877201 -0.587058 -1.796736 3.021609 2.437745 -2.149172 3.279815 2.666518 -0.367046 2.441596 -1.186727 -0.353974 0.054665 1.800543 0.826317 -1.495715 0.710596 1.070297 0.826218 3.028963 3.430612 0.558402 0.266686 -0.765433 -1.055051 1.210917 1.905598 -0.718387 -2.873877 1.761789 -1.004751 1.623931 -1.060382 1.850851 1.361123 1.061567 1.634983 -0.495066 -1.083927 -1.104548 1.515596 -3.583785 2.303853 2.127305 0.496859 2.463999 0.392358 2.409384 -0.426882 -0.553640 -0.008659 -1.265045 0.099909 0.399148 0.213861 -1.471510 2.396281 0.475380 1.951001 -1.524805 0.669822 1.421403 -1.399283 -0.059723 1.720321 -1.895116 3.824663 -0.999241 1.306177 0.806377 -1.977793 -1.301390 2.154408 0.139231 -2.969460 -2.808679
what 0.071815 -0.889985 -0.133158 -1.027199 -1.545977 -2.424400 1.262724 -0.747363 -2.973642 4.029581 2.148812 1.834533 -2.171142 1.458215 -1.600871 -0.161274 -1.859949 2.834947 1.943781 -1.843776 -1.670482 -0.483552 0.568382 0.632360 -1.150428 -0.887723 0.676831 1.862575 -3.511799 0.008012 1.000416 -0.669091 0.504462 -1.976786 -0.754048 -1.347319 -0.790676 -0.061552 -0.600518 -0.893869 -0.997654 -0.277318 -1.973303 0.758502 1.173392 -0.260178 0.773857 -0.899281 1.512859 -2.465498 0.304736 0.757416 -1.162040 1.984814 -0.496022 -1.992290 -1.634365 3.398417 -0.078708 -0.835761 0.995383 -1.843243 -0.686575 0.639068 0.861943 -1.533604 -0.451408 1.773048 0.764866 1.868445 -2.971251 -1.017854 -2.970185 -0.539417 -0.413954 1.002035 0.330712 -1.784338 -3.095575 1.126771 1.651466 1.295883 -2.195886 2.153583 -1.079112 -0.957369 2.186761 -0.332192 0.333945 -1.188214 -0.742519 0.772660 -0.302709 -1.082102 -1.598002 0.592810 -0.976462 -1.598638 -2.030560 1.745160 -4.797369 -3.435872 2.868234 -1.518109 -2.088141 1.604680 -0.195884 -1.461496 1.246339 -1.716797 -0.698038 -1.337493 0.793676 0.281685 -0.162621 -0.587153 1.960244 -3.120194 -1.985831 -1.136366 0.278573 3.844748 1.149103 -3.326838 2.062259 1.649855 -0.122540 -0.596853
when -0.206465 1.315798 0.542584 -1.399611 -0.579325 1.024120 0.768845 0.328431 -2.296411 -1.045835 -1.887606 -0.327739 0.542311 0.443179 0.358206 -1.331426 -2.825033 -1.173933 -1.782501 0.410851 0.909561 1.647012 -0.050998 0.758261 -0.443033 1.129737 -1.511275 -0.106927 -2.465671 -0.746167 0.450496 -2.150208 0.642604 1.043799 1.094125 -1.932430 0.066543 -0.076259 -0.540590 1.052173 -0.412505 1.514317 0.047213 0.897754 1.320813 -0.466007 -2.220762 -2.242292 -0.167269 -0.038954 -1.619777 -0.827464 0.674251 1.593228 1.564747 -3.276843 -0.428004 2.104386 2.453899 0.216285 -0.938986 -0.596518 -2.106215 -0.687335 -1.012657 -2.161446 -0.660595 -0.957977 -0.103476 0.858562 0.743238 1.042156 -0.268964 -1.095973 1.549256 -3.498018 1.201380 -1.671579 -0.565723 1.123571 0.937122 1.883644 -0.099880 0.757190 1.441698 -1.547416 -0.821020 -0.487622 -1.167910 0.004883 -0.928903 -0.101769 -0.013499 -2.530397 1.205745 0.567347 0.455123 -0.863593 2.585667 1.759078 -0.116328 1.200081 -0.758429 0.150544 -0.275382 1.410014 0.400343 1.169479 0.055085 0.926123 -0.707284 0.229618 0.116859 -0.038423 -0.267839 0.761307 2.763541 -1.816770 -1.438793 -0.059423 -2.074708 1.449061 1.308606 -1.192149 -0.036105 1.508635 2.044838 1.032207
no 2.212261 0.681246 1.051506 -1.057300 0.858053 -2.393702 0.267605 -1.198358 -0.050129 2.496128 -0.419906 0.107465 -2.918390 -0.125484 0.486337 1.882513 3.786035 1.996921 1.304954 1.388484 0.618173 0.198824 -0.378538 -0.518503 1.215226 1.067979 -0.917451 0.291577 -3.498228 1.373891 -1.243441 -1.726293 1.069980 0.275556 0.875206 0.698502 -1.629605 -2.008839 3.176791 0.427433 -1.695336 3.700026 2.373821 -2.336150 1.627347 1.100079 -1.362567 -0.549131 2.473414 -0.850590 -2.325101 1.363688 -0.848788 -0.173557 -1.837973 -0.790209 -1.176883 1.110665 0.554663 -1.443211 -1.234804 -0.788459 1.014850 0.533977 1.409089 -0.874466 0.333016 0.957771 -0.487045 1.692124 0.793137 -0.431391 0.964345 -0.964235 2.546681 3.836055 0.103991 -0.825295 -3.819815 -4.344437 2.444490 -2.813521 2.724478 1.380597 -1.256191 -0.897556 -2.170479 0.000410 -1.032264 -2.138881 0.580366 -1.262484 -1.438593 2.810341 0.408872 -0.032772 2.166689 -1.557370 -0.764587 1.747884 -1.815799 -0.783997 1.558544 -1.085390 0.215126 -0.486142 -1.571123 1.492875 -2.501877 -3.630379 2.249736 1.291708 3.571118 0.369351 0.834223 1.511350 0.850598 2.442510 -0.502184 0.275018 0.191110 1.979719 1.763053 -0.840276 0.422686 -2.177039 -0.500787 0.010343
if 1.292806 1.359941 2.307555 0.360602 0.574116 -0.164563 -0.150943 -0.529787 -1.649913 1.149784 -2.116423 1.395296 -2.652278 -2.111355 -0.004614 1.359138 -1.524332 0.275138 -2.810634 -1.016782 0.532701 2.435740 2.585321 -2.588719 -2.292755 -0.554366 1.238694 -0.383598 0.670334 -1.488141 -0.573757 -0.203770 1.868682 -1.150650 0.598987 2.771413 -0.111801 -0.497965 0.848814 -2.105452 -2.692750 2.966504 -0.318391 -2.562386 -3.013486 1.220076 -0.624389 0.223075 0.533445 -0.954079 -2.308251 0.266666 -0.517817 1.662522 2.949892 0.673402 -0.602661 -0.745369 -0.368462 -3.792121 0.206786 0.116319 -1.747477 0.752999 -0.155524 -2.227799 -1.620498 0.732665 -0.320401 -0.955036 -0.158720 -0.461957 -0.346962 -2.657995 0.582038 -1.738459 3.036374 1.740340 -0.970471 0.987140 2.475524 -1.171028 1.061940 1.458129 -1.372247 -1.363841 -1.147425 -1.472311 0.478993 -1.953330 0.322019 2.323112 -1.452142 0.583349 0.025597 2.138939 -0.534634 -5.212460 -1.120927 0.298554 1.753058 0.714243 0.867201 -1.323202 -0.682004 0.441173 -1.916952 -1.364519 2.244137 -1.046095 -2.412521 1.236005 0.804865 -0.173848 -1.011682 0.334149 3.100630 -0.800842 -1.159005 0.196424 0.928401 -0.018681 1.465130 -0.598932 2.134511 1.578485 2.209572 -0.156012
there 2.095983 -2.356527 2.563248 1.875208 1.057608 -2.896244 1.872757 -0.860674 1.492695 0.638264 -0.315791 1.001194 1.341197 -3.269764 -0.385762 1.914499 0.995142 -0.971680 0.088413 2.258980 0.543199 2.571131 -0.384100 1.376072 0.499499 -1.174373 -1.205117 1.033076 -1.874648 1.742081 1.007399 -0.333059 3.150994 0.271401 0.256208 -3.059783 0.442726 -2.195012 -1.622370 -1.454444 -1.484759 -0.995638 2.137362 -1.306324 -0.864621 0.358659 1.224507 -0.600534 0.450100 -1.513047 0.607636 -2.792659 -0.295964 -0.433888 -1.475019 1.024273 0.063995 -0.172800 1.369786 1.296336 0.723364 -1.732833 -0.489226 0.552695 0.381023 -0.369197 1.637086 -1.219259 -0.367432 1.129859 -0.156591 0.136110 0.617749 -1.202201 0.847735 -1.586121 -0.538561 -0.860866 0.510057 -0.077714 -0.187769 0.117910 0.929718 0.101411 -0.434439 0.303841 1.480044 0.623761 0.471590 0.804713 0.434623 -1.065678 -2.225133 1.633475 -0.607447 -3.303827 0.196651 3.097464 0.352899 -0.324108 1.203519 0.500542 1.653634 0.598141 -1.093400 -0.963816 -0.127314 -1.198101 -0.282856 -0.778570 -2.457412 -1.731236 -0.242917 -1.123983 0.828711 0.160102 -0.203549 -1.657003 -0.415675 1.786895 -1.033108 1.829752 1.220448 1.960068 2.883218 -1.900222 1.975591 2.614665
who -1.987526 -2.076484 2.215650 -0.465826 0.166020 0.979298 0.657708 -0.116570 -1.553480 1.089542 0.705688 0.235103 -0.836837 -1.043753 1.952531 0.054420 -0.613183 1.170346 -0.431128 -3.112111 1.028170 -0.304908 -0.064391 2.453096 -0.725992 -2.433475 -0.471589 -0.749093 -0.100997 0.584058 1.169406 0.952453 -1.327516 -2.511159 -0.248128 -1.435570 5.048700 0.379676 -0.994676 -3.020534 -3.432720 3.242870 -2.022103 -1.340596 -2.017154 1.028853 1.024325 0.489052 -1.639586 -0.422990 -0.792008 -1.372929 -1.761412 0.081210 -1.102684 -3.363844 -2.041216 -1.964564 3.128833 0.343443 -1.353475 -0.208134 0.433641 -0.488540 1.185623 -0.293101 1.751735 -0.864370 0.489659 -1.825084 -0.294758 -0.971522 -1.144133 -1.730309 0.079880 -0.664168 -0.980769 2.193205 -2.657195 1.027802 1.277165 2.515737 -2.055341 -0.472418 0.290933 -2.078182 2.083013 -0.566302 -0.753578 0.743940 1.502532 1.404010 -1.318629 -1.924586 1.394751 -2.251005 0.668790 -1.849486 0.494233 2.159191 -1.825102 0.403666 -0.638356 -3.516723 -0.483479 0.310863 -1.218965 0.221479 1.347515 -0.054447 2.151754 0.437137 -0.619563 1.054267 0.293932 0.272413 0.162966 -0.273888 -2.114029 0.491121 -1.602011 -2.317599 1.125273 1.268063 -3.753298 2.092696 0.780155 1.523464
we 0.019178 1.785353 -1.973923 0.190594 0.246838 -0.870053 2.962416 1.127043 -2.005961 -0.082267 -3.120471 -2.192945 -1.243495 0.932208 -0.515413 2.529969 -0.426832 0.783481 0.132132 0.653598 0.911773 1.487342 -0.231940 1.690436 0.049474 1.589343 -0.708263 -1.229703 1.277320 -2.252416 0.887832 0.919119 1.454182 -1.210658 -1.491174 -1.597419 -1.486276 1.319330 -2.743258 1.197679 -3.959150 -1.735482 2.005799 0.139938 -3.255819 0.512085 1.366491 0.967061 -0.732153 0.976612 1.277199 -3.336298 1.600091 -1.771633 -0.931105 0.817825 -1.887349 1.202302 0.564009 -1.373074 1.997341 0.225843 0.820942 5.091638 0.625013 -0.646472 3.666806 0.944520 -0.198532 0.149986 -1.011352 0.891213 1.115195 0.003823 -1.258507 1.576323 -0.040967 -1.497332 -1.055651 2.320119 0.287041 -0.519285 -0.829735 -0.595887 4.671885 -0.851965 -0.136796 2.480484 1.782764 -0.077768 2.317765 0.987316 0.623949 -2.062153 -1.314503 -2.854620 2.921240 -2.104385 -0.845909 -2.741143 -4.246138 -2.260153 1.437933 -0.206964 2.723428 1.119321 -0.834054 2.147014 0.237815 -0.413860 -0.092802 1.034558 0.474908 -0.155955 1.173384 -0.611801 -2.118384 -0.457718 -0.005601 3.099052 -2.420912 -3.755435 0.690521 -0.697461 1.642648 0.184174 1.837894 1.028190
will 1.900724 -3.061287 -1.037288 -2.002895 -0.032727 0.339737 -1.490146 0.131474 -2.676084 -1.289752 2.544415 3.281409 -0.135547 2.719515 -0.838820 1.986497 -5.137235 0.649436 -1.745824 -0.467838 3.814152 0.970234 -0.630445 -0.167082 -0.251288 2.508832 3.234396 -1.406070 1.008871 -0.105784 3.708788 0.293698 0.116453 2.992641 2.215122 1.458773 -0.832875 0.651357 2.436067 0.088420 -2.384513 -2.246764 -0.329761 0.035662 -0.619687 0.768988 -0.458492 0.347531 -1.996572 -1.014051 -0.123060 -0.664554 0.658779 -0.947556 -2.686063 -0.252094 1.408788 -0.628877 -1.618171 -2.305825 -1.194810 -1.529037 -1.233899 -0.354895 0.528521 0.612579 1.625409 -1.942977 1.257831 1.823245 3.063365 -0.436869 1.356832 -0.873881 -2.008875 -1.005536 -1.224058 0.550904 0.912837 1.159704 0.197843 -2.491865 0.373856 -3.458377 -2.379747 -3.879708 -2.966342 0.283035 -0.241342 -2.022038 -0.665349 1.436151 0.805727 -0.892492 1.592921 -0.372750 -2.489261 0.166819 -3.628521 1.361292 0.048523 2.447905 4.123662 -0.807755 -1.026968 -1.737402 -0.898195 -0.400374 2.523964 -1.079828 0.548230 -0.096463 -1.193795 -1.307196 2.420806 0.868648 1.266986 2.641072 1.940851 0.217159 0.185629 0.687339 -0.900051 -1.144819 3.319652 -0.821238 -0.680936 -0.350788
an -2.590079 1.826287 0.632518 -1.007551 1.418729 -0.075600 0.864342 -0.580100 3.719987 2.326154 0.389923 -0.189817 -0.444410 0.433027 1.634262 -1.697033 1.904327 1.847504 -1.013091 -0.194347 -3.309728 -1.727128 -0.772509 0.333780 0.226603 -0.755243 1.687283 -2.379102 3.153160 -0.147433 5.267367 3.220805 -0.304394 0.422873 0.186874 2.266188 -1.800079 0.578418 -0.632888 2.628420 -1.698175 3.045337 1.725484 -1.784869 -2.371400 -0.897593 -1.486318 -2.054597 -1.892506 0.238276 -0.845076 2.031858 0.158494 0.891441 -0.133271 -2.302153 3.831820 0.555137 -1.679072 -2.025675 1.766581 2.266820 0.902328 -0.475745 -0.191766 0.268650 3.324875 -0.109685 -4.783279 0.210842 -1.517366 0.566084 -1.554734 0.330001 -3.505301 -1.782113 2.227256 -1.738575 -2.855171 -1.754703 2.024933 -1.012131 1.015494 0.990853 2.859971 2.478328 -1.068397 -3.972381 0.362722 -0.896574 2.976413 -1.337549 -2.544902 1.941059 3.020602 -1.200071 3.061440 -2.843647 0.520412 1.293331 4.707171 0.136514 -1.238598 0.340930 -1.664834 2.145178 3.733690 1.468218 0.450791 -0.818975 3.446834 -2.359599 -0.772587 0.421584 1.492884 4.104329 0.568388 2.064843 -0.250844 -2.368047 -0.658060 2.835916 1.138461 -3.531590 -1.118275 -2.306975 -2.685283 -3.535333
then 0.290923 -0.299689 0.194251 -0.985135 1.041071 -0.542522 1.436945 -1.036523 -2.870765 0.260078 -1.105590 -1.492374 1.751711 1.106189 -1.994691 0.056514 1.509735 -1.498641 -0.317971 -0.195395 -1.026565 0.616879 -0.093808 0.585162 1.171282 1.350317 -0.503766 -1.011292 -0.356344 0.264078 -0.025662 0.491721 -1.191691 0.105976 -0.133570 -1.838075 -1.047619 -1.279545 -0.607504 0.752395 1.121032 0.096459 0.461641 0.426699 1.870234 -0.084448 0.845229 -0.248806 0.958081 0.676767 -0.121623 -0.782165 1.593963 -0.126926 0.069857 -1.223413 -0.019936 0.198177 1.083641 -0.394784 -1.401735 -0.554889 -0.245398 -1.042206 -2.505211 -1.347473 -1.262574 0.632822 -1.343454 1.248238 1.355833 0.076917 -0.543641 -0.920428 0.033705 -2.339734 -0.925363 0.408674 2.057315 1.282698 0.244370 2.091418 -0.394652 0.319179 -0.830271 -1.120737 -0.860515 1.554910 1.139651 -0.485562 0.582175 2.233884 -1.270386 -0.951114 -0.196981 1.522728 -1.839517 -1.246666 0.067007 -1.606603 -1.730520 2.916553 0.197842 0.271117 1.517194 -0.850498 -0.008998 1.210995 0.861229 -1.411533 0.666300 0.591642 -0.235075 0.339058 -0.042445 0.881414 -0.633493 -1.563333 -0.932192 0.627561 0.255030 0.407584 -0.552416 0.373582 -0.389090 -1.222404 -0.353191 0.771080
their -0.561412 1.657282 1.474838 -0.467926 -2.141853 1.613733 -0.261762 0.196991 -0.075646 -1.272871 -0.849719 0.840435 -0.939626 -2.058990 -1.470016 2.281986 1.157990 1.469948 -2.555754 0.706886 -3.628950 0.612883 -0.997057 -0.219763 -4.591219 1.621535 0.933886 0.110986 -0.640547 0.715591 0.530560 -1.495411 -0.257369 3.818303 2.096278 0.942391 1.051952 0.036999 -1.980358 1.413585 -3.835664 1.428101 -0.639742 1.413494 -0.124039 0.110553 -0.904306 0.189405 0.842818 -1.004045 -3.335427 3.928391 3.081114 -0.918476 1.008230 1.439222 0.261189 -0.992248 -0.255451 2.321356 -2.386537 2.074393 1.277410 1.656405 -0.130227 -1.117631 1.730725 5.038374 0.816998 0.545818 1.016006 -0.981471 -0.916086 0.422294 0.332273 3.397688 -1.807169 -0.923815 -0.942403 1.191328 -1.459273 1.872474 -0.406879 -1.921707 0.798469 0.939334 1.975873 0.563075 2.961807 -1.104238 0.311454 -1.937164 1.828449 -0.059177 -1.179183 1.481691 0.410808 1.532542 -2.577818 0.088989 -1.339747 1.232512 1.761592 0.794258 -1.447989 -0.524536 -0.918926 -1.772527 -0.334769 -2.432393 1.607338 -0.281384 1.329183 -0.321853 0.191446 1.250685 -0.526417 0.588984 -0.065526 -3.111103 -1.631028 -1.350685 -2.986151 0.586016 -0.921484 -2.444496 1.981777 -0.180207
would 0.705125 0.933964 0.594279 -1.936912 -0.629668 0.560572 -1.428518 -0.474667 -0.786689 -1.368308 0.969867 -0.043572 1.043512 2.545019 -1.649804 1.503848 -0.776184 1.218740 -1.591451 1.075934 1.985203 0.007308 1.372064 -0.599213 1.239269 -0.879788 2.171949 -0.529679 -1.218390 0.432904 -0.363579 3.112906 1.861272 0.897610 3.299865 1.391011 -0.143373 -2.548541 -0.995209 -0.162666 -1.340219 -3.237506 1.450032 -1.066245 -2.741449 2.785711 0.865369 -0.835713 -1.025342 0.599252 -2.036034 -0.600834 0.610960 -1.421643 -1.597973 0.517260 1.198345 2.314802 -1.403972 -2.239668 -0.958175 0.801975 1.111717 1.643162 1.384728 0.942670 0.208006 -2.605366 0.644414 1.701497 0.835193 1.733765 -0.023033 2.152323 -0.806705 0.334599 0.232333 0.224773 0.752059 2.516356 -0.015400 -2.729215 0.856838 -2.039766 -2.223178 -2.808038 -3.385448 0.101895 -1.247010 -0.356196 -0.137115 1.492276 0.995362 2.182027 2.343986 1.537754 1.238111 -1.159379 -3.440092 1.820040 2.987127 2.643012 3.686486 -2.864715 -2.462398 0.933704 -3.166721 -0.482731 2.661482 -1.499297 -0.878937 1.517083 0.214345 1.544115 -0.198697 -0.045967 0.712415 0.658539 -0.118696 1.904992 0.694450 -3.107683 -0.404925 -2.716118 1.116592 0.768353 -1.530056 -1.432973
them -0.421410 -0.635057 1.044874 0.853689 -0.367550 1.521161 0.645559 0.772999 -0.702471 0.573897 0.224115 1.355750 -0.196710 -0.165693 -0.428795 0.445101 0.968760 0.907212 -0.270567 -0.475008 0.894082 -0.090057 -1.684221 -0.968389 -1.926416 2.635783 1.516874 1.311020 3.153164 3.005181 -1.177606 2.119564 -0.467958 -2.288261 -0.232085 -0.555098 -0.757374 -1.134253 -0.641119 2.520708 -1.139613 0.758475 0.749703 -1.768453 -0.259953 1.284363 0.226998 -0.775025 -2.101498 0.419672 -0.021584 -1.007018 -0.778033 0.583788 -2.350399 -0.875397 -0.257067 -2.132920 1.116804 0.114082 -0.194859 1.283915 0.536890 0.045369 -1.114317 2.432044 0.566737 3.098335 0.687942 -0.790207 -0.277172 1.677432 -0.401604 1.780360 -0.036847 -0.115663 -0.811739 -1.181336 0.239659 2.081736 0.110436 2.001834 -0.765785 0.667966 -0.139437 -1.727709 -0.527008 0.347016 0.391312 -1.059576 2.369270 0.978361 -0.212211 0.574206 -2.524863 -0.229099 2.174554 -0.194711 -0.725763 -0.161003 -0.534591 -0.444034 0.060516 0.589122 0.398272 0.097212 -0.147952 -0.997403 0.568917 -2.975851 -1.069670 -0.764878 0.644000 -0.276793 1.515832 0.051306 1.787657 -0.875820 -0.895822 -0.024110 -1.932752 0.290821 -0.345417 -0.647480 1.165759 1.710688 -1.261232 -0.776731
been -1.356424 -0.052457 -1.108031 -0.469145 1.778139 3.108724 -0.356508 -0.871108 1.510476 -2.812701 1.181948 -1.109184 2.287683 2.170834 0.162750 -1.928429 -1.214492 -1.402372 2.256014 0.268386 0.005678 -0.915684 2.426372 1.982153 -2.315483 2.156822 1.667413 -0.255388 2.925471 0.735594 -3.178257 1.533019 -1.558507 0.847314 -0.916739 0.823110 2.629358 -0.163867 1.755083 -1.627395 -1.776593 2.014403 -2.568716 -1.957087 0.221045 0.837738 1.990605 0.078897 -1.092785 0.800629 -2.325934 0.957000 -1.588193 -1.412912 0.279330 -0.437819 -0.451757 -1.567408 2.102965 -1.414012 -0.241677 1.080014 2.054604 -0.107280 0.447935 2.827858 2.353203 0.372221 0.393003 3.242310 -0.185987 3.586799 1.313532 -0.141898 0.447835 -0.639176 -1.536295 -2.446314 1.423032 -0.959876 -1.692607 0.117574 -3.364533 1.507729 0.568476 2.743063 -1.531675 2.102452 0.634340 -1.934716 0.831093 0.061968 -0.801175 1.706148 1.198465 1.609942 0.751453 -1.345952 1.952144 2.400957 -0.774511 -4.268724 -1.983233 -1.017478 1.042443 0.504470 -2.099700 -1.046714 -1.423728 0.271953 1.147787 -0.727374 2.507323 -1.242073 0.081842 -0.670831 -1.356959 -2.319373 -0.302491 -0.211286 0.340790 -0.138359 3.013525 -0.055506 0.149163 0.249292 -0.034605 -2.120847
do 1.417555 2.174631 2.257416 -0.185424 0.605767 -3.198583 2.505986 -0.539508 -3.054819 0.880645 1.061611 0.361160 1.502927 1.133667 -0.631387 0.558722 -1.851424 1.004796 -0.844331 -0.368695 0.882204 2.971932 1.999526 -1.159935 2.787984 -1.243226 2.656263 1.253974 1.377595 0.957508 -0.310130 -0.262497 1.354127 -2.947344 -0.254616 3.206808 -2.129526 -0.331917 0.113063 -2.059539 -2.027813 -1.053071 0.354690 -0.766337 -0.497104 1.195571 -0.753214 0.107685 -1.183416 -0.230814 0.123734 -1.547248 -0.865558 0.238092 -1.309920 2.834189 -3.389769 -2.149744 0.552416 -0.833678 -1.662965 0.348692 0.571825 2.095394 0.863987 2.797667 0.036923 -1.403403 -0.680490 0.422283 1.645604 -1.504851 -0.144615 0.344549 0.440223 0.543886 2.336846 -0.279184 -1.314022 -1.828189 -1.680457 -0.346896 -1.651532 -3.592081 -0.978171 -3.058759 -0.829853 1.910746 1.281808 -0.030941 -0.800193 2.837784 0.253343 -1.122819 -1.574786 2.422368 -2.013220 -2.567553 -0.250227 0.654359 0.652705 -0.784759 -0.917527 -0.663481 0.430017 -1.108384 -2.473095 1.100059 -2.234448 0.244715 -1.061387 -1.451252 -2.298272 -1.508663 0.663008 -2.717992 2.032019 1.720829 -0.282090 0.500621 0.513635 -1.173378 -0.648103 -0.422146 0.410281 0.258455 -1.301186 -2.230173
your -2.027963 0.679609 -0.389896 -1.247355 -3.204227 0.143797 1.785181 2.653029 1.316038 -2.068586 2.070096 3.031435 -3.579129 -0.311138 1.583706 2.711243 -0.188900 2.717146 0.023339 -0.581478 -3.681949 0.411214 -1.809078 -0.328090 -3.577532 -0.577854 3.929089 2.522638 2.447014 3.456591 3.038573 -0.286675 2.385841 4.139823 1.219159 2.686697 -0.566888 -0.776974 -0.499536 -1.356943 -1.448853 -0.559861 -0.481830 -0.097144 0.457824 1.732834 -1.367661 0.872995 -1.028309 -1.285485 0.929767 1.489349 0.506674 -0.767551 0.156654 -0.431608 0.456075 0.109188 -1.342174 0.335071 -1.257523 2.556381 1.525795 0.639778 -2.390018 1.525179 -1.744729 -0.051617 0.614896 2.001122 -1.105731 -0.282429 -1.931596 -2.357214 2.580205 3.188195 -0.582939 0.912246 0.498514 -2.367785 0.881481 -1.704425 1.142096 -1.174881 0.208816 1.104370 -0.521688 2.644230 0.647588 -4.762804 2.461379 0.020567 0.089389 3.853276 -1.263579 0.247184 -1.380069 -2.068350 0.034077 -0.500458 -2.093716 1.373928 0.170679 -1.683277 -1.060132 -0.499853 -0.026570 -2.016685 0.242301 -1.325591 0.977700 -0.987843 0.570966 3.179138 2.688467 1.843627 -0.487267 0.796303 1.202168 -0.235817 -0.346124 -2.141288 -2.265829 -0.512797 -2.224509 -0.757111 0.830196 1.080060
now 0.175249 0.853226 0.875231 0.158926 0.242779 0.044053 0.296344 1.090653 -0.262916 0.590638 -0.839643 -0.161293 -1.260833 1.884904 -1.674199 0.261121 0.933728 0.655043 0.787654 0.769059 -1.381580 0.923820 -3.078346 -0.230825 0.618731 0.617617 -0.187210 -0.486613 -0.940785 0.465014 0.573420 -0.124349 -0.985530 -1.528094 -0.790037 0.436560 -0.367222 1.221831 -0.163905 -0.384669 0.840969 0.240764 0.986971 -0.271161 -0.315246 -1.870146 -0.732687 1.337036 1.621264 1.334347 -0.176207 0.331681 -1.475934 -0.425623 -0.331906 -0.581451 -0.740699 2.524020 -0.222055 -1.324009 -2.051865 0.703051 -1.248844 -0.709920 0.125724 -0.937070 -0.065989 0.265390 -0.762338 0.426980 -0.342363 0.844450 -0.326681 -0.876235 -0.975452 -1.120456 0.580487 -0.995897 -0.452841 0.171186 -0.688608 1.180423 -1.694113 -0.631633 2.393308 -1.267447 -1.166410 -0.229072 0.872562 -0.725404 -0.544118 0.751037 -1.043981 -1.403152 1.857047 -1.176706 0.163795 -1.956978 -0.287074 -0.691163 -1.025954 -1.153696 1.454520 0.967892 0.317157 0.279317 -0.845948 0.850149 0.998485 -0.487089 -0.020003 -0.024036 -0.870369 0.490588 -1.088223 -0.629572 0.167661 -0.661364 1.532290 1.169198 0.451911 1.783566 0.591277 1.141087 1.636181 -1.618098 0.579370 2.019219
out 0.568539 -1.333592 0.943209 0.639227 0.712431 -0.299789 -0.907812 -0.620402 -0.226873 -0.476756 -2.338533 -0.882620 1.297231 -1.389332 -1.036357 -0.542566 0.382576 -2.607397 -1.929194 -2.139566 -0.363195 2.165440 -3.836428 2.450420 0.720968 -0.528975 2.380380 -0.447924 4.749650 -0.153251 -1.980693 1.217060 0.173600 -2.817095 0.026615 -0.537615 -0.062691 0.055469 -0.533279 1.387070 -0.862135 -2.050293 2.537394 -1.272612 -0.524977 1.054397 -0.623041 -0.287152 -3.885746 4.202669 -0.712582 1.682456 -0.519769 -1.191948 1.732295 -0.159053 -2.660421 1.751148 3.590610 -1.237605 -1.800999 0.428395 3.307821 -1.405634 -1.792132 -1.140786 0.721483 1.209187 2.739267 -0.886373 2.102173 -2.066373 -1.488433 -2.206928 -0.817559 1.347008 -0.006828 0.437950 1.225913 -0.524911 3.786700 0.814937 2.151171 1.667503 -1.264989 4.026028 -0.869161 -0.703317 -0.522063 1.157689 -2.621675 -1.191065 -1.272436 -1.169267 -2.100858 -0.708405 0.457043 -0.110829 0.113765 1.767573 -0.476604 1.269768 1.216036 3.281940 0.952938 -0.747145 1.177525 0.311912 -0.155563 2.421364 -2.705390 2.805972 -1.162698 -3.711961 -1.314529 0.211527 1.428639 -0.054063 0.707635 -0.201012 -2.337579 -0.406811 1.252789 -0.222661 1.331190 -3.253958 -0.766580 -0.892630
more -1.335386 2.601638 -0.358731 -1.691555 -1.107043 2.655877 -0.753946 -1.593932 0.490474 0.829433 -0.228843 0.214478 0.905664 0.113286 0.201238 -0.830722 0.224484 3.483843 -1.158494 2.430271 -0.274375 0.757221 -0.338110 -0.016378 1.503269 1.082391 -2.222384 1.229868 -2.253081 1.493236 0.378352 1.485779 0.558438 0.951603 0.202834 -0.381411 -1.596736 1.568386 -2.420101 -0.371432 -0.204346 -0.872732 -1.865589 1.476341 2.213485 0.060389 -0.120638 -0.378076 2.545840 -0.661436 0.919815 -3.062091 -0.667208 -0.538944 0.073636 1.252718 1.637780 -2.345603 2.033829 -0.110269 1.828834 1.963536 0.077813 0.583984 1.049487 1.325652 1.614898 -0.545115 2.497155 -0.257947 -1.397994 0.996394 1.194513 -1.314408 -2.490494 -3.158547 -0.404813 2.382188 -1.257099 1.765090 -0.965745 1.302468 -2.250057 0.861271 -0.010932 -2.639979 -1.778231 2.042221 -0.204618 -1.456929 0.263820 1.104619 1.149437 0.006343 -1.372202 0.187878 0.358202 -2.026582 -1.311401 3.114125 0.583977 -2.342222 -1.728323 1.298715 -1.394138 -0.154838 -0.903490 -0.913295 1.974243 -0.865151 -1.086005 0.431172 -0.707715 0.581975 1.925535 2.667485 0.016743 0.513059 -3.077614 -0.040291 0.158590 1.390408 -0.125852 0.544188 1.427261 -1.314496 0.655415 2.253661
up -0.592772 -0.036626 -2.131560 2.072617 -0.538031 1.381445 -0.882996 -1.895428 0.941012 0.829123 -1.493749 -1.376760 0.035030 2.960492 2.163458 -1.818016 1.448367 -0.337519 -1.711730 -2.261976 1.353760 4.822127 0.631803 2.720205 0.903901 -0.070574 -0.497433 0.483544 2.841647 -0.105030 -0.674553 0.563275 1.848972 -3.194424 -0.075550 -2.696188 -1.100334 -0.504454 -1.879756 1.096675 -0.703666 -1.423422 0.558592 1.086335 1.817383 1.801739 2.790529 -0.931478 -2.707838 3.929159 -2.212882 2.368558 0.492493 -2.269896 1.046926 -0.700725 -3.435138 0.545620 -0.032746 2.257881 -2.208349 -0.934027 1.698950 -0.647078 -0.700840 1.110434 -2.313318 1.074163 2.238183 -2.306343 -0.885289 0.514791 -0.202945 1.102333 -1.715952 -2.123778 -3.105353 -0.780932 0.294763 1.173216 -0.164695 0.552221 1.596080 0.894840 -0.818755 3.055422 -0.235716 1.300827 0.526110 -0.247629 0.359649 -0.808519 0.451676 -2.462088 -2.631222 0.643289 -0.890788 1.124331 -0.187394 1.792215 -0.183686 2.443373 1.292316 2.479268 0.603746 -1.493335 0.469410 2.468410 1.619561 2.121845 -0.969257 2.457108 0.372226 -2.121504 1.086195 2.645611 -0.551459 -1.527659 2.068129 -0.330417 1.070980 -0.512628 1.310581 -1.819283 -0.986998 -4.061129 -1.893309 0.605322
man -0.369285 1.232765 -0.744548 2.556753 0.185466 0.721422 -0.776751 1.934165 1.029316 -0.734403 3.353046 0.792617 -1.701245 -0.157328 -0.574895 1.850494 -2.095257 -2.521520 0.414018 0.354513 0.636305 1.283045 1.809952 0.601064 1.753955 1.927755 0.547316 1.509529 1.622812 -0.324231 0.130655 -0.845142 0.621655 -0.887358 -0.894635 -2.226542 -1.188143 0.775045 3.540389 0.322666 0.829791 0.426966 0.689951 1.040165 -1.255026 -0.105095 -0.135316 1.996737 -0.377664 -0.620268 1.494312 -1.090795 2.510277 -2.378933 -2.268307 0.701475 2.911458 1.226802 0.290461 0.691460 1.217011 -2.317495 0.433403 -1.757156 0.121095 0.726775 2.003447 -0.634492 -0.375903 -0.882749 -0.448609 0.098310 -0.279998 -0.960380 0.431178 -1.777673 1.718624 1.746930 -2.883700 3.379050 1.079213 3.701278 -0.407591 4.226860 0.451759 2.150115 -1.219716 1.858543 1.130471 -0.949224 2.315842 2.270241 -2.386769 -3.167383 -1.740733 0.830794 -0.772112 -1.103041 0.341278 1.365572 1.131210 -1.917709 -0.731921 1.839088 1.979195 3.279975 -0.491059 -1.299364 -0.623535 -2.249408 0.991496 -0.938370 -1.352116 -0.887489 -0.720622 1.230649 -1.306253 -0.412070 -1.142783 0.978523 0.029172 -0.499945 0.229002 1.275310 0.005902 0.548899 -1.277692 0.033818
into 0.161936 -2.106691 0.459532 2.930008 1.072950 0.177274 1.035157 1.545828 3.568663 1.251817 -2.113107 -2.808329 2.675574 -0.669053 0.207858 -1.754884 0.011669 3.166725 -2.389601 0.490341 -1.470446 -0.350985 -3.055076 -1.687682 2.572712 -1.666119 1.414179 -1.389153 -0.835475 -4.017290 -2.778800 -0.031499 -0.520921 2.671200 0.285874 1.076910 -1.788082 3.104986 -2.036468 -2.161903 -0.129637 1.159342 -0.447032 1.567381 -0.066261 0.544966 0.762044 -2.855392 -0.037076 3.222521 1.359151 2.810696 -3.099874 -2.032089 1.003627 -0.338197 -3.372260 2.180070 -0.600779 -1.132078 -2.899604 -0.148689 0.295946 2.451137 -0.657415 -0.533453 -1.814635 -1.668803 1.654535 3.648040 1.033387 -3.314044 -0.301829 1.410014 -0.713154 -1.958337 -2.815571 1.919039 2.793898 1.496442 1.969361 1.717984 0.552340 2.328972 -1.573894 2.731211 -1.331415 1.797450 2.475446 1.920444 -3.651990 0.984454 0.005854 0.855459 -1.785998 -0.864389 1.061596 -1.309899 -1.139288 -0.813094 0.957866 4.728073 2.898030 2.861219 0.853172 2.227112 0.878839 0.736734 -1.404248 2.765052 -0.148469 2.279206 1.937230 -0.730459 -0.675711 1.735869 -1.564912 1.181921 1.721511 2.499653 -0.350439 1.051318 0.702457 0.604732 -0.536496 1.166703 -0.285343 -1.794259
some 0.682326 0.601146 -0.057868 0.142937 -2.836890 -1.294291 -1.890567 -0.602567 0.283062 0.670439 -2.393122 -1.439437 -1.117406 0.856453 -1.590366 -0.317633 1.027066 1.357281 -0.060371 -0.244664 1.889257 -1.178404 -1.610220 1.453918 -4.278232 -0.489669 -0.089328 -2.127506 -1.945002 -1.401943 -0.199421 -2.789727 0.814232 1.465508 -3.361139 -0.075752 -1.271521 1.516808 0.943323 -0.009963 0.958120 0.364434 -0.599296 -1.123700 2.017063 -0.279908 0.892436 1.776752 -2.870099 -2.224549 -2.335949 0.491168 1.829342 -1.913561 0.169053 0.458442 -1.644652 0.895006 0.143133 0.393070 2.263426 -1.147944 3.374958 0.008155 -1.309147 -0.551712 4.069648 -0.078643 1.104838 1.592115 -1.211530 -0.538719 -0.149793 1.319629 -1.552879 0.395088 1.888331 0.045169 -0.865264 -1.410513 3.031545 -0.314969 0.458360 1.157961 0.550576 -0.019991 -0.282063 1.231826 -0.089179 -0.705575 0.075359 1.657269 1.280205 1.120314 1.416242 -2.090967 -0.536570 2.359816 -0.308480 0.914829 0.110196 -0.955437 1.010562 -1.080738 -0.544364 -0.407991 0.346543 0.091118 0.411576 -1.427397 1.085069 -0.224475 -0.457561 -0.216469 2.126907 -0.973797 1.977438 -0.034097 1.237299 -0.566960 -2.032830 1.621553 0.978657 -2.389648 0.954360 -0.687041 -1.259121 -0.871141
could -2.329827 -3.602514 1.952660 -1.119401 -0.979687 -1.630889 -0.416879 -0.255725 -0.279920 -2.148693 1.761994 -1.870724 -2.833479 3.819397 -1.912222 3.007364 -2.272840 1.432196 -1.640454 0.318036 1.323185 -0.158552 2.280066 -1.793919 0.459470 1.622725 3.265958 -1.989511 0.176350 -0.653127 -2.135809 -1.634292 2.047627 0.015437 0.281491 0.552992 0.580117 -4.435739 -3.199181 2.042432 0.198000 -1.263673 1.215418 -0.362162 -4.448092 1.181900 0.437720 -0.803716 2.147261 0.115329 -0.125505 -0.483334 -0.675471 -3.512463 -2.378259 0.578329 2.061432 -1.845793 -1.241208 -3.684392 -1.064606 2.199111 0.316878 2.961843 -0.912601 -0.563273 0.771196 1.005942 -0.984322 2.863198 0.888382 -0.194923 1.711824 1.078577 -2.479797 0.601224 -0.692026 -0.690315 -0.082635 0.222219 -1.537820 -2.144095 1.305534 0.548261 -1.007884 -2.004442 -2.402172 2.961144 -0.875520 -1.206675 -1.467865 0.437323 0.933590 1.217069 2.869411 1.254580 0.671157 1.168911 -2.549591 1.415918 1.037050 1.180534 3.422348 -1.094775 -1.313168 0.328560 1.407270 0.705483 1.100027 -1.712525 -1.578480 2.678681 -1.209257 -0.945731 -0.014833 -2.004021 3.948782 1.530942 -0.270639 2.678527 0.261942 -2.182462 1.077118 -0.754429 4.175807 0.981965 0.680677 -1.082028
has -4.262516 -3.718950 -3.389316 -0.245722 -1.172322 0.291539 -0.984783 0.819790 1.174844 -2.055442 -2.217251 -0.472287 -1.468226 -0.401878 -1.299814 -0.143626 0.542254 1.294105 1.827852 -2.466866 2.064673 0.244775 -0.416018 -0.282202 2.134165 2.069571 1.345795 -0.107457 1.229424 0.510419 3.458062 0.046296 -0.288940 -0.934364 -1.285143 -3.426976 1.507527 -0.138024 0.446591 -0.632917 1.806055 -2.593913 0.603237 1.424138 0.252292 -1.079009 -1.982030 -1.028565 3.143055 -0.650467 1.365703 1.586434 -2.957772 1.146285 3.897480 0.601586 2.349656 0.202356 0.181928 -0.616470 3.719573 -0.108234 -3.572517 3.282338 2.738235 1.634826 0.108280 -0.115010 -1.367251 2.853678 6.123960 -0.106223 0.308530 2.070266 -0.623254 -2.454156 0.007990 2.275914 -0.444737 1.025275 1.669297 2.114158 2.109708 -0.376599 -3.208002 -2.238739 -1.853769 1.439174 -0.728110 2.266460 3.545030 -0.275516 0.435750 1.235950 1.904916 0.636690 0.072423 0.526131 3.121548 1.626136 3.392337 -1.232876 -0.526779 -0.911124 0.820870 1.793509 -2.039765 -1.389540 3.334732 -1.273419 1.774121 0.730292 -1.999375 3.739420 -0.213984 -1.479297 0.208181 3.720895 0.285675 -2.217191 -1.824312 -3.382271 -0.201114 0.661123 1.291992 1.792570 2.528916 -2.501753
only -2.891840 -0.592768 3.030297 0.646168 0.105090 -0.595673 -0.141849 -1.700968 -0.745167 1.117565 -1.525416 0.244164 -0.801941 0.328760 -0.108225 -0.115252 0.452516 -1.301450 1.572455 1.157870 1.558666 0.983812 -0.347787 1.496362 0.222593 -1.270281 0.164761 0.081260 -2.580756 0.721675 -0.454742 -0.450059 0.841489 -0.543661 -1.001951 0.953648 -0.007514 0.102850 -0.608711 -2.214295 -2.080798 1.197433 3.476406 0.943486 1.509906 1.299769 -2.081012 0.750771 1.103160 0.655126 -0.674873 -1.206344 0.304686 -0.314124 -2.192886 1.812033 0.257612 1.787590 1.208123 -2.207455 0.958269 -1.502253 -0.521501 -0.007552 0.672064 0.038101 -0.283316 -0.223876 -1.114675 0.234175 -2.327642 -0.733209 0.007503 0.272098 -0.349364 0.505377 -1.872236 -1.104036 -1.858591 -1.168539 0.541493 1.387192 0.564559 -0.877179 1.536076 -0.808024 -1.353718 0.980423 3.170497 -0.188306 0.245424 0.007536 1.341693 -0.872108 -0.139853 0.564791 -0.194323 -1.655563 1.255583 -0.551097 -0.264803 -1.815069 1.483439 -1.460486 0.086074 -0.288333 0.793307 -0.143239 1.428165 -1.047472 1.427784 -0.096805 -1.316418 2.171700 -0.803404 -1.548168 3.436497 -0.375020 0.116018 2.200063 0.726984 1.164021 1.400244 -1.321303 -0.564495 -3.307967 -1.521742 -1.537491
any 4.162957 0.352545 3.779129 -1.661019 1.253600 -2.563179 -2.153857 0.886153 1.441532 2.088730 0.419797 0.011489 -2.430080 -0.718061 -1.484505 -0.441210 2.936420 2.108440 1.821353 -0.698341 1.751283 -2.037093 1.108460 -1.362601 -2.915122 2.864021 0.940160 -1.516378 -0.200520 -0.244129 2.063990 -2.679990 1.592047 -0.270672 0.797675 -0.365015 0.596667 1.196490 0.323492 0.988277 -1.936334 2.622661 -0.245429 0.974986 1.741874 2.266242 1.019481 -0.445557 0.020423 -0.288703 -3.053458 -0.059087 -0.587253 -0.577758 -2.837227 -1.178344 -0.138073 -0.132595 -1.114871 -2.297161 2.586495 0.001728 2.155969 1.023421 -2.671319 0.993816 0.599929 -1.041728 -0.770958 0.055719 -0.803668 -0.927366 3.315212 3.700767 0.802542 2.750412 -0.647705 -0.781031 -4.138204 -3.234632 3.168499 -2.643327 2.194347 1.607309 0.384918 0.784076 -0.014329 1.326220 -1.908653 -2.918547 -0.756435 -0.662063 -0.590876 2.258262 -0.095445 -1.405871 0.345959 0.051511 -0.437161 3.903124 -1.594574 -1.575086 -0.272415 -0.929230 2.277483 1.804948 0.504085 1.343587 -1.173455 -1.827679 -0.515956 0.350120 0.983903 3.262565 2.256177 0.966892 2.548299 0.211272 -3.200096 -1.356690 -1.199096 -0.915377 0.413738 -3.193674 3.045099 -3.220169 -2.146762 -3.506230
very -2.060173 2.776619 0.819360 -0.665027 -2.067967 0.708667 2.328448 -2.195956 -1.056677 2.009732 -2.968146 1.322267 2.707306 0.343829 -1.022989 0.004569 -0.745363 1.015137 0.040044 1.941694 -1.580236 0.652346 2.373474 0.576932 1.039420 1.149630 -0.172743 0.098168 -1.186414 -0.351193 0.909552 1.117881 -0.213935 -0.930480 -2.397226 0.679493 -0.073477 -3.228506 -0.511410 0.426613 0.086575 0.590520 0.188490 2.326380 1.222874 -0.806771 0.021503 0.902857 0.199056 2.379682 -0.817310 -2.827214 0.728330 -1.040107 0.308591 1.314715 1.209841 1.294892 0.531802 0.141783 2.575211 0.956940 0.113575 -1.263297 -0.790540 -0.633824 -1.159763 -2.272517 2.203349 0.717309 -1.306634 -0.740039 0.323307 0.751975 -1.006983 0.150506 -0.125729 0.594103 -1.981602 0.326778 -0.726712 -0.688842 -3.769436 1.429652 -1.099376 1.651493 -1.223318 2.126791 -0.540829 -0.662467 -1.703198 3.400456 0.047087 3.669181 -0.291236 -1.655544 -3.129994 0.224996 1.058366 2.401673 0.208544 -0.475943 -2.470914 -1.148588 -3.050431 2.196929 -0.730056 1.226949 0.854689 1.860838 -1.089153 -2.498004 0.393488 -1.052925 0.094003 2.204755 -0.871887 0.997640 -3.098705 -2.916501 -1.341211 0.704636 -0.061699 1.473448 -0.151278 -1.337711 -1.000682 1.696793
like 0.184009 -0.457773 1.577634 2.439811 0.610943 3.894555 1.374208 0.128439 1.481754 -0.234913 2.452905 0.580404 -0.269527 -2.013134 -0.826439 -1.600647 -1.654817 -0.194251 -3.061123 0.133684 -2.796581 -0.079521 0.583110 -2.867693 -1.549656 0.783965 0.911869 -0.682684 -1.323818 -0.666120 -0.523324 -0.066930 2.005702 -0.406822 0.414533 -0.405380 1.196502 -0.362137 -1.657504 -0.729253 -0.731275 -2.013434 1.834193 0.386668 -0.476720 -0.173754 -3.330820 0.138718 1.817820 1.648105 0.821379 -0.468086 3.557975 -2.453845 0.109301 0.124052 -3.174824 -2.505444 1.529421 0.381979 -0.177241 -2.970164 -0.744686 0.635652 -0.561485 -4.292113 -1.120506 -1.861898 2.253209 -2.633066 1.259238 -0.810853 0.534208 0.531685 0.453205 -2.975290 1.744166 0.324011 1.002851 -0.454812 0.581615 1.126497 -1.434852 -0.545320 -0.387196 0.618485 -0.458583 1.824941 1.523551 0.565191 -1.204450 1.200419 1.107653 0.234925 -0.342283 -0.550342 -1.277892 0.899089 2.332299 -0.817650 2.524296 -1.353183 -0.782888 -1.212837 -1.263042 -1.564324 0.278034 0.836525 -1.913745 0.870928 0.942020 -0.417258 -0.457921 1.514611 -1.333163 0.338931 -2.989799 -2.663750 2.305878 -0.545723 2.093965 1.861012 -0.701501 -0.600171 -1.551266 -2.543243 -0.856184 -0.102133
did 0.406847 -0.144236 2.435266 -0.415002 0.764205 -2.161657 1.883711 0.454794 -1.541849 -1.442607 0.749106 -1.840178 0.146158 2.025468 -2.093335 1.497064 -3.464273 3.140922 -0.843645 0.721193 1.158581 0.407338 0.288132 -2.998132 0.991412 -0.212302 1.557750 0.468863 1.920277 -0.491664 -0.176835 0.710501 3.127327 -1.025046 0.680836 2.879548 -1.263881 -3.092447 0.533648 -0.185379 -0.787450 -0.649193 2.547680 -0.873725 -0.567682 -0.715437 -1.158957 0.927018 0.323593 0.886773 -2.431032 -1.267148 -1.856128 -2.903100 -1.021744 1.716491 0.873704 -0.591983 -1.629609 -1.858580 -4.057940 0.559658 -1.327155 2.434769 -0.040136 0.010404 -0.016030 -1.216979 -0.264651 2.876414 4.610525 0.327140 2.917256 -1.887182 -0.686024 -1.565000 1.090565 0.734764 1.104048 -1.168524 -2.946012 -1.465831 1.161492 -1.617676 -2.991402 -2.029734 1.531639 1.095044 -1.769631 -2.654730 1.093625 2.019793 1.693835 -2.522830 -1.297029 -1.275218 -0.730118 -1.196432 0.329464 0.238479 2.011163 -0.799779 2.144625 -0.154644 -0.755471 1.601965 -0.621090 0.869793 0.542847 -0.242676 0.569437 2.989886 -4.536014 0.592424 0.461537 -1.666452 1.299021 2.037813 -0.863114 1.114115 -1.258220 0.289060 -0.500081 -0.996984 -0.950575 1.253443 -1.387804 -3.670341
time 3.004926 -1.011497 -1.295063 0.218977 -1.213964 0.648521 0.474345 0.052950 0.315289 -1.890391 0.156923 1.967856 -0.954833 1.044872 -2.118855 0.190069 0.870911 1.149918 0.036470 0.101099 2.093491 1.971770 0.887015 1.158795 -0.255651 -0.906840 -1.843857 -0.652554 1.037978 0.263427 -1.360783 -0.431736 -1.416070 -2.621024 -2.837428 0.063483 -1.016625 -0.491517 2.180182 -0.784510 -4.045688 -3.049484 1.562854 -2.223094 -0.572206 -1.432678 -1.543090 0.129033 1.126628 1.946525 -0.156373 0.138661 0.205456 0.854950 -3.846535 2.822942 -1.888781 1.136249 0.583480 0.651283 0.109083 -1.032581 -2.771038 1.296681 0.978611 0.823153 -0.893453 1.973481 0.524054 -0.078480 -1.603748 2.084861 0.278477 1.781397 -0.875508 -1.428945 -2.049694 -1.358905 0.359138 3.697411 -1.392926 -0.215554 -0.650201 0.318830 1.049173 -1.267397 -0.898973 0.672306 -4.368423 -2.640843 0.650106 0.758763 -0.264802 -0.471562 -0.247423 0.783634 -1.219353 0.327247 3.845762 -1.449592 -0.355853 0.190383 0.682238 1.259617 1.527872 1.925174 -1.518015 -0.476300 0.366023 -0.156053 -1.133577 0.468903 -1.987052 -0.620416 -1.994153 0.336159 0.110682 1.259600 -3.333301 1.418786 -1.546559 2.146213 0.144978 0.454203 -1.491477 1.112280 -0.487453 0.360952
its -2.253294 1.789345 0.926676 1.257525 -1.123387 -0.431666 -0.079915 -0.314927 1.128443 -1.325137 -1.293022 1.743281 0.365801 -1.698770 -1.224362 1.001317 0.295565 2.306187 -1.882845 0.552325 -2.420273 1.147886 -0.952584 0.817344 -3.075364 -0.265573 -1.013215 0.988006 -0.536179 0.681056 1.440662 0.295490 -0.060845 1.328959 -0.871164 -0.433523 -0.348312 0.889179 3.056751 1.063752 -0.099297 3.092113 -0.438358 0.973642 -0.101856 0.658227 -0.088947 0.720664 1.609065 -2.479108 -0.916672 2.860311 2.203218 -2.197170 1.923035 2.547056 1.633739 -1.519473 -0.926331 -0.173958 0.759291 -1.490571 -0.644293 -0.598049 -1.578087 -1.232955 1.141779 3.479533 -0.662561 2.023560 0.402053 -0.967184 -1.202801 -0.143602 0.630512 0.829703 -0.330044 -1.871857 1.246665 -1.593935 -1.090728 -2.434873 -0.881839 -0.959777 0.055251 1.490436 -2.011362 1.970631 -0.001111 0.531988 0.337808 -1.881429 -0.277042 1.499136 -2.093357 0.404310 1.385545 0.059726 -1.189680 1.275266 -0.064116 0.295686 -0.076733 0.473556 -3.193932 -0.501815 -0.517152 -2.165126 0.709802 -0.744243 -0.656952 1.313738 0.510380 0.644217 1.134755 1.305432 -0.581971 -2.204145 -0.715853 -1.277089 -1.306202 1.123370 -2.944542 -0.972591 -0.583831 -1.754490 0.662846 -0.813452
than 0.825198 -0.866653 -0.325628 0.292973 4.559414 1.010279 1.695090 1.662303 2.372399 2.182631 -1.082813 -0.071244 2.096740 1.647746 -1.587500 2.241439 -0.508467 -1.314432 -2.004367 0.474031 3.105163 0.082822 -0.542958 0.096405 0.864475 -1.372846 -0.733226 1.708884 -1.850336 1.309570 -1.007774 0.301908 2.888282 1.648669 3.390373 2.283942 0.296355 -0.527333 0.368901 -2.592003 -0.464499 -4.025156 -0.040424 -1.079673 -1.570105 -0.368197 0.402622 0.317994 0.746786 -2.652275 1.192630 2.675479 3.912048 2.446408 -0.767072 -1.532638 -1.861630 0.445570 0.371560 0.686529 2.605640 -0.888477 -0.181924 0.115428 -0.479083 -4.043150 -1.586797 0.879394 3.061950 -2.607791 1.542995 -1.703770 -0.325748 -0.395978 1.056626 0.012439 -2.592493 -0.944942 0.193603 -0.711368 1.516366 1.537013 -1.787015 2.062862 -0.687234 -0.849960 -1.761245 0.767856 -1.748640 -3.289801 -1.007921 -0.746392 0.566645 0.912343 2.366502 0.305656 2.327279 0.118558 0.591994 5.092896 2.418499 1.261301 1.192594 -0.521263 1.254074 0.983129 -1.764956 -1.817708 -2.586153 -1.198404 1.259630 2.208569 2.967763 -1.015820 -1.664073 1.452909 1.876400 1.783678 0.827616 0.053558 -0.250516 1.274809 -0.675831 -2.736760 -1.796902 -4.189277 -1.685890 2.134888
other -1.037623 -1.528185 -1.263100 0.479412 -4.273487 -0.733205 -0.705388 -0.432577 -0.163280 -2.965642 -1.142362 1.680622 -1.129174 0.059188 0.768913 1.271705 3.014813 -1.238793 0.909333 1.408486 -1.323079 -0.247089 -1.276869 -0.370711 -0.593130 2.170790 0.413995 1.935363 2.538315 -1.761807 -1.402156 0.520557 0.326104 0.509363 0.454804 0.287569 0.074170 -0.676697 -0.990816 -0.243216 -0.207230 0.107017 1.638716 0.057988 -0.708148 0.577274 1.173833 1.587491 -0.022587 -0.221914 -1.941480 -0.700281 -0.929749 3.584337 -1.542733 -1.178446 -3.044838 -3.097764 0.156567 3.356455 -0.095656 1.107693 0.973912 1.484115 0.328872 2.058515 -0.318286 -0.266826 1.811130 0.442534 -1.653040 -2.331783 -1.497243 1.611929 -0.844671 0.208928 -0.259320 0.860492 -0.461350 -1.378336 -1.271499 1.836999 1.518654 -0.282330 -1.412514 -3.485108 -0.586246 0.996409 0.671189 2.237097 0.338040 0.652540 0.684376 -1.087952 1.045686 -3.944005 -2.909889 -0.466250 -2.092645 0.290126 2.027486 -1.918523 -2.175243 0.392116 -2.145874 1.173614 0.770294 0.591011 -0.365075 0.218557 2.026192 0.115627 1.029494 0.907838 -1.986934 0.185530 1.902636 0.869754 -2.274511 2.475787 1.842819 -0.136756 -0.377293 3.220833 0.241235 0.000205 1.209362 -1.387595
before 1.962409 -0.917888 0.464632 -2.063483 1.271924 -0.021521 -0.228756 1.654907 0.096526 0.549495 -0.578761 -2.060470 -2.510019 -1.212695 0.850973 -1.259650 0.711880 1.073833 0.918512 0.635445 2.242196 1.326734 0.399801 -1.661460 0.059902 1.618146 -2.358683 -0.695479 -0.777917 -2.089283 -0.169991 0.169373 -0.389863 0.046883 -1.380445 -0.927375 -0.383967 -1.236546 -2.395112 -0.491023 -1.241344 0.447330 0.899032 1.090074 -1.111218 -1.906763 -1.240239 -2.344822 -0.695756 0.704449 -2.327200 -0.344210 0.463088 1.767694 2.009717 -0.487092 -1.446996 1.556506 1.905300 -0.382456 -1.899680 -0.699754 -0.581402 -1.197944 0.190388 -0.809346 -0.875110 -1.494064 2.033599 3.028418 1.725688 1.252562 -1.781706 -2.018300 -1.339463 -3.049417 1.719940 1.368814 1.783109 0.489433 -2.364095 3.476023 -0.632432 0.020092 0.536406 1.005451 -0.378209 1.044117 -1.091805 0.872477 -1.491759 -0.985034 -0.627002 -1.530208 0.230988 0.111631 -0.080772 -0.431118 -1.049864 -1.103778 0.194524 -0.179898 0.597998 -0.055077 0.280584 0.087031 -0.654535 0.451296 1.662634 0.791939 -1.349802 0.296157 -1.926189 -0.617415 -0.018770 2.346145 0.923854 -1.390117 -0.503477 0.054817 -0.582754 -1.316484 0.747687 -1.577331 0.159002 -0.498679 -0.738025 0.497935
about 0.831430 -0.314157 -0.911698 0.094372 1.421397 -0.975559 1.964845 -0.635362 0.229225 -0.388520 0.634478 -1.585483 0.923573 0.099494 -2.701264 1.076087 -1.299957 3.878059 0.017250 2.191795 -0.522698 -2.726592 -0.077321 0.236046 1.487330 0.273653 -1.816446 -2.017543 -0.607070 -1.055072 -0.125798 0.334519 2.761817 -0.633062 -1.599615 1.447686 1.415034 3.166041 -1.319902 0.155810 1.178677 0.092206 2.460992 1.717827 1.540176 -0.220572 -1.090971 -2.232055 -2.031605 -1.971276 1.120990 -0.935787 -0.898406 -0.726453 -0.157890 0.064354 -2.382456 -0.217483 3.067339 1.359973 -2.192842 -1.413819 -1.026231 -0.134196 -2.658475 0.256784 -1.877981 -1.615948 -1.060267 3.292733 0.383843 1.829506 -0.560133 -0.478031 -0.691717 -1.164218 1.247654 0.724664 0.648761 1.459231 -0.818321 0.364666 -1.238816 1.382674 -0.676358 0.090222 -1.030632 0.321909 0.261559 -0.841400 -2.340158 0.618647 2.189926 0.235069 1.274596 0.308270 -0.656123 -0.324118 -0.374627 -0.060778 1.007496 -0.825890 0.081304 0.836826 -0.792071 1.286063 -0.668082 -0.700777 1.504374 1.768241 -0.565845 0.133177 -2.077758 0.078429 -0.862368 1.974572 -0.344016 -1.772300 0.587438 0.521473 1.237578 1.616728 1.411748 0.281669 -1.190186 -3.744062 -2.178712 1.537819
