3000 128
<pad> -0.412712 0.963168 0.002782 1.308885 0.466559 1.195724 0.891493 -0.972283 -0.041482 -0.188140 0.073071 0.740168 -0.060627 -0.023857 0.065375 -0.660862 -1.058361 -0.587710 0.543481 -0.149344 -0.550171 -0.194552 0.636807 -0.618449 0.518071 -0.484559 -0.446075 0.664130 -0.052242 -0.949182 1.180031 -0.012887 0.411860 0.462085 0.867936 -0.219127 0.473609 0.507280 0.513006 -0.386431 -1.923153 0.778599 0.098481 -0.205512 -0.899977 -0.673953 -0.522979 -0.123907 0.785060 0.760014 0.109793 0.871044 -0.804908 -1.461487 -1.196025 -1.836523 1.392059 0.089423 0.322433 -0.729460 -0.692759 0.986483 0.231027 -0.787294 0.200160 -0.394654 0.200158 -1.030599 -0.112023 0.253382 -0.264481 -0.260343 -0.193225 0.274509 -0.507671 0.128994 0.475690 0.323840 0.166731 1.313672 -0.318677 0.588625 -0.456708 0.161508 -0.157222 0.900798 0.154958 -0.703300 0.914569 -0.334191 1.076447 -0.059741 0.544485 -0.771279 -0.496327 -0.332613 -0.581993 1.062885 -1.808730 1.503394 0.055316 0.319317 -0.101477 0.460422 -0.225766 -0.102287 0.810091 -0.311185 -0.656440 -0.521114 -0.618770 1.174368 0.675341 0.187066 0.672944 -0.471676 0.141112 -0.434965 -0.565682 -1.820117 0.364771 -0.763839 0.354234 -0.905387 -0.216946 0.862033 0.212073 0.287651
<start> 2.633423 -1.072042 -2.069196 -0.819875 -0.339519 -1.946503 -1.981318 2.246128 0.975454 -0.726392 0.095584 -1.073721 -0.227509 0.479829 -2.188615 0.307238 0.865601 -0.620162 0.746136 0.567233 1.745219 1.727299 -0.861402 1.764092 -1.591892 0.789531 1.485484 1.186612 -1.441361 2.193076 -0.825526 0.574120 0.042414 -0.744211 -0.956032 1.743095 1.606202 -1.538852 -0.232287 -1.256760 1.594224 -1.171821 -0.750018 0.616726 0.975373 0.952624 1.283219 0.100603 -1.372460 -1.714903 0.035187 -1.405084 0.584400 1.140532 2.132090 1.839919 -2.269554 -0.404923 1.151803 0.682044 1.328181 -0.553120 0.649765 -0.022873 -1.064136 1.509851 1.205132 0.816106 1.710487 -0.564244 0.210238 2.231767 -0.733450 0.192775 0.974717 -0.633565 -0.196020 1.338889 0.008113 -0.311188 0.023663 -0.518381 1.406824 0.828025 1.327566 0.974831 -0.570440 0.174972 -0.408295 -0.914707 -0.301132 -0.757949 -1.225522 1.588535 2.394965 0.903765 -0.001431 -0.951544 0.038902 -2.030581 0.628260 -0.363873 -1.267395 -0.998928 0.314276 1.158551 -1.718579 -0.930243 0.348136 -0.436459 1.566237 -0.857208 -0.574679 -2.833096 -0.585889 1.271058 -0.324320 0.170009 -0.643781 0.657666 -1.093521 1.669389 0.015240 1.296414 -0.027859 -1.097681 0.851341 -0.004517
<end> 0.551264 -0.555546 -0.302651 -1.451410 -0.423112 -2.024708 -0.759695 0.606058 0.238705 -0.746901 0.942318 -0.928031 -0.076631 0.508543 0.741880 0.820467 2.174654 0.623690 -0.293665 0.084916 0.040768 0.541316 0.218271 -0.470697 -1.833315 0.935186 1.343317 -0.920800 1.575876 2.047609 -2.187658 -0.369471 -1.810662 -0.663909 -0.561509 0.446599 -1.740254 -0.593474 -1.363949 0.695336 1.384502 -0.715420 -0.008079 -0.099425 1.834779 1.543775 0.863724 1.128559 -1.762343 -0.195634 0.487426 -1.708330 1.277935 2.238167 2.389561 3.175215 0.696035 0.105698 -0.897638 0.839776 0.044673 -1.315774 -1.398224 1.865480 -0.792107 0.327601 -1.911572 0.228285 0.330072 -0.701100 0.933307 0.752897 1.281628 -0.754633 0.701014 -0.174647 -0.701265 -0.752974 -1.036186 -1.875210 -0.169217 0.879590 -0.505294 -0.731701 -0.592121 -0.093513 -1.508149 1.918680 -1.878419 1.179574 -1.353521 1.944569 -1.150529 1.872943 0.257679 -0.311457 1.318802 -1.968023 3.499654 -2.140979 -0.862382 -0.027666 -0.370851 -0.111159 0.941240 -0.681329 -1.179824 -0.661130 1.275705 0.698761 0.373217 -1.694682 -1.001565 -1.581801 -1.601872 1.193202 -1.164752 2.083347 0.127742 2.733998 -0.462295 -0.009308 -0.679474 0.408789 0.849525 -1.515762 -0.226368 -0.093047
<unk> 0.321669 -0.736769 -0.657541 -0.141788 -0.643473 0.276079 -0.488164 0.419231 -0.073881 -0.224430 -0.198171 0.336771 -0.121937 -0.436549 -0.171251 -0.491234 -0.007496 -0.467848 -0.072165 0.188363 -0.204594 -0.246251 -0.543963 -0.450396 -0.382628 0.028935 0.095537 0.281979 -0.210823 -0.403733 -0.416643 -0.323860 -0.119699 -0.016072 0.141984 0.456983 0.520165 0.301226 -0.176016 0.251364 -0.207779 -0.461946 0.262564 -0.235411 -0.287099 -0.310392 0.472172 0.246023 0.552053 -0.423183 0.057564 -0.143311 -0.046421 -0.052585 0.129391 -0.174215 -0.289580 -0.236402 -0.089603 0.023964 0.050125 -0.594455 0.118943 -1.000453 -0.087556 -0.292158 0.272745 0.273789 -0.485003 0.574146 -0.004748 0.943893 -0.663033 -0.333206 0.463294 0.267417 0.327167 -0.193971 0.463413 0.060860 -0.266740 -0.227493 0.214663 -0.618185 -0.122910 -0.360739 0.148145 -0.197640 -0.313869 0.738250 0.072647 -0.209508 0.176413 -0.439669 -0.637172 -0.112851 -0.466659 0.350838 -0.566324 -0.006029 0.195057 -0.043741 -0.026718 -0.198981 -0.929919 0.473074 -0.162260 -0.270858 -0.269597 -0.453567 0.270172 -0.414266 0.368704 0.058172 0.313342 -0.181973 0.133477 -0.378059 -0.147008 -0.182783 0.060468 -0.182131 0.262426 -0.127598 0.222530 -0.056582 -0.010817 -0.209981
the -0.303495 -1.158220 -0.139716 -0.597317 0.446178 -0.342492 0.894564 -0.816603 -0.251762 1.065204 -1.314166 -0.801381 -0.121647 0.449859 1.173638 0.503935 0.348606 0.130752 -0.526582 -0.790353 0.555394 -0.705993 -0.377517 0.687849 0.228815 0.229273 -1.204551 -0.477790 0.503591 1.248531 0.819789 0.165672 -0.145509 1.029114 -0.055273 -0.366927 -0.500116 -0.411910 0.566146 0.532432 0.227018 -0.509738 -0.602349 0.704967 0.311334 -0.170554 0.779554 -1.434104 -0.851963 1.232014 0.061918 0.088580 -0.468253 0.477822 0.691560 0.784948 1.759872 0.048374 -1.751562 0.285588 -0.533967 0.558926 -1.308550 0.074776 0.819584 0.252228 0.076074 -0.538170 0.910736 0.002601 0.132448 -1.555257 0.484708 -1.016885 0.227668 -0.957119 -0.773973 -0.084523 -1.437202 -1.282372 1.097665 0.681481 0.040209 1.687711 -0.461592 -1.198213 -0.427138 0.944787 -0.531568 -1.210972 0.058941 -0.066387 -0.273482 0.566362 -0.310562 -0.653719 0.884910 -0.262654 -0.198822 -0.520238 1.497726 -1.220134 0.400835 1.385224 0.619064 -1.033904 -0.105256 1.665829 0.093390 -0.604227 -0.861717 -0.631106 -0.126766 -0.125079 -1.138581 -0.049132 -0.718751 0.097098 -0.016304 0.088649 -0.057728 -0.277215 -0.106940 -0.489405 -0.065619 -1.063368 0.012606 0.938751
and -0.069695 0.469867 1.081638 -0.637281 0.885036 0.154085 -1.105096 0.003155 1.121664 0.175861 -0.458388 0.445339 -0.924560 0.388151 -0.535698 1.017663 0.086177 0.556906 0.201513 0.377585 0.429892 0.630522 0.945991 -0.303369 0.368245 -0.037358 0.166066 -0.799745 0.582642 0.627388 0.134144 -0.861630 0.504764 -0.204642 -0.180520 0.360593 0.195867 -0.046730 1.204088 -0.171026 0.001615 0.497593 0.180512 -0.022864 0.854398 -0.227651 0.977242 -0.670485 -0.088217 0.456281 0.162936 0.196339 -0.262877 -0.204316 -0.417196 0.424400 0.074949 0.791912 -0.142400 0.620036 -0.464004 0.204242 -0.104178 0.354810 -0.256644 0.127268 -0.760830 -0.591015 0.247272 -1.371992 0.798963 0.138900 0.249430 -0.483788 0.267200 -0.163455 -0.990398 0.380862 -0.692158 0.688293 0.044395 -0.387418 -0.095744 -0.329732 0.427628 0.902674 -0.011385 0.756381 -0.047508 0.631958 0.010475 0.532199 -0.605219 0.310198 -0.552148 0.000282 -0.176285 0.091272 0.557124 0.187357 -1.238164 -0.300597 -0.418528 -0.249039 0.828984 -0.039904 -0.593457 -0.119470 -0.440596 0.340759 0.003117 -0.302695 -0.223326 0.068568 -0.005466 0.225048 -0.557635 0.011593 0.179716 0.657597 -0.130515 -0.352151 -0.709388 0.226313 -0.393054 -0.105686 -0.730989 -0.019809
of -0.328446 -0.389897 0.907238 0.028817 -0.893281 -0.065234 -0.122041 -0.743749 1.266723 1.225735 -0.956401 0.892149 -0.473403 -0.838333 -1.225767 -0.920549 -0.595029 1.243388 -0.712532 0.124830 0.521196 -0.053049 0.749045 -0.045975 0.054096 0.487231 1.502174 -0.128952 -0.333535 -0.810737 0.038818 1.125417 -0.095391 -0.868281 -1.150759 -2.006859 -0.491359 0.742009 -1.672261 -0.171087 0.379449 0.129452 1.080399 1.456793 0.533746 0.468988 0.739674 -0.389722 0.164819 -0.207152 0.383239 -1.376138 -0.063193 -1.213970 0.161054 -1.091285 -1.913128 1.240054 -1.218372 -0.217461 1.066409 -0.094833 -0.795535 1.936426 -1.001222 1.343832 -1.083207 -0.357077 -0.905436 0.416668 -1.046567 0.403494 -0.050536 1.329734 -0.808571 0.365387 -0.783113 -2.253240 -0.059256 1.529505 0.799138 -0.631551 -0.954457 0.287983 -1.080575 0.352896 0.461254 -0.243299 0.737983 -0.238682 -0.245525 1.809503 -0.761026 0.996859 0.362320 -0.955446 -0.005067 -0.763705 -1.127995 -0.566064 -1.549511 2.172652 -0.978341 0.875859 0.568945 -0.888687 -0.011264 -0.548843 0.714202 1.792904 -0.822308 1.765070 -0.484465 -0.980149 -0.744424 -0.830557 -0.318064 1.134851 -0.133028 0.454528 -0.581549 -0.657110 -0.756805 -0.457998 1.304397 1.799252 0.241272 0.992700
to -0.593211 1.375640 1.043682 -0.195165 0.765373 0.331600 -0.755144 -0.899416 -1.640255 0.550862 0.610342 -0.848946 0.215158 -0.163695 0.002820 1.563280 0.752057 0.100281 0.448669 1.213188 0.302089 1.471721 0.961482 0.315790 -0.056074 -1.164127 0.561004 -0.999347 -0.028998 -0.957459 -0.033810 1.174225 0.182174 -0.609759 -0.275497 0.008137 -0.235274 0.350674 0.461686 0.467869 1.037640 1.242454 1.165805 0.688454 0.497872 1.040921 -4.581086 0.072660 -0.353134 -0.359512 -0.783763 0.029307 1.187346 -1.248373 0.881140 0.047508 -0.587653 1.058717 -1.334879 -0.573023 -0.251262 -0.232164 0.694411 0.641246 0.131060 0.491029 0.839668 -0.077204 0.450017 -1.047193 1.189759 1.276500 0.162958 -0.375376 -1.404340 1.251750 -0.356434 -0.294068 0.032480 -0.297248 -0.408773 0.486119 0.676148 -0.022330 -0.690395 0.296231 -0.148056 0.790749 0.315676 0.078898 0.705329 0.715344 -1.360476 0.057412 2.620973 -0.262943 0.723844 -0.752264 -0.367340 -0.430331 0.811980 0.380882 -0.741401 0.471457 1.179100 0.162255 -0.210696 0.816985 -0.106811 0.161494 0.495299 0.850213 0.055295 0.285105 -0.097001 1.372511 -0.275216 -0.554901 0.155087 0.799828 -0.971290 -0.741792 0.373173 1.177677 -0.663540 0.102525 -0.708439 1.780676
a -1.725171 0.473541 -0.814465 0.165705 0.901518 -1.882770 1.020703 0.502496 -0.568854 2.036066 -0.549518 0.100227 -2.495398 0.537856 -0.019443 -1.070529 0.919517 0.178879 -1.296517 0.226579 0.147474 0.104638 -1.353987 0.302832 0.357435 0.450219 0.233286 -0.419748 1.798290 1.547537 1.037281 -0.375639 -0.709540 0.318595 -1.781076 -0.715225 -0.758529 -0.684503 0.576681 -0.192421 1.844118 0.098190 0.186133 -1.094197 -0.071408 -0.269834 0.177021 -0.649728 -0.481430 -0.247370 1.195631 0.093228 -0.644650 0.234023 1.312103 0.146016 0.542578 0.550782 -1.787556 0.490366 -0.573874 0.987888 -0.793021 0.584336 -1.006319 0.102215 -0.555543 0.111240 0.160190 0.420850 0.260565 -1.408495 1.433753 -0.836651 -1.005709 -2.484394 -0.305351 0.292249 -0.682781 -1.469265 -0.713087 0.270612 -0.002995 0.531489 -1.578631 -0.642962 0.224964 0.229435 0.142467 -1.732866 1.316649 -1.402017 3.409297 0.392052 0.283954 -0.830465 0.198612 -0.476193 0.808022 -0.146535 1.862986 -1.482730 -0.054640 0.529652 0.174276 -0.216150 1.278616 1.182573 1.842201 0.681271 -1.494529 -0.922795 -0.402856 0.443834 -0.841250 -0.080610 -0.814266 -0.665474 0.844722 0.675667 -0.503508 0.364564 -1.072209 -0.995850 -0.660057 -0.440949 0.761056 -0.279293
in -1.678312 -0.538596 1.615286 -0.216116 0.273091 0.660383 0.090647 -0.931507 -0.251573 -0.398111 -0.160236 0.469351 0.128243 0.481168 -0.126744 -0.006682 0.529763 -0.345490 -0.270000 0.384943 0.697958 1.623975 0.877460 -0.069680 0.191213 0.627717 -0.784812 -0.123428 -1.273079 -0.999474 -0.606337 -0.764256 -0.704386 0.116553 -0.102982 -0.426154 -0.548207 0.326192 -0.594254 -0.368885 1.438588 -0.633400 0.710361 0.269868 0.891078 -0.586220 0.923619 0.166441 -0.712224 -0.937634 0.921232 0.950583 1.654379 -0.580975 -0.270202 0.058733 -0.798233 -0.122633 -1.152367 -0.318332 1.216831 0.209294 -0.484809 0.816002 0.246972 -0.232719 -0.351137 -0.759426 -0.245530 0.743969 -1.645465 0.001156 2.366349 1.118314 -2.395998 0.107938 -0.079604 -0.635268 -0.097179 0.623580 -0.066182 0.033867 -0.503397 -1.623161 0.237557 0.994925 -0.987208 0.366406 -1.293542 -0.390764 -2.346515 -0.038761 -0.836254 1.165365 0.522488 -1.119559 0.426804 0.061542 -1.066907 1.496494 -0.410744 -0.135969 -0.563606 -2.097169 0.369075 -0.329910 0.328281 0.181904 -1.447775 0.655834 -0.641314 1.479572 -0.393001 -1.021570 0.212660 -0.346900 -0.915646 0.088364 -0.791199 1.691578 -0.415601 -0.167554 -0.201713 -1.105315 0.094570 1.260329 -0.562162 1.163428
i 0.369679 0.370928 -0.118415 0.262601 0.155754 -0.845641 -0.574005 1.725484 -0.447073 -1.317430 1.079428 -1.211951 0.199332 -0.289906 0.588044 0.473658 0.149378 -0.652549 0.371608 -0.449807 -1.558080 -0.222307 0.972389 -0.485105 0.002737 -1.171871 -0.916732 0.046029 0.398828 0.930255 1.435948 0.829998 -0.217441 -0.037119 -1.614036 -1.072103 -2.402351 0.059867 1.817056 0.867640 -0.094317 -0.774580 0.210670 0.074230 0.280123 1.251613 -2.505815 0.259170 -0.177642 -0.741021 -0.127626 0.335959 1.083236 -0.952840 -2.327863 0.043036 -0.315313 -1.989061 1.645231 0.011869 1.146831 0.877831 0.921837 0.694053 1.362907 -0.502033 -0.423676 -0.523170 0.207793 0.009804 0.121527 -0.980788 -1.163536 -0.374792 -0.637959 -1.288687 -0.366566 0.380788 -0.680586 -0.848005 0.241761 -1.455503 -1.861132 -0.750608 1.038755 0.838966 0.316109 -0.613355 -1.064485 -0.491871 1.306081 0.286437 -0.405687 0.835488 -0.779064 0.834419 -0.723214 -0.424972 -0.527671 0.572634 -0.738063 -1.157669 1.131526 -0.117849 -0.475104 -0.719674 0.775208 0.350946 1.272963 0.472795 0.454595 -1.721532 -0.090167 -0.622553 -0.441042 0.687252 0.827454 0.798824 0.766491 -0.522640 1.164620 1.853686 0.034140 2.318920 0.196939 -0.670717 -1.462346 0.009110
he -0.233056 -0.634360 0.105080 -0.287026 -0.732543 -1.441690 0.188694 0.845686 -0.666338 -2.574998 -0.071341 -0.145598 1.224109 0.241388 0.370687 1.264704 0.190827 -0.151247 -0.071187 -0.470361 -0.476014 -0.221909 0.577448 -0.961451 0.757034 -0.101888 -1.989406 0.127132 -0.115511 -0.128269 1.700650 -0.008685 -0.249373 1.874456 -0.424340 -0.111770 -0.964174 -1.074692 0.417300 1.225277 -0.397976 -0.684404 -0.062938 -0.450756 1.306858 1.194519 -0.773927 -0.397372 0.131225 0.951008 0.165151 -0.278784 -0.572523 -0.956143 -1.137869 -0.117581 -1.442935 -0.547985 1.955994 0.147982 0.029814 0.200677 1.076819 0.335407 1.487953 0.327262 0.045411 0.119268 -0.262730 0.094379 0.698697 0.678419 -0.576343 -0.310431 0.156693 -0.252560 -0.139037 1.633198 -1.141273 -0.457283 0.289604 -1.192781 0.030748 0.305406 0.293789 0.360979 0.108210 0.145139 -0.539355 -0.486824 0.528332 -1.051660 0.352067 1.003830 -0.516011 -0.501929 0.090684 -0.481676 0.527140 0.193765 -0.479650 -0.054785 0.520703 -1.190399 0.953969 -0.499020 2.366252 -0.213991 1.473542 0.871358 1.995569 -2.820488 0.539303 1.628659 0.590376 0.151468 -0.074661 0.110269 1.065218 0.373364 1.208427 1.312771 -0.105478 1.722536 0.663064 -0.607835 -0.401349 0.742547
that 0.400739 0.447872 -0.149448 0.948219 -0.107276 -1.222765 -1.035879 0.748127 -0.493972 0.443005 -0.188102 0.242107 0.258158 -0.360522 0.705293 0.167370 0.479699 0.134490 -0.056180 -0.008171 -0.812678 1.248634 0.090560 1.526684 0.499417 0.360778 -0.342504 -0.085214 -0.576051 0.969207 -0.110235 -1.618659 0.890927 1.145932 -0.829072 -0.759887 -1.218578 -1.467553 -0.798546 -0.671464 -0.422462 -0.024158 0.518074 -0.789408 0.863142 -0.477668 0.508555 0.402731 -0.802512 -0.071390 -1.272693 -0.833385 0.683554 0.583611 0.166021 -0.851417 -0.180835 0.456025 0.705969 -0.658006 0.689646 0.652777 -0.483825 0.578258 0.226417 0.000688 0.049534 0.558053 0.716931 -1.051354 -0.320584 -0.165696 -0.187192 0.962909 -0.632876 -0.454262 -0.301228 -1.160188 0.834473 0.276655 -0.260587 0.313066 -0.024053 0.614500 -0.322063 -0.735933 -1.253175 0.306154 -0.010712 -1.383256 1.433916 1.227909 1.001844 -0.844696 0.278282 0.076034 1.271163 -1.025362 -0.064974 -0.287950 -0.604701 0.254262 0.440702 0.807766 0.752743 -0.340026 -0.287857 -0.218149 0.280958 0.258634 0.575259 0.669258 0.246028 -0.552471 0.069550 0.023667 -0.761497 0.160412 -0.353496 -0.591361 0.816653 -0.910923 -0.224568 -0.740260 -0.907947 -0.468443 -0.633915 0.710655
his 0.202872 -1.601328 1.256724 -0.113126 0.788488 -0.802275 0.979914 -1.392955 0.733078 -0.318654 -1.490930 -2.424100 -0.568155 0.598935 -0.590614 -0.192277 -0.556414 0.888788 -1.543216 -2.304992 -1.139083 -0.394600 0.294422 0.995330 0.725305 0.199665 -0.158188 0.099551 -0.909441 -0.207478 1.083898 -1.434169 -0.592462 -1.518664 0.058439 -1.637152 -0.114251 1.178081 0.656063 0.423531 -0.164370 0.306625 0.225420 0.690306 -0.162882 -0.605023 -0.591118 -1.407642 -1.027411 1.088513 0.602188 -1.274846 -1.266365 0.769556 0.034923 -0.619949 0.361950 -0.726967 -0.806768 2.011240 -2.120552 1.386178 -0.040949 -0.187046 -0.050653 0.172018 -0.310929 0.330008 1.452479 0.258575 0.398979 -0.564593 -0.747844 -0.029305 -1.064681 -1.269251 -1.069714 -0.216100 -0.615119 -1.782097 0.103773 0.547498 0.921248 1.373068 0.895995 -1.593798 -0.397205 0.472397 0.800579 -0.719199 -1.195037 0.857839 1.745567 -0.548664 0.096130 -0.539975 -0.325045 -1.183775 2.208414 -1.269541 -1.030760 -0.164829 -0.680317 -0.617333 1.238528 -0.570134 1.730278 1.755704 1.450572 0.965923 -0.523267 -1.344658 0.280158 0.828436 0.541351 0.823372 -0.243439 0.121049 0.449892 -0.146105 -0.552831 -0.235500 0.303009 -0.584656 -0.209418 -1.275316 -0.828979 -1.123116
was -1.027252 0.143809 -0.488954 0.040726 0.794285 1.359517 1.196740 -0.533347 1.929432 0.196868 0.549689 -0.410795 0.675946 -1.191741 -1.952620 1.587770 -0.917026 0.625475 -1.755070 2.021782 2.264329 0.497514 -0.904745 0.699968 0.866435 -0.075749 -0.566831 -1.059093 -1.229718 -0.395256 1.522353 1.482023 -0.749204 0.364317 0.752385 -0.102394 0.896419 1.492842 -1.094105 0.904864 -0.117978 -0.108265 -0.186077 0.147974 -1.131584 1.100065 0.093782 1.471107 -0.269609 -0.341905 0.393893 1.635610 1.117517 2.391113 -0.307698 -0.027930 0.679065 -0.512746 1.301751 -1.056903 -0.876088 0.031586 -0.964760 1.057333 -1.366551 -1.211511 -0.163569 0.289113 -0.602315 0.987482 -0.228719 -1.412314 1.181914 -1.687967 0.760312 0.707957 -0.031211 -0.986963 -0.368152 -0.401231 -0.652169 -0.316038 -0.671222 0.175567 -1.318087 -0.416813 0.353409 -0.056736 -0.266070 -0.530248 -1.838636 -1.039717 0.820328 -0.693228 -0.712251 1.169452 0.358795 0.134635 1.846950 -0.149386 -1.680931 -0.124072 0.922196 0.397784 0.533431 0.570303 0.320033 -2.727704 -0.289086 0.301075 -1.989339 1.471059 -1.002657 -0.182125 0.086595 -0.473672 1.296891 1.230289 1.053480 0.266988 -1.447745 -0.220828 -0.421558 -0.625319 -0.551709 -1.302794 -0.645177 -1.031773
it 1.738812 1.221402 -1.984567 -0.635732 -0.741426 0.013223 -0.939765 0.299653 -1.088022 -0.878990 -1.037807 0.387890 1.154424 0.434640 0.054907 0.246424 0.767866 -0.114491 -0.039152 -0.930671 0.064874 -0.508815 -0.529996 -1.260470 0.260225 -0.190024 -1.359268 -0.675231 0.543087 0.242118 -0.320577 -1.194160 -0.718160 -0.367905 0.557818 0.323842 -0.052129 -0.735603 0.813817 -0.167332 0.808603 1.035921 -1.014151 -1.501814 -0.746863 0.329785 -1.252779 -0.934909 -0.374476 0.015421 -1.266952 0.244564 -0.164772 0.048416 -0.628149 -0.489486 -1.278382 -0.265561 1.110549 -0.224624 0.782786 0.768377 1.007258 -0.337773 1.386167 -0.208941 -0.191495 1.228491 1.060064 -0.150341 -1.026332 -0.244666 -0.231765 -1.501971 -0.613073 -0.078998 0.495747 1.176603 0.081691 -0.319625 0.385310 0.674479 0.757755 0.216537 0.239823 -2.000681 -0.630415 -0.757572 -0.305802 -0.497612 1.175179 0.048426 0.235793 0.851714 -0.384420 0.779809 -0.365033 -0.266136 0.754769 -0.036266 1.011456 -0.322292 0.634832 -0.288965 -0.351769 0.440903 1.243932 -0.329708 1.255717 1.342506 1.864460 -0.934323 0.472885 0.157108 0.512922 -0.528931 0.382812 0.259338 0.478511 -0.649590 1.174676 0.764336 0.626283 1.696860 -0.743858 0.377943 0.610325 0.700701
you 0.901826 0.068100 0.462792 0.850975 0.177993 1.330222 0.587712 1.161892 -1.432176 -2.792280 0.531168 -0.261523 1.583334 -0.528863 0.374756 -0.511528 1.164223 0.183432 -0.143037 -0.569153 -0.494259 -1.177722 -0.962637 0.053668 -0.232481 -0.995342 -0.207013 -0.009010 0.037496 1.330938 1.064423 1.303168 -0.345188 -0.326655 -1.891298 1.247192 -2.271897 -1.002017 1.359121 0.738871 0.174461 0.447008 -1.289621 0.456472 -1.029333 0.001050 -2.849067 1.044654 -0.468067 -0.081026 -0.164681 0.788133 -0.505521 -0.184076 -0.632540 0.471590 -0.362680 -0.605579 -0.373676 -0.990133 1.186908 1.186633 -0.161258 1.128542 0.342543 0.850377 -0.002196 0.511941 1.058600 1.592035 1.264484 -1.419588 -1.554123 0.548223 1.785820 -1.745708 -0.306073 -0.380477 -0.058979 -0.107813 0.005048 0.586306 -0.164569 -0.728698 0.891396 1.192583 0.551700 0.218755 -0.160377 -0.787493 0.973839 -0.135299 -0.573564 -0.034943 0.157537 1.247678 -0.160761 -0.983792 -0.117778 1.429653 -0.311980 -0.097186 -1.131202 -0.669138 0.173988 -0.563327 0.780995 -0.597985 0.791887 1.277321 0.641354 -1.212521 -0.126959 1.053345 -0.011198 0.452262 0.965686 -0.469442 -0.005483 -0.845906 -0.458704 -0.320471 -1.404270 0.999270 -0.981195 -0.150977 -1.789169 -1.533784
with -2.824257 -0.590855 1.321180 -0.273665 -0.824962 0.311541 0.878100 -0.875449 -0.324610 0.006707 0.204663 0.017349 0.018510 -1.736179 0.716402 0.886522 0.089736 1.207631 0.869710 0.992845 0.435965 -1.595743 1.376597 1.366691 0.498943 -0.050586 0.160070 1.017168 -0.160832 0.267620 -0.662672 -0.744877 -0.952178 -0.751666 0.014730 1.059318 0.931811 1.895462 0.518791 -0.635163 -0.709298 -0.273489 0.379298 -0.907138 1.395574 0.462431 1.143984 -1.511238 0.553517 0.718928 0.490984 0.671846 0.776354 0.200905 0.076955 0.828659 -0.817878 1.823158 -1.358369 -0.388559 -0.685707 -1.096524 1.809779 0.449718 -1.534266 -0.005981 0.064015 -0.101533 -0.011782 -0.595594 -0.193058 1.134271 0.433321 1.615913 -1.951366 -0.191995 -1.657754 -0.096096 0.148803 -0.043249 -0.384126 0.142316 -1.341779 -0.762194 1.214442 0.428064 -0.100328 -0.395269 0.874465 -0.204129 -0.307143 0.403470 -1.872935 -0.207537 -0.373622 0.573167 -0.114200 -0.335958 1.270652 0.584092 -2.326331 -0.336640 0.564545 0.129133 0.999861 0.031309 0.402781 -0.464176 0.430465 -1.129125 -0.256608 2.218377 -1.325363 -1.492637 -0.379892 -0.251860 -0.181111 0.212087 0.654275 1.775046 -0.808795 -0.499077 0.608813 -0.444195 -0.055424 -0.757287 0.997606 1.307236
is -0.509973 1.384627 -0.288469 0.633585 0.248272 1.495631 1.209261 -0.150546 2.266636 0.916735 -0.141590 -0.565030 1.258676 -1.623182 -2.055047 1.421196 0.055410 -0.028217 -1.213552 0.969350 0.102849 -0.590634 -1.985583 0.164998 0.023220 -0.714551 0.915736 -0.498634 -0.435942 -1.144397 0.022937 1.390479 -0.110239 0.093712 0.269457 -0.350817 0.667666 0.613738 -0.498606 1.114475 0.440093 -0.195125 -0.464190 1.594398 -1.423870 -0.172861 0.399371 0.783688 0.793867 -0.816675 2.301972 3.001198 0.871849 1.648416 1.419865 -0.523503 -0.799912 0.037672 0.618345 -1.782977 -0.530610 -1.005787 -2.040381 0.733888 -0.379486 -0.937088 -0.227003 0.672055 0.424325 0.106018 -0.365520 -1.545059 1.382193 -0.577200 0.505719 0.459611 0.137604 -0.681987 -0.025567 -1.498813 -0.188885 -0.026822 -1.642589 0.374251 -0.955784 1.211631 1.270594 0.779297 -1.858387 0.615513 0.300653 0.416732 0.361523 -0.407091 -0.330966 -1.230539 1.606117 0.464484 0.144772 -0.406289 -2.495133 1.141157 0.926675 1.493942 0.385959 0.739423 0.422019 -2.589920 -0.231470 -0.279401 -2.051010 1.815756 -0.208502 -1.023884 0.682330 0.684668 1.561594 1.237296 0.756356 0.218899 -0.919595 0.449853 0.061450 -0.944755 -0.190753 0.707128 -0.823402 -1.624391
as 0.493748 -0.633651 -0.490258 0.120923 -0.169500 -0.453239 0.671625 1.169883 -0.604027 1.634909 -0.045887 0.506042 0.138743 -0.014402 0.275327 1.352103 -0.359804 0.096096 -0.089999 0.557990 -0.536547 1.627187 0.129332 -0.588863 0.042177 -1.314401 0.888120 1.565178 -0.006749 -0.618239 -0.749659 -0.207501 0.501777 -1.142117 0.161180 -0.145244 0.288843 0.319251 -0.408402 -0.868712 0.665539 0.602754 0.642236 -0.918029 0.459530 -1.715673 1.046695 -0.369816 -0.200955 0.036272 0.043257 0.556120 -0.133742 0.227372 0.307145 0.768856 0.157090 -0.059912 -0.542804 -0.487447 1.289792 -0.647967 0.248141 -0.925097 0.461878 0.402038 0.838181 -0.562465 -0.292254 -0.529333 1.022901 -0.585474 0.485794 1.017667 -0.297924 0.999829 -0.032020 1.704539 -0.146504 2.411134 0.188520 1.077049 -0.200787 0.077790 -0.164105 -0.163547 -0.948616 -0.596964 -0.253262 -1.094719 -0.713549 1.173510 0.702326 0.059680 -0.235695 0.531412 1.583293 0.305136 0.888289 -0.303302 -1.752460 -0.056249 1.365122 -0.679230 0.764641 0.166848 -0.201843 -0.435106 0.026821 0.385124 -0.180978 -0.448663 0.300904 0.130182 -1.516959 -0.528586 0.477285 -0.008930 0.390792 -0.718294 -0.331154 -1.507228 -0.302737 0.163263 -0.251953 -1.061683 0.156262 -0.137635
not 0.271184 -0.267947 1.454440 -0.306274 -0.215256 1.542366 0.453474 0.043199 -0.896736 1.255650 0.952446 -0.318519 0.274448 1.109683 0.176534 -1.227975 0.808020 -1.381664 0.485690 -1.170393 0.317604 0.565120 -1.560443 -0.321268 0.589846 0.562513 0.757851 0.459828 -0.682508 -0.383725 -0.500307 -0.783176 0.870978 -0.868932 0.935116 1.414399 -0.047676 -0.985834 -0.520604 -0.399487 -0.721700 -1.111605 0.504342 1.402582 1.265870 0.199567 -2.581368 0.976107 -0.798528 0.172034 0.389652 0.603547 -1.042361 1.140969 -0.276247 0.986899 1.356590 0.079262 0.435582 -0.728677 1.067935 0.016910 2.350929 -0.092426 0.326962 0.706003 -0.541659 0.881903 0.047325 -0.792040 0.796912 -0.869014 -1.477723 1.021048 0.811224 -0.483084 -0.070085 0.722959 -0.172159 0.434389 -0.503481 0.681718 -0.356295 -1.280894 -1.405021 -0.138044 1.207730 -1.237689 0.340186 -0.817693 1.522521 0.766254 -0.061454 0.698573 0.290404 0.243438 0.286601 -2.121411 -0.426376 0.620461 -0.268604 1.950776 1.596963 -0.567204 0.026731 0.086676 -0.044246 0.965566 0.349873 1.250326 0.358570 -0.346750 -1.843534 -0.346715 0.783971 -1.143522 -0.304524 0.500676 -0.361077 0.422366 -0.500298 -0.511786 0.810887 0.365999 -0.662554 0.796631 0.480336 0.998652
for -0.296066 -0.237267 1.306512 1.332248 -0.909569 0.213207 0.701896 -0.567362 0.347584 -0.346374 -0.132542 1.237373 0.146107 0.379424 0.442362 1.226679 -0.914175 -0.299481 1.569142 1.565020 0.414793 -0.238041 1.035392 0.956057 -1.136924 0.314348 1.234669 -1.234122 0.858137 0.502287 -0.530583 0.280225 -0.558582 -0.361061 -0.802261 -0.659165 1.846291 1.313880 -1.689231 -0.310824 1.574753 -0.300430 1.332744 0.607866 -0.350934 0.316304 -0.728418 0.709177 -0.965031 -0.196823 0.200055 0.775522 0.217969 -1.494556 0.195850 0.366611 -0.522982 0.222685 1.060324 -0.813811 -0.158759 -1.047711 1.038953 0.697029 -1.070660 0.890494 -0.657136 0.370333 -0.037885 -2.242059 -0.033182 0.054093 0.410133 0.636339 -1.093433 -0.174388 -0.359367 -2.921830 -1.858369 0.909104 -0.617519 0.521295 0.078829 0.504219 0.944308 1.852712 0.615080 -0.528395 -1.220412 -0.254317 -0.108519 0.067952 0.861762 -0.664463 -0.024562 1.156709 1.022409 0.447677 0.895477 0.115108 0.261804 2.081175 -0.392132 -0.280310 -0.578552 -1.132941 -0.539613 0.406854 -1.639596 1.232275 -0.377194 -0.452907 0.439550 -1.527474 -0.409670 0.713721 -1.273096 -1.082255 0.087104 -0.090601 -0.244217 -0.076655 0.454321 -0.238016 -0.357112 0.310720 -0.294118 0.994227
had -1.760304 -0.016864 -0.662323 -1.665859 1.295648 0.155872 2.960981 -0.750162 -0.042960 1.384205 0.807114 0.096876 -0.524697 -0.543525 -1.375793 0.177008 0.634462 2.139620 1.098344 0.145570 0.123141 -0.444974 1.551670 1.142291 -1.698233 0.419949 -2.903882 -0.008544 -0.806845 -0.295087 1.274175 0.498154 0.098511 -0.406730 0.541042 1.277051 1.515999 1.036416 -1.217624 -1.082456 0.875749 -0.349936 0.910555 1.589900 -0.131978 0.318918 0.783456 1.455353 -0.633026 -0.038144 -0.809188 0.454093 0.635320 0.793189 -0.548336 -2.106008 -0.194156 1.246038 0.975088 -1.937019 -0.816920 -1.706420 0.011273 0.490052 0.350573 -0.771042 -0.492449 -1.116422 1.718232 -0.222839 -0.494726 -1.716413 1.288251 -0.830669 0.711142 1.476567 0.927850 0.778463 0.357087 -1.876506 -0.787035 -0.372671 -1.162031 -0.467613 -0.245512 -0.638033 -0.661830 0.418666 0.643920 -1.473835 -3.218280 -0.121248 -0.142259 -1.552727 0.086027 1.662070 -0.910337 0.561156 2.330423 -1.646196 -1.207573 1.032648 -0.262639 0.411046 -1.181817 0.961858 -1.474151 -1.602409 -1.161305 0.926522 -0.566940 0.971719 -0.670312 0.773379 -0.250243 -1.380428 1.300506 0.486999 0.179080 -0.707985 0.823311 0.428629 -1.265201 -0.403202 0.196180 0.164492 -2.003641 -1.550087
but 0.059120 0.723910 0.067449 -0.506385 -0.580476 -0.717833 -0.528193 0.757189 0.655834 -0.610280 0.430623 1.684970 -0.435386 0.910308 0.071486 1.324924 0.287588 -0.661171 0.338105 -0.194096 0.133500 0.690353 0.355462 -0.577665 0.016093 -0.738105 0.094650 -0.476075 -0.019231 -0.079346 0.192443 -0.859335 0.325720 1.087989 -0.434210 0.164053 -0.990774 -1.011868 -0.738543 -1.331993 -0.068759 0.885639 0.325926 0.223032 -0.209663 -0.373201 0.097660 0.331231 -0.616614 -0.394853 -0.644443 0.655181 -0.254200 0.777339 -0.924994 -0.588140 0.390317 -0.242786 0.043037 0.350005 0.247833 -0.432369 -1.193835 0.956011 -1.231818 0.380169 -0.756460 -1.148904 -0.311408 -1.573312 0.902015 0.611315 0.037139 1.020374 0.854714 -0.048078 0.105386 0.502776 -1.346616 0.587381 -0.249503 -0.081632 -0.990924 -0.022999 0.756241 -0.534835 -0.520565 0.928839 0.393545 0.203955 0.278236 0.444047 -0.387918 -0.794626 -0.471244 -0.512861 0.107725 -0.091142 0.447404 -0.447886 -0.763088 -0.511494 -0.244386 -0.142940 0.849092 0.400572 -0.554786 -0.874204 0.013999 0.053402 -0.684715 -0.182255 0.716641 -1.023239 -0.005006 0.704757 -0.332250 -0.024012 -0.812657 -0.073243 0.058553 0.391479 0.641197 -0.054542 -0.250666 0.698900 -0.295774 0.344647
at -0.799336 -0.412996 1.333099 -0.795388 -0.108325 0.126983 1.572657 -1.299602 -0.683915 0.997348 -0.419861 1.162015 -1.002267 -0.075725 0.875434 2.043554 -2.511461 1.618394 -1.432640 0.349162 1.014754 0.137228 -0.205900 0.710004 -0.956413 -0.987650 0.159374 -1.729115 -0.251925 0.039382 1.166616 -0.505100 -0.656965 -0.075536 1.028751 1.130890 -0.329113 -0.113768 -0.643445 0.105536 -0.390046 0.372554 -0.599903 -1.743023 -1.796364 1.698277 0.840726 1.023124 -0.664134 0.519380 -0.136719 0.066429 0.687758 -2.162865 -0.033166 0.281207 -0.257054 -1.767890 -0.873303 -0.245126 1.304382 0.955002 1.094564 1.294946 1.497812 -0.021534 -0.652936 0.758906 -0.098725 -0.422297 -1.341470 0.943065 -0.070772 1.285572 -2.652118 0.422463 2.939884 0.790052 -1.595448 1.712673 -0.992755 0.688733 0.165537 -0.468018 -0.732668 1.712511 0.217335 0.733827 1.171293 0.586652 -1.088988 0.182268 0.006109 -0.157340 0.753437 0.572107 -0.161775 -0.963560 0.229984 -0.840338 -1.123381 -0.526389 -0.222964 0.181947 -1.853702 -1.313697 -1.099495 0.191060 0.044525 -1.474287 2.115665 1.067552 -1.148973 -1.686111 -0.973058 1.669791 0.908152 -0.453959 -0.188137 1.945302 -0.765664 1.147536 -0.742077 -0.701319 -1.485672 1.463423 0.460484 0.041441
be -0.114635 -0.069441 0.523246 0.806129 -0.336680 -0.234984 1.442844 1.786013 1.861299 -0.727939 -1.169096 -0.768988 0.944460 -0.108355 -0.064263 -0.606356 -0.856190 1.226569 0.993544 -1.908682 0.841906 -1.503066 -1.891743 0.098590 1.919640 -1.212676 -1.530648 -0.052104 -0.991467 0.130050 1.460600 -0.811633 -0.769532 0.194505 0.367372 -0.099216 0.437612 -1.057229 -1.866197 -0.628209 0.421499 -1.636799 -2.636567 0.222271 0.853718 -1.098042 1.037643 0.380098 1.502511 -0.895335 1.484516 -0.406268 1.818332 2.440039 -0.049140 2.649173 -1.140255 -1.907864 3.351984 -0.255013 0.321938 -0.392244 -0.240829 0.177602 0.837069 -0.757972 -0.638919 1.684463 0.910486 -0.957717 -0.207640 -1.717175 -0.241643 -0.139780 1.470663 -0.534982 -0.148237 0.119494 0.214903 1.404364 -0.367494 -1.150881 0.286736 1.398032 -0.301272 1.022305 -0.183055 -1.464974 0.296975 2.686413 -0.310945 -1.428665 1.535471 -0.219086 -1.874954 -0.535686 1.050161 0.584855 0.942852 -0.921103 -1.933146 0.093088 2.444198 0.167116 -1.228324 3.361881 0.793277 -2.369973 1.070567 1.062571 -1.146879 0.494717 0.067817 0.885665 -0.475912 0.422054 -0.268847 -0.443380 1.187120 -1.704571 0.851446 0.815053 -2.267164 0.397990 1.434414 -1.423581 -1.241007 0.346467
on -0.190707 -0.868641 0.893042 0.817785 1.890455 -1.672368 -0.520107 -1.590589 2.138464 0.900963 0.000487 1.646962 1.289626 0.209712 1.117141 0.961700 1.234800 0.567692 0.027559 0.928445 1.644367 -0.850004 0.616606 1.034122 0.695756 -0.632457 0.010505 -0.288503 -0.902741 -0.636618 -1.241578 0.965645 -0.525235 -0.764894 -0.593321 0.378855 -0.606156 2.350041 -0.990547 0.540855 -1.346274 0.961366 0.877200 -0.507504 0.173494 -0.343083 1.196630 -0.156651 -0.588604 0.542237 0.686771 1.116400 0.779249 0.154949 -1.093404 -0.167737 1.904259 0.934806 -2.362895 1.571395 1.059093 -0.352441 0.580819 0.491115 2.074080 0.336624 0.032714 0.008612 -1.454638 -0.580963 -0.194956 1.218684 0.634807 -0.798411 -3.089773 1.795873 0.674174 -1.864208 0.843101 -0.222345 0.250646 -1.273429 -0.625379 0.088749 0.259865 1.671197 -0.151789 -1.029223 1.053035 1.018071 -1.279909 -1.228622 0.057119 0.851874 2.568439 -0.029273 -0.691302 -1.420799 0.089022 0.793891 0.440147 0.549582 0.556424 -0.292873 1.091984 1.034869 0.028724 -0.484859 -0.495822 -0.006094 0.458398 -1.536996 -0.651857 -2.334825 -0.035484 -0.304126 -0.416121 -1.373297 -1.120284 0.406471 0.045576 0.402447 -0.455792 1.050582 -1.150113 1.488285 -0.651188 -1.097672
her 1.136164 -0.383877 1.902720 0.688824 0.367646 -1.478191 0.824295 -0.772544 0.489586 -1.188456 -0.495034 -1.114416 0.442655 1.190128 0.021654 -1.582275 -0.531025 0.984678 -0.995982 -2.375514 0.457707 0.706599 -1.009701 1.271909 0.804447 0.623692 0.514054 -0.753343 -1.297759 -0.010235 -0.201035 -0.592459 0.420991 -0.769303 0.496618 -1.471860 -0.609405 0.633749 1.859876 1.117679 0.500844 1.423214 -0.310936 0.135514 -1.266804 0.398062 -0.130486 -2.072476 -0.757147 -0.653111 -0.247457 -0.682046 -0.598568 0.535324 -0.224354 -0.126227 0.646367 -0.929394 0.633867 -0.554548 -2.373190 0.186954 0.175911 -0.816868 0.073516 -0.135344 -0.651035 -0.013327 0.520301 0.748406 1.356381 -1.603635 -0.937141 0.013103 -0.265058 -1.458980 -1.126029 0.569732 1.073352 -1.181501 0.578815 0.175725 -0.060610 -0.424652 1.646905 -2.038053 -0.245170 -0.384414 1.345390 -0.998723 -0.945557 0.649351 0.948066 -0.153577 -0.342577 0.525860 -1.060603 -0.448673 1.952764 -0.859281 -0.263915 -1.508244 -1.018423 -0.502519 0.039430 0.110459 0.632140 0.596652 0.715987 1.608718 -0.430804 -0.352033 -1.321095 0.854663 -0.131328 1.439365 0.077335 0.046424 1.511418 0.317886 -0.158412 0.069518 0.131183 0.893889 0.004269 -1.145536 -0.763066 -0.637089
my 0.784021 -0.197560 0.666486 1.185274 0.741838 -0.760694 0.469710 -1.729421 0.140943 -0.689758 -0.821881 -1.654080 0.687274 -0.111301 0.269758 -1.655672 -0.513932 2.366956 -0.470088 -2.762535 -1.135333 -0.585969 0.022186 1.023794 0.033302 -0.172798 0.401551 -0.483080 -0.499339 0.408076 1.644568 0.019136 0.317899 -2.426455 -1.009848 -0.450084 0.221733 -0.176478 1.711206 -0.359486 -0.153705 0.855095 1.354380 1.039888 -0.510573 -0.947158 0.237944 -0.469360 -0.414987 -0.443263 -0.458937 0.127840 -1.624959 0.813871 0.468047 0.244490 1.260070 -0.222681 -0.550629 0.932553 -3.013791 1.277192 -0.675447 -0.440573 0.054936 0.828750 -0.930463 -1.210060 0.454121 -0.956962 0.260041 -1.192337 -1.469939 -0.219041 -1.663181 -0.734753 -1.344958 -0.496891 -1.103116 -1.916505 -0.518278 0.859012 1.193987 -0.069644 2.001738 -3.015842 -1.207611 0.204629 0.603951 -1.097119 -0.889357 1.481794 1.289741 0.064351 -0.255577 -0.975423 0.037924 -0.873370 1.608931 -0.440781 -0.229951 -0.385027 -0.866133 -0.021910 0.141489 -1.191453 2.663908 1.286043 1.207085 1.434470 -0.988140 -0.644366 0.029812 0.592577 -0.571361 2.213583 0.123855 1.229891 -0.022809 -0.119660 -0.344605 0.529246 -0.062193 0.199998 -0.158659 0.207491 0.577806 0.022103
him 1.248570 -0.342227 0.458660 -1.193537 -0.426788 -0.135675 0.474639 0.962448 -0.745258 -1.678704 -0.438948 -1.530028 0.353205 0.805446 0.633943 -0.372553 -0.170639 -0.541734 0.710839 -0.169035 1.310173 0.346632 -0.820783 0.764840 0.719767 0.086043 -0.357065 -0.518100 -0.398485 -1.188162 -0.124593 1.121570 -0.141993 0.883567 0.360077 -0.034127 -0.661951 -0.342666 1.386990 0.422685 0.401285 0.195765 -0.745377 0.131309 -0.711502 -0.580751 -1.730878 -1.363800 -0.222542 -0.773051 -0.521102 -0.341369 -0.714116 1.386912 -1.108360 -0.080215 0.009118 0.209250 2.048039 -0.540463 -0.316556 1.303825 -0.748554 -0.323850 -0.423004 -0.200996 0.667998 1.119281 1.294291 1.009721 -0.147296 -0.847673 -1.297762 -0.163422 1.640076 -0.699531 0.481139 1.361328 0.987125 -0.497925 1.021854 -0.425735 0.352687 0.583581 0.899767 0.034844 -1.406604 -0.618931 1.513966 0.516952 -0.852628 -0.527001 1.171935 -0.206048 0.152014 1.572788 -1.207099 0.086369 0.913132 -0.120422 1.058759 -0.295209 0.013355 -0.380766 -1.311563 0.096236 0.170838 -0.099791 1.408868 0.140998 0.537605 -1.564162 -0.086944 0.494529 0.028281 0.142222 -0.552538 -0.414191 1.803680 0.364809 0.586027 -0.477704 -1.018028 0.769443 -0.248862 -0.005167 -0.741934 -0.914015
have 0.373517 -0.727119 -0.389847 -0.337719 1.013655 -0.500843 1.406159 -0.001913 0.659900 -0.496934 0.962649 1.179214 0.306805 -0.758339 -0.196179 -1.736247 0.707580 2.789409 1.365296 -2.221792 -0.586022 -1.463270 -0.457184 0.174420 -0.709229 0.961201 -3.360766 0.984163 -1.028760 0.292147 1.255210 -0.280710 -0.019363 0.463949 0.426228 0.599960 0.826646 -0.241323 -1.004282 -1.679424 0.008085 -1.291755 -1.260259 1.156954 0.978297 -1.470584 1.683424 0.169627 2.089902 -0.750622 -1.169969 -0.810684 0.635607 1.418245 -0.387963 -1.013484 -0.972330 -0.104032 1.842127 -2.245658 0.426145 -2.668787 1.045927 0.869542 1.014001 -0.157374 0.345432 0.130640 0.743190 -1.651838 -1.380587 -0.548099 1.928364 -0.603941 -0.090607 1.044055 -0.006912 0.658403 -1.597833 0.084075 -0.341625 -0.677467 -0.686554 -0.121466 -0.053552 -0.684321 -1.492075 -0.553915 0.522869 1.268251 -1.302426 -0.185289 -0.036397 -1.049390 0.215341 -0.197828 -0.221352 1.154314 2.014174 -2.246838 -2.143804 2.867967 0.980914 -0.374064 -2.063995 0.845560 -0.512063 -0.787723 -0.427962 0.252071 -1.176465 2.205021 -1.117857 1.245476 -0.692559 -0.848864 -0.058211 0.763610 1.418635 -1.442962 1.722576 0.887664 -3.135500 -0.613525 0.060220 -0.303410 -2.335285 -0.145235
by -1.037489 -1.092722 0.646628 -1.186116 0.540213 -0.677216 0.553976 -1.459205 1.455767 0.902898 1.137452 -0.425561 0.615926 0.490339 1.230208 1.377822 1.095425 0.250528 1.660690 2.202688 -1.377143 0.640176 -0.789704 1.685385 0.202182 -0.481338 -1.638289 -0.594136 0.074846 -0.570452 0.101121 -0.827152 0.053999 -1.774430 -0.098721 -0.112501 0.800312 1.423395 -0.207040 -0.665596 0.250831 0.253936 -0.104424 -1.570616 1.169492 -0.064025 1.112171 0.285262 -0.514082 -1.156471 -0.713254 0.912306 1.326975 -0.998956 -0.329216 -0.250685 -1.170644 1.492285 -0.572414 0.429070 0.445933 -0.649764 -1.059671 1.218246 0.776380 0.611699 0.534508 0.255911 1.197485 0.947074 0.300834 0.897524 -0.598274 1.869361 -0.527303 0.134002 1.305720 -0.080367 0.411614 0.661586 0.582524 -0.326934 -0.150470 -0.228504 0.272316 0.042785 -0.432611 0.370950 0.970004 0.020932 -1.060987 -0.024613 -0.084210 -0.145347 -1.329805 -0.163905 1.786133 -1.170135 1.312732 -0.212312 0.057388 1.886655 0.421981 -0.503838 -0.060667 -0.429680 1.164394 -0.138622 -1.379003 0.561225 -1.240208 1.968502 -0.566800 -0.750167 -0.239674 -0.021683 0.047619 0.472315 0.359264 0.141977 0.470077 0.688357 -2.558208 1.239832 0.337706 0.176086 1.097847 1.163954
this 0.379228 1.453421 -1.128537 0.763715 -0.059116 -1.128270 0.691623 -0.547218 -1.924346 0.473046 0.264078 -0.291617 0.192775 -0.542016 0.821379 0.402591 0.063995 1.461121 -0.218167 -1.269880 -1.002925 0.855673 -1.335166 0.542278 1.137709 2.347872 -1.626585 -1.961519 1.365823 2.212747 1.010117 -0.302678 -0.583689 0.180576 0.170031 -0.423287 -1.042495 -0.304833 -0.944765 -0.439677 0.816480 0.658003 -1.599670 0.077663 0.201165 -0.212965 -0.446203 -0.409970 -0.719122 1.943684 -0.346232 1.087211 -0.199910 0.522700 0.601898 0.082924 -0.642467 1.228387 -1.236332 0.348985 -0.250712 0.377123 -1.640768 0.290675 -0.199416 0.504355 -0.133301 -0.312362 0.114353 0.554908 0.382333 -0.847300 -0.706117 -0.930577 -0.434382 -1.524783 0.238834 -1.222320 -0.233968 -0.843611 -0.818683 0.351820 -0.868320 1.336119 0.362660 -0.927108 -0.488331 0.219893 -1.255558 -2.057389 -0.616540 0.837774 2.510174 1.089891 0.120455 -1.101709 0.052607 0.333903 -1.230321 -0.558001 0.865042 -0.634915 1.643832 0.646632 0.334809 1.225952 1.110235 1.686522 1.384097 0.476838 0.657581 0.012436 -0.505189 0.005260 -0.551535 -1.277228 0.142601 0.546678 -0.351875 -0.701804 1.054251 -1.041216 0.380542 0.346066 -0.207401 0.042084 0.974601 1.280417
which 0.962030 0.743089 -0.121127 -0.153379 0.564386 -1.200057 -0.924857 0.557893 0.262225 1.383693 -0.837987 -0.285353 -0.660302 1.180375 -0.408192 -0.220943 0.820298 0.783989 -0.721533 -0.185323 0.029645 0.378227 -0.257998 0.984554 -1.700768 -0.530281 1.045415 -0.187377 1.231994 0.272528 -0.172736 -0.932692 0.024938 1.046213 -0.253404 -0.319652 -1.236849 0.098403 -1.420320 0.072945 -0.127548 -0.036522 0.296040 -0.730421 0.945101 -1.383434 1.127534 -0.672611 -0.507463 -0.618899 -1.372397 -0.995512 -1.284830 0.674052 0.237198 -1.256743 0.058833 0.747831 0.043539 0.523923 -0.597421 -0.030593 0.255821 0.957883 0.007284 -0.430378 -0.098951 0.608164 -0.143893 -0.469904 0.750930 -0.551257 -1.147541 1.854914 0.724071 -0.414632 -0.956840 -0.528526 0.973311 0.473233 0.212111 1.635677 0.718448 1.602029 -0.251795 -0.095479 -2.223481 -0.137619 -0.123253 0.343045 0.038378 -0.182924 -1.147612 -0.019893 -0.033582 -0.798158 -0.226225 0.565875 0.755747 -0.286331 -0.303109 -0.545273 1.645363 -1.640909 -0.301432 0.027589 -0.255535 0.774305 -0.633883 1.401678 0.175980 0.663615 0.190592 0.021486 -0.597718 -0.651693 0.616010 0.044758 0.395254 0.373871 2.505296 -2.013784 -0.002984 -0.543313 -1.096445 1.176221 -0.188122 1.848124
me 1.668717 0.507953 -0.193008 -0.893912 0.910004 0.130414 -0.548566 0.811500 -1.448818 -1.679402 -1.003818 -0.921801 0.555604 0.156280 1.151367 -1.245054 0.083622 -1.027357 0.856831 -0.485199 -0.378854 0.395825 -1.278648 -0.194360 1.052400 -0.930589 -0.173808 0.218782 -0.306360 -1.445261 -0.275968 1.123379 0.661637 -0.129855 -1.031104 -0.565709 -1.138114 -0.352000 2.313227 -0.147414 0.085872 -0.087877 -1.007413 0.337548 -1.687657 0.898759 -1.393024 -1.400155 -0.953473 -0.656938 -0.354562 0.379031 -1.681936 1.444338 -0.578503 1.069085 -0.691622 0.163683 1.803449 -1.978176 -0.509587 1.034227 -1.205343 0.265811 -0.429712 -0.918183 0.458605 -0.335534 0.397902 -0.531532 -1.081823 -0.818938 -1.991320 0.194440 1.458428 -0.802689 0.890613 0.566877 0.878918 0.139737 0.822885 -0.424675 -0.129825 0.505854 2.075395 -0.429485 -1.298820 0.261155 0.160003 0.321921 -0.281314 -0.159893 1.134663 0.623064 0.900332 2.255974 -0.735439 0.910500 1.285337 -0.632710 -0.447902 -1.084674 0.955703 -0.422792 -1.911782 0.425394 0.526086 0.268381 1.543974 0.182231 -0.134418 -1.108824 -0.899605 0.889101 -0.319025 0.158966 -0.926609 0.207070 0.610220 -0.266556 -0.204177 -0.027651 -0.054047 0.687217 -0.154885 1.234620 -0.431993 -1.515317
all -1.101604 0.909749 -0.243046 -0.750635 -2.009871 -2.269398 -0.860572 -0.196573 0.007210 -0.660811 -1.170965 -1.273467 -0.671267 0.142301 0.591098 -0.361389 1.181609 -0.692922 0.109773 -0.765609 0.760121 -0.133172 1.730831 0.321322 0.626186 -0.883536 -0.714111 1.009127 0.392495 0.801904 -0.683440 0.872270 -0.305405 -1.007973 0.138821 -0.193843 0.028930 1.158206 0.845931 -0.188325 -0.723323 1.007644 -0.200480 0.796134 0.324884 -1.136575 0.521845 0.277878 -0.060075 0.305950 -0.122841 -0.126598 0.291166 1.061626 0.523578 0.464185 1.914192 -0.411720 1.051165 -1.251249 0.835170 0.481476 -0.087850 -1.128187 0.135883 1.225968 1.452445 0.914819 -0.660110 -0.875443 -0.218075 -1.060176 0.814242 0.014281 2.260734 2.781627 -0.034236 -0.536282 -0.401107 1.426280 -0.374138 -1.634699 0.687946 -0.474545 0.306071 -0.341862 1.137654 0.316757 -0.655643 0.985873 0.731487 -0.673602 -0.885385 -0.930640 0.549203 -0.404442 -0.225563 -1.367253 -0.064590 1.065523 -0.454329 0.277173 -0.951627 -1.441253 -0.610228 -0.754676 -0.695985 1.734117 0.302496 0.421188 0.085614 0.763169 -0.272614 0.571612 0.054009 0.478950 0.767083 0.408615 0.477420 0.206237 0.977438 -0.335965 0.267036 -0.454267 2.162808 1.220451 0.613065 1.574957
said 0.772457 0.808934 -0.579545 -1.205960 1.057727 2.968272 -0.292193 -1.177914 -0.302347 0.108279 0.557182 0.942512 0.604899 0.603140 -2.714212 -0.683248 -0.693678 0.804867 0.275596 0.993536 0.882186 -0.266520 -0.432773 0.682763 0.490353 0.643544 2.131384 1.922014 -0.114586 0.263751 1.383670 -0.860208 -0.616592 -2.524433 0.244933 -0.271249 0.991445 0.013873 -1.019694 -1.295389 -2.191581 1.132525 -0.756501 -2.453343 -1.007928 0.374931 -1.246625 0.909073 0.497936 -0.785856 -0.122913 -0.198053 -2.751640 1.967603 0.014289 0.421125 1.115239 -1.032798 0.280375 0.232299 -0.108027 -0.267410 -1.192487 0.958508 -0.147869 1.556861 -1.736409 -1.368140 -0.090204 1.614853 0.025260 -0.090456 1.400707 1.954039 0.723243 -0.277308 1.445397 -0.327571 -1.004736 0.543781 -0.706418 0.686404 -0.199092 0.402148 0.882652 1.073623 0.266126 -0.333400 -0.302757 0.269856 0.832896 0.876934 -1.097860 -1.779762 1.284026 2.244848 -0.072718 0.337787 0.867397 0.661641 1.519978 0.205152 0.162453 0.856188 1.070934 1.467434 -2.241162 0.216455 -0.206450 -0.769363 0.558862 2.550536 0.334241 -1.009950 0.535863 0.598418 0.426965 -1.497998 -1.853359 -1.782071 -0.686750 -0.687493 0.969554 -3.295408 -0.226722 0.946802 1.791213 -2.304412
she 0.861581 -0.498457 0.550615 1.247723 -0.899978 -1.785519 0.090134 1.411617 -0.599104 -2.919571 0.987878 0.522886 1.605265 1.244516 0.762561 -0.051667 -0.111466 0.130000 -0.177297 -1.122857 -0.604509 0.959819 0.794902 -0.442966 0.752544 -0.297394 -1.663743 -0.427204 -0.635430 1.003031 0.880138 -0.464738 0.378039 1.193169 -0.224056 -0.381249 -1.069147 -0.163267 0.949766 2.799890 0.709463 0.890011 -0.822001 -0.928962 -0.256296 2.494561 0.300453 -0.557156 0.358795 0.121381 -0.479032 0.191792 -0.293975 -1.783213 -0.481072 -0.170234 -0.702554 -0.823354 2.206980 -0.618271 0.144883 -0.842760 1.722332 0.134520 1.824341 -0.792968 -0.750830 -0.201154 -1.120207 0.024330 1.275059 -0.158346 -0.356833 -0.339339 -0.042586 -0.898498 -0.766951 2.133507 -0.877792 -0.488447 0.326016 -1.817952 -0.271281 -0.739966 0.858681 -0.693402 0.648118 -0.127508 -0.009389 -0.617227 1.425679 -0.959895 -0.314271 0.940813 -0.569413 0.387209 -0.527426 -1.223486 0.705373 0.346560 -0.506407 -1.022648 -0.128653 -0.861467 0.183400 0.034211 1.813054 -0.389973 0.494454 1.672331 1.686311 -1.863550 -0.413456 1.614406 0.670131 0.681292 0.075270 0.139013 0.570139 0.006111 1.553698 2.014944 -0.002113 2.067578 0.520010 -0.993790 -0.763187 1.189317
from -2.430222 -0.603783 0.543136 -1.349090 -0.261753 0.218552 -0.832721 -1.410525 0.227335 0.953794 -0.116692 -0.763810 0.510726 -0.788740 -0.144953 0.283905 -0.758385 1.208198 0.026918 1.218606 -1.035263 -0.229218 0.165680 0.145370 -0.862791 2.221983 0.381601 1.058210 -1.039126 -1.255950 -1.507027 -0.093245 0.540438 -1.082650 0.438705 -0.420171 -0.626626 0.118157 0.481481 1.219735 -0.922125 1.582978 0.180622 1.089288 -0.865996 0.063841 2.209378 1.207262 -0.005940 0.069163 -0.450811 -0.193721 1.794751 -2.143369 -1.707232 -0.284620 0.213262 0.407522 -1.631963 1.618645 -0.887894 -1.044723 -0.321035 2.146237 0.869533 0.911578 -0.941022 -2.294028 0.698382 -1.937383 -1.336941 -1.255653 0.335887 0.718432 -1.569654 0.085207 -0.139714 0.991927 0.362038 1.039608 -0.251386 -1.744735 -0.612131 0.937484 -1.512391 1.263962 0.948033 -1.374125 -0.965137 1.284347 -1.025410 -0.308833 0.262042 -0.218200 1.288265 -1.837640 1.379135 -0.028485 1.095681 0.386205 0.650807 1.205040 0.803823 -1.522694 0.608780 -0.401864 -0.885018 -1.589500 -0.723639 0.406831 0.930261 -0.271477 -1.684125 0.099383 -0.400263 0.311394 -0.232810 -0.557290 0.134592 0.709491 -1.729712 -0.701731 -0.735609 -0.749186 -1.746955 0.040432 1.378417 1.362275
or 0.058484 0.469673 0.491760 -0.724443 1.597027 -0.494022 0.703921 0.136605 1.397485 -0.936300 -0.660686 -0.837765 -1.539881 1.675577 -1.334958 0.011802 0.114771 -0.213023 0.087499 0.189776 1.113394 -0.555072 -1.043914 -0.032217 0.060117 -1.229419 -1.196493 -1.453097 0.984704 0.068413 -1.419614 -0.240678 -0.660559 0.063581 0.098926 0.005625 -0.090193 -0.410432 0.148895 -0.077245 0.416762 -0.385228 0.873808 2.187177 -1.400306 -0.990555 0.002063 0.503407 0.072819 1.331135 0.444454 1.040667 -0.979101 -1.315571 -0.585917 0.300790 -1.331649 0.734853 -1.217715 0.214532 -0.581585 -0.226635 0.365771 0.820836 -0.484004 0.584765 0.257760 -1.399909 0.241862 -1.743931 2.632397 0.588934 1.635069 0.516325 -0.772848 -1.263604 -1.041023 -2.022557 0.748173 0.801336 0.310631 -0.080883 -2.029699 -0.304536 -0.652811 -0.904196 -0.817462 -0.118832 -0.382600 1.223356 1.340594 0.613082 -0.301318 0.232422 -1.248119 0.261693 0.795567 0.054638 -0.651854 -0.749685 -1.015894 0.110508 -0.142074 0.690908 1.391455 -0.142863 0.264184 0.714723 -1.051716 0.402013 1.367932 1.234404 -2.014588 0.432135 -0.373749 0.416241 0.260807 0.346389 -0.667643 0.360493 -0.067699 -0.027515 -1.318901 -0.683963 0.557248 0.429723 0.504900 -1.011521
they -0.313590 -0.649329 1.296682 -0.464127 -0.194672 0.060832 0.530773 1.657617 -0.778822 -0.631342 0.099865 -0.318982 0.573238 -1.801607 1.168234 -0.278444 0.814988 0.104481 0.539257 -0.578630 0.768617 0.307109 0.454790 -0.620547 0.798331 -1.440591 -1.518895 -0.683726 1.105592 1.099033 0.593086 1.378490 -1.187941 1.416724 -1.290341 -0.044707 -1.437089 -1.149498 1.282777 1.701845 -0.022817 0.181118 0.018856 0.007248 0.180340 0.391248 -0.929547 0.962704 0.050481 1.433182 -0.661422 0.283170 1.342245 -2.041450 -1.967437 0.317480 -1.587249 -1.154284 -0.564348 1.547625 1.192154 -0.379985 1.753549 -0.327159 0.918924 -0.829527 -0.720680 1.428915 1.764808 0.541354 1.460483 -0.912139 -0.570844 -1.149162 1.445005 -0.175656 0.765528 1.426954 0.343050 0.202270 1.526516 0.345890 0.000633 -0.227440 0.762817 -0.168230 0.548246 0.082203 0.407288 0.045890 1.220579 -0.850960 -1.544619 -0.656845 -0.061869 0.225555 0.053825 -1.257753 -0.027365 1.649104 -0.939451 0.015860 -0.163949 -1.027682 0.470739 -0.426424 1.513688 -0.272240 -0.294069 1.445267 0.478344 -2.356704 -0.284180 1.190518 0.369907 0.862839 0.560904 0.245805 0.493356 -0.303703 0.029808 1.333716 0.954776 1.730661 0.534002 -0.373399 -1.876042 0.475999
so -0.394355 0.374156 -1.480850 0.038926 -0.616046 -0.954777 0.821710 0.600124 -1.289423 1.431223 1.234083 0.571064 -1.204836 -0.020873 0.457221 1.221704 1.190369 0.090242 -1.449963 0.174678 1.061289 0.631360 0.890351 -1.516011 0.722136 0.497434 0.493359 -0.234603 0.123017 0.249842 -0.679185 0.332046 0.606266 -0.677620 -0.338852 -0.563218 -0.289809 0.405199 -0.580086 -0.566293 -0.681787 0.212885 -1.210181 -0.847794 0.057159 -1.733748 -0.285257 0.553868 1.625536 -0.224699 0.107342 2.017301 -1.108601 0.677068 -0.364082 1.452078 -0.908546 -0.332930 0.699405 -0.040997 -0.078851 -1.110671 -0.348842 -0.743349 -0.149971 0.536466 0.387133 1.232714 -0.370660 0.073804 0.242434 0.564204 -0.923689 1.399963 -0.717500 0.384770 -0.040931 1.728807 0.365369 -0.107650 1.195046 -0.201627 0.450029 -0.156528 0.140518 0.285263 0.997334 -0.241485 0.128589 -0.184947 -1.355644 1.027818 0.669691 -0.024793 -0.743511 0.780360 0.602140 0.657845 -0.067733 0.079939 -0.564240 -0.466330 -0.675928 -1.180362 -0.626264 -0.078088 -0.118128 -0.890801 0.390650 0.945134 -0.511397 -0.079120 -0.855865 0.528150 -0.224732 0.107611 -0.331793 0.357304 0.432377 -1.235207 -0.638593 -0.024458 0.169313 0.722854 -0.400465 0.193997 0.170145 0.760613
are -0.130602 0.970340 1.650867 0.020147 -1.492094 0.026147 -0.026495 0.005100 1.766575 0.854682 1.491134 0.824669 1.155272 -0.596151 -0.473233 2.043508 1.611145 0.876759 -3.277022 1.090686 0.159376 -0.130162 -0.175601 0.759042 1.184905 0.915126 0.174267 1.371748 0.921540 -1.152277 -0.493579 -0.261026 -1.622457 -0.788518 1.048990 0.770475 3.405253 0.127477 -0.358569 0.678270 0.511559 -0.341333 0.190708 1.689460 1.027961 0.139623 0.658279 1.519388 0.982493 0.125570 1.879084 -1.026300 0.217266 2.182146 2.517272 -0.208386 -1.084897 0.742467 0.860571 -1.080369 -2.004183 -0.976234 -0.974212 0.734489 0.757061 0.314151 2.295217 0.559889 -1.583328 -1.035959 -1.959000 -2.764497 1.137110 -1.678802 0.483681 0.890420 0.363666 0.218132 -0.753168 -1.269136 -0.350203 -2.988183 -0.804185 1.857987 0.641942 0.054508 -0.230721 -1.664397 0.498798 3.046859 0.006505 -0.334985 0.260946 1.270777 -1.644377 -0.412420 2.388713 2.319684 -0.646931 0.628037 -1.602456 1.034692 1.902525 1.361543 -1.137204 -1.222704 0.510288 -1.635973 -1.662259 -1.376395 -2.032357 3.430851 -0.571655 1.279186 -0.265723 0.682739 1.386426 0.554173 0.554465 0.827489 0.460543 1.561132 0.268962 0.146770 2.338434 1.596495 -1.841192 -3.261894
one 0.268875 -2.178458 -0.899084 0.381520 -0.895664 -0.618757 -1.660747 -1.199820 0.592676 -0.179349 0.585298 -0.681817 -1.244250 0.607679 1.648021 -0.533576 0.010837 -0.054678 0.292121 0.449833 -0.699415 -1.425123 -1.307195 -0.637647 -0.062195 0.659936 -0.806920 -0.871758 0.383952 1.132251 -1.381310 -0.079842 -0.610014 0.531865 -0.804577 0.275963 0.410115 -2.061213 -1.427696 -1.046433 -0.313815 0.994271 -0.901288 -0.758238 0.143193 0.333270 -0.551147 -0.568472 -0.502156 -0.089314 -0.663451 -0.141008 0.500518 0.335411 1.000100 -1.454715 -0.450799 -0.947049 1.875033 -0.572488 -0.068764 1.144700 0.193902 -0.095222 1.730025 -0.462883 1.252958 -0.731411 -1.023767 -0.550724 0.216381 0.094575 1.043443 -1.661479 0.409684 -1.653526 0.959460 0.685186 0.943591 -1.575155 0.461670 1.248403 -0.048746 -0.848651 1.150297 1.023157 -0.496879 -0.790075 0.572198 0.354197 0.381764 0.139087 0.358362 -0.532352 -0.505503 0.966444 -0.341748 -0.876629 -1.029286 0.279501 -0.328007 -1.051839 1.018407 -0.517248 -0.028927 -0.006115 0.763808 1.073369 0.357818 0.956298 -0.631690 -1.432170 -0.148822 1.591728 0.468144 0.151993 1.466296 -1.328571 0.503875 0.285270 -0.633985 0.701186 -0.049112 -0.149320 0.137208 -0.098859 0.707296 -0.220450
were -0.963717 -0.413170 1.724318 -1.394819 -0.365561 0.482329 0.705454 -0.019985 2.360534 0.201487 1.066530 -0.547783 1.045107 -0.778505 -1.207495 1.762368 0.324069 1.651837 -1.996686 0.938746 1.443818 0.506350 1.128613 0.578241 0.869698 0.602269 -2.352685 -0.371106 -0.218071 -0.764089 -0.651738 0.007306 -0.821350 -0.624151 0.916672 0.624254 2.187922 0.437274 -1.484119 0.038657 0.231669 1.365434 0.669285 0.554500 -0.171500 -0.219611 0.542508 1.152406 0.676472 0.760015 0.688361 -1.117156 0.032469 1.921115 1.173224 0.929040 0.340007 0.051099 2.412164 -1.092909 -2.194516 -1.127662 -0.321471 0.327106 0.594564 -0.735335 1.775511 -0.052391 -1.467891 -0.154381 -0.844081 -1.892434 1.301005 -1.019380 0.860710 1.276513 -0.628598 0.195678 -0.629294 0.713243 -0.906177 -2.919380 0.686449 0.519387 -0.435107 -0.618345 -0.076636 -1.356712 1.527706 0.794205 -1.373658 -0.304353 0.428865 0.604182 -0.816699 0.285551 0.840381 0.609682 0.206315 0.511932 -1.080017 -0.585991 2.633141 1.428208 -1.198773 -1.418609 -0.316730 -2.099953 -1.570921 -0.568776 -2.341802 2.014144 -0.126542 0.617681 0.030350 -0.963924 0.354865 0.382786 0.062109 0.270846 -0.527431 1.308133 -0.550809 0.417837 2.303112 0.526769 -0.951125 -2.796249
what 1.192271 1.855014 -0.263825 0.055919 -0.726902 -1.665299 -1.664648 1.080860 -2.006474 0.424000 -0.018331 -1.466720 -1.039725 2.248527 2.266690 -0.859443 0.123486 0.440426 0.013755 -0.951921 0.122188 0.623366 0.583517 0.069261 -0.162307 0.090151 0.964372 -0.272341 -0.477403 1.201010 -1.100180 -2.376789 -1.802204 1.004723 0.628143 -1.886721 -0.392593 -0.010272 -1.377206 -0.152079 -1.756568 -1.427524 -0.509491 0.950727 -0.368640 0.233742 0.863159 0.850404 0.770944 -0.519464 0.108467 0.422577 -1.447078 1.735929 -0.321030 1.560222 0.340419 1.399111 0.155968 -1.403826 1.297066 1.003229 1.073213 -0.919472 0.242164 0.469136 1.448801 0.969870 0.641735 0.356350 -0.653392 -1.022126 -0.683246 0.815225 -0.159955 0.346892 -0.885172 -0.386415 1.320558 1.451627 0.807826 0.862023 -0.016951 0.391595 0.988181 -0.383257 -1.295396 0.561484 -0.842646 -1.438886 3.360829 0.990694 0.526531 0.141636 1.824854 -0.458253 0.717560 -0.984605 -0.405675 -0.261945 0.016500 0.875890 -0.064405 -0.520162 -1.081723 -0.775278 0.172521 1.782229 0.210561 0.919753 -0.884470 -0.898628 1.763100 0.949437 -0.324619 0.454103 1.575750 1.405471 0.692032 0.099421 1.805401 -2.409013 -0.469033 0.248418 -1.097248 0.263049 -0.246069 0.364298
when -1.039902 0.573422 0.520794 -0.995233 1.464279 -1.579222 -0.125569 -0.731878 -1.633162 0.798525 0.221791 -0.373458 0.080144 0.263973 0.741591 0.959461 -0.900162 -0.514095 1.572218 -0.885467 0.771402 0.945988 0.477820 -0.066321 -0.295945 -0.057254 0.928652 -0.730834 0.768610 -0.362510 -0.801679 -1.823217 0.873314 0.910782 -0.469317 -1.335909 0.001372 0.739961 -0.995179 -1.257495 -0.936489 0.932762 -0.114274 -0.653921 1.669846 2.113337 1.311946 1.241152 0.364140 -0.442257 -2.794435 -0.461840 0.441675 0.298383 0.821212 0.944723 0.556102 0.124978 -0.615115 -0.261190 0.390968 1.163384 -0.297016 -0.848433 0.329204 0.386091 -0.209430 -1.621834 -0.482730 -0.408534 0.357933 0.314209 -0.361676 -0.269609 0.625877 0.140251 -0.142872 1.214329 0.155868 -0.175067 -0.215838 1.350865 0.213271 -0.077476 -1.129866 1.517249 0.036365 -0.756435 0.051183 -0.106206 -0.656829 -0.564633 0.631272 1.187136 -0.268636 0.502350 1.046057 0.141118 0.396819 -0.232700 -1.219560 1.987656 0.073984 0.519793 -0.510373 0.124790 -1.033331 1.461100 -1.732258 0.742450 0.312516 0.988300 -0.316416 -1.111381 -0.354945 0.797703 0.186227 1.465203 -0.204673 0.020368 0.384619 -0.617228 0.088882 -0.406577 0.051618 0.540085 1.416746 -0.751640
no 1.952695 2.798555 -0.656399 0.884313 0.109624 0.134807 0.579555 -1.482356 -1.865515 -0.005196 -0.165441 0.711790 -0.518263 1.197156 0.624346 -1.922020 -0.068459 -0.525488 -0.375571 -0.894538 -1.734135 0.703310 0.003599 2.456277 0.739793 -0.744305 0.004578 -0.854516 -0.541234 0.143272 -0.733766 -1.063709 -0.069566 -0.932125 -1.432909 -0.163677 -0.326363 0.035101 -1.243735 -0.303738 0.890714 0.218461 0.234937 2.755024 0.365320 0.735807 0.018818 -0.834216 -0.170866 -0.423983 1.101165 0.997737 -2.676269 0.506045 -2.235375 0.399263 2.099977 -0.920874 -1.098167 1.191120 0.832179 1.961427 1.394773 2.250081 -1.208276 2.862906 -1.049960 1.337613 0.457268 -1.070586 -0.667948 0.309456 0.283188 -1.066423 0.384828 -1.498297 0.335418 -1.127594 -0.749207 -0.768893 1.875954 0.466729 0.665561 0.049578 -0.921784 -0.081397 0.728442 0.412063 -1.133240 -1.893392 1.103974 -0.817508 0.279311 -0.629010 2.361383 -1.475619 1.653701 -0.471315 -0.203531 1.982607 -0.295219 -0.115341 0.857644 2.740911 0.106497 -0.478295 1.041578 0.804159 1.312556 -1.493126 -1.178567 -0.676669 0.049691 1.164016 -0.249389 -0.241204 -1.073756 1.384179 1.509341 0.135573 0.016849 -1.289984 0.420186 -0.082982 1.606787 0.342435 1.165660 0.796025
if -0.747982 -0.875162 -1.209346 -0.766786 1.171977 -1.404755 0.058814 -0.395769 0.120100 -0.901063 -0.279495 0.581943 0.214975 0.692840 0.273625 0.395973 -1.319933 0.099318 1.719634 -0.508025 -0.361271 1.464270 -1.657571 0.304844 0.285320 0.456055 0.846356 0.812227 0.952289 -0.694667 -2.005318 0.380839 0.033123 1.625931 -1.246468 -0.844994 -0.534511 0.930017 -1.657680 -1.654755 -1.650457 0.652803 -0.058434 -0.172237 1.251834 0.892070 -1.868220 -0.254098 -0.120484 0.049516 -2.099631 0.724206 -0.147992 -1.072130 0.562694 1.824009 0.307877 -1.974306 0.796540 0.444310 0.229029 -0.676299 0.320231 0.618653 -0.722176 1.897201 -0.036674 1.129746 -1.114066 -0.425784 0.557537 -1.618640 0.259548 0.025850 0.232136 -0.434349 -0.059447 -0.668307 -0.695425 -0.028503 -0.392973 2.815018 -1.306582 0.452769 0.256083 -0.671533 -0.504913 0.212842 0.412036 1.176498 2.171242 0.406188 0.252734 -0.016672 2.895041 -0.907405 -0.310819 1.331474 1.561446 1.100339 -0.375910 1.588495 -0.972943 0.903570 -1.310580 0.106030 0.476410 -0.367375 -2.361878 0.559477 0.274933 0.662602 0.433321 -0.728436 -0.824208 0.767658 -0.595042 3.233860 -0.529743 1.255109 -0.354200 -1.886940 0.694620 0.193551 -1.010550 -0.248963 0.324061 -0.292280
there 0.220390 0.433580 0.142880 -0.459113 -0.887380 0.630686 0.418316 -0.803885 -0.849674 -0.772850 1.024217 1.019899 -0.470416 1.025072 1.893115 -0.424235 0.691897 0.883615 0.710299 0.207752 1.370767 -0.686200 -0.925743 -3.366222 -2.000737 0.008345 -2.445455 0.748511 0.649408 0.499120 -1.213748 -1.188049 1.523821 0.211398 -1.750815 0.002044 -0.231021 1.134020 -0.546696 -1.441744 0.081526 1.112310 0.230072 -0.720405 -0.818131 -0.448075 0.865582 -0.339097 -0.925000 0.690845 -1.408808 -1.210129 0.581216 -1.488899 -0.413475 -0.269620 -0.010112 -0.719942 -1.150518 -0.325305 1.200691 0.158125 0.492982 0.908956 0.470785 0.625333 0.404271 -0.021559 0.091956 1.217579 1.344778 0.389252 -0.973981 0.068954 -1.381927 -0.893878 0.374226 -0.196842 -1.384500 0.028679 2.128396 -1.549510 1.333124 -0.241727 1.017495 0.730237 -0.200782 -1.223531 -0.273753 -1.328618 0.843724 0.818657 -1.599916 -0.256667 1.398186 -0.031886 0.842524 -0.987703 -0.134374 -0.066396 0.313202 -0.620130 0.047178 -1.473927 0.138454 -0.337458 1.646648 0.661428 1.409273 -0.719959 1.565047 0.153111 0.070101 0.008040 0.579140 -1.273011 -0.145962 0.246486 -0.593199 -0.665462 2.329648 1.427291 2.227330 -0.745866 -0.265896 0.856532 -0.086479 1.118095
who 1.397617 0.266157 1.449003 -1.107216 0.991877 -1.263183 -1.123648 -0.044444 -2.182593 -1.319135 0.338319 -0.434597 -0.362538 1.245207 -1.314421 -0.427470 -0.118528 0.001285 1.071676 0.896471 -0.438052 -0.451504 0.535143 0.278388 0.623202 -0.878317 1.149391 1.740223 0.954808 -0.961946 0.429911 -0.359205 -0.243302 -0.526045 0.443248 0.154496 -1.092296 -1.597793 -1.598629 1.005878 -1.966845 -0.260145 -0.376408 -0.870175 2.315207 0.597638 -0.613720 0.433736 0.063711 0.299198 -0.955695 -0.299359 0.881769 -1.137288 1.682244 1.333282 0.607600 1.410066 1.774543 1.471126 1.274176 -0.351634 1.234406 -0.125825 0.524586 -0.066394 0.135875 -0.898529 0.902956 0.304391 1.768609 0.507198 -0.305749 1.893023 1.648908 -2.768535 0.370682 0.472894 -0.615803 0.367011 1.625706 -0.229776 1.405373 2.574195 -0.006500 -1.161307 -0.891483 1.034839 -1.116668 1.153869 1.158068 -0.903650 0.102321 -0.668470 -0.286478 1.130082 0.210097 0.099891 -0.817924 0.769420 -1.171623 -0.182975 -0.432505 -0.926914 0.406941 0.438457 -0.845978 0.839413 -0.213635 1.414757 -0.106261 -1.311098 0.133358 0.464118 -0.029017 0.529519 1.073906 1.429490 -0.558586 0.626479 1.648742 1.540175 -1.231492 -0.434801 -0.817195 -1.012816 -0.981896 0.558813
we -0.205803 -2.102068 0.841999 -0.535018 -0.496820 -1.052840 0.605005 0.979495 -2.042095 -0.932082 0.747368 -0.955274 0.650332 -1.901104 0.933795 -0.243581 0.413380 0.046387 -0.465028 -1.479146 -0.759980 0.253996 0.183252 -0.219023 -0.251562 -1.678718 -0.128464 -1.168297 1.701328 2.746459 1.659017 0.654433 -0.661972 0.990650 -2.419778 -1.003074 -1.119688 -0.515431 2.289429 1.003596 0.295051 0.516535 0.207553 0.805089 0.616464 -0.548923 -2.087899 0.397792 -0.349915 1.301300 -0.176937 0.448432 1.964654 -1.123624 -2.814046 1.012183 -1.090738 -1.421697 0.018761 0.735466 1.241577 0.695876 1.718767 0.903597 1.270752 -0.070872 -0.761964 -0.138684 1.715327 0.941262 1.440476 -1.995391 -0.246262 -0.036945 1.563599 0.046386 0.503917 -0.869183 0.407950 -0.478120 1.754150 0.173069 -0.172013 -1.587178 1.045256 1.475368 2.104396 -0.343695 -0.130572 -0.275251 1.294006 0.505888 -2.072416 0.768609 -0.569360 -0.626573 -0.294652 0.132703 0.016197 0.646901 -0.606701 0.159094 1.404202 -0.824777 0.471120 -0.180340 1.656264 -0.939912 1.256801 0.188691 0.728016 -1.121788 0.880394 0.088806 -0.084800 1.533523 1.907798 -0.731545 -0.134283 -1.015781 -0.003117 1.726378 0.671268 1.599695 -0.008113 -0.889321 -1.369515 -0.110639
will -0.159127 2.124316 -1.104423 0.511538 0.193574 1.865682 -0.297950 -0.596738 -0.697143 1.317216 1.102566 -0.485477 0.010385 0.189237 0.359608 -0.419762 0.046269 1.131135 -2.704789 2.469409 0.430299 1.054666 -0.347659 -0.401334 -0.233067 -1.052404 1.114351 1.888640 2.045107 -1.147257 -1.922854 1.086263 0.455235 0.240180 0.679084 0.239179 1.647502 0.688987 -0.239444 -0.131277 1.099038 0.614230 2.123352 2.279718 -0.447301 0.239969 -3.173971 1.042747 -2.255191 0.935954 -0.732841 2.351899 1.214661 -0.661591 0.936211 -2.657774 0.505014 0.915084 -0.772749 -1.491417 -1.531446 -0.737495 -1.159819 0.697248 -0.144727 1.418077 0.046147 -1.111367 0.636312 -0.619684 -0.586880 0.206952 -0.474643 -1.393703 -0.110727 1.434446 -0.482703 -0.190159 1.123356 -1.488043 -0.361053 1.252386 0.130991 -1.057491 1.928497 0.403782 -0.955459 3.012160 0.225802 0.481832 0.482604 0.815073 -0.450667 0.850998 0.760194 -0.304571 1.258174 0.510086 0.866508 0.427010 0.501313 1.291786 0.349757 0.889814 0.429678 -1.336339 -2.132848 -0.563887 -0.417338 -1.743479 -0.941189 2.316476 0.099555 0.194179 -0.200192 0.484176 -0.183138 0.062405 0.469134 0.976998 -1.151786 0.779551 0.539898 -1.489877 -0.544264 1.697257 1.323073 -0.977517
an -0.867075 1.973772 0.441613 0.681279 0.895747 -2.100675 0.661411 0.276219 0.953077 2.452383 -1.419442 -1.577864 1.661512 0.958009 -1.019186 1.452914 -1.033302 -1.575079 -1.062917 -1.616429 -1.702715 -0.234584 0.351820 1.446895 1.315861 0.562237 -0.231289 -1.249678 2.368416 0.399710 1.294923 0.214334 -0.498003 -1.082163 -0.115991 -1.224156 -0.765433 -1.044267 -0.299078 -0.315624 1.577606 0.333115 -2.507201 1.437286 1.843219 -0.579876 0.272572 0.189963 0.661181 0.509121 -0.320927 0.925376 -0.717507 -0.037838 0.810416 -1.994415 1.714011 1.101741 -1.245958 -1.081459 -0.841908 -1.863220 -1.099898 2.905576 0.227695 -1.489454 0.165303 0.857989 -2.496066 1.083243 -0.884141 -1.133105 -0.956350 -1.227356 -0.492895 -4.117579 0.780847 -0.045240 -2.419959 0.181580 2.021333 2.363387 -0.246558 -0.739785 -0.072310 -1.631837 -0.644305 2.026291 0.945864 -1.351139 -0.405360 0.317371 2.491945 0.058497 2.910854 0.401192 0.742301 -0.561559 -1.513417 -0.929449 0.869928 -1.781188 0.331696 -0.006666 0.122577 0.017734 -0.163374 1.024790 2.226335 -0.078947 1.122356 -0.683238 0.086074 1.060969 0.896008 -0.529643 -0.687306 -1.284912 0.742194 1.296098 -1.511234 -1.424097 0.524981 0.097645 -0.799843 -3.167597 1.664231 -1.198414
then -0.840625 0.366491 -1.047466 -0.198234 1.079098 0.265111 1.240736 0.836749 -0.943886 -0.520456 0.023849 0.279850 0.931085 0.114515 0.595213 0.075224 0.659348 -1.150088 0.493115 0.207314 0.181928 0.577776 0.021394 0.350245 0.127021 -0.266770 -0.227029 -0.266874 0.117830 -0.749391 0.001660 -1.250092 0.566227 -0.232611 0.781301 -2.232846 0.002357 -0.749218 0.126510 0.372173 -0.974543 -0.128327 0.200291 -1.618191 0.763248 0.458911 0.476219 -0.593027 1.295823 0.474801 -1.614627 -1.157460 0.482793 0.320123 0.496042 0.867796 0.875580 -0.566279 0.552165 -0.007087 0.455165 -1.950983 -0.874845 -0.071908 0.084567 0.424804 -0.752971 -1.433639 1.185222 -0.564594 0.489966 -0.152419 -0.874232 -1.467270 -0.159734 0.924671 0.381103 0.412308 0.981149 -0.385074 -0.562509 -0.164066 0.728474 -0.022776 0.230208 1.161699 0.873245 -0.476190 0.321740 0.192006 -0.317984 0.739366 -0.441825 0.280818 0.271346 -0.522825 -0.245896 -0.916794 -0.388784 -0.257423 -0.032668 0.861383 -0.651426 -0.658643 0.646737 -0.679357 1.213991 0.504494 0.148962 -0.202136 -0.397521 -0.552526 0.420281 -0.666506 -0.387623 -0.114385 0.214063 -0.383140 0.011411 -0.935759 -0.061820 1.202961 0.680146 0.128772 -0.742126 -0.045542 0.672190 -1.664553
their 1.240491 -0.323422 2.034082 -0.602860 0.139909 -0.504707 1.584842 -1.016085 0.547306 0.253155 -0.746623 -1.223573 -0.721633 -0.483729 -0.010918 -1.098982 -0.399220 0.991964 -0.517068 -2.088290 0.148433 0.020309 1.351148 0.527266 0.327707 0.917363 0.376440 -0.324165 0.930821 0.330366 -0.366749 0.062417 -1.208133 -1.229807 1.108375 -1.564023 0.145726 1.039420 1.050405 0.291650 1.162516 1.034147 1.172563 1.215661 0.032583 -0.468007 0.669039 -0.251944 1.429353 1.437825 -0.514762 -0.983880 -1.327981 0.258742 0.453203 0.183388 -0.936451 -0.847860 -1.993922 1.198753 -1.334993 1.498095 -0.974496 0.159650 1.018103 -0.972697 -0.052671 0.987175 1.380568 -0.864904 1.274389 -1.981221 -1.091144 -0.603282 1.202651 -0.185762 0.009510 0.223643 0.215678 -0.892951 0.368273 0.389256 1.369370 1.473113 2.580654 -1.955498 -0.847416 0.433852 2.099417 0.389089 0.339530 0.494012 0.771472 -0.078510 1.166885 -0.392338 0.697794 -1.301786 -0.219777 -0.077280 -0.984228 -0.580061 0.321607 -0.152980 0.577450 -1.786701 0.304639 2.257359 0.151717 1.363783 -1.328187 -0.505423 -1.124749 -0.145746 0.278569 0.163316 -0.084052 0.245971 0.513465 0.831010 -0.538913 1.270278 1.066049 0.650227 2.185267 -0.514173 -1.461541 1.419477
would -1.280256 2.307560 -0.392432 -0.276791 0.253162 0.545783 -0.202160 -0.129275 0.132288 1.552499 1.318251 -1.447746 -1.529075 0.021579 -0.914441 -1.143641 0.083539 0.907480 -1.436068 2.207994 0.768504 0.941137 1.500545 0.535042 -0.189267 -1.825627 0.190513 0.717998 0.787712 -1.087137 -1.269306 1.592513 0.361467 -0.383727 0.659176 -0.174364 -0.318327 -0.115818 0.098195 0.167129 0.849575 0.655222 1.253073 1.234923 -0.314091 0.697273 -3.620069 0.476151 -2.191534 0.822421 0.622875 2.954562 1.885520 -1.539608 -0.766588 -1.327365 -0.402880 0.593444 -1.426860 -1.311952 -0.914055 -0.584306 -0.623314 1.226020 -0.668877 0.888994 -0.540239 -0.267549 0.433008 -0.291716 0.731146 0.515915 -1.065983 -1.263376 1.092588 1.460229 0.105282 0.290672 0.082791 -1.885002 -0.506360 1.201701 -1.526300 -1.938798 0.157758 0.252809 -0.990666 1.971087 -0.404508 -1.638072 -0.364871 0.544397 0.262383 0.088505 1.808055 0.842270 0.947566 0.900005 2.605032 0.232833 0.612347 0.201530 0.020059 1.288820 0.308687 -1.540429 -1.660561 -0.570149 -1.335166 -0.155832 0.265175 1.660502 -0.253047 -0.343381 -0.246480 -0.316372 1.021288 0.874860 -0.255962 0.930675 -1.445759 -0.252823 1.732782 -1.273214 -0.863762 0.763891 -0.213030 -1.992856
them 1.612648 0.053248 0.956657 -0.911770 -0.591994 0.278167 -0.070239 0.795245 -1.102764 -0.786183 -0.267692 -0.875708 0.816941 1.285252 0.236759 -0.382130 0.385061 -0.869531 0.603307 -0.234418 0.713564 0.546122 -1.033589 -0.271674 0.563681 0.540549 -0.855301 -0.239927 0.846656 0.167745 -1.016291 1.150895 0.513926 1.599812 0.982344 -0.048988 -0.153985 -1.347073 1.250874 1.033443 0.997529 0.653139 -0.983381 0.688813 -0.837852 -0.825259 -0.087177 -0.685153 -0.098047 -1.201790 -0.266907 -0.443439 0.655882 0.637584 -0.556244 -0.959915 -0.345374 -0.902418 0.760501 0.428234 0.044114 1.075098 -0.132206 0.234129 0.097379 -0.026743 1.314005 1.035670 1.677110 0.280256 0.357836 -1.065448 -1.406375 -0.850182 1.426222 0.572016 0.189932 0.939450 0.587755 0.308451 1.621422 1.062349 1.093058 0.464434 1.837485 -0.810631 0.088389 -1.017777 0.594424 0.639267 -0.311197 -0.447721 2.069645 -1.298117 0.709849 2.004511 -0.358969 0.451060 1.214881 0.634767 0.770993 -1.054117 1.198317 0.829575 -1.454265 0.759671 -0.301230 2.017303 1.408227 -0.231951 0.825466 -0.084726 -0.412996 0.386008 1.142490 -0.457184 -0.229586 -0.206109 0.850702 0.260766 0.713551 0.253804 -0.228306 1.396693 0.489256 0.565853 -1.408153 -1.069760
been -1.234964 0.701817 1.351946 1.364838 -0.153639 0.230216 -0.513938 0.539940 -0.258129 -3.167246 0.715855 -1.954157 0.524731 0.284495 -2.876457 1.268823 -0.458846 0.538894 -1.135060 -0.060169 1.396681 0.417224 -1.808270 3.101937 0.268828 -1.110014 0.650499 -0.292828 -1.276002 -0.049278 -0.250139 -0.183445 0.123794 -0.246821 -1.237197 -0.197939 -0.490967 -0.800501 -0.941720 1.493659 1.472517 -0.817515 -0.777949 0.206138 0.063064 0.531522 -0.422557 0.829183 0.698410 0.668015 1.344872 0.347550 -0.001636 0.951803 0.024228 1.444904 -1.114599 -0.267593 2.226532 0.482424 -0.637821 0.867702 -1.719807 -0.314263 -0.602897 -1.103042 1.028180 0.714744 -2.960079 -1.355857 0.892080 -0.306250 -0.642264 0.416946 2.263882 0.675090 0.225392 -0.330177 0.499106 2.300760 0.409707 0.491239 1.641433 0.882492 -0.975699 0.221213 0.519826 0.093447 0.730658 2.644450 -1.153186 -2.163393 1.713797 2.157604 -1.092790 1.289002 1.168248 -0.031055 -0.926006 1.008472 1.049492 -2.488544 3.529582 1.702473 -0.497425 -0.935860 1.911082 -0.991823 1.906313 -0.227621 -2.291716 -1.427984 0.089267 -0.782556 1.545412 -0.562970 1.049805 -0.211622 1.136712 -0.370870 -1.062569 -1.165130 0.743867 -0.133191 -0.310122 -0.473354 -1.430014 0.240306
do 0.928651 0.111279 -1.580871 1.052008 -0.247737 -0.689027 1.168020 1.336546 -0.024454 -1.879520 -0.693064 0.615487 0.268211 -0.436450 -1.329210 -0.222712 2.053972 0.144853 0.635325 0.738082 -0.260676 -0.244931 -1.088756 1.149091 0.009674 -0.920711 0.385002 3.106118 -0.435953 -0.937004 -0.715416 0.031443 -0.126656 -0.219191 0.751359 -1.026769 1.969132 -0.643947 0.670126 -0.333751 0.920463 0.577502 -0.209964 0.392133 -0.785744 -0.589589 -2.416111 1.000636 1.492059 -0.752108 -0.440433 -0.065021 0.667763 -0.118861 -0.172234 0.314664 0.521504 -1.900789 0.538207 -1.593488 0.239454 0.899931 -1.311651 2.091203 0.779935 -0.696141 0.873567 -0.663520 -2.467912 -0.352163 -2.310461 0.644005 0.542696 -0.933645 1.288325 -0.796763 -1.069909 -2.009917 -1.424254 -1.415999 -0.003160 0.869404 0.768084 0.094793 0.946617 1.705472 -0.205010 -0.719993 2.479033 1.188017 0.201032 0.590500 0.761494 0.229584 -1.185206 -1.862499 -1.817794 0.243165 0.106304 1.324497 -0.953352 -0.697778 -0.866753 2.540575 1.273100 -0.474670 -2.179999 0.668424 -0.686062 -1.210219 0.503446 -0.004402 0.000674 1.116111 -1.597264 0.580679 0.541348 0.338125 -0.927561 -0.772563 0.246421 0.855401 0.847405 -2.049518 -1.101466 1.895178 -0.797850 0.478185
your 0.233979 0.619346 1.538985 2.243638 1.075213 -1.280570 0.306606 -1.878147 -0.395849 -1.145956 -0.926916 -2.440217 0.642773 0.001400 -0.186461 -1.469038 -0.666766 2.280205 -1.575488 -2.392443 -0.864286 -0.692363 0.058113 0.469623 0.145406 0.373256 0.349496 0.389831 0.840476 1.246717 0.806706 0.110518 -0.228433 -1.464006 -0.051802 0.426700 0.460898 0.473839 2.235977 0.068426 0.077210 0.654612 0.667947 1.371150 -0.294832 -1.588247 -1.385210 -1.589925 -0.392415 -0.250302 0.357910 -0.259775 -2.360041 0.488175 1.486380 -0.218857 0.941063 -1.315684 -1.645880 1.314590 -2.156627 1.162412 -0.203562 0.406891 0.418121 1.203260 0.074893 -0.709136 0.725174 -0.587328 -0.719515 -1.603125 -1.899897 -0.341625 -1.216135 -1.330119 -1.607728 -1.331684 -0.476600 -1.537717 -0.115195 1.406343 1.225697 0.056512 1.697600 -2.577032 0.056105 0.158456 -0.571989 -0.101984 0.603024 1.650563 1.135641 0.545143 0.225693 -0.640228 0.525389 -0.648377 1.572427 -1.312793 -0.750284 0.577793 -1.595426 1.119006 0.955154 -1.561949 1.361708 1.372126 0.561486 1.588290 -1.445593 0.016794 -0.643327 0.295557 0.643249 0.865305 -0.564785 1.485265 -0.396961 -0.249344 -1.058623 0.127666 -0.093481 -0.206955 0.642595 1.235353 -0.971250 -0.758260
now -0.234954 0.832138 0.309370 0.703616 0.452624 -0.090637 0.519921 0.496172 -1.454732 -0.543821 -0.519735 -0.717958 -0.558535 0.461459 0.319908 0.014325 0.260781 -0.600946 0.515204 -0.054021 -0.664838 0.698940 1.325384 -0.310155 0.031288 0.509691 -0.394923 0.052906 -0.262320 -0.079871 -0.412401 -0.603302 1.596753 -0.030660 -0.616372 0.069844 -0.101216 -0.449271 -0.307059 0.209249 -1.161538 -0.201006 -0.212166 -0.145692 -0.188664 0.233988 -0.642949 0.700511 0.623132 -0.212350 -1.064723 -0.964954 -0.454688 0.826378 -0.288042 0.814462 -0.010633 -0.128188 -0.233387 -0.402705 0.940278 -0.503246 -0.779773 -0.965542 0.227524 0.911512 -0.101748 0.062619 -0.231479 0.089586 -0.204825 -1.065915 -0.528148 -1.004755 -0.652635 0.444552 0.423671 0.523368 -0.513208 -0.211245 0.292931 -0.330559 0.028426 -0.397274 0.398386 0.774291 0.855606 -0.717362 0.221632 0.121901 0.082304 0.503123 -0.378997 0.392485 0.098991 0.621984 -0.389659 -0.399288 0.063020 0.797383 -0.209940 0.865125 -0.770455 0.265322 0.189286 0.476782 1.235825 -0.374581 -0.356940 -0.475096 -0.988929 -0.446206 -0.447666 0.162713 -0.048022 -0.355030 0.311835 -0.534314 -0.147813 0.183895 -0.415440 0.253828 1.146361 -0.047015 -0.596707 -0.533706 2.131485 -0.059491
out -0.146446 -2.970365 0.070165 0.036559 1.050775 0.588904 -0.552950 -0.732209 -1.376914 0.466918 0.852140 -2.584427 1.805656 2.202242 -0.160471 -0.256407 0.066036 -0.356475 1.868938 1.185554 0.475197 -0.133240 0.214494 -0.166690 1.743090 -0.472489 0.369140 0.471919 0.744306 1.204015 -0.401623 -0.198379 0.514479 1.736453 -0.207801 1.432688 2.339468 -0.443013 1.390444 0.031451 0.162743 1.082863 0.157522 -1.934894 0.662464 0.998199 1.344000 0.008401 0.651504 -1.283475 0.182167 0.052664 -0.668961 0.705269 -1.015462 0.392505 0.648364 -2.014334 -1.542446 0.420937 -0.008667 0.450413 0.388083 0.569755 -0.341225 -2.273374 -0.415461 -0.090307 0.953604 -1.559152 -0.026835 1.627201 0.490905 -1.009247 -1.123293 1.065221 1.024013 0.663110 0.300166 -0.772944 -0.520632 0.767387 -1.483918 0.583967 -1.225068 -2.064711 0.587475 0.465020 0.202257 0.233681 -2.042771 0.687441 -0.459037 1.683748 2.631134 -1.408278 0.786285 1.079621 -0.048271 1.751464 1.778006 -2.876875 -1.564089 -2.838549 -1.280611 -0.320621 -1.389266 0.698830 0.055318 -0.425168 0.666944 -0.432075 -0.676687 0.258759 1.191375 -0.639113 1.161345 -1.867737 2.202102 1.058143 0.718456 1.490441 -1.554151 0.119151 -1.599391 1.120131 -0.053762 -1.556098
more 0.264836 1.526221 -0.648441 1.378780 -1.494773 0.352149 1.048003 0.723133 -0.659790 0.352657 -0.805694 -1.261779 -1.451905 0.622948 0.202561 1.078367 0.004061 -1.686564 -1.505142 2.101955 -1.118579 -0.985657 0.927390 -0.795263 1.966128 0.579432 0.149114 -1.568308 0.517640 1.093194 -1.247712 -0.189118 1.671065 -0.976840 0.051605 -0.017010 -1.058135 -2.075988 1.344485 -0.751325 -0.730623 -0.114674 -0.284414 -1.335793 -1.122816 0.432545 -0.112125 2.180828 0.510157 -1.093173 -2.146523 0.492641 0.797752 -0.147470 0.373016 0.068772 -1.674263 0.223872 -0.264796 -0.299117 1.175097 -1.753636 0.199811 0.119497 0.527460 1.485157 -0.228964 1.748893 -2.761217 0.301200 -0.858526 0.187573 0.719046 0.752742 0.297469 0.546506 0.729284 0.838631 0.773305 -0.604670 -0.085254 0.697094 1.663356 0.590867 1.508415 1.012889 1.313545 -1.784814 0.366946 0.109907 -1.173770 -0.148511 -0.093771 -0.956946 0.260764 -0.571155 -0.357293 -0.344155 -0.186977 -1.172758 -2.696337 0.896789 0.579111 -0.739846 -1.433338 -0.249514 0.439673 0.020334 -0.471195 1.456079 0.951527 1.520596 0.580234 -0.241689 0.037679 0.321064 -1.101676 0.902795 0.210903 -0.370116 0.042912 -0.590556 0.420099 -0.513408 0.872135 -1.802820 -1.837971 0.120147
up -1.175284 -2.464799 0.332277 1.111543 1.012555 1.416541 0.922487 -0.183794 0.495098 -0.033125 1.125453 -1.611220 1.692059 -1.505108 0.000786 -0.859461 1.581966 0.209079 0.643785 0.564539 0.788651 -0.919493 2.089082 -0.615283 1.926916 0.243566 -0.280362 0.059745 1.241616 -0.839776 0.540744 -0.853674 1.353336 0.055127 -1.040569 -0.166338 1.723959 -0.087941 0.663837 -0.905829 0.626926 0.303805 -0.325937 -1.584300 -2.209810 -0.641181 1.514144 -0.005912 -0.736651 -1.034974 -0.415172 -1.240924 0.118317 1.716998 -0.364044 0.280806 -0.319514 0.556578 -1.456861 0.507134 -0.001574 -1.057371 0.280837 -0.978836 0.465469 -1.020745 -1.974997 -0.051380 -0.027864 0.385378 -0.882534 1.876808 -0.755623 -0.173793 0.663889 0.595955 -0.588875 0.308786 0.681350 1.347573 0.649649 0.377792 0.045489 1.457812 -2.029528 0.056298 0.323119 -0.363467 0.994708 0.236454 -2.069053 -1.516944 1.013634 2.652792 2.486592 -0.465974 -1.545347 0.778849 0.630892 0.998852 1.593618 -3.608398 -0.031690 -0.303304 1.872800 0.483766 -1.014273 0.481268 -1.661164 0.881806 1.850505 -1.662736 0.335249 -1.153109 -0.261638 0.723198 0.093743 -0.944116 1.770641 0.981928 1.767003 1.352053 -1.056264 0.787238 -2.048217 1.636406 1.335227 -1.566399
man 0.078470 -1.054572 1.136360 0.654665 -0.632952 -1.261063 -0.374796 1.445797 0.631318 -1.058366 1.083738 0.372710 1.120411 0.042275 -0.100620 -0.325075 -2.277050 -1.527992 -0.140277 1.781024 -0.253255 -0.337712 -0.906562 -1.157918 -1.525213 -1.065815 -0.951869 0.604614 -0.376373 -0.205799 -0.375910 0.315473 1.108704 0.309092 -0.753316 0.012928 0.113398 -0.855053 -0.981027 -1.474596 -0.314011 -1.026517 -2.919646 0.859373 0.101690 -0.205998 0.130805 -0.212902 1.613806 -0.291603 -0.686936 0.391758 -0.239834 0.914879 -0.495062 1.307565 -1.447149 -0.568412 1.115603 -0.275896 -1.210234 0.366499 -0.537867 -0.916785 -1.170174 -0.710501 0.628328 0.500122 -0.227685 0.420239 -0.333506 1.803675 0.235663 0.101723 -0.101663 0.958757 -0.152885 2.027924 0.807687 -0.569620 -0.483760 -1.865012 0.118368 -1.659858 1.502087 -0.193486 1.009753 -0.590403 -1.249228 1.038536 0.264995 0.342179 -0.127325 0.714387 -0.908960 1.620960 -1.889768 -1.289964 -0.955925 1.260256 -1.520064 2.322984 0.066471 -1.581839 0.981866 1.270263 -0.534701 -0.101274 0.897177 0.302763 2.954622 -0.702808 2.697390 1.907731 2.334074 0.597448 2.078879 -0.335708 1.178070 0.139461 0.720318 -1.549033 1.866869 1.341007 -0.169128 0.769549 -2.398584 -0.900962
into -3.705641 -2.934437 1.058051 -0.255687 1.846785 2.737498 -0.538937 -2.477323 0.684507 -1.006454 -0.381880 1.878090 0.768144 0.733944 -0.476817 1.082922 1.714052 -0.194489 -2.173729 0.431252 -0.528206 1.784602 2.372500 1.507413 0.918354 2.494302 1.052521 -0.063663 -0.320431 -0.047346 -1.893951 0.201676 1.848729 -0.462806 2.026819 0.137650 -0.295281 1.250450 1.229421 -1.721708 -0.296448 0.634172 1.432979 1.344730 0.312253 0.219422 1.673446 0.755156 0.690821 -1.882746 -0.004868 0.986310 2.334243 -1.428249 -0.662818 1.884543 -0.463664 0.130473 -1.950886 0.283145 -1.523718 -0.265904 -0.086939 1.977557 0.545243 -0.634956 -0.189476 1.784992 0.107507 0.034212 -0.945345 1.753557 2.695430 0.215956 -2.050036 0.602404 -0.226221 0.465415 1.283866 1.838998 0.371075 0.145604 -2.138034 0.130829 -0.671601 0.023902 0.561880 -0.540975 -1.503438 0.034318 -1.974597 -1.137497 -1.056545 1.966773 3.990114 -0.591052 -0.895446 1.577326 1.007937 0.028508 0.050193 -1.682861 -0.196407 -1.753137 1.129424 -1.060453 -0.218314 -0.460426 0.369217 1.262822 -0.487867 0.375337 0.304588 0.542520 -1.222128 0.060790 0.001857 -2.286484 -0.779066 -0.784654 0.257764 0.022012 -1.300040 0.339508 -1.147770 2.697043 0.292273 1.726285
some 0.069887 1.109779 -0.094052 -1.278956 -0.349603 -0.437653 0.180452 -0.457513 0.553862 0.232800 1.609236 -0.091542 -1.717105 -0.554120 0.317212 -1.248461 1.402429 -0.085717 -0.281467 -1.779545 -1.310845 0.515275 -0.042396 0.997085 -0.016407 0.441620 -1.170940 -2.074610 0.871685 0.202633 0.171160 -0.383863 -0.828222 -0.235769 -0.993993 0.446634 0.363494 -0.643622 1.332661 -0.874446 0.162227 -0.444264 1.254950 -0.547222 -0.069913 -0.010483 0.926997 0.585626 -0.962189 2.209263 0.146736 0.656147 -0.779044 -0.135054 -0.664251 0.602365 1.932701 -0.506547 -0.855153 -1.384029 0.783686 0.567711 -1.689702 0.974673 -0.980066 0.391963 -0.814773 -0.399309 -0.103666 -0.167573 -0.296926 -1.097052 -0.245299 -0.054593 0.685253 0.006423 -2.083952 -1.325949 0.979585 -0.408979 1.381071 0.131077 1.600627 1.603987 -0.381594 -0.313411 0.151554 0.695394 -0.837050 -1.566978 1.082296 -2.048477 1.444234 0.289272 0.784369 -1.654706 2.849469 0.164271 -0.494333 0.808702 0.235440 -0.742677 0.868762 -0.891265 -0.229265 -0.255405 -0.334236 2.337068 1.450483 -0.078987 0.691709 -0.091066 -0.463605 2.491318 -0.321619 -0.337046 0.749496 -0.140090 1.935929 1.145705 -1.130762 -0.285223 -1.021036 0.584368 0.100468 0.159444 -0.503409 0.538371
could -0.785765 0.568839 -0.086867 -0.380118 0.717237 -0.472510 2.136460 -0.039122 -1.678080 2.619205 1.947498 -1.408936 -1.743784 -0.409389 -1.175980 0.405136 0.428989 -0.158346 -1.386515 1.483423 1.242487 0.900506 -0.270784 0.004244 -0.262244 -0.382400 -1.258385 0.070132 -0.700126 -0.654487 -1.000312 0.462893 -1.802825 -2.048233 -0.145345 1.499966 1.462310 -0.790320 0.061092 0.253572 1.631570 1.621896 1.105860 1.063721 -2.206568 0.333449 -3.711508 -0.205924 -1.851134 -1.040856 -1.972280 0.752349 1.288168 -2.060164 -2.237505 -2.891022 1.003223 0.475309 -0.775362 0.122763 -1.068382 0.626216 -2.209727 1.283423 -0.036946 -0.037728 0.572411 -2.139453 1.139399 0.551597 -0.085783 -0.350512 0.119843 -1.136310 1.550410 3.228960 0.493732 -0.817920 1.942399 -1.477949 -0.739205 -0.584669 -0.636029 -0.946667 2.799931 0.304964 -0.532414 3.003931 0.428628 -1.708518 -0.709285 0.295097 -0.298228 -0.834625 1.681298 -0.409800 0.242157 0.812953 1.522521 0.627858 -0.938915 0.083422 -1.116423 1.685966 1.250865 -1.753394 -3.380428 -1.013310 -1.108494 0.481481 0.132962 1.428102 -0.277271 -1.528557 1.502222 -0.648210 0.400944 1.201228 1.537097 0.006348 0.055699 -1.746287 0.275471 0.841562 -0.251600 -0.257417 1.377169 -0.234766
has -1.389953 -0.460609 -0.986468 -1.019984 2.486024 0.050505 1.689698 -0.074050 0.614922 1.101418 0.417869 1.628458 -0.369528 -1.568534 -0.238649 -0.250672 1.625561 0.438469 1.074769 -0.176295 -1.178338 -0.615258 -0.746761 0.186470 -1.225637 -0.642301 -1.409397 -0.413174 0.629808 -0.355407 1.554604 0.432853 0.978068 -0.391256 0.806421 -0.245216 1.950678 2.931853 -1.466787 -1.051029 -0.442905 0.226415 -0.516893 3.075078 -0.174235 0.566568 0.255994 2.094464 -0.173393 -0.540123 -0.676175 1.420018 -0.023408 0.381144 1.263832 -1.696783 -1.599752 0.766101 0.191906 -2.274107 -0.964877 -2.936021 -0.837675 0.245095 1.432565 -0.079280 0.400004 -0.717852 2.980572 -0.200096 -1.345326 -1.829146 1.145756 1.598790 0.103389 0.101556 1.413562 0.328435 0.950847 -2.601334 1.281073 -0.201523 -3.025609 0.249964 -1.153849 0.594882 -0.280606 2.385656 -2.244107 -0.779567 -0.524604 0.757798 -0.520808 -1.890386 0.320979 -0.825794 -0.754540 0.343529 2.723797 -2.678015 -1.950450 2.602313 -0.109662 0.157870 -0.920151 2.294329 0.305627 -1.310086 0.078628 -0.245873 -0.974031 2.020657 -0.892182 0.011646 1.044458 -0.989372 1.094424 1.253244 0.457567 0.063403 0.924265 1.198491 -1.897531 -0.961029 -0.024548 0.273158 -3.485257 -1.134479
only -0.405935 1.651546 -0.674978 -0.380108 -0.799793 0.305370 -0.199260 0.241343 -0.305080 -0.769304 -0.960909 1.060295 -0.818169 -0.229086 1.420317 -0.466631 -0.484316 -1.431595 0.352152 -0.435269 -0.191571 -0.565533 0.204546 1.147121 0.587936 -1.124923 0.126822 0.314598 -0.686574 0.132400 -0.512292 -0.748206 -0.069761 0.905917 -0.885287 0.045365 0.021101 0.618445 -1.279961 -0.708758 -1.062404 0.623550 1.234703 0.901132 -0.835902 0.301331 -0.794917 1.425815 0.071029 -0.772599 0.394106 -0.219138 -1.149514 -0.569482 -0.226623 0.206227 -0.122621 -0.216820 -0.252337 0.530360 2.854698 -0.657197 0.123480 -0.145897 0.473849 0.164011 0.516387 -0.053868 0.119294 -1.478588 1.510950 -1.940340 0.596806 0.836832 -0.820898 -0.418810 -1.086520 -0.657559 -0.748272 0.702902 0.090667 0.313692 0.894425 -0.192631 0.437523 0.527538 0.711485 -0.599929 -0.494223 -0.533707 -0.227816 -1.607590 0.910290 1.290779 0.163525 -0.406108 1.049422 -0.614672 -0.102398 -1.593943 -0.896452 0.437772 -0.265813 1.823378 0.592515 -0.988438 -1.550688 -0.807391 0.189363 1.124542 -0.064871 0.485027 1.012867 0.608843 -0.108754 0.123688 1.503734 0.485728 0.813773 0.608938 1.382380 -0.380649 0.080732 0.259132 0.825752 1.207793 1.465498 -0.441492
any -0.862677 3.071546 0.220580 -0.083302 0.675572 -2.448826 1.358278 0.667452 -1.092111 0.372167 -0.119136 -2.203833 0.808861 -0.239343 1.131283 -1.794379 0.832505 -0.658818 -0.799704 -2.007595 -1.984877 0.125907 -0.660547 1.415264 0.951184 -0.047553 0.434512 -1.771329 -0.779249 2.884201 -0.494391 0.047484 -3.285113 -0.059625 -0.190811 -0.206422 1.309570 -0.206390 -1.600403 -0.119765 1.627835 0.678449 2.014688 1.034080 -1.009207 -2.298417 -1.254134 -0.648994 -0.857966 0.434205 1.212206 2.015143 -1.533836 -0.605540 -0.322610 0.150679 2.127969 -1.023643 -0.945691 0.435308 0.573263 0.378225 -0.577561 1.808100 -2.152695 2.034989 -0.019616 0.446907 -1.383527 -2.448914 -0.415314 0.620369 0.773733 -0.325741 1.036665 -1.180487 -1.509726 0.129651 0.160482 -0.285609 2.452934 -0.272566 0.003481 1.493915 -1.333324 -1.463906 0.329289 -0.163779 -2.308123 -1.576452 1.332858 -1.861246 1.096215 -1.696316 0.740424 -1.309439 0.818780 0.504313 0.000513 1.041004 0.737742 -0.240374 1.442120 0.749534 -0.083294 -0.349777 -1.847213 0.069153 3.128182 -0.562718 0.778301 0.684591 0.266595 1.127280 1.213578 0.075834 -0.435586 0.393569 1.716714 0.270008 -1.602530 -0.736675 -2.138539 0.854315 1.417283 0.707324 -0.682453 0.623260
very 0.449842 0.462174 -0.042204 1.143107 -2.325590 0.403112 -0.542949 0.483236 0.208909 1.961664 -0.203950 1.069111 0.167819 0.454317 -1.071897 -0.582168 1.412283 1.759178 -1.692372 -0.477568 0.616910 -0.138227 -0.271730 -0.410221 2.486531 -1.563512 0.847950 -0.208366 2.217355 1.059152 -0.114638 0.586119 -0.472442 -0.265773 -0.562058 1.437474 -0.637071 0.763349 -0.139657 -1.082724 -0.773618 -0.747640 -1.465513 -2.915628 0.531142 -1.172224 -0.090888 0.785671 0.635210 0.057092 -1.440761 1.984313 0.008589 1.041891 -0.144672 0.770125 -0.739095 -0.455103 1.944751 -0.624078 0.125061 -0.258794 -0.488266 -0.134608 -0.282060 -1.262016 1.081112 0.703962 -1.575722 -1.087578 -0.104845 -0.022810 0.748006 1.985014 -1.894167 -0.363776 0.276978 1.852378 0.596334 -0.625003 -0.760176 -0.524326 1.893250 -0.307901 -0.196089 1.360871 1.835887 -1.857703 -1.504986 -1.991711 -0.668694 1.358647 1.793767 0.392770 -0.060038 -0.490184 2.280044 0.077420 -1.078122 -1.272607 -1.538985 -1.016019 -1.799223 -0.961197 0.577221 -0.764989 -1.985045 0.140022 -0.278717 1.429383 1.053418 0.749164 -0.415598 1.176155 0.159728 0.090636 -0.629478 1.515276 1.821834 -1.851194 -0.817296 -1.282774 0.542174 0.453260 0.297972 -0.271868 0.124687 0.245226
like -0.572719 -0.693024 0.503288 -1.096089 2.067908 0.738773 1.119832 -0.576432 0.849503 0.032819 -0.042613 0.884292 0.164884 -1.809961 0.558518 -1.678119 -0.364799 0.317256 1.269714 -0.179147 2.406758 0.167565 0.982469 -0.581788 0.028123 0.237759 1.565154 0.759061 -2.236587 -0.187586 -0.442155 -1.416716 -1.178739 0.622784 -0.165215 -0.084263 0.177979 -0.311561 -0.556021 -2.243292 -0.712254 0.074661 -0.057955 -0.534049 0.119853 -1.483973 1.999932 -0.308495 0.519400 0.426792 -0.100850 0.922851 0.379753 -1.636968 0.261993 -0.119063 -0.626068 -0.234767 -0.352963 -0.322743 -0.290148 -1.641990 -0.801037 0.408327 -0.669868 0.317932 1.251962 -0.596826 -0.730107 -0.782116 0.208999 2.047306 -0.665619 1.854988 -1.033008 0.400856 -0.728280 0.091440 -1.793617 0.481991 0.474529 -0.152965 -0.136506 -0.171949 -0.100545 -0.643528 0.275237 -0.886101 -2.181298 1.585132 -0.752217 0.912244 -1.535324 2.386910 -0.775065 0.366654 -0.745560 -0.796301 1.005826 -0.189452 -0.577157 -0.408933 0.953624 1.302002 0.318713 -1.013891 -0.350374 0.697489 -1.283538 -0.381147 -0.384762 0.251412 0.204770 0.204912 0.488433 -1.169086 0.341759 -1.151286 0.295510 -1.390245 0.549190 -0.439285 -0.004403 -0.565462 -0.749011 -0.687546 0.843310 -1.412516
did -0.200964 0.661361 -0.485627 -0.216386 1.448155 0.862364 1.902403 0.772516 -0.484685 1.118113 0.675921 -0.645281 -1.015958 -2.143358 -1.320366 1.014207 -1.303931 1.348350 0.258370 2.144279 1.166062 2.119174 0.729371 1.074567 -1.657435 -1.167750 -0.933007 2.519954 -0.035979 -0.251781 -1.300848 -0.830532 0.134941 -0.318801 1.754671 -1.007622 1.647981 -0.328241 0.696138 0.259030 0.854444 1.491850 1.604977 0.823834 -0.889454 1.824732 -3.774524 1.874979 -0.746951 -1.294847 -0.903229 0.841470 1.723245 -1.222383 -0.735646 -2.656144 1.146864 0.677292 -0.401389 -0.668210 -0.422912 0.416436 -1.843876 1.898827 0.443896 -0.379135 1.642392 -0.113300 -0.805595 0.804130 -1.973976 -0.189696 1.636210 -0.870224 0.795657 0.024649 -0.476028 -0.643572 -0.682224 -2.933806 0.667201 1.024158 1.045845 0.478417 1.127519 0.806026 0.193234 0.451032 0.080878 -0.369551 -1.882088 1.215987 0.796986 -2.363826 0.334904 -1.460767 -1.314738 0.356248 0.654598 1.071109 -0.508717 -0.436838 -1.846106 2.667568 1.291428 -0.767037 -2.872910 -1.376671 -1.110646 -0.952885 1.294509 -0.330147 -1.124775 0.855613 -0.812983 0.288699 -0.328157 0.921336 -0.865962 -0.886590 -1.746996 -0.631125 1.755898 -0.711355 -1.210590 2.226427 1.452085 -1.548119
time 1.314714 -0.644146 -0.167083 -0.196437 -1.263187 0.877026 -0.943142 2.129620 0.494167 -1.082579 -0.767985 0.243972 0.733991 0.061144 -2.798832 -0.988267 -1.329021 0.186413 0.691571 -0.227197 0.237379 0.620750 1.343154 -0.615204 -0.859113 -2.584147 -0.712429 0.634185 1.009999 0.555803 0.817404 -1.825083 1.783751 1.493202 0.345845 1.457937 0.392174 -0.406477 -1.504522 0.457883 -0.010499 -0.311907 -1.303112 0.035304 -2.542825 0.587647 -1.023846 1.269293 0.731839 -2.217477 0.953257 0.467110 1.851674 0.039349 0.440884 0.670896 0.234515 -0.230395 1.409896 1.309566 1.252741 0.281431 -0.106387 -3.528769 -1.590392 -0.611698 0.313885 -0.005644 -0.025319 0.026038 0.293329 -0.983319 1.588729 0.087688 0.365131 2.135776 2.336790 0.364420 0.932124 -1.247298 0.626303 0.574775 0.152135 -0.804877 1.851054 0.104651 0.538614 -1.894887 1.450746 -0.178088 -0.886784 -0.685886 -1.758261 -0.039069 -0.075078 2.197928 0.202551 0.078961 -1.393590 -1.051204 0.811914 1.722201 2.016860 -1.396612 -0.359983 0.855081 1.012619 0.298453 0.381993 -0.791354 0.837708 -1.880690 -2.016666 0.349639 0.158792 -0.165532 -0.359694 1.392228 0.019835 -0.237428 0.583898 -0.294825 1.355667 0.905715 -0.673830 1.853010 -0.935199 -0.584262
its 1.686227 0.034807 0.241678 0.869319 0.658971 -1.705114 1.006064 -1.076009 1.036739 -0.504958 -1.538630 -0.554144 0.435235 -1.177856 -0.805066 -0.737152 -0.668225 0.215258 -1.341860 -0.790186 0.403090 -0.223750 -0.353444 -0.859059 0.306865 1.013074 -0.945742 -1.704100 0.181341 0.716179 -0.488421 -0.337271 -1.008221 -0.533755 0.009599 -1.603123 -1.111419 1.708805 0.147020 0.026491 0.203702 0.674630 0.246068 -0.076295 -0.937886 -1.391713 0.947213 0.069391 -0.543879 -0.249158 -0.544771 -0.219443 -1.754586 0.714119 -0.607240 0.933571 -1.847650 -1.371421 -1.122947 -0.689315 -1.893495 0.892828 -0.490843 0.005209 0.616353 -1.419013 -0.449030 0.306630 0.138494 0.158152 0.224360 -2.637226 -0.458668 -1.787895 -1.872726 0.400377 -0.994115 -0.369005 -0.247510 -0.478100 0.415270 1.255170 0.234053 1.865933 0.192213 -1.758548 0.199873 1.100668 0.422091 0.646508 -0.187440 0.529027 0.493497 0.962828 0.112741 -0.743940 1.013457 -0.511573 -0.312687 -0.624870 -0.115007 -0.819525 1.082213 1.267527 1.589859 -2.087947 0.777043 0.652519 1.800106 0.259872 -1.050286 0.364443 -0.794869 0.070445 -0.019828 -0.905601 -0.077586 0.295479 -0.039658 1.131443 -0.448856 0.381977 0.458005 0.518308 -0.191029 -0.739467 -1.030593 2.426710
than 0.110035 2.002020 -0.553604 1.688229 -0.215367 0.760123 0.853439 -1.005794 1.411155 1.519344 0.016223 -0.078457 -1.726848 0.730486 -0.216682 0.338533 -1.388397 -0.211722 -0.744970 0.517386 2.113372 -0.522761 -0.710026 0.913929 -0.405556 -0.024067 0.404905 0.529956 0.206028 -1.236234 -0.891371 -0.550712 -0.724496 -1.191335 -0.275100 1.257482 0.456849 -0.619798 -1.576091 -2.084898 -0.327415 0.755070 1.481367 2.554552 -0.180553 -1.234528 0.264162 -2.097291 -1.155566 0.336870 0.086618 -1.420876 -0.310133 1.088318 -1.056872 2.554759 -1.629702 -0.308564 -1.239569 -0.705897 -0.742620 -0.164176 1.954857 1.034123 -1.720744 -0.380232 -1.203002 -1.842966 -0.442878 -1.931074 2.783541 0.462503 0.225084 3.304373 -0.143270 0.022534 1.233205 0.439084 1.130410 -0.694686 2.045713 -0.478017 -1.245634 -2.679508 0.614884 -0.210150 0.818738 -0.354359 -2.459962 -0.853477 2.179336 0.866482 -0.223939 0.389905 -0.568871 0.947434 0.614819 1.395253 -0.067912 -1.432005 0.670561 0.606749 -0.753777 1.639878 1.213595 -0.514858 1.404627 0.578344 -2.683548 -0.994463 0.661306 -0.709599 -0.011222 1.248689 -1.793654 -0.721196 0.313214 0.574970 0.569801 0.272374 -0.003287 0.479250 -2.690013 -1.417211 -0.013082 1.995916 0.164522 1.679803
other 1.562902 -1.793731 1.709244 0.359398 -2.094346 -0.594250 -0.626740 1.169682 0.195593 -0.536492 -0.009347 -2.002124 0.843814 1.512195 -0.503730 -1.131739 -0.201028 0.791086 0.549597 0.448210 -2.607559 0.961779 -0.696963 1.697515 -1.026495 0.780636 -0.679098 0.246058 0.260166 0.013038 0.008328 0.936094 0.387948 -0.397118 -1.100519 0.083348 1.517092 -0.608725 -0.004803 -0.748084 -2.348014 0.553529 0.236338 0.227479 -2.327643 -0.800249 -0.681672 -0.549207 0.701353 -0.374575 -0.034260 0.524002 0.844468 -0.898001 0.897618 -1.349253 -1.510030 0.553004 0.293410 1.262338 -0.754512 0.532032 -0.166113 -1.465221 0.007743 -0.198834 -0.342473 1.215636 -1.437731 0.727866 -0.811139 -1.150245 1.191050 -0.022127 1.946077 0.625715 -0.910431 0.332291 0.143019 0.178700 -0.766088 -0.915390 2.315118 0.304488 -0.813121 1.368918 -0.942175 -1.792324 1.279293 1.254097 -1.834826 1.351309 -2.008240 -1.361112 1.204437 -0.874555 1.306403 -1.035271 -0.692602 0.717068 -0.934586 0.994583 -1.001889 0.345054 -0.998658 0.251475 0.373078 1.229929 1.226535 1.053789 -0.612387 1.253459 0.285664 -0.694814 -0.468892 -2.831590 1.498387 -0.962796 -0.729271 1.045165 2.250635 0.086144 0.380406 -0.417888 2.002179 -0.518834 -1.601179 0.567554
before -1.107195 -0.439599 0.142389 0.645618 1.039519 -0.766851 2.007071 -1.187834 -0.135411 0.348244 0.676941 -0.073500 -0.736116 -0.557701 -0.019890 1.399413 -1.933448 -0.289546 1.171422 0.784825 0.139314 0.638505 0.885340 0.822399 -1.948342 -0.891933 -0.473054 -0.215222 0.534749 0.232164 -1.006328 -0.758825 1.297259 0.955053 0.676820 -0.727579 -0.229839 -0.700940 0.183815 1.066875 1.028781 1.774925 1.168001 -1.162974 1.282205 0.671767 0.351318 2.575995 -0.345745 0.993450 -2.092104 -0.143330 -0.325119 -0.496504 0.360854 0.335502 -0.433415 -0.588829 0.176240 0.089447 1.113570 -0.613552 1.017876 -0.186784 1.434124 2.203158 0.465136 0.763757 -0.369178 -1.115674 -0.161030 1.429455 0.642836 0.477636 -2.507238 0.161511 -1.163150 -0.287594 0.270974 1.067337 0.009701 -0.839774 0.972765 0.185834 -0.844286 1.372115 -1.113020 0.185374 -0.078673 0.612901 -2.219099 -1.813754 -0.285973 0.526158 0.657959 -0.622169 -0.524389 -0.387781 -0.406868 1.132059 1.754259 1.268275 0.437942 -1.234741 -1.026379 1.113404 0.215478 0.323979 -1.249495 0.003525 -0.078548 -0.413832 -1.602483 -2.014501 -0.803014 -1.126527 -0.710195 0.513037 0.350122 -0.557772 -0.760540 0.535186 -0.537548 -1.074360 -0.026573 -0.476381 0.960106 -1.289662
about -1.027130 0.487242 -0.316760 0.853562 1.212948 0.670463 -1.361967 -0.877110 1.830693 1.930268 -0.292866 0.056688 0.442235 -0.255843 0.441248 0.172037 -0.162984 -0.315608 0.598172 1.553559 0.992471 -0.210264 1.460414 1.415025 -0.374573 1.272303 0.547504 -1.089000 0.572183 -1.607718 -1.417023 -0.621072 -1.047959 0.184390 -1.575207 0.419862 -0.160972 -0.555904 1.586011 0.210309 -0.824094 -0.602981 0.611384 0.356173 -0.690619 1.512887 -0.525646 2.083793 -0.020800 1.878129 -0.097263 0.592714 0.960966 -1.697142 -0.412663 0.763474 -0.956659 -1.019377 0.250251 -1.721055 0.611601 -0.122563 -0.460502 -0.705504 -0.576853 -0.338169 0.395980 0.297671 -1.115191 0.130049 1.269360 0.004467 0.342584 1.969272 -1.807539 -0.395371 -0.432388 -0.385950 -0.916072 1.631236 -1.268726 -0.592775 0.859609 0.947139 0.448661 0.801882 1.551787 -2.230148 0.642264 -0.431155 -1.243743 1.747942 -0.216048 2.039602 1.085155 -0.579800 -1.678628 -0.774601 -0.375978 -0.141848 0.188507 1.032635 -0.668968 -0.978556 0.709877 0.026419 -1.140463 -1.276990 1.148981 -1.151129 0.174644 -0.037346 -1.511832 0.860165 -2.930853 0.099371 -0.381049 -0.835955 0.211275 0.794235 2.499188 0.730864 -0.994466 -2.099695 -0.186348 0.722434 -0.317229 0.446312
