3000 128
<pad> -0.509701 0.331496 1.175443 -0.193891 -0.027464 0.009416 -0.220954 0.107879 -0.287980 -1.404845 -0.116812 0.052553 -0.481095 -0.390681 0.042257 -0.742312 0.527903 0.417517 -0.990465 -0.798370 0.478681 0.951752 -0.781036 0.340460 -0.780367 0.099996 -0.232628 -0.381584 0.011027 1.286187 -0.240022 0.137137 0.685861 0.566829 -0.072774 -0.243233 0.458013 -0.097317 0.090859 0.627427 -0.386456 -0.105685 0.554010 0.386526 0.182077 -1.266400 -0.217434 -1.095126 0.649186 -0.823838 1.645100 0.100463 -1.480099 -0.203909 1.308458 0.107041 1.216707 0.930509 -0.256488 0.402533 0.421939 0.477398 0.246719 -1.742607 0.590619 -0.240365 1.200085 0.016925 1.267971 -0.231204 -0.261260 0.943831 0.173863 -0.775978 -0.629496 -0.452291 0.435376 -0.730214 -1.211925 -0.638873 -0.236389 -0.204794 -1.376131 0.337131 0.221494 0.120543 1.207551 0.423913 -0.590103 -0.681643 0.305358 0.171427 0.537817 0.564500 -0.224742 0.170968 -0.617078 -0.699188 0.201791 -0.052730 0.683629 0.249263 -0.226624 -1.415623 0.154310 0.990548 -0.047166 -0.000739 -0.920620 0.028473 0.174358 -0.330558 -1.273545 1.313011 0.249839 -0.785764 0.883951 -1.070114 -0.091903 0.113894 0.272808 -0.923106 0.433506 0.833439 0.182528 -0.078801 0.408623 -0.215219
<start> 0.698633 -0.082561 -0.699075 0.868824 0.770285 -0.222558 0.270521 -0.860837 0.476889 1.800055 1.084848 -1.121238 0.505671 0.013738 0.119747 -0.262594 -1.807659 0.317689 1.674826 1.096459 -0.291054 -1.978682 0.871657 1.090891 0.161683 -0.207064 0.427289 1.278121 -0.743348 -0.669902 2.446973 1.520931 -1.179646 -0.623401 1.754905 -0.240835 1.214176 -0.915626 0.465733 0.205802 0.090892 1.183968 -1.834800 0.708789 0.824478 0.964289 0.477255 -3.423757 -0.494551 0.150317 -1.020717 -0.721680 0.941574 1.622534 -2.217126 0.333909 -1.292887 -1.666698 -0.391264 -1.655203 -1.883027 -1.146291 -0.671238 1.581636 -1.068201 0.833136 -2.998528 0.837717 -2.376608 -1.447878 0.242299 -1.282478 -0.872351 0.583757 1.205557 -0.498824 0.977569 0.255222 0.853455 0.830462 0.842253 0.113497 1.215784 -1.963125 -1.324546 -0.529876 -2.712858 -2.042642 1.273357 -0.398475 -0.222085 0.529842 -0.101614 0.663283 -1.969657 -0.989527 0.845009 1.888305 0.202610 -0.337478 -0.411622 -0.493174 -0.000866 0.180426 -0.222419 0.068791 -2.190651 -0.650158 1.356637 -0.905386 -1.247741 -0.692780 1.646779 -1.256701 -0.088065 0.592977 0.126010 -2.368823 0.223557 1.347375 -1.265770 2.367677 -1.028422 -0.273778 0.039862 1.750287 -0.810858 -0.654705
<end> 2.038334 0.088404 -2.061580 0.164248 -0.156690 0.120153 0.822432 -1.453732 0.536762 1.686871 -1.341689 -1.710609 -1.137569 1.420360 0.130757 1.766275 -2.425873 -1.830144 1.682069 0.202869 -1.226216 -1.213594 0.567458 2.610664 1.437345 0.159103 1.232165 0.785136 -0.112473 -1.484335 -0.164662 -0.961845 -0.749581 -1.384385 -1.294737 1.158538 -0.749780 -1.030793 -0.076037 -0.749830 0.394245 -0.505219 -0.975664 -0.648137 -1.296494 2.865177 1.363930 1.436218 -0.266840 -0.612181 -3.125578 0.908854 3.132935 0.399527 -0.883088 -1.056178 -1.981284 -0.358197 1.110606 -0.681888 -1.160643 -0.874032 -0.869655 2.279006 0.386499 0.419852 -0.475860 -0.077860 -0.946752 -0.771736 -0.038555 -1.451050 0.778102 -0.041800 0.445315 -0.494424 -0.549345 0.528099 1.919059 1.400156 1.820215 1.200963 0.672770 -0.278305 -0.140882 0.143540 -0.296847 -0.315828 -1.012762 1.063829 -1.666097 -0.113265 -1.553362 -1.378762 1.956848 -1.605524 1.627484 1.799844 0.350466 -1.282953 -1.153165 -0.047192 0.662553 1.045921 0.346339 -1.510821 0.980757 0.166794 0.960514 -0.187822 -0.749081 -0.857018 0.205018 -3.304700 -0.330664 1.727692 -0.607568 2.531606 0.005486 -0.441285 0.567122 1.692236 -0.824422 -1.512444 -0.741290 -0.750431 0.133737 2.235551
<unk> -0.643225 0.272540 0.023356 -0.251716 -0.228561 0.149040 -0.067775 -0.117748 0.072948 0.484752 0.059541 -0.397988 0.423066 -0.004943 -0.232702 -0.140994 0.134646 0.279147 -0.261901 0.170585 -0.083578 0.222718 -0.004273 -0.317632 0.248672 -0.166521 -0.542231 -0.147272 0.457766 0.272913 0.592888 0.077320 -0.209914 0.111985 0.618238 0.146443 0.038315 0.306828 -0.274499 -0.470496 -0.455386 -0.043987 0.024974 0.000689 0.297156 0.016607 0.438119 0.011646 0.075995 0.096844 -0.290903 0.145307 0.080659 -0.060596 -0.262764 0.446947 -0.122841 0.490373 -0.923779 0.100718 0.172058 0.222463 -0.262663 -0.478699 -0.007983 0.181227 -0.552655 0.182522 -0.198098 -0.115031 0.458737 -0.081789 -0.959641 -0.142914 -0.174413 0.066365 0.285681 0.030588 -1.584461 0.176761 0.245009 0.122383 0.459819 -0.445091 0.133973 -0.765930 -0.472055 0.057758 -0.354727 0.006787 -0.602430 0.125486 0.443331 0.617571 -0.606457 0.426457 0.271521 0.181571 -0.284855 -0.238667 0.412155 0.045512 -0.125576 0.215465 -0.361925 -0.570967 -0.695620 0.539522 -0.033753 0.395711 0.418869 1.062499 -0.349517 0.276848 -0.349729 -0.293694 -0.280626 -0.027772 -0.069719 0.244784 -0.107062 -0.489424 0.001487 -0.263916 0.066476 -0.165792 -0.357167 -0.359179
the 1.947425 -0.470809 -0.856094 -0.150323 -0.497376 0.332550 -0.382374 0.426637 0.662349 0.705749 -1.505766 -0.777056 0.311269 1.377050 -0.566023 0.541118 -1.518062 -0.241779 1.058005 -0.133822 -0.296048 -1.391450 -0.372803 -2.502967 -1.598894 -0.465474 0.264618 -0.009859 0.694344 -0.527244 0.007941 -1.087709 -1.783135 -0.618888 -0.724528 0.126878 -0.398782 -0.411866 -0.617628 -0.148049 -0.350599 -0.088418 -1.046384 -0.313548 -0.145826 3.186817 0.348879 1.539862 0.153821 -1.046750 1.081603 0.419537 1.207919 -0.365978 0.273797 -0.922937 -0.141599 -0.120096 2.055422 0.352885 0.392576 -0.416879 -0.395922 0.859718 1.802917 -0.321798 -0.199957 0.779619 0.771356 -0.166984 -0.164562 0.450507 1.961437 1.334424 0.701431 0.193318 -0.840457 0.032295 1.919414 -0.315801 -0.064517 0.789335 -0.808321 1.157664 -0.205916 1.805592 1.213175 -0.024627 0.045584 -0.084317 -0.046432 -0.612932 -0.023561 -1.668127 -0.862501 0.321394 -1.978223 0.095380 0.812727 0.115601 -0.028452 0.709844 -0.416668 -0.007586 0.571730 0.539783 0.179922 -1.788082 -1.297941 -0.486744 0.397370 -0.402806 -0.778538 -0.724616 0.162587 0.570631 0.636085 0.405484 0.289402 0.403831 -0.405461 -0.747253 0.886608 -0.798131 -0.270525 -0.224411 -0.564988 0.700534
and 1.109310 -0.556340 0.182133 -0.521089 -0.410428 -0.406321 0.277022 -0.529443 0.136349 -0.936722 0.102981 -1.178090 -0.945788 -0.512432 -0.458533 0.300136 0.101130 -0.123937 1.165305 -0.717146 -0.522015 0.379616 0.135294 0.668577 0.447621 0.132076 0.190007 0.392735 -0.840620 0.222408 0.266736 -0.059259 -0.414725 -0.919758 -0.449502 -0.186737 -0.745825 -0.977206 0.561279 -0.352045 -0.447114 0.454999 -0.849659 0.119401 0.053821 0.997599 -0.013216 0.188482 -0.046209 0.333590 -1.782530 -0.708442 -0.751294 -0.053647 0.571841 -0.543418 -0.096088 0.555421 -0.209628 0.152006 0.291080 -0.819106 -0.055042 0.284072 0.514224 0.041950 0.457212 -0.297540 0.180544 -0.485079 0.446352 0.766845 1.330942 0.541463 -0.131691 0.067598 -0.090863 -0.478865 1.664618 -0.591861 0.728331 0.384296 -0.545423 -0.216155 -0.030415 0.523656 -0.271695 0.229898 -0.140211 0.711403 0.190926 -0.420545 0.752007 1.178065 0.749778 -0.943063 -0.093234 -0.166138 0.159118 0.924294 0.282244 0.941718 -0.045854 0.463848 0.306981 -0.196346 0.449618 -0.774716 -0.014054 -0.163515 -0.897380 0.188281 0.118515 -0.690385 0.093255 -0.089294 0.535437 0.078453 -0.144868 0.162137 0.060894 0.685699 -0.380023 -0.050405 -0.594395 0.554947 0.365558 0.759215
of -0.069434 0.352703 0.486155 -0.796001 1.695993 -0.415731 -1.159898 -0.965469 -1.292919 -0.108143 -0.241216 -1.688731 -1.748320 -0.906830 -0.576986 0.283273 -0.018131 0.104800 0.630593 0.645043 -0.005388 -0.947756 0.565596 -1.211053 0.548670 0.227551 -0.255302 0.470093 0.368599 -0.052542 -2.530040 -1.338737 0.713821 -0.148407 0.011367 1.018302 0.649648 -2.815283 -0.710662 0.911559 1.025166 0.076890 0.533723 -0.455598 1.636962 -0.261017 -1.035579 1.347904 0.123126 -0.102658 -2.660098 0.758941 -0.699592 -0.851072 -0.170870 -0.031998 0.905886 0.766876 -1.648395 -0.288480 -0.978067 0.185535 -0.694430 -0.436962 -0.922031 -0.166146 -0.881172 -1.175968 0.136439 2.419948 0.112269 -0.261074 1.521348 -0.878741 0.259215 -0.199865 1.222396 -0.563160 -0.049025 -1.022845 0.650006 -0.570360 -1.507669 -0.927944 0.307558 0.124757 1.961314 -1.209152 1.362282 -0.204341 -0.496532 0.318719 -1.328303 -1.807000 -0.856092 -3.188790 0.992591 0.127113 -0.431448 -0.675188 0.451514 0.179767 0.385169 0.450133 0.287224 1.112962 2.849931 -1.926345 1.371032 -1.158328 -0.051072 -0.319764 -1.232259 0.301589 0.066014 0.563749 -0.723038 1.762149 0.107625 0.491797 -0.468056 1.074808 0.209694 1.492779 -1.129097 0.959583 1.198795 0.467869
to 0.522573 0.949639 -0.492251 0.017643 0.964838 -0.407031 0.684531 0.353365 -0.223205 0.441009 1.161133 2.584838 0.287462 -1.348436 0.016611 0.745950 -0.536544 -0.385897 1.210097 0.380470 0.485737 -0.563441 1.050231 0.767365 0.228981 0.662726 -0.344461 1.392008 -1.470751 -0.392323 -0.034876 -0.153220 -1.188081 -0.386214 -2.427523 0.869613 1.150861 -1.243057 0.101521 0.790275 0.944156 -0.161458 0.709010 1.100243 -0.391213 -2.812392 0.763968 1.872650 0.772011 -0.998557 0.498475 -0.069009 -0.214892 0.253564 0.085979 -1.783550 0.535319 -0.460620 1.634365 -0.513685 -0.455947 -0.489646 -0.188310 1.815806 -0.852511 -0.057626 -0.027569 -0.542620 -0.484908 0.638549 0.305536 -0.276402 1.411959 0.758401 0.435251 -1.431994 0.487945 -0.830815 1.723156 -1.272761 1.060214 0.895988 0.183946 -0.138699 0.160214 -0.628872 1.300054 0.831185 0.747554 -0.567356 -0.125225 1.301366 0.639219 0.252929 4.448896 -1.406683 0.267551 -0.868689 0.319485 -0.536473 0.736001 1.625571 0.307775 -0.150476 0.992341 0.554737 -1.924463 -2.693662 -0.255842 -0.487862 0.049958 -0.699682 -0.333953 -0.359587 0.494794 -0.393423 -1.378961 0.332591 -0.380839 0.349744 -0.602912 2.746511 0.039854 -0.081671 2.132048 -0.813116 -0.202952 0.079064
a -0.066608 0.047944 -2.102647 0.185029 -1.998281 0.575932 -0.255338 -0.843720 -0.286811 -0.666710 -1.486917 -2.184802 0.225113 1.253923 -0.620689 0.968716 -0.847083 -0.047565 -0.122367 -0.109308 1.654404 -3.421998 -1.147687 -1.893313 -1.271114 0.950930 0.466086 0.825999 1.552888 -1.657853 -0.497163 -1.427237 -2.457530 -1.052628 -1.987091 0.552064 -0.267418 -0.794831 -0.026153 0.807343 -0.593367 -0.306475 -0.426539 -1.095673 -0.423065 0.778018 -1.191548 0.685867 -0.878792 0.128791 0.102272 -1.057004 -0.556194 -0.456541 0.210816 -1.238768 -0.598878 -0.917093 2.368704 0.997479 -0.316828 -2.034643 -1.299387 2.559593 1.687753 -0.088470 1.463422 1.348198 0.179979 -0.216561 1.190026 -0.489192 0.985557 -0.250221 1.613584 0.292147 -0.568070 -0.141822 -0.255941 -1.336263 -1.672545 0.792875 -0.431578 2.301825 0.411641 0.818366 -0.577546 -0.296191 -0.720171 0.297614 0.861467 -0.893724 -0.490699 -0.995483 -0.676736 -0.741208 -2.960368 0.022941 1.257532 -1.356775 0.403596 0.508380 0.696865 1.767562 0.751119 0.811945 1.086712 1.355523 -1.257192 -0.610878 0.192841 -0.644393 -0.493161 -1.027503 -0.692589 -0.221208 0.873765 0.143239 0.030868 -0.461105 -0.387288 1.758416 0.558723 -0.359672 -0.493982 0.100546 1.002158 -0.020250
in 0.272246 0.060064 1.772264 0.863978 0.694293 -0.247471 -0.232816 0.777032 -1.491701 0.134035 -0.279191 -0.795887 -0.945034 0.637529 1.815858 -0.046821 -0.293289 1.257079 0.381417 -0.438247 0.724201 0.700991 0.679827 -0.308717 0.638167 0.623899 0.675703 -0.910383 -0.890658 -0.230543 -1.508453 -0.865145 0.898102 -0.352495 -2.583085 1.072413 0.789652 -2.213817 -0.828245 -0.561768 1.166553 -0.209472 -1.324363 1.086763 -0.077157 0.608749 0.696926 -0.497820 0.896664 -1.198970 -1.373340 -0.423472 -0.968756 -0.926103 0.137579 -0.234830 0.711116 1.109664 0.869522 -0.553107 -1.680511 -0.441008 -0.790425 1.055376 -0.245302 -0.520747 -0.289864 -0.945302 0.345056 1.564713 0.511951 -0.261809 0.897623 0.463681 0.767400 -0.419780 1.154246 -0.626688 1.674575 -0.886125 1.979909 0.186864 -1.654923 -0.943251 0.719989 -0.009819 -0.383011 -1.007459 2.116642 0.316471 -0.264786 0.346866 0.360684 -1.470106 1.169050 -1.282594 -0.412885 -0.018246 -0.255639 1.299524 -0.013591 -0.182863 0.384364 0.128780 0.511066 -1.747394 1.466238 1.832173 1.095907 -0.200952 1.116690 1.316736 -0.195388 0.628078 0.464546 -0.988945 1.376848 1.256073 -0.414655 -0.081791 1.130404 -0.707845 0.568735 0.845520 0.503881 -0.401832 0.382543 -0.584918
i -0.286065 -0.954132 -0.760313 -0.121222 -1.054536 1.283429 0.678839 1.206371 -1.165143 1.249002 0.437095 0.216536 1.426756 0.507855 1.908447 0.569291 0.932291 -0.680365 -0.338507 -0.214026 -0.586023 0.872624 0.000678 2.622188 1.555626 -0.550137 -0.621549 0.366434 0.217826 -2.293123 0.702207 2.641261 -0.232015 -0.451285 1.358142 -1.710854 -1.111611 -0.030980 -0.732544 -1.265853 0.774768 0.306760 -0.996566 -1.511702 -0.362449 -2.030616 -0.792013 -0.597423 -0.252311 -0.945926 0.144662 0.242896 1.735489 -0.224284 -1.230888 0.126062 0.194235 -1.248838 0.327393 -0.422262 1.571668 -1.676562 -0.133024 0.695129 1.384543 -1.122540 -0.606721 -1.436097 0.269503 0.522930 -1.153549 -0.065828 0.600138 -0.835055 -1.665553 1.022195 -1.007869 -0.523101 1.408911 -0.944856 0.562483 -0.005436 0.780998 1.548707 -0.158390 0.371001 1.504878 0.040635 0.188900 0.303875 0.043673 0.056419 -1.302556 0.149121 2.884696 -0.159989 -1.837720 -2.071363 0.259946 0.935555 0.196986 -0.253747 0.669813 -0.300454 0.577237 0.790081 -1.986713 1.420888 0.163808 -0.616567 -1.424569 -0.850163 0.539471 -0.383606 -0.614505 1.285660 0.464488 -0.200495 -0.354795 -0.600910 -2.258649 -0.616765 -0.463830 1.089988 0.456868 0.083346 0.032540 -0.299912
he 0.032201 -0.290035 -0.942550 -0.350472 -1.375389 -0.133871 0.845804 1.022291 -1.050674 0.677293 1.093427 0.378870 -0.899796 0.289123 0.959860 1.272943 -0.761650 0.618493 0.365939 -0.197383 -0.289304 -0.968642 0.622101 1.192026 0.148094 -0.462426 -0.052972 -1.268648 -0.193503 -1.856204 2.380646 1.995607 -0.452145 0.058141 -0.046905 -0.988032 -1.377878 1.129671 -0.617620 -0.137839 1.409957 -0.539351 -1.696172 -1.237307 0.249330 -1.311004 -0.164952 -0.242487 -1.949726 -0.717621 -0.281066 -0.603005 2.478315 -1.057313 -0.865507 -1.627232 0.553792 -0.919275 -0.080018 -0.619290 2.090811 -0.690367 0.953001 -1.053413 1.551380 -0.565735 -0.595847 -0.290763 1.227750 0.326200 0.316789 0.666018 -0.585321 0.225222 -2.111572 0.843912 -0.209065 -0.415233 1.288648 -0.945703 -0.570806 0.570519 2.103510 0.358937 0.076490 0.504989 -0.685661 -0.547442 0.750560 -0.124653 0.887311 -0.199506 -1.749554 1.683045 1.681577 -0.051319 -1.292336 -1.637439 0.194316 1.058398 0.043491 -0.074715 1.220084 -0.674907 0.183097 0.153225 -0.502675 0.786117 0.068664 -0.080426 -0.099342 -0.480557 2.654312 0.067548 0.819205 1.358892 -0.008716 0.615038 0.815897 0.015237 -0.794212 -1.348547 -0.122229 0.517796 0.427021 0.050899 -1.226279 0.741627
that 0.746956 0.243348 0.979048 0.137234 -0.530955 -0.294824 -0.292257 0.322508 0.876656 0.484182 0.020236 0.940709 -0.682760 0.552763 0.882542 0.474594 -1.895455 -0.588592 -0.122075 0.677093 -0.054865 -1.590536 0.679084 1.114112 -1.240965 -1.329651 0.438036 1.759108 -0.447226 -0.580837 -0.761142 0.228301 -0.867452 0.487388 0.064065 -0.299265 -0.088962 0.053074 -0.809082 0.597084 1.068161 -0.367070 0.056167 0.032227 0.485293 -0.563126 -0.218516 -0.078123 0.814214 -0.721704 -1.146246 -0.212600 -0.176745 -0.502544 -0.150666 0.175216 -0.592632 0.431352 0.242878 -0.733020 0.072317 -0.378394 -0.578399 0.038006 -0.744983 0.078928 -0.316263 -1.021965 -1.087236 -0.735357 0.609461 0.323184 0.971897 -1.323311 1.208727 0.369636 -0.157668 1.237137 0.242827 -0.240243 -0.012545 0.380164 -0.852675 0.715452 -1.004458 -0.299198 0.958129 0.718471 0.779914 -0.535319 0.507927 -0.235953 -0.230865 -0.153375 0.632515 -0.917916 -0.837738 -0.583844 1.406014 -0.450668 0.356836 0.103488 -1.304789 -0.224507 -0.873231 0.964134 1.340161 1.008479 -0.676186 0.921265 0.613229 -0.977015 -0.246357 -0.471273 0.082358 0.549497 1.677875 -0.596923 0.523735 -0.123175 -0.303690 0.590410 0.212355 -0.990509 -1.067276 0.853529 -0.070960 0.884066
his 1.894626 0.899500 -1.340617 -1.008888 -1.953164 0.687191 -0.199320 -0.113895 1.799455 -0.249599 -0.292246 -0.933492 -0.962241 2.158348 -0.024815 -0.158025 1.276838 -1.400956 1.626869 -0.147870 -0.001677 0.820283 0.406267 -0.837813 -1.205200 -0.090994 1.120341 -0.111056 -0.050810 -2.289265 0.912879 0.334767 -0.410748 1.322778 -1.233105 0.139880 0.580598 -0.022744 0.182246 1.652613 -0.950163 -0.473495 0.499762 -1.691174 -0.591377 1.786788 0.461739 1.727714 -1.308646 -0.310547 -1.401108 -0.462852 0.378674 -0.724102 0.355366 -0.289578 -1.477607 -1.079695 0.645739 0.398134 0.543180 -1.262853 -0.515899 -0.775978 1.254831 -0.067019 1.196270 0.733000 -0.265799 0.649394 0.679571 -0.302218 1.858904 2.548941 -0.322667 -1.104173 -0.881695 0.992393 0.992011 -1.269273 -1.639139 0.238817 -1.523244 1.200912 0.710942 0.899884 1.356436 -0.617948 0.968170 -1.206798 1.487648 -1.250603 -0.568783 0.169036 -1.320761 1.197080 -1.858029 -0.566841 -0.279500 -0.196105 0.831026 -1.424961 0.994783 0.549818 0.961997 0.609493 2.160040 -2.003733 -0.083997 0.687504 0.844345 -1.912664 0.434328 -0.522777 -0.608796 0.658928 0.284260 2.014486 0.512980 0.689384 -1.409022 1.343205 0.400595 0.224620 0.491557 -0.132717 -0.726489 -1.567058
was 0.584902 -0.279424 -0.756474 0.917490 0.495776 0.485905 0.904887 -0.056341 -0.643363 -1.487312 -0.186047 1.397730 -0.557044 -2.299693 -0.792459 -0.592561 0.348911 -0.721456 -2.140686 -0.913708 0.123073 0.890093 -1.597071 1.109603 -0.129159 -0.162336 -0.149649 -0.429277 1.212053 0.537563 -2.026457 1.619413 -1.000951 -0.541886 -1.058488 -0.294874 -1.740672 -0.306622 -0.145159 -0.388420 -0.061714 0.564471 0.267417 -1.119068 -0.633454 2.222923 -1.375834 2.294293 -0.853735 0.785274 0.797826 1.022970 -2.138402 0.719769 -0.208509 1.606984 -1.233438 0.441536 2.234321 -0.220564 -0.562090 -0.264300 0.543997 -0.996763 0.748014 -0.100469 0.398284 0.513205 -0.768093 0.109580 -1.201948 -1.407477 -1.243051 -0.491114 1.589624 -0.147410 0.931528 1.074095 1.870482 -0.918216 0.868887 1.458679 -0.634059 -0.973300 1.922534 -1.698184 -0.066669 0.147775 -0.283850 0.897055 0.047976 0.091313 1.120495 -2.333700 -1.590883 0.937923 3.267746 0.372064 0.114521 -0.426706 -0.403970 -0.305224 1.065390 1.706596 0.156590 -0.277616 1.964624 1.117601 0.659700 -1.560793 0.410493 -1.076155 1.558809 1.105322 -0.231871 -0.790779 -0.805201 0.362230 0.545299 -0.502156 0.962369 0.504002 -0.509391 1.102600 -1.070362 -0.848422 -1.237765 0.055394
it -0.612574 -0.899202 -0.727212 -0.507587 -0.241629 0.550974 -0.915477 -0.376102 0.933972 1.279549 1.158981 1.697155 -0.156432 0.696940 1.066714 0.774217 0.537947 1.088997 -0.498106 -0.192595 0.111030 -1.475044 0.894487 0.515297 -0.326606 -0.757033 0.718275 0.434615 -0.366923 -1.956898 0.930629 -0.605145 -2.675128 0.589908 1.028638 -0.468729 -0.903238 1.404821 0.383240 0.134347 0.692890 -1.090929 -0.690723 -1.524193 -0.039843 -0.490204 -0.029973 -1.489576 -1.150324 0.600580 1.088530 1.104847 0.556892 -0.531640 -0.145742 -1.630017 -0.058411 -0.230323 -0.136887 -0.360361 0.357605 -0.726393 1.637113 -0.350025 0.110521 -0.334658 -0.981261 -0.309788 0.301597 -0.354968 0.338814 0.368903 -0.604048 -0.768294 -2.028538 0.022407 0.342554 -0.560644 0.916284 0.658032 0.095632 -1.505217 1.429347 0.952144 -1.163920 -0.303164 0.238233 0.073617 0.743713 0.015629 1.851724 -1.111970 -0.099686 0.824733 0.397562 -0.001493 -1.219732 -0.244773 -0.063463 0.122303 0.295652 0.264781 1.598572 0.226757 -0.464254 0.102483 -2.323912 1.592549 0.107443 1.390545 -0.040454 -0.592947 0.263118 -0.135413 0.471242 0.938618 0.025926 0.023654 -0.147971 0.185465 -1.184509 -0.073967 0.510710 -1.562269 -0.366463 -1.426365 -0.690966 -0.904933
you 0.132208 -0.612394 1.576604 -1.005957 -1.506496 0.237651 -0.001108 1.166914 -1.856494 0.201756 -0.034753 0.083865 0.725627 0.616999 0.043698 -1.023988 0.693948 0.268245 1.056096 -0.191093 0.841151 -1.258847 -0.196180 2.930699 1.150424 -0.558109 -1.722890 -0.029375 -0.140135 -1.725115 0.251751 2.312590 0.415773 -0.014973 -0.095940 -1.351841 -1.281281 1.478483 -0.382038 -1.093293 -0.909988 -0.756353 1.058916 -0.049943 -1.316359 -1.419786 -1.555432 -1.814420 -0.741458 -0.462703 0.799208 0.800801 0.540803 0.260574 -0.527769 -1.183035 -0.331263 -1.693557 0.873039 0.010248 1.671504 -0.819891 0.380788 -0.718630 -1.074932 0.330097 -1.485533 -0.311242 -0.713688 0.710823 0.397395 -0.989677 -0.497373 -0.050263 -1.012887 0.971164 -0.868512 -1.626003 1.620805 -1.806570 -1.036398 -0.132841 -0.855615 1.180915 1.307515 0.004528 0.550227 0.756482 -0.404754 0.703981 0.872008 -0.876515 -0.571113 -1.175143 2.539916 0.050964 0.070685 0.626892 0.741566 -0.168422 -0.817479 -1.488799 0.013774 0.091065 0.348358 1.392464 -3.013381 -0.035187 -1.011574 -1.491088 -0.045228 -0.914527 0.095652 -1.325715 -0.516225 1.771857 -0.785161 0.140778 -0.288146 -1.001136 -1.510999 1.290939 0.158201 -0.096356 0.534041 -1.193693 -0.087013 -0.066995
with 2.576122 0.159027 -0.267060 0.599131 0.056087 -0.589408 0.378069 -0.816784 1.211281 -0.653514 1.055223 -1.200239 -0.291497 0.623796 1.738975 -0.001736 1.080051 1.282458 1.667127 0.737100 -0.281442 1.154935 0.211700 -0.862158 -0.007736 0.694164 -1.046861 0.882422 0.998733 1.246091 -1.216118 0.531553 1.362185 -0.206305 -2.595001 -0.194226 1.092232 -1.035782 0.312070 -0.657454 -0.273182 0.627150 0.617274 -0.017026 -0.936457 -0.170979 0.805772 0.433004 -0.867902 1.020301 -2.129683 0.444731 -0.078892 0.379928 -0.724225 -1.408022 1.469958 0.243121 -0.539370 -0.055863 0.139972 -0.676706 0.557545 0.038233 2.235714 -1.020509 0.153853 -0.580530 0.185153 0.218930 -0.461593 0.358394 1.386413 -0.662019 0.307229 0.199932 0.323172 2.860243 -1.815728 0.453786 2.143717 -0.245784 -0.931882 -1.006978 0.025191 0.470645 0.423930 0.577230 1.534350 0.804660 -0.157372 1.800741 1.482411 -1.177380 0.429728 -0.694496 1.450454 1.754766 1.138508 1.131935 0.040834 0.961325 1.385576 0.459889 1.416895 -1.407907 2.711080 -0.787351 -0.002579 -0.738200 -0.222184 -0.033274 0.358646 -0.534223 1.457163 -1.824967 0.807949 0.181114 -0.624198 0.232212 0.543453 1.291629 0.686129 0.962027 0.562557 0.969728 -0.377577 1.739773
is 1.493792 -0.657228 -1.054952 1.264494 0.894466 -0.039509 0.393025 -0.472894 -1.565649 -1.707224 -0.788530 1.537858 0.235287 -1.449686 -2.137828 -0.946198 -0.406558 -0.247387 -2.267370 0.916453 0.063051 1.358397 -1.817537 1.444423 -1.180820 0.551764 -0.561206 -1.410712 0.360043 -0.182042 -2.295814 -1.469627 -0.507992 0.091927 0.437938 -0.221902 -2.041370 -0.973667 0.564862 -1.018254 -1.647593 0.089242 0.095668 -0.120790 0.522113 0.913322 0.255303 1.345125 -0.886511 0.343189 -0.434873 -0.232311 -1.661300 1.491268 0.206116 1.377801 -0.239363 0.663491 0.464005 0.667300 -0.279792 1.829059 0.028146 -1.066015 -0.431669 -0.977078 0.953015 -0.308799 -1.743618 -0.059569 -0.840406 -1.166563 -0.961020 -0.932970 1.069736 1.315642 0.319960 -1.213643 1.145961 -1.672005 0.799478 1.895588 -1.361516 -1.551624 1.184879 -1.925165 1.261323 -0.973255 -0.123752 0.572632 -1.409329 0.685148 -0.164567 -3.266517 -0.859118 0.606326 2.044639 0.948551 0.334345 -0.446707 0.724091 -0.343057 0.918459 1.548657 -0.583422 0.110598 0.952199 1.886734 0.957265 -1.303540 0.933091 -1.706892 0.432119 0.133661 -0.473318 -0.562836 -1.344111 -0.571278 -0.071897 0.089316 0.418929 0.990533 0.941491 2.298005 0.362857 -1.224684 -0.670871 0.042468
as 2.023883 -0.939851 0.846094 0.659853 -0.386451 0.118351 1.067378 -1.379486 -0.613748 0.193678 -0.555334 1.157271 0.594897 1.119467 -0.075315 -1.130189 0.621208 0.285746 -0.092388 1.466052 -0.496501 -0.271145 0.643138 1.084838 -0.146929 -0.934060 0.719419 0.163069 0.282973 1.292093 1.429119 -0.186224 -0.243116 -0.138531 0.371723 1.033630 0.024085 0.001505 -0.082753 0.656532 -0.443510 -0.285707 0.287227 0.449483 0.622277 0.231773 0.933641 0.012593 0.050286 0.836836 0.056728 -1.426247 -0.072646 0.093149 0.422750 -1.121922 -1.025655 1.393092 1.015712 -0.886503 -0.255818 0.091324 -0.320858 -0.695788 -1.145317 0.810542 -0.367207 0.495300 0.518596 -0.665605 -1.527845 -0.449688 0.812971 -1.113015 0.535352 0.959868 0.846086 -0.038190 0.074237 -0.170967 0.474067 -1.270355 0.373773 1.197636 0.131486 -0.690755 0.703609 0.565982 0.640596 1.017142 0.184701 0.088244 0.752649 0.771729 -0.345921 -0.907178 -0.028458 -0.593635 -0.127176 -0.014166 -0.269657 0.770708 -0.685695 -0.005366 -0.374044 -1.119250 1.705843 -0.328734 0.372129 0.761963 0.193208 0.700433 0.552255 0.338010 0.008708 -1.797810 0.763954 -0.050871 -1.073516 -0.260804 0.439832 0.631219 0.123722 0.662866 -0.300353 -0.083936 1.171327 1.362690
not 0.058973 0.034865 -0.268196 -0.335365 0.352920 0.762791 0.100905 0.400474 0.696339 -0.511873 -1.071696 2.169163 -0.426705 0.208299 -0.058022 -1.598086 -0.149584 0.507849 2.024823 0.738951 -0.608475 -1.254714 -0.981186 2.299546 0.583316 -0.709609 0.026995 -0.604289 -0.322102 1.222123 0.733271 -0.570004 1.298336 0.136660 -0.327811 0.119438 0.590058 -1.078290 -1.458713 -1.117968 -0.258317 0.453602 1.253570 0.117956 -0.091152 -2.084161 -1.108370 0.898210 -0.393925 0.458892 0.184427 0.994820 -0.281873 0.468298 1.579893 -1.149545 -0.593527 -1.526030 1.191943 -0.450565 -0.522030 -0.952038 0.317210 0.703915 -2.128125 0.075034 -0.625805 -0.597335 0.149713 1.462972 -0.239290 -1.650554 -0.034280 -0.123929 -0.462238 1.521716 0.237460 -0.084927 -0.151571 1.001825 0.856118 0.623945 0.338058 1.487545 0.906048 0.686258 0.918928 0.463759 -0.109571 -0.456489 0.563509 -1.167068 0.323495 1.404018 1.047249 0.741581 0.042569 1.283457 -0.318298 1.367988 0.173754 0.605878 0.031640 -0.417913 1.579476 1.266709 0.376348 0.899171 0.210226 1.155123 0.717070 0.528675 -0.584423 0.156512 1.504151 2.392682 0.124934 -1.603079 0.528701 1.771905 -1.371520 0.715383 0.868956 -0.207027 0.475942 -0.520115 1.103165 0.302450
for -1.722256 0.013539 0.391793 0.130587 -0.267270 0.593578 -0.615885 -0.350879 0.951983 -0.828139 -1.226200 0.429165 -0.609811 -0.179394 1.266169 -0.494450 -0.073291 0.481494 1.406311 -1.409463 0.605443 -0.720209 -0.686173 0.715869 0.167442 0.001737 0.254349 -0.111458 0.728986 -0.819598 0.679777 -1.429353 1.768149 -0.663027 -0.590384 0.080892 0.489854 -1.137343 -0.771438 0.366976 0.626529 0.752999 -0.590114 0.670697 -0.050162 -1.614227 -0.848004 1.485977 0.866894 -1.231830 -1.586149 -1.510827 -0.110554 0.890332 0.104140 0.267114 0.826594 0.615320 -0.201469 -1.099697 0.473951 0.935134 0.072209 0.159838 -1.079919 -0.402656 0.184052 -0.195760 -0.433896 -0.497042 -1.439871 0.355233 0.637671 0.602736 1.163121 0.175557 1.269123 -0.600340 0.799507 -1.639956 2.010205 -0.297492 0.927027 -1.590380 -0.228983 2.056743 -0.649315 0.859556 1.010201 -1.332214 -0.607682 0.589646 0.273942 -1.560640 1.316847 -0.771931 2.109945 0.334829 -0.341652 -0.262910 -0.530626 0.585253 1.837881 -0.020468 -0.619671 0.052334 0.446286 -1.279387 -0.265169 0.182565 0.553736 -2.486053 -1.464330 0.987045 -0.893987 -1.028691 0.375986 0.357108 -1.196379 -0.906872 1.224867 2.530100 -0.631848 0.297235 -0.017916 0.793717 0.918362 1.215850
had 0.422121 -1.189993 0.493749 0.857651 0.557571 1.165827 2.136174 -0.105879 0.277242 -1.223037 -0.464134 2.151425 0.354325 0.805066 -0.525082 0.446719 0.778394 0.109560 -1.215569 -1.294886 -0.157138 2.253510 -1.567857 1.598356 0.211392 -0.043450 -1.614569 0.879609 0.201251 0.606548 -2.169521 -0.450511 -0.995938 -0.171089 -1.932076 -2.130463 0.601234 -0.023898 -0.466539 0.789002 -2.175982 0.532637 -0.463476 0.622243 1.567910 1.751739 -0.555666 0.287232 -0.250775 -0.421133 1.282249 0.075386 -0.305167 0.031406 -2.043394 1.746694 0.347624 2.060530 1.597167 0.322610 0.569404 -0.659613 -1.380420 2.076581 -0.593899 -0.373581 2.205845 -0.513945 0.483034 -0.006060 -0.455210 -0.389182 -2.656024 -0.970010 -1.187423 -0.106405 1.048056 1.704392 2.572085 0.716295 -0.916757 -0.426573 -1.083025 -1.079338 0.077962 0.103749 0.390110 -0.113315 0.265984 -0.843633 -0.541252 -0.658790 1.454539 -0.160848 -1.163497 -1.468505 2.684426 1.864031 -0.585035 -1.448449 -1.313199 -0.516665 -0.707015 1.603425 0.876904 -0.745242 1.742857 -1.455010 1.197385 0.531155 1.509267 -1.539062 3.125427 1.062728 -0.261816 -1.153508 -0.820385 1.389721 0.620132 -0.068350 0.134743 -0.440489 -0.677515 0.012896 -0.728590 0.849774 -0.704511 0.631137
but -0.220535 -0.389232 0.319498 0.655338 -0.345879 0.020597 0.655478 0.187174 -0.055707 -0.377985 -0.859576 0.036265 -0.671116 -0.449654 0.091535 0.109464 -0.807437 0.109252 0.145637 -0.354518 -0.765799 0.365901 0.189892 2.421656 -0.155876 0.391279 -0.110804 0.800964 -0.648564 -0.278016 0.288682 -0.299672 -0.979965 -0.039748 -1.279724 -0.008840 -1.231417 0.014399 -0.442176 -0.787789 0.608068 0.340239 -0.349497 0.001764 -0.029612 0.123675 -0.269531 -0.598061 -0.173587 -0.231325 -0.613311 -1.452327 0.175787 -1.490865 0.657788 -0.171438 -1.244476 0.879889 -0.373190 0.078480 -0.401359 0.959791 -0.102912 -0.073702 -0.462507 0.441186 0.344857 -0.057914 -0.189775 -1.156923 0.845781 1.502593 1.634532 -0.847388 0.141796 -0.551735 -0.394082 0.224506 0.235232 0.637631 1.134913 -0.116654 -1.332378 -0.687699 -0.027216 0.194419 -0.017505 -0.789022 -0.188755 1.153218 -0.015907 -0.076940 -0.703914 0.658995 0.338890 -0.719281 0.097949 -0.104645 -0.852654 -0.066679 -0.444070 0.217172 0.070533 -0.127276 -0.535428 0.653291 0.489277 -0.870071 0.417331 -0.419413 -1.222836 -0.370413 0.028120 -0.670883 -0.654343 0.002316 0.862137 -1.126641 0.214071 1.092145 0.670044 0.381131 -0.504493 -0.168331 -0.981652 -0.068596 0.665627 1.369537
at -0.562818 -1.111126 0.799202 0.665690 -0.681787 0.107756 -0.488652 -1.092832 -1.980283 0.074031 -0.837750 -0.169931 -1.342009 -0.236443 1.868223 1.031448 0.501815 1.061036 0.933973 -0.306340 -0.797808 1.543302 2.037057 1.191564 -1.225969 0.086697 -2.123255 -0.027111 -0.325878 0.144538 0.592418 0.716422 1.056081 -0.965155 -1.915891 1.226165 2.194843 -0.960863 1.129896 -0.534255 2.124462 -0.759183 -0.569467 -1.578712 0.166263 -1.669198 -2.069548 -0.378133 -0.805962 0.836159 0.361147 0.641788 0.163637 3.051094 -0.256483 0.085129 -0.810213 1.666230 2.116774 0.029902 -0.935508 -0.043935 0.162917 0.163599 -0.260836 -0.647460 2.053796 0.613033 -0.054427 -0.795751 -0.576547 0.178427 0.978758 -0.967203 2.009749 -2.106851 -1.407983 -1.686059 -0.393958 1.842700 0.599046 1.039399 -0.398213 -0.140450 0.130098 0.722332 -2.090183 1.487574 2.957481 -0.119669 -0.892801 1.756366 0.482807 -2.239842 0.081423 -1.737648 -0.429023 1.629892 -0.098227 1.182731 0.093787 1.799456 0.623681 -0.004579 0.681641 0.652059 -0.015383 -2.155821 0.330400 0.876188 -0.030439 0.060841 -0.309649 2.455335 -0.569834 1.252675 0.457302 1.505062 -0.006220 -1.581539 0.727903 -0.383477 -0.029964 -0.404747 -0.244236 0.129345 -1.616033 0.163099
be -0.156652 -0.791129 -0.415041 1.227813 0.730273 -1.730842 -1.086542 -0.917998 1.161533 -0.245217 -1.079245 0.561333 -0.934304 0.950692 -0.047586 -0.614632 -1.354868 0.398578 -1.091475 1.183733 0.137706 2.495767 -1.072774 -0.207769 -0.139475 -0.295547 -0.505756 -0.041434 1.759034 -1.155834 1.211980 1.720935 -0.772842 1.063536 2.386132 -0.841995 -2.442054 -0.246004 -0.077225 -2.279587 0.127233 0.814524 -2.131002 0.633501 1.054281 -0.743049 -0.436698 0.139856 -0.757033 0.603468 -2.246928 -0.028666 0.247675 0.776453 0.703988 0.464888 -0.091604 -0.411161 1.248393 0.481330 2.147629 1.349779 -0.296277 -2.790157 -2.157527 -0.961746 -0.934229 0.427640 0.306662 0.562945 -0.119614 -0.665264 -3.045514 -0.075031 0.501057 2.095677 -1.087044 -0.462234 1.988079 0.074891 -0.459117 -0.601346 1.087335 1.357764 -0.048524 -0.558636 1.534678 0.586811 -0.234544 0.327746 0.423639 -0.673650 -0.317370 0.919511 -4.581092 2.211100 1.766670 -0.155879 1.476578 -0.196530 -0.806057 -0.395848 1.344169 0.750385 0.012116 0.518326 1.127581 3.367515 2.083945 -1.094627 -0.290034 -0.978950 4.734664 -1.021156 -0.730986 0.653857 0.559677 -0.117062 -0.022506 -1.246482 1.314370 -2.024156 1.259553 0.350024 -2.778543 1.248139 -1.842957 -0.042477
on -1.022761 -0.066018 1.865486 2.196457 0.329101 -0.504918 0.788710 0.473673 0.192968 -0.022101 0.853038 -0.172292 -1.187863 0.913215 0.251924 1.283863 1.215557 0.115673 0.749748 -0.094376 -0.332576 0.752831 3.108530 -1.552395 1.989213 1.111087 0.989450 0.319313 -1.300070 0.957591 0.025346 -0.190100 -0.200030 -0.539912 -1.296159 -0.406892 2.424570 -0.619166 -0.561237 -1.743482 1.214867 1.075633 0.589718 0.474717 0.212238 0.399791 -0.438915 0.485949 0.298461 -1.369678 -0.642893 -1.496293 0.045430 1.254875 1.159932 -0.203359 0.820131 0.551570 0.923559 -0.804791 -3.397904 -2.481918 1.049656 -0.994240 2.958256 -0.149692 2.085616 -0.673121 0.568313 0.996195 1.202922 0.014174 0.151692 -0.979974 -0.551388 -0.602073 -1.527384 -1.935860 0.844692 -1.246250 2.180954 0.421223 0.165655 -1.221166 -0.502205 0.117802 -0.067104 2.564907 1.311072 0.379100 -0.540813 2.356038 -0.352099 -1.177843 -1.260478 1.137422 -0.237866 0.178481 1.327092 -0.460648 -0.624566 -0.567616 -0.954012 1.682610 -0.732723 -1.364838 0.996483 -1.139244 -1.115556 0.021004 0.807513 -0.074356 -0.404625 2.312327 0.185997 0.769830 -1.657218 0.615205 0.081904 0.535374 -0.085079 1.208500 -0.534435 0.842763 -0.644236 -1.112814 2.359204 -0.095303
her 1.135944 0.194854 -0.809468 -0.125468 -2.331001 0.654314 0.838802 0.556483 1.027297 1.072389 0.530215 -0.074201 -1.162580 1.213859 -0.255997 -0.086458 1.882840 -1.216196 0.315941 0.743017 1.234715 0.951063 -0.381387 0.113065 0.614485 0.635979 -0.109691 0.104510 -0.350064 -1.965345 0.634590 0.217771 -0.307754 0.212800 -0.016706 -0.032858 0.020864 -0.422123 1.010921 0.782890 -0.802201 0.922356 1.538078 -1.229703 -0.565209 1.599234 -0.479029 -1.055084 -1.381349 1.182418 -1.456774 1.347405 -0.102610 -1.366957 -0.635182 0.745034 -1.539165 -0.898897 1.566101 0.165931 0.964849 -0.944686 0.644848 -0.709884 0.915519 0.842906 -0.541869 1.186206 -0.056162 0.923545 -1.035384 1.775943 1.473168 2.429260 -0.631991 -0.272946 -0.218826 1.119934 1.277999 -1.022023 -1.303798 -1.083578 -0.713480 1.492930 -0.135353 1.479674 1.367716 -0.268267 0.875494 -0.372968 2.189453 -1.141706 1.002900 0.074558 -0.583571 1.366307 -0.939636 -1.281975 0.437493 -0.360837 0.722474 -0.684287 0.681212 0.238406 1.822065 0.873780 1.057027 -0.084628 0.165826 0.572542 0.649941 -1.341263 0.536252 -1.359591 -0.904819 1.573985 -0.194419 1.804709 0.381828 0.790104 -0.060369 1.354035 -0.845600 -2.330262 0.187361 -1.003074 -0.005764 -2.484027
my 1.793763 1.189481 -0.686563 0.710634 -2.903576 -0.385353 -0.744431 1.370613 1.672679 -0.767504 -0.284152 -1.578710 -0.362781 1.821969 0.119884 -0.020661 1.259908 -1.083448 -0.780482 -0.087100 0.535350 0.322017 -0.518212 0.116923 -0.633824 0.011719 0.053315 -0.203870 1.171100 -2.815345 -0.078398 -0.601950 0.107330 0.748797 -1.169546 -0.007710 -0.354824 -0.377955 1.153638 0.999380 -1.085175 -0.060336 -0.360318 -2.346491 -0.343714 1.967915 1.167224 -0.223852 0.225112 0.202736 -1.346311 -0.241381 1.250215 -1.280132 1.387311 -0.416373 -1.180063 -2.526684 1.015490 0.874670 0.115139 -1.344396 -1.348959 -1.199980 0.012359 0.211289 0.358933 0.318263 0.230329 0.871865 -0.796196 0.722539 1.874102 1.707605 -0.652407 -0.837127 -0.739702 0.952216 0.284942 -1.212262 -1.310645 -1.915402 -1.946277 1.250704 -0.136738 2.039737 2.494324 -0.034617 1.335777 -0.729808 1.940764 -1.387718 -0.049944 -0.337135 -0.303611 0.423406 -1.220527 -0.938131 -0.049566 -0.657240 0.884238 -0.153721 0.806689 1.039524 1.806335 -0.101401 1.188079 -2.744833 -0.990392 0.676188 -0.507109 -2.982803 -1.671154 -1.048517 -0.667147 2.337078 0.268991 2.101954 1.762347 0.426567 -1.323717 2.760880 -0.376350 -0.068010 0.884904 -0.227426 -0.662376 -1.423288
him -1.372908 -0.339161 -0.822662 -0.872872 -0.465684 0.981581 0.390400 0.068314 -0.269857 0.202980 1.352968 0.039513 0.976689 0.711484 -0.687377 -0.740100 1.526007 -1.005665 0.754056 0.342660 0.494600 0.027388 0.470629 0.309118 0.880088 -0.594474 0.669148 0.357967 -1.010687 0.099494 1.548739 1.204168 -1.294901 1.078493 1.390365 -0.285494 0.421059 1.938653 0.774287 1.115910 0.198223 0.205843 0.769723 -0.223562 0.216607 0.007372 -1.518280 -0.873920 -0.549895 -0.185829 -0.215345 1.016735 0.637805 -1.464842 -1.095372 0.376715 -0.648087 -1.069516 1.746804 -0.507316 1.194902 -0.161063 0.760354 -0.286502 -0.443753 1.902601 -0.193535 0.037314 0.530947 0.392790 0.936121 1.025995 -1.398780 0.932224 -0.152458 1.330192 0.022442 0.237166 1.223568 0.138651 -1.303550 1.104901 0.223277 0.436556 0.041289 0.812694 0.699948 -0.701093 0.279220 1.834137 1.337353 -1.349891 0.760783 -0.340577 -0.532000 1.802468 0.020782 -0.489140 0.469943 0.416610 -0.257844 -0.187980 1.449609 -1.001322 0.856860 0.444826 -2.043144 0.684539 -0.465370 -0.174079 0.267999 -0.620295 2.058919 -1.121699 -0.535767 0.710350 -0.410835 0.050415 0.257299 -0.036596 -0.653488 0.268683 -0.085816 -1.605826 -0.383064 -0.147219 -0.992108 -0.981941
have -0.180535 -1.619153 0.324698 0.594802 0.112997 -1.451301 0.771934 -0.137877 0.595096 -1.000579 -1.166831 1.336606 0.009035 2.003516 0.690030 0.991987 -0.907043 0.636733 -1.398211 0.476421 -0.425963 1.645546 -1.025450 -0.348630 -1.644350 -0.327275 -2.077197 -1.590554 0.790983 -0.030029 -0.254472 0.334546 -0.604778 0.311459 0.068654 -1.207819 -0.258546 0.618856 0.399090 -0.367548 -1.878517 1.199824 -2.052813 0.542267 1.570109 -0.870379 0.201504 -1.639130 0.555420 -0.431204 -0.997645 1.032814 0.484507 -0.370582 -0.334995 1.722576 1.420562 1.022233 -0.444180 0.019571 1.131981 -0.359453 -0.894416 1.117287 -2.554936 -1.445984 0.932686 -1.556791 1.931085 1.145598 -0.610917 -0.186176 -2.863486 -1.152372 -1.821302 1.518409 0.115001 0.620233 2.411840 0.422085 -0.127446 -1.520991 -0.603141 -2.003080 -0.788116 0.800806 1.583488 1.060996 0.315997 0.124033 -1.182926 -0.358943 0.971596 1.565027 -2.875807 0.301895 2.304682 1.396633 0.021164 -2.531111 -0.541468 -1.339550 -0.018564 1.792983 1.229758 0.059510 2.597850 0.157475 1.731383 1.408414 0.377468 -2.307176 4.305509 -1.047271 1.003980 -1.064083 0.930932 1.645535 1.145034 -0.467536 0.844670 -1.271995 0.109928 -0.973163 -2.364772 0.917917 -1.358817 0.673388
by -0.191768 -1.071064 1.075773 2.667639 -0.330616 1.025964 1.156892 -0.878673 1.375760 -0.083604 -0.413116 0.485390 -0.693663 0.546713 -0.353175 2.010914 0.862541 0.758326 0.316829 0.642975 -1.025902 -0.227356 1.005677 -0.213265 -0.323778 1.158874 -0.477811 1.502386 0.357293 0.792044 -2.360880 0.551314 0.187691 0.869008 0.436778 -0.329125 2.213317 -0.057718 -1.316388 -0.186487 0.079257 0.776468 -0.715282 0.265372 -0.093792 -0.356039 -0.110707 0.214314 -0.609732 -0.894506 -2.710574 0.357118 -0.462599 0.192465 0.101002 -0.242728 0.261204 0.620081 0.107578 0.061358 0.199482 0.471406 1.721929 0.699288 -0.753520 -0.963935 0.874718 -1.396689 0.124649 0.062192 0.421754 -1.260370 -0.630778 1.158635 0.096119 2.242514 0.949765 0.300363 1.154308 1.365824 0.763671 0.213442 -0.667200 -0.019502 1.171500 -1.456561 0.804636 -0.601729 0.866106 -0.099649 -0.018348 1.040285 0.590714 -0.951057 -0.684979 -2.001728 -1.006253 -0.432417 1.845380 0.288936 -1.142461 1.566045 0.822493 0.905834 1.206594 -1.174286 0.582703 -1.468652 -0.417850 -0.430954 0.681977 -0.214698 0.699839 0.593378 1.716978 -1.027060 1.513625 1.582996 1.352876 0.006599 1.464901 0.224605 -1.446130 0.093828 1.652187 0.117040 0.589132 0.051843
this 0.285460 -0.290725 -0.630112 0.423613 0.796374 0.816011 -0.799646 -0.790150 0.221124 -0.231139 -0.319199 1.325247 -0.493232 1.974441 -0.358125 0.757592 -1.978072 0.180987 -0.257514 0.373099 0.372477 -2.391573 0.046021 -1.684896 -0.000589 -1.622211 0.283894 0.873926 0.779536 -1.074522 -1.595780 -2.009860 -1.371877 0.985788 -0.248935 -0.474604 -1.435652 -0.091055 -0.906752 1.381644 1.871942 -0.865119 -1.383025 0.700179 -0.408468 0.428256 1.130715 0.031161 -0.466401 -0.766132 0.984824 0.937465 -0.572512 0.185411 -0.147145 -1.591666 -1.696561 -0.908123 0.727117 0.552628 0.975734 -1.362581 -1.236659 0.888610 1.013525 -1.475692 -1.075902 -0.334155 1.997743 -0.102819 -0.708823 0.905701 1.841158 -0.605430 0.293344 0.299568 -1.087644 -0.128701 0.071499 -1.195630 -1.819747 1.493427 -0.850738 0.920343 0.116828 1.183920 0.577773 -0.062801 0.127862 -0.912629 1.776443 -0.900239 0.025729 -1.394648 -0.097037 0.598796 -1.572777 -0.224821 0.677234 -0.773095 -0.384536 -0.160477 0.887409 1.544698 -1.151834 0.340622 0.940635 0.726411 -1.229113 -0.099258 1.100528 -2.036667 -1.365421 -0.931493 -0.797646 1.631112 1.609591 0.964591 0.508184 0.737038 -1.032638 0.585119 -0.881174 -1.140883 0.241837 0.219092 -0.507827 1.084755
which -1.226660 -0.481987 0.756456 -0.746186 -0.168520 -1.411738 -0.286238 0.036925 1.070213 -0.282561 -0.753049 0.576767 0.149071 0.115202 1.211470 -0.444634 -0.179955 0.215219 1.567833 0.550199 -1.348512 -0.862184 1.741670 -1.201759 -0.438384 -1.334272 0.143990 1.496827 -0.400937 -0.113802 -0.530622 -0.897297 -0.359149 1.089264 0.501590 0.421661 1.089709 -0.855969 -1.412825 2.291915 -1.447633 -0.183945 -0.528874 0.898011 1.825354 1.244604 0.051226 0.248583 -1.218206 0.242202 -1.207868 0.103951 0.021158 -0.585920 0.803339 -0.782221 -0.381604 -0.658312 -0.349327 0.328713 -0.925486 1.481873 -1.075993 -0.483222 0.066135 0.100058 -1.405385 -0.525059 0.699892 -1.404927 -0.152163 0.516279 -0.399077 -0.025705 0.312144 0.066138 -0.196227 1.000468 1.163743 1.093878 -0.650117 0.388919 -1.329543 2.009796 -1.248053 -1.087625 0.812144 0.222926 0.105109 0.385366 -0.116091 0.692488 -0.027384 0.323336 0.263109 -1.304177 -0.339434 -1.264644 -0.943763 -0.384422 0.965803 -0.353918 -0.472778 0.815635 -0.548679 0.691458 0.567804 1.159131 -0.301376 1.755390 -0.701091 -0.471902 -0.400729 -1.971482 -0.519007 -0.049334 1.172634 1.026226 0.021131 0.086307 0.576391 0.516007 -1.516407 -1.041056 -0.743838 -0.139630 0.477993 0.528633
me -1.427444 -0.044431 -0.598259 -1.491131 0.228400 0.051994 0.491681 -0.054770 -0.743161 1.562474 1.359669 -0.744814 1.340192 -0.183506 -0.772686 0.048781 1.846375 -0.329366 -1.026866 0.098952 -0.071464 0.942397 0.880270 1.824775 0.582569 -0.103769 0.761526 0.913412 -1.076017 -0.162509 1.158917 0.972179 -0.452778 0.609062 1.479386 -0.350795 -0.600861 1.702766 1.422786 1.247840 0.444386 -0.318488 0.184816 1.135568 0.658489 -0.300088 -1.889596 -1.724550 -0.358149 0.378846 0.254330 -0.529515 0.215780 -1.020904 -0.459843 0.942045 -1.132368 -1.201344 1.284988 0.245597 2.179091 -0.482847 -0.167089 0.906922 -0.129237 1.099741 -1.015789 0.177333 -0.088106 0.061571 -0.187020 0.624744 -0.702316 1.152572 -0.547608 2.299439 -0.391142 0.038840 0.758582 -0.138183 -0.396393 -0.025297 -0.363283 0.374232 -1.149080 1.076754 2.634239 -0.889340 0.038652 2.380025 1.837863 -1.825868 0.385974 -1.204292 0.251039 1.482087 -0.244437 -0.045050 0.489352 0.021664 -0.801033 -0.714502 1.779698 -0.154319 1.505872 0.561678 -2.139836 1.266524 -0.999074 0.608077 0.057885 -1.207503 1.076783 -0.910205 -0.717027 1.955247 0.049295 -0.462662 -0.208911 -0.058460 -1.284434 1.057388 1.014864 -1.709444 -0.370490 -0.809307 -0.900690 -1.276651
all -0.150986 0.031014 1.038608 -0.752186 1.897023 0.307434 -0.828884 1.562106 0.874305 0.382519 -0.562465 0.170622 -0.170621 0.329940 1.067734 -0.389569 1.244586 0.777423 -0.108463 0.508105 -0.627095 -1.295879 -1.800700 -0.068734 -0.650482 -0.483751 1.241736 0.193204 1.765567 1.048910 0.723836 0.495697 -0.209041 -1.797162 2.150525 1.237946 0.353285 0.859328 1.586690 -0.149787 1.792073 0.335509 -0.150717 0.394918 -0.174151 0.583428 0.122332 0.739739 0.361495 -1.309899 -0.966982 -0.263791 0.310884 0.333671 0.417924 -1.043870 1.279233 -0.403809 -0.370069 1.114032 -0.438376 1.568782 -0.436072 0.128359 0.317607 0.897995 0.906494 0.006138 0.038132 -0.579463 1.225776 1.148627 -0.889822 0.866678 -0.745910 0.942690 -1.284814 0.569665 0.473783 0.724093 0.640599 -1.380777 -0.276147 -0.216895 -1.395755 0.385793 1.888252 -0.953663 -0.842458 -0.852295 -0.167930 0.777874 1.327811 0.443608 2.255924 -0.110269 0.151912 -0.877189 -1.080742 1.136438 -1.183881 -0.784063 -1.838949 -0.350410 0.855028 -0.391028 0.102072 0.552484 2.528212 -0.594938 0.062396 0.622114 0.558968 -0.215446 1.424007 0.890307 -1.644175 0.629129 -0.013196 -0.140466 -0.767166 -0.150450 -0.430713 0.211110 -0.369881 0.278084 -0.638178 -0.171028
said -0.302830 0.850835 0.349678 -0.747424 2.366674 0.578677 -1.413998 -1.629815 1.318218 -0.052153 0.372026 -1.102654 -0.323666 -1.066025 -1.373828 -0.672436 0.658626 1.774656 0.245794 0.833085 -0.335956 1.020628 -0.298251 2.226573 0.073517 0.017061 1.509004 -0.565087 -0.765177 -0.366454 -2.348005 0.927908 3.712793 -0.238672 -0.546450 1.784041 1.402326 0.113732 1.649500 1.179136 -1.435483 0.840280 0.985826 0.405137 -0.749706 0.234211 -2.182613 -0.815606 0.797426 -1.062380 3.229985 -0.304686 -2.847564 -0.459615 1.022037 0.087480 -1.195908 1.003314 1.309943 0.582672 -0.199261 0.595525 1.585796 0.387930 -1.893996 0.219077 -0.202436 0.417657 -1.456233 -2.213368 1.193033 -2.403231 2.103523 -0.946456 1.326411 -1.952662 -0.084205 -0.499454 -1.328373 1.743542 -0.854144 -1.291837 -1.837487 -1.424621 0.231814 -0.754416 -1.231839 0.352902 -1.620451 0.246645 -1.155646 0.460468 0.919986 0.495197 -2.884748 2.008504 1.023616 2.190150 -1.335541 -0.444234 -1.812510 -2.247802 -1.716261 0.613165 -1.832479 1.257396 -0.237506 -0.755353 0.199991 -0.240848 -2.045141 -1.867001 -1.988944 0.969570 -0.541215 -1.104001 0.793046 -1.997125 -0.782124 -0.671877 1.148475 0.935467 0.438876 0.396410 0.247185 -1.113864 1.870319 0.184091
she -0.074376 -1.210259 -0.494102 0.382743 -1.786201 0.015122 1.328034 1.643305 -1.250800 1.414656 1.606628 0.422045 -1.010483 0.033861 0.569762 1.263957 -0.472508 0.893131 -0.136596 0.224348 0.874479 -0.382279 0.260318 1.545434 1.325375 1.160799 -1.424544 -0.732944 -0.155075 -2.763237 2.083093 2.079898 0.359976 -0.921007 0.442879 -1.216433 -2.124354 0.271543 0.098026 -0.333499 0.935368 1.261549 -0.225170 -1.490312 -0.064854 -0.817500 -0.776479 -2.137219 -2.030391 0.570179 -0.335782 0.738432 2.456402 -0.946400 -0.888947 -1.185618 0.325805 -0.574103 0.279744 -0.413529 2.159005 -0.532759 1.196335 -0.765704 2.170717 -0.362464 -1.722186 -0.263659 0.136627 -0.270183 -1.383385 0.990461 0.315243 0.255232 -2.429755 0.081805 -1.018377 0.236068 1.315047 -1.270697 0.275832 -0.918611 2.798025 0.629053 -0.452379 1.093075 -0.120132 0.201213 0.216646 -1.242017 1.219995 -0.196530 -1.135529 2.001958 2.313797 0.204450 -1.538486 -2.499036 0.846478 0.379533 -0.039136 0.597721 1.068727 -0.241077 1.048217 0.153279 0.099373 1.741031 0.255522 0.396157 0.418660 -0.557758 1.972685 0.289035 0.742051 1.935663 0.189466 0.492773 0.790843 -0.250160 0.431946 -1.433701 -1.457456 -1.568712 0.421581 -0.178660 -0.768712 -0.361534
from 0.346576 -1.099131 -0.100966 0.762019 1.730132 -0.510679 0.875468 -0.508734 1.501949 0.825480 1.856549 -1.353766 -1.243904 -2.054400 -0.333611 -0.789002 1.434730 1.529842 -0.781277 -0.551720 2.338300 0.465161 0.122051 -1.319491 0.368435 0.755347 -2.019540 -1.307087 -1.548714 -0.059093 0.032936 -0.919979 0.887736 -0.010582 -1.501445 0.617305 0.711125 -2.445979 -1.665694 -0.986478 0.515190 -2.171800 -0.594492 -0.417131 1.802821 0.032845 0.001481 1.347917 1.632172 -0.459348 -2.346530 0.328690 -0.586989 1.576739 0.396215 -0.522835 0.537448 1.423834 0.998983 -1.785609 -1.392083 -0.296039 1.336139 0.942133 0.552617 -0.753264 2.048446 -1.013147 1.111575 -0.885855 0.410151 -0.746730 0.886720 0.631258 -0.348633 -0.181464 -0.357558 -0.535436 0.602136 0.207233 -0.067734 -0.501344 -0.781606 0.518578 0.455259 -0.764587 -1.781326 -0.841934 0.593620 1.732389 0.159867 1.578020 -0.660619 -0.503169 0.233874 -0.030963 0.300627 -0.049650 0.044489 -0.744355 -0.953472 0.244009 -1.467768 0.502274 2.538467 -1.470658 2.080351 -2.330376 -0.152572 0.131042 1.647318 0.192627 -1.563751 1.043715 0.570639 0.633344 1.899994 1.345000 -0.073773 -1.121362 -0.569257 0.612526 -0.491261 1.698482 -1.362341 -0.612424 -0.600045 1.239716
or 0.442113 -0.746069 1.332379 1.226783 0.336158 0.306425 -0.048423 -0.624704 0.083721 -0.752036 -0.222475 -0.554834 -0.671109 -0.748991 -1.461175 0.216150 -0.319141 -0.233938 -0.506386 -0.391776 -1.027509 -0.743281 -2.584894 -0.246354 1.172433 -0.762471 -0.594426 0.849201 -1.446274 -0.354911 -0.155065 -2.118345 0.382303 -0.747257 -0.330494 -0.508094 -0.655341 0.207902 -0.701721 -0.460579 0.927706 0.754204 1.334281 -0.104715 0.863158 0.476699 -0.450549 1.079373 -1.618159 -0.863798 -2.162340 -1.557295 0.154147 1.151790 0.831973 -0.381733 0.356928 1.318015 -0.493030 0.529861 -0.949536 -0.394122 -1.418810 -0.210634 -0.416315 -1.263524 0.702149 1.170924 0.519719 1.069579 0.023631 -0.622351 1.208044 0.474978 0.008376 -0.433553 0.611305 -1.460825 1.275132 -1.318433 0.177171 0.531566 0.031232 1.110174 0.493986 -0.070347 1.019636 0.076886 0.128638 1.688423 -0.335353 0.813409 0.773362 0.140129 0.704083 -0.450609 -0.064647 1.650168 -0.081913 0.011560 -0.467796 -0.871922 1.559858 0.934888 2.043953 1.908157 -0.015056 -1.389938 -0.622899 0.807688 -1.936394 -0.827520 -1.547477 -2.127506 0.108076 -1.043252 0.793628 0.706313 0.937928 0.555429 0.744080 -0.485735 0.386801 -0.823507 0.864766 0.911843 -0.402680 -0.257688
they 0.666429 -0.477199 0.201593 -1.612032 -0.196156 0.169149 0.460774 0.829240 -1.162487 -0.508928 -0.605886 1.849042 1.280107 0.215348 0.518878 0.401538 1.480444 1.004928 0.940083 -0.710592 1.527521 -0.355139 0.331363 -0.512780 0.184696 0.304150 -1.391531 0.086160 -1.009984 -1.342732 0.190758 2.142146 -1.415837 -0.918930 0.274136 -1.630624 -1.232966 -0.008769 -1.590333 -2.880516 1.675838 0.354743 0.246633 -1.923775 -1.155199 -0.969783 0.046176 -0.672011 -0.852533 -0.411438 -1.042366 -0.165329 2.447760 0.142408 -0.989868 -1.127363 0.683204 -1.809344 0.127919 0.455230 1.797588 -0.604571 0.279537 -0.485959 1.541391 0.637125 -0.817693 0.450364 0.986908 -0.083410 -0.413367 -0.830858 0.000570 -0.756445 -1.671497 0.907398 -0.824463 0.245709 2.172252 -1.090130 -0.339983 1.020582 0.664952 1.581403 1.446242 -0.012921 0.061720 1.253971 1.114265 -0.121875 0.417852 -0.562387 -1.466773 1.413346 2.571504 -1.652126 -0.318269 -0.786886 0.162655 0.488533 -0.358630 -0.148554 0.243338 -0.571461 0.131054 0.248326 -2.634337 -0.590254 -0.212795 -0.362683 1.309342 1.044357 2.081109 -0.778835 -0.328173 1.309397 -0.744329 0.823488 -1.008476 -0.274719 -0.350570 -1.244275 0.559874 -0.176768 0.648414 -0.385385 0.675141 -0.617204
so 0.392641 -1.047584 1.489692 0.109479 -1.546371 -0.344130 -0.000939 0.010715 -0.141514 -0.945553 -0.200467 0.380051 -0.391914 0.861528 -1.391079 0.418508 1.190473 0.203199 0.115343 -0.203917 0.523265 -1.311480 0.480863 1.204226 0.226500 0.137725 0.535501 1.822445 1.572827 -0.699042 1.257601 -0.175740 -0.432413 -0.236746 0.905696 1.422941 0.299173 -0.942531 -0.757519 0.423453 0.303775 0.112119 -1.112127 0.924401 -0.708080 -0.443792 0.616970 -0.681856 -1.221077 1.190563 0.152190 -0.171889 -0.311282 0.436481 -0.705585 -0.167202 -0.135678 0.487163 0.225241 1.842194 -0.083711 0.228820 -0.124574 1.134367 -0.649861 -0.896542 -0.560292 0.346770 1.783448 -0.402946 -0.384648 0.415071 0.748406 -1.773462 0.133923 1.259829 -0.351215 0.699574 0.009113 -0.318931 0.535714 -0.750674 0.371401 0.544659 0.830650 -0.772469 -0.363783 -0.681263 0.142314 2.250642 -0.468716 -0.658270 -0.145080 0.178721 0.234387 0.561152 0.835418 -0.654050 -1.961640 -0.040491 -0.144130 1.250881 0.919644 -0.371072 -0.924842 -1.540109 0.637914 0.452657 1.720279 -0.755029 0.078722 0.230013 0.441754 0.695517 1.178176 -0.024787 -0.736792 -1.269452 -0.296382 -0.133238 0.052830 0.750108 -0.502318 -0.496547 0.281921 -0.750319 0.150496 0.018506
are 2.592077 -2.154923 -2.196100 1.034974 1.711826 0.129908 0.354253 1.691458 -0.245988 -1.715076 -0.404314 0.700043 -0.542039 -1.622671 -1.676662 1.281968 0.113083 -1.299880 -2.370453 1.544369 -1.506726 2.146172 -1.337640 -0.361338 0.451182 -0.329799 -0.083474 -1.172114 1.852270 2.483690 -2.660239 -1.519604 0.243881 0.552639 1.554710 1.348631 -1.540954 -0.210948 2.505917 -0.116972 -2.063042 -0.910220 -1.081121 -1.224859 -0.008396 -0.895121 0.413252 0.825161 0.236260 0.313320 -1.781603 -1.573491 -3.231176 0.080931 -1.435505 0.601265 3.585933 -0.787079 0.660379 -0.844056 0.578688 1.302215 -0.353902 -0.985508 -1.653750 -1.819190 -1.304330 1.833033 -0.605097 -1.613359 1.705954 0.496867 -3.277997 -1.347182 0.681829 1.237907 -0.521354 0.544136 2.646416 -1.226045 0.747835 0.224765 0.796681 -3.157122 -0.144366 -0.146947 0.802262 0.747285 -0.388060 -0.251660 -1.563499 1.087312 -1.736071 -1.896709 -0.524500 1.838289 1.550914 -0.236241 -1.027361 -0.936357 -1.374732 0.902210 2.048000 1.535430 1.052155 -1.638598 1.973586 -0.709447 2.668856 -0.106790 0.943046 0.348109 0.391648 -1.048430 0.206321 -0.554932 -0.635891 -0.522666 0.469643 0.145432 0.247710 -1.662910 1.711686 0.897922 -0.901699 -0.937866 -0.567789 -0.414543
one -1.474846 -0.519686 -0.942435 -0.097205 -0.751916 0.424137 0.691209 -0.842975 1.347166 0.714496 -0.496209 -0.827316 0.348943 0.331554 0.591449 -1.027110 -0.750902 0.096356 -0.195381 0.173907 0.247933 -0.074316 0.676647 -0.861128 -0.147169 -0.153428 0.482139 0.713657 -0.006579 0.028014 0.250814 -0.389767 -0.338227 -0.174630 2.106845 -0.025700 -1.259120 1.449971 -0.740715 0.134795 -0.013300 0.096628 -0.040468 -0.184650 -1.133269 -0.106796 0.620382 -1.964952 -1.519252 -0.298617 -0.332929 0.076594 0.664351 -0.622213 -0.572557 -0.539384 1.269830 -0.759474 0.122394 1.337264 1.018715 -1.031221 -0.930054 -0.096575 -0.543621 -0.462588 0.784018 1.807285 -1.924418 -0.134796 -0.232593 -0.554987 -1.108331 -1.925561 -0.802152 0.131808 -0.439823 -1.187562 0.659029 0.582903 0.412284 1.689995 0.909265 -0.539313 -0.582079 0.746777 -1.274164 0.702908 -0.984320 -0.956552 1.360041 -0.231261 -0.102219 0.013170 1.619985 1.722601 -1.260510 -1.246499 -1.449216 0.676233 -0.276958 0.335006 -0.561202 0.877163 0.006529 0.681022 -0.506893 1.302250 -0.527703 -0.639508 -0.143763 0.109901 0.055026 1.005380 1.094681 -0.530991 1.698910 1.735360 0.973665 0.293734 -0.019544 0.141530 1.110554 -0.712301 -0.282279 -0.781276 -1.097545 0.357596
were 1.837115 -1.628954 -1.372383 2.173259 1.473328 0.408992 0.809715 0.843212 0.569692 -1.490421 -0.537224 0.646460 -1.045954 -0.941463 -1.145678 0.136129 0.019011 -1.138233 -1.421781 -0.248485 -1.825132 2.303243 -1.900801 -1.421229 0.506452 -0.100177 -0.479419 -0.374470 2.042932 2.779832 -2.236737 0.965940 0.056266 -0.738026 -0.343398 0.479018 -0.832216 0.548912 1.211438 0.877946 -0.288844 0.023329 -0.022493 -1.175670 -0.027322 0.624304 -1.791163 1.842090 -0.001454 0.345235 -1.576392 -1.189913 -2.197920 -0.186876 -1.209059 1.862201 1.507483 0.504757 1.799069 -1.264680 0.114807 0.183410 -0.400336 -1.633134 -0.653697 -1.471781 -1.078375 1.119055 0.167885 -1.342091 0.241058 0.132776 -2.828578 -0.573653 0.374809 0.775307 -1.094051 0.717065 2.956377 0.004238 0.274104 -0.469283 1.265057 -2.513414 0.191368 -0.197122 0.293119 0.808178 -1.136940 -0.408060 -0.014849 0.364521 -0.806038 -0.620555 -0.887415 1.230817 1.963859 -0.633137 -2.031644 -1.491187 -2.135885 2.068384 1.135071 0.826589 0.957377 -1.600892 1.218068 0.263905 2.138779 -0.223059 0.227624 1.211022 1.293134 1.116688 0.621896 -1.000313 -0.710315 0.690590 0.064972 0.024025 0.385819 -1.215397 1.035250 0.943096 -1.564668 -0.573522 -1.049173 -1.113456
what 1.283782 0.453290 0.049842 0.490559 1.949718 -0.595616 -1.187727 1.332896 -0.893416 2.517029 -0.100071 1.310367 -0.339114 1.354863 1.889423 -1.392255 -1.234375 -0.110965 0.141295 -1.027143 -0.958617 -3.285363 0.200824 0.787805 -1.658463 -0.646121 1.710681 1.328812 0.187110 -0.975794 0.505292 -1.317706 0.825694 -0.738136 2.824069 -0.032451 0.265513 1.654397 -1.019255 2.468430 -0.733483 0.291870 0.211486 -0.072444 -0.035032 -2.062760 -0.008465 -0.129114 0.234020 0.105146 -0.685906 1.136023 0.298028 -0.769834 -0.452016 -0.247606 -0.384253 -2.099637 -1.033957 1.345433 -1.399431 -0.034801 -1.803666 -0.665539 0.243693 1.382427 0.463084 -0.421336 1.989028 -1.086074 0.206633 -0.464291 0.361508 0.751548 1.634640 1.942025 -0.028073 -0.972120 -0.411745 1.438757 -0.174104 -0.698061 -1.984483 1.032216 -1.074317 0.110600 1.655447 0.851240 -0.446401 -0.658962 0.905216 -0.315484 0.224840 1.308098 2.164124 0.369829 -0.752509 -1.497441 1.544257 1.075433 0.814474 -0.960055 0.381908 -0.244383 -1.353467 -0.012892 1.330618 0.474499 1.809083 1.402999 1.609596 -1.508273 -0.323177 -1.067671 0.129709 -0.060901 0.008953 -1.450863 1.183246 -1.152884 -0.465759 0.299421 0.360326 -2.497204 -1.097911 -0.971182 0.398668 0.076511
when -1.190224 0.231915 -0.603425 -1.691320 1.298831 -0.392353 -0.564723 -0.430645 0.096759 1.365125 -2.527809 1.211940 0.157945 0.083376 0.425058 0.288041 -0.802385 -0.439789 -1.070533 0.871989 -0.966769 0.215394 0.203237 2.424976 0.166909 -0.490787 0.804472 1.019397 -0.679236 0.976671 -0.789132 -1.064237 1.271240 -0.513064 0.243790 1.627761 1.094918 -0.913583 -0.681679 1.087717 -0.167985 -0.498798 -0.438715 0.090894 -1.317681 1.348055 0.088414 -0.869903 0.023650 0.639532 -0.397389 -0.667114 0.715577 1.264668 1.435544 -0.243111 -1.488807 -0.051908 0.126687 -0.659486 -1.511926 -1.428024 -0.457637 -0.254977 1.087780 -0.798672 0.743059 -0.170655 1.317874 0.020468 0.506653 0.257559 0.291552 0.577716 0.279313 1.492203 0.534344 0.990331 1.090130 1.445074 -0.363800 0.360351 -0.368026 0.560800 -1.766234 0.525814 -0.594564 0.197370 0.373999 0.329016 0.946251 2.132824 0.771090 1.050446 0.735624 -0.885294 0.638049 -0.322724 0.089962 -0.057781 0.405512 2.199839 -0.755166 -0.764904 0.681714 -0.376758 1.379492 -1.137475 0.701224 -0.098338 1.219747 -1.384956 -0.119650 0.818039 0.368105 0.640654 1.287709 -0.521930 0.085436 -1.720783 1.915873 0.515749 -0.515963 -0.177026 0.150425 0.969642 0.348892 1.381467
no 0.274284 1.084893 -1.441890 1.403752 -0.510959 3.474002 -2.804199 0.400486 -0.864830 0.920660 -0.088926 -0.157991 0.446576 0.048809 -0.261930 -0.326142 -0.800850 1.772043 1.219687 -0.042526 2.126488 -2.542286 0.070442 0.581298 -0.338039 0.159287 2.631949 -0.618589 0.362775 -1.554368 -2.084966 -0.508403 -1.037022 -0.339708 0.297942 0.238883 -0.259813 -0.426620 -1.286336 1.628351 0.387614 -1.670503 0.261603 -0.265523 -0.313966 -2.141706 -0.136059 1.663985 -0.886239 1.089228 -0.203890 -0.280243 1.242448 1.102651 1.753006 0.051293 -0.187235 -1.965796 -0.345358 -0.878403 -1.274868 0.782892 -1.126614 0.790711 0.128293 -0.481303 0.998820 0.704069 1.894827 0.761740 -0.901488 1.135974 -0.244911 1.084546 1.967657 -0.653304 -0.711806 0.427363 0.914203 0.111832 1.228742 -2.093934 -2.286671 -1.344119 0.255615 1.075566 2.547676 -0.358585 -0.887712 -0.981867 1.196555 -0.657053 0.829153 -0.338203 1.380106 1.146980 -1.788716 0.131677 2.539389 0.434519 0.461276 -1.852382 -1.069780 0.357141 0.447845 1.840864 1.817464 -1.951789 -2.906362 -0.110518 -0.243670 -0.730393 -2.122179 -2.452233 1.441306 2.067607 -0.203913 -0.831099 -0.339068 1.052078 0.202404 0.152042 1.537724 0.704473 -1.376950 0.403721 1.839325 -0.337881
if -1.349498 0.308134 0.057100 -1.618856 -0.966567 0.677519 -0.978899 -1.575674 0.925505 2.330221 -2.564415 1.831100 0.854020 -0.733180 0.938588 1.057336 -0.138941 0.157694 0.548271 -0.160155 0.408493 -0.160308 -1.120481 1.901475 -1.005624 0.557052 0.995286 -0.783432 -1.310151 0.213577 -0.586928 0.224146 0.537044 -0.992313 -1.593006 0.703655 -1.216612 1.029990 -0.184303 0.899292 0.581788 0.233091 2.168020 1.369251 -1.112135 -0.765302 1.222343 -1.042994 1.519204 -0.923630 -1.284317 0.781484 0.272518 0.335011 1.468400 0.275126 -0.725278 -1.228069 0.840623 0.594714 -1.716597 0.544896 1.539572 -0.437783 0.153959 0.253338 -0.250685 1.537841 1.454589 0.081513 -1.164158 -1.442640 -0.791453 -0.921912 2.102795 0.560554 0.467104 0.149345 1.388262 -0.115796 -0.623786 0.264187 0.739907 -0.931028 -2.387782 -0.788218 0.615736 0.287853 0.900632 2.032709 -0.844177 1.424262 -0.924615 0.611428 0.871886 -0.454823 0.946027 -1.105471 0.184690 -0.881674 1.383726 -1.023692 0.902156 0.018431 0.242893 -0.356265 1.855605 -1.869642 0.609661 0.006485 0.066754 -1.087970 -1.452325 -0.401718 0.195929 1.091747 1.265169 -1.523757 -0.510880 0.747514 0.289449 0.411637 -0.537915 -0.901796 0.974430 0.842252 0.784860 2.364375
there -1.641872 -0.552761 1.244374 -1.083704 -0.555247 -0.372616 0.305260 0.971686 -0.439225 2.036244 -1.210922 -2.024472 -0.482967 1.461230 0.991752 0.277180 0.799769 1.646024 -0.577388 1.714773 0.231907 -1.049840 1.010995 -0.183737 -0.801218 0.390245 -0.794008 1.393624 -0.574372 -0.722875 -0.558617 0.004177 -0.738503 -1.281259 -0.488134 -1.284590 0.819537 -0.664428 -0.595854 1.728418 2.519299 1.327409 -0.421057 0.292088 -1.252950 -1.099490 2.287313 -0.763392 -0.799805 -0.022405 1.912964 -0.992150 2.468603 -1.223524 0.282915 -2.202557 0.945196 0.495465 -2.100023 -0.682971 -0.619649 -0.135107 2.089916 -0.580057 -0.084878 -0.073797 -0.121904 -1.141322 0.063547 -0.195616 -0.770783 1.650743 1.699605 -1.093823 -1.060087 -0.226007 0.738385 0.216652 1.523000 1.491781 -0.389306 -0.261251 0.468379 -0.541749 1.068182 0.708392 -0.644811 0.931121 -0.383946 -0.277821 -0.113721 -0.784585 -0.657178 0.369205 0.387389 0.820270 -1.142957 1.929749 -0.490551 0.036348 -0.791087 -0.062619 0.485182 -0.374928 0.016585 0.739372 -1.900951 -0.170185 0.490612 1.999968 0.776915 0.233092 -1.015904 0.169274 0.203395 -0.313146 1.122109 0.303261 -0.645328 -0.353116 -1.227360 -1.445840 0.480436 -0.352538 -0.480753 0.673800 1.202796 0.079661
who -0.403296 -1.229144 -0.178656 -0.172809 0.630238 -1.573357 0.365412 -1.008171 0.898336 1.075200 1.482461 -1.409826 1.060528 -0.723793 -1.036802 1.281797 -0.383907 0.764372 1.349906 0.171132 0.475518 0.171794 -0.082573 1.440167 -1.067499 -1.116045 1.415687 0.596910 -1.445104 -0.982419 0.261628 -0.064665 0.930255 0.841587 0.923299 0.645697 0.249274 1.822503 -1.842315 1.307352 -1.384560 0.525244 -1.226080 -0.686476 0.409532 -0.058764 -0.671920 -0.690616 0.198241 -0.936402 -0.124666 -0.552107 2.003868 -0.886934 0.138248 0.189518 -1.042046 -1.508461 0.584705 -0.076057 1.360480 -1.597928 0.088055 -2.254602 -0.850249 -0.850820 -1.407723 -0.869660 -0.190169 -0.860866 -0.781510 -1.610919 0.739920 0.611910 0.707603 0.649657 -0.702339 0.215339 0.938853 1.192886 -0.198465 0.721657 1.151689 0.878920 0.785464 -0.959099 -1.265548 1.104627 -0.488670 -1.742353 -1.943547 0.935922 -0.314768 1.967558 2.288819 0.050249 -2.315178 -0.922872 -0.500728 0.936932 -1.017133 -0.874485 0.549924 -1.821353 0.721513 1.515258 -0.010647 -0.527515 0.952068 0.252145 0.451561 1.061230 1.986828 -1.987646 0.151836 0.411995 0.228943 -0.850497 0.891415 -1.361257 0.949275 0.604101 -1.414218 -0.171820 0.097592 1.111464 1.548399 2.057405
we 1.167621 0.104818 0.513807 -1.337656 0.887997 2.379162 0.231322 0.324034 -2.080446 -1.050215 -1.204978 1.263110 2.185710 0.661146 0.983028 -0.770131 1.100783 -0.116855 0.873036 0.031007 0.072122 -0.297228 0.979982 -0.674456 1.182419 0.325159 -1.834567 -1.642054 -0.974983 -1.923736 0.661394 1.936309 0.126788 -1.033319 0.683120 -1.922124 -0.592888 -0.245362 -1.742352 -2.807704 1.690687 0.342186 -0.628642 -1.623030 -1.168648 -1.512108 1.476580 -1.015172 -1.681476 -1.562073 -0.003896 -0.988628 1.411465 0.707674 -0.952303 -0.603634 -0.492320 -1.420516 0.005343 1.226332 1.929240 -0.386806 1.799127 -1.169086 0.769392 -0.270702 -0.766396 -0.893796 -0.870162 -0.101477 -0.399312 -1.629749 1.065122 -1.613506 -1.711409 1.125135 -1.174208 -0.355975 1.832156 -1.052836 0.310296 0.210074 0.253160 1.965835 1.509290 0.423910 0.632943 -0.089041 0.054750 0.632512 -0.457927 -0.246963 -1.606821 0.293675 3.206945 0.278808 -1.413179 -1.681308 1.837586 0.478535 0.012853 0.264088 -0.832388 -0.404057 1.207851 1.046077 -2.789922 -0.320754 0.957454 -0.694788 -0.110530 -0.627040 1.808122 -0.372404 -1.620774 1.801116 0.582192 1.682244 -1.526195 -1.426951 -1.118835 0.045178 -1.031133 -0.105283 0.713527 0.441834 -0.660388 -0.302598
will 0.407262 1.633269 -0.312286 -1.014538 0.322135 0.463196 0.962024 -0.959959 1.756198 -1.156882 0.570449 1.647000 1.235300 -1.295420 -0.932748 -0.184318 -0.388286 -1.302089 -2.303494 0.316147 -0.113965 -1.806842 1.320633 0.651157 -0.512882 1.708108 -0.184806 -0.123344 -1.977100 1.992528 -2.589147 -1.677261 0.344862 -0.808590 -1.886678 0.211781 -0.073031 -2.895281 1.927993 1.144017 -0.226363 -1.063365 2.458813 -0.577023 1.289721 -0.402925 1.325077 0.632026 1.174437 -0.339951 2.314469 0.507761 -0.855560 1.545377 -0.886399 1.164283 0.791064 0.448493 1.097391 -0.029435 -0.545956 1.763202 -1.146994 0.112593 -1.873372 -0.450509 0.825470 0.828373 -0.935167 -0.293254 0.549367 0.837829 -0.629788 -0.273111 1.874903 0.204962 0.695167 0.714846 0.716407 -1.021500 1.494621 0.613322 -1.999084 -1.533856 0.439710 1.272107 1.272623 -0.968951 -0.981888 1.258911 -2.281670 -0.631952 -0.899728 -1.660700 4.722484 -0.647056 0.926249 0.791894 -0.454164 -0.081251 -0.825512 0.536339 0.160632 1.099099 0.083975 -0.846295 -1.816408 -1.973464 -0.316752 1.736940 -0.576910 -0.684527 -1.823186 -0.828511 0.056506 -1.954753 -0.371798 -0.781162 -0.333594 0.668724 -0.406224 2.622323 0.113976 1.904283 2.760868 -1.072312 0.608002 -0.049974
an 0.676254 0.555007 -2.041225 -1.806656 -0.422658 0.511302 1.063255 -0.817370 -0.886378 0.057820 -2.566633 2.902061 -0.095691 1.993695 -1.739130 1.824876 -2.228292 -2.109179 1.303878 -1.176458 2.055831 -0.651606 -0.437017 -1.510106 -0.216042 -0.298903 1.970044 -1.237811 1.398670 -1.002260 -0.758388 0.209085 0.269747 2.692201 -1.173638 1.229685 -1.716353 0.745080 -1.250191 0.597283 1.178713 -0.827183 -1.631723 0.134532 0.652833 0.814524 -0.909594 -0.973162 -1.175754 2.019631 0.221637 0.539699 0.876141 1.733551 1.157216 -1.816958 0.981176 0.697565 2.440860 0.309568 -1.537033 0.564972 -0.778120 1.739248 1.264087 -0.337508 -0.691435 -0.981423 -1.176439 1.259212 -0.595134 -0.056204 1.351455 -0.448192 1.746776 -0.454987 -1.351276 0.582543 1.524371 -1.199843 -2.799541 1.018836 -0.005656 1.713404 -0.895392 -0.901545 1.246516 -1.826154 -1.674001 0.157230 2.018640 -1.768593 1.529939 -2.410155 0.297578 0.056281 -4.135799 0.144307 1.425405 1.401597 -1.752881 -1.558267 1.314512 0.521401 -1.098302 1.365676 1.218846 -1.082583 -2.042051 1.724449 -1.269172 0.842600 -1.170544 0.990603 -1.496573 -1.201071 0.505282 0.220304 0.103916 1.629030 0.605251 2.560792 -0.296873 -0.085281 -0.664802 1.532784 -1.549134 0.111205
then -0.764997 0.713474 0.127575 -0.179257 0.642979 -0.816787 0.204105 0.462990 -0.830022 1.208233 -0.555063 1.589615 -0.434859 -0.430160 0.459325 1.324151 0.158720 0.549917 -1.433502 0.143047 -0.657304 0.004614 0.096299 0.906791 0.526124 0.803095 -0.145137 0.887592 -0.577395 0.086268 0.898820 -0.237913 -0.246635 1.385579 0.513391 0.506165 0.757796 0.251941 -0.309594 -0.664546 0.649490 -0.740387 0.463620 -0.586170 -1.113221 0.976834 0.584232 -1.022415 1.009536 -0.601488 0.278744 -0.415337 1.983015 0.945174 -0.119366 1.201626 -0.727997 0.192058 1.061942 -0.134575 0.987983 -0.661349 1.081924 -0.096932 1.151176 0.133933 -0.035663 -0.533973 1.247280 -1.244143 0.364653 -0.137330 1.186127 0.700700 0.010013 0.927174 0.797212 -0.117731 -0.597716 0.210368 -2.099774 0.362878 -0.163409 -1.181956 -0.631944 -0.680917 0.005732 0.212148 -0.397415 -0.125632 0.600274 -0.520965 -1.692582 1.788876 -0.853932 0.844003 -0.329598 0.662253 0.462113 0.016973 0.305284 0.960870 -0.776184 -0.216368 1.388793 -0.067378 0.355441 0.049471 1.051592 -0.442549 -0.777665 -0.624789 0.145727 0.539068 0.550587 -0.559581 -0.093497 1.003901 -0.410710 -0.926481 0.818891 0.597070 0.755513 1.058512 0.602465 -1.312881 0.685009 0.512614
their 2.710950 0.185520 0.203016 -1.620002 -0.676547 -0.962200 -0.273989 1.338066 1.259087 -1.375622 -1.873265 1.051397 1.129871 0.876318 0.259618 -0.185985 1.444620 -0.729061 1.713196 -0.610652 0.932981 -0.042013 0.012819 -2.466015 -1.146588 0.850413 -0.075385 1.214154 0.665774 -0.526345 -0.994846 -0.687442 0.528888 0.765109 1.830439 0.694762 -0.049064 -1.161465 0.775373 0.596815 0.171752 -0.244745 0.664494 -1.828845 -1.025458 1.263587 0.714037 1.536412 -0.080643 -0.090717 -2.918960 0.640389 1.510725 -0.526205 -0.165156 0.162451 -0.554177 -0.849080 0.935965 -0.668516 0.105103 -0.673473 -0.790383 -0.640345 1.060993 0.596172 0.181475 1.429461 -0.569831 0.465538 0.749496 1.425201 1.674499 2.175522 -0.899972 -0.574184 -0.954068 -0.265858 1.669208 -0.183191 -1.836530 -1.079251 -0.847384 1.275089 -0.162193 2.910505 1.255024 -0.566122 1.708561 -1.402714 1.085702 -0.362802 -1.028947 0.310172 0.527177 0.622188 -1.218156 -0.033121 -1.419896 -1.217915 -0.374026 0.382994 1.883077 0.738923 0.205670 0.824729 0.613020 -3.106860 0.294729 0.334688 0.410002 0.734427 1.614627 -2.353873 0.752324 0.911083 -0.223422 1.701881 0.253173 1.343966 -0.628380 -0.303481 -0.342996 -0.427689 0.338750 -0.692323 0.816880 -2.534111
would -0.389808 0.734154 -0.177001 -0.757187 1.211619 1.974885 0.949881 -0.821721 -0.236738 -0.779109 1.053457 2.262537 1.999037 -0.959197 -1.369765 -0.472581 0.700899 -0.579053 -0.162207 -2.041950 0.754696 -1.366023 -1.012797 3.344082 -1.497740 1.398630 0.598823 0.421825 -2.214772 0.797323 -3.051414 -0.922699 0.711279 -1.003306 -2.260738 -0.346624 -0.838055 -1.589214 1.168866 0.312355 0.227345 0.159422 3.624085 -0.657880 1.194029 -0.107331 0.958578 1.505308 0.814524 0.530834 1.827076 -0.461854 -1.212369 1.889735 -2.733010 0.294958 -0.441168 0.599657 1.775975 -0.540351 -1.328105 1.009625 -1.281014 1.943842 -0.037960 -0.327211 0.881050 0.671922 -0.066698 0.467195 0.334364 0.499223 0.016924 -0.598193 0.959859 -1.925714 0.146630 0.577847 1.114862 -0.750832 1.220766 1.678037 -1.233056 -0.013902 0.468836 -0.601883 0.834002 -0.019034 -0.016769 1.257995 -0.588419 -0.483270 -1.366711 -1.508134 3.410213 -1.867958 0.642172 0.893363 -0.656281 0.285003 -1.160620 0.097442 -0.689108 0.441609 0.615055 -0.864502 -1.331949 -1.404608 -0.333036 0.195731 0.245479 -1.108703 -1.212817 -1.026316 -0.738339 -1.718535 -0.823041 0.451451 -0.303753 0.887334 -1.134806 2.305076 -0.693658 1.008579 2.273297 -0.599239 1.054380 -0.564201
them -1.106942 0.096088 -1.162674 -0.724459 -0.169969 -0.805715 -0.312646 -0.000898 0.762852 1.427102 0.706136 1.226103 1.455957 1.126482 0.026476 -0.342766 0.863857 -0.135780 0.503954 0.403877 0.813620 -0.178951 0.969757 -1.503368 0.832717 -1.870154 0.026210 -0.428401 -1.305959 0.659527 0.096998 0.278122 -1.266680 1.526853 2.151760 -0.311884 -0.298112 2.226977 0.321272 0.755830 0.387558 0.166762 0.646630 -0.463788 -0.524264 0.059071 -2.077971 -1.301501 -0.463684 0.377272 -0.456172 -0.082540 -0.037510 0.364462 -1.310057 1.257602 -0.711832 -0.790449 1.201321 0.015608 1.175907 0.057758 0.589213 -0.130422 -0.182817 1.144825 -0.090413 0.976694 -0.175235 -0.169991 -0.154930 0.885007 -0.934686 0.779937 -0.484049 0.806721 -0.490465 -0.700467 2.299606 0.510488 -0.134964 -0.699087 0.551335 0.227707 0.800444 0.586389 -0.030529 -0.772476 -0.521360 1.019320 0.989044 -1.471768 0.826238 0.309906 0.896638 1.635521 -0.340707 0.002944 0.484515 -0.140944 -0.271017 0.656210 0.600926 -0.307619 0.520365 0.370584 -2.825210 0.280712 -0.617274 0.675230 1.323792 -0.196025 1.664197 -1.836654 -0.518260 -0.306404 -0.159302 -0.429251 -0.152506 0.492399 -1.402191 -0.954143 0.141081 -1.731447 -0.781096 -0.483506 -0.290912 -1.810901
been -0.293327 0.418816 -0.130931 0.796675 0.929099 -2.278618 -1.283385 1.408550 -0.367390 -0.271837 0.314223 0.628523 -0.664788 -3.112852 -2.329723 -1.433501 -1.743258 0.229860 0.178604 -0.261019 -0.075592 -0.040066 -2.056522 0.288573 1.250040 -1.409251 1.105474 -0.902767 1.617949 -0.373523 -0.953829 2.068981 -1.115486 0.702128 1.180623 1.395031 -1.172908 1.596469 1.256736 -0.564422 0.244820 0.324892 0.592361 1.040112 0.983832 0.181781 -0.402688 1.568689 -2.963863 1.466172 -2.295145 -1.888326 -1.839422 0.528605 0.641230 0.593315 -1.560659 -2.013012 2.693741 -1.894901 1.617978 0.606069 -0.173909 -1.889286 2.163593 0.294443 -3.258896 2.148088 0.623027 0.804043 0.939103 -1.058402 -2.172626 -0.672568 0.836562 -0.258666 0.054271 -0.108027 0.749516 1.290211 0.605708 -0.034571 2.280676 0.240819 1.857748 1.274034 -0.524770 0.533126 0.099283 0.659710 -0.287281 0.454305 -0.629137 -2.630025 0.311811 2.097828 0.762360 -2.462698 -0.367618 0.303564 0.256713 0.267509 0.475659 -1.738424 -0.333635 1.211703 0.216201 1.982379 -0.818439 -0.491857 -0.695067 0.775435 1.216733 0.103984 -1.496946 -0.055036 1.297541 -0.250350 0.059848 -1.479094 -0.216057 2.104649 1.369357 1.035987 -0.228142 -0.741346 -0.813894 -0.948212
do -2.059164 -1.065769 -0.026496 0.773202 2.068715 -0.750380 -3.266303 0.646174 -0.852962 -1.059846 0.022817 -0.799962 2.084237 -0.114558 -2.087232 1.525041 -1.467935 -1.611890 0.651036 0.521936 0.798861 1.909365 0.483449 1.638744 -0.783999 0.748687 -0.326353 -1.711951 0.749671 0.857987 2.184812 0.947161 0.988145 0.664649 0.760121 0.167602 -1.390517 0.376239 0.183470 -1.279932 0.412572 -1.672008 0.674750 -2.191187 -0.501115 -0.209692 0.177663 -1.587621 0.996363 -0.593514 1.888076 0.152480 -1.284683 -1.097456 0.944364 2.241410 2.016422 0.701670 -0.081845 -0.319944 -1.369666 0.973956 0.737137 -1.242773 -1.067400 -0.199528 -0.505128 1.919560 -1.070835 0.936509 1.929205 -0.067602 1.087316 -1.397022 1.250489 -0.183206 -1.006984 0.115901 0.108086 -0.396989 -1.203095 -1.410156 -1.006216 -0.599661 -1.744798 0.702080 0.435425 -0.324481 -1.014622 -0.412371 -0.349225 0.376596 -0.440585 -1.142045 1.239132 -0.005379 1.843220 0.518606 -1.016724 -0.516895 0.194244 -1.579307 -0.403987 0.933649 -0.415956 -0.170728 0.217573 1.039349 -1.220852 1.419999 -1.264170 -2.114006 0.583863 -1.430094 0.918335 -2.848789 -0.135094 -1.517957 -0.440174 0.078412 -0.701248 0.310464 0.400215 0.621819 1.684319 1.372802 1.146559 -0.755663
your 2.596465 1.190956 -0.314284 -0.373438 -2.688235 -0.588515 0.121133 0.137371 1.249284 -1.452068 0.012726 -1.745132 -0.450496 0.983482 -0.630328 -0.140016 -0.248501 -0.591130 0.837339 0.537159 -0.106092 -0.584280 0.186804 -0.230222 -1.191293 0.456990 -0.091370 -0.334294 0.398594 -1.418177 -0.415522 -0.892793 0.631942 0.094043 -0.587264 0.050358 -0.635654 -0.126006 0.867270 1.567671 -0.832453 -0.541509 1.175350 -1.584749 -1.680311 0.947897 0.274487 0.956533 1.229400 0.572797 -1.162287 0.113751 -0.346372 -0.318542 1.671385 -0.097931 -0.406220 -2.027312 0.242476 1.421865 0.866237 -1.344854 -2.411165 -1.133614 -0.773448 -1.092684 -0.395554 0.892879 0.459701 1.745756 -0.087190 0.725782 1.774837 1.063999 -0.802701 -1.412571 -1.028533 -0.164612 1.079744 -0.225800 -0.636064 -1.975947 -1.267677 1.197143 -0.548090 2.507451 2.654624 -1.260075 0.331779 -1.402554 0.531875 -2.119857 -0.439668 -1.443149 1.232259 0.667470 -2.256666 -0.122955 -0.207973 -1.209558 1.064391 -2.238650 2.062461 0.765553 1.348111 0.433411 0.880696 -3.452621 0.249836 0.796524 0.690341 -3.349574 -1.586714 -1.598716 -1.112313 2.293816 0.791183 1.618757 0.725164 0.373597 -1.382954 2.976901 0.599333 0.189223 1.149336 -1.164449 -0.555336 -2.875953
now -0.549253 0.326860 0.014974 -0.210359 0.238881 -0.322175 -0.781416 1.231639 -1.295798 1.014637 -0.613269 0.526924 -1.159323 -0.063063 0.236007 0.709571 0.496962 0.727594 -1.056214 0.207456 -0.063244 -0.103281 -0.078589 -0.047209 0.983575 0.129602 0.230086 0.308064 0.490281 -0.482812 0.581212 1.068600 0.024705 0.269448 0.673472 0.094318 -0.351186 -0.237889 -0.190436 0.489166 -0.179744 -0.006059 0.612364 0.187906 -1.249280 0.026643 0.607694 -0.219870 0.698775 -0.337980 0.273572 -0.238846 0.004865 0.634978 0.734631 -0.278822 -0.335861 -0.122846 1.095775 0.622860 0.409387 -0.832991 -0.267713 -0.060090 -0.086970 -0.757007 0.723584 -0.126896 0.207600 -0.409524 0.262205 -0.265897 -0.168421 -0.967223 -0.731894 0.308204 0.406593 0.014823 -0.356801 0.478289 -0.087065 -0.431508 -0.587658 -0.476377 -0.630720 0.161991 -0.310411 -0.619287 0.458117 0.206786 -0.093470 -1.262921 -0.370437 0.838286 0.915641 1.256486 -0.159370 0.448978 -0.320916 0.410349 -0.125406 0.902232 -0.322460 -1.152984 1.097060 -0.249692 0.530179 -0.468677 -0.160932 -0.223253 0.079003 0.035434 -0.378251 0.371910 0.335895 0.798109 -0.500664 -1.195814 -0.955997 0.284824 -0.190893 0.568157 -0.403767 -0.332701 0.928777 0.479440 0.250339 0.836516
out -1.327501 0.705692 1.159966 0.260576 -1.679510 0.655773 0.306402 -0.485730 -1.755338 -0.219847 1.871574 -0.449443 1.353949 -0.273886 0.838707 -0.316059 -0.210519 -1.234835 1.429425 0.067419 0.774857 1.982093 0.480765 -3.468801 -0.745071 0.390159 -0.377227 -0.981475 -1.030524 -1.722177 -0.120980 -0.069666 -0.561645 2.354287 -0.923725 -1.121702 3.399957 1.306260 -0.573240 0.456504 0.318568 -0.875342 -0.203662 -0.566211 0.025845 1.681903 0.332779 -1.497933 1.738961 -0.716005 -0.131948 -0.346442 -0.731148 0.383122 -0.671842 -2.635358 -1.828157 -0.839485 3.481274 1.122432 -1.520051 -0.586844 -1.041790 1.512616 1.472852 0.269675 1.240518 1.410306 -1.780671 -0.325244 -1.235772 0.773613 0.487898 1.139513 -0.649946 0.374739 1.620173 -0.020190 1.038457 0.977231 1.324580 -1.321279 3.038312 -1.636184 -0.601206 0.372094 -2.383191 0.985036 -1.538205 1.522727 0.365584 1.445484 0.592468 2.346505 0.952184 0.228990 -0.708239 0.958334 1.173919 2.212031 -0.952896 -0.226847 -0.315327 1.416482 -0.637572 -2.301096 -1.975266 -0.067942 -0.632023 1.101014 -0.837315 -0.569919 -0.116059 1.098588 2.000394 1.128379 0.485505 -1.113511 -0.368508 -2.266433 0.804177 -0.211508 0.942019 1.270123 -1.424422 -2.945216 -0.402037 -1.706447
more -1.043007 -0.317460 0.024347 -0.210763 -0.993630 -1.579410 1.045801 0.110543 -0.740863 -1.174385 -0.984766 -0.097594 -1.165309 2.025860 0.664451 0.263088 -0.286493 0.703767 -0.967622 0.667772 1.835371 -0.922692 0.504623 1.057371 -0.237212 1.170903 -0.476742 0.138684 -0.485219 -0.266269 -0.272836 0.772373 0.841251 0.831069 2.127270 0.866185 1.822445 0.129284 -0.295457 -1.368339 1.577353 -0.318923 0.554384 0.186068 -0.111784 -0.283784 -0.625672 -0.003403 -1.469217 0.537825 0.742489 -0.838097 -1.105676 1.261808 0.237464 1.349382 1.155139 -0.869927 -0.742242 -1.966356 0.753687 1.096003 0.671335 0.732606 -1.991209 0.059848 1.086047 -0.126320 -0.968251 -0.748074 -0.589141 -0.693475 0.802404 -1.491512 -0.477270 0.721966 0.132635 1.132206 0.754259 0.960456 -0.603707 0.304407 1.549338 -0.087937 -0.538305 -3.176003 0.809862 -0.473893 0.211134 0.033244 0.849123 -0.623998 -0.223097 0.560080 1.792952 -0.253297 1.034591 -1.029913 -2.028969 1.248867 0.148400 2.342662 1.408878 0.549486 -2.564987 -1.491223 1.970198 0.602807 2.451304 -1.006979 0.289841 0.887624 -0.737981 -1.579957 0.148267 1.087801 -0.044011 -0.219555 -1.069618 -1.055849 -1.758077 0.035712 0.817826 -2.840361 0.665747 1.529389 -2.102072 0.040304
up -1.612818 0.006299 2.331279 0.402094 0.911875 -1.463600 0.864835 -0.596949 -1.038460 -0.627113 1.694787 -1.215993 -0.919440 0.249348 0.709991 1.820680 3.011993 -0.339074 -0.984844 -0.853347 1.444389 2.431185 0.962850 -2.901039 0.489739 -0.089215 -1.257809 -0.373139 0.552936 -1.215415 1.778935 -0.284717 0.064642 2.463299 0.022292 0.479362 2.971587 0.916878 -1.047097 1.566633 0.125794 -0.473225 1.060135 -1.904779 0.078821 2.088991 -0.614307 -0.849039 0.774441 0.306883 -0.255621 0.343236 -0.217466 -1.079187 -0.386125 -1.696592 -1.969743 0.346865 2.352885 -0.260713 -1.529986 -0.163074 -0.156493 1.464589 1.976752 1.570693 0.011334 -0.675891 0.060901 -0.128958 0.686634 0.574134 -1.823968 0.057797 -0.045224 2.803774 -1.337771 0.684269 0.340054 0.126889 2.184095 -0.842649 2.988350 1.158506 0.222731 0.129992 -4.322494 0.833480 -2.049315 0.375492 1.076687 0.414721 -0.590450 -0.960077 -0.979364 -0.171386 -0.398122 0.964279 1.488950 1.405589 1.292359 -0.374709 -2.226589 0.776983 -0.718080 -1.348836 -1.383757 -1.325625 0.955570 -0.060491 -2.169150 -1.093946 0.772331 1.184579 1.560826 0.551756 0.163512 -0.446928 -1.261782 1.010314 0.212530 -0.345783 1.175022 1.103200 -0.417046 0.192340 0.331715 -1.249404
man -0.055256 -0.370145 0.823138 -0.509430 -1.271552 -1.072531 1.395242 0.279638 -2.397856 0.759865 0.745228 -0.217183 0.072921 1.374757 -0.143050 -0.446152 1.951148 -1.194241 -2.621611 -1.029357 -1.764922 0.010310 1.652310 0.119502 0.565162 -1.797040 -1.535636 -1.873486 -2.267760 0.070732 1.096623 2.049389 0.852590 1.101104 2.932311 -0.711995 -2.371057 2.260966 0.993176 -0.128551 0.680747 1.469540 -0.316972 1.440309 -1.356371 -2.351520 2.111609 -0.553402 -2.030428 1.306278 -1.921370 1.040874 1.810523 -0.279966 -0.971222 -1.043261 -0.027756 0.280438 -2.406348 -0.958696 1.943840 0.066912 0.943494 -0.196233 -1.984881 -0.397031 -0.796448 0.743380 -0.110521 -0.097917 2.536577 -1.290479 -1.265633 0.247726 -0.200699 -0.430276 1.853105 0.179466 -0.346078 1.342146 -0.110975 -0.241461 1.074124 0.388905 -0.415724 -0.682371 -0.569484 -0.121050 -0.606850 -0.195835 0.099962 0.777383 -0.394563 1.799908 1.070678 1.838513 1.571699 -0.075892 -2.437697 2.869159 1.280109 -1.408860 1.021293 1.192309 0.726550 -0.276129 -0.217365 2.156106 -0.137809 -1.806261 0.841574 -0.576082 0.956244 2.424749 -0.633739 -0.876544 -2.215255 -1.802421 -0.209991 0.743316 0.803430 -0.413791 -0.415728 0.879820 0.076492 -0.622208 -0.994724 0.541991
into -1.335747 1.048786 2.616249 3.145495 2.159282 -1.427635 1.831816 -2.076274 -0.971812 -2.587305 1.929591 1.272918 0.031734 -0.710917 1.105736 -1.280886 1.362926 0.111552 -0.499311 0.128295 1.324866 1.181022 1.127301 -3.001546 -0.549246 0.864677 -0.486511 -1.410151 -0.800544 -1.236721 0.245787 -0.176172 1.887786 0.197787 -3.830266 1.134411 1.980143 -0.506548 -0.368119 1.912420 0.902934 0.054626 -0.523604 1.748527 -1.676921 1.538996 -0.308057 -0.323746 2.332789 -0.040382 -2.071588 1.170873 -1.112730 -1.428342 -1.618382 -0.764561 1.618833 2.219698 0.544932 -1.657050 -1.192435 0.688030 0.252612 2.788846 1.201989 0.536649 0.763871 -0.302926 0.948310 1.076852 0.951940 -1.083284 2.389773 1.615327 -1.966846 -1.465455 0.119541 -1.555578 3.294404 -0.276278 0.712863 -1.860438 -0.030752 -1.123341 -0.690618 -1.905706 -1.415590 0.953607 1.181151 1.477252 -2.405637 1.340224 -1.647226 -1.087676 0.119407 -0.710026 0.165888 0.532001 1.335605 1.869518 0.985915 1.009905 -1.064329 2.440494 0.999618 -2.687688 0.507326 0.254433 0.646416 0.282078 -0.675192 2.333380 -0.514120 1.799926 0.707283 1.943029 1.787644 0.254371 -0.022226 -0.350938 0.340866 0.677429 1.059557 0.827441 -0.651550 0.086507 0.284507 -1.267015
some 1.945631 0.518072 -0.486478 -0.158564 1.634145 1.311973 -1.194166 -0.111500 -0.103566 -1.061335 -0.596549 -0.185630 0.985228 0.500294 -0.748013 0.694261 0.142393 0.123306 0.064992 -0.212434 1.311797 -0.651430 -0.895817 -1.138364 -1.413338 -0.455888 -0.331657 -0.032141 0.614969 -0.181965 0.006721 -0.417134 -1.153375 -1.381688 -0.458023 -0.606838 -0.731017 0.617646 0.816298 0.322610 1.110247 -0.279131 -1.887108 0.203417 0.033514 0.262590 -1.451459 0.610694 -1.359244 -1.110214 -0.511223 -0.373336 1.548977 2.147254 -0.189729 -1.192161 -0.464638 -1.912518 0.562078 -0.255030 -0.411215 1.567700 -0.504395 1.398894 0.902385 0.995882 0.751737 -0.669741 0.720186 1.258784 0.724864 1.678615 0.153780 0.262985 2.085955 1.105916 1.532856 0.786172 0.843530 0.827546 -1.285585 -1.177379 0.577028 0.871796 0.704256 1.702132 0.618737 -0.292685 -1.701880 0.331899 0.835444 -0.534077 0.698482 -0.607483 2.536043 0.320256 -2.955823 0.036580 -0.089993 -1.012662 -0.643615 0.499310 -1.091800 1.822671 -1.078719 1.391520 1.623343 -0.005076 -0.665926 -0.960886 0.142528 0.760865 -1.118652 -1.975576 0.489690 1.133970 1.184483 1.469724 0.741646 -0.984617 -0.508893 0.190182 0.285289 -0.950208 -0.454273 -1.204677 1.652748 -0.564117
could 0.930434 0.559797 1.429479 0.488686 -1.212083 1.412622 0.203014 -1.300169 -0.246440 1.478490 0.072276 3.298398 -0.470111 -1.521781 -0.758480 -1.703116 1.400390 -1.232513 -0.786698 -2.386855 1.846335 -0.764096 0.633068 2.757049 0.057576 -0.086464 0.296842 -0.183559 -1.365633 1.309528 -3.251544 -1.277589 -1.658221 -0.544052 -1.781267 -1.099402 1.750655 -0.609650 1.195832 1.186944 1.487929 -0.513806 3.747279 -0.136174 2.230044 -0.199727 2.971924 0.001194 -0.078835 0.141170 2.583854 0.810749 -1.837403 0.526493 -2.252985 2.252790 0.813532 1.113275 1.546541 -0.240297 -0.523817 -0.404441 0.528273 0.724983 0.696274 -1.102337 1.746212 1.020285 -1.209784 0.873843 1.631073 -0.262733 1.350837 0.572653 1.289253 -1.433938 0.807702 3.010444 2.455754 0.484702 -1.154143 1.550370 -1.298602 -1.537641 0.280017 1.361055 0.306197 -1.147928 -1.348395 1.298904 2.025740 -0.320536 1.997152 -1.671211 3.783495 -2.061505 1.234812 0.511624 -1.095525 -1.691630 0.003481 0.329035 -1.068161 2.358230 0.742672 -0.749333 -2.083412 -2.517614 0.097763 -0.443751 -1.693018 -0.499099 -0.096583 -0.587219 -1.055408 -1.868904 -1.243655 -0.256180 0.227135 -1.215297 -2.821613 -0.107566 -2.163252 1.223521 2.771898 -1.147586 1.601694 -0.067961
has 1.000336 -0.661743 0.473828 -0.998738 -0.083046 0.494799 2.690944 -1.426511 -1.253380 -0.757732 -0.386353 2.423526 0.268367 0.664645 -0.647829 0.489696 -0.238857 0.508639 -2.531606 0.538657 0.598930 2.930052 -1.975878 1.822502 -2.895625 0.037783 -2.531641 1.250611 -0.462626 0.292849 -1.492068 -3.103472 1.354965 -0.472499 -0.422930 -3.131058 -0.188619 -0.492569 -0.234282 0.238390 -2.567119 0.510982 -1.421266 0.256646 0.862837 1.994494 0.823245 -0.245454 -0.774277 -1.576152 0.508902 -0.546803 -0.022762 -0.503493 -0.816414 1.476580 -0.238677 2.170967 -0.330792 1.671290 1.493164 0.561886 0.037744 2.883611 -1.902713 -2.722404 2.851810 -2.231834 0.883568 0.447699 -1.011165 -1.135927 -2.450103 -0.220811 -0.412778 1.425745 -0.006877 0.076910 2.057853 -0.186777 -0.428865 0.128315 -1.736562 -2.509419 0.544165 -2.751393 1.851123 -0.133873 1.033410 -0.188471 -2.106276 1.335438 0.234067 -1.301670 -0.647137 -1.551275 1.541868 2.206286 1.304435 -0.961187 0.163668 -0.970245 0.375766 1.642883 0.363140 0.506688 1.602040 0.096170 0.665121 1.242564 2.624987 -2.315686 3.030426 0.182623 -0.438586 -0.160503 -1.794037 1.514462 0.196310 1.668074 0.246407 0.897205 0.041636 0.025433 0.270794 -0.200993 -0.519020 0.382459
only -0.213968 -1.599852 1.192515 -0.252880 0.258570 0.823788 -1.364160 -0.945941 0.003608 1.351750 -1.278814 -0.169932 0.882797 0.027458 0.757931 -0.727654 -0.464272 1.411672 -1.337884 1.664586 -0.749849 -1.033693 -0.849082 0.077016 0.632636 -0.410022 1.027410 -0.876791 0.082430 -2.920602 0.145727 -0.237937 -0.098603 -0.328829 -0.599621 -1.580139 -0.003445 0.684952 -0.062809 -0.195210 0.073680 -0.799723 1.628155 0.156724 -0.498449 -1.320309 -1.303316 0.144181 -0.145670 -0.008280 -0.277556 -0.205621 0.435871 0.555092 -0.047077 1.523995 -0.063313 -0.133428 -1.319708 0.044063 -0.847414 1.044130 -1.262094 -0.379284 -1.508991 0.390010 1.039875 0.461616 1.180295 -0.957244 0.630729 1.130971 -0.074431 -0.004935 0.466453 -0.177854 0.730897 0.055730 0.626915 -1.466274 0.392301 -0.560775 0.639890 0.318121 -0.747439 -0.751656 0.108232 0.360084 -0.478873 -1.289963 -0.148703 -0.499976 0.481604 -0.942562 1.696701 -0.340940 -0.521211 -0.494678 -0.629176 -0.154747 -0.283322 0.578531 0.177291 -0.221117 0.256607 1.426063 1.324177 0.131589 1.478221 -0.014954 0.098414 0.250423 0.286860 0.380895 1.626573 0.517433 -0.402002 0.106910 0.036279 -0.019158 -0.705936 0.742257 0.044635 0.456859 0.453409 1.528993 1.399361 1.413369
any 1.903871 1.974369 -0.818187 0.464352 0.527656 2.694154 -0.543488 -2.237237 -0.546234 -1.692379 1.057353 0.714200 1.056182 0.187037 -1.107534 -1.776024 -2.062717 0.304926 -0.155520 -0.575046 0.944401 -1.312732 -0.899619 -1.376916 -1.853925 0.126997 -0.020401 0.216834 1.940797 -2.152280 -0.868305 -1.463797 -2.466396 -0.901942 0.268978 0.790998 0.434406 1.020194 -0.680795 0.047477 -0.317669 -2.054518 -0.118849 0.147071 -0.386085 -2.196427 -1.400830 2.369816 -2.303588 -1.501055 0.656218 -0.437260 1.525701 0.844545 0.654617 0.331531 0.930227 -1.864781 0.026563 -0.972472 -2.035040 1.933875 -1.210830 0.586247 -0.346300 0.746240 0.465623 0.342617 1.075646 0.832315 1.260630 0.604845 0.109893 -0.024129 2.543113 -0.135387 -2.919034 1.651032 1.157765 -1.714340 0.331073 -2.745116 1.228233 -0.288401 0.233076 2.026289 3.373182 -0.908838 -2.790673 0.389141 2.698648 1.327356 1.602164 -0.945204 1.355703 -0.420542 -2.530235 0.062646 -0.446033 1.403560 -0.996739 -2.674227 -0.046840 1.526186 -0.060699 1.651408 0.775472 0.156237 -1.978880 -0.917243 0.571630 0.007269 -1.194562 -2.482084 -1.345095 0.924865 0.388487 -0.435392 0.487082 0.087040 0.928797 0.652123 -0.651554 0.116517 -1.252714 0.642359 0.920196 -1.007096
very 2.282598 -0.384274 1.487064 0.787254 -3.071333 -1.582979 -1.126161 -1.121272 0.079186 -0.822689 0.833370 0.359656 0.132853 1.265919 -0.500656 0.198815 0.901062 0.082780 -1.068624 0.968817 2.150891 -2.287642 1.017197 3.389975 -0.700243 0.719121 0.252059 0.464166 1.048795 1.016073 0.498402 -0.407088 0.068661 -0.013070 2.572400 -0.425461 1.118153 0.216524 0.555628 -0.329072 0.780252 -0.205510 -1.237514 -0.091498 -1.898217 -0.134782 -0.456930 1.243981 -0.790332 2.021560 0.544996 -0.886693 0.050478 0.396435 -1.987518 -2.302533 1.017981 -0.634712 0.085211 1.392011 -0.158554 2.001193 -0.079131 0.640409 -1.711517 -0.061385 -1.517526 -0.411016 0.875398 0.647351 -1.295727 0.499305 0.692845 -2.499392 1.514377 -0.797482 -0.283924 0.464168 -0.176091 -1.775506 -1.027606 -0.085793 0.300211 1.315166 -1.170537 -1.842120 -1.157240 0.183427 -0.336497 0.742733 0.001835 0.902745 0.768073 -0.605274 -0.211588 0.911431 0.551071 -0.003553 -2.992960 -0.123108 0.083486 0.945328 -0.002690 0.362869 -1.734494 -0.154188 0.739530 2.474394 3.272938 -0.090243 -0.750489 0.861400 -0.311108 1.921054 1.154769 0.793504 1.394764 -1.238536 1.210288 -1.461831 0.633250 1.121100 0.716316 -0.601966 -0.986579 -0.389508 0.550733 -0.277573
like 0.201610 -0.937151 0.949702 -0.934491 -0.036250 -2.142148 0.439212 -1.343877 -0.980693 -0.047691 -0.639123 -1.726099 -0.820167 1.188727 -0.297257 -1.764390 0.298823 0.374367 -0.743009 -0.360418 -0.731982 1.102679 -0.093251 -0.974625 -0.705900 -0.781595 0.096420 0.555178 -1.042171 -0.987914 0.269589 0.743163 1.292541 0.835499 -0.396702 0.984295 -0.595140 0.532201 0.536277 -0.916832 -0.512889 0.763033 1.000147 0.785088 1.021090 1.180709 1.427899 0.985620 -0.376317 -1.191701 -0.081296 -0.877025 -0.232721 0.563717 -0.544584 -0.093376 2.059632 1.860551 -1.166363 0.411384 -1.638526 0.959884 0.221633 -0.237436 -0.113552 -2.513023 -0.138623 -0.110833 1.280552 0.891640 -0.477593 0.941434 2.661738 -0.609727 1.016807 1.632873 1.184208 1.066733 -1.063891 1.395461 2.509209 -1.096705 0.026760 -0.735821 -0.877211 1.762347 -2.384043 1.033751 -0.271229 0.466195 -0.535514 0.777981 0.335826 0.188911 -2.729606 -0.929305 1.219586 -0.229962 0.579248 -1.051516 -0.388903 0.000503 -0.024234 0.776915 2.028475 0.225454 0.090916 -1.651074 0.363440 2.221110 0.354967 1.220438 -0.196720 0.540553 0.652436 -0.243514 0.735837 -0.265638 -0.179332 -0.583028 0.709847 1.173938 0.791814 0.597250 -0.557262 -0.307634 1.306845 0.662178
did -0.947843 -0.715540 0.040521 0.826586 1.701487 1.961853 -0.625668 -1.067017 1.264085 -0.356277 -1.498145 1.499793 1.605507 -2.058830 -1.911901 -0.481395 -0.484298 -3.270374 -0.543975 -1.172046 1.967044 1.328139 1.668628 1.179776 -1.900741 0.323190 -1.531783 0.670163 -1.454053 1.110799 0.439077 1.311928 1.141468 -0.745057 -1.467808 -0.983935 -0.711522 -1.265296 0.226865 0.953515 1.643419 -2.540684 3.638418 -1.087761 0.014437 0.496227 -0.789813 -0.594474 1.221468 -1.083924 3.837970 0.300396 -2.667203 -0.878921 -1.045251 1.414667 0.452549 1.729345 0.311686 1.037969 -0.561209 -0.845126 0.778180 0.941513 0.455586 -1.433680 0.973151 1.335345 -0.129320 1.760254 2.639062 0.069564 1.000245 -0.980834 2.956964 -3.206503 0.182948 2.050914 1.553580 -0.365391 -0.352357 0.399888 -1.336603 -1.649472 -0.926799 1.279533 0.324716 -1.173287 -0.362711 -0.173420 -1.328057 0.294313 0.884941 -2.018891 3.655684 -1.252590 1.783216 1.185996 -1.239587 -1.385175 -0.083148 -1.235418 -0.243511 0.234050 0.152318 -1.437374 0.071582 -1.478667 -0.326040 1.528320 -0.363757 -1.119313 -0.866570 0.031399 0.545918 -2.375529 -1.301209 -1.767029 -0.772754 -0.285489 -0.967196 1.357996 -0.217955 0.524582 2.485873 -0.479748 0.353053 0.320572
time -0.178363 -0.160663 2.588939 1.130383 2.409490 -0.621267 -0.304656 1.979253 0.306407 0.443029 -1.038301 1.473337 -0.366596 -1.488563 1.343825 -0.245729 0.612679 1.100586 -1.620773 -0.138845 -0.200837 1.413087 0.354023 -0.426715 1.322722 1.418361 -0.415839 -1.576937 -1.153938 2.090694 -0.333876 0.945695 -0.305778 -0.370496 2.663887 -0.203775 0.110982 1.137358 0.077018 -0.306473 -0.556323 -2.128737 -0.279790 0.743104 -1.399133 -0.688860 -1.530730 -0.777356 -1.549377 1.494785 1.752419 -1.262954 0.581088 -2.074268 -1.325878 1.188998 -1.589077 -0.106050 -2.327861 1.814179 0.273754 -1.359518 -0.446911 0.076854 -0.507289 1.991102 -0.445125 0.751705 -1.348317 -0.620730 -1.076110 -0.658671 -2.258903 0.265424 0.341500 -1.648565 1.168120 -0.411255 -0.298312 1.098208 2.189405 0.153658 3.550047 1.695398 -0.944048 -0.493062 0.256391 -0.982078 0.876247 0.987846 -1.774239 -2.291512 0.046930 1.760649 -0.330043 1.344212 2.071876 0.941849 -1.486430 0.396490 -0.552979 -0.415032 0.433664 -1.947662 0.012175 0.910904 -2.767620 2.686556 0.388645 -0.618254 0.740767 -1.982948 0.823953 1.285429 -1.168506 -0.079540 0.054632 -0.265406 -0.793784 0.348935 -2.124015 0.500798 -0.787595 -0.622707 0.325371 0.298753 0.261062 0.746496
its 2.040380 -0.158102 1.240767 -0.776481 0.365073 -1.758147 -0.549140 0.699670 -0.621402 0.356289 -1.716029 0.120437 -0.773969 0.082319 -1.019978 0.595300 0.690855 -0.969751 -1.113965 0.110709 0.986531 0.371662 0.498748 -1.467797 -1.629384 -0.900937 1.156471 0.227316 1.640238 -1.702239 -1.061925 -1.263161 -2.952362 0.044780 -1.372954 1.092943 -1.108029 -0.503405 -0.629252 0.773405 1.054102 0.578863 0.253013 -1.126965 -0.673709 1.578697 0.464968 1.632699 -1.028398 -0.549678 -2.021572 1.089338 0.155029 -0.179273 0.812942 -0.250130 -0.314354 -0.602037 0.413529 -0.619436 0.492557 -0.807666 0.530917 0.763946 2.209973 -1.305652 -0.298578 1.799173 -0.835701 0.449485 -1.897132 1.836573 0.432714 1.150833 -0.669868 -0.548947 -1.061844 -0.927276 0.884216 -0.754130 0.389619 -0.501633 -0.824217 2.514145 -0.452350 1.188933 1.166752 -0.426636 1.365041 -0.428366 0.929299 -2.244034 -0.747056 -1.011683 -1.459325 -0.379585 -0.718127 0.144830 -0.450148 -1.149639 0.206527 -0.352536 2.438550 0.448627 -2.181750 0.622766 1.593596 -0.815199 -0.220119 0.561144 -0.024358 0.278458 -0.460300 -0.154445 0.020645 1.786807 1.045976 0.791638 -0.422894 0.615078 -1.831139 -0.206097 0.057115 -0.224957 0.190179 -1.410276 -0.454973 -2.343760
than 1.133273 -0.774707 1.474162 2.931242 -0.441689 -1.022618 -1.716189 -1.723787 -0.280978 -0.766794 1.120984 -1.111382 0.000409 -1.470332 0.079326 -1.216892 1.584485 -1.126362 -0.211351 -0.612716 -1.232700 -1.707366 -3.629449 0.932153 1.906312 -0.754185 0.352657 -0.487605 -0.189412 -1.182342 -0.598584 -1.589998 0.045400 -0.275460 0.179507 1.119922 -0.348661 -1.824737 -1.407126 0.951264 -0.504701 1.206818 1.316428 1.549119 -0.908531 -0.618635 0.255863 0.383073 -1.593386 -0.512146 0.667872 -2.042463 1.237760 0.407249 -0.852912 -0.956877 -0.176457 -0.017315 -1.644437 1.300646 -0.351087 0.342645 -0.174514 1.032359 -3.273730 -1.113558 0.621903 1.751034 0.492913 -0.045121 -0.124411 -1.068924 1.834109 -0.523337 -1.095638 0.006008 3.271928 -1.274132 0.558892 1.943915 0.866245 1.298510 -0.198713 0.342699 -1.904881 0.785570 1.691181 1.208794 1.721294 2.053147 0.048777 0.438690 -0.648539 -0.389996 -1.138540 0.539909 0.604417 0.120757 1.293010 0.944631 -0.951076 0.215208 0.295355 1.019326 0.625563 1.614943 1.866936 -1.403036 -1.096315 2.193975 0.499104 1.734506 -1.588573 -2.160310 0.947950 -3.056355 -1.335711 0.783316 -1.685601 1.810087 1.156473 0.061464 -1.018806 0.863269 -2.043566 1.879267 -0.073746 -0.963066
other -1.284978 -0.001986 -0.501669 0.384921 0.980619 -0.113936 0.392327 2.805749 -0.661135 -1.360176 0.756845 -0.123252 -0.794050 0.182500 0.543650 -0.324947 0.320340 0.630501 2.631729 2.072395 2.532711 2.403599 0.266789 -1.041129 -0.273878 -1.234536 0.507863 -0.755394 -0.318177 3.192072 -1.028022 -0.642595 0.232657 0.212371 2.674958 0.520634 1.263321 0.861192 -0.293643 1.312391 0.967745 1.220605 1.724898 0.171549 -0.718500 1.132608 0.213847 -1.754192 -0.666871 -1.567892 -2.067430 0.285347 0.594035 -1.217592 -1.477615 -0.524953 0.549525 -0.988849 -1.342003 -1.342620 1.464664 2.947451 -1.818166 -1.589579 -1.963055 -1.126056 1.252544 -0.778325 -1.302331 0.589496 -0.147528 -0.516475 -1.176323 -0.052183 0.520702 -0.311885 -0.423866 -0.450674 -0.170553 0.457010 -1.787468 -1.205638 0.594643 0.756962 0.052974 -0.842913 -0.309851 -0.837138 -1.212852 -2.514233 -0.746401 -0.686824 -0.987091 -0.288519 0.047441 0.636325 -0.354594 -1.630691 -2.036801 -1.084835 0.002787 0.202325 -0.921771 0.739145 -0.820771 -1.879145 -0.898017 -0.137332 0.437573 -1.906995 1.289852 -1.368120 0.206438 0.313568 0.220354 0.156944 0.776008 1.103066 -0.104469 1.642088 -1.575516 -0.969238 -1.194052 -0.581864 0.612069 1.121831 -0.612698 -0.039003
before -0.731837 0.531676 1.878845 -0.242438 0.808582 -0.057220 0.608778 0.758341 0.962367 0.620539 -0.452688 0.462926 -1.391065 0.759776 0.913334 0.307925 -0.121217 0.466152 1.078286 0.691324 0.824303 -0.029648 -0.341337 -1.129280 -0.523989 0.672262 -0.964198 0.220470 -1.307857 -0.341373 0.567402 0.040566 1.068946 -0.487540 0.159352 -0.256609 1.623316 -0.544540 -0.092515 -0.177084 0.528087 -0.164657 -0.398669 0.209800 0.189699 0.362358 -1.073692 -0.597980 0.278164 0.124114 0.278634 -1.964822 -0.227305 2.276975 1.085045 1.733628 -1.192137 0.608034 1.386432 -0.366537 -1.651710 -2.764408 0.947663 1.863516 0.542591 -1.258319 0.271433 -0.671690 1.364574 1.318213 0.722530 0.239076 -2.354335 -0.240809 0.165330 -1.205919 0.817806 0.219741 0.735310 -0.368678 1.246520 0.428519 0.055412 -0.599811 0.290992 1.533325 -0.493975 0.580999 -0.525367 -0.015018 -0.141626 2.615461 -1.193757 0.397525 -0.080824 -1.420193 -1.293861 -1.018355 -0.502477 0.253050 1.460814 1.675279 1.041229 -0.183704 -0.720660 -1.816187 0.501811 -1.479765 0.493359 1.475058 -0.445080 -0.392215 -1.085668 1.775666 1.917898 -0.931749 1.084630 0.766130 -1.577253 -1.731015 2.188188 0.892224 -1.509375 0.370126 0.629108 1.189609 -0.701899 1.748089
about -1.068464 -1.779203 -0.086578 2.103461 2.670266 -2.407287 -0.096151 -0.260974 -2.404538 -0.557763 -1.296591 -1.052158 -1.271203 0.885481 1.457577 0.802271 2.213091 0.579789 -0.620319 0.733725 -0.480796 0.265053 -1.311032 0.656447 0.219723 -0.282608 -0.434474 0.777563 -1.631598 0.932882 1.341673 1.485139 1.473001 0.576100 -0.424952 -0.416591 1.602309 -2.217935 -0.642186 -0.680086 1.143900 -0.384367 2.161453 1.053266 -0.226705 -0.308915 -0.282554 1.218983 1.687306 -0.485823 -0.732428 -1.430899 -1.235957 -0.682448 -2.025830 0.201056 1.096195 -0.363401 -0.037921 3.030565 -1.497381 0.140007 0.124650 1.530106 -0.527583 -0.879440 0.117286 -0.535912 -1.115042 0.564725 -0.403747 0.715611 1.122268 -0.821935 1.011512 -0.444876 0.318744 0.029481 1.324958 1.021049 -0.194374 -1.275830 1.338854 -1.373272 1.310453 1.185539 -1.717447 2.046674 -0.451500 0.221597 0.762787 0.300809 -1.739057 -0.626868 0.303440 -0.886608 0.143994 -0.662035 1.051822 -0.006110 -0.498043 -0.111066 0.521802 -0.815389 -1.331857 0.192473 1.295705 -0.028462 -1.189321 -0.090359 -1.372010 0.002179 -1.514525 0.318071 2.083919 0.390763 -0.877933 0.906511 -0.513789 0.383224 0.431664 1.501411 -0.713613 0.213494 -0.076347 1.320972 -1.416007 -0.190146
