3000 128
<pad> 0.056029 -0.443594 -0.135173 0.544095 -0.198753 0.130422 -0.325499 0.022131 0.077307 -0.313238 0.034129 0.054374 -0.326340 0.182682 0.003625 0.600904 -0.568932 -0.420367 0.503205 0.124823 0.123069 -0.079263 -0.134461 -0.122455 0.286629 0.170102 0.768488 -0.037597 0.090803 -0.038435 0.310597 -0.070050 0.130244 0.048783 -0.129685 0.524902 -0.141246 -0.034903 -0.172096 0.399979 0.329967 -0.185237 -0.466040 0.534908 0.006126 -0.095743 0.163468 0.292738 -0.828230 0.220850 -0.167446 -0.316877 0.254885 0.420360 0.103444 -0.463498 0.270894 -0.233144 -0.352641 0.636413 0.305386 0.388609 -0.139192 -0.728174 0.077599 0.270883 -0.819995 -0.394940 0.297934 -0.061324 0.160509 -0.047301 0.225995 -0.775122 -0.054440 -0.593461 -0.160711 0.247745 -0.974152 0.653137 0.024190 0.696048 -0.603747 -0.498292 0.308133 -0.003468 -0.707221 -0.355277 0.174534 -0.245569 0.078600 0.410227 -0.049061 0.155871 0.020421 0.063150 1.012175 -0.146024 -0.225091 -0.151370 -0.012074 0.381143 0.217152 -0.633430 0.390014 -0.160607 -0.316276 0.318427 -0.329134 0.445959 0.364086 0.101821 0.015888 -0.458785 0.157571 0.490367 0.537483 -0.274440 -0.432074 -0.221964 0.037209 -0.159063 0.168024 -0.170849 0.160482 0.245851 0.453292 0.387653
<start> 0.859151 1.148059 1.090290 -0.505465 0.335838 -0.594471 -0.000172 -0.124197 0.404685 0.477948 -0.744820 -0.869483 0.263356 0.564684 0.296091 -0.539791 0.595728 1.512193 -0.698239 -0.023630 -0.272703 0.624341 0.379568 -0.404659 -0.423204 0.163282 -0.128960 0.567552 0.072450 -0.081631 0.405166 -0.159655 0.108429 0.413159 0.535438 0.270341 -0.655203 0.618414 0.302171 -1.092402 -0.936377 0.392051 0.908310 -0.575210 0.523002 0.149403 -0.456862 -0.725056 1.643500 -1.502778 -0.271285 0.073869 -0.909212 -0.189306 -0.859797 0.487179 -0.068304 0.067713 -0.058451 -1.236833 -0.604610 -0.372109 0.159019 0.662605 0.243971 -0.310522 0.725357 0.551650 -0.380048 -0.026876 0.477545 -0.289999 0.162562 0.528620 0.930192 0.417616 -0.313579 -0.056848 0.907739 -0.053684 0.748970 -0.339809 0.015502 0.456114 -0.784927 0.044251 -0.490869 0.147228 0.058864 1.080082 -0.647406 -0.674829 0.279037 0.142904 0.902803 -0.189574 -0.724133 0.406145 0.314424 0.348919 -0.086520 -0.723536 -0.329194 0.771652 0.569533 0.434292 -0.091648 -0.806357 1.200372 -0.108915 -0.883663 0.503922 -0.460005 -0.030249 0.719448 -0.802334 -0.058994 0.787934 0.872994 -0.150505 0.253742 -0.165039 -0.070593 0.018088 -0.603430 -0.267536 -1.207443 -0.475199
<end> 0.709314 0.842970 0.060684 -0.664643 0.401618 -0.342690 0.968561 -0.023115 -0.411515 0.661419 0.164610 -0.695123 1.297129 -0.338380 -0.054725 -0.350060 0.506170 0.679459 -0.898849 -0.452554 -0.037572 0.324100 -0.088138 -0.296440 -0.066803 -0.448847 -1.606890 -0.049654 -0.202799 0.583217 -0.215487 0.012952 0.545745 0.319085 0.032184 -0.876237 1.003457 -0.232788 0.573531 -0.579524 -0.241043 0.340487 -1.105145 -1.095514 -0.271873 0.297523 0.345919 -0.832708 0.572000 -0.001070 1.181036 0.708642 -0.205897 -1.070513 0.079511 0.261002 -0.752522 0.266148 0.402578 -1.276211 -0.263120 -0.404846 -0.232392 0.613114 -0.464871 -0.745169 1.418310 0.884844 -0.726474 -0.164424 -0.804173 -0.430277 -0.427600 0.952757 0.440504 0.463266 -0.187146 -0.150204 0.762529 -0.732555 -0.438000 -0.722623 0.418116 0.157266 -0.807565 0.212657 1.106818 -0.051264 -1.361691 0.194323 -0.317515 -0.150622 0.285408 0.187774 0.326332 0.201899 -1.097924 0.521332 -0.235674 0.008805 -0.716709 -0.624459 -1.201404 1.720878 -0.656134 -0.770737 0.913424 -0.202810 0.471646 -0.908070 0.369843 -0.031173 0.284520 1.081485 0.207129 -0.761969 -0.789093 0.785699 0.319381 1.080219 -0.330763 0.152693 0.360635 -0.325522 0.563680 0.002680 -0.970204 -0.703618
<unk> -0.069551 -0.037871 -0.234167 0.326396 0.124995 -0.218797 -0.094809 -0.273887 0.097478 0.301175 0.139650 0.155371 -0.015070 0.139809 0.129400 0.052369 -0.562033 0.120427 0.007773 0.064931 0.300422 -0.033792 0.090415 0.081130 -0.253214 -0.132407 0.300007 0.273356 -0.065947 -0.182235 0.444763 0.021420 0.032546 0.465999 -0.041255 0.223124 -0.217815 -0.065572 0.345210 -0.032093 -0.189443 0.035088 -0.099649 0.154484 -0.194977 -0.286420 -0.182947 0.073103 -0.453856 0.339257 -0.376977 -0.413765 0.095510 -0.191502 0.013788 0.138322 0.851812 0.204692 0.016152 -0.055342 -0.403078 -0.197471 0.051097 0.061227 0.124046 -0.059659 0.066036 0.036439 0.033666 0.188818 0.176388 -0.167749 0.021768 -0.241994 0.348780 0.318535 -0.188939 -0.043707 -0.236276 -0.329211 -0.457589 -0.117319 -0.012248 0.234652 0.106297 0.082703 0.374088 -0.284384 0.093719 -0.002294 0.125156 0.358347 -0.256161 -0.232696 0.103344 0.225838 0.448027 0.128108 0.154907 0.010340 0.362540 -0.008189 0.310236 0.166593 -0.464687 -0.123653 -0.237571 0.155960 -0.129533 0.081152 -0.145953 0.208663 0.040188 0.079430 -0.173864 -0.034574 -0.061778 -0.251160 -0.166713 0.107359 -0.196403 0.273857 -0.048611 -0.019895 -0.022992 -0.128871 -0.478603 0.258597
the -0.265935 0.118381 0.028282 -0.185383 -0.170673 0.459487 0.059148 0.500995 -0.510205 -0.365257 0.131694 -0.498680 1.272434 -0.215779 -0.069424 0.255933 -0.055976 0.235467 -0.086350 0.438393 -0.499800 -0.459480 -0.361954 1.006134 0.498415 -0.129322 0.204397 -0.074970 0.061208 0.294753 -0.340510 -0.226081 -0.684840 -1.101271 0.216641 -0.306633 0.280537 -0.090507 -0.181584 -0.038291 0.516231 0.231743 0.106987 -0.170839 -0.053262 1.003418 -0.402980 -0.028664 0.552356 0.957842 -0.819683 0.458888 0.368252 0.670272 0.374072 -0.146072 -0.761135 0.262915 0.515556 -0.409165 0.520498 -0.253772 0.181354 -0.330484 0.120347 0.191056 -0.187316 -0.159921 0.213734 -0.583925 -0.117466 -0.299679 -0.165629 -0.749782 -0.624087 -0.270029 0.565704 0.220478 0.061931 0.111173 0.702259 -0.308794 0.232213 -0.326813 -0.254860 -0.781202 0.500191 0.261168 0.511166 -0.011418 0.228950 -0.249034 0.202755 -0.381503 -0.480968 0.483969 -0.480926 -0.412240 -0.140694 -0.176074 -0.129675 0.187253 -0.283879 0.265526 0.152567 0.239711 0.459787 0.801259 0.109458 -0.384673 0.222510 -0.847831 -0.162587 -0.043785 -0.127172 -0.425567 0.248437 0.477026 -0.215779 -0.453161 0.052307 0.177221 -0.215370 0.073593 -0.263887 0.244909 -0.622171 0.055096
and -0.264328 0.467104 0.182922 0.050388 0.090838 -0.380868 0.062560 0.106122 0.236893 -0.714522 -0.402524 0.298981 -0.084495 -0.021786 -0.054142 -0.446940 0.559353 -0.265176 -0.037447 -0.209272 -0.143142 0.335872 -0.000743 -0.121376 0.240342 -0.487238 -0.031217 -0.182741 0.364690 -0.199625 -0.333095 -0.213545 0.234074 -0.205497 -0.253398 -0.389292 0.611614 -0.147700 0.173083 0.094214 0.177738 0.068621 -0.700621 0.377571 0.339309 0.551278 -0.086849 -0.262149 0.212245 -0.201781 0.417120 0.370150 0.003908 0.224782 0.313617 0.304794 0.102498 -0.365846 -0.274258 -0.659400 -0.214674 0.317047 -0.345175 -0.294547 -0.237283 0.036033 -0.102637 0.616400 -0.082720 -0.571140 0.013773 0.222095 -0.107370 -0.271661 0.262282 0.005861 0.033633 0.069405 -0.219266 0.426036 -0.347186 -0.068133 0.056779 0.065589 0.280643 -0.521076 -0.004525 0.617306 -0.230946 0.120366 -0.405979 -0.405174 -0.285930 0.534612 0.287284 -0.116665 -0.472122 0.059793 -0.190442 -0.387224 -0.082151 -0.144339 -0.399669 0.507686 0.450593 0.345531 -0.342788 0.625352 0.538890 -0.004618 -0.246645 0.431473 0.317369 -0.099445 -0.015474 -0.321345 -0.207168 0.209366 0.289826 -0.812993 -0.011268 0.069890 -0.049338 0.240943 0.424609 -0.141113 0.331733 0.106082
of -0.241289 -0.526584 -0.929860 0.532151 0.112504 -0.381914 -0.395342 0.190500 -0.197905 0.351262 0.559769 0.535382 -0.188309 -0.217323 -0.200863 -1.152268 0.031976 -1.090954 0.201249 -0.844589 -0.810536 0.483257 -0.504824 -0.346097 -0.045104 0.034800 0.325283 0.670870 -0.862467 0.067521 -0.596659 -0.342498 0.205057 0.209380 0.486777 0.646545 0.781370 0.348356 -0.366870 -0.054900 -0.258025 0.183591 -0.228425 0.119993 0.314703 -0.376670 0.465620 -0.209765 -0.026997 -0.294900 0.708321 -0.516472 -0.413898 0.073872 -0.308933 0.328715 -0.302140 -0.599646 -0.214522 0.839350 -0.458196 0.685320 -0.387377 -0.403445 -0.611085 0.057320 0.181828 -0.015104 -0.927319 0.257202 0.071581 0.843611 0.772361 0.493654 -0.436587 0.167259 -0.205614 -0.385642 -0.183202 0.240085 0.151559 -0.087059 -0.432984 -0.112718 -0.473803 -0.390194 0.570113 -0.268017 -0.099725 0.502183 -0.403660 -0.071187 0.065995 0.895647 -0.734980 -0.366306 -0.961099 0.085212 0.863137 0.263255 0.277703 0.089801 0.575829 0.246173 1.463173 -0.022701 0.295123 -0.017745 0.215169 0.486383 -0.132831 1.527658 0.330526 -0.114986 0.401635 0.208147 -0.521850 -0.161186 0.398773 0.370867 0.170453 -0.249865 0.223788 -0.041291 0.377180 0.397313 0.607769 -0.666256
to 0.128049 0.362418 0.213621 -0.590931 0.000784 -0.183235 0.394897 -0.475364 -1.077221 0.830353 0.282816 -0.016642 -0.112933 0.010357 0.046994 -0.537324 0.638791 0.703746 0.679766 0.073579 -0.095168 0.407710 -0.037513 -0.259533 0.521967 0.574946 -0.174894 0.184729 -0.265171 -0.139120 -0.832277 0.012092 -0.023707 0.391285 0.324540 0.274194 0.474436 0.350161 0.124848 0.121217 0.471315 -0.287605 -0.619330 -0.227101 0.138219 -0.320127 0.003524 0.044402 -0.375379 -0.534917 -0.495962 0.688213 -0.273763 0.698216 1.008588 -0.407797 -0.425060 0.201520 -0.312700 -0.413786 -0.745854 1.014698 -1.288360 0.273858 0.248713 0.735885 -0.153691 0.103255 -0.159416 -0.579413 -0.761970 -0.174981 0.067841 1.057419 -0.472027 -0.811010 -0.077677 -0.491337 1.282139 0.184646 -0.496001 0.941866 -0.213565 -0.028849 0.656642 0.428290 0.255509 0.478564 0.402444 0.248176 -0.245076 -0.308527 0.773085 0.261442 0.003516 -0.363241 -0.384474 0.018015 0.831956 -0.033313 0.622247 -0.417710 0.038161 -0.161256 1.040648 0.253797 -0.239536 -0.029022 -0.863395 0.592150 0.166408 0.205261 -0.087023 -0.212317 0.099684 -0.651007 -0.541688 -0.223587 0.201621 -0.292816 -0.109828 -1.165185 0.110949 -0.064624 0.628249 0.230453 0.678119 0.625230
a 0.053160 0.020128 0.140823 -0.852346 0.547239 0.878683 -0.055190 0.460295 -0.115027 -0.763486 0.486774 0.233824 0.381855 0.126556 -0.801970 -0.237341 0.144526 0.041960 0.608760 0.549815 -0.119842 -1.004267 -0.531386 0.572883 0.104735 0.583233 0.013515 -0.347388 0.080263 0.089971 -0.485320 0.102340 -0.594240 -1.331736 -0.443534 -0.861195 -0.380102 -0.532213 -0.281633 -0.762553 0.324934 0.576315 -0.151885 0.061340 0.338047 1.048620 0.347059 0.382266 0.249956 0.698416 -0.294816 0.895192 -0.064045 0.574112 0.843720 -0.148301 -0.108084 0.594350 0.844992 -0.189310 0.448678 -0.530950 -0.753725 -0.852245 0.341308 0.182462 0.330222 -0.060238 0.007143 -0.026227 -0.081163 -0.658846 -0.027323 -0.230947 -0.194907 -1.230307 0.140198 -0.245768 -0.054266 -0.215319 0.281196 -0.316883 -0.576096 -0.351747 0.074836 -0.577613 -0.087317 0.514270 0.456469 0.684505 0.194779 -0.266345 -0.076164 -1.066473 0.246593 0.134522 -0.711152 0.593926 -0.283067 -0.468529 -0.281708 -0.190869 -0.085563 -0.586548 0.772604 -0.068139 0.189195 0.349239 0.222649 -1.090168 -0.067540 -0.193991 0.096956 0.144250 0.615890 -0.696409 1.166199 -0.262198 0.044676 0.372151 0.498189 0.701873 -0.464696 0.560081 0.057021 0.388493 -0.294700 -0.800589
in 0.111025 -0.282785 0.163948 -0.129775 -0.660317 -0.301501 -0.271139 0.934468 0.173512 0.729710 0.797232 0.163681 -0.222119 -0.321853 -0.749990 -1.350778 -0.209020 1.177748 0.663936 -0.173637 0.044227 0.479934 -0.557957 0.045723 0.260415 -0.726962 0.101688 0.248069 0.219315 0.154809 0.394585 -0.278323 0.670468 -0.308832 0.834248 0.534368 0.347028 -0.066376 -0.655256 0.073692 -0.166722 -0.183023 -0.573562 0.086804 0.167874 0.086029 -0.358217 -0.302069 0.624156 -0.475366 0.317507 -0.401459 -0.650747 -0.320928 -0.112486 -0.268223 -0.017253 -0.728837 -0.714674 0.148702 0.514340 -0.543375 0.201858 0.223491 -0.686976 -0.312754 0.076192 -0.084790 -0.299475 -0.227399 -0.633058 0.339734 -0.159689 0.241454 -0.241089 -0.401519 0.332279 0.263784 -0.021341 0.012939 -1.074816 0.382468 -0.249328 0.529186 0.094172 0.053778 -0.530618 0.174055 -0.034944 -0.030112 -0.456070 -0.439479 -0.212963 -0.213705 0.212634 -0.346912 0.262188 0.237495 0.250193 0.219051 0.442333 -0.504658 -0.459208 -0.007806 0.347963 0.355255 0.786278 -0.194917 -0.606503 0.243137 0.045600 0.096009 0.829294 -0.116442 0.530289 0.100229 -0.660552 -0.008161 -0.452334 -0.046225 0.290789 -0.179854 -0.030235 -0.987059 0.187343 0.027812 1.084287 0.071606
i -0.742712 -1.035175 0.214796 -0.335137 -0.012527 0.185706 -0.427494 0.874514 -0.401365 -0.428639 -1.052052 -0.989369 0.488239 0.225335 -1.050284 0.359689 0.044730 -0.033429 -1.434817 -0.044673 -0.812839 -0.549712 -0.158300 -0.443088 0.027750 0.243577 -0.929164 0.299007 0.251595 -0.489996 -0.785638 0.058661 -0.335694 -0.622176 -0.712237 -0.280102 -0.142523 0.358915 -0.237781 -0.571399 0.505326 -0.393820 0.108437 -0.278573 0.392746 0.506998 -1.093218 0.401545 -1.050375 -0.390085 0.603860 0.251569 -0.690507 -0.203960 0.585994 -0.134521 -0.344195 -0.149577 -0.499070 0.035008 -0.236231 -0.328145 -0.383799 0.014754 0.673007 -0.083164 0.408817 0.327696 -0.275021 0.003272 -1.071476 1.096489 -0.174316 -0.413154 0.423386 0.041595 1.010135 -0.101973 -0.543136 -0.030430 -0.021709 1.031104 0.195849 -0.190725 -0.126872 0.409136 0.235444 0.107769 -0.495193 0.306071 0.632375 0.486964 0.009601 -0.081966 -0.240590 -0.256387 -0.436900 -0.244269 -0.141977 -0.452320 0.854750 0.170855 0.632461 0.222508 -0.816198 -0.470788 0.189933 -0.446757 -0.240045 -0.274374 -0.545441 -0.237800 0.440658 0.006481 -0.519604 0.385770 -0.180475 0.700842 -0.226089 -0.627305 0.341974 -1.119857 -0.057326 1.124406 0.188603 0.225972 0.574288 0.294776
he 0.387404 0.636926 0.594468 -0.109843 -0.151944 0.528116 0.499156 0.122891 0.260946 -0.202786 -0.978449 -0.319344 -0.055304 -0.078422 -0.415059 -0.104034 0.106223 -0.712450 -0.204477 0.451756 -1.552448 -0.582979 0.611881 0.063015 0.186978 -0.047336 0.306720 0.993028 -0.208433 0.204880 -0.647361 -0.219360 -0.606349 0.346280 0.404538 -0.279264 -0.531590 -0.320596 -0.236397 -0.865153 0.722409 -0.146731 -0.211293 -0.826740 0.273929 0.211152 -0.533699 0.488287 -0.709453 -0.183512 0.818900 0.692774 -0.780323 0.059314 -0.282528 -0.182642 0.314296 0.100275 0.432167 0.236873 0.398142 -0.279773 0.480636 0.464304 0.611277 -0.426203 -0.201700 -0.110738 -0.079678 -0.334053 -0.317502 1.180901 -0.342524 -1.261304 0.099887 0.481305 0.563762 -0.753170 0.370770 -0.083786 -0.361469 0.136702 -0.224912 -0.987142 0.232241 0.665926 0.453123 0.242130 -0.767530 -0.138205 0.435628 0.123077 0.206098 -0.090494 -0.393952 0.263184 0.489391 -0.041345 0.469735 -0.341532 0.168886 0.152566 0.003809 0.573271 -0.643377 0.058416 -0.447592 0.076105 -0.022114 -0.230630 -0.230518 -0.073179 0.448556 0.389750 -0.716586 0.292883 0.227511 0.497489 -0.451574 -0.603056 0.045829 -0.884200 -0.496134 -0.188326 -0.336848 0.110238 0.629180 -0.633604
that -0.698977 0.019833 -0.581804 0.677763 0.273337 -0.082634 0.164731 -0.270099 -0.231532 -0.235908 -0.118653 -0.689203 0.583347 0.010165 0.754726 -0.231269 0.517649 -0.112711 0.234435 0.678554 -0.567909 -0.504007 -0.096204 -0.075855 0.321108 0.646297 0.472926 -0.696419 0.428102 -0.348256 -0.450824 0.420223 0.520376 -0.219774 -0.034363 0.311462 0.408012 -0.277929 -0.235534 -0.153925 -0.460546 -0.093613 -0.570908 0.409747 0.205199 0.150378 -0.407150 -0.481397 0.769785 0.640781 0.105343 0.159886 -0.222600 -0.163610 0.017677 -0.301900 -0.267187 -0.183549 0.158046 0.164440 0.470865 -0.023257 0.373707 0.197960 0.112920 -0.341823 -0.266201 0.338401 -0.076212 -0.272176 0.296949 0.291175 -0.229067 0.537148 0.517511 -0.141042 0.507021 0.178452 -0.302197 0.536043 -0.053278 0.026569 -0.015391 -0.469873 0.061356 0.044736 -0.305858 -0.035492 0.813467 0.100471 0.441906 0.341787 -0.439590 -0.167014 -0.272283 -0.752156 -0.222654 0.410256 0.755275 -0.192599 -0.504930 0.301896 -0.257144 0.357992 0.282043 -0.487480 -0.089274 0.113443 0.073195 0.385469 -0.179300 -0.285337 0.339768 0.717483 0.914719 -0.619642 0.388316 -0.759389 0.559837 -0.251986 0.506193 -0.411672 -0.828021 -0.095634 0.025403 -0.462945 -0.060529 -0.285899
his 0.153965 -0.623744 0.689597 0.325186 -0.002700 0.595991 0.337654 -0.199324 -0.347414 0.043889 0.215496 0.280205 0.165761 -0.137394 -0.126117 -0.188219 0.372404 -0.789031 0.521221 0.307807 -0.471546 -0.624896 -0.242202 0.110572 -0.898526 0.200404 0.072100 -0.195027 -0.459312 -0.149422 -0.946459 -0.243384 -0.015683 -0.719413 -0.785999 -0.321747 0.588438 -0.192325 -0.110522 0.144089 -0.293826 -0.611260 0.501562 -0.188332 -0.653405 1.751353 -0.255516 -0.315934 1.003084 -0.029382 -0.038339 0.412744 0.489245 0.626899 0.066363 -0.247720 -0.229327 -0.340668 0.378038 -0.834007 1.101208 0.915357 0.059870 -0.331201 0.919795 0.111841 -0.623808 -0.861908 0.279398 0.069338 0.116122 -0.121178 0.033384 -0.201020 -0.523760 -0.581499 1.205097 0.118501 -0.053163 -0.101563 0.389630 0.121018 -0.008664 -0.390357 -0.745787 0.051033 0.591785 -0.096826 0.411115 -0.202920 0.120135 -0.805149 -0.124888 -0.228387 0.082239 0.263311 -1.378524 -0.256229 0.196773 0.144986 0.288943 -0.251927 0.112516 -0.712070 -0.653792 -0.196650 0.518793 0.860166 0.272141 -1.249889 0.119812 0.088590 -0.325198 0.969962 -0.284059 -0.642337 0.418328 0.840631 -0.202723 -1.086113 -0.272654 0.695242 -0.525957 -0.420576 -0.355855 0.758197 -0.315596 -0.676114
was -0.270411 0.365426 -0.169949 -0.025861 -0.263436 -0.610247 -0.301275 1.206949 -0.244032 -0.178526 0.776443 0.869641 0.113435 0.509835 0.198160 -0.362535 -0.113432 -0.006580 -0.099742 -0.104675 0.071508 -0.177947 0.564138 -0.641140 0.100300 0.021190 -0.174900 -0.222686 0.184422 0.695431 0.409253 -0.298072 0.199059 -0.473497 -0.788657 -0.239233 -0.382503 0.910240 0.066579 0.128225 -0.425100 -0.553218 -0.171854 0.665246 -0.476692 -0.399625 0.427368 -0.225464 -0.036836 0.294356 0.348646 0.254517 0.947127 -0.442946 -0.545421 0.664996 -0.567630 0.105592 -1.473922 0.347715 -0.206839 1.003188 0.841775 -0.284633 0.855385 0.697822 0.607823 -0.045952 -0.002087 0.541124 -0.146537 -0.552255 -0.941166 -0.093275 -0.514120 0.485906 0.309782 -0.234485 0.286163 -0.124368 0.220822 -0.721735 0.709421 0.211109 -0.303122 0.862674 -0.650619 -0.488374 -0.713096 0.731787 -0.326756 -0.925364 -0.038017 0.130889 0.031636 0.832108 -0.306153 0.010927 -1.261345 0.696556 0.401693 0.443548 -0.300760 -0.711962 -0.652566 0.841893 0.362759 -0.152529 0.246613 0.532961 -0.752424 -0.130267 0.504709 -0.435954 0.359289 -0.065078 -0.343081 -0.823558 0.101715 1.087452 -0.190727 1.064486 -0.569122 0.687491 -0.225670 0.623357 1.466640 -0.061586
it 0.551980 -0.147545 -0.172667 0.165224 -0.661148 0.406631 0.555130 0.367518 -0.066695 0.779164 -0.700650 -0.304651 0.832415 0.041859 0.228692 0.298542 -0.325341 -0.178721 0.778647 0.298257 -1.115524 -0.456773 0.886907 0.094653 -0.298608 -0.487140 -0.426159 0.471517 0.075500 0.224696 0.156718 0.579851 0.292495 0.446861 -0.413987 -0.387606 -0.764019 -0.551065 0.831332 -0.153185 0.742683 -0.118759 1.474090 0.160140 0.228328 -0.329164 -0.870513 -0.068538 -0.342855 0.290716 0.343817 0.271570 -0.282876 0.394672 -0.561417 -0.491068 -0.031054 -0.227740 0.934721 0.269920 0.100941 -0.152314 -0.689638 -0.242004 -0.069885 0.345013 -0.529097 -0.151415 -0.014662 -0.210566 0.318959 0.483505 0.048403 -0.301468 0.436255 -0.332113 0.236373 0.385390 -0.297427 -0.581728 0.465005 -0.794518 -0.689357 -0.562938 0.309026 0.026935 0.719360 0.155652 0.607847 -0.209361 0.117784 0.394273 0.278718 0.387246 -0.392188 -0.872429 0.428339 -0.204971 0.124485 -0.229145 -0.046127 -0.090579 -0.048027 0.187074 -0.068038 -0.303898 -0.507586 0.347545 -1.031997 0.023447 -0.158192 -0.677832 -0.633238 0.843150 -0.454581 -0.570865 0.597516 0.492078 0.029191 -0.565820 0.107655 -0.069600 0.038066 -0.048973 -0.395418 -0.436863 0.022280 -0.793304
you 1.155658 -0.721542 0.029638 -0.891164 0.309196 1.121182 -0.216145 0.889297 -0.493002 -1.008388 -0.959433 -0.002451 0.378727 -0.010644 -0.391307 0.218214 0.103773 -0.147690 -0.439069 -0.917447 -0.792318 0.352279 -0.215003 -0.689682 0.075582 0.172544 -0.402487 0.756569 0.315256 -0.376380 -0.106993 -0.325278 0.666430 -0.956060 -1.367963 -0.440348 0.190161 -0.418720 -0.776544 -0.185202 0.549004 0.261859 1.024049 0.339212 0.609699 -0.878777 -0.616409 0.796051 -0.464620 0.838450 -0.349009 0.275675 -0.723846 -0.612780 0.421757 -0.003651 -0.433899 0.092565 -0.693916 -0.506414 0.691856 -0.019666 0.087537 -0.626376 0.091235 -0.225553 -0.729356 0.210244 0.693206 -0.618423 -0.078241 -0.682761 0.669962 -0.130171 0.475989 -0.966479 -0.104086 0.045362 0.257797 0.150959 0.365634 -0.512704 0.493330 0.507552 0.080180 0.231198 -0.097748 0.342255 -1.352028 0.125275 0.715473 0.559695 0.036108 0.638851 -1.112555 0.163704 -0.697331 -0.512541 0.673315 -0.427740 0.524586 0.751085 0.361801 -0.395910 -1.389555 0.270679 0.007311 0.518670 -0.670445 -0.188259 -0.284934 0.339088 0.046300 0.083587 -0.228147 0.062263 -0.561095 0.278614 0.212721 -0.366695 -0.065439 -1.200912 -0.259560 -0.665118 0.140789 -0.002900 -0.155260 -0.564575
with 0.022326 -0.000091 0.662275 -0.276654 -0.699900 -0.524062 -0.340062 0.627552 0.285578 -0.707703 0.674017 -0.295466 0.055105 1.152260 0.134610 -0.931465 0.641403 -0.260970 0.660472 -1.584137 1.528532 -0.364030 -0.862671 0.603496 0.151461 0.511503 0.246254 0.137906 -0.641701 0.214190 0.375698 -0.182812 1.062880 0.411227 0.182660 -0.220804 0.872379 -0.139115 0.009733 0.415817 0.338602 -0.524593 -0.563610 -0.211794 0.486533 0.246081 -0.201144 0.019162 0.542821 -1.047862 0.659700 0.153754 -0.191592 0.265511 -0.523010 -0.284673 -0.556281 -0.401173 -0.214424 0.383362 -0.630691 -0.656676 -0.602200 -0.113259 0.079994 -0.432759 -0.313163 0.536581 -0.210913 -0.006069 -0.508615 0.199893 -0.519487 0.111800 -0.388964 0.096939 0.384762 0.879179 0.145692 -0.259023 -0.254922 0.206155 0.229087 -0.309023 0.211635 0.576268 0.608049 -0.107554 0.260183 -0.160049 0.147964 -0.433349 0.331037 0.549048 0.012848 -0.370268 0.912988 -0.464326 -0.089549 0.493291 -0.139123 -0.810778 0.735606 0.076656 1.065127 -0.222375 0.301293 0.370768 0.435436 0.157587 0.263818 0.433206 0.642967 0.080880 -0.388338 -0.052591 -0.450897 0.093156 0.169859 0.599210 -0.424826 -0.419081 -0.094161 -0.406169 -0.190686 -0.285416 0.485996 0.403763
is -0.325499 0.391147 -0.022914 0.343583 -0.083351 -0.651116 -0.503858 0.611813 -0.104997 -0.248318 0.600530 0.586258 0.119252 0.410909 -0.076131 -0.518044 0.392194 -0.336041 -0.149074 -0.021710 0.810920 0.664891 0.212524 -0.809989 -0.036077 0.062857 -0.094525 0.070776 0.682557 0.649711 -0.099358 -0.350509 0.408351 -0.457710 -0.607239 -0.441906 -0.207327 0.594496 -0.372573 0.112814 -0.205750 -0.773634 -0.561769 0.621524 -0.156938 -1.123659 -0.018015 0.125938 0.511070 0.421978 0.162182 0.022639 1.091561 -0.417610 -0.098129 1.039206 -0.206249 0.229488 -0.538180 0.249853 -0.539010 0.669790 0.673094 -0.205930 0.063044 1.058450 0.122375 -0.215249 -0.023043 -0.375336 -0.050119 -0.128942 -1.119198 -0.263425 -0.427063 0.480027 -0.246366 -0.575555 0.470632 0.337047 0.805235 0.150700 -0.618833 -0.063533 -0.198059 0.772707 -0.615333 -0.650353 -0.937976 1.106622 -0.741645 -0.675724 0.618702 0.330749 0.288300 0.854563 -0.242675 -0.029194 -1.038996 0.364499 0.691337 0.602663 -0.066074 -0.046263 -0.704329 1.244972 0.708327 0.137101 0.089161 -0.135808 -0.674823 -0.465534 0.788496 -0.648590 0.674789 0.380589 -0.606604 -0.724377 -0.343272 0.818171 -0.181887 1.482900 -0.446753 0.650888 -0.778113 0.367474 1.598491 -0.273209
as 0.108594 -0.045601 0.015766 0.531712 -0.091097 -0.001331 -0.433615 0.013372 0.129130 -0.297427 0.329397 -0.234021 0.026827 0.809338 0.127118 0.066333 1.060293 0.778588 1.080544 -0.478407 -0.146041 -0.073335 -0.182994 -0.551634 0.088058 -0.443013 0.339843 -0.840806 0.249540 -0.293987 -0.033096 0.255187 0.064105 0.280186 0.399377 0.170108 1.481160 0.343791 -0.672764 -0.129592 0.242858 0.064402 0.842383 -0.325870 -0.215815 -0.112936 0.489119 0.391885 0.391930 0.738821 0.022235 0.306752 -0.179400 0.069569 0.429278 0.212608 -0.429056 0.367229 0.443565 -0.943886 0.192609 0.408230 0.034924 0.303439 -0.527757 -0.321227 -0.106337 -0.082604 -0.395442 0.380863 -0.294450 0.619001 -0.088952 0.452721 0.399612 0.492670 0.480111 0.363228 -0.401209 -0.001033 -0.015894 -0.388754 0.740179 -0.331727 0.187247 1.080857 -1.241837 -0.407105 0.361973 0.284497 -0.531147 -0.136050 0.006612 -0.323451 0.559513 -0.509274 0.197422 0.657966 -0.298981 -0.242170 -0.196067 -0.353528 -0.491396 0.761153 0.475089 0.513128 -0.734095 0.001784 0.025785 0.912647 0.703200 0.278445 0.350535 0.701057 -0.104435 0.378439 -0.349009 -0.107857 0.432497 -0.150480 0.081721 -0.247034 -0.767745 0.009827 0.615279 0.570651 -0.516950 -0.241898
not 0.190992 -0.308381 0.397592 0.072111 0.530517 0.927472 -0.122890 0.093268 0.353120 0.092741 1.020244 -0.063266 -0.038021 -0.256958 -0.276674 0.020088 -0.747504 -0.939151 0.012127 -0.764298 -0.550563 0.160389 -0.687940 0.444110 -1.111432 0.361588 -0.268338 -0.090475 -0.704210 -0.435546 0.465081 0.258283 -0.270002 0.112007 0.043637 -0.614506 0.210304 -0.297543 -0.246846 0.210333 -0.250529 0.521557 0.132045 -0.345716 0.038839 0.587064 0.463285 -0.122618 -0.494818 -0.594995 -0.137775 -0.553651 -0.131427 0.151160 0.023292 -0.103344 -0.683671 0.591545 0.009865 -0.981605 0.847047 -0.197454 0.132143 -0.178404 -0.291181 0.096801 0.528261 -0.242476 -0.068401 -0.262667 -0.780220 -0.407504 -0.113578 -0.324351 0.732702 0.521511 -0.472509 0.050022 0.581120 -0.086997 -0.725436 -1.319546 -0.551567 0.257744 -0.183248 1.357737 -1.295655 -0.335694 -0.206992 0.282864 0.396576 -0.130757 -0.827758 1.591542 0.270900 -0.182828 1.139630 -0.596242 -0.030781 -0.701138 -0.282518 1.238395 0.552230 -0.066568 0.865453 1.194668 -0.758197 -0.443158 -0.837571 0.410320 0.467025 -0.670843 -0.430449 0.017696 0.943724 -0.691918 0.040528 -0.407006 0.412855 -0.587245 0.376793 -0.965461 0.334083 -0.119606 -0.136984 -0.519743 -0.016415 -0.108379
for 0.291384 -0.156529 0.523268 -0.313575 -0.521628 -0.664219 -0.412063 0.540276 -0.202342 -0.558169 0.461481 0.077808 -0.609367 0.336537 0.291918 -0.259799 0.924156 -0.137575 0.096792 -0.443046 0.623975 0.267828 0.230307 0.052567 -0.055328 0.668939 0.289487 0.457361 -0.721427 0.365186 -0.179148 0.196294 0.044449 -0.190504 0.491297 0.654585 0.007739 0.190310 -0.028401 0.096630 0.111619 -0.204667 -0.349270 -0.162654 0.852338 -0.066701 -0.034438 -0.599572 -0.187301 0.099242 0.009270 -0.059795 0.463231 -0.791225 0.056124 -0.859109 -0.088763 -0.642495 0.486623 0.721959 -0.874780 0.223431 0.091620 -0.027327 -1.037547 0.251000 0.805902 -0.378092 0.166040 -0.287885 -0.217838 -0.320500 0.184872 0.301214 -0.189382 0.160645 0.408428 0.913572 -0.500583 0.253208 -0.579972 0.581463 0.553431 0.479326 0.145910 0.479458 -0.453234 0.149793 -0.096172 -0.309509 -0.943912 -0.060687 0.223813 0.746648 -0.168904 -0.508907 0.060500 0.669806 0.096895 -0.041202 -0.473675 -1.143334 -0.211433 -0.081936 0.235389 -0.379312 0.159801 0.282118 -0.183459 0.704004 -0.103232 -0.136557 0.607945 -0.267616 0.391655 -0.588103 -0.457126 -0.386931 0.199477 -0.174568 -0.009264 -0.664090 -0.605402 -0.075315 -0.395953 0.325006 -0.083107 -0.824754
had 0.844969 0.538785 0.347035 0.685009 -0.115326 -1.141038 0.570796 0.727462 -0.328655 -0.852775 0.554254 0.161005 0.103750 1.321720 0.062591 -0.555152 -0.076504 0.425294 -0.994684 0.456589 -0.518957 0.080918 0.272037 0.346570 -0.116853 0.132964 -0.564715 -0.338924 0.833932 -0.717952 0.735458 -0.073324 -0.426716 0.709601 0.041396 -0.688933 0.895967 0.697378 -0.387187 1.015097 0.541558 0.447464 -0.057039 0.118460 0.094792 -0.410068 0.797598 -0.553134 -0.332209 -0.593306 0.589390 0.821578 0.919244 0.275044 -0.062892 0.801341 -0.708775 -1.000982 -0.097297 0.962058 -1.365820 0.115954 0.897588 0.099917 0.184720 0.763312 -0.254753 0.300786 0.436439 1.932624 0.040342 -1.850238 0.009418 0.393630 -0.873728 1.057018 0.768910 0.495328 0.422985 0.271994 0.701943 0.134671 0.066041 0.511081 0.629487 0.039615 -0.580765 -0.751079 -0.500881 -0.104735 -0.596521 -0.421672 -0.032956 -1.503638 -0.010496 -0.431770 -0.764253 -0.401726 -1.535991 1.082918 0.168888 0.029059 -0.575766 -0.820762 0.567334 0.273458 0.879506 0.029503 -0.167722 -0.114601 0.426359 0.137519 0.291783 -0.057143 -0.357071 1.071258 -0.218190 -0.711425 0.407186 -0.111758 0.842871 1.226792 -0.344397 0.258870 0.402213 0.357117 1.712665 0.019451
but -0.047037 0.764258 -0.106656 0.012390 0.302683 -0.661230 0.264371 0.015028 0.081377 -0.499791 -0.174806 -0.457828 0.428776 -0.081476 -0.005880 0.060362 0.150890 -0.229706 -0.186003 0.040289 -0.517566 -0.330352 0.607754 0.115592 0.073427 -0.786460 0.362287 -0.646116 0.273432 0.114126 -0.128649 -0.648780 -0.190996 -0.126744 -0.343079 0.128887 0.364497 0.537022 -0.354564 -0.306743 -0.249931 -0.240495 -0.651419 -0.411979 0.327843 0.472602 0.629856 -0.655361 0.101214 -0.207252 0.098791 -0.265077 -0.257894 -0.552538 0.017777 -0.312734 0.016191 0.169317 -0.463587 0.006062 0.179369 0.282445 -0.488755 0.113726 -0.353754 0.083662 0.159696 0.705426 -0.055725 -0.394501 0.240157 -0.075451 -0.015982 0.268718 0.426878 -0.091452 -0.653915 0.140673 -0.222658 0.616382 -0.158674 -0.000490 0.553871 -0.207745 0.160748 -0.023495 -0.322138 0.063792 -0.460024 -0.221641 -0.753945 -0.008283 0.421283 -0.281568 0.520190 -0.120030 -0.302108 0.251676 0.132173 -0.115957 0.065424 -0.032562 -0.278465 0.428309 0.496971 -0.133609 -0.008361 0.299721 0.606133 0.157984 -0.186791 0.038083 0.007431 0.761006 0.488855 0.173933 0.069768 -0.102460 0.185937 -0.480169 0.177488 0.001820 -0.172367 0.101158 0.303000 -0.378695 0.114823 -0.001860
at -0.381003 -0.525508 0.072003 -0.686915 -1.353567 -0.086589 0.480061 -0.372729 0.166160 0.196523 0.234826 1.105186 -0.207189 -0.746235 -0.464724 -0.406053 -0.574588 0.299889 0.180946 -0.467503 0.403023 0.098218 0.263346 -0.315682 -0.248258 0.625873 0.021065 -0.198184 -0.223907 1.025542 -0.207524 -0.327228 0.359362 0.497952 -0.169833 0.065396 -0.549678 0.870500 -0.706593 1.062595 1.134288 -0.235970 -0.847810 0.168789 1.513537 0.008047 -0.009464 -0.358128 0.753984 0.636934 -0.591728 -0.113355 -0.287254 -0.742767 -0.644352 0.240158 -0.333446 -0.884068 -0.815191 -1.150187 -1.269371 1.047054 0.437035 0.598070 0.180934 -0.656553 1.203154 -0.238291 -0.720229 0.298742 -0.726360 0.406741 0.519023 0.533985 0.596274 -0.727158 -0.072521 0.654166 0.888149 -0.070404 0.554212 0.611288 -0.190765 -0.693187 -0.025885 -0.811458 -0.255070 0.116493 -0.016540 -0.759794 -0.192278 0.343351 -0.039893 -0.637881 -0.642267 -0.476339 1.056041 -0.366614 -0.325345 0.324785 -0.811809 0.118133 0.169127 -0.207682 0.947296 0.171975 -0.328190 -0.024979 -0.265642 -0.591336 0.096883 -0.015321 0.595332 -0.385831 0.428367 0.391600 -1.043906 0.515354 -0.020775 -0.101171 0.862050 -0.285493 -0.972882 -1.740102 0.545186 0.506981 0.302436 -0.800017
be -0.559326 -0.121154 0.904768 1.354875 -0.129484 0.448713 -0.073806 0.408103 0.253596 -0.547955 0.629919 0.866001 0.813436 -0.229849 -1.054146 0.008147 1.420555 -0.419607 0.078908 0.367118 0.711866 0.241375 0.751387 -0.492731 0.237033 -0.411080 -0.538026 1.571342 0.179249 0.279634 0.176884 -0.800112 0.429681 -0.486214 -0.218143 -1.017365 -0.445791 -0.391964 -0.195632 0.881154 -1.052636 0.407804 -0.054649 1.096311 -0.364551 -0.957779 0.712830 0.569224 0.720307 0.070633 0.769808 -0.549593 1.436729 -0.768628 -0.489102 0.363581 1.506607 0.735769 0.011667 -0.082498 1.151763 0.230400 0.811299 -0.843107 0.606674 -0.255697 -0.119072 -0.209155 1.881079 0.209749 -0.357277 0.543897 0.280760 -1.308899 -0.587521 -0.484971 0.040038 -0.049521 -0.575217 0.591067 1.174906 -1.006763 0.129362 0.062514 -0.520251 -0.722538 -0.676771 0.004769 0.508940 0.293949 0.416879 0.872108 0.431846 0.626968 0.045430 -0.148450 -0.391764 0.075564 -0.063891 -0.098358 -1.202338 -0.100221 0.837321 1.364813 -0.928584 0.900132 -0.586841 -1.259858 0.523232 0.066740 -1.245556 -0.927146 0.779006 1.128214 -0.860828 1.109855 -0.628512 -0.368918 0.394062 0.579192 0.405942 0.001510 -0.405300 0.830278 -0.877499 -0.869134 -0.037866 -1.045714
on 0.577980 -0.598203 -0.188501 -0.574621 -0.487031 -0.127099 -0.466791 -0.354242 1.102957 -0.172323 -0.029777 -0.192712 -0.423943 -0.525895 -1.003864 -0.547752 -0.507520 0.190444 -0.146505 -0.863767 0.451859 0.091801 0.465833 0.227449 0.959151 0.067854 0.090204 -0.256590 0.903102 0.453274 -0.757722 -0.128366 0.966014 0.135063 0.251525 0.807777 0.885526 -0.034894 -0.887157 1.229650 0.356298 -0.242518 0.474769 0.294164 0.309936 -0.076032 -0.134882 -0.260421 0.176174 -0.859452 0.933114 0.902127 -0.617393 -0.394629 -0.142087 -0.562391 0.439401 -0.604996 -1.414362 -0.538795 -0.596933 0.343574 -0.234175 0.461300 -0.498586 0.525213 0.671590 -0.049684 -0.219934 0.167767 -0.454513 0.378345 0.182899 0.395501 -0.128061 0.077394 -0.669470 -1.059569 0.141562 -0.065213 -0.358652 -0.253283 0.497377 0.636069 0.021091 -0.663268 -0.417864 -0.456853 0.782423 -0.025292 -0.420576 0.149373 -0.274701 0.149712 0.340618 0.287924 0.863196 -0.445707 0.779147 0.769266 -0.103337 -0.558612 -0.370275 0.153904 0.602026 -0.173166 0.001215 0.109387 -0.354516 0.323537 0.150822 -0.709574 0.460100 0.356492 0.892161 -0.513345 0.213361 0.246524 -0.471760 0.385654 0.335737 -0.051728 -0.434251 -0.210109 -0.496586 1.356947 1.054159 0.034838
her -0.043737 -0.404599 0.269925 0.644436 0.101896 -0.361014 0.739581 0.672317 0.435367 0.023904 -0.250118 -0.169467 0.866895 -0.220273 -0.653464 -0.094952 0.668065 -0.042311 0.179764 0.164320 -0.685854 -0.498679 -0.225834 0.555304 -0.665919 -0.607348 -0.499983 -0.523989 -0.594338 -0.211858 -0.224705 0.314483 -0.037552 -0.851200 -0.457662 -0.500861 -0.753734 -0.398256 1.142716 0.314221 -0.134183 -0.081054 0.967945 0.080447 -0.305159 1.141554 0.621943 0.098010 0.570181 0.742793 0.384754 -0.381937 0.085486 -0.275344 0.095750 0.475732 -0.290472 -0.178221 0.580297 -0.895998 0.553847 0.679419 -0.273725 -0.155794 0.702232 0.469161 -0.606943 -0.334834 0.271993 -0.328232 0.099976 -0.400025 0.919819 -0.096067 -0.194588 -0.588808 0.614845 0.401649 0.307827 -0.480760 0.409594 0.383244 0.056858 -0.778925 -0.362284 -0.516826 -0.269635 -0.271329 0.545390 0.276829 0.804340 -0.487457 -0.444444 0.274901 0.155201 -0.316001 -0.445125 -1.388682 0.630021 -0.107426 -0.267353 -0.121922 0.449299 -1.303860 -1.072747 -0.466991 0.506857 1.083322 0.245649 -0.256543 -0.147234 0.342862 -0.585203 0.549081 -0.034364 -0.729181 0.370229 0.275851 -0.439050 -0.403798 -0.286410 0.360910 -0.580693 0.013890 -0.069540 0.547724 -0.287570 -0.494912
my 0.516311 -0.504357 -0.193588 0.529845 -0.640547 0.201703 0.293538 0.047324 -0.376382 -0.076466 0.620518 -0.302341 0.321748 -0.732555 -0.605562 -0.842278 0.869468 -0.553773 -0.336198 0.494408 -0.560422 -0.179920 -0.670493 -0.332195 0.112884 0.468897 0.828271 -0.305140 -0.686125 0.100073 -0.789223 0.014103 -0.736948 -1.234309 -0.933212 -0.679072 0.192669 -0.343663 -0.097528 0.210998 -0.086759 -0.747119 1.089070 -0.522024 -0.165489 1.730362 0.107009 -0.484375 0.856253 0.102410 0.002357 -0.438950 0.573075 0.320084 0.038917 -0.454838 -0.864342 0.667427 0.644687 -1.282624 0.607484 0.559726 -0.505910 -0.680668 0.606793 -0.243722 -0.785000 -0.580500 -0.220333 0.104429 0.996562 -0.393567 0.361350 0.186852 0.161496 -1.407477 0.938744 -0.097890 -0.284393 0.265652 0.134488 -0.313548 0.147591 -0.233449 -0.436137 0.098548 0.114786 -0.328582 0.691330 -0.414147 0.118123 -0.820610 0.381943 -0.638361 -0.101884 0.335287 -1.228005 -0.376959 -0.482938 0.123242 0.121181 -0.257328 -0.029795 -0.735630 -0.973394 -0.313037 0.487043 0.958247 -0.172610 -0.706350 0.216312 0.185639 0.068491 0.947349 -0.353918 -0.308842 0.350883 1.123969 0.048054 -1.013616 -0.273564 -0.003801 -0.297467 0.287024 -0.461906 0.436264 0.045930 -0.424208
him 1.076436 0.207900 -0.052553 -0.164638 0.289795 0.185371 0.141323 -0.100117 0.343270 -0.064798 -0.142284 -0.665057 -0.639442 -0.076405 -0.029628 0.614283 0.441457 0.860387 0.215386 0.940698 -0.971153 0.272346 0.663818 0.730431 -0.729427 0.538820 -0.485898 -0.253733 0.119737 0.416777 0.014685 -0.159172 -0.001092 -0.254719 -0.325004 -0.540683 -0.434125 -0.253943 1.177265 -0.031237 -1.203627 -0.064211 0.157903 0.179611 -0.120749 0.038398 -0.056805 0.306400 -0.151853 1.324429 -0.102284 -0.190621 -0.076388 -0.505197 -0.798236 0.541079 0.250837 0.572143 -0.074022 -0.383395 0.294008 0.470131 0.173871 -0.306673 0.689020 -0.101259 -0.103216 -0.586998 0.390472 0.220856 -0.113098 -0.255098 -0.090808 -0.615968 -0.240277 0.497759 0.571903 0.022637 -0.567479 -0.345404 0.483364 -0.690253 -0.239110 -0.450762 -0.076850 0.101902 -0.164314 0.059339 0.093429 -0.029972 0.220061 0.218524 -0.662895 0.310651 0.049514 -0.280044 0.234160 -1.037184 0.749735 -0.349066 -0.433893 -0.121081 0.769828 -0.579544 -0.683589 0.092646 0.011734 0.294472 -0.408254 -0.026690 -0.054277 0.116663 -0.658083 -0.086681 -0.406510 0.385811 0.341175 0.476323 -0.423891 0.021217 0.008610 -0.025901 0.371791 -0.096360 0.400841 0.308869 -0.113032 -0.245146
have 0.380774 0.413856 0.392470 1.520488 -0.526417 -0.367494 0.418316 -0.432107 0.127467 -0.838919 -0.249775 0.287493 0.674971 -0.041975 -0.359280 -0.208990 -0.392036 0.304813 -0.852298 -0.068019 -0.739891 0.105538 0.542853 0.066388 -0.031997 0.804149 -0.588803 0.814391 0.414758 -0.057834 -0.156310 -0.089675 -0.254774 0.383470 1.318419 -1.279548 0.875879 0.213626 0.030462 1.296683 0.168624 1.236720 -0.100640 0.523408 -0.104736 0.378527 0.745179 -0.018637 0.772382 -0.377305 1.054105 0.531630 2.079265 -0.447939 -1.313635 -0.668658 0.301114 -0.435468 1.523931 0.911566 -0.384321 -0.849509 0.679779 0.258432 0.079842 0.083431 -1.179173 0.459861 1.569257 2.305212 -0.278608 -0.770963 1.331023 0.286491 -0.586074 -0.132711 0.450237 -0.031493 -0.218301 0.318402 0.413086 0.014519 -0.242725 0.049922 0.905387 -1.625263 -1.400117 -0.932441 0.169706 -0.321485 -0.482305 0.326140 0.177133 -0.368448 0.783984 -0.011924 -0.754326 -0.368210 -1.002045 0.913413 -0.676961 -0.099479 0.543139 0.520201 -0.083756 0.297808 -0.351688 -0.240261 0.196430 0.604397 -0.010602 -0.294416 1.877688 0.075160 -1.226809 1.149071 -0.583531 -0.117656 1.104322 0.080475 1.342798 0.527103 -0.075553 -0.478108 -0.681780 -1.717017 1.307022 -0.102386
by 0.652366 -0.646564 0.113270 -0.250029 -0.327697 0.141365 -0.562601 0.387599 0.428239 0.044271 0.769201 0.014316 0.695072 0.755461 0.061398 -0.592275 0.590480 0.496166 0.542894 -0.013388 0.190398 -0.334820 -0.642918 0.263611 0.731335 0.211514 0.079008 0.296479 0.541693 -0.186923 -0.613366 0.037175 0.082680 0.547946 0.351101 0.176256 0.126231 0.248263 0.008179 1.050184 0.413528 -0.322795 0.296476 0.296733 0.482189 0.302311 0.590800 -0.741681 0.935390 -1.218610 0.835205 0.630770 0.453604 0.498848 -0.318959 0.052083 0.277723 -1.718171 -0.228448 -0.758010 -0.844515 -0.433287 0.431571 0.056480 -0.363179 -0.646680 0.435209 0.554976 0.273857 -0.241403 -0.016411 -0.208540 -0.280189 0.477659 0.121344 -0.040030 -0.165521 0.790600 -0.388441 -0.709958 -1.191034 0.782072 -0.016823 0.114576 0.711804 0.169093 0.472515 0.108270 0.035175 0.144503 -0.191606 -0.424382 0.088779 0.589508 -0.633916 -0.419310 -0.180385 -0.025944 -0.092985 -0.059240 -0.805826 -0.342403 0.525949 -0.246299 1.265452 -0.123488 0.732817 -0.145717 -0.813276 0.001194 0.471646 -0.103497 0.571098 0.547517 0.480830 0.625007 -0.594977 -0.388252 -0.108118 0.040847 -0.667681 -0.644162 -0.161411 0.079455 -0.097912 0.020174 0.583819 0.170650
this 0.280373 0.352301 -0.892416 -0.081550 -0.286038 0.971485 0.270766 0.751395 -0.294150 -0.943178 -0.420014 -0.728248 1.284893 -0.636777 0.364558 0.192307 -0.044741 -0.538249 0.761341 0.990589 0.044633 -1.092870 -0.210237 0.115857 0.099735 -0.106552 0.468816 -0.237220 -0.366766 0.191744 -0.043168 0.446717 -0.108377 -0.823300 -0.267475 -0.509527 0.052600 0.069390 -0.453751 0.068853 0.502693 1.122591 0.679844 -0.492227 -0.390909 -0.099226 -0.068711 -0.170592 1.015324 0.657320 0.457042 0.156291 0.316140 0.934460 0.027319 -0.204878 -1.036575 0.549491 0.694882 0.674194 -0.003995 -0.895664 -0.127981 -0.470674 0.350728 0.238144 0.138339 -0.189518 0.273878 -0.851719 0.331822 0.442852 -0.123200 0.427712 0.059044 -0.126585 0.639658 0.215341 -0.453859 0.264706 -0.591996 -0.420509 -0.506604 -0.344141 0.325675 -0.587546 0.604653 0.461949 0.872807 0.493610 0.195327 0.514269 0.100993 0.581652 -0.289521 -0.246777 -0.103901 0.046486 -0.140022 -0.820533 0.365132 -0.339534 0.008218 -0.071995 -0.419210 0.061337 0.515796 1.060409 -0.431607 -0.766521 -0.460396 -0.645280 -0.280674 0.302701 0.395619 -0.395652 1.101728 -0.427804 -0.200853 0.042149 1.045716 -0.277284 -0.356147 -0.132265 -0.373656 0.614453 -0.231706 -0.044673
which -0.769928 0.225677 -0.315874 -0.329040 -0.319387 0.328354 -0.418537 -0.407104 -0.213402 -0.484379 -0.458599 -0.318607 -0.051868 -0.271729 0.637659 -0.005169 -0.152956 0.074722 0.675376 0.265938 -0.616885 0.104894 0.481557 -0.412737 -0.090359 0.234301 0.429511 -0.550247 0.230306 -1.298843 -0.276744 -0.244473 0.128270 -0.543216 0.450295 0.633434 0.733146 -0.026967 0.458207 -0.012854 -0.514187 0.279818 -0.036038 -0.149193 -1.039849 -0.756128 0.408897 -0.123131 1.418075 0.117450 0.656078 0.016788 -0.032633 0.131605 0.641319 0.018864 0.165399 -0.198852 0.423667 -0.229074 -0.413022 0.215874 -0.245859 -0.221507 0.339435 -0.974276 0.603350 0.259783 -0.117675 -0.260728 0.327956 0.492861 0.332346 -0.306310 0.533922 0.332853 -0.239001 0.415813 -0.204300 0.960388 0.409681 -0.161435 0.290527 -0.152896 -1.256796 0.465931 0.944056 0.271902 0.132814 -0.272345 0.149949 -0.723019 -0.172720 -0.597331 0.811300 -0.484941 0.345669 0.448320 0.306840 -0.402628 -0.415854 0.917606 0.097226 -0.374555 -0.134245 -0.527540 -0.052958 0.221463 -0.236080 -0.116048 0.868078 0.343823 -0.476779 0.814687 0.012102 -0.464137 0.116876 0.120249 0.976847 -0.249623 0.173351 -0.533797 -0.626618 0.712645 0.006361 -0.956128 0.886559 -0.350988
me 0.778713 0.263320 -0.174729 0.254008 -0.335318 -0.396126 -0.697472 -0.067758 0.817468 0.065616 0.121728 -1.517523 -0.932922 -0.416325 -0.698054 0.737211 0.543947 0.157343 0.124722 0.587431 -0.502031 0.287799 0.063312 1.152537 -1.364890 0.065900 -0.166668 -0.740115 0.196821 0.162670 0.038756 -0.166849 -0.213499 -0.283318 -0.532624 -0.772904 -0.513002 0.485898 1.145582 0.037696 -0.849667 -0.387156 0.266891 -0.231879 0.212274 -0.506487 -0.299412 0.531535 -0.435996 1.329056 0.631095 -0.129681 0.261031 -0.946542 -0.791220 0.321083 0.221883 0.640460 0.671396 -1.236150 0.103217 0.185094 -0.259250 -0.011649 1.052062 -0.167831 -0.290073 -0.841454 0.482849 -0.351350 -0.102113 0.116610 -0.243130 -0.226613 -0.095613 0.444035 0.141523 -0.113777 -1.295432 -0.300557 0.866951 0.065514 -0.042105 -0.299760 -0.031034 -0.347588 -0.397932 0.631685 -0.207617 0.478938 -0.114085 0.596364 -0.812688 0.272955 0.635989 0.093185 -0.449875 -1.163568 0.983762 -0.845965 -0.005505 0.400769 0.861971 -0.690430 -0.274875 0.113574 0.824518 -0.096555 -0.437812 -0.089825 -0.013073 -0.394779 -0.251344 0.250500 -0.121727 -0.125650 -0.228805 0.384938 0.114109 0.029762 0.305175 0.109935 0.656129 0.808784 0.360815 0.546267 0.143939 -0.235283
all -0.688938 -0.147976 0.275731 0.023615 -0.234348 1.078376 0.032426 0.085598 -0.036939 0.807558 -0.470798 -0.322524 -0.645814 -0.372547 0.104693 0.354570 0.836857 0.024372 -0.175132 0.094884 0.633282 0.791694 0.042982 1.039685 0.122576 0.209720 0.686224 -0.031185 0.483542 0.100755 0.213241 -0.155965 0.013721 0.441048 -0.007216 -0.881987 -0.109576 -0.024577 0.133266 0.430339 0.132309 0.260316 0.134338 0.290609 -0.619666 0.148204 0.298186 0.179784 0.085585 -0.270608 0.005873 0.265543 -0.196606 -0.010089 -0.048200 0.157940 -0.058201 -0.197980 0.309415 1.103197 -0.588673 0.877207 -0.500347 -0.227605 0.030922 0.330177 -0.441890 -0.291509 0.018521 0.902246 -0.111761 0.210204 -0.395656 0.062606 1.401432 0.172262 -0.884923 0.119912 -0.880930 -0.091410 -0.810502 -0.123656 0.565095 0.169301 -0.222195 0.590149 -0.484188 -0.737886 -0.698503 0.959802 0.550581 0.009721 0.750530 -0.082631 -0.980227 0.370376 0.626205 -0.651160 0.415207 -1.064483 0.261673 -0.224997 -0.878210 0.362189 -0.128222 0.351692 0.390944 0.297574 0.003248 -0.164204 0.363058 -0.026304 -0.698164 0.136071 -0.183429 -0.258969 0.934619 0.201571 -0.409789 0.341008 0.612925 -0.607857 0.037665 -0.465721 -0.694886 0.350020 -0.356107 0.211656
said 0.299326 -0.259315 0.933870 0.003046 0.387969 -0.602125 0.547217 -0.686489 0.437717 -0.431457 -0.250511 -0.380623 0.187142 -0.357964 1.378541 0.459699 1.279795 -1.389308 0.672830 -0.166870 0.347236 0.245435 -0.413411 -0.428862 -0.543342 0.587278 -0.678073 0.408156 -0.522740 -0.906653 1.729751 -0.001952 0.752233 -0.311879 -0.302625 -0.457406 -0.126283 0.327893 0.238717 0.221140 -0.830385 -0.611149 0.230085 0.654766 0.054992 -1.395460 0.432155 -0.967414 0.348897 0.202151 0.338949 0.199608 0.417258 0.476422 0.382466 -0.347260 0.037327 0.418072 -0.886088 0.767701 -0.811055 0.248152 0.272462 -0.096582 -0.316959 0.308663 0.559880 0.561679 -0.776469 1.422899 -0.020335 1.158660 -0.072324 1.446756 -0.756270 -0.438819 -0.835804 0.304855 -0.161320 0.375900 0.367822 -0.253862 0.731033 0.437627 -0.934927 -0.160562 -0.347138 0.191523 -0.300756 0.284400 -1.178093 0.160440 -0.701502 -0.951831 0.714578 1.307948 0.619271 0.305543 -0.277142 0.853676 0.420416 0.632904 0.001871 -0.078572 0.225385 -0.726479 -0.008698 0.061894 -1.010779 0.315867 1.068074 0.107726 -0.518232 -0.526620 1.409397 -0.851218 0.290298 -0.067504 -0.107364 -0.916567 -0.304270 0.845511 -0.535760 -0.318290 0.370975 -0.018920 -0.250198 0.371398
she 0.494709 0.127135 0.497155 0.212922 -0.323995 0.298335 1.108879 0.322047 0.502252 0.106748 -1.409837 -0.422904 0.525551 0.173424 -0.923530 -0.090156 0.128950 -0.884301 -0.724543 0.661152 -1.204664 -0.448107 0.428365 0.121859 0.506459 -0.602057 0.181186 1.059704 -0.430217 -0.073229 -0.490139 0.278747 -0.856137 0.270584 0.159451 0.028334 -1.499265 -0.269707 0.159568 -0.828928 1.077293 0.217028 0.032176 -0.831912 0.490615 -0.113082 -0.036823 0.796401 -0.295207 -0.075233 1.152158 0.239308 -0.989603 -0.383041 0.429396 0.210775 0.191096 0.451176 0.646129 -0.103757 0.486688 -0.263778 -0.222332 0.282243 -0.104804 0.060158 0.140169 0.112264 -0.545988 -0.195972 -0.509714 1.199017 0.491693 -1.091553 0.124883 -0.296119 0.674735 -0.372926 0.606314 0.110502 -0.156318 0.364104 0.186822 -1.308480 0.040137 0.186400 0.524971 0.607035 -0.899221 0.027800 1.041955 -0.241826 -0.011775 0.152466 -0.180995 -0.416518 1.015582 -0.752833 0.068957 -0.011562 -0.074655 0.506170 -0.421119 -0.035345 -0.746444 -0.214798 -0.446401 0.578816 -0.030597 0.423527 -0.414956 -0.048270 0.966140 0.327621 -0.823264 -0.040827 0.165909 0.246970 -0.147939 0.002344 -0.326080 -0.937501 -0.812876 0.100118 -0.462616 -0.108968 0.590924 -0.195048
from 0.589301 -0.642462 -0.387076 -0.191986 -0.405803 -0.593852 -0.005596 0.534100 -0.291047 -0.472906 -0.178929 0.278163 0.001726 0.940982 0.062755 0.296069 -0.451653 0.584450 0.975103 -0.018508 -0.182396 0.602983 -0.751646 -0.032477 0.969668 -0.459425 0.680392 0.329663 -0.478980 0.584913 -0.221547 -0.330101 -0.162575 0.211468 0.460159 -0.211856 -0.033297 -1.411168 -0.240648 1.252042 -0.277541 -0.934559 0.207531 0.194006 1.090455 0.195335 0.392652 0.953345 0.810259 -0.589669 1.048993 0.438637 0.429141 -0.406750 0.213371 0.494324 -0.071561 -0.639281 -0.923177 -0.292045 0.095455 0.069411 0.350159 0.330038 -0.763422 0.215402 0.262177 -0.247681 -0.417989 0.196221 -0.572958 0.150782 -0.184777 0.713143 -0.156602 0.407761 -0.307298 0.405808 0.541957 0.056029 -0.779885 0.782099 0.215822 0.360468 -0.003323 0.210792 0.919179 -0.209335 -0.128910 -0.011680 -0.505883 0.339790 0.072565 -0.242111 -0.517652 -0.163724 0.143870 -0.184926 -0.175672 0.758026 0.109619 -1.209951 0.843695 0.767532 1.335705 0.177330 -0.368145 -0.252411 0.607323 0.115796 0.394281 0.448050 0.084907 0.793253 1.425498 0.101297 -0.145217 0.511608 -0.178167 0.034003 0.359118 -0.079965 0.157498 0.204710 0.007089 -0.095713 1.001075 -0.353254
or 0.257022 -0.595947 -0.126009 -0.612180 0.360125 -0.694713 -0.005682 -0.306137 -0.312126 -0.872183 -1.052339 -0.098522 -0.175127 0.217716 -0.197438 -0.601522 0.244637 -0.547137 1.025179 -0.328447 0.560339 -0.378353 0.335887 -0.139460 0.541519 -1.133550 -0.064419 -0.061660 0.894473 -0.924835 -1.117625 -0.559741 0.319756 -0.513243 -0.892893 -0.365331 1.160578 0.015353 0.440031 0.001163 -0.379504 0.622554 -0.346715 0.009125 0.654421 0.257608 0.349300 -0.680329 0.541400 -0.430893 -0.329139 -0.398109 0.928144 -0.371068 -0.231301 -0.046696 -0.379932 -0.533974 -0.313008 -0.472400 0.065092 -0.315529 0.088918 -0.523103 0.146556 0.663773 -0.499791 -0.069605 0.733648 -0.711306 0.166212 -0.865796 0.461081 -0.201121 -0.014530 0.655882 -0.045895 0.497795 0.553758 -0.392489 -0.299093 0.368411 -0.356581 0.354413 0.178084 -0.611023 0.022826 0.726078 0.091092 0.262434 0.168749 0.067860 -0.019886 0.698664 -0.827134 -0.063376 -0.014275 0.201423 -0.283093 -1.147181 0.485201 0.529673 -0.587354 0.983446 0.677080 0.538799 -0.740818 -0.025646 0.825038 0.532583 0.059968 0.553488 0.365609 -0.103211 0.333030 -1.305144 -0.316974 0.495251 -0.588485 -0.081159 0.936990 0.116170 0.038955 0.981331 0.763261 -0.229924 0.823873 -0.816119
they -0.272105 -0.574700 -0.103577 -1.017167 0.608638 0.634464 0.827334 0.855802 -1.078826 -0.894907 -0.652061 -0.207399 0.004252 0.458871 -0.648829 0.428104 -0.215367 0.180861 -0.596363 0.100739 -0.843961 -0.189366 0.083019 -0.550527 0.268724 -0.550942 -0.473054 1.344998 -0.113179 -0.612861 -0.031103 -0.618055 0.187981 -0.373891 -0.228515 -0.104347 -0.637887 -0.166244 -0.477098 -0.643913 0.420930 -0.032186 0.401375 -0.341698 0.240901 -0.323265 -0.921573 0.411439 -0.666173 -0.186139 0.116704 0.961690 -0.965806 -0.141874 1.438401 0.624124 -0.148368 -0.399986 -0.092632 -0.343092 0.413430 0.309027 -0.665498 0.453063 0.617893 0.027134 -0.362411 0.566696 0.624214 -0.273726 -0.780347 0.914673 0.316694 -0.345958 0.106096 0.554944 -0.007551 0.239929 0.013016 -0.179561 -0.029215 0.055207 0.292199 -0.243008 0.122966 0.336124 0.263450 -0.759341 -1.248796 -0.829440 0.344967 -0.146141 -0.427361 0.248335 -0.440116 -0.132286 -0.096844 -0.228806 0.934094 -0.609243 0.226983 0.218819 0.303743 0.175422 -0.647388 0.084909 -0.174299 0.326673 -0.545802 -0.534521 -0.766114 0.005101 0.259390 -0.327952 -1.028027 1.043512 0.639345 0.828275 -0.732161 -0.663572 0.205592 -0.843357 -0.753131 0.204709 -1.051045 0.107740 0.069416 -0.053399
so 0.213805 -0.604075 0.293740 0.204983 -0.277045 -0.575778 -0.128841 0.300437 0.365897 0.240064 0.660213 -0.007147 -0.283844 0.589417 -0.529047 -0.069915 0.191123 0.999007 1.023119 -0.439832 -0.103642 0.144479 -0.137434 0.503834 0.107496 -0.520081 0.120298 0.092615 -0.173920 0.061701 0.590595 -0.420378 -0.592128 -0.775200 -0.544071 0.244479 -0.123804 0.330355 0.110498 0.406319 0.360002 -0.249655 0.030418 -0.049295 0.399996 0.278211 0.148812 0.303415 -1.232400 -0.260186 0.580698 0.130766 0.158243 0.611196 -0.920185 0.655727 -0.577185 0.009382 0.108653 0.034999 -0.402311 -0.444437 -0.465337 -0.370488 -0.189028 -0.497093 -0.729280 -0.333881 0.082945 -0.162621 -0.040434 0.656160 0.123757 0.744722 0.888314 0.851649 -0.734030 -1.029585 0.839292 0.097158 0.780243 0.108774 0.157604 -0.707751 -0.487968 1.084419 -0.288168 0.008334 -0.463573 -0.221403 -0.315250 0.204545 0.351017 0.053134 0.272282 0.055703 -0.150587 0.269859 -0.109299 0.039769 0.051116 -0.733468 -0.295619 -0.385406 -0.351768 0.532237 -0.032431 -0.355121 -0.422866 0.391622 0.150237 -0.199732 -0.197401 0.269696 -0.341253 0.350867 0.432522 -0.012152 -0.130108 0.408653 0.382926 0.198578 -0.380071 -0.286206 0.035079 -0.085889 -1.164192 -0.468489
are -0.380197 -0.261822 -0.102569 0.755781 0.125266 -0.257458 -0.099705 0.944882 -0.267250 1.048340 -1.288631 -0.293719 -0.254830 -0.160522 -0.319039 -0.162843 1.013889 0.062338 0.279228 -0.894342 0.623886 -0.248184 1.086471 -0.164301 1.234586 0.441373 0.259911 1.398690 -0.542080 1.849637 -0.460291 -0.390266 0.197835 -0.285612 0.064611 0.158835 -0.330021 0.023036 -0.360263 -0.276035 -0.191516 -1.307787 0.013525 0.810168 -0.730552 0.380239 0.733709 1.026467 0.848156 0.027162 -1.559732 0.086858 0.745907 0.974098 -0.938824 -0.074143 -0.371958 0.418781 0.894457 0.317998 -0.650501 0.321911 0.678617 0.459175 -0.396804 0.118681 0.593788 0.768848 0.506181 1.387596 -0.112290 -1.156868 -1.493862 0.074190 -1.082090 0.699326 -0.807499 -1.223147 -0.696389 0.061528 0.677206 0.383891 -0.595156 -0.214644 -0.476243 -0.643829 -0.643787 -0.148117 -0.562317 0.318638 -0.364971 0.508800 -0.457216 0.524832 0.221804 -0.303332 0.081876 -0.131212 -1.147603 -0.433941 -0.292882 0.716590 -0.535981 -0.028662 -0.528676 0.227687 0.245645 0.217349 0.281087 -0.063733 0.724405 -0.208879 0.338575 -0.713739 -0.606646 0.162927 -0.219148 -0.946885 1.316412 0.802771 -0.077272 2.382524 -0.354114 0.311592 -1.166970 -0.479687 2.074704 -0.183319
one -1.277249 0.483593 0.753893 0.070362 0.597257 0.114899 -0.139333 0.237176 -0.042770 0.129046 -0.976659 0.102207 0.263998 -0.551048 -1.165302 -0.647632 0.337397 0.179150 -0.506653 1.876800 0.291992 0.157575 -0.792829 0.244967 0.604824 -1.534885 -0.783953 -0.343696 -0.524642 -0.625175 -1.387457 0.901835 0.234051 0.107293 -0.393219 -0.079565 0.402710 0.207789 0.031185 0.102251 0.962367 0.277229 1.142316 -0.117399 0.604016 0.526748 0.780881 -0.311604 -0.342892 1.180225 -0.398050 0.650473 -0.203734 -0.056201 -1.531939 -0.551739 0.011926 0.951478 0.661378 1.083588 -0.259779 -0.149889 -0.143721 0.078631 1.071943 -0.621864 0.083608 0.113988 -0.149092 -0.295500 -0.059551 -0.829241 -0.872940 -0.990756 0.457635 -0.800223 -0.717138 0.504126 -0.406930 -0.476931 -0.499343 -0.338617 -0.434048 -0.371538 0.695503 0.062957 0.906288 -0.294719 -0.271017 0.061476 0.404315 0.760181 0.115591 -0.640819 0.316361 0.754632 0.083407 0.025954 0.438313 0.482214 0.014898 -0.331023 0.858378 -0.573141 0.278900 0.739949 -0.508094 0.301925 0.949456 -0.053520 0.159875 -0.535501 0.192315 0.233039 0.435099 -0.490158 0.650265 -0.401610 0.465130 -0.155957 -0.794261 -0.545595 -0.143501 -0.635592 -0.570080 0.764721 0.194054 -0.283249
were -0.239649 -0.142218 -0.556301 0.510807 -0.314598 -0.147096 0.540636 1.090017 -0.155612 0.257201 -1.020250 0.700964 -0.193471 0.080088 -0.499113 -1.255796 0.724973 -0.453671 0.199649 -0.822379 0.115872 0.334569 0.495981 -0.258123 1.126499 0.094717 0.573703 0.673575 -1.127257 1.177489 0.190183 0.425865 0.338931 -0.239799 -0.569483 0.272863 0.282470 0.671804 -0.290114 -0.653087 -0.635491 -1.176571 0.892702 0.894356 -0.127841 0.587661 0.700115 0.765274 0.500747 0.112832 -0.759778 0.526881 0.921840 0.215124 -0.155599 0.297441 -0.029790 0.511609 0.588305 0.452163 -0.657866 0.838467 0.819697 0.234666 0.570898 -0.182441 0.936655 0.437176 0.655995 1.084022 -0.067488 -1.244742 -1.958815 -0.542840 -0.965828 0.833561 -0.410463 -0.596763 -0.207355 -0.077409 0.830226 -0.355614 0.573466 -0.164647 -0.106488 -0.498247 -1.454076 -0.236810 -1.145681 0.101556 -0.990547 0.134711 -0.530443 0.023861 0.127684 -0.064721 0.193221 -0.498825 -0.087623 -0.187494 -0.015039 0.644557 -0.867414 -0.300730 -0.266207 0.373384 0.313699 0.350239 0.308078 0.335155 0.398626 -0.527328 0.368914 -0.162669 -0.425257 0.299546 0.032952 -0.824638 0.950361 0.787757 0.283067 1.617850 -0.645991 0.726063 -0.630346 -0.126651 2.067416 0.274367
what -0.886486 0.149043 0.552298 -0.258313 -0.442384 1.272321 -0.043213 0.033137 0.155661 0.855574 -0.364061 -0.842870 0.820374 -0.518362 0.335474 0.812286 0.992882 0.173079 0.807916 -0.347949 -0.703761 0.076183 -0.417220 0.156792 -0.534365 1.076845 1.087499 -1.335809 0.670811 -1.635474 -0.488872 0.097393 0.453715 -0.883995 0.856196 0.727555 -0.155227 -0.339390 -0.185534 0.270746 -0.558683 0.721037 -0.401680 0.347835 -0.715227 0.231764 0.181606 -0.487140 1.225794 0.810829 1.069866 -0.161561 -0.000616 0.016666 0.432042 -0.644747 -1.245375 0.305462 0.999257 0.656956 0.253656 -0.275117 -0.171559 -0.008132 -0.126051 -0.025295 0.070218 0.349757 0.536471 -0.131626 0.231482 0.613024 -1.587094 0.106611 1.169894 0.548882 -0.604840 -0.026045 -0.258173 0.719337 0.107643 -0.004668 -0.207810 -0.984389 0.029215 0.415128 0.550944 -0.333167 0.171983 1.269360 0.251714 0.014237 -0.040748 -0.486371 0.028973 -0.668834 0.162759 -0.230806 0.433405 0.749283 -0.058044 0.999708 -0.210921 -0.574697 -1.127695 0.052665 -0.719533 0.977212 -0.242431 0.277291 0.344531 -0.636352 0.296126 0.611278 -0.182479 -1.221130 0.291950 -0.132257 0.202453 -0.607411 0.372998 -0.693619 -0.144844 0.088556 0.093659 -0.017651 0.021158 -0.488489
when -0.217086 -0.444663 0.617097 -0.772944 -0.363005 -0.341906 -0.108374 -0.050368 -0.164341 0.651441 0.535304 0.091394 -0.001367 -0.222745 -0.142265 0.309564 0.330800 0.271718 -0.196524 0.440719 -0.849037 -0.080815 -0.432889 -0.409215 0.261483 -0.273804 0.782599 -0.735914 -0.012927 -0.063579 0.046835 -0.318752 0.334439 0.360420 -0.034417 0.718837 -0.012151 -0.424889 -0.152704 0.283086 -0.827658 0.094338 -0.345612 0.702594 0.486925 1.300603 0.615724 -0.175231 0.349868 -0.399285 0.722041 -0.198149 0.783683 0.566938 0.299572 -0.097978 -1.237728 -0.821776 0.464387 0.949531 -0.696194 -0.241162 0.315486 0.451367 0.079065 -0.324653 0.019236 0.279483 -1.007064 -0.018646 -0.343195 0.715190 -0.353816 0.463920 0.204915 0.842140 -0.880154 0.269938 0.094110 0.488948 -0.692113 -0.399259 0.856002 -1.212650 0.183344 0.001460 -0.233556 -0.307208 0.262773 0.198064 -0.067496 -0.024757 0.738183 -0.506602 1.811867 -0.217253 -0.259620 0.422908 -0.395574 -0.156819 -0.291201 0.326634 -0.554970 -0.044957 0.087521 -0.384972 0.097246 0.564438 0.045214 0.542441 0.596444 -0.277066 -0.153248 0.226292 0.503682 0.317844 -0.832764 -0.224225 1.556664 -0.362923 0.198339 -1.125121 -0.503914 -0.151984 0.551439 0.362566 -0.539408 0.291507
no -0.297904 -0.440345 0.211211 -0.890497 -0.133483 1.205629 0.515263 -0.512672 -0.619040 -0.833073 0.981091 0.709087 -0.882234 -0.136660 -0.500769 0.825274 0.774065 0.731810 -0.333362 -0.479324 -0.828558 -1.350580 -0.331068 1.312809 0.726403 -0.158364 0.108050 -0.318752 -0.590088 0.259993 0.777582 -0.924132 0.232269 -0.329387 -0.452465 -0.090234 -0.051814 -0.345248 -0.279132 -1.499294 0.043542 1.235162 -0.440352 -0.738824 0.123056 1.809032 -0.034160 -0.536499 0.966787 -1.076118 0.001021 -0.052308 0.673489 0.804544 0.585157 -0.093834 -0.291593 1.055725 1.376336 -0.298057 1.026737 0.810860 -0.650795 -1.009517 -0.659731 -0.194666 0.940929 -0.428000 0.453674 -0.633574 -0.103933 0.709938 -0.194851 0.396885 -0.081665 -1.540105 0.516408 -1.314354 -0.664646 -1.021497 0.084379 -0.238003 -1.100223 -0.083219 0.326277 0.074603 0.469166 -0.478875 -0.385720 0.881825 -0.390286 -0.073102 -0.587588 -0.930092 -0.563904 -0.087062 0.547736 -0.049655 -0.395985 0.659764 0.454209 1.452232 0.037790 -0.969555 -0.485592 0.707433 0.082766 -0.169313 1.125297 0.425269 0.806202 -0.702443 -0.394979 -0.598435 1.634340 -0.299128 -0.705139 -0.440942 0.017432 -0.771234 1.108438 -0.393579 0.685409 0.638171 -0.395605 -0.262368 -0.082396 0.124737
if 0.048036 -1.010610 0.414342 -0.451296 0.100320 -0.067526 1.604363 0.294673 -0.799234 0.149721 0.216890 0.069864 -0.097229 -0.049059 -0.219030 -0.742634 -0.297816 0.311201 -0.590628 0.193956 -0.158228 -1.458823 0.088954 -1.326135 -0.258140 -0.843797 0.484845 -0.746256 0.463467 0.856329 0.052076 -0.564132 0.785792 0.609592 0.619035 0.512153 -0.436211 -0.911127 -0.076022 0.864066 0.225895 -0.073680 -0.622343 -0.393878 -0.319793 0.873678 -0.495917 0.491489 0.277726 0.368670 -0.406950 -0.073750 1.344363 -1.186228 -0.555183 -0.857294 -1.009071 -0.846903 0.036906 0.624227 -0.043687 -0.569014 -0.448643 0.549021 -0.729766 0.325979 0.534133 -0.258821 0.011328 -0.254745 -0.291883 0.935160 0.016480 0.561083 0.877116 0.874493 -0.767317 -0.574403 -0.537482 1.298066 0.774706 -0.033233 0.976770 -0.566162 0.276426 1.595059 -0.831229 -0.210508 1.099577 0.857018 -0.287395 0.235081 -0.401725 0.084555 1.629810 0.420219 -1.041494 0.609854 0.758597 0.072194 -0.607919 0.418801 -0.866513 -1.157797 1.128456 -0.042811 0.010384 0.456575 -0.433390 0.006124 0.663897 -0.118524 -0.197878 -0.819611 0.458132 0.343601 -0.581203 -0.058628 0.138725 -0.703846 -0.451429 -0.338349 -0.334695 0.504319 -0.106062 -0.767737 -0.976532 -0.055179
there 0.248874 -0.180388 0.511310 -0.520709 -0.333643 0.268445 -0.470871 -0.403454 -0.146666 -0.578395 -0.091331 -0.831106 0.504337 -0.261726 1.158111 0.197386 -0.084087 0.627001 0.018349 -0.270541 -1.695089 -0.057992 -0.225665 -0.371563 0.591264 -1.529261 0.196192 1.667712 -0.275239 -0.480996 0.005665 0.794915 -0.204657 0.046896 0.057554 -0.205454 -0.085197 -0.325337 -0.032787 -0.610690 0.540570 -0.468466 1.014671 -0.326638 0.405445 0.499926 -0.599174 -1.263517 -0.566568 -0.838851 0.471748 -0.298357 -0.663951 -0.339981 -0.349130 -0.604979 0.878969 -0.383935 1.018341 0.418953 -0.922526 -0.161553 -0.425546 0.227874 -0.055219 0.207627 -1.017808 -0.176372 -0.017025 -0.798758 -0.495809 0.247757 0.790520 0.355261 0.225465 -0.412276 -0.239971 1.090580 0.846237 0.495332 0.602960 -0.510910 -0.134083 -0.123813 0.603229 0.372001 1.399057 -0.797259 0.631745 -0.553700 -0.222085 -0.662079 -0.683612 -0.273466 -0.306523 -1.223401 0.285614 -0.243089 -0.137784 -0.659944 0.373546 0.823205 -0.585818 -0.175531 1.096805 -0.857779 -0.142607 0.382550 -1.004067 0.051032 -0.328624 -1.421131 -0.073937 1.667631 -0.134882 -0.405420 0.160056 0.447145 -0.347229 0.192920 -1.238412 -0.391094 0.228826 -0.958651 0.176253 0.633087 -0.008600 -0.322939
who -0.168959 -0.355694 0.430266 0.014980 0.200592 1.309326 -0.103944 -0.024127 0.096779 0.400234 -0.373980 -0.893104 -0.138043 -0.166647 -0.002877 0.031816 0.849353 -0.257081 0.022014 -0.406213 -0.842546 -0.722713 0.169286 -0.434496 0.307351 -0.047831 0.804106 -0.001513 0.421632 -0.847632 -0.780444 -0.354267 -0.218497 0.568427 0.035340 -0.094125 -0.668075 -0.332959 -0.246333 -0.685446 0.749187 0.347601 -1.020477 -0.379271 -0.604836 -0.738894 0.091325 0.098383 1.319135 -0.000407 0.628028 0.115221 0.413916 0.246199 -0.015044 0.053036 -0.098321 -0.789570 -0.272936 0.055781 0.362217 0.199264 -0.258574 0.121999 0.461159 -0.397200 0.545878 0.872387 -0.095591 -0.907240 -0.500224 0.736470 0.280937 -0.979647 0.238098 1.208862 -0.399064 0.080707 0.261327 0.699753 1.057309 0.072331 0.582317 -0.885965 0.265823 0.723892 1.168451 0.958406 -0.374430 0.071736 0.617804 -0.683476 -0.988904 0.091920 0.821292 -0.308042 0.224815 1.399642 0.439114 -0.337397 0.013188 0.553087 0.042302 -0.073638 -0.321544 -1.426299 -0.143833 -0.219693 0.066411 -0.775530 -0.066023 0.129393 1.662179 -0.010657 0.023014 0.561527 0.528901 0.384317 0.331525 -0.714610 -0.280789 -1.264488 0.127470 -0.116690 0.401172 -0.213551 0.033640 0.219836
we -0.260776 -1.164446 -0.500486 -0.935536 1.100778 0.663190 0.168178 0.991107 0.025006 -1.201333 -0.750657 -0.730790 0.241438 0.694703 -0.726993 0.637832 0.634702 0.547830 -1.084380 -0.490673 -0.659015 -0.224150 -0.137792 0.027936 0.165311 -0.229456 -0.675509 1.722405 0.026417 -0.544297 -0.528431 -0.179014 0.410880 -0.273493 -0.159279 -0.166284 -0.879436 0.799561 -1.705036 -0.124071 0.212217 0.384230 0.425099 -0.471369 0.270520 -0.423152 -0.863250 0.643238 -1.187582 -0.339420 0.000768 0.260234 -0.382786 -0.671261 1.644680 0.362098 -0.590139 -0.235352 -0.228276 -0.279261 -0.174625 0.346202 -0.714115 0.578620 0.689569 -0.596054 0.078148 0.256500 0.615639 -0.586705 -0.550484 1.075301 0.183134 -0.103337 0.721512 -0.260739 0.751264 0.038338 0.172353 0.366141 0.022926 0.154094 -0.134208 -0.185942 -0.036061 0.489700 0.471987 -0.443287 -0.747293 -0.612386 1.015428 0.637927 0.602418 0.844649 -0.115679 0.344423 -0.082579 -0.371188 0.219964 -0.694020 0.411228 0.536756 0.782428 0.478529 -0.950341 0.013514 0.243952 0.368945 0.089155 -0.924174 -0.650705 0.293372 0.427168 0.056974 -0.605207 0.979684 0.424908 0.971338 -1.029809 -0.638179 -0.228841 -0.463730 -0.638017 0.451044 -0.106273 0.613508 0.542517 0.264940
will -0.217565 -0.529980 0.093011 -0.379907 -0.198083 -0.865342 0.811362 -0.061872 -0.931503 -0.230186 -0.409615 -0.288117 -0.370154 -0.414729 0.076025 0.289190 0.087037 0.678845 0.012519 -0.358916 0.800068 0.516632 -0.157848 -0.730979 0.635549 -0.012730 0.161993 -0.039971 0.359996 1.095113 -0.389241 -0.002160 0.430454 -0.265982 -0.067146 -0.314885 0.745155 0.362856 -0.662167 -1.052464 -0.129729 -1.016247 -0.417942 -0.168333 0.679782 -0.903313 1.030503 0.071912 -0.180694 0.719607 -0.922402 -0.495271 0.195822 0.761522 0.479641 0.359699 -1.209185 -0.560526 0.740780 0.206415 -0.098114 0.186747 0.108293 -0.059359 1.276797 0.362289 -0.151257 0.807756 -0.464542 0.304083 0.959287 0.214653 -0.130789 1.410530 -0.150459 1.074775 -0.699607 -0.817629 0.256231 -0.902364 -0.024983 0.586802 -0.376903 0.131715 0.857324 1.097371 -0.469049 -1.284264 -0.008960 0.154623 -0.057427 -0.278156 0.989201 -0.172901 0.844428 0.399019 -0.504776 0.917277 -0.321455 0.712392 0.901245 -0.436155 -0.697406 -1.313588 1.453857 -0.104670 1.258952 0.643496 -0.610206 -0.233402 -0.115082 -0.732739 -0.253088 -0.858508 0.099062 -0.458245 -1.188295 -0.568767 0.369981 -0.090621 0.169020 0.612930 0.893893 0.908037 0.512543 0.643183 0.923747 1.759931
an -0.110259 0.430891 -0.911996 -1.408050 -0.020417 0.409791 -0.086130 0.938491 -0.439361 -0.477411 -0.289619 0.631821 0.411832 -0.525135 -0.385593 -0.071845 0.689123 -0.231205 0.943586 1.173991 0.564870 -0.666913 -1.142036 -0.748278 1.031674 -0.297984 -0.875515 -0.292753 0.382208 0.395438 -0.675026 -0.058657 -0.440277 -0.424604 -0.507515 -0.424141 -0.555261 0.876782 -0.518262 -0.858983 -0.337770 0.729422 -0.486753 -1.540306 0.261313 0.844860 -0.472006 0.053965 0.312320 0.516496 -0.187439 0.406782 -0.491760 1.923483 -0.384030 0.256027 -0.305318 0.877255 0.735408 -0.896784 0.038420 0.249269 -0.037091 -0.599973 0.445430 1.030155 0.166193 -0.630183 0.031858 -0.230667 -0.068066 -0.336669 -0.611492 -0.858697 -0.019020 -0.773187 0.720259 0.127363 -0.908400 0.758384 0.507455 -0.432665 -0.218208 -0.746420 0.160905 -0.670579 -0.706803 0.418001 0.305852 -0.457053 0.414096 -0.386152 -0.990670 -1.431648 -0.182331 -0.165680 -1.143168 -0.516690 -0.001582 0.312512 -0.575032 -0.101341 0.973826 -0.622079 0.831353 0.134278 0.871882 -0.005319 0.598070 -0.440079 1.150330 -0.878276 0.186095 0.685074 -0.497301 -0.848901 1.120255 -1.137457 -0.303657 -0.143643 0.648494 0.233133 0.234755 0.399151 0.258373 -0.316491 -1.300116 -0.847035
then 0.304329 0.288286 0.001649 -0.099322 -0.149012 0.299498 -0.106921 0.213729 0.600214 0.079524 0.227580 -0.539014 0.681044 0.264603 -0.039585 0.671465 -0.209151 -0.359795 0.660941 0.585796 -0.438836 -0.023804 0.405996 -0.353589 -0.431300 0.071287 -0.300972 0.202992 -0.109700 0.600345 0.365745 -0.423016 0.341761 0.055161 -0.447897 0.571035 -0.217740 0.054804 -0.225982 0.080768 -0.359628 -0.571577 -0.722513 0.117412 0.779588 0.523655 0.226361 -0.025878 -0.625644 -0.491365 0.718221 -0.111015 -0.075041 0.219388 0.276093 0.149238 0.065092 0.024004 0.415481 0.130608 -0.454459 -0.173226 0.148028 -0.260900 0.076878 -0.337907 -0.194503 -0.318622 0.075944 0.468068 -0.771076 0.502890 -0.149984 0.410968 0.331447 0.340638 -0.555118 0.119200 0.075087 0.095794 0.026122 -0.480792 -0.713519 -0.057758 -0.273600 0.110377 0.143858 -0.146154 0.148447 -0.162319 -0.459770 0.062413 0.275933 -0.377389 0.542710 0.262856 -0.463165 -0.623575 0.558200 0.835453 0.718807 -0.437991 -0.936610 0.019594 -0.100826 -0.252220 0.058714 -0.549372 0.138109 0.094962 0.579653 -0.826746 0.261276 0.376485 0.467849 0.383480 -0.047119 0.029445 0.418366 0.613477 -0.396867 -0.572862 0.148214 -0.159976 -0.289132 0.310444 -0.441437 0.910043
their -0.213440 -0.934033 -0.341239 0.104958 0.531673 0.800481 1.093562 0.590881 -0.482308 -0.109422 -0.182521 -0.132262 0.484952 -0.050046 -0.623476 -0.445403 0.507469 -0.635779 0.809593 0.105294 -0.562844 0.084201 -0.169312 0.543380 -0.495605 0.214177 0.807724 -0.261345 -0.157112 0.460144 -0.376601 -0.027689 -0.011054 -1.379974 -0.504194 0.047371 0.015704 -0.211056 0.953206 0.300417 0.170112 -0.247501 0.898931 -0.250393 0.147021 0.942377 -0.076122 0.056623 1.066085 -1.016505 -0.014548 -0.103713 0.461456 0.485720 -0.046768 0.433055 -0.352085 0.140949 1.596889 -0.144120 0.170211 1.028964 -0.409813 -0.241528 0.976691 -0.181948 -0.413713 0.003721 0.616285 0.262745 -0.300628 0.304080 0.687302 -0.123290 -0.994852 -0.465451 0.693841 -0.166504 0.050755 -0.553673 0.712793 -0.196945 0.771279 -0.425339 -0.364969 -0.814867 0.110591 -0.026839 -0.242089 -1.055677 0.673945 -1.230456 0.363866 0.083669 -0.604289 -0.642394 -0.979318 -0.465552 0.612158 -0.187620 -0.260918 -0.392058 0.305332 -0.368977 -0.860414 0.237015 0.419409 1.356048 0.431894 -0.633689 0.574920 -0.275560 -0.010564 0.360404 -0.403869 -0.876746 0.946599 0.530412 -0.221262 -1.033370 -0.281275 0.932227 -0.707884 -0.492639 -0.052805 0.630483 -0.425492 0.615417
would -0.034041 -0.622823 0.386271 -0.282877 -0.128920 -0.116290 0.355569 0.646867 -1.123078 -0.758024 -0.605497 0.438396 -0.505121 0.056773 0.083487 0.002445 -0.285133 0.516887 0.387180 -0.259118 0.938418 1.048445 -0.218387 -0.704432 0.019089 0.126843 -0.314013 0.331798 1.313822 1.192077 0.123771 -0.027075 -0.093473 -0.359808 -0.768363 0.049881 1.329049 0.395341 -0.019870 -0.882813 0.204656 -1.026075 -0.351664 -0.492080 0.316759 -0.499169 0.321610 -0.323512 -0.087653 -0.116721 -0.229482 -0.167553 0.181486 0.363689 0.888997 -0.131931 -0.922196 -0.291829 0.405913 0.207985 -0.097409 -0.013614 0.124549 0.444850 0.631585 0.878406 -0.085574 0.726249 -0.881290 0.036417 -0.413068 -0.105208 -0.712855 0.731139 -0.890190 0.514395 -0.202817 0.136010 1.392741 -0.137889 0.949867 0.156337 0.265981 -0.862762 0.506416 0.663827 -0.633168 -1.068083 -0.475971 -0.362928 -0.443708 0.484761 0.539282 -0.332917 0.442584 0.308145 -0.476656 0.870205 0.135991 1.416724 1.067268 -0.270296 -0.757313 -1.784359 1.126237 -0.069027 1.280003 -0.214818 -0.581977 -0.202103 -0.174402 0.743280 -0.770640 -0.607260 0.224849 -1.509404 -0.861733 -0.776668 0.350955 -0.069759 0.084927 0.645001 0.809281 1.331757 0.582602 0.761878 0.799650 1.444998
them 0.526619 -0.589574 0.179482 -0.275568 0.115543 0.496248 -0.339776 0.733990 0.030601 -0.097146 -0.441910 -0.712158 -0.241956 0.024374 0.356370 -0.057176 0.445934 0.668421 -0.043018 0.761295 -0.426666 -0.077407 0.579967 0.648072 -0.884283 0.272924 0.027210 -0.329437 0.202601 -0.193072 0.194417 0.280723 0.491466 -0.151001 0.062607 -0.105244 -0.542745 0.189184 1.563515 -0.035113 -1.203550 0.104446 0.050637 0.451648 0.250296 -0.089877 0.555940 0.132018 -0.588973 1.102732 -0.334696 0.049356 -0.047245 -0.424190 -0.489490 0.209360 0.829176 0.502751 0.460928 -0.435045 0.657195 0.861896 0.214308 -0.354314 0.795981 -0.066243 0.101672 -0.656574 0.599894 -0.171144 0.419534 0.012741 -0.126602 0.066090 -0.047559 0.476776 0.448500 0.666461 -0.563774 -0.634802 0.825132 -0.965859 0.275601 -0.539961 0.257943 -0.688387 0.461413 0.101541 -0.472150 -0.255201 0.499564 0.070434 -0.397752 0.590903 0.442220 -0.320257 0.050639 -0.922145 0.906139 -1.120460 -0.088075 0.109584 0.700244 -0.734208 -0.438836 0.551167 -0.026852 0.161281 -0.606657 -0.072813 0.156052 -0.839195 -0.771913 -0.175435 -0.383938 0.309477 0.549355 0.539389 -0.462942 0.079443 0.049744 0.789816 0.190032 -0.112721 -0.057328 0.045259 -0.165987 -0.065328
been -1.028477 0.181643 -0.301330 -0.170988 0.815696 -0.093334 -1.210709 0.453805 -0.592262 -0.967283 0.485028 0.667504 -0.984159 1.117149 -1.115322 -1.560236 0.698762 -0.122767 0.465566 0.136809 -0.295603 -0.033660 0.166201 0.718464 0.790601 1.111670 -0.473035 -0.542264 0.327355 1.957464 -0.035402 -0.518023 -0.763023 0.143338 -0.168995 0.430842 -1.462119 0.563635 0.844397 -1.018974 0.205949 -0.986091 0.789570 0.920231 -1.211810 0.088540 0.442323 0.570551 0.277055 -0.036226 -0.546820 -0.892936 -0.231007 -0.589011 -0.635509 0.511101 0.492382 0.950645 -0.301158 0.301732 1.333860 1.027467 0.830398 -0.272384 0.332148 -1.102124 0.769811 -1.762769 0.451386 0.208724 -0.247699 0.136790 -0.755321 -0.987357 -0.726092 -0.761207 -0.784091 -0.761880 0.653947 -0.225283 0.385165 -0.899224 0.902322 -0.811851 -0.662493 0.495224 0.105275 1.049423 -0.767859 1.028231 0.184350 -0.308074 -0.824008 1.896951 0.838790 0.004477 0.124346 0.233061 0.817869 -0.672875 -1.075765 -0.385332 -0.057577 0.645840 -1.799896 -0.931559 -0.865910 -0.728748 -0.176705 -0.176810 -0.365944 0.613939 -0.659631 0.057822 0.570024 -1.182923 -0.187755 -0.169122 -0.803230 -0.305850 0.344168 -0.774066 0.732266 0.412235 0.748919 -0.259798 -0.707632 0.539975
do -0.608156 0.038994 -0.212190 1.280596 -0.299905 -0.377327 0.231978 -1.076819 -0.566611 -0.301254 -1.049312 -0.383527 0.352894 0.244581 0.217941 0.345103 0.913699 0.602671 0.146337 1.019321 -0.188581 -0.236108 1.093797 -0.626324 -0.120379 -0.093569 0.435551 1.645033 -0.083544 -0.473928 -0.575195 -0.336118 0.238902 -0.233262 1.262688 -1.859346 0.736363 -0.142984 0.350336 0.234077 -0.045282 0.413463 -0.662425 0.507777 -1.349801 -1.385602 -0.088236 0.164811 0.779123 -0.667968 -0.610330 -0.604620 1.130384 -2.126353 -1.524770 -1.020854 0.709281 0.412827 0.819923 -0.073074 -0.119811 -1.499587 0.190028 0.513357 0.048559 0.397796 -0.446867 0.002280 0.353147 0.169600 1.134452 1.291649 0.428652 -0.184940 -0.642954 -1.643651 -0.298378 -1.774537 -0.962928 -0.741935 0.388287 1.274395 1.225769 -0.366419 -0.402247 -0.487517 -1.215324 1.402676 0.186075 -0.604553 -0.881847 1.094577 -0.822351 0.259779 0.078557 -0.140366 -0.097856 0.429296 -1.406439 0.017365 1.426864 -0.292082 0.262821 -1.663938 1.210219 0.170596 0.665098 0.299160 0.513062 -1.190176 0.370621 0.638095 0.534822 0.773454 0.045439 1.400525 -0.108408 1.148575 -0.697692 0.642223 1.698433 1.439426 0.408483 0.090343 -0.102522 0.408543 0.175228 0.256140
your 0.941251 -0.454346 -0.463068 0.670191 -0.516768 0.351970 0.343220 0.512035 -1.109567 0.460821 0.160736 -0.204534 0.202388 -0.124055 -1.297612 -0.375868 0.781465 -1.489927 0.118295 -0.105125 -0.231772 -0.267011 -0.571599 0.217306 -0.480777 -0.100679 0.373948 -0.102773 0.065983 -0.313286 -0.822293 0.390723 -0.520620 -1.142850 -1.218261 -0.483542 -0.104623 -0.517413 -0.567490 0.393763 -0.122291 -0.296472 0.927194 0.163546 -0.397242 1.435237 0.532390 -0.444391 1.186511 0.088485 -0.265476 -0.297385 0.224201 0.554967 0.087814 -0.442317 -0.603617 1.136223 1.306634 -1.674708 0.815717 -0.011925 -0.454799 -1.116256 0.519504 -0.380800 -0.494364 -0.900684 0.658179 -0.065056 0.681419 0.017679 0.301659 0.675038 -0.407424 -1.148980 0.352804 -0.096792 -0.163785 0.452213 0.710347 0.480888 0.381034 -0.166794 -0.437813 -0.136462 0.754579 -0.290387 0.316336 -0.286617 0.614919 -0.540486 0.322975 -0.489814 0.179484 0.022306 -1.442288 -0.472176 0.453580 -0.484203 0.083251 -0.108948 0.286606 -0.924741 -0.359916 0.220713 1.061892 1.392016 -0.002550 -0.915660 -0.098445 0.108799 0.382410 -0.029681 0.219805 -1.164858 0.258316 0.614153 -0.035501 -0.721165 -0.431358 0.550744 0.106673 -0.752074 -0.475241 -0.337799 0.114472 -0.136919
now -0.095810 0.065005 0.438226 0.125479 -0.426198 0.103902 0.208696 0.089841 0.114489 0.053673 0.433175 -0.516823 0.403205 0.373314 -0.096157 -0.013809 -0.220683 -0.103678 -0.044337 -0.170764 -0.229399 0.409187 0.409507 -0.407854 -0.537716 0.230033 0.782888 0.384861 0.182576 0.203907 0.204662 -0.243473 0.035680 0.158380 -0.273508 -0.186940 -0.272015 0.015702 -0.389274 -0.300280 0.112085 0.008507 -0.183413 0.133911 0.178171 0.529081 0.318443 0.380571 -0.162143 -0.026223 0.083547 0.094995 -0.347670 0.260561 0.360580 -0.261921 -0.359044 0.334675 0.319448 0.349053 -0.709786 0.298029 -0.228004 -0.051507 0.296094 0.049868 0.483795 -0.686519 0.193572 0.179034 0.096851 0.410829 -0.391398 0.330834 0.722711 0.446070 -0.292845 -0.113641 -0.207755 0.432562 -0.288223 -0.169372 -0.189831 -0.258073 0.099548 -0.065864 -0.013604 -0.068835 -0.218730 0.495281 -0.028053 -0.150035 -0.142663 -0.150129 0.405286 0.163870 0.244742 -0.431853 0.512495 0.167433 0.239076 0.236017 -0.263172 -0.605297 -0.073823 -0.526626 0.272276 -0.666293 0.153534 0.398975 0.226991 -0.365161 -0.314026 0.611822 0.470279 0.297842 -0.463177 -0.080813 -0.681764 0.285017 -0.109253 0.026515 0.511372 -0.723217 -0.431950 0.161618 -0.430178 0.297118
out 0.188383 -0.958328 0.111134 0.076061 -1.003941 -0.435213 -0.159450 0.126816 -0.200674 -0.209174 -0.397322 0.441114 -0.839619 -1.169084 -0.037122 0.805962 0.023313 2.131014 0.526229 0.828167 0.416936 0.357904 -0.279607 0.098548 0.183531 0.354246 -0.946624 -0.846800 -0.334711 -0.440824 0.786868 0.571355 1.225525 0.791426 1.309432 0.013575 -0.194333 -0.223763 -1.828210 -1.476531 -0.111097 -0.489256 0.024781 0.507034 0.921388 -0.143265 -0.263956 -0.091832 -0.055298 0.138606 0.609379 1.068957 0.305129 0.113377 -0.843827 -0.402315 0.265611 0.009596 -0.610692 -1.599486 -0.104383 -0.102425 -0.744321 -0.771866 0.303344 -0.640296 0.357988 -0.260540 -0.195701 0.056935 -0.836171 -0.920685 0.554933 -0.338665 1.350036 -0.051727 1.098767 0.492372 1.455016 0.054610 -0.387057 -0.042275 0.888552 0.632896 0.398738 -0.357116 0.315476 0.581119 -0.294190 -1.023484 0.706008 0.297733 -0.463441 -0.069137 0.634500 0.558520 0.618172 -0.334372 -0.191103 0.140399 -0.739487 -0.268166 -0.336856 -0.089470 0.397970 -0.040791 0.410403 0.066313 -0.961450 -0.284353 0.170358 -0.506461 -0.681614 0.516982 -0.341852 -0.266752 1.045730 -0.489167 -0.529624 0.030141 -0.792852 0.304091 -0.169329 0.153950 -0.038960 -0.113953 0.984802 0.359231
more -1.567456 0.854021 0.555285 -0.520310 -0.003240 -0.101277 0.666400 1.811870 0.839491 -0.373722 0.808922 -0.195485 -0.884377 0.255346 0.593905 0.251001 0.487487 0.111746 0.200276 0.636636 -0.357815 0.008334 -0.522012 -0.612985 -0.003922 0.406817 0.526114 -0.074138 -1.248255 -0.390417 -1.625293 -1.061727 -0.528001 -0.124434 -0.600807 1.432636 -0.048859 0.401877 0.524328 0.261984 -0.141275 0.027587 -0.301513 0.611436 0.005481 0.226757 0.034913 -1.062336 -0.037670 -0.295500 0.302414 -0.390398 -0.448397 0.088756 0.070420 2.159808 -0.098067 -0.430808 -0.117950 0.877819 0.343002 -0.793476 -0.492074 0.731755 -1.185176 -0.839193 0.524601 -0.251667 -0.073034 -1.008655 0.701523 -0.244504 0.310238 0.858023 0.408641 -0.936833 0.229837 0.894038 0.837084 -0.731641 0.580726 -0.327688 0.860349 -0.845192 1.283145 0.623254 -1.279146 -0.201132 -0.575458 -1.118705 0.093722 1.562142 -0.723876 -0.316081 0.418807 1.098688 -1.239759 0.352627 0.091616 -0.059209 0.292297 0.328147 0.700713 -0.129337 0.952313 -0.847814 -1.046204 0.313268 -0.423324 1.499977 -0.573247 -0.975918 -0.200734 1.573528 -0.730488 -0.205541 0.449653 -0.136650 -0.169797 0.970808 0.550753 0.531256 1.244722 -1.741785 -0.545171 0.273049 -0.081348 0.202948
up 0.494927 -0.561627 0.021110 -0.137700 -0.639494 0.561999 0.242062 0.276743 0.425865 -0.586347 -0.224416 0.331159 -0.685327 0.085100 -1.113529 0.532568 -0.842002 0.693003 0.436941 -0.612883 -0.114673 0.856870 -0.265672 -0.761012 -0.513422 0.036620 -0.171929 0.266396 0.482900 -0.461329 -0.194864 -0.600015 -0.598396 0.582987 0.973718 -0.172105 -0.687038 -0.506628 -0.858514 -0.027205 -0.283199 0.484344 -0.270048 0.916291 0.243108 -0.586780 0.219366 -1.059999 -0.767869 0.196016 0.652940 0.882453 -0.204855 1.099400 -1.750935 0.527620 -0.635584 0.646180 0.324098 -0.621531 -0.420005 0.511203 0.072910 -0.306677 0.300102 -1.169771 0.766418 -0.097477 0.566946 -0.060010 -0.814495 0.094792 0.970106 -0.584851 0.606931 0.593002 0.044087 0.102315 0.333856 -0.150291 -1.421327 1.027000 0.522374 0.081172 0.073723 -0.454154 -0.512515 0.634410 0.992937 -0.573723 -0.443364 0.411265 -1.617696 -0.553135 -0.350560 0.500382 -0.651186 -0.943821 0.215963 -0.150202 -1.098852 -0.717636 -0.025596 -0.416240 -0.254566 -0.900870 0.014494 0.139502 -0.464768 0.468045 -0.026314 -0.047224 -1.339082 -0.483119 0.416702 -0.276020 0.366560 0.409588 0.104004 1.055604 -0.917462 0.223902 -0.498353 0.296125 -0.083362 0.482272 0.334450 -0.009033
man -0.148826 -0.029098 1.445952 -0.977323 0.289680 -1.421116 -0.764700 -0.400413 0.294365 0.617971 0.848462 -0.373632 -0.228626 -0.062911 0.896685 0.122819 -0.897395 -1.427744 -0.422497 0.666374 -0.079087 0.811255 0.384077 -0.159720 -0.855874 -1.432514 0.564863 0.730750 0.334071 0.002647 -0.766944 -0.265517 1.686962 0.568433 0.305502 -0.252790 0.167893 0.956579 0.296135 -0.683500 1.219161 -0.115764 0.426819 -0.775574 -0.436586 -0.285229 -0.444482 0.839869 -0.742000 -0.279967 0.000767 -0.225164 -0.891328 0.520904 0.017083 -0.596341 0.815725 0.205063 -0.366177 0.938774 0.768202 0.310525 1.710809 0.661175 0.328338 -0.207045 0.162115 -0.270694 -0.145412 -0.688615 0.264393 -0.010934 0.043691 -0.444621 -0.022773 0.522537 -0.085439 -0.808058 0.234254 0.242895 -0.210891 1.312798 -0.612369 1.244160 0.212070 1.686848 -0.340610 -0.569090 -0.892032 -1.481003 -0.051155 0.730112 0.440920 -0.072323 0.355947 0.128165 0.331996 -0.851976 0.256961 -0.217871 -1.439371 -0.562693 1.479462 -0.272006 -1.939347 1.019518 -1.707048 -0.274268 -0.064716 1.102689 -0.058190 0.246386 0.722969 0.044636 -0.693032 -0.170733 -0.321035 0.382279 0.001973 0.238380 -1.414274 1.212334 0.054629 -0.557124 0.117288 -0.613668 -0.126337 -0.625540
into 0.159804 -0.662567 -0.099795 -1.017554 -0.465601 -0.350417 -0.053075 1.255441 0.780290 0.305841 0.644410 -0.273645 -0.332026 -1.448501 -0.797923 -1.289544 -0.671285 1.145453 0.489574 -0.262864 0.097913 -0.220253 -1.108949 -0.350451 0.219020 -0.407727 -0.045478 0.074206 -0.323308 -0.480520 0.026716 -0.385795 -0.012567 0.623829 0.939393 0.444524 0.080163 -0.330066 -1.561677 -0.337781 -0.647120 -1.676439 -0.103089 0.308125 -0.351136 -0.493483 1.022573 0.518233 1.156360 -0.632152 0.716418 0.755429 -0.263993 0.752734 -0.302582 0.228281 0.098557 -1.875512 -0.432639 -0.909917 -0.432200 0.076914 -0.932042 0.191280 -0.726827 -0.363463 0.251952 -0.520694 -0.285522 0.515766 -0.329630 0.820168 -0.048433 -0.178489 -0.343685 -0.588097 -0.082247 -0.025987 0.505001 0.737175 -1.043292 1.696341 1.211346 0.190561 0.402502 0.067700 -0.063507 0.501478 0.943811 0.023633 -0.155237 0.498775 0.165959 -0.214377 -0.414131 -0.495491 -0.119800 -0.614240 0.078509 0.348431 -1.026246 -1.796082 -0.516216 0.022552 0.481678 0.653937 0.521705 -1.051713 -0.358225 1.323685 0.441510 -0.166651 0.499290 -0.176863 0.096806 -0.760603 -0.376242 0.433837 -1.195346 -0.180453 -0.009888 0.691653 0.758792 -0.868622 -0.037594 -0.861165 1.931365 0.845533
some -0.440197 -0.793803 -0.607559 -1.159078 0.052540 0.669423 0.123273 0.456329 -0.658750 -0.774438 0.216301 0.501637 -0.027323 0.532732 -0.043793 -0.010349 0.805800 0.552343 -0.397161 0.911682 -1.313294 0.224850 -0.285107 1.523682 0.240810 0.254059 -0.292598 -1.204576 -0.253602 0.290131 -0.106506 0.037519 0.580283 -0.653054 -0.376991 -0.939500 0.085070 -0.317556 -0.232027 -0.946339 0.055005 0.148098 -0.593004 -0.685668 -0.147137 0.989082 0.366796 0.584963 0.208936 0.404855 -0.165119 0.335261 -0.335412 0.556295 -0.261492 -0.344897 0.129290 0.114509 0.822135 -0.020761 0.036918 -0.064120 0.002707 -0.800719 -0.102942 -0.059082 0.809201 0.139817 1.209155 0.065636 0.097397 0.248346 0.098938 -0.419400 0.153180 -0.856778 0.210544 -0.114046 0.545712 0.178239 0.016967 -0.461684 -0.809454 -0.874696 0.305474 -1.218393 0.231598 0.143116 -0.818300 -0.228692 0.345951 -0.688223 0.159604 -0.322373 -0.487528 0.977276 -0.333116 -0.095083 -0.392566 0.371577 -0.468396 0.215207 0.602471 -0.162428 0.211668 0.526693 -0.157379 0.597434 0.479904 -0.604690 0.275900 -0.037792 -0.442755 -0.057697 0.117358 -0.891339 0.623664 -0.666699 -0.340558 -0.221971 0.585270 -0.303627 0.103393 0.176999 -0.796364 0.320448 -0.478245 0.770647
could -0.008689 -0.027378 0.077039 -0.788248 0.002520 -0.545719 1.325336 0.926051 -0.212948 -0.618948 -0.301075 0.059979 -0.926056 0.211371 0.634973 0.138477 0.520899 1.259352 -0.045342 0.538393 0.534425 -0.037389 -0.773023 -1.011186 -0.006030 1.018118 -0.027399 -0.079407 1.807858 1.131519 -0.377318 0.036211 -0.148226 -0.238002 -1.088261 0.188592 1.847513 1.141844 0.372924 0.623956 0.339496 -1.043044 0.422271 -0.436060 -0.611170 -0.611035 0.972002 -0.031039 -0.507271 -0.731228 -0.794270 0.358078 -0.508335 0.114286 0.203623 0.220862 -0.148335 0.626543 -0.358676 0.176055 -0.024761 0.858322 0.943657 0.758886 0.517735 0.679251 -0.742459 1.536868 -0.543902 0.522428 0.635913 -0.435551 0.245927 1.113162 -0.354377 0.619178 1.217244 0.173221 1.519706 -0.301747 0.485675 -0.009496 -0.066117 -0.641031 0.373455 -0.244757 0.267918 -0.494239 -0.086190 0.546515 -1.069318 -0.293323 0.493212 0.154395 0.710564 -0.304713 0.145604 1.219837 -1.127621 1.540522 1.726285 0.231430 -0.064129 -2.020615 0.926910 -1.142684 2.197263 0.304613 -0.998815 -0.107621 -0.582831 0.163472 -1.022970 0.027898 0.529080 -0.142650 -1.050491 -0.284755 -0.306748 0.091021 -0.396398 0.572017 0.478943 0.561086 0.901452 0.818128 1.511820 1.171016
has 0.872546 0.774234 0.721075 0.819191 0.485256 -0.763425 -0.418004 0.461718 -0.673948 -0.532194 0.768636 0.514049 -0.082332 1.253890 0.279859 -0.744968 0.102881 0.136522 -0.310582 0.270341 0.240925 0.065641 0.458165 0.659709 -0.176184 0.005309 -0.444438 0.260886 0.997693 -1.416934 -0.340975 -0.210503 -0.184737 0.817474 -0.278559 -0.779056 0.396726 0.822350 -0.515879 2.018153 0.389356 0.402817 -0.872395 0.167903 0.859727 -0.443867 0.244630 -0.854450 0.191858 0.156434 1.033098 0.760910 1.066885 0.379247 0.245410 0.797942 -0.650707 -0.783275 0.205106 0.334196 -1.479326 -0.694757 0.557555 0.351312 0.482726 1.323931 -0.473087 0.932520 0.460985 1.028990 -0.054956 -0.661164 0.356855 0.615302 -0.549468 0.799012 0.619625 -0.155207 0.720207 0.686621 1.177216 -0.032346 -0.197027 -0.475132 0.409635 0.439176 -0.434620 -1.299340 -1.077762 0.215037 -0.477085 -0.708569 0.435666 -1.647330 0.670279 0.565170 -1.308710 -0.668047 -1.572173 1.457453 0.273741 0.541656 -0.037069 -0.605209 0.984096 0.644474 1.974691 0.231886 -0.267639 -0.615866 0.036596 -1.409023 1.516533 -0.068619 -0.166436 1.124341 -0.763459 -0.548697 -0.073748 0.177294 0.876427 1.239931 0.670517 0.202367 -0.102240 -0.151368 2.498956 -0.249769
only -0.325538 -0.805060 0.043907 -0.225649 -0.462261 0.441248 0.612112 0.361919 0.133995 0.408475 1.236307 0.331478 -0.022279 0.878295 -0.672866 0.361199 0.824247 -0.129466 0.007885 -0.176987 -0.525717 0.243267 1.249963 -0.265514 -0.218549 -0.886791 0.714642 -0.364318 0.894513 0.320111 0.185900 -0.162940 -0.177197 -0.075552 -0.242520 -0.102679 -0.207452 0.478285 0.315094 -1.054426 -0.761923 0.155772 -0.592201 0.211768 0.290577 0.171226 0.453646 -0.347729 0.402554 -0.106806 0.125427 -0.424259 0.261309 0.138852 0.223364 -0.937419 0.287188 -0.084172 0.397536 0.425853 -0.424450 -0.075389 0.535921 -0.173237 -0.010674 -0.040389 -0.654729 -0.306606 0.012903 0.120132 -0.555049 0.622337 -0.292116 0.181713 0.672082 -0.134689 -0.013229 -0.321595 0.268685 -0.582848 -0.051497 -0.822746 0.440478 0.201906 0.442249 0.561695 0.153714 -0.285190 -0.192067 0.426770 -0.832414 0.036127 0.515673 -1.057643 -0.367403 -0.354031 -0.254011 0.103872 0.424528 -0.026628 -0.183954 0.892269 0.100299 -0.210742 0.802726 -0.672439 0.171951 -0.469044 0.559555 0.655569 -0.153196 -0.210086 0.189110 -0.155239 -0.375318 -0.227851 -0.000084 0.032154 -0.335995 0.852757 0.635714 -0.657450 0.614944 -0.665123 -0.481932 0.184920 -0.101142 0.061183
any 0.034986 -0.207089 -0.300880 -0.584719 0.769311 0.360030 1.871121 0.140932 0.100987 -1.537306 0.147775 1.122262 0.005593 0.222544 -0.037014 1.240279 1.756223 0.103062 -1.069822 0.444889 -0.822683 -0.471140 -0.379512 2.554004 0.603898 0.261413 -0.612719 -0.454255 0.350825 0.462221 -0.973087 0.697498 0.193289 -0.058290 0.009568 0.181036 -0.166332 -0.390114 -0.076236 -0.783847 0.034787 1.113173 -0.510064 -0.457803 -0.426149 0.766149 -0.542227 0.667367 0.867641 -0.421550 -1.516852 0.847086 0.591859 0.498763 -0.633521 -0.331230 -0.062204 0.598292 1.000369 -0.473370 1.824660 -0.253814 -1.072998 -0.927050 -0.471989 0.038683 1.154415 -0.184827 0.937713 -0.683574 1.340575 -0.075753 0.790875 0.097668 -1.220281 -1.194165 0.685363 -0.003958 0.211431 0.130560 0.195095 0.567901 -0.977868 -0.391794 -0.471987 0.218670 0.050583 -0.064570 -0.666082 0.819633 0.144798 1.078805 0.502537 -0.692157 -0.339542 0.366390 1.007379 -0.277936 0.270197 -0.755829 0.717803 -0.407561 0.420240 0.892447 0.085472 0.375383 1.212798 -0.316366 0.201147 -0.091488 0.654200 0.202554 -0.600976 0.290571 0.898786 0.309481 0.976231 -1.121005 -0.341359 0.555375 1.318739 1.015633 -0.697598 1.061975 -0.341691 0.307845 -0.618376 0.481047
very 0.413120 -0.771295 -0.023322 0.592181 -0.610951 -0.016579 0.121408 -0.134327 -0.407970 0.484468 1.231958 0.522418 0.828634 0.439831 -0.176938 0.523682 0.855211 0.799088 -0.022959 0.465522 0.735075 0.348211 -0.378846 0.352720 -0.071087 0.106934 0.102553 0.741979 0.293543 0.516511 0.601289 -0.130463 0.095540 -0.871900 0.292366 -0.432935 -0.089402 0.887241 0.121326 -0.285267 0.255131 -0.764321 -0.150292 0.088198 0.365953 0.119663 -0.172505 -0.066735 -0.304458 -0.002205 0.786649 -0.173419 -0.701974 -0.057435 -0.139914 0.872726 -0.028451 0.420269 0.271569 -0.162916 0.040024 -0.561853 -0.032305 -0.522517 -0.239266 -0.588614 -0.333116 -0.469325 -0.103823 -0.372809 0.481564 0.702280 -0.119619 0.887352 -0.019033 0.311101 -0.412241 -0.465557 0.695264 -0.086871 0.349985 -0.164133 -0.296990 -0.591245 0.162471 0.141086 -0.663019 -0.314983 -0.177021 -0.392253 -0.110616 -0.223002 0.651261 -0.206384 0.570855 -0.467992 0.364811 -0.379184 -0.772661 -0.637785 0.563441 -0.046084 -0.155380 0.621762 0.048232 -0.018512 -1.180505 -0.975916 0.295149 0.841929 0.517953 0.386505 0.489354 0.312362 -0.601054 -0.401847 1.775358 -0.290086 0.524966 -0.153610 0.413254 -0.245107 -0.230515 -0.769107 0.128468 0.336651 -0.230739 -0.382151
like 0.762450 -0.304158 0.192128 -0.452258 -1.039482 -0.725803 -0.463625 -0.443119 -0.093629 0.296027 0.710635 0.169378 0.556686 0.764309 0.712245 -0.452934 0.038180 0.775420 -0.013909 -1.004958 0.427459 0.003460 -0.836245 0.467415 -0.599163 -0.346520 0.655455 -0.450610 -0.239085 0.045412 -0.301585 -0.369383 0.695823 -1.003960 0.744088 -0.703623 0.516983 0.772416 -0.470073 0.178119 0.173109 -0.291566 -0.455202 -0.700017 -0.764706 0.077984 0.917228 0.329929 0.033451 -0.229425 -0.209500 -0.432041 0.039272 -0.298355 -0.651073 -0.101389 0.104808 -0.693295 -0.757984 0.357368 -1.179167 -0.383153 0.204593 0.378934 0.238582 0.261224 -0.570662 -0.574344 -0.268679 0.271199 -0.013118 -0.019432 0.188080 -0.063079 -0.535777 0.611719 -0.525388 0.422217 0.197571 0.503908 -0.067871 -0.854249 1.055050 -0.117391 0.501430 -0.125414 -0.467500 0.390117 -0.310232 0.566393 -1.204711 0.375936 -0.740348 0.623286 -0.185596 -1.180324 1.087103 0.296188 0.881696 0.400040 0.421292 -0.155091 0.892382 1.354148 -0.183571 -0.314860 0.390358 0.100331 0.920180 0.545583 -0.318833 -0.593705 0.889368 0.542738 0.125912 -0.046251 0.036490 0.272679 0.415671 -0.315301 -0.518364 -0.198066 -0.017764 0.157120 -0.287024 -0.517663 0.723563 -0.259622
did -0.033138 0.001982 -0.821523 0.428038 0.708453 -1.854735 1.277258 0.115348 -1.639752 -0.220880 -0.222058 -0.654538 -0.608428 0.862149 0.444912 -0.397483 0.399287 1.270592 -0.251891 0.615315 0.890962 -1.125499 0.020457 -0.258435 -0.108869 0.433445 0.029503 -0.316716 1.452832 1.473035 -0.011737 -0.199509 -0.145423 0.743907 -0.872361 0.517804 0.604704 0.353517 -0.473127 0.591568 0.639458 -0.824448 -0.800285 0.119731 -0.313437 -0.349971 0.714399 0.098768 -0.311548 -0.891433 -1.082747 -0.069650 0.311642 -0.021092 -0.170267 0.281300 -0.859054 -0.611411 -0.695654 0.334559 -0.174483 -0.131079 0.439169 0.479360 0.686994 2.274702 -0.095661 1.621506 -0.049152 0.103520 0.388881 0.413745 -0.545754 0.515405 -1.370525 0.345701 0.231101 -0.381264 0.257289 -0.395808 1.100864 1.233641 0.708012 0.053357 -0.490425 0.165439 -0.238635 0.401721 0.106165 -0.319586 -0.889434 1.081766 -0.356245 -0.914500 0.035448 -0.063234 -1.132753 0.237509 -1.467462 1.734633 1.855745 -0.441980 -0.114244 -1.886419 0.412555 -1.164008 1.406267 0.201657 -0.783241 -0.549184 0.609854 1.118918 -0.930845 -0.458271 0.019010 0.117339 -0.104387 -0.328146 0.234371 0.910043 1.022613 1.084541 0.043853 -0.147599 -0.226465 1.273128 1.288646 0.075090
time -1.238539 0.962182 -0.504156 0.646693 -0.070155 0.551366 -2.292767 0.146607 -0.206987 -0.312302 1.226603 -1.340160 0.547797 -1.058595 0.958240 0.591974 -0.377753 -0.610511 -0.640307 -0.200879 0.655785 0.503633 0.425934 0.980993 -0.488991 -0.950538 0.407399 0.415746 1.465237 -0.586408 1.091483 -0.208143 -1.560272 1.737752 -0.583044 1.187052 -0.765248 -0.004378 1.079455 0.156518 -1.145237 -0.119473 1.561373 0.472737 0.345344 0.256446 1.226065 0.485138 -0.909571 -0.223950 -0.521835 -0.533690 0.172989 -1.026040 -0.513300 -0.520969 0.190187 0.196235 -0.682577 0.480243 0.635307 0.033156 -0.557236 -0.114823 -0.916851 1.111288 0.109214 0.941196 0.831067 -0.057970 0.417541 0.562754 0.505850 0.081749 -0.299026 0.623888 -0.458233 -1.020523 -0.050885 1.285364 0.457089 1.016968 0.575397 1.453447 0.544267 0.906422 -0.284134 0.181243 -1.119013 -0.773421 0.143164 0.281288 0.305857 -0.647583 1.062231 -0.307829 0.118304 0.081522 0.493724 0.511732 0.255198 -0.698931 -0.421810 0.317319 -1.022702 0.168003 -1.132650 -0.533991 1.134766 -0.284097 0.005783 -0.245621 -1.198444 -0.206658 -0.197148 -0.679531 0.148089 0.372230 -0.837622 0.037109 -0.387102 -0.472197 -0.821518 -0.623237 0.445618 0.566230 0.830275 -0.406602
its -0.491475 0.129950 -0.237802 -0.194802 0.817805 1.010416 0.185722 0.439068 -1.437732 -0.055833 0.387362 0.034637 0.432694 -0.446868 -0.452285 -0.495360 -0.737800 -0.507382 0.607062 0.110409 -0.185877 -0.914686 -0.592466 -0.706561 -0.639237 -0.044926 1.240803 -0.370475 -0.329265 0.237201 -0.726998 -0.811336 0.121773 -1.039101 -0.259355 -0.004445 -0.780885 0.130154 1.515802 0.194272 0.800163 -0.065243 0.855662 0.243834 0.134799 0.196317 -0.489644 0.369747 1.112290 -0.599952 0.492536 0.087411 0.812038 0.126918 -0.340706 0.380247 -0.229360 0.909967 0.313213 -0.691690 0.990877 0.775922 -0.289287 -0.253791 0.390496 0.400082 -0.503171 -0.002938 0.024631 -0.318628 0.063943 0.327294 -0.057256 0.055971 -0.676899 -1.168210 1.463543 -0.159954 -0.104450 0.331651 0.382035 -0.238227 0.337828 -0.556151 0.064515 -0.859751 0.401149 -0.646339 0.344616 0.179898 0.013042 -0.708712 0.458085 0.579164 -1.082908 0.175114 -1.203774 0.049380 -0.088332 -0.587115 0.404182 -0.136527 -0.367578 0.260503 -0.739443 0.490803 1.452723 1.224077 0.344736 1.162209 0.217531 -0.273469 -0.127655 0.645503 -0.706958 -1.133785 0.218433 0.508602 -0.078684 -0.417720 -0.192294 1.597441 -1.371003 0.219620 -0.477727 0.794640 -0.265460 -0.537078
than 0.021465 -1.278813 2.424379 0.771674 0.418353 -0.718197 0.180553 -1.867028 -0.403282 -1.620805 0.142076 0.430497 -0.153520 -0.956796 0.334938 -0.801721 0.104860 2.695588 1.405205 -0.784187 -0.729091 -0.265988 -0.011020 -0.061424 -0.146287 -1.190163 -0.503498 -1.160124 0.609508 -1.511445 0.567124 -0.507164 -0.055678 -0.048626 -0.216982 -0.224469 0.115809 -0.169860 0.626385 -0.867096 0.469271 -0.320539 0.377454 -1.665122 0.573947 -0.591118 0.837503 -0.941773 0.522624 -1.116585 -0.026007 0.957354 0.715267 0.105134 0.626857 0.162925 -0.930668 0.751727 1.628387 -0.642612 -0.252295 -0.644618 0.406503 -0.435087 -1.178620 0.631193 0.613895 -1.870753 0.457403 -0.192325 -0.006543 0.312252 -0.538036 -0.196698 0.335475 0.653598 0.849762 0.814323 -1.231690 0.594862 0.095451 -0.298970 0.047013 0.988097 -0.177375 0.729705 -0.202295 -0.345679 0.904185 0.257310 -0.747097 -0.134663 1.126597 1.475519 -1.516784 -0.371278 1.447098 -0.358778 1.383471 -0.480790 -0.181495 0.190212 -0.528298 0.160265 0.355884 0.916671 -0.111490 -0.085252 2.104584 -0.505884 1.544606 1.164156 1.140554 -0.827572 0.441046 -1.037598 -1.223017 0.275805 0.457949 -0.065579 -0.547822 0.823938 0.808162 0.261237 0.871041 -0.014878 1.883301 -0.920877
other 0.170632 -0.690821 -1.081983 0.907645 0.816489 0.804717 -0.735534 1.064240 0.275097 0.305957 -0.551059 -0.995304 -0.888851 0.002156 1.127238 -0.098598 -0.926468 -1.143126 -0.445200 0.288723 0.584107 0.292851 -0.517488 -0.845913 0.489190 -0.811626 1.042970 -0.185102 -0.041895 -0.124415 -0.435923 -0.931092 0.751112 0.420372 0.304417 0.195812 -0.907430 0.723979 0.713371 0.842111 -0.390322 0.113855 1.969968 0.521333 0.553820 0.106979 -0.501049 -1.060401 0.571574 -0.537492 -1.103248 0.665423 -0.137510 0.470191 -0.804409 0.600503 0.494538 0.614687 0.904731 1.135088 -0.474010 0.096822 0.710810 -0.235212 -1.029755 -0.023359 -0.365474 0.435555 -1.855923 -0.891100 -0.101556 -0.845979 1.109743 0.100825 -0.573165 -0.628868 -0.093730 0.534335 1.089918 -1.065993 -0.985131 0.127678 0.103013 -0.198320 -0.321962 0.543234 -0.786775 -0.646792 -0.780467 -0.100948 0.489250 -0.107869 -0.353105 0.049061 0.638255 0.112978 -1.018419 0.915718 0.866754 -0.344191 -0.400986 -0.677548 1.267301 -1.081657 -0.443923 0.020124 -0.640815 1.058599 -0.497266 -0.741955 1.166286 -0.024222 0.147879 1.381186 -0.379236 0.939191 -0.119603 0.890141 -0.306431 1.435483 0.171441 0.286648 0.281563 -0.401860 0.036516 -0.745806 -0.218418 0.165576
before -0.012217 -0.322191 -0.089516 0.721129 -0.154260 -0.422771 0.331706 -0.301286 -1.151060 -1.181641 0.389571 0.088395 -0.781397 0.396012 0.110059 -0.608812 0.637131 0.257568 0.083250 -0.403663 0.367182 0.163049 0.000099 -0.654969 0.379634 0.609072 0.576548 -0.151173 -0.578997 -0.550273 -0.856486 0.367233 0.109391 1.051518 1.042018 1.083539 -0.696581 -1.247247 0.028456 0.148252 0.689753 0.218851 -0.557689 0.594667 0.792613 0.596116 0.263862 -0.372545 0.258341 -0.286216 0.204983 0.573269 -0.137676 -0.181460 -0.261448 -0.584438 -0.138751 -0.916027 -1.267412 0.559322 -0.770305 0.459423 0.394007 0.559141 -1.217799 0.173833 -0.018744 -0.408188 -0.437007 -0.177439 -0.638637 1.080087 0.060097 0.412273 0.736385 0.345985 0.375040 -0.323207 0.006563 0.458310 -0.110947 -0.973873 0.024574 0.723688 -0.155823 0.125636 -0.471005 -0.468877 0.224269 0.643058 0.309991 0.151144 -0.170896 -0.278268 0.688008 -0.000515 0.340461 1.278341 -0.061235 0.025865 -0.625912 -0.987926 -0.485120 -0.580398 0.178433 0.012962 -0.288658 -0.009707 -0.816682 0.292296 0.687958 -0.093311 -0.188336 -0.250000 0.027125 -1.061591 -0.975277 0.373103 0.260296 0.812233 0.254073 0.045629 -0.394685 -0.490605 -0.227069 0.203378 0.272022 0.101442
about 0.306713 -0.718539 0.486023 0.081014 -0.532709 -0.828501 -0.750521 0.085125 0.327814 -0.827948 0.149763 0.147842 0.321575 0.284051 -0.189025 -0.424442 0.361521 -0.298490 0.593378 -0.665114 0.419394 0.379513 -0.288649 0.440337 0.080259 0.252174 0.719325 0.132196 -0.405133 -0.659913 0.132436 -0.500661 -0.218829 0.439069 -0.153385 0.577345 0.201816 0.231996 0.050746 -0.878343 -0.435243 0.097281 -1.546889 -0.008144 -0.116074 -0.347809 0.337894 0.641972 -0.233430 -0.939754 -0.095983 0.615647 0.299546 -1.384654 -0.138995 0.366438 -0.233138 -0.740190 -0.150002 0.120357 -0.421702 1.067498 -0.760639 0.439250 -0.708437 -0.469728 -0.166068 -0.696027 -0.737905 -0.837268 -0.132052 0.265406 0.400084 -0.393439 0.882433 0.373416 0.054366 -0.230057 0.293934 0.239524 0.018127 0.437372 0.468850 0.542495 -0.259199 -0.444166 -0.186819 0.076045 0.795121 -0.175623 -0.333247 0.462372 -1.105563 0.289873 -1.037269 0.381586 0.207690 0.188284 -0.198705 1.439032 -0.216974 -0.687901 -0.288557 -0.412666 0.425080 0.072718 -0.702026 -0.989959 -1.087261 0.671961 -0.045866 -0.614437 0.295535 -0.117242 -0.250073 -0.147001 -0.288414 0.165321 -0.947518 0.746467 0.456278 -0.456579 0.212651 -1.185517 -0.712237 0.586060 1.350645 -0.216294
