3000 128
<pad> 0.727888 0.250508 -0.233936 0.111824 0.208221 0.295000 -0.127153 -0.259933 -0.371343 0.051457 0.255128 0.576268 -0.133419 -0.503458 0.422060 0.279415 0.028456 0.391671 0.485378 -0.117979 0.062433 -0.381605 -0.133207 -0.019581 -0.415892 -0.142711 0.451259 -0.595572 0.368544 0.817206 -0.214983 -0.132183 -0.430345 0.387318 0.780157 0.129873 0.206965 -0.700820 -0.220420 0.150111 -0.234698 0.802536 -0.241501 -0.022147 -0.759545 -0.175484 -0.042512 -0.023349 0.204620 -0.919638 -0.145217 -0.332583 0.509875 -1.268260 -1.110500 -0.145245 0.263551 -0.287105 0.540910 0.074071 -0.120237 0.407905 0.413168 0.701695 0.575544 -0.469596 -0.168208 -0.685401 0.320172 0.043774 -0.408104 -0.130549 0.678055 0.545504 -0.398106 -0.908424 -0.026158 -0.013440 -0.096699 0.264397 0.103974 0.710995 0.422846 0.244632 -1.024131 -0.656590 -0.142016 0.323485 0.151678 0.426663 0.674173 -0.224138 -0.085239 -0.403200 -0.050989 -0.106223 -0.155749 0.402699 0.412100 -0.125269 0.019223 0.309693 0.045071 -0.099534 0.418228 0.346491 0.258862 -0.016155 0.427514 -0.179480 -0.410798 0.297952 0.079259 -0.114595 0.057692 -1.124701 -0.228003 0.340814 -1.033031 0.109625 0.573781 0.667433 0.086844 -0.413419 -0.310933 0.811073 0.204921 -0.217904
<start> -0.665219 0.673808 -0.215710 0.422546 0.674237 -0.604836 -0.083897 0.355455 0.306008 0.177191 0.074095 -0.490230 -0.086024 -0.104042 -0.010102 0.728578 -0.247408 -0.026825 -0.660892 -0.190401 -0.833999 -0.384941 0.083860 -0.038785 -0.105030 0.395345 -0.505918 -0.248381 0.428223 0.622821 -0.505891 -0.094239 -0.207555 -0.339644 -0.532794 -0.146764 -0.089637 0.154166 0.081895 0.282677 0.617172 0.519011 0.358494 0.154502 1.163288 -0.186475 0.279503 -0.130012 0.084339 0.608258 -0.156758 0.147860 0.263150 0.571408 0.807933 0.147356 0.156961 0.422630 -0.684802 -0.810395 0.183027 0.271116 -0.064367 0.105460 -0.243620 0.174530 -0.368418 0.783684 0.369587 -1.033885 0.541863 0.004620 0.227277 -0.541288 -0.247607 1.552416 -0.078859 1.177722 -0.840042 -0.136308 -0.027859 -0.302046 -0.025938 0.157351 0.306713 0.199136 0.324009 -0.082948 -0.195455 0.059729 -0.280073 0.325960 -0.370783 0.498961 -0.664250 -0.243895 0.175650 0.183357 -1.218374 -0.038808 -0.123604 -0.132790 -0.085951 0.772478 0.271198 -0.556122 0.252365 -0.337638 0.344308 -0.438854 -0.013223 -0.355232 -0.250209 0.178531 0.061763 0.386504 -0.315011 -0.108940 -0.117412 -0.158361 0.131631 -0.264802 0.142307 -0.130270 0.444819 -0.585951 -0.455586 -0.107567
<end> -0.154642 -0.958782 0.477449 0.005293 0.178861 -0.229411 0.033449 -0.127839 0.221043 -0.115716 0.132160 -0.401067 0.437129 0.116207 -0.647174 0.596992 -0.073850 -0.684769 -0.375087 -0.052339 -0.339489 0.483963 0.474427 0.732249 0.513813 -0.223218 0.079692 1.098680 -0.313783 -1.502186 0.441244 0.721698 0.579018 0.122925 -0.259381 -0.379397 0.182719 -0.124416 -0.021972 0.149222 0.569282 -0.515152 0.240245 -0.283760 -0.117541 0.549046 0.228415 -0.303230 0.025884 0.524552 0.379952 0.311802 -0.567751 0.783388 1.118743 0.238944 0.074087 0.048032 -0.500994 0.171715 0.681500 0.423495 0.031355 -0.932657 -0.564039 0.396881 0.780772 0.691008 -0.088900 0.361949 0.429753 -0.059711 -0.885788 -0.702322 0.448159 0.453964 -0.473527 0.564103 -0.259164 -0.242090 0.330149 -0.973327 -0.206037 0.214280 -0.114805 0.646102 -0.535058 -0.319155 0.458333 -0.075410 0.084256 -0.197269 -0.153711 0.474699 0.085972 -0.061342 -0.115507 -0.545230 0.104954 -0.116978 0.223993 0.271978 0.109035 0.167905 0.298795 0.041963 -0.021679 0.234649 -0.048996 -0.351979 0.111467 0.125980 0.746988 -0.345908 -0.431550 0.383944 0.110047 0.060669 0.488649 0.215815 -0.569867 -0.621945 0.219235 0.510193 0.189046 0.029571 -0.498821 0.283016
<unk> 0.160973 -0.360944 0.170734 -0.292819 -0.041222 0.123630 0.535362 -0.410977 -0.191568 0.170523 -0.257328 0.029765 -0.299672 0.049742 0.037894 0.159819 0.345272 0.186860 -0.059808 0.303945 0.220035 0.007160 -0.102467 -0.373152 0.130968 -0.203309 -0.298316 0.097618 -0.056499 -0.260289 0.428127 -0.080150 0.038525 0.308231 0.218080 -0.095808 -0.052912 -0.181306 -0.057813 -0.198059 0.174515 0.241080 -0.392734 0.178675 0.958380 -0.271980 -0.184357 -0.026635 -0.189795 -0.409255 -0.090851 -0.170561 0.282708 -0.231908 0.152726 -0.068354 0.049447 -0.055391 0.150510 -0.092211 0.131205 -0.140048 -0.080669 0.044907 0.204373 -0.083211 -0.316947 -0.045672 -0.078363 0.046842 -0.138840 -0.201878 0.231166 0.134893 0.003884 -0.128939 -0.076898 -0.085851 -0.067777 0.012938 -0.158048 0.134203 0.022099 -0.015021 -0.229726 -0.254480 0.309737 0.143560 0.157376 -0.138818 -0.276256 -0.094959 -0.085534 -0.286141 -0.119570 0.156142 0.101511 0.141884 0.018500 0.046704 -0.607370 -0.445933 0.240931 0.018161 -0.001609 -0.169693 -0.204652 0.191218 -0.243015 0.039961 0.087861 -0.009308 -0.089655 0.267760 -0.168998 0.059617 -0.152610 0.358092 -0.493469 -0.035465 -0.445587 -0.045926 -0.082730 -0.150194 0.513096 0.285014 0.028035 0.122978
the -0.159542 -0.050752 -0.218498 0.454284 -0.582118 0.128725 -0.692139 0.090822 0.005301 -0.248852 -0.887996 -0.099354 0.086534 0.183624 0.157044 -0.052006 -0.247048 -0.105043 0.296107 -0.122054 0.343030 0.358159 0.114907 -0.346343 -0.094272 0.409805 0.065086 0.093327 -0.126024 -0.677743 0.162922 -0.034527 -0.311910 -0.357157 -0.557531 0.292013 0.415568 0.255286 0.043982 0.680775 -0.058640 -0.491254 0.282140 0.244115 -0.611695 -0.021250 0.274548 -0.310035 0.086024 0.026407 -0.116881 -0.385071 -0.176776 -0.859821 -0.178106 -0.116997 -0.544313 -0.091636 -0.266899 0.355571 -0.415949 0.655403 0.465574 -0.046324 0.202711 0.143730 0.114363 -0.337330 -0.326759 0.329334 -0.088614 -0.157728 0.100752 -0.134019 0.710737 -0.175689 -0.170433 -0.479678 0.010830 0.122831 -0.135453 0.299490 0.083210 -0.524330 0.672637 -0.076893 -0.523093 0.236449 -0.118324 -0.503555 0.442901 0.287605 -0.483102 -0.026210 -0.893355 -0.188952 -0.293147 -0.005495 0.126284 0.141363 0.672648 0.417839 -0.043040 -0.483071 -0.114797 -0.036137 0.167160 -0.348818 -0.016253 0.543273 -0.089753 -0.041099 0.166275 -1.064254 0.629010 0.785347 0.293338 0.593773 0.412165 -0.484969 0.476198 0.085958 -0.353715 0.139308 -0.266807 -0.099287 0.307527 0.038138
and -0.043948 -0.413343 -0.547311 0.586691 -0.048189 -0.067350 0.020745 0.202159 -0.019483 -0.060953 0.168434 0.395148 0.069501 0.005215 -0.167142 0.584660 0.383449 0.075498 -0.232688 -0.182914 0.200059 -0.308470 0.391714 0.272840 -0.428969 0.065680 -0.283024 0.084619 -0.007464 -0.266829 -0.194807 -0.279155 0.348167 0.424304 0.029448 -0.019102 -0.154709 0.398261 0.115089 0.696217 -0.423588 -0.236669 -0.170948 -0.354399 -0.205802 0.172213 0.283904 -0.115460 0.228606 0.227174 0.090538 0.002634 0.010304 0.001927 0.293733 -0.203260 0.226524 -0.194703 0.367007 -0.807974 0.075280 0.375349 -0.390205 -0.168715 0.080912 0.419027 0.293383 0.177855 0.161955 -0.577676 -0.207326 0.254764 0.200716 -0.018721 0.445976 0.042525 0.124212 -0.003483 -0.251255 -0.158450 0.019167 -0.092028 -0.167043 0.197229 0.091243 0.106142 0.109738 -0.310907 0.060686 0.147237 -0.398655 -0.137448 0.023935 0.132133 0.044535 -0.067242 -0.171701 -0.008866 -0.429526 -0.401726 0.081181 0.216615 -0.202395 0.217859 0.274260 0.280313 0.009160 -0.093874 0.360774 0.048569 0.018682 0.042264 0.070165 -0.642554 -0.218312 0.375819 -0.142980 -0.196863 0.561247 0.576671 -0.053898 0.201511 0.585315 0.291556 0.040645 0.272123 -0.539277 -0.429893
of -0.194513 0.158812 -0.674776 1.192925 0.072581 -0.175629 -0.237661 0.219274 -0.721897 0.010437 0.573426 0.443934 0.191755 -0.058955 0.457192 -0.624089 0.064736 0.288247 0.592310 -0.734198 0.237612 -0.381049 0.230913 -0.000111 0.004271 0.326332 -0.388662 0.249131 -0.221027 0.380810 -0.370938 0.303499 0.152842 -0.076227 -0.351583 0.804989 -0.564643 -0.133515 -0.194748 -0.409979 0.446944 0.119091 0.234422 -0.375548 -0.756870 -0.088232 -0.078083 -0.112920 0.253838 0.166178 0.156107 0.293892 0.080677 0.541806 0.370098 -0.075215 0.479466 0.540480 -0.062507 -0.201751 -0.156951 -0.321911 0.074403 -0.166385 -0.389934 -0.453113 0.008065 -0.200146 0.224135 0.249607 -0.507552 0.394688 -0.303436 0.051649 0.057226 0.624586 0.515116 0.146723 -0.104134 0.198567 -0.240130 -0.228401 -0.643371 -0.066966 -0.295720 0.067221 0.249496 0.293107 0.930910 0.226289 -0.378315 -0.478664 0.064699 0.582468 1.795474 -0.075665 0.087961 -0.461327 -0.623780 -0.335084 -0.896115 0.256878 -0.259479 0.005134 0.776744 -0.054496 -0.722894 0.329546 0.162745 -0.022224 -0.200097 0.082894 0.866395 0.295532 -0.008373 0.258485 0.197061 -0.014438 0.011962 0.063481 -0.454918 0.199712 0.380167 -0.845889 -0.456431 0.272165 -0.317156 0.211580
to -0.177624 0.303450 0.224635 0.480681 0.054685 0.331897 0.652150 -0.194815 -0.934674 -0.046535 -0.029437 0.288065 0.419707 -0.411622 -0.342796 -0.286549 -0.595947 0.587329 -0.740610 0.388237 0.393101 0.102533 0.025410 0.573070 -0.547029 -0.199419 -0.062585 0.489089 -0.017442 0.596987 -0.303382 -0.055468 -0.170546 -0.649826 0.836910 -0.239480 0.109646 0.206321 -0.213582 0.293934 0.041325 -0.367788 -0.044201 -0.275391 -0.370980 0.291230 -0.308145 0.372388 -0.324340 0.233798 -0.146409 -0.251777 -0.780431 0.372231 0.873015 0.199620 0.081524 -0.163241 -0.045411 0.123528 0.286770 0.050801 -0.487160 -0.816858 -0.221620 -0.062587 0.296327 0.022720 0.415365 -0.038253 0.018647 -0.336274 -0.737329 -1.113382 -0.056010 0.553422 0.144336 -0.135643 0.127701 -0.147778 -0.206638 0.402202 -0.014459 0.498185 -0.176332 -0.192327 -0.274747 0.353212 -0.100531 0.115421 -0.779593 -0.126896 -0.313500 0.252269 0.977469 -0.259799 0.384438 -0.301288 0.224070 -0.262617 0.135565 0.401290 -0.171117 -0.128148 0.783244 0.370069 -0.236276 0.418380 0.867953 0.368834 -0.957473 -0.221538 -0.304949 -0.414263 0.363654 -0.749308 -0.483719 0.688099 0.308022 0.175887 0.622584 0.278500 0.240617 0.105778 -0.223528 -0.300880 0.267189 0.063167
a -0.221413 0.410843 0.166552 0.253223 0.189982 0.549248 -0.555009 0.118211 1.126544 -0.517330 -0.725898 -0.110867 -0.194871 0.335686 0.165903 0.000380 -0.039573 0.008575 -0.018861 0.381433 0.226355 -0.419326 -0.157219 0.006607 0.543324 -0.029310 -0.159982 0.355551 -0.410340 0.015949 0.260198 0.559881 -0.940070 0.674114 -0.582654 0.039886 0.105590 0.591666 -0.046331 0.473873 0.272819 -0.164391 0.981744 -0.221175 -0.984578 -0.410225 0.847503 -0.333934 0.020299 0.432000 -0.140850 -0.507887 -0.309338 -0.566304 -0.268847 0.345367 -0.579011 -0.494390 0.774253 -0.271646 -0.906406 0.222436 0.380703 -0.130398 0.334801 0.220113 0.412519 -0.002690 0.371460 0.232632 0.569538 -0.797743 -0.190970 0.147584 -0.009080 0.100463 -0.320710 -0.776336 0.667276 -0.109901 0.185591 0.440047 0.504127 0.251578 0.696564 0.214407 -0.489759 -0.352070 0.157277 -0.273120 -0.037819 -0.145457 -0.460500 -0.041350 -0.929370 -0.420810 0.119004 -0.012180 0.376700 0.417603 0.259341 -0.140563 -0.287777 -0.575773 -0.108105 -0.221850 0.007604 -0.383513 0.068993 -0.095822 -0.435651 0.170257 -0.030245 -0.808245 0.725663 0.137649 0.317594 0.037520 1.059395 -0.450796 0.223094 -0.652489 0.546794 -0.240631 -0.455166 0.212349 -0.201596 0.394778
in 0.524721 0.711262 -0.120638 -0.010336 -0.419816 0.162677 0.216944 0.213248 -0.135650 -0.610195 0.300443 -0.273364 0.443603 -0.624439 -0.599209 -0.198012 -0.400095 0.091529 -0.073957 -0.234074 -0.472686 0.594755 0.403654 0.058916 0.824093 -0.034898 -0.252024 -0.095096 0.232135 0.220252 -0.235602 -0.164694 0.084017 -0.111933 0.188660 -0.217086 -0.323731 0.567320 -0.467895 -0.278385 0.024196 0.248035 -0.581734 -0.195260 -0.765206 -0.349133 -0.388564 -0.555269 0.227065 0.477012 -0.064853 0.584511 0.148446 -0.198198 0.792517 -0.664720 0.556371 0.204239 0.606976 0.241306 0.076935 0.755476 -0.006302 0.251894 -0.185341 0.532595 0.732444 0.263159 0.648224 -0.472816 0.295700 0.004638 -0.271455 -0.362477 0.159231 -0.303300 0.334232 0.279370 -0.446835 0.264398 -0.614013 -0.528258 -0.240396 0.248273 -0.434487 0.273321 0.455922 -0.263995 -0.049857 -0.074739 0.100348 0.446243 0.020853 -0.217348 0.618773 0.100674 -0.009159 -0.324615 0.096968 0.162581 -0.501471 0.310235 0.319760 -0.500280 0.046303 0.276677 -0.945183 0.421906 -0.013635 0.459146 -0.523468 0.336390 -0.144204 0.616448 -0.429441 -0.343600 -0.291834 -0.211063 -0.067844 0.219672 0.503954 -0.234359 0.321071 -0.686399 0.035361 0.221659 0.033196 0.295698
i -0.593682 -0.207805 0.151448 -0.581738 0.100362 0.548611 -0.852055 0.061748 0.186430 -0.305291 0.588557 1.366631 0.922568 -0.370786 -0.511974 0.272407 0.098891 0.052697 -0.890850 0.290447 -0.359924 -0.320302 0.578770 0.620532 0.037073 0.651944 0.443199 -0.890612 0.219427 -1.107514 -0.128513 0.629977 0.205631 0.133392 0.396941 0.506961 0.146412 0.489143 0.058511 -0.269364 0.072473 -0.396069 0.169246 -0.521374 0.872034 -0.378006 -0.100373 0.451825 0.284708 0.451561 0.678179 -0.094541 -0.668995 -0.014903 -0.063416 -0.100121 -0.133702 0.093030 0.503959 -0.634673 0.054520 -0.025450 -0.040146 -0.306067 0.060312 -0.012661 -0.056269 -1.077862 -0.431368 -0.112093 0.445152 0.482104 0.193037 0.234446 -0.486565 -0.222596 0.341344 0.000225 0.281906 -0.066571 0.157481 0.233387 0.251515 -0.385487 0.151653 -0.159439 0.184296 0.488422 0.507995 -0.094586 0.141248 -0.620170 -0.221036 -0.102119 0.157080 -0.678902 -0.169115 -1.283792 0.207384 1.208268 0.314204 0.317017 0.139448 -0.125938 0.452364 0.310090 1.067231 -0.324285 -0.306622 0.653735 -0.163709 0.356460 -0.235894 0.036579 -0.321663 0.286182 -0.339973 0.221974 0.061085 0.365468 0.695949 0.365988 -0.390454 -0.042215 -0.353208 -0.048249 0.671473 0.494884
he -0.011040 -0.297622 -0.134527 -0.195589 0.246210 0.465305 -0.690373 -0.350659 0.451791 -0.408718 -0.421277 0.752378 1.153974 -0.854160 -0.336082 0.582046 0.028424 0.295650 -1.026412 0.218036 -0.441181 0.384690 0.198149 0.265080 -0.034013 0.285853 0.322835 0.021823 -0.106168 -1.328299 -0.034290 0.069713 0.385383 0.473890 0.208756 -0.290762 -0.167224 -0.302072 -0.365258 -0.568941 -0.036662 0.174331 0.355208 -0.071548 1.054458 0.153747 0.151430 -0.118358 0.091636 0.324562 0.465390 -0.053692 0.299373 0.014000 -0.200042 -0.024100 -0.505431 -0.077283 -0.113451 -0.063226 -0.212096 -0.501126 0.056312 -0.306577 -0.325752 -0.092262 -0.263315 -1.316492 0.113773 -0.900858 0.277590 0.664598 0.820500 -0.023819 -0.212586 -0.105307 0.322551 0.139849 0.428953 -0.069251 -0.228095 0.541667 -0.038692 0.497879 0.592266 -0.674119 -0.403637 0.296412 0.265324 -0.311126 0.191911 0.052016 0.071722 0.019914 0.094065 -0.045760 -0.327665 -0.708579 -0.347897 0.184070 0.482773 0.379286 0.381792 -0.199526 -0.506176 0.235762 0.035468 -0.434399 0.610548 -0.225672 -0.662121 0.224141 -0.140214 0.306380 -0.328920 0.351479 -0.208633 -0.363497 0.065502 0.011532 -0.375714 0.180209 0.055519 -0.405740 -0.490850 0.075806 0.728812 -0.162073
that 0.263029 0.408564 -0.018786 0.160967 -0.418769 0.194761 0.006596 -0.317045 -0.509165 -0.349788 -0.158119 0.569259 -0.361648 -0.134237 0.415092 0.443381 -0.816277 -0.328737 0.465308 -0.036614 0.162528 -0.602530 -0.231628 0.082793 -0.349415 -0.018075 0.383493 -0.319831 0.524506 0.134917 0.267646 0.299769 -0.315721 -0.048611 -0.641525 0.298968 0.134118 -0.385037 -0.398839 0.327218 -0.058531 -0.206298 -0.506474 -0.007128 0.405838 -0.250361 -0.008129 -0.474019 0.379120 0.089850 0.148409 -0.159648 0.414006 0.314073 -0.138321 0.164082 0.111110 0.468907 -0.100102 -0.198915 -0.467725 0.109115 0.261632 -0.082089 -0.457545 -0.203662 -0.138078 -0.070220 -0.430475 -0.291623 0.489266 0.000297 -0.500180 -0.269989 0.495986 0.024370 -0.150860 0.198789 0.186696 -0.181993 0.301107 -0.247994 -0.091558 0.118095 -0.034378 -0.131592 -0.090338 -0.037562 -0.363465 -0.033640 -0.142353 0.122945 0.232450 0.585793 -0.284158 -0.468428 0.211487 -0.427399 0.063739 -0.293892 -0.147540 0.880857 -0.942054 0.324982 -0.243913 -0.075806 -0.558319 -0.357939 0.106311 -0.262412 -0.330675 -0.423506 -0.170293 0.366269 -0.506786 0.359715 0.443109 0.034002 0.664669 0.178561 0.050591 -0.502523 -0.168500 -0.058597 0.225299 0.781504 -0.242114 -0.108480
his 0.081888 0.530918 0.174813 0.267856 -0.665289 0.066198 -1.134224 -0.373443 0.297803 0.183173 -0.240090 -0.102522 0.153542 0.989238 -0.448774 -0.680264 0.089113 0.464531 0.743892 0.309628 -0.256139 0.304048 0.081866 -0.271372 -0.015917 0.526421 0.394959 0.320567 0.143532 -0.865204 -0.272030 0.249587 0.297362 0.281046 -0.150028 0.656625 -0.012655 0.038680 0.150764 0.644908 -0.364146 -0.486607 0.937841 0.132648 -0.534590 0.306302 0.462371 -0.352090 0.169876 0.460425 -0.124424 0.203939 -0.798521 -0.709534 0.050846 0.103385 -1.099024 0.212202 0.308891 -0.194051 -0.263598 -0.035457 0.691446 0.041937 1.276255 -0.356837 -0.092162 -0.792244 -0.265393 -0.014330 0.159535 -0.210276 0.455311 0.090058 0.065942 0.567375 -0.236959 -0.322677 0.348903 -0.035186 -0.054765 0.535234 -0.662914 -0.660970 0.477245 0.058793 -0.119078 0.025947 -0.300760 0.519462 0.660740 0.096284 -0.268190 0.105991 -0.400877 -0.175958 -0.037793 -0.368556 0.599003 -0.298726 0.774436 0.025444 -0.741265 -0.016735 -0.489805 -0.179359 -0.614388 -0.652051 0.020321 0.443607 -0.186475 -0.243844 -0.151080 -0.202388 0.627582 0.060463 0.826397 0.471738 0.407822 -0.248539 0.854038 -0.369144 0.499082 0.534337 -0.111118 -0.121313 -0.267278 -0.155023
was -0.884152 -0.424991 0.168639 -0.542010 -0.068361 0.372765 0.024446 0.855249 0.677061 0.192228 0.171503 -0.372083 -0.118564 0.127657 0.234171 -0.008389 0.762330 -0.014050 -0.447921 0.206925 -0.835233 0.473526 0.233238 -0.001451 -0.366015 -0.950665 0.262833 -0.459066 0.440071 0.449016 -0.560127 0.092461 0.629309 -0.239094 -0.716325 0.025219 0.233351 -0.427035 0.289278 -1.021608 -1.135979 0.222693 -0.052776 -0.612443 -0.956419 -0.621053 -0.369227 0.060421 -0.061713 -0.582585 0.213014 0.569753 -0.465309 0.314390 -1.146132 -0.540388 0.265470 0.141233 0.115554 -0.085738 -0.614095 0.485316 -0.005747 0.706166 0.338002 -0.515916 0.466085 -0.193378 0.253778 0.711947 0.157647 -0.069345 -0.205239 -0.693607 0.890357 0.280354 0.262167 -0.739876 0.202403 0.211479 -0.151331 -0.026114 0.092114 -0.091471 -0.259085 0.535858 0.495331 -0.904706 -0.180296 0.820287 -0.422894 0.527631 0.111682 0.650709 -0.294912 -0.156355 -0.920742 0.165762 0.233578 -0.603586 -0.396772 -1.035795 -0.103609 0.120318 0.502494 -0.544254 0.186714 1.048186 0.114449 0.062072 0.155382 -0.362545 -0.051870 0.025631 -0.251529 0.254315 0.174933 0.293402 -0.532758 -0.590717 -0.981496 0.284262 0.056074 -0.004881 -0.247343 0.203720 -0.507098 -0.256680
it -0.305397 -0.187059 0.054983 0.212366 -0.677961 0.111337 -0.647795 -0.812783 0.180810 -0.181261 -0.641216 -0.058283 0.271185 0.232848 -0.009842 -0.388277 0.318058 -0.173902 -0.455895 0.359578 -0.077246 -0.137882 -0.014203 -0.280877 0.094779 -0.287809 0.497640 0.133787 1.224966 0.218663 0.051378 -0.524614 -0.213426 0.082926 0.063502 0.071393 0.428028 0.307190 0.205266 -0.169178 0.270988 -0.229798 0.013344 0.282198 1.471166 0.637822 0.542899 -0.001391 0.134830 -0.090067 -0.541830 -0.128050 0.734318 0.523777 -0.053652 0.159880 -0.223477 -0.238176 0.217632 0.356663 0.212028 -0.110049 0.460976 -0.215340 0.106119 -0.016020 -0.127925 -0.793706 0.166934 -0.746444 0.472029 0.461768 0.383673 -0.255710 -0.467717 -0.744377 -0.164556 -0.526268 0.068741 -0.466578 0.334539 0.670127 0.274587 0.094777 0.002923 0.029233 -0.388756 0.891532 0.649900 -0.123333 0.343821 0.274001 -0.213249 0.275638 -0.741440 0.245522 0.334502 -0.585077 0.489047 -0.484051 0.469846 0.763842 -0.510268 -0.097252 -0.511448 0.335051 -0.258994 0.263506 0.101916 -0.471036 -0.332883 -0.035996 -0.362501 0.601352 -0.250779 0.078904 -0.026613 -0.042341 -0.004377 -0.537270 -0.617523 -0.000257 -0.670135 -0.238278 0.186017 -0.279754 0.726371 0.081969
you -0.139597 -0.955401 -0.887552 -0.399806 0.039168 0.484169 -0.534366 -0.428347 0.292892 -0.121516 -0.221237 0.192905 0.799056 0.071551 0.126279 -0.546121 -0.170455 0.391415 -0.415403 0.342288 0.087318 -0.079085 -0.636440 0.239528 -0.049244 0.270813 0.390449 -0.935773 0.411889 -0.090278 -0.214718 0.385413 0.301374 -0.094779 0.720820 0.058395 0.783296 0.275300 0.630220 0.648986 -0.142701 -0.402747 0.081553 0.699206 0.557244 -0.052663 0.228385 -0.232846 1.022460 -0.411725 -0.080754 0.162618 0.338767 0.105030 -0.312353 -0.422503 -0.507642 0.111454 0.383931 0.001147 -0.077645 -0.285219 -0.265041 -0.450789 0.360558 0.677595 -0.402622 -0.119149 0.020512 0.430931 -0.035153 -1.077126 0.696123 0.193813 -0.210950 0.092520 -0.203077 -1.052057 0.158176 0.060260 0.572711 0.396608 0.271709 -0.009803 0.045178 -1.124621 0.573206 0.277434 1.485463 0.146697 -0.807151 0.001330 0.358983 0.583913 0.006547 0.889346 0.095925 -0.330783 0.158988 -0.189990 1.087865 0.782097 0.398619 0.380702 0.308379 -0.453872 0.968562 0.034012 0.358834 -0.234309 -0.034512 0.639618 -0.506260 0.147166 -0.296697 -0.393583 0.249510 -0.509056 0.151470 -0.367882 0.032040 0.176951 -0.703917 -0.156180 -0.401183 0.085580 0.079207 1.225871
with 0.623183 0.467161 -0.183897 0.479996 0.010504 -0.066635 -0.146051 0.614409 0.093033 -0.260335 0.338359 -0.614649 0.729575 -0.268332 0.126784 0.130685 0.190884 -0.269964 -0.340981 0.503281 0.793158 -0.118513 0.075844 0.402831 -0.272437 -0.335979 -0.046737 0.264329 0.268031 -0.793057 -0.850252 -0.361492 -0.011118 0.423060 0.397498 0.663830 0.339961 0.223541 -0.437601 0.515927 -0.651987 0.135053 -0.805300 -0.148665 -0.766202 -0.117061 -0.457003 0.810414 -0.236454 -0.600925 0.094272 0.886047 -0.105795 -0.646526 1.155383 -0.181483 -0.126308 0.446879 -0.520095 0.181045 -0.175872 0.503531 0.351057 0.055766 -0.235866 -0.605941 0.647374 -0.180256 0.132362 0.007684 0.171313 0.372926 -0.632404 -0.080636 -0.089998 0.419286 -0.501644 0.659036 -0.375040 -0.091078 -0.038607 -0.437269 -0.257443 0.783139 -0.115457 0.380235 0.187783 -0.351356 0.192659 0.501218 0.282333 0.218234 0.110645 -0.339608 0.383214 0.277945 0.479392 0.417255 -0.187977 0.331637 -0.320916 -0.198176 -0.205138 -0.029120 -0.006222 0.368385 -0.744082 -0.067131 -0.079875 -0.187947 -0.765575 -0.007133 0.992042 0.945911 -0.447132 0.201801 -0.843860 -0.122384 0.694174 0.032763 0.110008 0.641706 0.024485 -0.866262 -0.011223 0.372472 -0.273122 0.410467
is -0.671290 -0.631111 -0.096678 -0.566631 -0.244277 0.319313 0.071804 0.843203 0.399635 -0.228378 -0.133561 0.280317 0.151662 0.293041 0.172364 -0.066240 0.164389 -0.186593 -0.204537 -0.099442 -0.879773 0.159951 0.644739 0.322036 -0.446396 -0.737109 -0.181240 -0.678359 0.602319 0.412737 -0.712640 0.453585 0.184079 -0.130451 -0.886854 -0.219621 0.484019 -0.959260 0.633658 -1.005404 -0.883366 -0.358667 -0.460207 -0.440220 -1.007983 0.096487 -0.386783 0.329387 0.161582 -0.465048 0.008057 0.794464 -0.474031 -0.146607 -0.527075 -0.685424 0.002411 0.254627 0.375234 -0.259193 -0.411730 0.244461 -0.640765 0.593126 -0.070739 -0.622480 0.203520 0.291376 -0.488722 0.055551 -0.342967 -0.449023 -0.057928 -0.657608 0.454596 0.494928 0.297673 -0.505467 -0.513610 0.327411 -0.364156 -0.158723 0.643759 0.060561 -0.928480 0.391378 0.216254 -0.656357 -0.167811 1.157409 -0.673063 0.432091 -0.360082 0.152200 -0.145941 -0.166552 -1.092327 0.207287 0.678952 -0.266802 -0.400295 -0.639500 -0.093555 -0.299933 0.536897 -0.481940 -0.245849 0.366907 -0.136954 0.039062 0.413554 -0.293617 0.192967 0.023438 -0.606366 0.324943 0.848916 -0.017685 -0.452578 -0.830347 -1.077448 0.590884 -0.013116 -0.101254 -0.672730 -0.099299 -0.353338 0.254385
as -0.332309 -0.809038 0.526848 -0.054904 0.673253 -0.536900 0.552230 1.002189 -0.861046 -0.254259 0.057202 -0.144343 -0.587591 -0.418090 -0.046566 -0.228718 -0.407343 0.156198 0.428366 -0.073016 -0.231578 -0.766568 0.126868 0.554505 0.288520 0.391567 0.024441 0.139119 -0.209803 -0.138668 -0.309084 -0.148655 -0.302604 0.160641 0.146011 -0.163922 -0.069036 -0.179228 -0.917265 -0.253506 -0.074862 -0.066798 -0.372555 -0.129454 0.064981 0.209251 0.667961 0.236018 -0.017921 -0.357844 0.220101 0.125306 0.192533 0.120839 0.392899 0.067202 0.426612 -0.155339 -0.123951 0.140748 -0.606844 1.000434 0.589158 -0.143214 0.224455 0.460748 -0.268493 0.256134 -0.210697 0.041731 -0.347413 0.249841 -0.445747 -0.488516 0.004010 0.746603 0.082918 -1.013644 -0.216355 0.289761 0.458970 -0.712757 -0.655699 0.193680 0.328360 -0.101673 0.081779 -0.394750 0.060273 0.769329 0.273693 0.033851 -0.330803 -0.208232 0.186462 -0.891674 -0.477904 0.466703 -0.499469 -0.328377 0.426029 0.916670 -0.083549 0.094084 0.015369 0.417292 0.164288 -0.129147 -0.247868 -0.007282 0.174650 -0.975016 -0.446355 1.157717 0.531444 -0.354649 0.399239 -0.488389 -0.104272 0.088235 0.068369 -0.542094 0.448284 0.331386 0.117198 0.807959 0.164756 -0.030602
not -0.385370 0.235293 -0.695034 -0.191356 0.566487 0.227528 0.567184 -0.926337 0.421710 -0.523263 0.133215 -0.904147 0.762877 -0.868921 0.070337 -0.421412 -0.416910 0.856537 -0.219860 0.144080 0.091254 -0.632259 -0.202310 -0.208624 0.395930 -0.123278 -0.085978 -0.070875 0.490851 0.208959 0.406115 -0.386029 0.168665 0.155186 -0.588300 -1.279571 -0.565393 0.344386 -0.301112 0.093384 -0.472017 -0.440341 0.201804 0.173548 -0.052212 -0.006878 -0.267314 0.627223 0.486034 -0.251145 -0.346053 -0.688307 0.087679 -0.428931 -0.723312 1.139387 -0.610167 -0.250584 0.025975 -0.268515 -0.854050 0.675427 -0.354705 -0.227777 -0.262841 -0.387155 0.738049 0.080855 -0.876560 0.045874 -0.353522 -0.052811 -0.390847 0.129708 -0.764968 -0.154129 -1.042042 0.723905 -0.639617 0.009057 -0.860629 -0.907083 -0.839397 -0.351537 -0.469517 -0.375412 0.215806 0.429439 0.750795 0.059064 0.034809 -0.204646 0.344066 0.647852 -0.215994 0.326009 0.576381 -0.059326 -0.256870 -0.442732 0.273978 0.343585 -0.121099 -0.324258 -0.016495 0.004195 0.608776 0.865384 0.181760 0.217378 0.698647 -0.173142 -0.076010 1.151470 -0.039335 0.049329 -0.741006 0.327666 0.083818 -0.230425 0.139088 -0.579891 -0.161627 1.140878 -0.418713 0.033766 -0.080188 0.269896
for 0.033265 -0.035420 0.315401 0.314520 -0.244879 0.363320 0.511885 0.322372 0.172963 0.420580 0.368449 0.099210 0.122853 0.030358 0.266179 0.505535 -0.096019 0.225600 -0.370059 -0.645594 -0.029834 0.149951 -0.339327 0.488945 0.229722 0.254184 0.403821 -0.095826 0.011274 -0.051127 -0.234293 0.403863 -0.294380 0.359917 -0.115742 -0.327976 -0.035097 -0.291924 0.348322 1.130595 0.065327 -0.494948 -0.570169 0.209607 -0.844663 0.282575 -0.844723 0.461822 -0.406852 0.059875 -0.479034 -0.138894 0.297169 0.546484 0.265011 -0.248015 -0.357173 0.230505 0.368941 0.651652 -0.114421 0.183460 -0.236760 0.500912 0.264390 0.317063 0.192194 0.453513 0.171369 0.455244 0.039476 0.321567 -0.211063 -1.403126 -0.402971 0.457492 -0.185003 0.387740 -0.260143 -0.203712 0.141532 0.169315 -0.714904 0.403849 -0.003005 0.496813 0.000628 0.146109 0.421456 0.157116 -0.516350 -0.586338 0.175889 -0.070524 0.547231 0.216160 -0.688344 -0.355084 -0.512370 0.434213 -0.649677 0.320977 0.493040 -0.078775 -0.189680 0.956417 -0.702372 0.185766 0.179095 -0.498027 -0.291592 -0.313693 -0.170459 0.426336 -0.482977 -0.087415 -0.789429 -0.125531 -0.177609 0.015380 0.357211 0.452655 0.248574 -0.148642 0.331056 0.233836 -0.725325 0.053101
had -0.982587 0.666521 0.372530 0.375333 -0.648961 0.073707 0.042547 0.973817 0.275853 0.670341 0.042836 0.216760 -0.121682 -0.155484 0.282835 -0.780230 -0.258533 -0.318621 -0.560747 0.091706 -0.483776 0.366151 0.684565 0.083942 0.060655 -0.657144 0.176388 -0.073355 0.372789 -0.157793 0.160385 0.465850 -0.471621 0.044287 0.531520 -0.443766 -0.532198 0.161569 -0.082496 -0.017649 -0.492816 0.095509 -0.472263 -0.052513 -1.165460 0.237666 -0.373827 -0.652777 -0.910748 -0.235965 -0.283734 0.829378 -0.946475 0.063710 -0.794342 0.310166 0.602635 -1.009005 0.401024 0.049852 0.104508 -0.226987 -0.182722 1.397042 -0.214155 -0.340952 0.231806 -0.477332 -0.495699 0.186098 -0.009416 0.297456 -0.061807 0.100016 1.012133 0.254938 0.360858 -0.040470 0.106350 -0.585706 0.848486 -0.053180 -0.368474 -0.553446 0.321546 0.681004 -0.396612 -0.711277 0.756263 0.942099 -0.237860 0.603245 0.667916 0.002497 -0.190829 -0.222376 -0.132403 0.402942 -0.728807 0.010930 -0.066819 -0.424850 -0.593465 0.011846 0.282077 -1.060902 0.802158 -0.103197 0.349661 -0.841382 -0.051100 -0.038732 0.535969 -0.140915 -0.133007 -0.212124 -0.646346 -0.293215 -0.497110 0.228240 -1.653513 0.308046 -0.263203 0.439171 1.487458 0.371986 0.528022 -0.536131
but -0.476008 -0.177069 -0.231098 0.161464 0.466336 -0.354668 0.100953 -0.024435 -0.164508 -0.612358 0.179348 0.423168 -0.272893 0.066172 -0.005970 0.868299 0.346014 -0.256289 -0.372826 -0.277380 -0.036468 -0.250514 -0.177331 0.607022 0.142011 -0.081148 0.255508 -0.012375 -0.164335 -0.004099 -0.103441 0.160052 -0.370491 -0.218699 -0.311314 -0.432964 0.018732 0.132284 0.067595 0.265205 0.002359 0.017380 -0.138921 -0.285905 0.251501 0.573056 0.034640 -0.398767 -0.052757 0.056667 0.920954 0.328041 0.403441 0.062948 0.180639 -0.398486 0.107548 -0.144806 0.113637 0.147203 -0.316206 0.956759 -0.587246 0.104868 -0.079809 0.012807 0.349584 0.322771 0.336876 0.232720 -0.325923 0.068840 0.054495 -0.471491 0.665386 0.150557 -0.309474 0.797901 0.375791 -0.087773 0.430796 0.157569 -0.162540 0.035538 -0.038418 -0.578824 0.109568 -0.450710 0.158193 0.148937 0.088885 -0.283229 -0.057502 0.016180 -0.230550 0.014751 0.244132 -0.310706 -0.691971 0.004179 -0.251121 0.039338 0.248530 0.109673 0.104797 0.148403 0.009114 -0.232528 -0.341203 -0.390059 0.164912 -0.022450 -0.293976 0.222729 -0.152871 -0.191814 0.580096 -0.025476 0.152857 0.373623 0.101586 -0.235875 0.374079 0.414597 0.523080 0.171219 -0.313011 -0.701101
at 0.184889 0.174258 0.180265 1.369232 -0.524522 -0.465941 0.077052 -0.759140 -0.607522 0.318607 0.562798 -0.272157 1.286730 0.024507 0.273604 -1.067545 -0.162769 0.051485 -0.905476 -0.264985 -0.071730 0.130366 -1.014488 0.220589 1.332663 -0.113550 0.453475 0.319005 0.313747 -0.394565 -0.277073 -0.121166 0.879669 -0.132685 0.025002 0.172000 -0.783675 0.407859 -0.631483 -0.114013 -1.229133 0.617007 -0.745371 0.161031 -0.208340 -0.301912 -0.024475 0.055300 0.183942 1.333985 -0.160892 -0.304652 0.514444 0.010569 0.240652 0.269521 0.027586 0.069885 -0.387223 0.686571 -0.274053 0.110651 0.155376 0.346845 -0.507705 -0.387736 -0.429552 0.333554 0.725335 0.353266 0.033576 0.499757 -1.089770 -0.765587 -0.141046 0.066381 -0.128584 0.525523 -0.327267 -0.399889 0.729637 -0.767159 0.589052 -0.201438 0.406684 0.118268 -0.181408 -0.946626 -0.354005 0.444799 -0.481002 -0.270586 -0.431581 -0.601159 0.515794 -0.168028 -0.703989 0.026969 -0.125547 0.606099 0.329333 -0.008245 -0.346073 -0.372777 0.826330 0.550994 -0.283045 0.139189 0.086330 0.075345 0.457896 0.754473 -0.251003 0.418711 -0.417040 -0.577317 -0.878828 0.410545 -0.169483 -0.684463 0.379775 0.118316 0.395208 -0.551021 -0.350367 -0.269786 -0.831405 -0.032756
be -0.335006 -0.737444 -0.291746 -1.274932 -0.685011 -0.077040 0.677246 0.632349 0.729305 0.055624 -0.168335 0.278640 0.114180 -0.006851 -0.322552 -0.008398 -0.491161 -1.002025 -0.118384 -0.035272 -0.193014 0.423352 -0.038524 -0.480342 -1.027698 0.232081 0.119262 0.050240 -0.858747 0.771871 0.207612 -0.666705 -0.200648 0.362891 0.710171 0.179072 0.033375 0.015568 1.094118 -0.553084 -0.607713 -0.370130 0.649607 -0.481451 -0.014517 -0.717197 1.265009 -1.196666 0.757457 -0.191252 -0.321353 0.075625 0.516530 -0.106933 0.059616 0.605256 -0.406531 0.132632 1.140444 -0.534886 -0.357777 0.531739 -0.263903 0.329442 -0.099626 -0.323968 -0.414466 0.213288 -0.275494 1.114637 -1.000520 -0.081984 1.590773 -0.873237 0.139389 0.294184 0.186067 0.615764 -0.057164 -0.012501 0.459163 -0.841248 0.251815 0.238224 0.354678 -0.233159 -0.657183 -0.217634 -0.643647 0.697664 -0.756105 0.632682 0.438793 -0.243078 -0.880933 0.121894 0.546158 -0.710788 0.375682 0.590717 0.506766 -0.263464 -1.094212 0.355329 -0.965394 0.165530 -0.050302 1.063384 -0.085102 0.455661 1.042943 0.237558 0.320007 1.379596 -1.302620 1.396182 0.778787 -0.520786 -0.720506 -0.166863 -0.275510 1.345917 -0.273767 -1.395194 -1.029736 0.354143 -0.316461 0.312128
on 0.226338 0.069911 -0.236280 0.306552 -1.204473 0.200935 -0.155678 -0.071480 -0.420057 -0.472949 0.443157 -0.851314 0.328716 0.208832 -0.079067 -0.290202 0.177054 0.250068 -0.535633 0.137181 0.595565 0.183927 0.028511 1.044604 0.985493 0.069717 -0.304436 -0.412769 0.204856 0.161658 -0.865889 -0.393636 -0.652234 0.240416 0.366989 -0.082775 -0.158278 -0.614076 -0.627080 -0.874540 -0.245771 0.744980 0.010182 -0.343109 -0.719929 -0.271018 -0.459210 0.165616 0.832926 0.431819 -0.219909 -0.074506 -0.261643 1.198929 1.372510 -0.083735 0.040562 0.333890 0.035001 0.002306 0.071483 0.393681 -0.288175 0.466169 -0.826771 0.296239 0.356726 0.153801 0.390491 0.210426 -0.359118 0.402857 0.960533 -0.304070 0.507669 0.195244 -0.266057 0.246865 -0.019326 -0.145864 0.386811 -0.639481 0.259898 0.051252 0.069412 0.640972 -0.682076 -0.624752 0.083098 0.055699 0.590227 -0.194810 0.275534 -0.089730 0.571758 0.947313 0.125320 0.318745 -0.293976 0.343996 -0.332270 0.097515 -0.163422 -0.331112 0.625190 0.175876 -0.646108 -0.572903 0.766206 0.895462 0.420024 -0.399421 -0.277557 0.417552 -0.146440 -0.900450 -0.214870 0.792367 -0.267218 1.217055 -0.173702 -0.044749 0.627237 -0.197682 -0.341196 -0.302164 0.269434 0.482711
her 0.149144 0.107461 0.081258 0.270289 -0.600000 -0.356112 -1.224092 -0.175926 -0.306110 0.369951 -0.067984 -0.184007 0.259331 0.504402 -0.084317 -0.652161 0.120348 0.211185 0.021053 0.415788 0.432882 -0.028818 -0.175410 -0.231517 -0.365608 0.541973 0.545804 0.389650 0.769811 -0.195298 0.042369 0.478481 0.183912 0.591685 0.210888 0.249619 0.072275 -0.076481 0.075847 -0.017801 0.147321 -0.229617 0.668743 0.210572 -0.102387 0.338383 0.902799 0.219731 0.458540 0.582464 -0.497584 0.280363 -0.466695 -0.973254 -0.238815 0.402178 -1.301650 -0.338268 0.189090 0.267485 -0.012898 -0.040989 0.007785 -0.440544 1.083515 -0.259803 0.216267 -0.249109 0.079510 0.423898 0.642145 -0.242039 0.319527 0.523241 0.291950 0.763104 0.050790 -0.454280 0.382201 0.131799 -0.154696 -0.006528 -0.803915 -0.550622 0.533288 0.078332 0.373054 0.129860 0.227718 -0.456763 0.386307 0.102485 0.065007 0.322313 -1.164957 0.029368 -0.360594 -0.195535 1.009403 -0.267332 0.511475 -0.470079 -0.537813 0.168360 -0.417959 -0.397852 -0.258344 -0.264627 -0.052755 0.155523 -0.022214 -0.165453 0.020135 0.369059 0.445692 -0.197201 0.898210 0.227411 0.014513 -0.178862 0.542539 0.126378 -0.280682 0.293288 0.220264 0.375246 -0.185138 -0.556985
my -0.233767 0.909207 0.493319 0.297645 -0.826142 -0.419213 -1.287691 -0.080605 -0.366232 0.431391 -0.006987 -0.094265 0.179471 0.637110 -0.756582 -0.379859 0.179717 0.060275 0.557863 0.536847 -0.040947 -0.181234 -0.028096 -0.145096 0.157918 0.441585 0.158432 0.009598 0.002290 -0.607309 -0.329087 -0.218896 0.107802 0.328897 -0.018716 0.057651 0.412212 -0.131150 0.828506 0.955455 0.027496 -0.509396 1.255824 0.239950 -0.548777 0.974400 0.281309 -0.462769 0.384830 0.917265 -0.060862 0.285443 -0.268261 -0.697943 -0.315376 -0.056305 -0.862512 0.028752 0.365581 0.451281 -0.339889 -0.131272 0.705566 -0.301708 0.896460 -0.462895 0.198079 -0.356512 -0.328958 0.221764 -0.018267 -0.458277 0.540109 0.651655 0.136831 0.325651 -0.102041 -0.039033 0.371208 0.081368 0.328889 0.381215 -0.174883 -0.493459 0.441383 -0.321013 0.205559 0.138376 0.063108 -0.141141 0.546567 0.402456 -0.009240 0.090371 -0.319716 -0.150613 -0.543656 -0.563855 0.196332 -0.542408 0.902664 0.309366 -0.765148 -0.742580 -0.253734 -0.183355 -0.474773 0.011261 -0.205179 0.403408 -0.403024 -0.239077 0.007428 -0.250010 0.360469 0.090554 0.673838 1.014754 0.700920 -0.435543 0.861232 -0.294983 0.406833 0.754711 -0.021255 -0.281242 -0.769847 -0.293460
him -0.215504 -0.707951 0.095726 -0.253483 -0.905779 0.227734 -0.400010 -0.137872 0.237937 0.233692 0.125717 -0.349771 0.219704 0.269898 0.879169 0.178071 -0.227075 -0.166579 -0.269048 -0.516900 0.111959 -0.280481 -0.336175 -0.662285 -0.863221 -0.434303 0.179051 -0.061314 0.531716 -0.091082 -0.092022 -0.443735 0.373784 0.278716 0.697859 0.046200 -0.302237 -0.141967 0.162369 -0.801725 0.795158 0.334301 -0.044983 -0.086649 1.095899 0.235874 0.627306 0.085444 0.490097 -0.008900 -0.639174 0.122092 0.194140 -0.175642 -0.110634 0.426178 -0.773555 -0.480701 -0.055633 0.282990 -0.579850 -0.333339 -0.644168 -0.735380 0.807509 0.218535 0.165470 -0.184832 0.061274 0.451627 0.840062 -0.107260 0.451845 -0.053690 0.097603 0.339216 0.290045 -0.088904 0.096565 -0.005094 -0.422492 0.647339 -0.420947 -0.672777 0.331345 0.878538 0.203524 0.168972 0.133333 0.088688 0.569520 0.280939 -0.027220 0.242296 -0.775698 -0.252315 0.174066 0.251552 0.926729 -0.111785 0.083376 -0.572402 -0.053246 0.352174 -0.315504 -0.140125 0.769688 0.446191 0.827446 -0.034503 0.305265 0.219361 -0.296453 0.322458 0.112732 -1.107326 0.432439 -0.558031 -0.129026 -0.599082 -0.042370 -0.289386 -0.218383 0.124278 0.131300 0.696907 -0.067788 0.526871
have -0.349820 0.685634 -0.037230 -0.782368 0.032796 -0.085898 -0.489499 1.274367 -0.557482 1.184075 -0.260819 0.453972 0.234791 -0.123008 -0.192253 -0.648295 -0.315448 -0.703291 0.015606 0.000079 0.104264 0.742716 0.832473 0.697615 -0.569340 -0.525656 -0.154089 -0.085939 0.018980 0.364328 0.289510 -0.438248 -0.529031 0.192276 0.919040 -0.356442 -0.910794 0.618881 0.504137 0.112375 0.357695 -0.188980 0.953369 -0.069823 -1.271071 0.673280 0.423258 -1.081787 -0.406497 0.298000 0.102834 -0.037518 0.649178 0.747455 0.138852 1.789176 0.104798 -0.257083 0.473709 -0.143106 -0.297110 -0.356643 0.088874 2.028918 -0.475235 -0.492218 -0.459889 0.032251 -0.401877 1.285839 -0.918188 -0.224451 0.950433 0.417609 0.829762 0.150342 0.873169 -0.079806 -0.487394 -1.050923 1.316422 -1.241443 -0.192091 -0.271737 -0.040668 -0.055175 0.437090 0.138526 -0.786383 0.903650 0.349221 0.529610 0.372810 -0.414884 -1.070833 -0.467458 0.593715 0.294206 0.017435 0.250141 0.285196 0.239236 0.221215 0.208646 -0.949426 -0.303204 0.556769 0.474166 0.436276 -0.257439 0.452753 0.446054 0.587520 0.944766 -1.182612 0.946091 -1.313267 -0.019713 0.055878 0.041059 -1.441529 1.171034 0.301165 -0.276129 0.399609 0.686534 0.215233 -0.598652
by -0.012225 0.786054 -0.355262 0.185803 -0.357208 0.196066 0.928987 0.351793 -0.446420 -0.370110 0.285378 -0.856314 -0.599272 -0.595661 0.289459 0.338897 -0.455334 -0.795246 0.051190 -0.209348 0.671372 0.332320 0.422815 0.948721 0.215414 -0.734675 -0.257167 -0.016811 0.413199 -0.703688 0.345527 0.325098 0.681917 -0.093251 0.629130 0.927776 -0.028711 0.565028 -0.465090 0.117199 0.224444 0.603522 -0.950278 -0.304594 -1.194670 -0.564339 0.190813 0.442214 0.370938 1.049313 -0.151984 0.400029 0.575007 0.338996 0.562207 0.176749 0.265640 0.034686 -0.056243 0.464358 -0.614494 -0.012394 -0.475638 -0.253942 0.576011 -0.109764 1.037732 -0.553971 -0.867740 -0.201782 0.196748 0.460782 0.214582 -0.692862 -0.201548 0.701914 -0.267246 0.027343 -0.476885 -0.711100 0.036610 -0.585560 -0.187935 0.149574 0.294086 -0.162727 0.144159 0.191448 0.202325 0.365654 -0.186699 0.740284 -0.216654 -0.052587 1.019264 0.563748 -0.936759 0.008964 -0.181884 0.077133 0.062804 0.192241 0.079477 -0.218589 -0.021439 1.062622 0.224798 -0.355424 0.105588 0.303691 -0.701085 -0.389562 0.314756 0.475669 -0.272803 -0.755316 -0.247728 0.129394 0.147363 0.487980 0.296232 0.311452 0.774578 -0.400189 -0.092143 0.081426 0.160590 0.070626
this -0.481083 0.337209 0.271670 0.688510 -0.314714 0.168433 -0.170128 -0.257665 -0.160881 -0.194709 -0.687988 -0.140652 -0.198580 0.017425 0.334053 -0.037418 -0.391688 -0.197638 -0.636247 -0.008039 0.263816 -0.700643 -0.617202 0.087017 -0.546234 0.657692 0.387673 -0.356898 0.279058 0.028390 0.220788 -0.566651 -0.396428 0.141523 -0.194653 0.625562 0.422804 -0.496576 -0.198488 0.228727 0.520143 -0.470262 0.430055 0.342772 0.049946 0.243286 -0.002780 -0.460794 0.565481 0.096704 0.022955 -0.364293 -0.142601 0.164612 -0.417116 -0.139935 -0.092509 -0.729940 0.376895 0.238942 -0.583625 0.098873 0.523443 -0.267002 -0.105023 -0.933236 0.389791 -0.367934 -0.472544 -0.238465 0.000624 -0.065358 0.155443 -0.112232 0.849975 -0.464559 0.489406 -0.917072 0.319577 -0.013038 0.178747 0.162800 0.501232 -0.004088 -0.178936 0.250602 -0.138268 0.222516 0.096209 -0.739519 0.547557 -0.298745 -0.140580 0.149050 -0.544589 0.226214 -0.578654 -0.063790 0.585819 -0.000614 0.716481 0.566684 -0.080307 -0.706075 -0.350378 0.223661 -1.044888 -0.573454 -0.007190 -0.409071 -0.758107 0.532084 0.060322 -0.323153 -0.158979 0.922981 0.373135 0.275076 0.839779 -0.645903 -0.153253 -0.610288 -0.863549 0.469651 -0.049378 0.335356 0.378191 -0.040212
which 0.280553 0.610703 0.943526 0.425431 -0.350724 -0.027188 0.782154 -0.240159 -0.062253 -0.592154 -0.483129 0.606989 0.253121 0.567716 -0.017126 1.292751 0.054832 -0.478414 0.531490 0.290859 -0.402361 -0.288167 -0.466940 -0.083209 -0.382889 0.363367 0.271320 -0.303975 0.218057 0.713103 0.012237 -0.402783 0.352055 -0.232728 -0.322663 0.642965 -0.195439 -0.116939 0.705768 0.544514 0.340163 -0.099773 0.931151 0.060862 0.496492 -0.142786 0.406223 -0.425615 -0.108398 -0.730298 0.272761 -0.315551 -0.307126 0.821589 0.327239 -0.571516 0.331717 -0.122535 -0.199193 0.073354 -0.832883 0.392723 -0.317993 -0.302253 0.051479 0.348615 -0.714118 -0.864314 -0.066072 -0.204854 -0.284470 -0.342457 -0.172034 0.214647 0.849856 -0.521838 -0.530935 0.006865 -0.306082 -0.673943 0.716184 -0.926006 -0.329125 -1.013045 0.036078 -0.277490 0.142743 0.293333 0.371557 0.067003 0.367597 0.396998 -0.070172 0.086257 -0.043046 -0.267498 0.159685 0.208869 -0.707907 -0.366158 -0.872913 0.692483 -0.933824 0.280437 -0.398310 0.328517 0.053997 -0.069385 -0.013780 -0.815392 -0.188025 -0.000262 -0.143374 -0.134551 0.085468 0.234404 0.120550 -0.483598 -0.241291 0.624840 0.650774 -0.493059 0.407608 0.378043 0.082795 0.147853 -0.009587 -0.240961
me -0.118907 -0.601650 0.130040 -0.413231 -0.977285 -0.389287 -0.838654 0.160019 0.109301 -0.092713 -0.208036 0.113027 0.120161 0.428096 0.919152 0.033240 -0.278854 -0.369727 -0.006275 -0.203496 0.365038 -0.435697 0.125140 -0.634625 -0.993548 -0.324698 0.490633 -0.301475 0.438020 0.039986 -0.072060 0.002357 0.852024 0.536767 0.634442 -0.278946 -0.472660 -0.329415 0.457538 -0.594870 1.195702 -0.675822 -0.143053 0.500898 0.942209 0.909798 0.358606 0.217444 0.677331 0.202667 -0.244699 -0.281330 -0.203898 -0.134219 -0.156125 0.096215 -0.844478 -0.470061 -0.152175 0.349170 -0.088179 0.135462 -0.927288 -0.812779 0.385762 0.056742 -0.081009 -0.213987 0.314834 0.203597 0.513906 -0.199328 0.310570 -0.288543 -0.155224 0.716287 0.543550 -0.335983 0.084724 -0.000699 -0.570579 0.119597 0.504994 -0.500423 0.097432 0.666808 0.325280 0.047497 -0.298452 0.080071 1.128015 0.201905 0.296313 0.354990 -0.598469 -0.309742 0.057377 -0.192142 0.678916 -0.417857 -0.441106 -0.725493 0.023898 0.497742 -0.379911 -0.288630 0.906152 0.436790 0.709349 0.170979 0.739163 0.020555 -0.276822 0.475449 0.144105 -1.160037 0.487644 -0.545376 0.161754 -0.659282 -0.116786 0.006991 0.209098 0.027647 -0.131774 1.129006 0.183159 0.579014
all 0.213471 -0.059035 0.956416 -0.464654 0.099489 0.514941 -0.249517 0.497682 -0.531400 -0.148637 0.277013 -0.299180 0.227571 0.405949 0.252414 0.437373 -0.482324 0.052643 -0.062769 -0.685540 0.113277 0.001948 0.420847 -0.305241 1.078475 -0.212039 -0.435649 0.315845 0.218138 -0.163349 -0.490022 -0.648395 0.947581 -0.477083 -0.452739 -0.368599 -0.799363 -0.864134 0.302589 0.169145 -0.006896 -0.178912 0.912551 -0.207578 0.397713 -0.221309 0.446947 -0.203646 0.003550 -0.885445 -0.403665 -0.164567 0.548911 0.331628 -0.062465 -0.766002 -0.121537 0.593826 0.646506 0.958652 -0.183487 -0.315767 -0.284701 -0.273701 0.116022 0.298896 0.098491 0.793055 0.074309 -0.567733 -0.316238 0.258384 0.338534 -0.127819 0.251662 0.031972 -0.281240 0.344180 -0.187317 -0.186377 0.861064 0.756852 -0.398905 0.770370 0.121182 -0.132249 0.130882 0.804984 0.461808 -0.243536 0.630516 -0.820413 -0.742740 0.639380 -0.332848 0.065118 0.053938 0.522869 0.491642 0.273694 0.120864 -0.686374 0.219163 -0.318235 -0.021604 -0.178251 0.274183 0.286958 -0.041659 0.227075 -0.233023 -0.843339 0.040033 0.690003 -0.233907 0.031052 0.095763 -0.640612 -0.113132 0.789319 0.734443 0.381912 -0.045179 0.126856 0.189131 0.687665 0.981371 -0.151710
said 0.254015 0.301018 0.448194 -0.133538 0.389609 0.307670 0.583878 -0.408298 -0.155771 0.749382 0.413077 0.187144 -0.718855 0.095116 -0.454787 -0.315589 0.245725 0.165038 0.067517 -0.112838 -0.712014 -0.248755 -0.452180 0.030937 0.199790 0.921569 -0.276677 -0.101214 0.661188 -0.132469 0.052842 -0.325548 1.252379 -0.423814 -0.342271 0.319993 0.588455 -0.145179 0.203417 0.159609 -0.431289 0.015163 0.227776 0.004815 -0.729896 0.180635 -0.378912 0.427620 1.622357 -0.255139 -0.816653 0.040440 -0.132124 0.694709 0.886909 -0.232771 0.952037 0.554769 -0.058598 -0.245701 -0.614032 0.086392 -0.100714 -0.061580 -0.718752 0.412110 0.173249 0.282539 0.240827 0.778714 0.251665 -0.259460 -0.781779 -0.307096 0.274671 -0.058745 -0.310777 0.816130 -0.135051 0.504823 0.958802 0.792026 -0.532147 -0.417219 -0.764267 0.786754 -0.261686 -0.683800 0.162391 1.211489 -0.781473 0.109103 -0.403115 -0.747497 -0.697797 0.486226 0.598170 -0.198811 -1.621562 -0.711654 -0.784944 -0.386752 0.599080 0.309200 -0.202818 -0.337560 -0.025602 0.063394 -0.193190 -1.150920 0.871599 -0.780878 -0.043569 -0.618189 0.504712 -1.145599 0.539492 0.130762 -0.179495 -0.600073 -0.463287 -0.285895 0.331879 -0.107623 -0.060994 0.885798 0.581040 -0.259323
she 0.221882 -0.360900 -0.234910 -0.223351 0.093970 0.449534 -0.446376 -0.308709 0.148410 -0.446382 -0.205736 0.980768 1.060436 -0.763677 -0.771841 0.563169 -0.074358 0.414672 -0.983357 0.041089 -0.169984 0.525435 -0.069777 0.317324 0.431062 0.130550 0.475492 0.224339 0.089283 -1.333519 -0.110263 -0.080939 0.221075 1.021416 0.272992 -0.799101 -0.006391 -0.367557 -0.061947 -0.413929 -0.194354 0.250688 0.559158 0.047923 0.961589 0.242147 0.132707 -0.067596 0.199488 0.267613 0.600732 0.018217 0.529528 -0.326417 -0.499015 -0.129415 -0.460436 -0.059042 -0.199246 -0.147075 -0.029604 -0.635852 0.173518 -0.235272 -0.374472 -0.170188 -0.163187 -1.351939 0.519601 -0.629840 0.465359 0.949474 0.479452 -0.192664 -0.411505 0.260297 0.273364 0.126384 0.453298 -0.030622 -0.100129 0.391772 -0.125504 0.195506 0.562199 -0.511383 -0.227343 0.219031 0.421738 -0.349067 -0.094619 0.142395 0.033902 0.236223 0.052781 0.048177 -0.334358 -0.765281 -0.279030 0.187358 0.403534 0.417504 0.138396 -0.397209 -0.542412 0.136941 0.555058 -0.253409 0.460328 -0.555286 -0.724086 0.311188 -0.293354 0.417498 -0.206778 0.437036 -0.055346 -0.159857 -0.043649 0.213332 -0.387995 0.453787 -0.041062 -0.224417 -0.466452 0.025802 0.903649 -0.418757
from -0.359121 -0.335247 -0.414966 0.262394 -0.600580 0.040344 -0.588711 0.333825 -0.026184 -0.879129 0.450306 -0.319438 0.088917 0.383848 0.669013 -0.262391 -0.432609 -0.418995 -0.250487 -0.109550 0.007002 0.435753 0.352708 0.025099 1.017648 -0.200719 -0.296715 -0.001242 -0.247283 0.021092 -1.180945 0.376777 0.457461 0.468188 1.399211 -0.345412 -0.220400 -0.579840 -0.452918 -0.555215 -0.283356 0.327484 -0.415842 -0.421500 -1.470699 -0.439380 -0.678325 0.454818 0.665780 -0.273115 -0.341399 0.207967 -0.173061 0.199435 1.178419 -0.068336 -0.599153 0.328859 0.073641 -0.393866 -0.117276 0.039489 0.009847 0.368356 -0.423562 -0.021454 0.491769 0.261482 -0.394955 -0.155667 0.359576 0.759850 -0.216189 -0.025108 -0.306709 -0.396367 0.136464 1.108012 -0.103616 -0.464434 0.368741 -0.727126 0.423295 0.041616 0.103673 -0.341891 0.338971 0.720688 -0.269432 0.368373 -0.846968 0.114226 -0.473441 0.309032 0.418504 0.639647 -0.084166 0.329556 -1.183532 -0.604724 0.617141 0.307036 0.403327 0.087977 0.001705 0.502753 -0.321526 0.501825 -0.491774 0.200093 -0.817964 0.396846 0.087062 0.133281 -0.122768 -0.262391 -0.798979 -0.123970 -0.033762 0.353626 -0.110625 -0.996616 0.378554 -0.263061 -0.001834 0.394031 -0.229011 0.254355
or 0.284152 -0.071504 -0.782803 0.287507 -0.134614 0.480843 -0.059593 -0.211953 0.107186 -0.897191 0.227704 -0.013954 0.260252 0.944697 0.091865 -0.239635 -0.010760 0.405934 0.030826 -0.467614 1.143669 0.169213 1.079250 -0.036986 -1.020999 0.758291 -0.024333 0.254690 -0.296843 0.077007 -0.493796 0.069606 0.948018 0.360815 -0.081680 -0.523411 0.967228 -0.136432 -0.175289 0.503825 -0.379611 -0.127273 -0.524288 -0.210705 0.231649 0.489635 -0.328626 -1.053761 0.106680 0.596752 0.548732 1.219657 0.360581 0.477747 -0.211231 -0.102591 -0.272492 -0.332023 -0.008512 -0.888785 -0.063133 1.090668 -0.473164 -0.379203 1.645926 0.148176 1.004035 0.725502 0.625813 0.122753 -0.621945 -0.885906 0.094914 -0.741017 -0.315239 0.665980 -0.468036 -0.112284 -0.593496 -0.390831 -0.565203 0.102310 -0.004504 -0.587976 -0.404679 -0.061061 -0.622504 -0.097849 0.305740 0.371918 -0.052253 0.567977 0.055680 -0.152743 0.907598 -0.524060 0.033594 0.791784 -1.055505 0.369608 0.314528 0.648858 0.018040 0.144594 0.090227 -0.036043 0.333376 0.175329 -0.036155 0.176636 -0.060939 0.373708 0.846068 -0.038789 -0.060802 0.939396 -0.424340 -0.022717 0.430524 0.650013 -0.383704 -0.220431 -0.099960 0.787985 0.588329 -0.177209 -0.303866 -0.676382
they -0.026752 -0.678767 -0.507670 -0.129533 -0.004857 1.017207 0.126092 0.101902 0.264564 -0.991959 0.003337 0.541989 1.233105 -1.028138 -0.600443 -0.027789 0.078559 0.742309 -0.717990 -0.056719 -0.735756 0.145526 -0.263813 0.500226 -0.197104 0.147852 0.774985 -0.010872 -0.093611 -1.016288 -0.328868 0.361238 0.368524 -0.176286 0.439537 0.103926 0.062195 0.672929 -0.028196 0.134431 0.058923 0.215831 -0.070186 0.340108 0.896147 -0.076396 0.104580 -0.225533 -0.140753 -0.048747 0.469273 0.004383 0.261099 -0.433605 -0.035984 -0.426342 -0.519622 0.338238 -0.234940 -0.647030 0.387046 -0.612567 -0.178342 0.048129 -0.491455 0.510979 -0.301439 -0.840886 0.213729 -0.469845 0.423062 0.106145 1.369673 -0.039277 0.141820 -0.159562 0.263961 -0.310859 0.799228 -0.201452 0.812781 0.205867 -0.634363 -0.225493 -0.307943 -0.707079 0.326513 0.148525 0.847563 -0.116111 -0.037769 -0.153827 0.085176 -0.005638 0.602567 0.194401 -0.020556 -0.369649 0.247273 0.613998 1.394068 0.484279 -0.237302 -0.128366 -0.252692 0.147140 0.355401 -0.223305 -0.201903 0.501637 0.055501 0.494707 -0.143619 -0.232363 0.515064 0.318578 -0.359348 -0.289384 -0.073418 -0.908174 -0.148276 0.608185 0.365832 -0.003236 -0.298216 -0.018859 0.894063 0.551513
so -0.828356 -0.228859 0.127400 -0.175101 0.936908 -0.359295 0.185732 0.675614 -0.508354 0.318463 0.339024 -0.586275 -0.363452 -0.039900 -0.539394 0.342775 0.070920 0.131671 -0.581252 0.280432 -0.495412 -0.626064 -0.853919 0.707998 0.410985 -0.422826 -0.206581 -0.184106 0.180978 -0.156043 -0.243231 0.076143 -0.179387 -0.000580 0.440790 0.368935 -1.077543 0.222419 -0.256135 -0.058410 0.861299 0.310097 0.308229 0.547991 -0.201002 -0.199137 0.357168 -0.279846 -0.186923 -0.104671 -0.214257 -0.111616 -0.241381 0.391679 0.139019 0.146556 0.543574 -0.770318 -0.244943 0.207004 -0.320286 0.533338 -0.212176 0.017619 -0.030503 0.316244 -0.720144 0.212276 -0.113870 0.312541 0.092148 0.611678 0.401814 -0.028158 -0.108648 0.202055 -0.669584 -0.267544 -0.233459 0.785830 -0.784754 0.208430 -0.177397 0.227786 0.293297 -0.095367 0.153606 -0.084516 0.692119 -0.280092 0.396484 0.361299 -0.315756 -0.290868 0.229961 -0.057858 -0.116220 0.390871 -0.241074 0.023712 0.941650 -0.329348 -0.335202 -0.850563 -0.462578 1.529116 -0.134301 0.520827 -0.342807 0.032385 -0.380185 -0.834070 0.262813 0.286814 0.041790 0.135951 0.349595 -0.258671 -0.306319 -0.412641 -0.259814 -0.101752 0.302108 0.730794 0.444310 0.319164 0.335873 0.396960
are -0.654108 0.470208 1.383460 -0.054114 0.051334 -0.018442 -0.908875 0.577688 0.029179 -0.108263 0.864250 0.264521 -0.640974 0.343950 0.149594 -0.154004 0.138553 -0.077551 -0.115652 0.569540 -0.365444 -0.187734 0.425630 -0.134926 -1.535097 -0.236334 0.224073 0.018258 -0.638357 0.195458 -0.006259 0.048330 -0.565254 0.418973 -0.832715 -0.052646 -0.046210 0.175442 0.992448 -1.210187 -1.458678 0.004941 0.021124 -0.342539 -2.167787 0.394853 -0.009931 -0.203019 -0.421773 -1.264684 0.606257 0.092926 1.049000 0.607980 -0.567841 -0.802397 0.286780 0.184066 -0.176613 -0.069277 0.449612 -0.257246 -1.085784 -0.001416 -0.703773 -0.462598 -0.624051 -0.142479 -0.353215 0.196005 -0.327325 -0.456188 0.506349 -0.682032 -0.231933 0.328357 0.916353 0.436108 -0.838293 -1.296541 -0.753019 -0.864384 1.000172 0.275218 0.031952 0.355514 -0.253939 -0.994071 -0.471664 -0.083549 0.374873 0.838213 -0.296218 0.070850 -1.054363 0.226411 -1.191156 -0.189243 1.345856 -0.683466 0.617146 0.198747 0.571311 -0.028451 0.123727 -0.164087 -0.186839 0.084116 -0.340980 0.236972 0.710604 -1.146285 0.959720 0.474777 -0.052717 0.117651 -0.542527 0.705682 0.042811 -0.357479 -1.325126 0.343811 0.632187 -1.091831 0.051950 0.473271 0.031496 -0.003514
one -0.170006 -0.404102 0.501297 -0.027132 0.061074 0.133731 0.246716 -0.732914 -0.700452 -0.528259 -1.053293 0.184741 0.238741 0.297235 0.275080 1.193610 -0.184195 -0.288392 1.001259 0.316434 0.777976 0.333555 -0.658713 0.020449 0.156700 0.839010 -0.442650 -0.065746 1.478118 -0.137489 0.265957 0.108207 0.536863 -0.176362 -0.289012 -0.104177 0.161812 0.057619 -0.675405 0.012265 0.396555 0.019130 0.187775 -0.880619 -0.291514 0.085347 -0.556523 -0.237581 -1.060954 1.145854 0.060848 -0.431176 0.365388 -0.123121 -1.209474 1.075985 -0.740039 -0.489235 0.116489 -0.039015 -0.123546 -0.260086 0.268238 -0.482223 0.764581 0.499334 0.057065 0.019421 -0.293863 0.065817 -0.359197 -0.709845 0.237749 -0.086187 0.496604 -0.558435 -0.096217 -0.392139 1.034564 0.467381 -0.294391 0.441890 -0.868001 -0.041076 -0.387987 0.008158 0.016357 0.110661 0.177628 0.262372 -0.872290 0.047783 0.964292 -0.499544 -0.908714 -0.414227 -0.933276 -1.652078 -0.505125 0.269236 1.037237 -0.177284 0.060832 0.582094 -1.023589 -0.921806 -0.663518 -0.695296 -0.482398 -0.422045 -0.424968 0.083174 -0.485222 0.186797 -0.020512 -0.341487 0.453041 0.000563 0.613874 0.900061 -0.406338 0.211859 0.247987 -0.794099 -0.244256 -0.273256 0.633149 0.077817
were -0.502172 0.088629 0.620403 -0.442606 -0.204892 0.081218 -0.292471 0.872310 0.679833 -0.357790 1.275755 -0.318357 -0.590759 0.314723 0.344697 -0.365169 0.164054 0.183578 0.070554 -0.037505 -0.952541 0.127252 0.026266 -0.613458 -1.361352 -0.280530 1.032213 0.487198 -0.101881 0.287083 0.178529 -0.113387 0.254169 0.395970 -0.434829 -0.136616 -0.117820 -0.453705 0.566473 -1.074722 -0.943615 -0.006357 0.153333 -0.623666 -1.447462 -0.034778 0.220467 -0.193255 -0.060150 -1.056857 0.732906 0.262542 0.484454 0.640903 -0.802200 -0.790260 0.236018 0.143285 -0.071185 -0.306327 0.149641 -0.241430 -0.948078 0.564020 -0.368729 0.411124 -0.281789 -0.576925 -0.125603 0.473813 -0.207397 -0.123994 0.490664 -1.009723 0.263854 0.336045 0.717645 -0.234105 0.001716 -0.758052 -0.372090 -0.305922 0.206185 -0.086814 0.140711 -0.147555 0.156709 -1.468633 -0.022563 0.444101 0.155721 1.064278 -0.117022 0.052020 -0.899815 -0.290748 -1.247295 0.257481 0.677855 -0.254597 0.386912 -0.002452 0.452246 0.454475 0.394470 -1.014605 -0.112436 0.789039 -0.684353 0.530861 0.101624 -0.915542 0.425537 0.290456 0.128535 0.117412 -0.266999 0.982909 0.113609 -0.001010 -1.083198 0.191819 0.276388 -0.766330 0.524012 0.105451 0.020247 0.040238
what -0.889760 -0.294152 1.858306 0.385316 -0.269189 0.193522 0.412189 0.231713 -0.445914 -0.619550 -0.967337 0.056816 0.032495 0.017274 -0.498363 0.773506 0.109594 -0.857376 0.503378 0.780216 -0.414827 0.193132 -0.933504 -0.023425 -0.766321 1.006221 -0.118349 -0.566008 0.466378 1.213994 -0.730713 -0.434740 0.053759 -0.554721 -0.532117 0.056237 0.522111 -0.049326 -0.775601 0.575156 -0.065243 0.058121 -0.015415 0.960058 -0.343320 -0.112242 0.871302 -0.078381 0.156758 -0.434780 0.549010 -0.697110 -0.855121 0.473463 -0.522994 0.012506 0.048105 -0.086547 -0.029954 0.505470 -0.319075 -0.319744 0.437361 -0.719526 0.097842 -0.097638 -0.300603 0.246195 -0.480951 -0.415979 0.466577 0.549358 0.071378 0.343065 -0.043549 0.234167 -0.552071 0.201829 -1.148527 0.126602 -0.047279 -0.542440 -1.280533 -0.972746 -0.467827 -0.202396 0.017443 0.864690 0.917694 0.124228 0.536704 -0.070365 -0.447556 -0.536369 -0.668981 -0.284683 0.002896 -0.510292 0.050925 -0.276691 -0.605816 0.754032 -0.881755 0.197093 -0.459650 1.014233 -0.224151 0.151379 0.190442 -0.192682 0.380742 -0.089421 0.569980 0.011511 -0.420604 0.336271 0.545229 -0.178008 1.042535 0.976703 0.371749 -0.806291 -0.154102 0.569387 -0.192398 0.675962 0.036243 -0.172676
when -0.002324 -0.040941 0.931818 0.441859 -0.163074 -0.510909 0.749935 0.673677 -0.842243 -0.520231 0.379105 0.188843 -0.641987 0.289494 0.391674 -0.026965 -0.080148 0.210729 0.315181 0.103994 -0.314013 -0.838329 0.042266 0.421286 0.141505 0.386312 0.376157 -0.889686 -0.081487 0.550606 0.137561 -0.146605 -0.177382 -0.896536 -0.733436 -0.527720 -0.500261 -0.442433 -0.610841 -0.250729 0.271940 0.458350 0.030712 0.142552 -0.081848 -0.221958 0.855859 -0.317098 0.256611 -0.724258 0.801954 0.058140 -0.456419 -0.404575 0.476322 -0.235614 0.012900 0.476823 -0.381530 0.267375 -0.464001 0.441767 0.197782 0.721250 0.310931 0.297157 0.347459 0.594138 0.392497 -0.275490 -0.059231 0.526223 -0.839717 -0.350176 0.484607 -0.241894 -0.333179 0.811798 0.384809 0.214656 0.306578 -0.389792 -1.244908 0.059445 -0.060097 0.280087 0.806688 -0.008615 -0.053575 0.175511 -0.426818 -0.230066 -0.390444 -0.271595 -0.147015 -0.123050 -0.410876 0.178251 -0.435533 -0.337269 0.394922 0.624536 0.307188 -0.025456 -0.372455 1.057906 -0.334939 -0.526034 0.609913 -0.766721 0.367276 -0.124814 0.087398 0.113185 -0.135052 -0.142478 -0.907216 0.738949 0.521258 0.144394 -0.260083 0.318261 -0.089253 0.970983 0.023219 0.718020 -0.144881 -0.423519
no -0.628788 0.221336 0.297490 -0.219366 0.293420 0.059980 -0.830084 0.145539 0.190765 -0.658136 0.111798 -0.934554 1.473317 -0.040696 -0.398688 0.820367 0.123957 -0.650532 1.616794 0.405521 -0.593253 -0.403740 0.093651 0.506083 -0.722970 0.869457 -0.902370 0.634658 0.150005 -0.010111 0.411185 -0.298058 -0.468340 0.024040 -0.918886 -0.780473 -0.560245 0.385808 0.010548 0.371625 0.699939 0.409510 -0.465429 0.225475 -0.571965 -0.701914 0.298796 0.318707 -0.204317 0.040713 -0.819380 -0.548831 -0.644624 -0.734583 -0.994424 1.051779 0.775343 0.255019 1.414361 0.407604 -1.371639 0.447043 0.250930 0.181576 -0.935472 -1.259392 0.354190 0.086869 0.192449 -0.153449 0.886674 -1.080007 0.004637 0.472932 -1.290478 1.233440 -0.873922 -0.134299 0.715106 0.246268 0.775452 1.017201 -0.699401 -0.522682 0.012546 0.463789 -0.225495 0.005114 -0.168785 -0.522673 0.416534 -0.301162 -0.359118 0.493182 -0.485397 0.409340 -0.041277 -0.617435 0.075063 -0.736024 0.528864 0.428931 1.075653 -0.487316 -0.726509 -0.080657 0.582700 -0.463818 0.261491 1.224572 0.600558 1.125706 -0.253927 -0.924069 0.175711 0.101468 0.366640 0.210327 1.367541 0.375559 0.971751 -0.719078 -0.311901 -0.203738 0.360349 0.180047 0.050606 -0.130443
if -0.029881 -0.106087 0.515674 0.086755 -0.043261 -0.326771 0.373127 0.919861 -0.280003 -0.541374 -0.319462 0.618405 -0.403613 0.358025 -0.065599 -0.386305 0.940397 0.191913 0.288175 0.798681 -1.348427 -1.326562 -0.047775 0.820620 0.548418 0.538532 0.822131 -0.272165 -0.395747 -0.164132 -0.460414 -0.565630 -0.632915 -0.868578 -0.926924 -0.919034 -0.532459 -1.100195 0.159428 0.654398 0.722271 0.843861 -1.731149 -0.027470 -0.907848 0.310524 0.534939 -0.458126 0.006231 0.161013 0.841380 -0.360945 -0.178522 -0.037449 0.089015 -0.485817 -0.170149 1.267811 -0.452957 -0.231153 -0.146025 0.514504 -1.160028 -0.151983 0.094897 -0.344678 -0.124029 1.119434 0.186783 0.212056 1.199656 0.351811 0.386830 0.892689 0.940339 -0.612968 -0.037206 0.690450 0.457309 0.266682 -0.026598 -0.240968 -0.912246 -0.616927 -1.095735 0.311285 -0.404718 -0.073091 -1.159393 0.219281 -0.168074 -0.631595 -0.065135 0.609166 0.084265 0.078071 0.100688 -0.671346 0.338163 -0.344865 -0.215752 0.383114 0.692761 -0.054848 0.231991 0.938605 0.252116 -0.193339 0.412025 -0.989011 0.603961 -0.401935 -0.040917 0.783548 0.755270 0.073346 -1.203703 0.612822 0.982141 -0.072968 -0.283610 -0.111578 0.535783 0.567710 -1.185437 0.295127 0.020886 -0.718578
there 0.253276 0.213663 0.005078 0.632283 0.063637 0.157730 -0.164753 -1.082238 0.058771 0.187596 0.118847 -0.563717 0.804134 -0.169763 -0.365486 0.148007 0.343525 0.218398 -0.879192 -0.293160 -0.052517 -0.319443 0.204779 -0.528973 0.733830 0.202794 0.139658 -0.472019 1.142052 0.591913 -0.306358 0.432994 -0.695995 0.324108 -0.471053 0.566810 -0.591208 0.395681 -0.878275 0.120204 0.955431 -0.681541 0.195849 1.043640 0.478394 0.410058 0.602773 0.306580 0.022700 0.621005 -0.372433 0.411317 0.841357 0.578236 0.455381 -0.133804 -0.504654 0.005015 0.034261 0.263939 -0.711559 0.293870 0.281888 0.342587 -0.644677 -0.085689 -0.040139 -0.715639 0.846783 -1.266771 0.139417 -0.102455 0.719746 -0.699657 0.351240 -1.658205 -0.388921 0.400963 0.484501 -0.849722 0.729939 -0.200792 0.160113 -0.313974 -1.174845 -0.200421 -0.536554 0.714379 0.506593 0.105143 0.407002 0.231058 0.177552 -0.262602 0.920904 -0.315921 0.115026 -0.410678 0.507508 -0.815069 0.651093 0.523467 0.129423 -0.998629 -0.244553 0.815268 0.149723 0.001416 -1.055998 -0.824494 -0.296165 -0.602861 -0.772604 -0.335423 0.408397 0.611501 -0.005003 0.178585 -0.261121 0.605796 -0.867203 0.510874 -0.921423 -0.328936 0.860413 -0.670760 0.703004 0.256007
who 0.535593 -0.075425 0.460393 -0.249374 -0.070103 -0.701076 0.408034 -0.259608 0.677979 -0.994624 -0.343103 0.514893 0.787636 -0.498642 -0.000225 1.166882 0.004571 -0.482497 0.643980 0.357452 -0.369456 -0.029194 -0.736581 -0.113989 -0.498944 0.067980 -0.049486 0.456041 0.168874 0.288454 0.264989 0.656085 0.496969 0.246730 0.485169 0.721516 -0.313494 -0.120999 0.087914 0.826434 -0.118634 -0.778010 1.153637 -0.787921 0.961991 -0.468455 -1.036389 0.299733 0.518435 -0.029765 0.921729 0.376840 -0.036486 -0.380950 0.735740 -0.261681 -0.178791 0.325657 -0.771220 -0.446870 -0.481318 -0.492198 -0.741865 0.576234 -0.279123 -0.429221 0.667634 0.459424 0.769250 -0.453743 0.323265 0.461740 -0.231403 0.164964 0.638621 -0.105120 0.076683 -0.295423 -0.422199 0.175600 0.612438 -0.171415 -1.065361 -0.517306 0.607678 -1.275722 -0.242436 0.139383 0.049598 0.379766 0.681202 -0.286221 -0.426656 -0.302682 0.164582 0.085642 -0.363251 -0.811462 -0.332059 0.182273 0.093049 1.038590 0.102503 -0.919492 -0.381577 0.901040 0.427152 -0.942928 1.242594 -0.779375 0.249243 -0.450392 0.230438 -0.063149 0.261655 0.187255 -0.248710 0.102653 -0.257330 0.320089 -0.243837 -0.451519 -0.264079 0.006860 0.414710 -0.029336 0.189745 0.151821
we 0.125887 -0.117287 -0.626094 -0.875606 0.331302 1.188277 0.035394 -0.205517 0.097768 -0.842073 0.066089 0.626293 0.846707 -0.592549 -0.272226 0.257455 0.116268 -0.017938 -0.413504 0.187637 -0.206350 0.022094 0.148458 1.227801 -0.044162 0.435510 0.783576 -0.858363 0.115149 -1.269854 -0.540030 0.483783 0.133876 -0.316308 1.007058 -0.202214 0.643742 0.430257 0.348241 -0.019618 -0.530923 0.221494 0.287043 0.212585 1.272978 -0.021246 0.148629 -0.345593 -0.240247 0.101625 0.628392 -0.091584 -0.262083 -0.050946 0.047033 -0.424525 -0.321101 0.268196 -0.536457 -0.797128 0.345300 -0.707177 0.035017 0.206937 -0.560569 0.527501 -0.132455 -0.824212 0.085057 -0.064363 0.428332 0.156847 0.936286 0.235488 0.528903 -0.173856 0.109856 0.085093 0.763723 0.076069 0.849783 -0.062668 -0.287622 0.082807 0.172992 -0.563471 0.647911 0.379644 1.172920 -0.060077 0.257641 -0.477857 0.417289 -0.246861 0.620673 -0.351332 -0.622196 -0.437707 0.208103 0.175845 1.426237 0.571578 -0.077403 -0.114503 0.185925 -0.093489 0.776671 0.065626 0.492047 0.913851 0.042838 0.230144 -0.301283 -0.209397 0.094465 0.640216 0.295538 -0.416796 -0.065351 -0.948550 0.498179 0.841332 0.007788 -0.851116 -0.262170 -0.404064 0.426713 1.023159
will -0.417709 0.012477 1.289861 0.888117 0.131114 -0.461302 -0.085204 1.060678 -0.431100 0.377674 1.009038 1.510021 -0.741593 0.055786 -0.663361 -0.318374 -0.347710 -0.203538 0.076376 -0.356390 0.178377 0.115906 -0.095335 -0.223522 0.139600 -0.728386 0.734957 0.389875 0.337580 0.409301 -0.003711 0.269645 -0.625736 -0.876558 0.480542 -0.748007 0.695860 -0.023925 -0.354746 0.356020 0.070002 0.059322 -0.560571 0.199270 -0.640858 -0.356095 -0.834917 -0.093974 -0.704810 -0.567344 0.153579 0.227596 -0.847492 0.121569 -0.081996 0.085605 -0.426718 1.043324 -0.390596 0.132483 0.626307 0.276210 0.018014 0.312314 -0.199429 -0.101871 -0.096217 0.473394 -0.382733 -0.278447 -0.052072 -1.473966 -0.427882 0.549419 -0.308602 0.237574 -0.216630 0.628713 -0.225085 -0.078567 -0.768400 0.727841 -0.083848 1.028190 -0.507847 0.935895 0.730032 -0.967108 0.112437 0.716392 -0.137134 0.365577 -0.072932 -0.095878 0.494588 0.771268 -0.462118 -0.148207 0.816400 -0.574703 0.476861 -0.569844 -0.000432 -0.595404 0.796688 0.346881 0.555088 -0.379082 0.805027 0.381888 -0.080524 -0.063717 -0.479641 -1.100839 0.641797 -0.246988 -0.365415 -0.561652 -0.270632 -0.405315 -0.828467 -0.432053 0.588126 0.003397 0.853199 -0.117494 1.412347 -0.002333
an -0.516238 0.873267 0.140364 0.906672 -0.131582 -0.007157 0.710361 0.079188 1.067566 -0.709667 -0.249925 0.400036 0.376291 0.278984 0.888619 0.502672 0.169791 -0.359938 0.849305 0.064452 -0.447309 0.489656 0.891990 -0.070488 0.673921 1.226025 -0.384784 1.018466 -0.529264 -0.545692 -0.320182 0.285718 -0.639140 -0.652352 0.444753 -0.561395 0.934362 0.297535 -1.338874 1.051433 0.364390 0.361341 -0.275897 -0.289523 -0.754686 -0.587472 -0.575749 -0.662400 0.721105 0.724714 -0.280191 -1.112416 -0.571406 -0.824709 -1.095725 -0.291423 -0.211481 -0.811445 -0.516119 -0.078311 -1.542288 0.140746 -0.370991 0.045789 0.520097 0.365162 -0.168664 -1.040832 0.268189 -0.328276 -0.096222 -0.374980 -0.300476 0.322012 -1.182010 0.906066 0.598662 -1.338525 0.523206 0.408206 0.355384 0.354715 -0.035904 -0.011172 0.523669 0.718575 -0.463942 -0.188145 -0.642253 -0.665262 0.637011 -0.236281 0.095761 -0.105328 -1.829656 -0.077865 0.639512 -0.036667 1.222998 -0.452035 0.996908 0.297457 -0.688691 -0.216071 0.026762 -0.248113 0.248836 0.391546 0.376139 0.831231 0.234635 -0.915299 0.753017 -0.356345 0.064910 0.324330 0.808465 0.795254 1.412325 0.006882 -0.028221 -0.163960 -0.303782 0.218773 -0.035243 -0.195347 -1.359341 0.459489
then -0.560783 0.017462 0.283255 0.532325 -0.174950 0.118079 0.157014 0.167816 -0.385843 -0.076476 0.549400 0.298609 -0.286105 -0.803158 0.127288 0.153659 0.206727 0.366018 -0.377544 0.445073 -0.770956 -0.540637 0.276644 -0.202392 0.156726 -0.078793 0.380703 -0.534477 0.246715 0.093545 0.091582 -0.046058 0.190968 -0.415346 0.493303 -0.565013 -0.435706 -0.359170 -0.581663 -0.321391 0.473578 0.522745 0.725637 0.882925 0.506609 0.426542 0.536449 -0.286716 -0.396955 -0.282390 0.737507 0.442974 -0.028213 -0.653652 0.465609 0.169098 -0.151391 0.971113 -0.247579 0.208939 -0.294600 0.578866 -0.115551 0.122522 -0.337417 0.265319 0.442044 -0.384402 -0.139694 0.225499 -0.351166 0.558428 -0.235810 -0.552190 0.310831 -0.069385 -0.794470 0.398336 0.717049 -0.068798 0.333623 0.301235 0.215451 -0.490422 -0.405120 0.163151 -0.119288 0.601811 0.023362 0.165373 -0.373814 0.085567 0.206728 -0.220371 -0.696805 0.349665 -0.009115 -0.169900 -0.243027 -0.265885 -0.522420 -0.323513 0.526715 0.400591 -0.214502 0.241929 -0.539605 -0.158071 -0.017998 -0.118104 0.511135 -0.072137 0.082203 -0.126794 -0.060901 -0.049908 0.119735 -0.237797 0.366673 -0.082542 0.246041 -0.429435 -0.037482 -0.049178 0.209543 0.356094 -0.337816 0.082230
their -0.433459 0.967526 0.781766 1.055298 -0.445600 0.445581 -0.838317 -0.501855 0.007171 -0.343172 -0.213028 -0.197877 0.231750 0.663473 0.095414 -0.698718 -0.391267 0.319981 0.285407 -0.014412 -0.312148 -0.272316 0.538042 -0.630646 -0.804794 -0.095194 0.685483 0.637846 -0.546013 -1.121552 -0.465054 -0.069864 0.168206 0.756763 0.009748 0.633107 0.033735 0.751694 0.473485 0.386180 -0.441958 -0.176979 1.085978 0.227809 -0.525361 0.268680 0.526557 0.241799 0.488736 -0.287377 0.223098 -0.036176 -0.471105 -0.274212 -0.351561 0.361319 -0.884846 -0.360195 -0.074575 0.098733 -0.144509 0.055113 0.105584 -0.470107 0.616824 -0.421699 -0.218217 0.064186 -0.326659 0.262294 -0.331341 0.309422 0.632059 0.727151 0.163282 0.652534 0.079440 -0.236361 0.055531 -0.277636 -0.134180 0.233633 -1.198453 -0.586151 0.580754 0.192881 -0.011638 0.647103 0.088615 -0.255343 0.621374 0.076135 -0.457126 0.302466 -0.679716 -0.088233 -0.514001 -0.518871 0.232834 -0.085577 0.676608 -0.029711 -1.012856 -0.395559 0.021211 -0.133563 -1.212839 -0.325679 -0.517498 0.903596 0.092601 0.051804 0.010049 -0.949573 0.913214 -0.017434 0.452901 0.308923 0.097046 -0.579788 1.008186 0.308878 0.533598 0.457080 0.892096 -0.335332 -0.015608 0.463776
would -0.511905 0.108923 0.514507 0.540909 0.268519 -0.201493 -0.100458 0.805481 -0.119081 0.472844 0.891584 1.617701 -0.394917 0.480826 -0.432835 -0.811180 -0.249437 -0.703977 -0.702785 -0.785273 -0.831533 -0.271423 -0.108040 0.091099 -0.389278 0.046462 0.976568 0.529905 0.235795 0.155450 -0.358881 0.894885 -0.793231 -0.690553 0.487483 -0.152504 0.445850 0.029353 -0.553600 0.010064 0.058233 -0.583325 -0.850889 -0.479614 -0.602252 -0.522514 -0.546853 -0.257487 -0.197902 -0.567504 0.263015 0.256904 -1.429332 -0.286953 -0.847262 -0.397262 0.210243 0.383420 -0.264662 0.346337 0.380445 0.045453 -0.478434 -0.123638 -0.019439 0.302303 0.127130 0.419135 -0.094484 -0.107503 0.011519 -0.683392 -0.977453 0.494351 0.142023 0.498308 -0.657953 -0.303663 0.011078 -0.179412 0.087283 0.846045 0.437099 0.849106 -1.396356 0.584779 0.584132 -1.050485 -0.166686 0.554108 0.038399 0.647017 -0.444054 -0.620345 0.988657 0.959178 0.053819 -0.161027 -0.351345 -0.345555 0.538545 -0.015469 -0.444039 -0.494580 1.021845 0.066816 0.677928 0.153777 0.837778 0.654042 0.178898 -0.637742 -0.502780 -0.975065 1.004475 -0.203390 -0.022504 -0.169511 0.007028 -0.394990 -0.563355 -0.727939 0.697530 0.373047 1.037783 0.036246 1.173014 0.218441
them -0.119632 -0.340736 -0.016712 -0.449863 -1.035533 0.541349 -0.196978 -0.182778 -0.245266 0.671038 -0.412298 -0.042444 0.530931 0.333166 1.278403 0.884421 -0.247480 -0.149761 0.495969 -0.467026 -0.115413 -0.439644 -0.307573 -0.803524 -0.852937 -0.113133 -0.286568 0.439036 0.731957 -0.337723 0.030607 -0.073573 0.010772 0.333700 -0.084736 0.130783 0.256755 0.279087 0.612976 -0.838664 0.902226 0.457249 -0.114848 -0.168485 1.028699 -0.088962 0.042227 0.246625 0.524821 0.067559 -0.697660 -0.133022 0.640456 0.405530 -0.117028 0.543074 -0.787067 -0.306826 -0.085409 0.357219 -0.548522 -0.383065 -0.535031 -0.594819 0.352147 0.292640 0.060270 -0.105607 0.330839 0.531359 0.960995 0.053877 0.686206 0.114237 -0.132284 -0.346594 0.078436 0.237082 0.169487 -0.329142 -0.405625 0.330239 -0.721366 -0.588046 0.404449 0.788552 -0.019812 0.174658 0.332296 0.554009 0.758128 0.806921 0.156158 0.211350 -0.704025 -0.087754 -0.053008 0.271835 1.117078 -0.238555 0.342395 -0.251593 -0.354264 0.436672 -0.774128 -0.395715 0.228380 0.927954 -0.036019 0.532324 0.206912 0.181742 -0.803413 -0.303385 0.240871 -0.986731 0.185064 -0.511946 0.352865 -1.258261 0.090876 0.192970 -0.107471 0.297104 0.638945 0.272059 0.324928 0.567603
been 0.551857 -0.054378 0.189389 -0.707295 -0.986514 0.763863 0.063005 -0.373697 1.669193 -0.035013 0.176744 -0.321827 1.727502 0.701778 0.566712 0.698227 0.564542 -0.497903 0.194031 0.711685 -0.635977 -0.311042 -0.032803 0.033382 -0.765966 -0.638510 0.816123 -0.366439 -0.543253 0.048478 -0.072369 -0.089068 1.233436 0.032696 -0.757087 -0.718462 0.326771 -0.766919 0.418365 -1.080031 0.894379 -0.771231 0.366752 -0.803140 1.052335 -1.604626 0.186188 0.574325 -0.362363 -0.513302 -1.266765 0.185831 0.581773 0.421845 -1.048315 0.466883 -0.569852 -0.112154 -0.140682 -0.496776 -0.785213 -0.631164 -0.826651 0.589619 -0.230404 0.261418 0.619356 0.188207 0.672590 1.199055 -1.153863 1.074623 -0.477810 -0.898401 -0.407050 0.455142 -0.401008 -0.110407 -0.115441 0.956437 -0.937688 0.452529 0.134805 2.188823 0.247963 -0.008559 0.077633 0.135433 -0.637373 -0.659280 -0.332109 0.917109 -0.398540 0.080836 -0.070879 0.576306 -0.029284 -0.130197 -0.108781 -0.092139 0.133613 0.112973 -1.794592 0.477203 -0.352701 0.303846 0.625740 0.586434 0.272479 0.928510 0.446254 -0.114078 0.040598 0.196969 0.924930 -0.058782 1.248897 0.676582 -0.865408 0.027654 0.002781 -0.618724 0.134244 -0.460856 -0.868001 -0.111829 -0.860236 0.185967
do -0.058297 0.056767 1.477672 -0.509504 0.464272 -0.972716 -0.819257 0.281154 -0.808279 0.291946 -0.268693 -0.083403 0.027661 0.133533 0.475426 -0.963745 -0.302289 -0.465988 0.000314 -1.159485 0.132565 -0.363487 0.898096 0.891194 -0.230929 0.060719 0.327843 0.782594 0.120092 0.479693 -0.937737 -0.605678 -0.627522 0.693523 0.522176 0.466812 -0.224358 0.237701 0.379239 0.325657 -0.583113 1.581411 0.014487 0.272085 1.146660 0.932900 0.526535 -0.579528 0.797418 0.487915 0.431931 -0.189872 1.195194 2.113398 -0.714707 0.045305 0.387120 0.408326 -0.212210 0.160445 1.267085 -0.202544 -1.172843 0.957030 0.272414 -0.482954 -0.429290 0.493554 -0.717332 1.580330 1.075947 -0.837770 -0.243787 0.142119 0.310127 0.321581 -0.236372 0.137544 0.323777 -0.039820 -0.432414 0.658155 0.185179 -0.341925 -0.782708 -0.273390 0.563581 -0.372683 -2.025102 0.310606 -0.348477 0.023316 -0.036947 -0.069066 -0.817598 -0.053842 -0.075820 -0.949727 0.980768 1.353958 -0.215145 -0.029211 2.118782 0.095089 -0.153204 0.176801 0.217850 0.140303 1.218110 -0.385060 0.625678 -0.214421 1.068284 -1.264000 0.134568 0.480987 0.726186 0.883101 -0.546622 -0.419957 -1.002057 -0.399707 1.144998 -0.756097 -0.686371 0.464989 0.004327 0.389032
your 0.112258 0.389062 0.457455 0.279030 -0.063877 -0.821793 -1.366172 -0.494188 0.035871 -0.143498 -0.354553 0.352248 -0.037377 0.726477 -0.352684 -0.406745 0.023770 0.919967 0.229107 0.777127 0.679703 -0.293361 0.031249 0.008888 -0.132239 0.564849 0.048173 -0.372432 -0.481069 -0.329892 -0.456421 0.582539 0.222490 0.340593 -0.526890 0.374871 -0.102638 -0.109313 0.715421 0.877983 -0.172990 -0.539050 1.146513 0.764138 -0.790920 0.368537 0.422837 0.012685 0.780037 0.890761 0.133465 0.166872 -0.477768 -0.717126 -0.454607 0.293502 -1.064565 0.153296 0.711381 0.565162 0.083161 -0.122412 0.367247 -0.019798 1.063844 -0.797535 0.275053 -1.103801 -0.458157 -0.275411 0.066585 -1.180268 -0.066668 0.373051 0.555993 0.484072 0.168096 -0.015098 -0.316974 -0.207552 -0.170390 0.119217 -0.759531 -0.062178 0.440466 0.441970 -0.246595 0.323475 -0.504145 0.124312 0.454063 0.138051 -0.390938 0.065087 -0.522682 0.687624 -0.174057 -0.726960 0.677356 -0.563872 0.965939 0.817574 -0.629712 -0.257351 -0.136706 -0.173347 -0.621474 0.279502 -0.404147 0.841404 -0.095911 -0.700051 -0.091697 -0.423007 0.408594 0.002243 0.595590 0.464149 0.454638 -0.701436 0.499483 -0.180488 0.035315 0.946067 0.008041 -0.469133 -0.355080 0.371765
now -0.126992 0.004161 -0.188849 0.065083 -0.187696 0.324529 -0.108433 0.286922 -0.499049 -0.475354 0.567370 0.140683 0.299005 -0.834027 -0.269970 0.056570 -0.054890 0.465494 -0.170902 0.229066 -0.144844 -0.044686 -0.169729 -0.209606 0.595073 -0.445790 -0.008250 -0.852600 0.013165 0.424479 -0.274440 -0.159500 0.072640 0.369848 -0.151754 -0.621814 -0.205697 -0.518254 -0.258716 0.117556 0.470586 0.197045 -0.004971 0.433846 0.493959 -0.299967 0.091537 -0.055026 0.033564 -0.199449 0.352145 -0.267950 -0.109659 -0.272105 0.169914 0.206494 -0.044981 0.047034 -0.483662 0.565513 -0.254446 0.068733 -0.511847 0.303352 0.046667 -0.086916 0.024738 -0.369894 -0.436331 -0.039391 0.202609 0.625807 0.204816 -0.499726 0.140911 0.043617 -0.570778 0.111534 0.059414 -0.258737 0.091686 -0.149670 0.254377 -0.354407 -0.468452 -0.006217 0.194977 0.256781 0.281920 -0.252400 -0.246670 -0.376079 -0.052032 -0.206040 -0.802508 0.053448 0.158900 -0.171021 -0.187110 -0.618735 0.022370 -0.209431 0.567800 0.063842 0.252392 0.277121 0.229865 0.696762 0.050077 -0.191292 0.416779 -0.435663 -0.038447 -0.586820 0.178896 0.037369 0.299065 -0.294583 0.193409 0.001847 -0.044660 -0.036580 0.070042 0.239887 0.328860 0.120288 -0.152900 0.229423
out -0.464126 -0.463833 0.415138 -0.881728 -1.513718 0.270033 0.255106 -0.297866 0.618928 0.179416 0.652568 -0.573917 0.385386 0.334111 0.482214 0.556374 0.081303 0.803116 -0.409157 0.313471 1.685829 0.092731 0.297932 0.737648 0.187360 -0.598580 -0.330188 0.422226 -0.136532 0.149815 0.526054 0.238007 0.088110 0.283837 0.817643 -0.229734 -0.243184 -0.479515 -0.820795 -0.900036 0.762543 0.594195 1.000384 0.515612 1.041254 0.484172 0.152980 0.180114 -0.040654 -0.063892 -0.652243 0.569405 -0.175245 -0.496225 0.341779 0.170843 0.028797 -0.219829 -0.056366 0.270186 -0.343301 0.107046 0.561641 0.369927 -0.869412 0.088610 -0.736359 1.123848 0.150849 -0.765953 -0.017082 0.157587 -0.633596 -0.267044 -0.295731 -1.083582 -1.249533 0.044566 0.339762 -0.974714 -0.157722 -0.984498 -0.508046 -0.163940 -0.528999 0.135458 -0.470499 -1.170603 0.084955 0.387024 0.051715 1.119304 0.200173 0.291914 -0.133464 0.854952 -1.094013 0.215751 0.319299 1.135684 0.203564 0.566184 0.447288 0.599557 -0.300842 -0.781016 0.634564 0.348071 0.074649 0.326390 -1.033617 -0.454254 -0.078131 -0.771770 0.027569 -0.261426 -0.706400 -0.928841 0.337286 0.086464 1.559140 -0.793413 1.021744 0.249972 -0.029356 0.208116 0.514647 -0.595196
more -0.316488 -0.545628 0.282374 -0.266279 0.060708 -0.507245 0.432169 -0.359637 -0.847075 0.150424 0.177028 -1.142250 -0.344578 0.138968 -0.607288 -0.403169 -0.282231 -0.950234 -0.053188 -0.071996 -0.352772 -1.496086 -0.010574 -0.107540 0.544966 -1.339527 0.040831 0.732728 0.856809 -0.870559 -1.454084 0.143527 0.003622 1.024526 1.214445 0.646223 -0.082540 0.491279 -0.072824 -0.897602 1.035367 -0.154155 0.013346 0.004973 -0.971009 -0.402523 0.260181 0.169380 0.042628 0.262498 -0.052306 -2.280777 -0.008289 -0.191252 -0.460785 -0.315273 -0.576114 0.300989 -0.527018 0.611344 0.997018 -0.067276 -0.047286 0.181518 -1.453428 -0.015528 0.155471 -0.481602 1.465051 -0.187057 -0.219428 -0.546941 -1.107685 -0.067887 -1.079493 0.476260 -0.519539 0.077282 0.534526 -0.691545 -0.986364 0.839589 -1.604663 -0.179941 -0.346248 -0.561638 -0.318591 0.219135 -0.389560 0.345607 -0.907670 0.027067 0.050301 -0.919090 0.032976 -0.304206 -0.030987 -0.004406 -0.817521 0.507116 0.660200 -0.166213 -0.723818 0.900633 -0.618743 -0.142189 0.220448 -0.412459 -1.049440 -0.469636 -0.351687 0.035187 -0.195981 -0.553949 -0.517826 0.915476 0.177473 -0.594269 -0.034220 -0.531353 -0.528108 0.346933 -0.627830 0.203126 0.664670 -0.167009 -0.679537 -0.491606
up -0.334710 -0.058724 0.448301 -0.864711 -1.347287 -0.502824 0.394958 -0.337894 0.462901 0.357601 0.932042 -0.034200 0.129762 0.057357 0.117324 0.880054 -0.812409 0.543923 -0.377911 -0.053885 0.540606 -0.655413 -0.091068 0.423464 0.279437 0.566905 -0.641026 0.420770 -0.248753 -0.372965 -0.303668 0.349351 0.275897 -0.267710 1.957865 -0.289270 -0.165790 0.626414 0.365386 -0.554481 0.296440 0.500588 1.046403 0.331820 0.438017 0.256929 -0.243916 0.285031 -0.210088 -0.081127 -1.179236 -0.525382 0.096169 -0.255049 1.267085 -0.120145 0.135755 -0.646842 0.403442 0.668968 -0.487760 0.343272 0.319847 1.032692 0.018648 0.189833 -0.430137 -0.382385 0.677427 0.232187 0.470217 1.041210 -0.373110 -0.017514 -0.938481 0.010220 -0.566363 0.229097 1.304656 0.309863 0.114390 -0.867771 0.668199 -0.360394 0.116845 0.578753 0.305175 -0.558994 0.517736 0.799339 0.001455 0.770271 0.509832 0.562567 0.485447 0.584281 -0.298941 0.633683 0.193280 -0.797971 -0.494700 0.124606 0.787496 0.677742 -0.144307 0.508368 -0.406321 -0.263130 1.132552 -0.071576 0.878759 0.910483 1.247876 -0.259446 0.525069 0.665946 -0.309848 0.222881 -0.705079 -0.301837 0.227651 -1.027528 0.911414 0.305455 -0.824011 -0.064223 0.285559 0.795047
man 0.655811 -2.124726 0.272835 -0.809050 0.669402 0.302618 0.735359 -0.228949 -0.392050 0.184190 0.321702 -0.234191 -0.699431 0.154409 -0.209492 -0.426643 -0.428024 -0.539021 0.006396 0.459757 -1.241875 0.008510 0.064918 0.393948 0.427162 0.194791 -1.710972 -0.713987 0.331341 -0.096089 -0.311108 -0.206194 0.340351 -0.676498 -0.542675 -1.429302 -0.645973 0.324651 0.251570 0.380484 0.156840 -0.249762 0.594444 -0.252022 0.480723 -0.022997 -0.693224 0.474448 -0.261314 0.071838 0.912775 -0.082668 0.405275 -0.791510 -0.572433 -0.272870 -0.151753 -0.509490 -0.044140 0.215646 -0.297635 -0.007502 -0.252885 -0.339263 0.634829 0.230021 -0.525706 -0.627060 0.345319 -0.492830 0.186182 0.794502 0.322118 0.217874 -0.301355 -0.710127 0.574133 0.695217 0.105636 0.506589 -1.420215 -0.732104 -0.791281 0.824311 0.242903 -0.840010 -0.423363 0.783759 0.667485 -0.196841 -0.454123 1.289630 0.923958 0.390803 0.394716 -0.758175 1.139088 0.345220 0.001050 1.299882 0.033847 -1.174033 0.068131 1.201689 0.257113 -0.524616 -0.878326 -0.273839 1.443043 -1.281421 0.186274 -0.340736 -0.704638 0.802018 -0.823771 0.008721 0.987533 0.410799 -1.078129 -0.025354 -0.261976 0.401374 -0.323135 -1.460956 1.638680 -1.067818 0.522597 -0.316139
into 0.424346 0.133088 -0.404939 0.628882 -1.696399 -0.689164 0.436612 0.289132 -0.558407 -0.878172 0.569612 -1.017940 0.303464 0.337037 -0.611013 -0.158267 -0.642711 -0.007770 -0.230022 0.252744 -1.012441 0.254993 -0.070915 0.082817 0.448240 1.280069 -1.281911 0.196629 -0.071943 0.041675 -0.725065 0.407498 -1.029013 -0.204844 1.670119 0.451169 0.343561 0.228185 -0.479867 -0.766582 -1.063576 0.829826 0.222718 -0.155565 -1.008340 -0.651185 -0.804564 0.036628 -0.085699 0.622707 -0.858635 0.019222 -0.141139 0.165435 0.551765 -0.860110 -0.333783 -0.107371 -0.016832 0.194048 0.470803 -0.215664 0.029683 0.227230 -0.959936 1.137929 0.042644 0.402870 0.571657 0.431039 0.040568 0.928857 0.026343 -0.748372 -1.072994 -0.027420 0.067824 0.222682 0.292702 -0.121431 -0.130711 -1.475265 0.204173 1.152091 -0.011458 0.133858 0.125128 -0.529941 0.454882 0.393254 0.599206 1.255883 0.246859 0.703818 1.832273 0.065480 0.585567 -0.149820 -0.160979 -0.514406 -0.821173 0.267268 0.251743 0.370629 0.252942 -0.070931 -0.732731 0.199611 0.411764 1.011570 -1.091830 0.103872 0.289713 0.315772 -0.612819 -0.289739 -0.786082 -0.069529 0.694554 -0.357031 0.232184 -0.495961 0.774462 0.286313 0.170173 0.659836 0.216465 -1.055019
some 0.129563 0.411166 0.289756 0.500871 0.644806 0.206964 -0.450680 -0.350186 0.494388 -1.061953 0.534257 -0.647700 -0.094121 0.188059 1.272625 0.988411 0.082412 -0.788611 -0.113193 0.604721 0.341123 0.276057 -0.209160 0.293590 0.132910 1.361405 -0.698563 0.462392 -0.032883 0.023549 0.144515 0.708668 0.353305 -0.513429 -0.508545 -0.109610 -0.768020 -0.085888 -0.312110 0.287887 0.065252 0.054644 0.295696 -0.255401 -0.776555 -0.365045 0.607201 -0.391803 -0.284346 -0.284356 -0.106052 -0.881425 -0.728301 -0.136261 -0.389482 -0.200097 -0.954113 -0.462140 1.142214 -0.037477 0.038805 -0.616335 0.188251 -0.311716 -0.021853 -0.197979 -0.227471 0.317576 -0.546501 0.544263 0.523170 -0.138370 0.495605 0.507772 0.833113 0.447517 -0.484891 0.028335 0.136731 0.704901 0.189554 1.308594 -0.069568 -0.271033 -0.002908 0.477945 0.007147 0.521853 0.735746 -0.850908 -0.745636 0.829552 -0.655884 -0.263372 -0.525168 0.030341 -0.802655 -0.261447 1.001513 -0.009992 1.102462 0.498388 -0.554289 -0.108412 -0.225340 -0.913267 -0.126422 0.126490 -0.165031 0.689027 0.181955 0.134628 0.365825 -0.581720 0.309461 0.037020 -0.028120 -0.668256 1.314236 0.280475 0.357719 0.182581 -0.546296 0.184972 -0.016412 0.379640 0.293761 0.584784
could -1.008358 0.155508 0.841242 0.049040 -0.238015 0.024038 -0.370833 0.750729 0.084397 1.147735 1.096761 0.650668 -0.878867 0.452164 -0.525077 -1.155907 -0.722384 -0.919385 -0.384929 -0.804481 -0.719692 -0.591168 1.182071 0.280012 0.119583 -0.350466 1.132121 0.416775 0.190017 0.528302 0.463250 0.629655 -0.241264 -0.540547 0.569340 0.645896 0.773051 0.978120 -1.247043 0.443219 -0.062023 0.766526 -1.268861 -1.012388 -0.717832 -0.326150 -1.009804 -0.752414 -0.132624 -0.320831 0.756360 0.669816 -1.217387 0.478735 -0.401055 -0.561614 -0.268007 0.216834 -0.016270 -0.196500 0.296310 -0.608640 -0.741106 -0.342741 -0.019188 0.256552 0.134349 -0.518523 0.183331 0.477793 -0.478075 -0.620537 -0.317324 -0.117228 -0.129715 0.805277 -1.293490 0.643023 0.353492 -0.209128 0.158701 1.188774 -0.380108 0.269139 -1.100197 0.073069 0.949955 -0.816818 -0.115649 -0.022887 -0.304186 0.729802 0.183627 -0.398485 -0.032531 0.308519 0.602203 0.940052 0.402331 -0.775498 -0.011901 -0.003331 -0.391881 -0.620232 0.910660 -0.290647 0.942889 0.778494 0.631331 -0.542934 -0.748794 0.381386 -1.322566 -1.151355 1.403188 -0.610453 -0.056672 -0.314448 -0.214281 -0.953668 -0.402201 0.168818 0.223083 0.093130 0.611296 -0.138066 1.067943 -0.315970
has -0.804645 0.432405 0.192550 -0.008634 -0.677389 -0.383938 0.321295 1.176087 0.270543 0.511956 -0.634878 0.531110 0.205621 -0.258188 0.201208 -0.642294 -0.193790 -0.537960 -0.965674 -0.078123 -0.625773 0.547817 0.488399 0.106923 0.477554 -0.621907 -0.663221 -0.769869 0.710970 0.208720 0.671713 0.635397 -0.292623 0.283098 0.233858 -0.237827 -0.040197 0.235050 0.255261 -0.239635 -0.612808 0.704199 -0.673284 -0.263128 -1.537609 0.701952 -0.384545 -0.356525 -0.567834 0.124345 0.008396 1.372432 -0.884348 -0.117410 -0.938877 0.261021 0.197704 -0.254690 0.057559 -0.061887 0.063293 0.328034 0.257581 1.733959 -0.043282 -0.786973 0.393636 -0.579474 -0.180408 0.140541 0.089498 -0.355756 -0.218040 -0.024517 1.251813 0.407554 0.403785 -0.903059 -0.255505 -0.707956 1.091209 -0.060959 -0.258529 -0.021209 -0.370276 0.356637 -0.186083 0.226644 0.740184 0.977547 -0.468449 0.333724 0.454630 -0.703991 0.942743 -0.023777 -0.029862 0.117356 0.151255 -0.183527 0.029786 -0.576815 -0.454089 -0.405620 0.476443 -0.853352 0.359105 -0.502851 0.737903 -0.522374 0.358369 -0.596640 0.826191 -0.179871 -0.521359 0.295960 -0.097731 -0.754258 -0.254754 -0.507316 -1.039606 0.934142 0.162885 0.965738 0.803152 0.353080 0.413472 -0.301648
only 0.119954 -0.336408 0.409307 -0.864652 -0.175932 0.028220 0.405090 -0.466166 0.308714 -0.667853 0.762721 1.035369 -0.050416 -0.018483 0.635872 -0.238961 0.169235 -0.422664 0.029142 -0.146095 -0.547903 -0.619382 -0.024461 0.413963 -0.028277 -0.334414 -0.428294 0.086530 0.731553 0.619751 -0.326261 -0.029274 -0.160340 -0.024235 0.046127 -0.667272 -0.228488 -0.151624 0.162170 -0.008817 0.545054 0.371306 -0.343887 -0.222057 -0.046744 -0.118479 0.159779 0.205662 -0.200904 -0.634224 -0.685202 0.394551 0.550149 0.094893 -0.130452 -0.172948 -0.850737 0.368694 0.387237 0.124928 -0.310487 0.311810 -0.191803 0.026770 -0.000554 0.084519 0.171876 0.100169 0.927287 -0.036688 0.077499 0.570366 0.276644 -0.588036 -0.370200 0.092685 -0.579560 0.310219 0.337991 -0.136931 -0.106362 -0.165739 -0.590350 0.032055 0.544626 -0.203990 0.248353 0.493841 0.066256 0.508939 0.300706 -0.621969 0.135443 -0.362036 -0.006150 0.253303 0.131913 -0.021242 -0.104534 -0.151413 -0.782088 0.468813 0.927130 -1.762771 -0.231746 -0.134632 -0.152796 0.248118 0.850884 0.240935 0.323662 -0.225073 0.043334 0.136570 -0.275844 0.707895 0.106433 -0.537772 -0.130158 -0.262840 0.444484 -0.201573 -1.292370 0.312274 0.792610 0.146778 0.209782 -0.255293
any -0.596849 0.165939 0.562488 -0.054000 -0.179380 -0.180599 -0.880273 0.162545 0.473610 -1.630200 0.498675 -0.317239 0.801333 0.012782 1.047126 0.864741 -0.090940 -0.695550 1.330510 1.336506 0.193230 0.221800 0.079906 0.516173 -0.656715 0.590749 -1.282252 1.295098 0.014449 -0.413240 0.132652 0.177906 -0.508743 0.566672 -0.249542 -0.622685 -0.036519 0.039185 -0.266529 0.368832 0.727075 0.676636 -0.388584 0.461997 -0.878408 -0.014953 0.689731 -0.916899 0.084453 -0.125456 -0.920745 -0.459171 -0.317188 0.084997 -1.015079 0.333980 -0.207635 -0.738054 1.538458 1.139827 0.031796 -0.171739 0.177806 -0.152343 -0.395363 -0.160139 -0.005439 0.046017 0.018596 0.379906 -0.098138 -1.086072 0.642452 0.442834 0.076351 1.673133 -0.296217 -0.455327 -0.739927 -0.059341 -0.466782 0.866120 0.122821 -0.045070 -0.590192 0.486914 0.166856 -0.387733 -0.282220 -1.351871 -1.192463 -0.025878 0.773381 -0.387512 -0.502467 -0.430357 -0.499004 0.954890 1.344850 0.167980 0.863127 0.505121 0.352677 -0.249616 0.309477 0.093808 -0.053304 -0.600977 0.133430 -0.189109 0.016037 0.467479 -0.203726 -0.747220 1.083492 0.473262 1.160401 0.108863 0.532453 -0.688405 0.837227 -0.094417 -1.079457 0.487608 -1.434404 0.459340 1.359237 -0.245758
very -0.144490 -0.331445 0.255660 -0.602503 1.424166 -0.419727 0.511823 0.423216 -0.167129 1.155363 0.040877 -0.773805 0.122812 -0.682745 -0.520708 -0.156667 -0.461955 0.091114 -0.232818 0.447991 -0.533035 -0.545829 -0.520093 0.446511 1.057107 -0.046392 -0.783900 0.801207 0.523975 0.333920 -0.718358 0.045436 -0.059561 -0.338677 0.035889 0.987257 -0.074810 0.163143 0.199230 0.261407 0.666203 0.368559 0.757540 0.200656 0.169440 -0.386927 -0.241578 -0.303589 0.004944 0.134141 -0.597835 -0.638288 0.651615 -0.217185 -0.022497 0.035623 0.691290 -0.603698 -0.657223 0.477222 -0.433389 0.639628 -0.048824 -0.422457 0.435275 0.296428 -0.747807 -0.692567 -0.029895 0.041220 -1.250203 -0.218785 -0.577390 -0.061271 -0.541175 0.170466 -0.579933 -0.458894 0.329505 0.384766 -0.631989 0.599891 0.919481 0.791972 -0.253592 0.038924 -0.462660 -0.646138 0.937376 0.832825 0.255059 0.329963 -0.500081 -0.210731 0.022973 -0.163635 0.006044 -0.174035 -0.369185 0.506317 1.239606 -0.003141 -0.342505 -0.622540 -0.365833 0.098483 -0.833679 -0.177077 -0.743831 0.556918 0.094361 -0.564197 0.073618 0.179351 -0.587967 0.278616 0.213479 -0.240803 0.068333 -0.378921 -0.458353 -0.129493 -0.521534 0.197204 1.027440 0.812313 -0.440255 -0.433900
like 0.411132 -0.224115 -0.113928 0.279549 0.696096 -0.832798 -0.040433 -0.003656 -0.269724 0.268139 0.573261 -1.789174 0.782604 0.580965 0.430612 0.675188 -0.139073 -0.243335 -0.015028 -0.067742 0.784438 0.629666 0.428811 0.349876 0.207416 0.420465 0.681935 -0.545162 0.782775 -0.501464 0.060188 -0.249116 -0.639894 0.938599 0.267355 1.169313 0.052890 -0.632009 -0.566241 0.872303 0.150757 0.082431 0.235440 0.270472 -0.383718 -0.476834 -0.299238 0.398962 -0.380605 -0.058037 0.095244 0.600148 0.206994 1.494772 0.128524 -0.299841 -0.758962 -0.069770 -0.313776 0.207895 -0.280752 0.967844 -0.214198 0.343129 0.027931 -0.330453 -1.022155 0.707376 -0.712147 -0.832923 1.043562 0.705493 -0.652570 0.089174 0.018228 0.372366 0.424236 0.111889 -0.753463 -0.222960 -0.212407 -0.590067 -0.662990 -0.251084 -0.408652 -0.930731 -0.640496 -1.131200 0.116106 0.407787 -0.031698 0.829038 0.354841 -1.323180 0.314720 0.326290 0.477338 0.058554 -0.058121 0.088447 -1.243216 -0.480391 0.223679 -0.012049 0.378552 0.120444 -0.737369 1.264119 0.693744 1.106747 0.167651 -0.268202 0.866577 0.647451 0.136589 -0.004957 -0.859048 -0.197832 0.062651 0.360987 -0.768025 0.532588 -0.284638 -0.676653 0.585557 -0.008721 0.662932 -0.610161
did -0.335134 0.634614 1.726466 1.090522 0.329146 0.578652 -0.902013 1.498769 -0.213809 1.024737 0.123905 1.182889 -0.484303 0.011909 0.211185 -1.589795 -0.297117 -0.647814 -0.277383 -1.517026 -0.451080 -0.941276 1.010748 0.564948 0.012423 -0.136241 0.080894 -0.123657 0.005762 0.654675 0.084313 0.190012 -0.691330 -0.679164 0.900756 0.713765 0.635715 -0.065502 0.030302 0.031597 -1.196122 1.651758 -1.733180 -0.251917 0.074155 0.080257 -0.836948 -1.231736 0.143417 -0.365935 1.227002 0.422410 -0.720843 0.841764 0.319327 -0.411031 0.027289 0.546582 0.296952 0.047131 1.849106 -0.436313 -0.362245 0.782732 -0.517390 0.423745 -0.143307 -0.392714 -0.063679 0.524303 1.285515 -0.459390 -1.248755 -0.167911 0.403759 1.362487 -0.534743 0.328383 0.457256 0.001837 0.224335 0.681398 -0.639765 0.715131 -1.236716 -0.247743 -0.505972 -1.502731 -0.717565 0.451936 -0.427755 0.540253 -0.396374 0.180904 -0.879168 -0.235187 0.111257 -0.384272 0.171308 0.743148 0.282982 -1.143943 0.653985 -1.021863 1.105049 0.421085 -0.041368 -0.546124 0.807877 0.229334 -0.060136 0.242657 -0.288439 -1.314097 1.620473 -0.400658 0.691523 -0.474549 -0.433737 0.213427 -0.894962 -0.029335 0.207792 0.435351 0.334097 0.543234 0.332456 -0.307474
time 1.539862 -0.197389 0.294278 1.579098 0.307494 1.827214 -0.614534 -0.081026 -0.088414 0.543583 -0.116976 -1.366406 -0.545492 0.654823 -0.590183 0.572040 -0.508615 -0.413583 -0.228889 -0.372319 -0.559506 0.301653 -1.367944 1.065883 0.837769 -0.996228 -0.900386 -0.215889 0.553958 1.234585 0.956277 0.139321 -0.402428 0.339887 -0.275646 -0.900005 0.011963 -0.188510 0.587490 -0.998308 0.057948 -0.645090 -0.408690 0.726837 1.706800 0.574138 -0.378463 1.018276 -0.634763 0.571389 0.238484 0.452672 -0.548969 -0.901486 -0.380719 -0.444349 0.701113 1.137998 -0.242155 1.576153 0.450246 -0.149752 -0.627545 0.496322 0.036014 -0.424905 -0.695377 0.382057 -0.485629 -0.314685 -1.230590 0.279293 1.311398 -0.772164 -0.399409 0.984969 0.131493 0.228865 -0.196824 0.941778 0.292310 0.283868 0.546879 -0.462899 0.821803 -0.610619 1.898690 -0.628720 -0.564999 0.307935 0.197206 0.110784 0.375667 0.075755 -0.139213 -0.642209 -0.017626 -0.293212 -1.209210 1.160668 0.024201 0.490508 0.092615 0.324229 -0.431697 -0.749521 0.530955 -0.198411 -0.229058 -0.755459 0.737897 0.692140 -0.372967 -0.058865 -1.110166 -0.312709 0.071756 0.071039 -0.664410 0.325809 -0.182354 -0.403405 -0.532917 -0.173119 -0.086107 0.670766 -0.716569 -0.084584
its -0.528026 -0.193849 0.500885 0.626864 -0.247259 0.377941 -0.597128 -0.057146 -0.223149 -0.753147 -0.889530 -0.059153 0.083233 0.176873 -0.242720 -0.280434 0.078617 0.602868 1.037185 0.431753 -0.322129 -0.079112 0.365300 -0.285033 -0.718128 0.162209 0.596716 0.001396 -0.199139 -0.336225 -0.407559 0.049683 0.297203 0.701860 -0.276505 0.495376 0.293456 0.077779 0.573594 0.338923 -0.543142 0.174238 0.365119 -0.679132 -0.387189 0.983835 0.631218 -0.387554 0.020256 0.988681 -0.194184 -0.043945 -0.780898 0.494710 -0.509510 -0.304052 -0.503004 -0.400928 0.443989 0.201757 -0.532605 0.560882 0.415937 -0.467862 0.702922 -1.098066 -0.091750 -0.152013 0.483105 0.700922 -0.566919 0.548390 0.635533 0.044917 -0.089671 0.497066 -0.154452 0.167692 0.256790 0.182605 -0.065473 0.637643 -0.284341 -0.364681 0.293666 -0.507635 -0.394092 0.242474 -0.338790 -0.556683 0.454149 0.195232 -0.485144 0.255029 -0.413766 0.221578 -0.281825 -0.138025 -0.277793 -0.308894 0.630433 -0.426641 -1.517866 -0.646044 -0.268868 0.110163 -1.282936 -0.316444 -0.627916 1.286660 0.207440 0.729819 -0.293655 -0.523857 0.842718 1.035661 1.004503 0.711887 0.742272 -0.884551 1.161038 0.156739 0.064981 -0.153282 0.012721 0.778356 0.357178 -0.532048
than 1.517609 -0.053117 -0.126778 0.169669 -0.055135 -0.071723 -1.310960 0.170565 -0.564108 0.303384 1.360626 -0.350228 0.827414 -0.227443 -1.333375 0.504547 -0.287772 -0.735498 1.639289 0.416475 0.270165 -0.314624 0.185363 0.738631 -1.124946 1.149962 0.617880 0.415457 -0.075710 0.120893 -0.427362 0.298111 -0.901262 -0.220413 -0.768746 -1.007608 -0.435686 -0.719727 0.430894 0.274007 -0.423531 0.668480 -0.853974 -0.016607 0.417619 0.771518 -1.261512 -1.194776 0.294458 -0.289025 -0.713031 -0.267418 -0.116411 0.919656 0.182696 1.436594 0.872075 -1.274477 -0.224190 -1.499644 -1.042131 1.152196 -0.470124 0.108708 0.632812 -0.205462 0.080351 1.354018 0.000855 -0.754293 0.494792 0.316404 -0.505160 -1.241351 0.277601 1.969472 -0.119311 -0.480346 0.028173 0.161080 0.107403 -0.390310 0.394850 -1.850692 -0.023886 0.482300 -1.429924 -0.740869 0.173807 -0.157648 -0.119870 -0.714953 -1.003589 -0.325451 0.977255 0.471513 -0.018722 0.515195 -0.188754 0.554850 -0.971738 0.265283 -1.181979 -0.283114 -0.597170 0.013527 -0.366456 0.141803 -0.793708 -0.360064 0.067210 -0.277194 0.159587 0.571997 -0.128447 -0.725242 -0.600579 -0.471218 -0.681081 -0.850368 0.190042 -0.406658 -0.312930 0.305191 -0.255618 -0.305459 1.294452 0.419954
other -0.093452 -0.150213 -0.043988 -0.101369 -0.194158 -0.358697 -0.817953 -1.112083 -0.909660 0.985370 -0.589540 -1.032235 -0.261050 0.766117 -0.675115 0.457964 0.245752 -0.644405 0.766044 -0.119576 -0.421962 -0.783203 -0.551803 0.892118 0.758981 0.094299 -0.349331 -1.036185 -0.464642 0.390183 -0.140775 -0.305817 0.680076 0.881716 1.412751 0.616786 -0.367329 -0.050903 1.127186 -0.084960 0.267223 1.373780 -0.797516 -0.777294 -0.895097 -0.187375 0.769637 -0.507980 -0.501652 -0.125214 0.504558 0.646170 0.104322 -2.263422 0.374194 -0.499949 1.677586 0.275880 -0.433175 0.933932 -0.808047 -1.183499 -1.422862 0.349243 -0.709458 1.145239 -0.332575 -1.508335 0.227461 -0.528394 -0.579624 -1.704622 0.713058 -0.168990 -0.060355 -0.602896 -0.178093 0.468411 -0.076736 -0.014586 -1.393704 -0.510934 -1.149989 0.003677 -1.198337 -0.806525 0.067614 0.576703 -0.074005 0.112700 -0.762136 -0.725342 0.347752 0.348099 0.583516 -0.001370 0.055112 -0.094679 1.163773 0.402184 0.333838 -0.152015 -0.583521 0.604916 -0.850675 -1.578497 -0.690577 -0.322876 -0.457487 -0.800278 -0.403994 -0.289454 -0.887375 0.042068 -0.163759 0.452475 0.156978 0.231687 -0.245560 -0.117737 0.248531 -0.419080 -0.431452 0.212092 0.005520 -1.419130 0.064961 -0.063860
before 0.172916 0.317401 0.147123 0.002269 -0.462301 -0.485442 -0.251042 0.192907 -0.356661 -0.038322 -0.225294 -0.363892 -1.004460 -0.319102 0.099936 -0.298806 0.452051 1.461212 -0.132205 0.209534 -0.232668 -0.882337 0.291963 0.720914 -0.385643 0.327612 0.301385 0.613598 0.812754 -0.143233 -0.743859 -0.810573 -0.459028 -0.494023 1.011617 -0.791552 -0.259894 -0.382718 0.018368 -0.364704 0.238747 0.665411 -0.437448 0.133372 -0.858215 -0.657343 -0.362810 0.152765 -0.586631 -0.319143 -0.030827 0.976621 0.107117 0.780420 0.026717 0.714392 0.356358 1.239631 -0.352195 0.791283 -0.386646 -0.037241 0.249097 0.788189 0.210683 -0.050416 0.330190 0.457167 0.678489 0.509215 0.125194 0.700258 -0.241858 0.031678 0.565516 -0.229798 -0.046418 0.153607 -0.251368 0.232759 0.099236 -0.197132 -0.514151 0.355092 -0.702186 -0.564768 -0.080265 -0.219243 0.429659 -1.084621 -0.443078 -0.261763 -0.232697 0.052912 0.403999 -0.887783 -0.262895 0.297214 0.236487 0.114996 -0.495676 -0.109015 -0.446392 0.274649 0.580181 1.141890 -0.633149 -0.726823 0.506573 -0.513418 -0.404798 0.182114 -0.582936 -0.380588 -1.397160 0.386714 -0.820263 -0.545919 -0.626657 0.935230 -0.398188 -0.943011 1.142223 0.200377 -0.907938 0.097567 0.508693 0.836269
about 0.072470 -0.247164 -0.107758 0.594216 -0.380981 0.651608 0.423133 -1.664310 0.179146 0.603057 0.881736 -0.108426 0.649965 0.089930 -0.997128 0.428488 -0.501588 0.260186 -0.219063 -0.252438 0.065657 0.102976 -0.018780 -0.295763 0.423065 -0.217364 0.322810 0.207645 -0.287756 0.517585 -1.385726 0.588244 -0.176127 1.016776 0.615721 -0.278462 -0.235027 -0.285460 0.053234 0.189776 -0.079008 -0.257741 -0.234597 -0.133030 -0.859940 -0.294602 -0.433765 0.614139 0.237672 0.429072 -0.112159 0.059076 0.463980 0.582731 0.429832 0.171372 -0.420996 0.456557 -0.651765 0.583129 0.184156 -0.366133 0.438732 0.773102 -1.041825 0.335179 -0.340143 0.504662 0.386529 -0.075165 1.012309 0.019900 0.396222 -0.780820 -0.027139 -0.224229 -0.315056 0.044336 0.253664 0.662706 -0.108400 -0.471555 0.351392 -0.414914 -0.486020 -1.123744 0.202071 -0.852602 -0.370998 0.057276 -0.002634 -0.567009 0.368571 0.314788 0.626933 0.261037 0.434660 0.883853 -0.410322 0.400882 -0.821386 -0.449984 -0.999482 -0.435516 0.104060 -0.401025 0.392598 0.396330 0.601154 0.546145 -0.400932 -1.228169 1.700985 0.202731 -0.838671 0.584284 -0.781760 -0.543777 -0.006763 -0.613495 0.378346 -0.150354 0.122889 -0.215584 -0.447473 1.100453 -0.012808 0.201443
