3000 128
<pad> 0.092584 -0.189421 0.510216 -0.277482 0.354825 -0.977412 0.214144 -0.153008 0.413526 0.369038 -0.308066 0.485825 -0.546365 0.025904 0.057137 -0.740179 -0.217501 0.582109 0.037079 -0.181106 0.112513 -1.035289 -0.954188 0.024737 0.065326 -0.052361 -0.293845 0.172363 -0.208578 -0.350508 0.416530 -0.464502 -0.797590 -0.071570 -0.001820 -1.342978 0.271464 -0.077058 0.264753 -0.577775 0.018391 -0.377894 0.355652 0.861411 0.631235 -0.844383 0.100412 0.276652 0.285635 0.207128 -0.037477 0.408927 -0.015129 -0.145601 -0.383904 -0.423385 -0.227133 -0.373083 0.047958 -0.373760 0.422095 -0.328887 0.235369 -0.102880 -0.515411 0.455239 -0.013759 -0.030998 -1.600129 0.963586 -0.047034 -0.743916 -0.292138 0.019459 0.086617 0.108038 -0.621847 -0.536502 0.189590 -0.251999 0.119475 0.452198 0.025645 -0.052368 0.114049 0.200314 -0.009456 -0.066130 -0.511862 -0.451547 0.203978 -0.370390 -0.467043 -0.109449 0.011056 -0.363190 0.440347 -0.123901 0.080053 0.138281 1.137987 -0.692469 -0.514063 0.183171 0.364427 0.358679 -0.280623 0.067856 -0.642769 0.271779 0.584808 -0.191866 -0.060391 0.042599 0.235361 0.304143 -0.607130 0.557441 0.989902 0.559947 -0.575960 0.058689 0.100710 -0.023542 -0.174857 -0.370500 -0.013434 -0.092248
<start> 0.255015 -0.106793 0.217429 -0.369094 0.683892 0.744797 0.403125 -0.593493 0.029543 -0.182791 -0.061340 0.243549 -0.348824 -0.173548 -0.443649 -0.181757 0.271912 -0.006461 -0.016908 0.239026 -0.159240 1.348726 0.623244 -0.387666 -0.302588 -0.273444 0.294907 -0.174624 -0.350820 0.484659 0.039074 0.756567 -0.222083 0.315785 -0.039975 0.615050 0.646023 0.650771 0.153019 0.730241 0.390037 0.439369 0.023801 0.335959 -0.100491 0.684354 -0.233842 -0.224514 -1.102038 -0.260690 0.017249 -0.205485 -0.433231 -0.569326 0.330601 -0.381102 -0.336237 -0.289456 -0.007284 -0.170754 0.070832 0.450468 -0.300665 -0.977338 -0.999571 -0.391930 0.182077 -0.119837 0.757618 -0.421200 -0.971524 0.226874 0.670124 -0.435654 0.146864 0.878303 -0.075216 0.389132 0.181855 0.431302 -0.294847 -0.272868 0.305930 0.017528 -0.011676 -0.378980 0.153741 0.599025 1.009840 0.029845 -0.643538 -0.611218 0.000146 -0.370379 0.274718 -0.075227 0.134673 -0.191430 0.517378 0.322259 -0.290652 -0.029757 -0.205804 0.174533 -0.660722 -0.108635 0.649072 -0.018005 0.424197 0.121393 -0.167670 0.347527 -0.038872 -0.394014 0.027099 0.316537 0.364556 0.195064 -0.869394 -0.098026 -0.647538 1.043360 0.038862 -0.172823 0.848281 0.246428 0.350622 -0.126244
<end> 0.050061 0.401390 -1.458764 -0.467963 -0.012753 0.009677 -0.564598 -0.365372 -0.581512 -0.321451 -0.000851 -0.524495 0.606781 -0.244398 0.258448 0.598442 0.503572 -1.034292 0.173808 0.572360 -0.053294 -0.281804 0.660374 0.090234 -0.160852 0.358304 0.268262 -0.604009 0.345728 0.623229 0.034467 0.212192 0.503713 0.292666 0.130978 1.074416 0.070512 0.305387 -0.103789 0.441366 -1.073570 0.244059 0.310991 -0.186539 -0.202333 0.554390 0.143611 -0.843450 -0.232433 -0.622753 0.566275 0.190806 -0.136959 0.365105 -0.243577 0.402649 0.637667 0.465467 0.236969 0.459944 0.074918 -0.223394 -0.111578 0.126718 0.792601 0.211545 -0.292839 -0.226707 0.859459 -0.487040 -0.245462 -0.033218 -0.009523 -0.099795 -0.448136 0.166487 0.120467 -0.493198 0.339055 0.173719 -0.245111 -0.439735 -0.031760 -0.149237 0.098952 -0.229079 0.112656 0.351125 0.428304 0.082550 -0.415220 -0.432146 0.444757 0.068957 0.543340 -0.247860 -0.580654 0.881591 0.005951 -0.089438 -0.698420 0.460544 0.183719 -0.138769 0.104101 0.188353 -0.167872 -0.104566 0.603536 0.272204 0.303757 0.266542 0.122778 0.167830 -0.274224 -1.105782 -0.073355 0.040227 -1.085540 -0.422419 1.021795 -0.324561 -0.449205 -0.563675 -0.474094 0.474865 -0.069835 0.325788
<unk> 0.161187 0.099546 -0.440397 0.267838 0.007354 -0.166267 0.505266 0.084111 -0.121910 0.077707 -0.035714 -0.080303 0.034695 -0.146096 0.346119 0.008706 -0.301548 -0.011609 -0.014777 0.014583 0.032759 -0.006674 0.072706 -0.014070 -0.011540 -0.372198 -0.184589 0.101501 0.090259 0.239305 0.362922 -0.119484 -0.304302 -0.180965 -0.093629 -0.073250 -0.216380 -0.018986 -0.013369 -0.092524 0.218582 -0.255605 -0.241989 -0.287479 0.149024 -0.159861 -0.425010 0.085654 0.066555 0.159365 -0.036841 -0.065168 0.054120 -0.062160 0.352630 -0.193863 -0.175045 -0.309611 0.086361 -0.015535 -0.128501 -0.032320 0.472055 -0.126635 0.137547 -0.042978 0.131730 -0.212158 0.417456 -0.399146 0.161441 0.141866 0.134228 0.002858 -0.185031 -0.078484 -0.237504 -0.420036 0.232391 0.118410 -0.121292 -0.008393 0.063206 -0.035791 -0.092507 -0.158488 -0.212918 -0.147189 -0.183903 -0.231316 0.804158 0.221547 0.338814 -0.073510 -0.342954 -0.605251 -0.133005 0.053584 -0.028288 -0.120300 0.449714 0.018866 0.013774 -0.063514 -0.125488 0.310591 0.236307 -0.154323 0.455888 0.128028 0.340727 -0.084903 0.092124 0.260642 -0.163536 0.516096 0.348543 -0.065303 0.007656 0.019545 -0.463221 -0.058380 -0.175469 -0.172064 0.113302 -0.039683 -0.109387 -0.354435
the -0.974871 -0.701676 -0.129584 -0.277239 -0.222220 0.085774 -0.772339 0.676810 0.493048 -0.245036 0.267298 -0.255617 -0.132752 0.730783 0.004446 -0.220017 -0.255572 -0.178349 -0.333038 -0.136588 0.455743 -0.136303 -0.185105 0.238850 0.394122 0.515386 -0.269920 -0.053630 -0.328427 -0.500467 -0.900127 0.356131 0.765983 0.195787 -0.259025 0.059597 -0.214088 -0.026588 -0.587273 0.121313 0.380679 -0.424490 0.469704 0.453662 -0.246980 0.201076 0.372438 -0.374543 -0.066387 0.110960 0.316969 -0.046455 0.434276 -0.543850 -0.569641 0.425928 0.142527 0.300832 0.077028 0.211076 0.036576 0.451512 -0.264275 0.290374 -0.081851 0.527570 0.316556 -0.536843 -0.425881 0.394081 0.062958 -0.097879 0.269707 0.249893 0.253352 -0.373687 0.175207 -0.065757 -0.126145 -0.707518 0.096714 -0.056669 -0.410776 -0.123799 -0.788438 0.055217 0.192949 0.128720 -0.103838 0.393345 0.325891 -0.086210 -0.127207 -0.041839 0.399633 -0.562363 0.173208 -0.152745 0.294235 -0.118215 -0.223013 -0.021349 0.347180 -0.286381 -0.000298 0.115383 -0.291728 0.166911 -0.351619 0.550537 -0.592109 0.412117 -0.723744 0.090773 0.034687 0.658452 -0.242238 -0.047908 0.041711 -0.525053 0.713906 -0.601588 0.033253 0.082525 -0.071978 0.383509 -0.099787 0.203160
and 0.422251 0.371905 -0.427275 -0.129697 0.653515 0.084836 -0.319167 -0.597383 0.088066 -0.232208 -0.401140 0.011951 0.190465 0.171858 -0.383565 0.451335 0.151298 -0.422241 -0.401258 0.240418 -0.018923 -0.146980 0.441025 0.093927 -0.200056 0.001157 0.329516 0.043501 0.036676 -0.114587 0.355370 0.076543 0.451879 0.077776 -0.356627 0.035346 0.467756 0.213373 0.409104 -0.356624 -0.501152 -0.313783 0.068662 0.518243 -0.061468 -0.284966 -0.172530 -0.005294 0.294776 0.370488 -0.156214 -0.039706 0.354269 -0.554363 -0.146931 0.551789 -0.114014 -0.201240 0.007474 -0.006507 -0.093115 -0.136998 -0.341088 0.080621 0.286054 -0.153564 0.014116 0.200556 -0.111308 -0.114951 -0.077982 -0.070093 -0.128931 -0.113062 0.089974 -0.335074 -0.204764 0.097267 -0.478870 0.293790 -0.157697 -0.224989 -0.379991 0.075860 -0.351845 0.269812 0.220034 0.304108 0.270845 -0.081633 -0.236481 -0.323891 -0.240447 -0.258663 0.399448 -0.494563 -0.137822 -0.639946 0.178997 0.256769 -0.189429 0.121961 0.128106 -0.152660 0.036705 0.026261 -0.453780 0.004180 0.056125 -0.041515 -0.061208 0.157863 0.611326 -0.176548 0.266375 -0.120776 0.065450 0.508062 -0.268260 0.323085 0.660482 0.131139 0.034560 -0.100768 -0.120518 -0.211338 0.228693 -0.126393
of -0.120250 -0.437054 0.168880 0.200912 -0.233623 0.281949 0.093919 -0.834434 -0.104180 0.038863 -1.216391 0.119643 0.343660 -0.147603 0.436301 0.513199 0.042008 -0.014560 0.098449 0.316909 0.114708 -0.260192 -0.054250 -0.918337 -0.193519 -0.199621 0.280795 -0.171862 0.365785 0.214419 0.689732 -0.587786 0.182451 0.689295 0.594728 -0.085798 -0.433091 0.306461 1.061479 0.040284 -0.064506 0.476378 -0.733343 -0.505744 -0.069444 -0.802800 0.421281 0.684535 0.046876 -0.260717 -0.273972 -0.099282 -0.145370 -0.150585 -0.286159 -0.429265 0.100327 -0.006346 -0.142847 0.095201 0.031985 -0.025572 -0.275902 -0.017474 0.499431 -0.471376 -0.097659 -0.480579 -0.395853 -0.556184 -1.487824 -0.116138 0.670698 -0.273578 -0.153526 -0.341965 0.089739 0.276242 -0.273600 -0.366426 -0.258749 0.344196 0.000219 0.615867 -0.171127 0.688492 0.146085 -0.253931 0.234730 0.100580 -1.372722 0.505814 -0.117548 0.117528 -0.896989 0.377735 -0.527158 -0.249326 0.536807 0.065094 -0.457741 -0.909478 -0.388488 -0.295615 -0.195267 0.027166 -0.270793 0.344526 -0.028402 -0.037460 0.368874 -0.593819 -0.038091 -0.020459 0.286427 -0.541842 -0.471325 -0.321283 0.186878 0.163784 0.872083 0.341300 0.044837 -0.256365 0.028627 -0.275346 0.008928 -0.007913
to 0.595589 -0.078160 -0.219687 0.741606 -0.147396 -0.138216 -0.645017 -0.901569 0.363831 0.430772 -1.277194 0.397516 -0.628482 -0.122234 -0.436880 -0.304592 0.731942 0.007361 0.049298 0.065767 -0.711181 -0.021504 -0.156186 -0.177040 -0.247016 0.194337 0.356779 0.046862 -0.194147 0.724881 0.152419 -0.153386 0.348349 0.622928 -0.213521 0.123422 0.196059 -0.209614 0.322464 0.669250 0.156301 -0.413117 -0.416280 -0.003138 -0.628762 -0.412564 0.239120 -0.699956 0.135272 0.927755 -0.566960 -0.227275 0.464418 -0.013965 0.283882 0.218151 -0.373147 -0.133490 -0.016271 -0.337327 0.323674 -0.297022 -0.235439 0.746159 0.366742 0.100567 0.066915 -0.615249 0.130663 -0.004087 0.778125 -0.061915 0.044608 0.156661 -0.270909 0.255110 0.032107 0.133786 0.388277 -0.058939 0.041604 0.193399 0.094402 -0.674481 0.516604 0.336511 -0.029243 0.187304 -0.680736 0.243562 -0.557692 0.444109 -0.118339 0.110411 0.194962 0.733750 0.388277 0.634989 0.016828 0.338545 0.018985 -0.369272 -0.161330 0.210785 -0.411189 -0.504816 -0.409724 0.330115 -0.305967 0.032805 0.190931 0.358870 0.196950 0.120702 0.140397 -0.284781 -0.386120 0.153128 -0.103062 -0.770051 1.159547 0.396725 -0.046872 -0.121771 -0.224976 -0.312638 0.470108 0.422470
a -0.648645 -0.265397 0.035510 0.435215 0.091020 0.359881 -0.661408 0.042486 0.768616 -1.173034 0.717171 -0.493493 0.696179 0.566627 -0.830229 0.193209 -0.495142 -0.453635 0.005491 -0.328538 -0.099042 -0.086838 -0.136100 -0.441843 0.161030 0.601709 -0.159827 0.051654 -0.595581 -0.825185 -1.087299 0.564899 0.173434 0.191714 -0.241677 0.396072 0.291327 -0.082263 -0.471064 0.414866 -0.454173 -0.294073 0.458989 0.119405 -0.160279 -0.295544 0.585753 -0.296890 -0.023349 0.463057 0.182516 0.006789 0.180263 -0.734450 0.217459 0.189324 0.060440 0.207482 0.301195 0.340833 -0.405763 0.096938 0.372921 0.052569 0.310293 -0.150142 0.110597 0.145822 -0.012751 1.327828 0.038554 -0.105596 -0.380251 0.012294 0.453067 -0.004559 0.099944 -0.715602 0.492006 -0.592373 -0.527674 -0.152393 -0.546215 0.223045 0.154823 -0.090561 -0.495811 -0.758255 -0.132328 -0.002212 -0.093680 0.412131 -0.428705 -0.082787 0.412637 -0.274474 0.451917 -0.091120 0.486157 0.230849 -0.521097 -0.240817 -0.533463 0.220551 0.053131 0.244351 -0.259057 -0.104246 -0.908393 0.310528 -0.593173 0.168171 -0.509364 -0.051194 0.220121 0.138887 -0.449990 0.193500 -0.320339 0.583750 0.434549 -0.443761 -0.054768 0.216734 0.270997 0.552445 -0.444085 -0.034040
in -0.338311 0.669553 0.636009 0.355321 -0.102328 -0.360166 -0.442671 -0.526751 -0.016697 0.454176 0.097003 -0.354330 0.150089 -0.001339 -0.520686 -0.111769 0.182245 -0.426017 0.134778 -0.356902 0.324656 -0.169029 -0.343450 0.083304 -0.006512 0.047880 -0.386686 -0.560888 -0.069287 0.256010 -0.050797 0.115421 -0.344367 0.945776 0.369013 0.060478 0.458426 0.185454 0.687315 -0.318878 -0.744819 0.188708 -0.645764 0.192189 -0.595431 -0.398387 0.284224 -0.213714 0.050697 -0.222267 0.181742 -0.585770 0.201015 0.753801 -0.395702 0.144834 0.314472 0.018656 -0.159467 -0.844684 -0.600222 -0.460785 0.003455 0.240116 -0.223910 -0.597298 -0.216818 -0.272105 0.643991 -0.619824 -0.299445 0.133255 0.873580 -0.893355 -0.106830 -0.012813 -0.221692 -0.092427 -0.209694 0.203765 0.384833 0.128197 -0.410239 0.135751 -0.033687 0.909851 0.272056 0.021967 0.482946 0.407691 -0.132033 0.304594 -0.057685 -0.007530 -0.033101 -0.023624 -0.039603 0.240016 -0.463780 0.124332 0.181828 -0.510973 0.379699 0.085937 -0.389430 -0.461008 -0.090692 0.084459 -0.477933 0.058914 0.628423 -0.865641 0.330839 0.728799 0.555968 -0.173154 -0.201541 0.371014 0.380205 -0.017034 -0.086486 -0.197530 -0.457625 -0.579125 -0.093699 -0.199339 0.727780 0.194015
i -0.798095 -0.062374 -0.346112 -0.786270 0.008512 -0.271381 0.515112 -0.425890 -0.117881 0.238773 -0.149430 0.100001 0.077606 0.301057 -0.196526 0.177503 -0.051847 0.808963 -0.520291 -0.012959 -0.117642 -0.420997 -0.184977 0.593901 -0.330698 0.187449 -0.322640 0.013272 0.416312 -0.340378 -0.610512 -0.007174 -0.366162 -0.337774 -0.244638 0.523489 0.037918 -0.277177 1.108392 0.289173 -0.280751 0.363822 -0.613278 -0.830618 -0.599179 -0.100593 0.363423 -0.500496 0.602948 -0.615460 -0.671684 0.587532 0.943939 -0.125326 0.428759 -0.777141 -0.368633 -0.575092 -0.530427 0.072809 -0.645706 0.219353 0.107126 0.699730 0.419322 -0.389708 -0.910699 -0.206874 -0.122581 0.491466 -0.189388 0.088861 0.238278 0.764728 0.242703 0.324129 -0.520571 -0.003481 -0.440114 0.463291 -0.522805 0.220683 1.156202 -0.691486 -0.445031 0.303983 0.175730 -0.274545 -0.737882 0.728012 -0.483029 -0.384085 -0.259759 0.190289 1.123588 -0.719729 0.187883 0.112236 -0.303108 -0.281892 -0.243872 0.218038 0.915547 0.411902 0.278483 -0.048405 -0.655073 -0.169589 0.132526 -0.215456 -0.533459 0.195933 -0.235959 0.105823 0.353792 0.045787 -0.159212 0.078246 0.015176 -0.190432 0.004839 -0.251836 -0.249823 0.380345 -0.187331 -0.035930 0.051316 -0.096976
he -0.648318 0.066902 0.041800 -0.193661 -0.454343 0.047140 0.960289 0.490795 -0.016338 0.409338 0.139635 -0.372484 -0.394710 0.236438 0.246458 -0.302403 0.122916 0.212837 -0.160401 0.137918 0.113067 -0.470842 0.137896 0.342015 -0.247952 0.146502 -0.631460 -0.105350 0.175744 0.082197 0.379962 0.292497 0.601301 -0.504331 0.298019 -0.068368 -0.051466 -0.512684 0.977642 0.193364 0.040314 -0.140214 0.322456 -0.300764 -0.719785 -0.082162 -0.174778 -0.148798 0.483468 -0.105955 -0.166190 -0.101839 0.189919 0.304216 0.266875 -0.525083 -0.750865 -0.792388 -0.443286 0.329786 -0.452516 0.166494 0.275109 0.259720 0.418730 -0.434679 -0.263091 0.412715 0.138312 0.136849 -0.150111 -0.552563 0.980934 0.651221 -0.843211 1.032807 -0.063230 -0.437494 -0.458252 0.195259 0.067224 0.470046 0.368677 -0.469145 0.397907 -0.033836 0.031164 -0.695908 -0.048930 0.159098 -0.478395 -0.844495 -0.535414 0.703310 1.207997 -1.029322 -0.264876 -0.392906 -0.127358 0.095705 0.399169 0.905996 0.486844 -0.156706 0.442613 0.178881 -0.474673 -0.238397 -0.020639 0.249367 -0.383920 -0.202267 -0.173373 -0.492572 0.541947 0.274337 -0.068049 0.289620 -0.144903 -0.500091 0.505721 -0.127525 -0.002201 0.455769 -0.454132 -0.394485 -0.303226 0.282463
that -0.203228 0.139750 -0.306261 0.021613 -0.118828 0.294534 -0.069018 -0.164405 0.217741 -0.211320 0.325142 0.247808 0.200991 -0.297608 -0.456423 -0.406283 -0.162384 -0.013119 0.035118 -0.481591 0.441967 0.189237 -0.186465 -0.134182 0.071764 -0.413841 0.189429 0.151999 -0.509666 0.399880 0.508241 -0.247423 -0.189187 0.224543 0.951323 -0.134589 0.437301 -0.124502 0.329090 0.293156 -0.268855 0.055525 -0.208100 -0.260771 0.148503 -0.105103 -0.010211 -0.734067 -0.100866 -0.111626 0.481053 0.095286 -0.809405 -0.230858 -0.054094 0.345327 0.051831 -0.241707 -0.043036 0.320209 0.161250 0.778154 -0.063708 1.184798 -0.040210 0.283838 0.360947 0.255650 -0.304296 0.510190 -0.119843 -0.253643 0.585151 -0.249259 0.519890 -0.458304 -0.180421 0.108371 0.032105 -0.282607 -0.430078 0.548380 -0.032221 0.168879 -0.516627 -0.129023 0.269340 0.793881 0.288192 -0.293180 -0.043982 -0.177828 -0.420750 -0.364493 0.331071 -0.099463 -0.185912 -0.288535 -0.063456 -0.132573 -0.870639 0.338815 -0.637624 -0.277577 -0.101278 -0.043422 -0.277144 0.528041 0.174667 -0.687797 0.054892 0.030560 0.289213 0.057038 -0.211036 0.302214 -0.185346 -0.189052 0.067877 -0.164665 0.146776 -0.482159 0.335997 0.343053 0.375573 -0.275663 -0.266705 -0.104387
his -0.461559 -0.265486 0.635745 0.413026 -0.786949 0.700568 -0.445519 -0.159957 0.254878 0.116850 0.169724 -0.442773 -0.044390 0.889512 -0.289520 0.233806 -0.396943 -0.324692 0.128383 0.110829 0.001449 -0.225379 0.196997 0.082998 -0.084532 0.811030 0.038606 0.020160 0.002060 -0.724371 -0.205977 0.476738 0.612982 -0.266211 0.063659 0.038562 -0.532054 -0.615943 0.173072 -0.730199 0.087504 -0.590760 0.405584 0.697630 -0.238527 0.485996 0.761365 0.071817 -0.415159 -0.306756 -0.025630 0.510166 0.779239 -0.834413 -0.050190 0.538144 0.086280 0.097602 -0.243152 0.098257 0.014594 0.519581 0.470858 0.662624 0.172257 0.467781 -0.394461 -0.109600 -0.475177 0.505018 -0.222874 -1.024712 -0.259558 0.368069 0.724283 -0.493073 0.228201 -0.806681 0.079176 -0.290642 0.308624 -0.400309 -0.164317 0.077672 -0.413517 -0.561000 0.096480 0.348747 0.195437 0.837276 0.161027 0.054461 0.253365 -0.259852 0.100950 -0.464699 0.539878 -0.364987 0.069044 -0.452713 -0.670111 -0.026462 -0.308947 -0.221571 -0.125949 -0.906126 0.042553 0.675375 -0.310694 0.274289 -0.215406 -0.067905 0.137004 -0.103943 0.142642 1.088523 -0.479446 -0.781067 0.008293 0.141916 0.523647 -0.930332 0.249093 0.675714 -0.239428 0.826017 -0.485017 0.500946
was 0.465613 -0.045396 -0.303448 0.181927 -0.243244 0.703620 -0.337877 -0.234327 0.137423 -0.303634 0.062686 0.242730 0.786683 0.300576 0.578352 0.664680 0.181548 0.274197 0.678000 -0.567938 -0.128808 0.213700 -0.216520 0.436917 0.342930 1.155717 0.025735 -0.694047 0.069722 -0.316596 -0.536674 -0.176067 -0.075324 -0.634924 -0.309470 -0.687591 0.682822 0.524462 0.081617 -0.501961 -0.848345 -0.107562 -0.241270 -0.237802 0.064143 1.067920 0.666842 0.918705 0.748062 0.400349 -0.467222 0.020234 -0.433387 0.297220 -0.234530 0.313729 0.369066 0.353202 0.057609 -0.428338 -0.422655 0.013260 -0.594186 0.804437 -0.283773 0.742107 0.186721 -0.431837 -0.320999 -0.155498 -0.806985 -0.256751 -0.612522 -0.844769 -0.752699 -0.299540 -0.935806 0.336882 -0.463780 0.458293 0.672910 0.546217 0.304491 -0.084558 0.813368 0.402092 -0.811879 0.057899 0.652965 -0.550121 0.695388 -0.224202 -0.015183 -0.103360 -1.080132 1.001238 -0.191029 0.068976 0.314222 -0.464926 -0.182725 -0.474207 0.120329 -0.583994 0.504611 0.144741 0.120821 -0.806955 -0.036499 0.132024 -0.535345 -0.025178 -0.033740 -0.362430 0.310761 0.500412 0.294177 0.034061 -0.287157 0.418865 -1.234586 0.240357 0.020967 -0.207209 0.253990 -0.140993 0.262675 -0.378828
it 0.063045 0.324508 0.256890 -0.342782 -0.668335 0.402038 0.294494 0.450316 -0.010949 -0.328404 0.280167 0.213902 0.167264 0.191816 -0.357718 0.221696 -0.331246 0.112694 0.098292 -0.463672 0.161586 0.311832 -0.315300 0.249459 0.172394 -0.281360 0.273551 0.437772 0.318366 0.359031 -0.125789 0.035179 0.324915 0.102946 0.497324 -0.652299 0.218661 -0.554711 -0.121704 0.197283 0.209818 -0.143664 -0.194424 -0.217960 -0.183038 0.159005 0.300495 0.407756 0.278443 -0.522822 0.139483 0.521382 -0.019150 0.132446 -0.331175 -0.494370 -0.631984 -0.571767 -0.483094 0.456118 0.424272 -0.398474 0.324173 0.643783 0.597971 0.075690 -0.566059 0.189969 0.816434 0.087514 0.604271 -0.067893 1.068084 0.480643 -0.208251 1.155334 0.415143 -0.276747 -0.187867 -0.137083 -0.300306 -0.315058 -0.405687 0.079904 0.178476 -0.448152 -0.256865 -0.216124 -0.180270 0.813265 0.856438 -0.648057 0.040066 0.799194 0.430178 -0.756584 -0.482157 -0.556016 0.185386 -0.217912 0.527194 0.675223 -0.174078 0.649711 0.144953 -0.275348 0.438094 0.745265 -0.527134 0.480953 -0.298381 -0.168018 0.074211 -0.216049 -0.719634 0.770744 -0.648200 0.605537 -0.073056 -0.788754 -0.109303 -0.261630 1.019658 0.133573 -0.064331 0.185917 -0.247271 0.091901
you -0.764003 -0.422884 -0.264452 -0.643872 -0.683948 -0.652248 0.767307 -0.396193 0.335103 -0.307885 0.484609 0.584813 0.423246 -0.084031 0.408605 0.312197 -0.172740 -0.076257 0.367525 -0.130471 -0.558315 0.501752 -0.216829 -0.043441 -0.342863 0.148978 0.511762 0.255404 0.065228 -0.795230 -0.028018 -0.942735 0.082756 -0.565071 0.155488 0.287896 0.154809 -0.111289 0.349633 -0.287380 -0.743125 -0.380986 0.374749 -0.076531 -0.747399 -0.306935 1.243470 0.165001 -0.574161 0.417383 -0.490031 0.945880 0.348892 0.044382 -0.711175 -0.653192 -1.028129 -0.411412 -0.389949 -0.379398 0.484693 -0.459695 0.652736 -0.395608 -0.588572 0.562375 -0.927355 0.117699 0.188863 0.285773 0.551112 -0.094150 0.713148 0.211973 -0.062180 0.183999 0.671523 0.353075 -1.351246 0.582592 0.056752 -0.095296 -0.010807 -1.095329 -0.281985 0.036197 -0.036167 -0.237492 -0.474064 0.226577 0.422956 -0.100056 0.634503 0.151629 0.585548 -0.628301 -0.225658 0.273088 -0.022828 0.126122 -0.213641 -0.406203 0.134144 0.681863 0.251533 0.215144 -0.564534 -0.124326 -0.276629 0.162087 -0.704037 0.653115 -0.273265 0.235792 -0.211994 -0.256897 0.423792 -0.572750 -0.138356 -0.199332 -0.000531 0.059104 0.130961 0.745157 -0.319130 -0.220314 -0.541381 -0.396602
with 0.861009 0.085695 -0.761942 0.317707 -0.175108 -1.027073 -0.474297 -0.327110 -0.189655 -0.239210 -0.332943 -0.732286 -0.637512 0.133449 -0.579245 -0.111558 0.214903 0.360407 -0.303480 -0.559541 0.111703 0.161917 0.321421 -0.468942 -0.335709 0.128507 -0.632288 -0.316457 0.362406 -0.354052 0.516149 -0.110083 -0.075299 0.256861 -0.156964 0.253619 -0.278236 0.667730 0.184882 -0.716729 -0.053953 0.562945 -1.332737 0.134989 -0.629398 -0.667712 0.696332 0.550277 -0.146133 0.255476 -0.142709 -0.122877 -0.518084 0.270315 0.047086 0.234457 0.267669 0.024050 -0.680296 -0.398906 0.321112 -0.214504 -0.756705 0.252884 -0.248197 -0.711177 -0.127353 0.035970 -0.289056 -0.402385 0.022662 -0.590857 0.370733 -0.605206 -0.592388 -0.388106 -0.535584 -0.420233 -0.097558 -0.951159 0.293947 -0.007443 0.096841 0.864427 -0.102362 0.046706 0.602438 0.317215 0.419221 0.709783 -0.928051 -0.204152 0.396487 -0.287588 0.101365 0.077864 0.224472 0.075015 0.364184 -0.695827 0.287247 0.272406 -0.266861 0.133463 0.332472 -0.744452 -0.203909 -0.106819 0.362154 0.277522 -0.135617 0.290934 -0.294443 0.639543 0.028920 -1.142194 -0.133093 0.121853 0.057280 -0.084015 0.006963 -0.343444 -0.234649 -0.866894 -0.142625 -0.228112 -0.110536 0.304712
is 0.295544 -0.187556 -0.273019 -0.489497 -0.706355 0.575313 -0.250402 -0.574588 -0.027761 -0.523246 -0.416221 -0.244709 0.570049 0.422313 0.077559 0.629144 0.244264 0.295001 0.896745 -0.187448 -0.363603 -0.066808 -0.199039 -0.162607 0.797825 0.612378 0.038933 -0.775121 -0.136629 -0.000263 -0.705484 -0.342965 0.126881 -0.075003 -0.565820 -0.442803 0.289822 0.503628 0.078359 -0.365146 -1.265069 -0.345116 -0.145694 -0.368855 -0.117619 0.528514 0.740241 0.805014 0.239299 -0.006562 -0.732700 0.392915 -0.718843 0.511773 -0.212013 0.432924 0.407630 0.381641 -0.525950 -0.154359 -0.228453 0.422337 -0.505697 0.574227 0.095605 1.059877 0.459689 -0.733328 -0.471206 -0.285002 -0.635130 -0.189633 -0.615580 -0.755200 -0.690263 0.076768 -0.629843 0.129520 -0.537338 0.495278 0.155710 0.222243 0.459772 -0.138104 0.461166 1.009512 -0.564581 -0.069719 0.769070 -0.573900 0.515171 -0.059191 -0.339437 0.160998 -0.313408 1.020019 0.131261 -0.292240 -0.238584 0.034022 0.085203 -0.436405 0.348563 -0.725538 0.314573 0.341129 0.141534 -0.854432 -0.201783 0.080723 -0.591773 0.502998 0.213678 -0.248955 -0.112944 0.160307 0.368571 -0.044010 0.064390 0.149790 -1.722064 -0.007897 0.038532 -0.335206 -0.313627 -0.261462 1.236980 -0.605484
as 0.562875 -0.172849 0.334723 -0.134095 0.012133 -0.259008 0.206051 -0.766572 0.177340 0.066447 -0.190790 -0.542670 0.290620 0.322561 0.274360 -0.499628 0.407827 -0.341117 0.287361 0.295800 0.191956 -0.675280 -0.175459 0.131108 0.728387 -0.051825 -0.036328 0.491676 0.322388 0.388206 0.401272 0.036254 -0.617407 -0.116486 0.292764 -0.307979 0.059703 -0.207818 -0.415805 0.544091 -0.184143 0.052176 -0.171027 -0.098298 0.342682 0.187690 0.287257 -1.005840 -0.590681 -0.156632 -0.661059 -0.127172 -0.392562 -0.539943 0.192947 -0.015349 0.148463 0.553551 0.261249 0.096065 -0.202962 -0.261627 -0.435660 -0.296611 -0.540364 0.282891 0.042956 0.974991 0.559371 -0.177811 -0.044301 -0.244484 0.181776 -0.700861 0.204808 -0.574082 -0.333840 0.259593 -0.161724 -0.223125 0.358433 0.208030 0.048273 0.093795 -0.418671 0.355117 0.306782 0.743090 0.581965 -0.087426 -0.098799 0.508921 -0.057006 -0.250849 -0.032753 -0.057261 -0.553124 -0.445198 0.816262 0.238706 -0.563611 0.264466 -0.088496 -0.412189 0.412452 -0.646600 -0.924356 -0.078373 0.043044 -0.073919 0.245950 -0.145538 0.460116 -0.206464 -0.303790 -0.463079 -0.428135 0.547957 -0.368722 -1.024862 -0.457985 0.083756 -0.284079 0.443021 0.257802 -0.246615 -0.193819 0.537617
not -0.185887 0.091041 -0.538362 0.558878 0.705398 0.363805 -0.116195 0.105972 -0.315349 0.035963 0.664271 0.015081 0.172264 -0.217272 0.010929 0.378152 0.047319 -0.735254 0.028153 -1.091548 0.078718 -0.265820 0.224742 -0.309775 -0.164771 -0.370502 -1.407573 -0.695911 -0.984365 -0.057902 0.546053 -0.133831 -0.448578 -0.246954 0.160964 -0.517012 1.182297 0.215316 0.486187 -0.146147 -0.288884 -0.261462 -0.029552 -0.185467 -0.456752 0.077999 -0.157589 -0.385939 -0.032300 -0.541780 -0.095902 -0.401749 0.309051 0.433068 -0.136673 -0.568906 -0.337073 -0.907202 -0.835410 -0.575754 0.740857 -0.075753 0.459220 -1.598429 0.762325 0.833445 -0.464280 0.125409 -0.327486 -0.206428 -0.612340 0.047847 -0.611563 0.379170 -0.278156 1.016640 0.656310 0.211619 -0.014110 -0.204161 0.165994 -0.055568 -0.115162 0.130144 -0.902213 -0.808298 -0.437631 0.467870 -0.871263 0.021652 -0.093591 -0.142969 0.119766 0.194064 0.151356 0.310029 -0.801508 0.443481 0.009080 0.430782 -1.033318 0.369683 -0.561556 -0.005813 -0.294928 -0.343305 0.492565 0.205591 -0.302612 0.468832 -0.036805 0.015630 0.501520 -0.146388 0.181890 0.114278 0.142130 -0.625872 0.230097 -1.060180 -0.275845 0.627435 -0.050154 0.118902 0.211713 -0.444432 0.405989 0.456734
for 0.089790 0.079267 -0.329818 0.395657 -0.162239 -0.393261 -0.248763 -0.682191 -0.065939 0.567632 -0.136887 -0.763252 0.036436 0.193004 0.434197 -0.140047 -0.142791 -0.233354 0.419457 -0.942561 0.128751 -0.012552 -0.133759 -0.667275 -0.644756 -0.441317 -0.200091 0.198529 0.774954 -0.236463 0.404121 0.110170 -0.031288 0.491271 0.348637 -0.109731 0.515926 0.608205 0.608904 -0.288751 -0.414009 -0.285078 -0.618994 -0.355123 0.177608 0.129133 0.553719 0.154489 -0.128968 -0.357649 -0.853533 0.012482 -0.303066 0.025121 -0.262937 0.117359 0.672039 -0.087496 0.453467 0.144871 -0.279959 -0.409759 -0.121738 0.087246 -0.670223 -0.281950 1.035220 0.236003 -0.075773 -0.179966 0.326796 -0.146168 -0.058250 -0.123455 -0.220996 -0.241841 0.101560 0.546430 0.665511 0.556370 -0.118361 -0.012361 -0.018489 0.896722 0.403163 0.328883 0.624423 0.162344 -0.162759 0.261415 -0.719199 -0.369796 0.123730 -0.211997 0.420368 -0.165862 0.330209 0.399120 -0.191748 0.488346 0.499830 -0.166543 -0.057178 -0.218275 -0.546809 -0.248638 -0.008450 0.255977 0.131292 0.548678 0.243988 0.056621 0.158515 -0.111961 -0.043601 -0.985102 -0.051841 -0.197865 -0.326473 -0.338222 0.218798 0.289190 0.617105 -0.580012 -0.139498 -0.800898 -0.595782 0.425197
had -0.597568 0.407082 -0.284320 -0.028169 0.423746 0.476130 -0.822426 -0.558833 -0.422681 0.104353 -0.454948 0.358672 0.509407 0.139087 1.102795 -0.141844 0.606154 -0.257333 0.207221 0.002156 0.257842 -0.039427 -0.201447 0.371875 0.544428 0.318558 -0.095145 -0.454912 0.968427 -0.646079 -0.262775 0.130142 1.121132 0.908804 -0.583518 -0.782224 -0.911141 0.061154 0.247896 0.235556 0.815868 0.106427 -0.329323 0.432008 -0.420872 -0.473813 1.146750 0.344008 0.520414 0.178713 0.111223 -0.020203 -0.495000 0.035285 0.054738 -0.032444 -0.919813 0.647949 -0.102402 -0.288728 -0.246166 -0.518266 -0.464340 0.492251 -0.596838 -0.324993 0.358199 0.190678 -0.084769 0.336329 -0.523363 -0.125068 -1.378312 -0.602794 0.099217 -0.799720 -0.671802 0.326767 -0.186122 0.707056 0.459655 0.372635 0.082706 -0.257946 0.662252 -0.438494 -0.332954 0.449159 0.250634 -0.350944 -0.128739 -0.213429 0.610303 0.366622 -0.481197 1.148639 0.411738 0.649194 0.247186 -0.863326 -0.373677 0.763416 -0.212994 -0.206868 -0.475427 -0.171731 0.134500 -1.429142 0.133181 -0.261267 0.406657 -0.175295 0.831253 0.192597 -0.010358 0.176688 0.143023 0.661339 0.040297 0.778479 -1.401736 -0.057516 0.818795 -0.368329 0.194347 -0.455529 0.222404 0.722152
but 0.175508 0.520364 -0.555119 -0.747181 0.594066 0.562624 0.407483 0.001014 0.128531 0.553298 0.158831 0.140026 0.680897 -0.273975 -0.041492 0.509934 0.422261 -0.538597 -0.158347 0.293459 0.055025 -0.006818 -0.174364 -0.073449 -0.534054 0.012419 -0.239732 -0.017244 0.028158 0.033921 0.176079 -0.506015 -0.270148 0.079401 -0.037665 -0.221157 0.367386 0.361575 0.469918 -0.088436 -0.086806 -0.327630 0.164118 0.346888 0.050735 0.160555 -0.187093 -0.748855 0.448288 0.250893 -0.204124 -0.224025 -0.614741 -0.131397 -0.443099 0.426420 0.420317 -0.115041 -0.166452 0.407494 -0.105293 0.458310 -0.272934 0.112363 -0.192109 -0.164244 0.293122 0.369878 -0.149120 0.631174 0.078598 -0.113203 0.060050 -0.254402 0.284017 -0.245171 -0.196155 -0.361498 0.519191 0.492049 -0.523572 -0.601759 0.250469 -0.139835 -0.340639 0.390917 0.485542 0.330488 0.713471 -0.009903 -0.192363 -0.513747 0.262698 -0.204056 -0.304679 0.033417 -0.031345 -0.501680 0.348068 -0.080590 -0.076990 0.296670 0.019689 -0.268921 -0.084675 0.334616 -0.114765 0.285936 -0.266751 0.012418 -0.224076 0.143004 0.508551 -0.432031 -0.127590 -0.301516 -0.138666 0.272508 -0.545185 -0.550951 0.149738 0.078744 -0.660242 -0.319708 -0.085067 -0.251502 0.085911 -0.310627
at -0.259854 -0.281428 -0.468978 0.112583 0.581474 -0.885720 -0.107381 -0.384781 -0.196012 0.660505 0.533337 -0.233156 0.394704 -0.247071 -0.456358 0.656682 0.339933 0.105136 0.716485 -0.075317 -0.327608 -0.318538 0.012525 -0.779483 -0.604513 -0.581034 0.848129 0.305222 0.897182 0.098775 -0.649617 0.107626 -0.171245 -1.211993 0.207509 -0.336864 -0.106243 0.477818 0.783925 -0.052103 -0.284094 -0.476803 0.878943 -0.017629 0.121296 -0.770021 -0.014978 0.185161 -0.132718 -0.313248 -0.233345 -0.423228 -0.602298 0.622197 0.558719 1.121210 0.357200 0.502589 -0.245618 -0.731248 0.793750 -0.021013 0.192797 0.443648 -0.667915 0.142054 -1.104507 -0.639861 0.628989 -0.084179 -0.169116 0.922822 0.779227 -0.060495 0.318472 -0.309518 -0.311068 0.598796 0.011100 -0.309087 0.015900 1.372497 0.308110 0.893040 0.606347 0.770215 0.225645 -0.436426 0.720504 0.008205 -0.935979 -0.307248 -0.043944 0.094683 -0.302439 -0.039490 -0.521990 0.952627 0.548868 0.191386 0.726572 0.542129 -0.466394 0.102537 -0.821271 -0.764232 -0.182903 0.271547 -0.316137 0.332476 0.101396 -0.893266 0.229553 -0.380829 0.835788 -0.151077 -0.034851 0.181990 0.293434 -0.783848 0.587466 -0.043029 0.038290 -0.674140 0.127026 -0.196188 0.106541 1.204289
be -0.211535 -0.135005 0.273314 -1.328132 -1.463822 -1.038987 -0.479023 -0.128161 0.661693 -0.134850 0.217702 -0.597397 0.067570 -0.696133 0.566611 -0.583967 -0.139175 0.992644 0.223779 -0.685618 0.158747 0.634349 0.576902 -0.352641 0.702616 0.326844 0.128206 0.692889 0.251802 0.260897 -0.780721 0.221803 0.347677 -0.938053 0.532918 -1.338009 1.181777 -0.286306 -0.654035 -1.615289 -0.487676 -0.289607 0.835165 -1.159517 -0.467126 -0.140606 0.787970 0.776127 -0.619634 0.294637 0.118028 0.051752 -0.944958 0.632180 0.119303 -0.943179 -0.243662 0.432305 0.027474 -0.331277 -0.346655 0.636253 0.258490 -0.498310 1.154682 -0.124656 -0.076917 0.038997 -0.456051 -0.378561 -0.286952 -0.443250 -1.398311 0.864349 0.057798 0.650985 -0.486490 0.251833 -0.345401 1.827341 -0.826070 -0.550360 0.429025 0.455028 -0.370381 -0.377306 0.376333 0.515658 1.574026 -0.638199 -0.049257 0.944265 0.098357 -0.312778 0.662435 -0.123918 -0.218703 -0.785798 -0.488659 -0.809910 -0.153747 0.950754 0.282325 -0.823299 -0.110847 0.075152 0.166747 -1.383424 -0.087440 -0.349587 -1.098461 -0.963781 -0.933781 -0.025293 -0.758711 0.413663 0.381239 -0.552226 -0.318325 -0.114499 -0.148102 0.479856 -0.208804 -0.185429 0.729043 -0.166901 0.178708 -0.784385
on 0.204788 0.490409 0.118407 0.511571 0.257141 -0.500505 -0.691663 -0.540865 -0.055297 0.653641 0.209697 0.057602 0.579762 -0.283152 -0.060005 0.878325 0.336151 0.425695 -0.324785 -0.150985 -0.374006 0.062092 -0.716069 -0.046908 -0.203966 -0.131587 -0.172807 0.783827 -0.212877 0.174803 0.613520 0.099956 0.158282 0.371012 0.199077 0.902221 0.108598 -0.567995 1.192787 0.213681 -0.089983 0.885279 -0.135892 -0.871424 0.736024 0.026065 0.370888 0.131704 -0.708299 -0.729524 -0.877147 0.339787 0.081789 0.274402 -1.413921 0.444983 0.582776 0.126429 -0.071498 -0.996082 -0.031625 -0.194869 -0.330634 0.260232 -0.292944 -0.684749 0.182679 -0.046664 0.108913 -0.115313 -0.140950 0.264536 -0.261575 -0.884079 -0.275758 0.252609 -0.542213 0.040945 -0.217350 0.244726 0.063114 0.006174 -0.131697 -0.107182 -0.158592 -0.132567 -0.356809 0.598969 0.007521 0.234703 -0.374606 -0.287910 -0.398023 0.293279 -0.744431 0.017888 0.185235 0.639619 0.959930 0.852183 0.856562 0.756224 -0.174103 0.094618 -0.063659 -0.404841 -0.243224 -0.170997 -0.366826 0.522132 -0.046681 -0.962649 0.285246 0.294181 0.688924 -0.146117 -0.106680 -0.585684 0.291873 0.200324 0.786783 -0.175533 -0.834540 -0.426849 -0.300450 -0.839700 0.905618 0.494307
her -0.284795 -0.138028 0.123236 0.021934 -0.811553 0.267310 0.033298 -0.043010 0.382362 0.350357 0.165522 -0.588591 -0.462584 0.839517 -0.692155 0.443167 -0.048314 -0.165150 -0.117195 -0.621180 0.542679 0.351820 -0.328811 0.287668 -0.249826 0.148371 0.345713 0.528816 0.142786 -0.553116 -0.514764 -0.042666 0.203055 -0.552508 0.063329 -0.449789 -0.333063 -0.393546 -0.168402 -0.345306 -0.508547 -0.107651 -0.103534 -0.005823 -0.385230 0.645610 0.604903 0.224417 -0.068436 0.042634 0.203223 0.294043 0.685984 -0.919028 -0.249270 0.202136 -0.712439 0.323145 -0.131537 -0.291350 -0.017456 0.256172 0.076533 0.159231 0.192925 0.259057 -0.305726 0.054245 -0.997252 -0.061275 -0.536442 -0.757214 -0.000253 0.325781 0.386748 -0.905474 0.645069 -0.551663 0.491200 -0.435663 0.237670 -0.139548 0.090358 -0.272894 0.248786 -1.305350 0.089301 0.074368 0.471843 0.568859 0.629901 -0.036959 0.169843 0.240235 -0.108490 -0.383620 0.219731 0.318348 -0.082125 -0.145803 -0.688751 -0.203704 0.204347 -0.459547 0.138928 -0.374376 0.422508 0.834908 -0.520777 0.266295 -0.345435 0.007115 0.548047 -0.130113 -0.188925 1.084605 -0.063666 0.010066 -0.124212 0.403809 0.230994 -1.001909 0.393531 0.690389 -0.075995 1.174069 -0.518532 -0.154477
my -0.767283 -0.121522 -0.023590 -0.196708 -0.920324 0.222588 -0.017221 -0.427106 0.325288 -0.379727 -0.025455 -0.345097 -0.192194 1.124865 -0.672690 0.549642 -0.166163 -0.564921 0.203940 0.380107 -0.048218 0.306897 0.326703 0.198977 -0.531496 0.528791 0.380286 0.160709 0.214657 -0.812541 -0.465252 0.651603 0.852894 -0.592210 -0.039027 0.416872 -1.218774 -0.119767 0.041942 -0.655713 0.584148 -0.528600 -0.100643 0.840081 0.079011 0.808490 0.802987 -0.200521 -0.589830 -0.028796 0.071543 0.426972 0.797668 -0.108731 -0.286891 0.371771 0.655118 -0.024112 -0.024235 -0.036306 -0.007219 0.872881 0.439936 0.307376 -0.451672 0.336466 -0.594089 -0.296225 -0.728714 0.502017 -0.242722 -1.087080 -0.466312 -0.125674 0.538633 -0.642106 0.485155 -0.647193 0.617397 -0.751051 -0.067076 -0.541869 -0.255200 0.212624 -0.383040 -0.520344 0.005697 0.682296 -0.012798 0.961175 0.066359 0.385301 -0.018028 0.139099 0.483562 -0.267681 -0.202826 0.150004 -0.494740 -0.175306 -0.078259 -0.362780 -0.174232 -0.566471 0.405441 -0.297700 -0.273317 0.757974 -0.881878 -0.104826 -0.604725 -0.036803 0.433030 0.376917 0.062555 1.037485 -0.853960 -0.313060 -0.377430 -0.373703 0.532687 -0.076780 0.064438 0.981371 0.041760 0.769992 -0.139440 0.453774
him -0.097062 0.458665 -0.228540 -0.282323 0.009195 0.261224 0.452090 -0.209591 0.422031 0.748117 0.396466 0.200458 0.006973 0.493490 0.007443 0.149445 0.925000 0.576643 0.079248 -1.053928 0.302737 0.127912 -0.143294 0.557442 -0.382908 -0.061538 0.824178 -0.063707 -0.031011 -0.271531 -0.143155 -0.056129 0.583768 -0.405826 -0.067571 -0.846730 0.890437 -0.541800 -0.343175 -0.060430 -0.158597 0.271041 0.164363 -0.550958 0.197107 0.468856 0.147796 1.060533 -0.038332 0.162637 0.711753 0.079814 -0.147727 -0.497934 -0.337851 -0.654043 -0.807337 -0.366568 0.225402 -0.197539 0.294373 0.305701 0.806972 -0.300612 0.860801 0.273730 -0.263077 0.469035 0.083153 -0.508582 0.452532 -0.175765 0.261009 0.211784 0.272367 -0.246620 0.530043 -0.315344 0.044090 -0.491052 0.666738 0.297655 0.542219 -0.086962 0.512897 -0.457708 0.038292 -0.219430 0.239557 -0.326365 0.806090 0.481572 0.282509 0.131491 -0.800805 -0.548556 0.706023 0.351559 0.067079 0.530468 -0.508875 0.402044 0.613629 -0.350424 0.368785 -0.120007 0.770820 0.202946 -0.309562 0.104634 -0.289323 -0.049413 -0.174975 -0.335620 -0.576037 0.547376 0.262677 0.103199 -0.297701 -0.087804 0.049160 -0.181936 0.341576 0.190479 0.190462 0.196859 -0.399720 -0.302401
have -0.516512 0.233361 -0.183541 -0.651018 -0.041307 -0.963730 -0.530141 0.164555 -0.188410 0.055466 -1.103893 0.607527 0.462516 -0.248098 0.813891 0.538281 -0.282166 -0.147109 -0.156108 -0.003622 1.019063 1.254019 0.347365 -0.542410 0.680792 -0.095139 -1.067792 -0.129188 1.063194 -0.372490 -0.275366 -0.035298 1.189572 0.130804 0.142739 -1.378011 0.071533 -0.820946 -0.542325 -1.377999 1.149332 -0.680925 0.731072 -0.029809 -0.830244 -1.101839 0.523593 0.504237 -0.298633 0.118890 1.062641 0.161021 -0.784350 0.660429 0.884147 -0.537449 0.047612 0.581891 -0.379841 -0.323385 0.287451 -0.096309 0.071156 -0.080082 -0.335479 -1.030043 0.094338 0.741205 -0.347297 -0.334404 -0.937121 0.170429 -1.254537 0.452420 0.280254 -0.271369 -0.566128 1.592015 0.398050 0.755849 -0.849157 0.236276 -0.310843 -0.110330 0.299317 -0.483406 0.251175 1.486244 0.686370 0.267884 -0.376505 0.515253 -0.141021 0.184950 0.316697 1.218761 0.214745 -0.205325 -0.070351 -1.257470 0.287277 0.922269 -0.323202 -0.686728 0.148765 0.017416 -0.359055 -0.909162 -0.296259 -0.286679 -0.624070 -1.388851 0.832326 0.367138 -0.345608 -0.034194 -0.247642 0.791785 -0.750279 0.883844 -0.383052 -0.311284 0.653633 -0.468014 0.744734 -0.459248 0.742071 0.601147
by 0.573192 -0.071751 -0.644253 0.305209 -0.083168 -0.640627 -0.435137 -0.467077 -0.690539 0.258575 0.678311 -0.542358 -0.123302 -0.275416 -0.514720 -0.341412 0.222530 -0.313911 1.058569 0.168395 0.168969 -0.239854 0.366215 -0.489514 -0.323501 0.212527 0.374244 -0.362510 0.454872 -0.388177 0.125997 -0.007707 0.899318 0.016980 -0.263909 -0.448218 -0.241811 0.093497 -0.023228 0.103627 -0.366108 -0.208714 -0.754213 0.020117 -0.252979 -1.379678 0.229778 -0.570090 -0.407330 0.040297 -0.052897 0.307391 -0.551912 0.706840 -0.291330 0.202870 0.344763 0.059319 -0.485500 -0.553074 0.113659 -0.785848 -0.549923 -0.216254 -0.534721 -1.002931 -0.887577 -0.593043 0.267420 -0.544701 0.269586 -0.161195 0.925769 -0.163311 -0.035271 -0.431262 -0.146590 -1.219207 -0.484275 0.347089 0.135941 0.364342 -0.436269 0.276211 -0.075353 -0.257830 0.544610 0.466392 0.069713 -0.088577 -1.335415 0.591988 -0.564433 0.228128 -0.362967 0.523801 0.190932 0.030308 -0.077092 0.258184 0.334743 0.652778 0.057275 -0.309397 -0.410932 0.353526 -0.145314 -0.009325 0.312961 -0.265457 0.469739 -0.071465 -0.151795 0.310308 0.748191 -0.071894 -1.147939 0.006010 -0.303688 -0.213171 0.070541 0.066840 0.522132 -0.349905 0.310444 -0.395496 -0.436287 0.319756
this -0.398735 -0.158767 0.021850 -0.003494 -0.502682 0.090206 0.248713 0.589666 0.405664 -0.340838 1.127201 0.351145 0.685144 0.507294 -0.391533 -0.634799 -0.727344 -0.217301 -0.214037 -0.217749 0.271721 0.286929 -0.148752 -0.024529 0.234140 -0.099913 -0.093342 0.037278 -0.220794 -0.321673 -0.867576 0.514838 0.773385 -0.109968 0.109121 -0.488496 -0.298547 -0.316151 0.765455 0.148577 0.346553 -0.327526 0.108867 -0.509776 -0.074230 0.613901 0.612885 -0.290318 0.129566 0.371448 0.538644 0.888063 0.294542 -0.823327 -0.376974 0.191483 -0.405237 0.341212 0.525065 0.816425 -0.343508 0.067244 -0.031191 0.266034 -0.028793 -0.046365 -0.190585 -0.601421 -0.577224 0.581778 -0.152186 0.101598 0.254760 -0.512843 0.282587 -0.110749 0.297165 -0.728273 0.196827 -1.066065 -0.120988 -0.072145 -0.661015 -0.118216 -0.314626 0.197908 0.088775 0.757864 0.065118 -0.138857 0.642587 -0.126111 -0.140263 0.240320 0.687433 0.103851 -0.120035 -0.925437 -0.426617 0.340610 0.240713 0.060502 -0.945726 -0.230146 -0.360164 0.292712 -0.559624 0.539308 -0.491795 0.033269 -0.336210 0.080447 -0.081797 0.473563 -0.721652 0.080201 -0.345807 0.248027 -0.007590 -1.098503 0.727507 -0.748450 0.845905 0.389110 -0.414351 -0.105990 -0.144782 -0.288663
which 0.017972 -0.028718 -0.540069 -0.114521 -0.550424 0.492956 0.442099 0.303662 -0.071693 0.171270 -0.220239 0.643519 0.301111 -0.449623 -0.204324 0.221216 0.003834 -0.225240 0.742734 -0.430404 0.574912 0.436093 0.104192 0.916586 -0.097133 -0.664196 1.230736 0.584303 -0.616422 0.224195 0.917451 0.409166 0.255226 1.063805 0.448952 -0.128229 0.276991 -0.030651 -0.072940 -0.482035 0.191991 -0.005356 0.367620 0.255879 0.801831 0.104347 -0.341786 -0.721327 0.154700 -0.014433 -0.133543 0.133344 -0.232774 -0.322527 0.254688 -0.415425 0.560876 -0.494909 0.067234 0.658667 -0.230045 0.179808 0.485119 -0.031298 0.533277 -0.160185 0.145316 -0.221989 -0.222548 0.447713 -0.283263 0.212486 0.154699 0.324505 0.268878 -0.568564 -0.886129 0.037760 -0.106922 -0.316961 -0.269552 0.091762 -0.475126 0.607240 -0.821173 0.305700 -0.028760 0.628311 -0.510512 0.502446 -0.526843 -0.559494 -0.077449 -0.012808 -0.597779 -0.556276 -0.179066 -0.360351 0.174434 0.283942 -0.005983 0.996329 -0.438236 0.061035 0.356384 -0.139837 -0.397991 0.010001 -0.228002 -0.995147 0.022268 0.558945 0.835980 -0.198853 -0.269008 -0.114743 0.195023 0.674191 0.296851 0.176722 -0.079962 -0.048185 -0.066444 0.510635 0.374023 0.469413 -0.125607 -0.567554
me 0.037072 0.630148 -0.517189 -0.530367 0.230260 -0.316641 0.503932 -0.107713 0.341722 0.587711 -0.317188 0.316495 -0.103056 0.292015 -0.224785 0.200818 0.862997 0.770224 0.124315 -0.750874 0.094334 0.142026 -0.497942 1.283542 -0.397496 -0.169465 0.739254 -0.473864 0.087457 -0.446777 -0.203593 0.376875 0.954938 -0.801280 0.443447 -0.396202 0.602484 -0.409280 -0.241951 0.127345 0.136369 0.199509 0.163618 -0.827012 -0.104060 0.299341 0.510601 0.525164 0.182054 -0.507934 0.315207 -0.336104 -0.405379 -0.492351 -0.332438 -0.305033 -0.299260 -0.527074 0.503599 -0.079159 0.080848 0.397736 0.178298 -0.378944 1.121833 0.007053 -0.520386 0.519602 0.033892 -0.207864 0.438895 -0.275052 0.082015 0.478862 -0.053610 -0.593310 0.696581 -0.107520 0.394744 -0.628260 0.196825 0.331451 0.516714 0.001858 0.274435 -0.429959 0.528068 -0.083758 0.243625 -0.559009 1.021318 0.879390 0.067724 -0.215724 -0.930781 -0.508754 0.736648 0.385052 -0.399890 0.548382 -0.640091 -0.373119 0.727721 -0.779243 0.702678 -0.304523 0.877980 0.726804 -0.726253 -0.130433 -0.566925 -0.095932 -0.076174 -0.170834 -0.691458 0.847518 0.090410 0.584535 -0.547151 -0.137834 0.117435 0.090504 0.722222 0.090533 -0.130874 0.240057 -0.195257 -0.607826
all 0.585231 1.109547 0.542733 0.128213 0.353255 0.194482 0.862875 0.472805 0.302528 -0.545721 0.721642 -0.349972 -0.095177 1.118839 0.509704 0.004621 0.532281 0.205438 0.219311 -0.079209 -0.339938 0.136618 -0.154118 0.010684 0.164237 0.088240 0.587476 0.236091 -0.647574 -0.689542 0.702056 0.704232 -0.647400 0.398036 -0.160622 -1.200653 -0.128734 -0.356085 -0.459644 -0.538120 0.071064 0.119737 -0.374834 0.531217 -0.005189 -0.257184 -0.033150 -0.532693 1.005754 -0.490338 -0.214380 0.300003 -0.228036 -0.800167 -0.337525 -0.857653 0.279314 -0.800757 0.727124 0.256745 0.628950 0.224042 0.417611 0.403617 0.311806 0.214390 -0.365586 -0.938777 -0.188860 -0.419105 -0.236367 0.365655 0.365765 -0.187079 -0.056370 0.463742 0.211062 0.603208 -0.069978 -0.176078 0.309082 -0.651553 0.279685 -0.032099 0.334759 0.135728 0.266161 -0.022008 0.027222 -0.452988 -0.055160 0.136083 -0.259344 0.848112 -0.138450 -0.449268 0.079725 0.360600 -0.347260 0.194732 0.053904 0.508188 0.165121 0.490011 0.506699 0.226991 -0.101010 -0.573032 0.537288 0.002807 -0.035885 0.650208 0.030963 0.279731 -0.523358 -0.497945 0.351238 -0.665392 -0.136407 -0.437392 0.684785 0.271525 0.210076 -1.078235 -0.157050 0.211531 -0.155925 0.598029
said -0.117971 0.182926 -0.194989 -0.091523 0.325872 0.783273 0.421070 -0.333905 -0.152711 0.029300 -0.806855 -0.550018 -0.317559 -0.285957 0.385372 1.425266 0.551769 -0.341038 0.170452 0.537663 -0.371256 0.842357 0.206919 0.810903 -0.023523 0.593073 0.807728 -0.800916 -0.372000 -0.090938 -0.318785 -0.694890 -0.331141 -0.390331 0.472580 0.433760 0.450379 -0.224285 -0.365335 -0.037692 -1.645599 0.003306 -1.610072 0.285720 0.843719 0.400843 1.111133 -0.891520 -0.905355 -0.076093 0.643017 -0.116091 -0.299127 0.080687 0.333819 0.495421 -0.354772 -0.309142 -0.426090 0.745637 0.642926 -0.354284 0.796567 -0.311162 -0.197801 0.446962 0.247283 -0.290701 -0.105286 0.502073 0.354862 0.231883 -0.541375 0.358016 -0.233174 -0.693477 0.050833 0.096666 0.215983 0.042341 -0.185379 0.537306 -0.792360 0.580564 0.038850 0.093637 -0.455446 0.803314 0.585011 -0.003532 0.463455 -0.289097 0.031013 -0.911136 -0.490521 0.077687 -0.393503 -0.289108 0.594350 0.539116 1.605258 -0.528583 -0.216262 -0.140856 -1.554640 -0.339418 0.943015 -0.600583 0.466617 -0.158143 0.693444 -0.004784 -0.087644 -0.042047 -0.081020 -1.644550 0.472713 -0.373960 0.604122 0.290536 -0.437031 -0.030127 0.781266 0.276197 0.554650 0.065285 0.952040 0.179201
she -0.786021 0.805833 -0.110351 -0.167791 -0.778191 0.078527 1.131958 0.263652 -0.224300 0.044629 0.276201 -0.429906 -0.412537 0.044309 0.208012 -0.056531 0.046364 0.462181 -0.095573 0.110125 0.271967 -0.260265 -0.117245 0.181890 -0.197140 0.236407 -0.762159 0.480346 0.287733 0.214974 0.311653 0.164126 0.339586 -0.432297 0.210004 -0.143000 -0.257022 -0.014301 0.610284 0.570375 -0.095980 -0.223371 0.214012 -0.219778 -0.771355 -0.128177 0.028277 -0.037279 0.637030 -0.077327 0.044716 0.075055 0.150103 0.249950 0.446520 -0.374615 -0.951917 -0.560640 -0.467505 0.347628 -0.605440 0.005211 0.222005 0.100843 0.361408 -0.224277 -0.509204 0.719229 -0.109900 0.375629 -0.359440 -0.534292 0.928116 0.884271 -0.700739 1.193436 -0.207281 -0.324262 0.002407 0.249701 0.015124 0.231213 0.285374 -0.529138 0.258544 0.048818 0.207537 -0.372191 -0.108391 0.709304 -0.277136 -0.749339 -0.524870 1.081437 1.292935 -0.943507 -0.409757 -0.196730 -0.266029 0.059974 0.463373 0.787494 0.673110 -0.298848 0.253504 0.228909 -0.662956 0.019032 -0.060469 0.200206 -0.460538 0.042069 0.305001 -0.270442 0.693305 0.184590 -0.428864 0.168065 -0.310777 -0.131259 0.446168 0.395582 -0.039460 0.576590 -0.622700 -0.357712 -0.641505 0.285506
from 0.600422 0.294066 0.331633 0.467923 -0.275240 -0.022816 -0.494272 -0.096622 -0.426471 0.045941 0.036289 -0.067854 1.040432 -0.822691 0.153304 0.253174 0.134671 -0.025541 -0.282115 -0.069747 -0.226184 -0.215512 0.171758 -0.028749 -0.743092 0.521887 -0.117018 -0.016914 0.511605 -0.038883 1.293575 -0.213853 0.199394 0.332757 -0.274040 -0.551308 0.158386 0.156691 -0.014002 0.000503 0.132383 0.669305 -0.611103 0.246150 -0.544520 -0.968480 0.736443 -0.384493 -0.357467 -0.906755 0.006867 -0.155681 -0.379497 0.255200 -0.157315 0.566680 0.723645 0.412330 -0.372070 -0.399802 0.184975 -0.390498 -0.482253 -0.219391 0.589794 0.394922 0.103111 0.329561 0.487864 -0.366176 -0.325528 -1.134053 0.897469 -0.938167 1.025935 -0.182314 -0.252357 0.120235 -1.420308 -0.268941 0.161565 0.083366 -0.008453 0.454305 0.596063 0.761608 0.676244 0.077928 -0.751923 0.122357 -0.603478 0.731413 -0.352107 0.901582 0.556676 -0.192497 0.690299 0.888642 0.420491 0.246126 0.846211 -0.337971 -0.005573 -0.437341 -0.612952 0.325231 0.291197 -0.593076 -0.596680 0.271820 0.661377 -0.216625 -0.353928 0.227479 0.384105 -0.576267 -0.303607 0.448415 -0.142364 0.034556 0.189184 -0.031049 -0.049099 -0.071419 0.040660 -0.229251 0.617545 0.205042
or 0.701142 -0.075856 -0.879569 0.224568 0.462281 0.186650 -0.451329 -0.292284 -0.447758 -0.129418 -1.324310 0.393460 0.767430 0.019496 0.379796 -1.038266 -0.697922 -0.256657 -0.619118 -1.003669 0.073762 -0.222959 0.231217 -1.261278 -0.789642 -0.505853 0.400697 -0.062891 0.346374 -0.854414 -0.423136 0.092656 0.184647 0.283258 -0.067711 -0.185920 0.150777 0.090049 -0.562479 0.087394 -0.386643 -0.707253 -0.144172 0.780681 -0.297997 -0.707122 0.210682 0.183648 -0.099079 -0.644197 -0.372455 -0.157527 0.025505 -0.925964 -0.430186 0.849986 -0.172196 0.112921 -0.196500 -0.170141 1.086990 0.455804 -0.036692 -0.086962 0.374067 0.707269 -0.352077 0.066398 -0.155469 0.388413 -0.367110 -0.390895 -0.456755 0.010631 -0.347677 0.280737 -0.046060 0.790670 -0.925267 1.530748 0.667977 -0.870896 -1.067007 -0.792918 -0.178806 0.135139 0.316153 -0.115540 0.440771 -0.125570 -0.665420 0.132565 -0.428550 -0.177740 -0.006057 -0.640601 -0.462819 -0.784462 0.148507 0.957739 0.255205 -0.265645 0.468540 -0.322299 -0.324967 0.249026 -0.864112 0.349480 0.196173 -0.035343 -0.046374 -0.489718 0.407343 -0.301616 -0.138741 -0.066244 0.327021 0.682585 -0.394133 0.274913 0.283001 -0.188671 -0.032046 0.163546 -0.393297 0.111165 0.091588 -0.371541
they -0.709756 0.003342 0.350344 -0.517542 -0.344825 -0.525774 0.689364 0.051073 -0.194416 0.088897 0.438878 -0.030319 0.305172 -0.170887 0.960438 -0.156630 0.323102 0.872274 0.141385 0.031923 -0.036864 -0.336566 0.342491 0.024471 -0.075419 0.248754 -0.169967 0.202315 0.412039 -0.643982 0.283908 -0.994725 0.458146 0.155608 -0.260917 0.618202 0.529074 -0.225508 0.971771 -0.052985 0.128085 -0.412963 0.509045 -0.025213 -0.762987 -0.200564 0.471083 -0.193007 0.088835 0.878315 -0.183880 0.757614 0.865462 -0.542724 0.412377 -0.539588 -0.451628 -0.227403 -1.263618 -0.108247 0.153243 0.078579 0.246501 0.457584 -0.138001 -0.501113 -0.908562 0.382290 -0.260288 0.511226 -0.133471 0.279635 0.977003 0.759607 0.087032 0.752006 0.002373 0.092950 -1.141478 -0.068774 0.172768 -0.179786 0.417627 -0.753183 0.449163 -0.413761 0.207075 -0.873057 -0.765962 0.787638 0.081093 -0.188667 0.118063 0.288213 0.929330 -0.477348 -0.366887 0.124992 0.162832 0.031362 -0.023195 0.211721 0.822824 0.092278 -0.205046 0.429870 -0.810055 -0.162101 0.149286 -0.049741 0.154945 -0.062292 -0.144232 -0.387950 -0.108089 0.134094 0.136377 -0.242415 0.288629 -0.080220 -0.050841 0.149466 -0.220260 0.247027 -0.244153 -0.029058 -0.337481 0.190581
so -0.085309 0.318097 0.241893 0.428986 -0.021091 -0.275341 0.648776 -0.299922 -0.336031 0.274007 0.094229 -0.608777 0.206912 -0.255320 0.166048 -0.623680 0.530550 0.109184 -0.241336 -0.120341 0.440892 -0.358603 0.255398 0.489120 0.203362 0.236161 -0.202224 0.022080 0.183920 -0.722616 -0.190263 -0.006194 -0.071539 -0.320358 -0.050525 0.029913 -0.394502 -0.380424 -0.197280 0.872778 0.401056 0.782942 -0.036024 -0.088866 0.540334 0.908751 0.506022 -0.609683 0.431966 0.611792 -1.100674 0.242096 -0.728059 -0.136878 -0.150945 0.317904 0.216099 -0.033818 -0.080064 -0.669798 -0.297988 -0.059315 0.466371 -0.669644 0.867054 -0.865036 -0.370031 0.219727 0.529972 -0.530948 0.296347 -0.241339 0.348110 -0.191678 0.234490 0.353352 -0.670848 0.664580 -0.180386 -0.220859 0.576403 -0.669454 0.460712 0.532905 0.434410 -0.408240 0.217435 0.137672 0.025070 -0.278003 0.083751 -0.730576 0.257493 -0.578444 -0.529366 0.182767 -0.735776 -0.792403 0.195439 0.403235 -0.213320 -0.091695 -0.556245 0.079995 0.194422 0.735576 0.470503 -0.405557 -0.674440 0.750877 -0.420045 0.058447 0.526556 -0.158063 -0.333565 0.034121 -0.746769 -0.230682 -0.116667 -0.812708 -0.002269 -0.166255 0.580392 -0.881732 0.332915 0.489024 0.316510 0.929511
are -0.198599 0.076608 -0.218994 -0.954797 0.652546 0.086894 -0.650247 0.330608 0.175865 0.055916 0.597248 -1.051591 -0.419578 -0.287846 0.451360 -0.399504 0.026041 -0.513725 1.086746 1.041119 -0.007107 0.719919 -0.118431 -0.354438 0.616226 -0.367333 -0.297768 -0.352702 0.304568 -0.175451 -0.022277 0.141888 0.775128 0.160126 0.620633 -0.089164 -0.145285 -0.261242 -0.968890 -1.380613 -0.536756 0.445532 -0.085992 -0.664605 -0.094873 -0.174126 0.787607 0.558197 0.984130 0.420433 0.530339 -0.280330 0.426323 0.706197 0.733100 0.522167 0.261729 0.142413 0.005020 0.726213 -0.038368 0.293999 -1.650726 1.255653 0.290556 -0.077248 0.422742 0.776952 -0.665783 -0.369102 -1.129497 -0.698649 -0.732048 -0.638859 -0.333382 0.844629 -0.544768 0.198537 -0.063500 1.514260 -0.223281 0.488113 0.488014 1.193535 0.056132 0.048420 -0.757458 -0.087539 0.773355 -0.349554 0.584393 0.371799 -0.606282 0.429768 -0.603992 0.993441 0.759176 -0.483619 0.148685 0.408472 0.403825 -0.219918 -0.118695 0.215864 0.798245 0.969738 -0.155583 -0.263973 -1.410779 0.051703 -0.374590 0.404573 -1.092063 0.106333 -0.449764 0.297383 0.558466 0.196844 -0.149208 0.165303 -0.630635 0.737605 0.557716 -1.261711 0.403354 -0.069936 1.088906 1.284916
one -0.014171 -0.138890 -0.662755 -0.380908 -0.032247 0.994184 -0.268119 0.785895 0.043513 -0.613481 0.906159 0.415948 1.077770 0.409230 -0.771439 -0.232988 -0.029393 0.227604 -0.257151 0.266584 -0.597472 0.150846 -0.656506 -0.520496 -0.602409 -0.073061 0.143787 0.485100 -0.324191 0.583516 0.232478 -0.200307 1.563647 -1.009043 -0.055515 -0.561277 0.487626 -0.972342 0.247115 1.159036 0.615299 -0.825923 -0.294564 0.636794 0.088783 -0.077361 0.010956 0.013387 -0.850471 0.082679 0.393749 0.440720 -0.375065 0.245479 0.364852 -0.341999 -0.931654 0.221940 1.051843 -0.517935 -1.322162 0.278410 0.308255 0.961184 -0.531218 1.117432 -0.106486 -0.785433 -0.168545 -0.537083 -0.233530 -0.463170 -0.092683 0.237410 0.095158 -0.086732 0.586797 -1.023625 0.569327 -0.578423 0.300752 -0.568783 -0.012470 0.310034 0.392397 -0.471291 0.703828 -1.176042 -0.219019 0.847063 0.325230 0.085340 0.676527 0.575580 0.597775 -0.015312 -0.237682 -1.923810 -0.361493 -0.061893 0.241960 0.408781 0.459342 0.731465 0.758488 -0.026223 -0.635356 -0.094613 -0.147040 -0.689578 -0.421388 0.360688 0.163999 0.251329 1.010805 -0.519500 -0.479641 -0.467899 -0.100188 -0.212483 -0.125132 0.276292 -0.342234 -0.362722 -0.037326 0.389969 0.272189 -0.632854
were 0.236022 -0.544058 -0.434458 -0.661252 0.837789 0.278070 -0.953073 -0.180628 0.681388 -0.303415 0.730601 -0.970391 0.159353 -0.446368 0.786861 -0.186941 0.019975 -0.146253 0.920451 0.518889 -0.295511 0.505547 -0.444061 -0.188026 0.077467 0.244746 0.022947 -0.095457 0.400832 0.041760 0.017353 0.126488 0.569540 0.162920 0.337850 -0.364866 -0.017211 0.129185 -0.467658 -1.025391 -0.335955 0.276661 0.169942 -0.265958 -0.180846 0.263243 0.763606 0.970794 1.063558 0.592698 0.599680 -0.019639 -0.025119 0.384068 0.429545 0.114877 0.067554 0.235150 -0.360885 0.812297 -0.545425 -0.144614 -1.131930 1.298849 -0.390688 0.300686 0.407868 0.988348 -0.029897 -0.355297 -1.032508 -0.745754 -0.669482 -0.585436 -0.030927 -0.190415 -0.513608 0.026631 -0.285523 1.311337 0.574301 0.354898 0.606917 0.219099 0.764022 -0.102175 -0.944362 0.146391 1.260385 -0.239138 0.633550 0.094246 -0.428304 0.417699 -1.258209 0.428387 -0.088343 -0.208459 0.124498 0.540041 -0.066872 -0.011018 0.567426 0.091187 0.921416 0.246259 0.158579 -0.336685 -0.827058 0.201463 -0.135821 0.232416 -0.604930 -0.049175 -0.699763 0.196829 0.617426 -0.203816 -0.108655 0.112173 -1.300747 0.504555 0.170508 -0.757891 0.474285 -0.423699 0.382604 0.986623
what 0.001490 1.053735 -0.236671 -0.359626 0.071559 0.326913 0.069399 0.813310 0.731626 -0.354506 0.319834 0.885755 -0.293428 -0.155629 -0.919480 -0.106597 -0.685460 -0.240812 0.605208 0.120758 0.620815 0.689064 -0.675339 0.457622 -0.281284 0.130318 0.202270 0.645983 -0.391034 0.340834 -0.093743 -0.312994 -0.697211 0.358750 0.276758 0.223177 -0.009059 -0.384581 -0.358952 -0.043716 0.222305 0.147682 -0.432260 -0.744418 1.196706 0.056476 -0.030341 -0.996213 0.345875 0.612246 -0.205307 0.607094 -0.635702 -0.951021 -0.100405 -0.922218 0.386419 -0.925157 0.534135 0.240873 -0.134169 0.271317 0.290784 -0.172229 -0.113268 0.436198 0.431895 -0.756479 -0.763611 0.284060 -0.552064 -0.515750 0.260678 -0.140257 1.155141 -0.056574 0.558140 0.227620 -1.110335 -0.510991 0.146314 0.059554 -0.504335 1.049750 -0.583380 0.176789 0.205180 1.464997 0.150062 0.305119 0.252481 -0.122728 -0.090442 -0.100767 0.451871 0.421805 0.056493 -1.003296 -1.075279 0.749832 0.032437 0.449658 -0.270055 -0.898773 -0.014573 -0.406554 -0.155596 -0.037938 -0.461492 -0.411852 0.594434 0.290203 0.019417 0.109582 -0.523487 -0.964548 0.020083 -0.475133 -0.955092 -0.853997 0.393219 -1.107162 0.440186 -0.070319 -0.480992 0.543140 -0.460364 0.798282
when -0.336286 0.829944 0.168598 -0.017883 -0.208132 0.379620 -0.174388 -0.090999 -0.571804 0.155702 0.209973 0.279719 -0.096969 -0.495753 0.256436 -0.082776 0.504870 -0.962646 -0.144983 0.450561 0.746753 0.603786 -0.484697 0.226790 0.359176 0.109178 0.254375 -0.011662 0.477245 0.156143 0.212013 0.067833 -0.786928 0.295526 0.583519 -0.162333 0.405988 0.735347 0.485513 0.511426 -0.116056 -0.161117 -0.405398 -0.132428 0.626959 -0.173744 -0.238836 -1.459167 0.608281 0.522175 -0.656318 -0.010948 -0.129425 -0.207030 -0.142074 -0.259163 0.601666 0.862546 0.263842 -0.580266 0.443924 0.505283 0.313443 0.204203 -0.231892 0.187716 0.261504 -0.075785 -0.279936 -0.097874 -0.914122 0.177538 0.176035 -0.177164 0.643553 0.351853 -0.222370 -0.278019 0.491496 -0.684936 0.104900 0.148941 0.003861 0.050573 -0.336716 0.202506 -0.127734 0.754322 0.840614 0.020565 -0.074796 -0.538672 -0.392322 -0.016676 -0.293190 -0.312547 0.773721 -0.218329 0.145778 -0.221135 -0.206701 0.197528 -0.054652 0.134516 -0.087618 -0.337129 -0.442751 0.022475 0.098815 -0.203787 0.809529 -0.071410 0.808721 -0.181540 -0.113883 -0.914054 -0.137346 0.377318 -0.046179 -0.462480 0.301505 0.075702 0.383557 -0.276263 0.837602 0.243940 -0.137750 0.508513
no -1.361204 0.226072 0.724586 0.994600 0.764291 -0.133390 -0.397250 0.437185 1.005516 -0.166130 -0.028035 0.477735 0.858417 1.006337 -1.063976 -0.767937 0.366336 -0.530235 -0.372103 0.756806 0.338016 0.585530 0.302134 0.042098 0.538419 0.651228 0.301280 0.483907 -1.278077 -0.862809 0.177758 0.411279 -0.044977 -0.666740 -0.434524 0.241105 0.885813 -0.711336 0.299749 0.780750 -0.023501 -0.084347 0.310126 -0.259027 0.328191 -0.311809 0.392097 -0.106362 0.073154 -0.674753 -0.118075 -0.607669 -0.315889 -0.744629 -0.839408 0.127967 0.462227 -0.127558 -0.283940 0.637474 -0.015192 0.528985 0.127687 0.394646 -0.299045 0.179954 0.251596 -0.251479 -1.558913 0.437545 -0.086030 0.478268 -0.004821 0.502223 -0.459120 0.276209 0.154373 -0.254070 0.128820 -0.574727 0.094797 0.619585 -0.267741 1.464355 -1.110283 -0.426005 -1.485247 0.341237 0.365233 -0.304190 -0.240070 0.515223 0.077188 -0.579057 0.903654 0.271047 -0.620152 -0.051614 -0.593501 -0.732704 0.163075 -0.254574 1.467013 0.530250 0.048216 0.163755 0.352940 0.512838 -0.510696 0.912426 0.020544 0.033744 0.130839 0.957523 -0.093765 -1.040720 -0.183246 -0.014043 -1.033515 -0.475237 -0.253278 0.900976 -0.379500 0.997252 -0.515491 1.325900 -0.590593 -0.460810
if 0.391517 0.646323 -0.027643 0.940664 0.100614 0.966091 -0.632249 0.734891 -0.403576 0.472061 -0.191096 0.642671 0.407923 -1.384408 0.512300 0.455022 0.374154 -1.223774 -0.631282 0.424693 0.116970 0.575703 -0.021063 -0.106478 0.475410 0.828108 -0.798867 -0.258790 -0.231177 0.180923 -0.756811 -1.070016 -0.584240 -0.663514 -0.023739 0.526305 0.856548 0.639499 0.922519 0.198799 -0.300234 -0.100351 0.440123 0.255819 0.082544 -0.845916 -0.160748 -0.671937 0.243150 0.561031 -0.856588 0.076650 -0.506695 0.026864 0.265976 -1.251363 2.309743 -0.088900 0.350389 -0.009784 1.369778 0.817849 0.214042 -0.050519 -0.547393 -0.427820 0.499380 0.523240 -1.447513 -0.385129 -0.793405 0.174827 0.967972 -0.200140 0.396988 -0.026427 0.012435 0.170149 -0.378895 0.354878 0.653279 -0.243935 -0.399386 0.613362 0.171856 0.098097 0.927473 0.607529 0.570072 0.168907 0.871307 -0.652666 -0.929527 0.270588 -0.025308 -0.410787 1.071952 0.503220 0.598819 -0.314774 0.115366 -0.450577 -0.156812 -0.511517 -0.102334 0.307251 -0.485579 1.030068 -0.070458 -0.760399 0.880333 0.870794 0.417016 -0.770293 -0.351001 -0.792038 -0.592051 1.050761 0.020277 -0.570541 -0.364454 0.268023 -0.481996 0.448237 0.958634 0.492866 0.000119 0.113602
there -0.487164 0.027489 -0.446899 -0.789067 -0.616135 0.266332 0.996706 -0.160165 -0.256757 -0.247876 0.309308 0.440654 0.001255 -0.076674 -0.062329 0.489610 0.617012 -0.559330 -0.161548 0.081640 0.845223 0.011518 -0.405750 1.011598 0.209229 -0.771997 -0.453498 0.027857 0.931523 -0.372599 0.749975 0.106359 -1.296221 0.784793 0.313221 -0.851090 -0.307601 -0.054971 0.572714 0.898887 0.730913 -0.562815 -0.236229 0.103043 -0.029551 0.253022 0.479075 -0.098344 -0.570311 0.058974 0.007145 0.457109 0.079623 0.070831 -1.116181 0.558368 0.057054 -0.305770 -0.134640 0.452398 -0.135238 0.582251 0.032924 -0.164872 -0.359534 -0.810576 -1.471528 -0.082505 0.339124 0.174540 0.609593 -0.427843 0.524238 0.605588 0.646763 0.908436 -0.609301 0.354573 0.116326 0.603962 -0.015072 -0.313002 -1.418146 -0.068821 0.693690 -0.326314 -0.847668 -0.997725 -0.169942 0.001224 0.335967 0.074199 -0.127717 0.590503 0.711572 -0.127329 -0.696596 -0.131282 -0.126650 0.096637 -0.002209 0.352426 0.029150 0.136391 -0.323079 -1.454355 -0.228458 1.274443 -0.064227 0.447727 -0.082528 0.812552 -0.156520 -0.307122 0.407637 0.522328 -0.245283 0.072054 0.941817 -1.062071 0.137964 0.289722 0.044597 -0.673408 0.407547 -0.007633 0.095618 0.106364
who -0.073904 1.226821 0.176343 -0.874777 -0.641624 0.491148 -0.419408 0.181698 -0.415303 0.819890 0.688558 0.971402 -0.367168 -0.177292 -0.391605 0.344869 0.269543 0.333293 0.428424 0.217987 0.453646 -0.309126 1.037224 -0.854885 -0.387540 0.143139 -0.075881 -1.013745 0.110756 -0.359355 1.005166 0.464303 0.034252 -0.226004 0.466635 -0.098663 0.235539 0.159905 0.274529 0.566019 -0.190366 0.275228 -0.190880 -0.116615 0.368070 -1.074034 -0.103603 -0.723072 0.178474 0.758678 -0.028208 0.082643 -0.471423 0.185370 0.686730 0.074002 0.803074 -1.028012 0.612862 0.311819 -1.013476 -0.024261 0.871577 -0.025654 -0.318402 -0.164347 -0.572458 0.541581 -0.706476 0.333415 -0.733347 -0.087667 -0.147912 0.833313 0.103142 0.143718 -0.612691 0.008921 -0.204439 -0.382081 0.050182 -0.871391 -0.208851 -0.791544 -1.103517 -0.572259 0.722143 -0.073636 -0.314161 0.487035 -0.763888 -0.263727 -0.412964 0.251885 0.327566 0.178231 0.211460 -0.457280 0.316705 1.575341 -0.427635 0.877356 0.063199 -0.246991 -0.854409 -0.381895 -0.020542 -0.114103 0.201205 0.132948 -0.016797 0.279051 -0.805223 -0.267802 -0.396384 0.184829 0.345845 0.760326 0.404469 -0.587929 0.400068 -0.775714 -0.056749 0.557415 -0.516554 -0.095436 -0.236775 -0.843865
we -0.771331 -0.195235 0.008678 -1.092535 -0.474485 -0.707857 0.457394 -0.145236 -0.211777 0.227851 0.269114 0.347955 0.256406 0.476542 0.368874 0.211598 0.181396 0.931303 -0.456142 0.172297 -0.386567 -0.449187 0.328215 0.445233 -0.225720 0.238506 -0.239746 0.543391 0.397650 -0.610061 0.447391 -0.561891 0.418857 0.107487 -0.072686 0.960905 0.366966 -0.514924 0.829625 0.052177 -0.427788 -0.087983 0.208113 -0.376823 -0.456682 -0.056037 1.126611 -0.534563 -0.081628 0.858660 -0.402366 1.116889 0.834416 -0.358737 -0.148290 -0.861311 -0.753581 -0.596600 -1.240316 -0.285777 0.146202 0.236866 0.054728 0.915308 -0.232147 -0.355253 -0.974738 -0.405455 0.230268 0.412925 -0.207251 0.486583 0.124696 1.041614 0.463716 0.496612 -0.206583 0.280684 -0.537432 0.141267 0.105252 -0.385422 1.034349 -0.561649 0.224256 -0.081476 0.379939 -0.933608 -0.825620 0.598451 -0.247260 -0.068113 0.169647 0.049444 0.858819 -0.754404 -0.417335 0.227229 -0.250509 -0.143486 -0.020466 -0.110204 0.486944 0.272502 -0.124905 -0.082992 -1.208285 -0.336354 0.215070 -0.115707 -0.163651 0.150206 -0.444548 -0.314614 -0.695511 -0.089953 0.231108 0.021201 0.524410 0.182378 -0.383961 0.108421 -0.236815 0.572443 -0.002206 -0.144104 -0.162007 -0.443472
will 0.689604 0.726098 -0.140946 0.454879 0.129500 0.187593 -0.387976 -0.563282 -0.568503 0.437003 -0.270984 0.444579 0.442529 -0.183001 0.210129 -0.274853 1.144830 -0.436095 -0.497501 0.148829 -0.567376 -0.030173 1.093740 0.624093 0.562887 -1.089936 0.410301 -1.096177 -0.703347 0.462788 -0.731040 -0.705761 -0.265095 0.657312 -0.051649 0.353204 -0.247133 -0.136372 0.276674 0.066335 -0.253798 0.103198 -0.608361 0.351387 0.742551 -0.267808 0.467843 -0.069028 0.241583 0.556343 -0.295429 -0.338523 0.647530 0.259395 -0.040438 0.421414 0.350529 0.500953 -0.187025 0.594026 1.412499 0.231018 -0.421863 0.654065 -1.158517 0.396154 0.239584 -0.319894 0.250201 -0.041568 0.186600 -0.019551 -0.588844 -0.228259 -0.346116 -0.609908 -0.545446 0.456626 0.405077 0.388000 0.485534 0.412230 1.552744 -0.101901 0.095964 -0.250848 -0.529348 -1.184556 -0.054917 0.323682 1.097665 0.029367 -0.696418 0.245870 -0.403199 0.798119 1.073773 0.091389 0.129037 -0.030206 -0.315372 -1.889450 -0.232520 -0.129429 -0.124156 0.383096 -0.906100 0.314761 -0.286475 -0.090512 -0.276240 0.782388 0.283757 0.287592 0.270106 -0.477764 -0.700255 0.466212 -0.558012 0.187256 -0.586614 -0.660405 0.608298 -0.983951 -0.232185 0.018772 0.450822 0.844913
an -2.227184 -0.076174 0.987252 0.210492 0.048070 0.079081 -1.005184 -0.158391 1.482360 -0.304661 0.566073 -0.110946 0.357441 0.626583 -0.334616 -0.455636 -1.372704 0.083828 -0.382285 -0.287907 -0.486059 -0.199693 -0.164007 -0.026850 0.122631 -0.324412 0.419272 -0.930038 -0.263810 -0.395906 -0.715540 -0.169724 0.595367 -0.072112 -0.822174 0.401065 -0.663889 -0.146740 -0.175126 -0.247057 -0.436663 -0.458929 0.700844 0.440911 0.196050 0.451988 -0.222633 -0.600455 0.444963 -0.605124 -0.434630 -0.121909 0.171556 0.401316 -0.939467 -0.087936 -0.463715 -0.570539 0.807855 0.434075 -0.158039 0.850330 -0.597211 -0.039774 0.669852 0.592169 0.023528 0.152804 -0.421073 0.352771 0.092110 0.646844 0.080545 0.259589 -0.069277 0.601623 -0.305888 -1.188592 0.612420 -0.825424 0.850146 -0.323429 -0.984226 -0.062023 0.056581 0.319469 -0.360993 0.182908 0.140253 0.449310 0.316089 0.470164 -0.131230 -0.797174 1.055731 0.740504 0.324774 -0.068085 1.364734 0.413302 -0.440347 0.105347 -0.057741 -0.185710 0.002831 -0.417658 0.234873 -0.003479 -0.398996 -0.197959 -0.533698 0.457124 -0.393746 -0.618629 0.194694 0.253165 -0.480392 0.491884 -0.515278 0.729353 0.568403 -0.589885 0.210256 0.003255 0.625277 0.533841 -1.037995 0.146496
then -0.520286 0.602534 0.015903 -0.135802 0.579728 0.068117 0.979636 -0.041309 -0.497259 -0.108883 -0.303158 0.019432 -0.205426 -0.590631 0.309011 0.749946 0.516508 -0.360396 -0.035019 0.161458 0.756595 0.098060 0.389338 0.591912 -0.089572 0.224072 -0.062209 0.138556 0.636159 -0.235473 0.386960 0.177839 -0.019194 0.047169 0.570909 -0.026337 0.728879 -0.094883 -0.180044 0.173519 0.142474 -0.151741 -0.723638 -0.435227 -0.277951 0.169682 0.039502 -0.737050 0.062308 0.347659 -0.712183 0.079480 -0.608043 0.117183 0.121984 -0.196063 -0.344912 0.192814 0.044833 -0.302226 0.527148 0.305569 -0.463786 -0.264651 0.010417 0.165295 0.454856 0.094850 0.591258 0.475547 0.027976 0.497215 0.666523 -0.450598 0.281777 -0.004914 -0.372277 -0.886088 0.747623 -0.053491 0.144085 -0.220617 0.911723 0.115553 -0.210296 0.120164 -0.273520 0.103071 0.580429 0.095961 0.402860 -0.342665 -0.059280 -0.304367 0.210456 -0.232635 0.694384 -0.325104 -0.075906 -0.135453 -0.096426 0.179707 -0.910651 -0.595428 0.116444 -0.005679 -0.055500 -0.126984 -0.373982 0.008979 0.357413 -0.214742 -0.204680 -0.369754 -0.122155 0.097658 0.001400 -0.755286 0.528251 -0.552987 0.031548 0.231680 -0.161928 -0.334312 0.288332 0.223077 0.480634 0.285175
their -1.002037 -0.187325 -0.039721 -0.044732 -0.792348 0.187763 -0.335913 -0.231042 0.128101 -0.009682 -0.078788 -0.950287 0.370756 0.756392 -0.003172 -0.151707 0.013678 -0.263990 0.240926 -0.166580 -0.052710 0.079944 0.587550 -0.310630 -0.480641 0.991991 0.030731 0.246038 0.242336 -0.742834 0.155422 0.600011 0.419268 0.182044 -0.719452 0.107622 0.018661 -0.622993 0.133733 -1.049721 -0.112870 0.190808 0.283615 0.451772 0.317985 0.464202 0.445371 0.397682 -0.120839 -0.290315 0.452307 0.474784 0.901688 -0.983577 -0.092170 0.069624 0.518945 0.361774 -0.331578 -0.180048 0.046953 0.678127 -0.016496 0.415164 -0.007553 0.294798 -0.253475 0.155447 -0.794797 -0.159069 -0.140523 -0.163286 -0.029821 0.670246 0.633354 -0.483906 0.515652 -0.606326 -0.339329 -0.956214 -0.122432 -0.460615 -0.079541 -0.012293 -0.062890 -0.794227 -0.560110 0.468508 -0.373646 0.680758 -0.187139 0.933815 -0.204705 0.056616 -0.046604 -0.500512 0.400547 -0.992886 -0.365145 0.308455 -0.476614 -0.636819 -0.182842 -0.215644 0.119272 -0.904811 -0.043421 0.779419 -0.764565 -0.137781 0.108013 0.514402 -0.321951 -0.399567 -0.611096 1.455866 -0.213073 -0.496609 0.349548 -0.098567 0.624674 -0.609900 0.561563 0.358150 -0.021994 0.842711 -0.288442 1.254960
would 0.238737 0.341081 0.207321 0.504076 -0.364962 0.499729 -0.777707 -0.458081 0.033807 0.755903 -0.325238 0.952785 0.660732 -0.378823 0.286644 -0.303151 0.962652 -0.079983 -0.536532 -0.013405 -0.568083 -0.077800 0.664177 0.799895 0.576845 -0.513753 1.085433 -0.635288 -0.121734 -0.607694 -0.091493 -0.856471 -0.509377 0.243473 -0.239782 0.483647 0.380419 -0.069287 0.264076 0.451737 -0.441605 -0.091843 -0.780953 0.455776 -0.517809 -0.709545 0.443739 -0.227954 -0.014674 0.526631 -0.075477 -0.631111 0.486657 -0.005518 -0.068284 0.549257 0.536094 -0.005900 -0.283956 0.912974 0.199608 0.207566 -0.868805 0.657928 -0.665464 0.134385 0.541447 -0.263316 -0.054487 0.890403 0.481272 -0.187013 -0.529018 -0.516879 -0.705572 -0.951383 -0.580834 0.509119 -0.552712 0.132405 0.143091 0.496751 1.891149 -0.639571 0.035132 -0.117358 -1.023021 -0.817393 -0.360806 0.062842 0.945275 -0.135972 -0.118110 0.050459 -0.712097 1.168974 0.272600 0.429430 0.227561 -0.033904 -0.667843 -1.895822 -0.003712 0.055819 -0.296159 0.147181 -0.114101 -0.398257 -0.232567 -0.170885 -0.139278 0.590086 1.077902 -0.292666 0.231720 -0.770435 -0.637616 0.195564 -0.567205 0.179482 -0.999965 -0.535416 0.778968 -0.931097 -0.656934 0.409272 0.663303 0.628966
them -0.351192 0.305084 -0.522197 -0.194325 0.377740 0.175024 0.957359 0.066852 0.208983 0.250660 0.330936 -0.110618 0.314416 0.490436 0.417280 0.625246 0.365932 0.683943 -0.044474 -1.046202 -0.196002 0.276215 -0.634428 1.093305 -0.312328 -0.038834 0.933136 0.051141 -0.128405 -0.302673 -0.224128 -0.266940 0.682173 0.230142 -0.333349 -0.572581 1.090808 -0.108243 -0.314396 -0.184178 0.130635 0.247013 0.656270 -0.397444 0.636448 -0.142026 -0.194001 0.977525 -0.450271 0.288654 0.932504 0.141813 0.218597 -0.421159 0.088852 -0.269860 -0.111969 -0.053268 -0.015857 -0.120235 -0.240690 0.686481 0.278169 0.727497 0.932469 0.217142 -0.446302 0.328715 -0.184730 -0.600894 1.025332 -0.411655 0.555098 0.374235 -0.211332 -0.004334 0.984545 -0.362364 0.098226 -0.158325 0.149141 0.044017 0.405244 0.570722 0.215078 -0.908631 -0.157353 0.232841 0.136683 0.487313 0.537399 0.670984 0.370208 0.151151 -0.633389 -0.757263 0.543262 0.055531 -0.108000 0.986525 -0.471595 0.667660 0.935233 -0.071533 0.485452 -0.232029 0.629073 0.716768 0.006623 -0.052709 -0.013545 -0.038088 -0.660954 -0.282436 -0.876945 0.764595 0.028159 0.162064 0.365152 -0.005721 -0.146942 -0.240011 1.398053 0.087324 0.096621 0.347994 -0.246519 -0.273522
been 0.057495 -0.289940 -0.285297 -0.723542 -0.814690 0.195436 -0.136043 -0.400203 -0.400928 -0.346215 0.796900 -0.226753 0.357710 -0.647524 0.142291 -0.959509 0.191824 1.139605 0.718420 -1.099998 -0.148707 -0.429740 1.470585 0.023902 -1.183344 0.720028 1.472967 1.020833 -1.145241 -0.780001 -0.344845 -0.041360 0.474079 -0.524633 2.114567 0.261157 1.139242 -0.405709 0.191318 0.522096 -1.020295 0.418098 -0.388870 -0.235103 -0.217894 0.786672 -1.169151 1.282319 0.987020 1.141191 -0.528544 -1.261166 0.873430 0.686348 -0.205004 -1.021467 1.385208 -0.068318 -0.475500 0.303975 -1.268697 1.327970 0.272165 -0.433269 0.287411 0.705482 0.476164 0.034819 -0.784464 -0.230199 0.179470 -0.884896 0.087736 0.925049 -0.748187 0.622340 -0.678046 0.177083 -0.521554 -0.090907 0.277590 -0.058312 0.011615 0.460777 0.357955 -0.298909 0.200125 -0.000415 1.103779 0.070184 0.258325 1.234775 1.598607 0.122833 0.026158 -0.333169 0.014568 -0.118666 -0.109939 0.201789 -0.628080 0.097716 0.537942 0.465799 0.403042 0.145227 0.578612 0.131048 -0.575819 0.652463 -1.122998 -0.767510 -0.808051 -0.812755 -0.296888 0.559478 1.020173 0.007743 -0.227129 0.574099 -0.775184 1.207530 0.687902 0.695022 -0.330336 -0.063342 0.374636 -0.388296
do -0.021061 0.787035 -0.098433 0.030453 1.044777 0.199352 0.392473 -0.780299 -0.553286 -0.009302 -1.864786 0.522402 0.240222 -0.842981 0.082130 -0.873080 -0.391185 0.361190 0.890159 1.167405 -0.253490 1.913022 0.667734 1.398963 0.244141 0.503765 -1.238784 -0.064569 -0.602090 0.610861 -0.945753 0.067018 1.251654 -0.543003 0.878712 -1.000297 0.714327 -0.021539 -1.617658 -0.623384 -0.423251 -0.135994 0.593759 1.517870 -0.005035 -0.858528 -0.638032 0.591299 0.238296 -0.847740 0.627080 0.868476 0.094072 0.739959 0.425637 -0.085492 -1.202542 0.783043 0.644178 1.382380 -0.169561 1.558984 1.118630 0.512819 -0.899476 -0.675766 -0.376612 -0.003818 -0.270204 -0.370827 -0.805773 -0.249082 0.177479 -1.376155 -0.367329 -1.546912 0.096579 0.657720 -0.601732 0.304903 -0.586707 -0.924462 1.423840 -0.091346 0.130902 -0.805878 0.888411 -0.199982 -0.493511 0.327249 1.056674 1.301616 -1.243620 -1.048187 -0.099451 0.768903 0.401673 0.493165 -0.528916 0.218247 -0.208390 0.608351 0.772873 -1.087130 0.554299 1.051101 0.295062 -0.065717 -1.114594 0.110589 0.402741 0.348127 -0.752068 0.601965 -0.301427 -0.611918 -0.230531 0.341372 0.162382 0.872265 0.184155 -0.751315 -0.143186 -0.793802 0.615635 -0.582802 -0.468845 -0.085440
your -0.527656 -0.432981 0.297252 -0.226883 -0.957039 1.053225 0.209954 0.499076 0.461806 -0.003363 -0.113584 -0.783832 -0.241531 0.905380 -0.802830 0.315574 -0.422654 -0.882570 -0.109896 0.220478 -0.246664 -0.558566 -0.422782 -0.002081 -0.558320 0.333311 0.186532 -0.196578 0.014986 -0.571548 -0.143460 0.436321 0.644296 0.106592 0.355640 -0.226681 -1.060074 -0.762922 -0.372946 -1.147189 -0.421996 -0.938660 -0.026430 1.055017 0.006343 0.566853 0.808484 0.144433 -0.271014 -0.681288 -0.060699 -0.003870 1.006373 -0.681057 -0.804861 0.347303 -0.027603 -0.649324 -0.039563 0.201180 0.219828 1.330364 -0.175367 0.124034 -0.170215 0.106392 -0.350438 -0.166026 -0.892035 -0.216760 0.005095 -0.645032 -0.184890 0.177740 0.633073 0.069813 0.151598 -0.421461 -0.072798 -0.693619 -0.753104 -0.848737 -0.230464 -0.070399 -0.481605 -0.544660 -0.214425 0.377815 0.047291 1.351914 0.155735 0.326945 0.276224 -0.328083 0.132111 0.419859 0.506312 0.242378 -0.899946 -0.605989 -0.563857 -0.966475 -0.862268 0.130932 0.115533 0.178433 -0.518078 0.322249 -0.763633 0.325265 -0.954778 0.253823 0.015210 -0.173894 -0.848453 0.377328 -0.829022 -0.503426 -0.291163 -0.631144 0.374724 -0.478615 -0.154299 0.975788 -0.016333 0.866738 -0.249922 0.574216
now -0.094638 0.329995 0.283529 -0.149052 0.304254 0.486936 0.934947 0.168202 0.059448 0.407630 0.442332 0.105082 -0.759391 -0.251384 -0.008028 0.436924 0.405148 0.004488 -0.421029 0.142407 0.877563 -0.042629 0.055986 0.064146 -0.159845 -0.101770 -0.338082 0.163612 0.642059 -0.148978 0.574469 -0.043064 0.067406 -0.610844 0.536893 -0.027378 0.404337 0.577196 0.263487 0.368815 -0.327409 0.066897 -0.425578 -0.147038 0.168140 -0.318482 0.230274 -0.447055 0.309735 0.155043 -0.539199 0.332305 -0.210397 0.293361 0.315807 -0.170976 -0.188731 -0.173204 0.033954 -0.084120 0.630563 0.457986 -0.001906 -0.255178 -0.131132 0.090634 -0.084893 -0.491547 0.279861 0.318008 -0.185653 0.059499 0.340183 -0.498689 0.023543 0.033149 -0.155442 -0.050731 0.717663 -0.400166 0.347326 -0.691252 -0.160693 -0.135199 -0.172517 -0.227447 0.050444 0.386252 -0.168343 -0.087941 0.352654 0.230686 0.051622 0.343525 0.159155 -0.078359 0.214180 -0.168295 -0.192594 0.439979 -0.319644 0.397168 -0.306695 -0.660959 0.192303 -0.112736 0.132924 -0.219421 -0.849923 0.525708 -0.135584 -0.067824 0.025005 -0.087574 0.061286 -0.251204 0.266628 -0.234120 -0.004548 -0.361835 -0.413624 0.081866 -0.209113 -0.709875 0.707556 -0.238286 0.145440 0.112348
out 1.086488 0.490876 -1.170351 0.341473 0.560789 -0.240409 -0.069598 0.350204 0.602055 0.925127 1.669010 0.209267 -0.340307 0.359276 0.347291 -0.441778 1.114797 -0.100867 0.373894 -0.945440 0.922913 0.473733 0.016695 0.868014 -0.694705 -0.023017 1.300705 0.013813 -0.377333 0.186174 -0.203458 0.724306 0.411855 0.026509 -0.212390 1.301435 0.523631 0.232971 -0.713031 0.719099 -0.619760 -0.258559 0.362817 0.756001 0.049066 0.293217 -0.257851 0.198381 -0.291934 -0.411371 0.544797 -0.277573 0.904083 -0.105393 -0.364358 -0.150157 -0.225231 -0.070870 0.806881 -0.304749 -1.174449 -0.853450 -0.380933 -0.725066 -0.063129 0.456050 -0.242271 0.976776 0.351576 0.401503 0.818992 0.527055 0.022205 0.096970 0.485500 0.934763 -0.709355 -0.985357 -0.321944 0.105096 0.242547 0.864797 0.543314 0.520029 0.327019 0.323575 2.082183 -0.374064 -0.938319 0.812054 -0.425024 0.524636 0.366502 1.042403 0.756619 0.777658 0.232525 1.306136 0.145038 0.511576 0.887719 0.664148 -0.048711 -0.351561 0.284824 -0.617308 -0.518432 -0.014917 0.481366 -0.335730 -0.087997 -0.587276 0.004888 0.826688 -1.092449 0.213954 -1.166542 -1.211098 0.142527 0.925808 -0.622432 -1.251543 0.137421 0.015097 1.203041 0.062490 1.885757 -0.217077
more 0.211810 -0.803044 -0.029853 1.107705 0.325711 0.223602 0.366152 0.656297 -0.050345 -1.150199 0.304788 -0.146167 0.784952 -0.563020 -0.592624 -0.207399 0.217745 0.922378 -0.120501 0.790427 -0.403117 0.318477 -0.462525 0.254162 -0.282673 -0.904384 -0.463363 0.132852 1.180694 0.501776 -1.001004 -1.225248 -0.699002 0.348194 -0.732814 -1.232107 -0.684990 0.218023 0.052379 0.100568 -0.467781 0.291894 1.273557 -0.482351 -0.314402 0.264770 0.945496 -0.978239 0.124105 -0.084731 -0.208714 -0.486013 -1.951764 1.054797 -0.062406 0.166524 -0.292499 0.354240 -0.690450 0.157624 -1.509097 0.294426 0.057221 -0.768585 0.647362 -0.525138 -0.210287 0.410641 0.103414 -0.746819 0.609144 -0.256289 0.315560 -0.011831 -0.124898 -0.362286 -0.389262 0.076553 0.551060 0.723061 0.076347 0.386658 -0.971508 1.319532 0.459634 -0.553598 0.114256 -0.236405 -1.162230 1.104606 -0.906264 -0.106870 0.577341 -0.981747 0.350351 -0.429114 0.067289 -0.505142 -0.332808 0.641587 -0.596057 -1.227731 0.920345 0.827116 0.689355 0.363700 0.325294 -0.098639 -1.697274 -0.788610 1.105558 0.887608 0.738599 0.424360 0.757986 1.146915 0.180623 -0.508390 -0.493169 -0.368811 1.125085 0.945145 0.101121 -0.537932 0.193580 0.334791 0.398170 0.292119
up 0.847478 -0.085499 0.056708 0.354445 0.235007 -0.127963 -0.211421 0.054954 -0.585070 0.577343 0.718540 0.441988 -0.335627 0.766861 0.636753 1.422953 0.947807 0.176795 -0.203536 -0.283455 0.588411 1.005195 0.383771 0.664702 -0.306237 0.383499 0.112272 0.702706 0.684275 0.462283 0.269389 -0.221838 0.394089 -0.281268 0.070760 0.241040 -0.051737 -0.260445 0.218832 0.389300 -0.397523 -1.149844 0.134154 0.286871 -0.853820 -0.380369 0.133039 -0.132647 -0.423642 -0.919702 0.332399 -0.128526 0.542162 0.669566 -0.634966 0.297034 -0.390179 -0.086240 0.419169 -0.546831 -0.538896 -1.254624 0.557135 -0.943349 -0.185806 0.152603 -0.460859 0.567818 0.680117 0.844291 0.578326 0.683899 0.010291 0.034486 -0.095047 0.300297 -1.788887 -0.006731 0.396806 -0.974215 0.437766 -0.369150 -0.182498 0.825724 0.487005 -0.708897 0.990575 -0.163437 0.412726 -0.061256 -0.130466 1.028055 -0.286155 0.739753 -0.709722 -1.117658 -0.338250 0.363777 0.422525 0.510307 -0.623717 0.246151 -0.082202 -0.056234 0.634971 -0.283680 0.650497 -0.224737 -0.285759 0.488391 0.573535 -0.911652 -0.861529 -0.674787 -0.972192 -0.546110 -0.582710 -0.754905 0.143776 0.585402 0.177922 0.070214 0.099406 0.304379 0.406813 -0.031698 1.703676 0.255147
man 0.770309 0.599591 0.076714 -1.262766 -1.247446 0.471717 1.408652 0.134355 0.730383 -0.076949 0.055382 -0.947812 -0.462376 -0.713651 0.116592 0.075960 -0.210024 -0.925766 -0.150403 1.048945 0.346369 -0.567652 -0.048707 0.807016 -0.103595 -1.147937 -0.658833 1.223515 0.592855 0.170465 0.259944 -0.998128 0.270052 0.437622 -0.724508 0.908313 0.646069 -0.539678 0.225655 0.101922 0.382800 0.879929 -0.399929 0.422533 0.659745 1.597400 -0.963539 0.950659 -0.804010 -0.290645 0.057876 -1.380406 -0.860028 0.827614 1.114558 -0.106547 -0.808326 -0.430459 0.167135 -1.522354 -0.951571 -0.281383 0.894593 -1.021349 0.211201 0.235847 0.120410 -0.707895 -0.587234 -1.373955 0.159728 0.206068 -1.185413 -0.331802 -0.910413 -0.163181 0.533157 -0.756235 -0.201607 0.680977 -0.089226 0.201336 -0.160396 0.102689 -0.369800 0.558951 0.678335 -0.648106 -0.616239 -0.024214 -0.651007 -0.455529 0.329639 0.925617 0.445655 -0.353880 -0.126795 -0.314907 -0.125242 -0.229069 -0.186833 -0.508388 0.320218 0.882825 0.088170 -0.070464 0.275012 -1.105812 0.614555 -0.394415 -0.650443 -0.561675 0.057505 -0.632759 0.744555 0.686116 1.058192 0.860380 -0.287896 -0.451034 -0.244850 0.124176 0.650533 -0.488224 -0.412302 -0.564926 -1.625881 -0.160924
into 0.178300 0.569668 -0.117616 0.806027 -0.195674 0.088099 -1.139347 -0.776024 -0.425397 1.418897 -0.237234 0.367597 0.535185 0.294861 -0.373796 0.207949 1.072232 -0.122584 -0.268748 -0.743527 0.106802 0.967754 -0.123756 0.719893 0.030106 -0.455933 0.241157 0.681829 -0.459816 0.946341 0.562813 0.692994 -0.243983 1.277630 0.136219 0.554438 -0.604512 -1.385619 0.167878 -0.577915 -0.346855 1.016684 -0.153253 0.451269 -0.288116 -0.462292 0.270636 -0.209816 0.210989 -0.039943 -0.330278 -1.045406 -0.634018 1.411157 -1.340736 1.106997 0.731797 0.127059 -0.327099 -1.147432 -0.249014 -0.001532 -0.355386 -0.445162 0.235808 -1.837582 -0.118755 0.217082 0.108938 -0.263645 -0.524203 -0.023974 0.519483 -0.595724 0.649948 -0.219744 -0.040008 -0.243906 -0.931492 -0.185574 0.663530 0.289976 0.399796 0.099078 0.871369 0.535386 1.298345 0.101659 -0.304628 0.904456 -0.416999 0.230051 -0.509470 0.026385 -0.381661 -0.549733 -0.008972 0.548492 0.705171 -0.227209 0.501196 -0.472484 0.036904 0.503372 -0.483845 -0.717678 -0.612432 -0.099597 -0.100065 0.364316 0.347291 -1.654529 -0.281213 0.130453 0.635966 -0.492168 -0.225934 -0.170518 -0.339280 0.907772 0.173062 0.318632 0.033196 -1.017775 -0.437335 -0.440800 1.478070 0.300169
some -0.573094 -0.306895 0.040748 0.619800 0.178624 0.271824 -0.480601 0.264089 1.880891 -1.313020 1.236615 0.153368 0.895154 0.346919 -0.077792 -0.238943 -0.393646 -0.245539 -0.940258 -0.867378 -0.417371 0.063762 0.426035 0.178032 0.914424 0.648189 -0.051619 -0.050608 -0.058662 -0.992700 1.049004 0.746634 0.939769 -0.260615 -0.836349 0.001435 -0.446934 -0.344704 -0.161445 0.090173 -0.517836 -0.190688 -0.228906 0.224681 0.748081 -0.243857 -0.456863 -0.190600 0.165014 -0.581122 0.737713 0.233452 0.056909 -0.211332 0.114969 -0.323074 0.039563 0.650049 0.845495 -0.006716 -0.638424 0.142402 0.249421 0.275247 -0.518166 0.740248 -0.223213 -0.343284 -0.842155 1.275768 -0.150736 -0.033221 0.195675 0.880169 0.177961 0.518345 -0.590557 0.367674 -0.260579 -1.189205 0.113513 -0.588647 0.540047 0.084166 0.634418 -0.389987 -0.086081 -0.636159 0.139518 0.759258 0.091568 0.232372 0.272953 -0.193650 0.325310 -0.066961 -0.276286 -0.357334 0.105066 0.221799 -0.420803 -0.576986 0.542457 0.290012 -0.613337 0.320926 -0.658527 -0.127605 -0.555031 0.129628 0.152437 0.383227 0.067378 0.665764 -0.480548 0.052725 0.497118 -0.298356 -0.637606 -0.982277 0.623582 0.159666 0.254430 0.257679 0.464226 0.438707 0.226057 0.156917
could 0.997637 0.693552 -0.355612 0.488108 -0.715100 1.486691 -0.323134 -0.730153 0.762926 0.488056 -0.260323 1.051861 1.178733 1.232132 1.691991 -1.152333 1.584672 -0.133020 -0.459106 0.548069 -1.310751 0.064966 0.451907 1.388949 0.137318 -0.767335 0.257476 -0.846664 0.397383 -0.199419 -1.091978 -1.198904 -0.259776 0.254563 -0.064385 -0.119459 -0.016599 0.302594 -0.046819 0.119123 0.147001 0.788980 -0.394594 0.706192 -0.678963 -0.003953 0.427379 0.002956 0.402403 -0.204053 0.361408 -0.102792 0.573084 0.635309 -0.409341 0.097343 0.426819 0.891077 0.261286 0.407804 0.356035 0.500223 -1.199721 1.037809 -1.257923 -0.017291 0.479036 -0.830558 0.183124 0.486385 1.142172 -0.471808 -0.238713 -0.475210 -0.286039 -1.068648 -0.537210 0.911544 0.152908 -0.226398 0.343658 1.084061 1.288312 -1.322073 0.308302 -0.782087 -0.634660 -0.421332 -0.481101 0.670320 0.190099 0.137018 -0.333651 -0.199776 -1.594211 0.742632 0.680346 0.172681 -0.451419 0.806941 0.299388 -0.883697 -0.502622 0.526101 -0.608042 -0.577087 -0.478963 -1.429841 -0.401918 0.504673 -0.065671 0.495470 0.917393 -0.228335 0.180808 -0.322183 -0.377514 0.345526 0.142455 0.971638 -0.791669 -0.105038 0.677751 -0.208982 0.385085 0.727371 -0.865198 0.331571
has -0.389326 -0.143914 -0.289585 -0.395384 -0.118297 0.879208 -0.917394 -0.213499 -0.428212 0.405638 -1.344387 0.299223 0.399681 0.215586 1.200357 -0.070271 1.027252 -0.506483 0.596106 -0.027576 0.033708 -0.312231 -0.553431 0.020023 1.005155 -0.093031 -0.285654 -0.670041 0.503214 -1.310825 -0.226472 -0.113985 1.259012 1.108400 -0.997145 -0.271105 -0.954327 0.216460 0.626372 0.313921 0.602164 -0.271022 -0.423982 0.386030 -0.189533 -0.957080 0.623489 0.964645 -0.249348 -0.256216 -0.563284 0.909075 -1.194007 0.562977 0.323058 0.437202 -0.075510 0.471171 -0.531700 -0.047366 0.276703 -0.865423 -0.373176 0.341044 0.008743 0.211989 0.070320 -0.094346 -0.220412 -0.420041 -0.708262 0.175178 -1.338570 -0.083736 -0.215853 -0.650366 -0.479823 -0.273308 -0.581037 0.611819 -0.546959 0.837136 -0.319730 -0.624104 -0.020445 -0.267457 -0.220948 -0.084011 0.627219 -0.445058 0.182812 -0.462123 0.169203 -0.084979 0.236324 1.001511 0.902395 0.504552 0.135514 -1.216346 -0.467305 0.819740 -0.475020 -0.735808 -0.420978 -0.046857 -0.270088 -1.741137 -1.031281 -0.448829 0.038420 0.518421 1.320239 0.240958 1.095924 -0.483014 0.057090 0.152050 0.103512 0.673440 -1.442734 -0.790592 1.041375 -0.800196 -0.224761 -0.422827 0.522690 0.377410
only 0.199126 1.007730 0.132545 0.448936 -0.177847 0.271546 0.184990 -0.262487 0.990417 -0.103873 -0.001469 0.214684 0.233911 0.429255 -0.105982 0.361470 0.398117 0.534106 0.178869 0.147704 -0.061657 0.098606 0.152895 -0.594125 -0.662374 0.237710 -0.028734 -0.231406 0.129921 -0.829176 0.001339 -0.139512 -0.427370 0.641655 0.433843 -0.534769 -0.123411 -0.226083 -0.191849 -0.037256 -0.728819 -0.073934 -0.164212 -0.361074 0.866930 -0.554947 -0.445432 -0.294046 0.080016 -0.323590 -0.193426 -0.410071 -0.467975 0.582253 -0.369535 -0.403252 0.061638 -0.571709 0.192354 0.250161 -0.237331 0.450314 -0.151949 -0.063359 -0.491427 -0.183238 -0.106644 0.182724 0.356397 0.385985 0.168329 0.424411 0.673739 0.353410 -0.483281 -0.048560 -0.063520 0.316242 0.014810 0.675380 -0.324767 -0.587000 0.222564 0.070686 -0.355478 -0.325863 0.097043 -0.588879 0.421625 0.513788 0.157592 -0.428235 0.266773 0.206820 -0.544849 -0.225597 0.601859 -0.104098 -0.251660 -0.041666 -0.526886 0.383052 0.599523 -0.154704 0.217613 0.150291 0.014107 -0.706896 -0.225287 0.745340 0.620608 -0.112065 0.750020 -0.492330 0.295397 0.034948 -0.033240 0.149591 0.063442 -1.255122 -0.791919 -0.007947 -0.296565 0.423473 0.601167 -0.276174 -0.782809 -0.091536
any -1.012405 0.209614 1.021930 0.193411 -0.143618 0.742483 -0.812065 0.495621 0.875476 0.318007 -0.232041 0.105692 0.619651 0.839765 -0.562989 -0.580075 -0.137248 -0.860718 -0.392025 -0.032707 -0.180580 -0.212758 0.082063 -0.735174 -0.163461 0.946588 -0.053919 0.890844 -1.764442 -1.408761 -0.033179 0.444861 0.563687 -0.467749 -0.823943 0.307448 -0.318273 -0.217061 -0.134534 -0.054730 -0.446731 0.228191 0.489227 -1.298808 0.419308 -1.202341 -0.208285 0.085394 -0.073994 -0.931305 1.212748 0.423701 0.189832 -0.480057 -0.027880 0.317374 -0.554592 0.432985 0.557904 0.645270 0.244384 -0.687077 0.506479 0.872781 -0.655536 0.736173 0.797721 -0.226829 -0.599847 0.342898 0.775490 -0.294475 0.975277 0.568695 -0.521925 -0.422439 -0.227665 -0.722918 0.170122 -0.434164 -0.401194 -0.617415 0.645581 0.297539 -0.318089 0.279231 -0.306650 0.313744 0.081533 -0.151144 0.359706 -0.315025 -0.330654 -0.396375 0.639034 0.937974 -0.466056 -1.041462 -0.231781 -0.349120 0.594989 -0.061980 0.722601 0.798787 -0.738963 0.592579 -0.731073 -0.106836 -1.562041 -0.099619 -0.227546 0.094565 -0.189637 0.821099 -1.372754 -0.344983 -0.380544 0.516150 -1.228550 -0.632131 0.098100 0.259787 -0.218800 0.735186 0.419333 1.636071 -0.760751 0.407153
very -0.178849 0.870985 -0.139613 1.090001 -0.518696 -0.265133 0.701854 0.027342 -0.159448 -0.894288 0.277664 -1.140309 0.103295 -1.220338 -0.669660 -1.486719 -0.261029 1.368751 -0.059602 0.287251 0.029956 -0.231741 0.696212 -0.163508 0.107606 -0.723447 0.365598 0.101508 -0.813601 -0.468345 -0.285779 -0.498003 0.362406 0.536868 -0.868069 0.264826 0.249776 0.046444 -0.501739 0.219624 0.242910 -0.114383 -0.425536 -0.078076 0.550344 1.039597 0.997294 -1.162761 0.307992 -0.467059 -0.418418 -0.270341 -0.325683 0.584446 -0.459156 0.605639 -0.178511 0.023437 0.608414 -0.352003 -0.395773 -1.056385 -0.135695 -0.396863 -0.405015 0.031982 -0.338506 0.043359 0.295334 0.058430 -0.266943 -0.481695 0.196876 -0.447287 -0.357887 0.474760 -0.545341 0.186322 0.029299 0.310693 -0.557626 -0.298023 0.026054 0.216944 0.322770 -0.609354 -0.131169 -0.613465 0.545151 -0.322508 -0.743346 -1.084855 0.809083 -1.247531 -0.527348 0.059716 -0.581341 0.567933 -0.695863 -0.378861 -0.590968 0.433884 -0.040481 -0.405910 -0.078600 0.509951 0.170263 -0.043158 -1.038352 0.340431 0.008632 -1.382161 0.431413 -0.593734 -0.503643 0.921320 -0.230736 0.065053 0.383697 -0.859300 0.783301 -0.408566 0.664485 -0.485911 0.416106 -0.435449 -0.201175 -0.412848
like 0.791705 0.645035 -1.170902 -0.678411 -0.711232 0.448524 0.047331 0.102994 0.743937 1.004957 -0.386231 0.227209 -0.022444 -0.442861 0.765998 -0.275050 -0.070827 0.317811 0.030477 -1.020541 0.840935 0.598350 0.969768 -0.791900 -0.093508 -0.316442 -0.417900 -0.539160 -0.211860 0.209683 0.341222 0.394362 -0.314209 -0.247770 0.185197 0.583326 -0.560169 0.502881 -0.597048 -1.049764 0.289970 0.852910 -0.727406 -0.759753 -0.075747 -0.018054 1.071160 0.253478 0.158119 -1.051016 -0.256621 -0.763390 -0.165700 -0.335459 0.231659 0.771454 0.581473 -0.148325 -1.048736 -0.311147 0.163323 -0.907535 -0.400544 -0.320233 0.135986 -1.025506 0.340160 -0.338398 0.212631 -0.481319 -0.389176 -0.928945 0.674482 -0.001048 0.107142 -0.473973 -0.066890 0.605789 -0.010513 -0.299008 0.130202 -0.187475 -0.129597 0.799248 -1.038856 -0.513950 0.987627 0.775034 -0.566133 -0.482095 0.474523 -0.139046 0.541296 -0.060563 0.784396 0.653258 -0.093280 -0.231071 0.228896 0.634338 0.552348 0.090859 -0.044800 0.180317 0.424720 -0.689525 0.033876 -0.728258 -0.630231 0.942777 0.548583 -0.059527 0.981254 -0.323613 0.484213 -0.030042 -0.086029 -0.263308 -0.220090 0.258815 -0.288565 0.156946 -0.657013 -0.517225 -0.039330 0.148515 0.229989 -0.209712
did 0.855272 0.818821 -0.080673 0.135826 0.689636 0.818236 -0.325722 -1.771404 -0.826615 0.822059 -0.059363 -0.247635 -0.094178 0.153189 0.979607 -0.621493 0.279622 0.837783 -0.154410 0.690341 -1.164409 0.951014 0.466908 1.479053 -0.458171 0.136002 -0.074812 -0.042158 0.121590 -0.519650 -1.660960 -1.101402 0.324192 -0.197046 0.265999 -0.004657 -0.402539 0.943322 -0.553808 0.520843 0.668543 0.611776 -0.124213 0.725712 -0.190173 -0.789432 0.082963 0.272426 0.624906 0.571511 0.079417 1.041178 0.041008 0.135336 -0.178951 0.524632 0.060570 0.428614 0.606501 0.925800 0.655088 0.222065 -0.434856 1.975106 -1.377952 0.412820 0.644882 -0.462722 -0.632462 0.283454 0.455617 -0.087394 0.018683 -0.221523 0.013011 -1.277004 -0.141575 0.233806 -0.516362 1.013777 0.587091 0.694467 0.744137 -0.072574 0.016306 -0.417947 -0.505902 -0.442113 -0.014955 1.212832 1.105340 -0.291449 -2.130381 -0.113624 -0.453644 0.935478 0.680623 1.001074 0.336780 0.334074 -1.148656 -0.953412 -0.100705 -0.049198 -1.167304 0.163451 0.444602 -1.148205 -1.072568 -0.652811 0.958112 0.219124 0.734515 0.778748 0.257273 -0.343119 -1.053390 0.428083 0.140003 1.811137 -1.083994 -0.102883 -0.085109 -0.869586 -0.430977 -0.523665 -0.438656 -0.067005
time 0.531388 -0.249420 0.789434 -0.903421 1.189492 -0.408086 0.699791 -0.397856 -1.878913 -0.458878 0.906243 0.974344 -0.759615 -1.289470 0.930740 0.368159 -0.076446 1.097974 -0.050573 -0.735670 -0.065206 -0.397739 -0.648333 0.123972 -0.099467 -0.084776 -1.607285 0.581336 -0.592172 0.565272 -0.082560 -0.151344 -1.076957 0.328021 0.513346 0.090578 1.110831 1.171467 0.053221 -0.380654 -0.205945 0.504038 -0.385833 -0.253582 0.742511 1.496632 -0.424602 -0.206459 -0.885419 -0.522563 -0.044880 -0.638937 -1.486190 -1.112646 0.349589 -0.088709 -0.434111 -0.391841 0.465158 0.100965 0.255699 0.322597 -0.715664 -0.431255 0.379800 -0.599571 0.787787 -0.078427 0.251230 -0.240122 1.206607 -0.207483 0.384802 -0.177841 -0.509461 -1.746589 -0.684296 -0.477891 -0.910663 0.248142 -0.988096 -0.506992 -0.402460 0.316263 -0.020030 0.362088 0.012063 -0.842945 -0.177115 -0.589894 0.702551 -0.571545 1.371397 2.386408 -0.053961 0.710560 0.194154 -0.233515 -0.420665 -1.153404 -0.880361 0.247941 0.414644 1.527726 -1.357374 -0.206300 -0.177087 0.101239 0.112578 0.648270 -0.291824 -0.816431 -0.818764 0.550509 0.514487 -0.196816 1.153304 0.329204 -0.215139 -0.158862 -0.514776 0.381941 0.707797 -0.497025 0.627069 -0.132611 -0.301433 -0.990690
its -0.610651 -0.553682 -0.478225 -0.521351 -0.500881 0.748589 -0.156310 -0.661558 0.856116 -0.458143 0.252015 -0.135700 0.497134 1.064481 -0.176654 -0.282482 -0.509132 0.243345 -0.186665 0.730669 -0.042766 0.064246 -0.271096 0.169108 -0.039027 0.665922 -0.283013 -0.292494 -0.365317 -0.740477 -0.661665 -0.048410 1.073673 0.121752 0.213699 0.051183 -0.346199 -0.526929 0.502745 -1.040739 0.289535 0.277935 0.004666 0.374067 -0.116109 0.352424 0.351104 0.509204 0.443170 -0.609161 0.220726 0.107604 0.737482 -0.514747 -0.683483 -0.072328 0.992414 0.021490 0.802969 -0.699144 0.076408 0.333989 0.082926 0.387108 0.686404 0.895590 -0.129691 -0.485732 -0.014066 -0.024609 0.186128 -0.743893 0.396888 0.530951 -0.248243 -0.445578 1.076768 -0.247820 0.098795 0.355087 -0.056772 -0.972779 -0.181981 0.678595 0.044139 0.373272 -0.213078 0.462290 0.016689 0.234248 -0.089326 0.330171 -0.175387 -0.702445 -0.135277 -0.491318 0.378152 -0.603054 0.557614 -0.418794 0.001240 -0.007642 -0.510534 -0.136893 0.285638 -0.592543 -0.419798 0.363211 -0.730243 0.480373 0.226597 -0.184434 0.244579 -0.598557 -0.054155 1.449149 -0.529859 -0.555258 0.001662 -0.608566 0.438621 -0.451220 0.707461 1.168534 -0.137369 0.432816 0.401912 0.857534
than 0.132144 0.021013 -0.697664 1.137400 0.051828 0.078203 0.164270 -0.926780 -0.259078 0.205669 -0.389876 1.461494 -0.804552 0.647729 0.165312 -0.728854 0.259952 -0.045709 -0.555214 -0.380347 -0.085258 -0.779758 0.135497 -1.560064 -0.495442 0.410188 1.157575 0.775561 -0.619112 -1.119196 -0.227665 1.477993 -0.963469 1.150906 0.453520 1.202399 0.600846 -0.577429 -1.367938 0.349579 -0.007625 0.014610 0.873562 -0.162205 -0.236438 0.734437 1.053655 0.014459 0.418587 -1.683997 -0.933192 -0.887297 0.311866 0.050997 0.348005 1.369048 0.075982 -0.732360 -0.625709 0.202623 1.718176 -0.340914 0.455928 -0.264783 0.690813 0.674773 0.415460 1.036523 -0.083476 -0.245598 -1.776841 -0.194592 -0.919810 0.514134 -0.846685 -0.703227 0.057586 0.502572 -0.806662 1.041714 0.494344 -0.353389 -0.561986 -0.235103 -0.529288 -0.362840 1.466197 -0.304447 0.532851 0.148210 -0.399846 0.087501 -0.413171 -0.095354 -0.485683 0.537132 -1.132856 -0.576024 0.404806 -0.360026 1.606737 0.502945 0.535701 -0.178722 0.001169 -1.435202 0.054195 0.926336 0.403331 -0.241298 -0.126410 0.113426 -0.036091 0.880341 0.185348 -1.116837 -0.799320 0.320728 -0.323579 -0.527727 -0.818201 -0.527128 -0.280483 -1.122300 0.586297 0.340995 -0.147780 -0.521762
other 0.165504 -0.625285 0.562990 -0.005508 0.082126 -0.385722 1.306705 0.168485 -1.399085 -0.160583 0.857250 -0.285562 0.233409 -0.032289 -1.099976 -0.337493 0.669052 -0.660876 0.163866 0.813725 -0.364649 -0.457034 0.476847 -0.366725 -0.041642 0.123901 -0.516804 0.152198 -0.476023 -0.929139 0.248234 -1.052174 0.160500 2.011337 1.418969 -1.204214 -0.825985 0.116139 0.499183 -0.263434 -0.277068 0.246677 0.671624 -0.800883 -0.733297 1.212364 -1.036718 0.651724 -1.077966 0.053310 -0.024468 -0.196746 -1.202498 -0.980728 0.162776 -0.310086 -0.632862 0.873873 1.260983 -0.458826 0.070228 0.668187 0.734072 -0.744254 -0.835779 -0.649290 -0.051058 -0.478879 -1.435231 -1.376585 0.526794 -1.202149 0.592376 -0.182852 -0.299358 0.144869 0.397959 -1.210026 0.423705 0.577368 -0.409846 0.551065 -0.466806 -1.255561 0.249102 -0.043401 0.532722 -0.764222 -0.599709 1.221630 0.078418 0.450881 0.047012 -0.028297 -0.914736 1.083401 -0.517647 -0.212164 -0.092733 0.690101 0.811365 0.780605 0.406510 1.812579 -0.545830 0.733298 -0.278738 0.191914 0.802400 -0.979991 0.508281 0.932275 0.171924 -0.492817 -0.219465 0.575924 1.062380 -0.635461 0.996735 0.757339 0.735843 -0.853579 -0.775385 -0.666038 1.297582 -0.054438 -0.145815 0.102467
before -0.118882 0.277000 0.293280 0.929748 0.165311 -0.312996 -0.056762 -0.810916 -0.557009 0.310472 0.458422 -0.522346 -0.229985 -0.917836 0.585617 -0.620037 0.573786 -0.165272 0.406925 -0.106650 -0.460791 0.338595 -0.399778 0.061193 0.166810 0.192897 0.308134 0.709175 0.265736 -0.544667 -0.422684 -0.354973 -0.550392 0.116814 1.194467 -0.014994 0.441716 0.373941 0.317024 -0.002738 -0.144885 0.149276 0.112834 -0.468811 0.857808 -0.537934 -0.130923 0.045548 -0.043965 0.374385 -1.359410 -0.163865 0.049191 -0.203007 0.285954 -0.239572 0.429178 -0.453071 0.065148 0.380028 0.366807 -0.204791 -0.509099 0.577468 0.083594 -0.142316 0.423681 -0.044010 0.244073 -0.467537 -0.319284 0.133578 -0.243118 -1.056487 0.516266 0.359672 -0.680647 -0.150822 -0.087185 -0.564811 0.322912 0.411023 -1.240906 0.286240 0.464062 -1.012675 0.166781 0.370170 -0.007804 -0.330860 -0.739303 -0.594910 -1.044541 1.060520 0.823898 -0.696383 0.389489 0.023963 0.098314 -0.384003 0.500320 0.125871 0.211367 0.218986 -0.514757 -0.411374 -0.149855 -0.104421 0.140126 -0.446155 0.255182 -1.107485 0.546991 0.064952 0.762642 -0.975109 -0.453400 -0.713659 0.615097 -0.341616 -0.022595 0.290668 0.380215 -0.764499 -0.092253 -0.152126 0.195733 0.379338
about 0.182876 -0.015001 -0.648941 0.392955 0.054732 -0.692133 0.180064 -0.178770 -0.327419 0.641554 -0.237702 -0.523927 0.529928 -0.885677 0.100634 -0.044011 0.240626 0.320857 1.216148 -0.637620 -0.721024 -0.262199 -1.319444 -0.365358 -0.349176 -0.274002 -0.711594 -0.488162 0.708323 -0.324967 0.310045 0.511212 -0.625854 -0.400705 1.007157 0.211883 -0.051268 0.688321 -0.130494 -0.402432 -0.575775 -0.471178 0.053204 -0.136547 -0.344710 -0.437071 1.078126 -0.001347 0.229677 -1.232238 -0.764581 -1.377263 -0.803376 -0.386545 -0.239990 -0.317073 0.064733 0.153229 -0.106714 0.105783 0.196956 -0.267308 0.219565 -0.071743 0.243381 -0.742152 -0.395217 0.061172 -0.114203 -0.027570 0.106188 0.723165 0.206576 -0.833692 -0.088692 -0.272232 -0.549933 1.065095 -0.524544 -0.226262 -1.003780 0.115478 -0.376008 0.532748 0.840732 -1.105531 0.807442 -0.241958 -0.396177 0.408673 -0.506550 -0.608686 -0.195175 -0.380676 0.337308 0.401442 -0.305190 0.650642 0.463609 0.625256 0.199505 -0.318757 -0.544898 0.024097 0.391802 -0.641721 0.156147 0.162565 0.179160 0.633674 0.853160 0.361610 -0.562264 0.036129 0.550228 0.408961 0.343825 -0.126608 -0.288993 0.880314 0.562881 -0.330908 -0.866863 -0.197367 0.235002 0.112810 1.095246 0.190413
